~o
<STREAMINFO> 1 39
<VECSIZE> 39<NULLD><MFCC_D_A_0><DIAGC>
~h "a"
<BEGINHMM>
<NUMSTATES> 5
<STATE> 2
<MEAN> 39
 -8.407417e+00 -9.658807e+00 -1.510396e+00 -6.487307e+00 -3.610698e+00 -1.049397e+00 -4.235576e+00 -1.580684e-01 -1.744541e+00 -9.711324e-01 -1.960264e+00 1.029329e+00 6.392319e+01 3.724346e-04 -1.615284e-03 -2.966586e-03 -2.184717e-03 1.248966e-03 -1.575343e-04 -2.891898e-03 -4.877455e-04 -4.241485e-03 -4.744921e-03 -1.655979e-03 2.223379e-04 7.796801e-03 3.508260e-05 5.716340e-04 3.626330e-04 -1.357265e-04 -2.803601e-04 -1.207250e-04 -1.780287e-04 -2.391352e-04 -4.690833e-05 1.480869e-04 -7.807586e-05 -8.363000e-05 -1.476828e-04
<VARIANCE> 39
 5.124084e+01 7.719415e+01 7.425233e+01 9.626665e+01 7.835852e+01 6.132007e+01 8.221166e+01 6.249969e+01 6.832864e+01 5.771500e+01 6.093746e+01 4.206469e+01 1.263670e+02 2.534353e+00 3.447783e+00 3.092234e+00 4.539613e+00 3.887117e+00 3.515586e+00 4.213068e+00 3.858277e+00 3.653941e+00 3.519376e+00 3.256360e+00 2.658705e+00 3.413174e+00 4.191842e-01 4.973252e-01 4.814420e-01 7.212139e-01 6.682453e-01 6.344824e-01 7.377537e-01 7.142478e-01 6.620397e-01 6.534311e-01 5.911102e-01 4.995017e-01 5.085062e-01
<GCONST> 1.361189e+02
<STATE> 3
<MEAN> 39
 -8.405510e+00 -9.660963e+00 -1.519491e+00 -6.496181e+00 -3.607599e+00 -1.050547e+00 -4.247376e+00 -1.617336e-01 -1.759609e+00 -9.869445e-01 -1.967018e+00 1.029389e+00 6.395058e+01 5.926209e-04 2.616566e-04 -1.686283e-03 -2.733744e-03 2.309454e-04 -5.596065e-04 -3.591470e-03 -1.459563e-03 -4.538708e-03 -4.353851e-03 -1.947735e-03 -2.444066e-04 7.443741e-03 1.394459e-04 5.370738e-04 3.798235e-04 -1.368522e-04 -3.103696e-04 -1.317399e-04 -1.319365e-04 -3.525319e-04 -5.054538e-05 8.049279e-05 -9.596322e-05 -1.878015e-04 -1.410314e-04
<VARIANCE> 39
 5.131773e+01 7.743022e+01 7.424573e+01 9.620407e+01 7.828394e+01 6.137471e+01 8.226149e+01 6.246056e+01 6.818851e+01 5.776790e+01 6.088313e+01 4.210394e+01 1.263619e+02 2.541817e+00 3.455789e+00 3.098350e+00 4.548968e+00 3.895520e+00 3.524058e+00 4.221390e+00 3.863629e+00 3.659256e+00 3.526390e+00 3.261091e+00 2.662845e+00 3.426934e+00 4.205761e-01 4.983692e-01 4.824083e-01 7.230637e-01 6.699947e-01 6.360329e-01 7.391659e-01 7.155413e-01 6.630142e-01 6.543433e-01 5.918809e-01 5.001923e-01 5.107852e-01
<GCONST> 1.361780e+02
<STATE> 4
<MEAN> 39
 -8.411190e+00 -9.629587e+00 -1.553176e+00 -6.486228e+00 -3.614524e+00 -1.107057e+00 -4.248616e+00 -2.120611e-01 -1.750439e+00 -1.030447e+00 -1.960623e+00 1.030613e+00 6.390997e+01 1.313520e-03 2.717463e-03 -1.346218e-04 -3.976837e-03 -1.284835e-03 -1.207764e-03 -4.525942e-03 -2.979446e-03 -4.819694e-03 -3.871765e-03 -2.538581e-03 -1.217733e-03 7.079714e-03 1.369387e-04 5.201270e-04 3.366815e-04 -2.581782e-04 -3.502416e-04 -1.372452e-04 -1.203300e-04 -3.224118e-04 -1.040855e-04 7.735458e-05 -1.879025e-04 -2.096601e-04 -8.134791e-05
<VARIANCE> 39
 5.152771e+01 7.772982e+01 7.435950e+01 9.646851e+01 7.849944e+01 6.145205e+01 8.237249e+01 6.247137e+01 6.799738e+01 5.788876e+01 6.072286e+01 4.203583e+01 1.269873e+02 2.538629e+00 3.439190e+00 3.095021e+00 4.540750e+00 3.899407e+00 3.528107e+00 4.219047e+00 3.859393e+00 3.656140e+00 3.527841e+00 3.257196e+00 2.662696e+00 3.426694e+00 4.195495e-01 4.953904e-01 4.815540e-01 7.211387e-01 6.704866e-01 6.366539e-01 7.382713e-01 7.138705e-01 6.619934e-01 6.536372e-01 5.908990e-01 4.999665e-01 5.093760e-01
<GCONST> 1.361633e+02
<TRANSP> 5
 0.000000e+00 1.000000e+00 0.000000e+00 0.000000e+00 0.000000e+00
 0.000000e+00 7.209525e-01 2.790476e-01 0.000000e+00 0.000000e+00
 0.000000e+00 0.000000e+00 7.209523e-01 2.790477e-01 0.000000e+00
 0.000000e+00 0.000000e+00 0.000000e+00 8.429136e-01 1.570864e-01
 0.000000e+00 0.000000e+00 0.000000e+00 0.000000e+00 0.000000e+00
<ENDHMM>
~h "b"
<BEGINHMM>
<NUMSTATES> 5
<STATE> 2
<MEAN> 39
 -7.848823e+00 -8.131737e+00 -3.939928e-01 -8.210988e+00 -5.030077e+00 -1.659707e+00 -5.161784e+00 -5.759357e-01 -2.492720e+00 -7.161582e-01 -2.547320e+00 7.612479e-01 6.414261e+01 5.092946e-03 -1.849292e-05 -6.368535e-04 -7.317240e-04 -2.790880e-03 1.026982e-03 8.105366e-04 -2.195053e-03 -1.957263e-03 -8.216430e-05 -1.797127e-03 -1.470860e-03 2.233624e-04 -2.186313e-04 1.491340e-04 1.109651e-04 1.058451e-04 -5.943460e-05 -5.566209e-06 7.267085e-05 8.193518e-05 2.807399e-05 1.434438e-04 -2.929644e-05 5.513028e-05 -9.690702e-06
<VARIANCE> 39
 5.511409e+01 6.965456e+01 8.002802e+01 1.060394e+02 8.090037e+01 6.219408e+01 8.438212e+01 6.506437e+01 7.095000e+01 5.522713e+01 6.079146e+01 4.298324e+01 1.142606e+02 2.703771e+00 3.304585e+00 3.390450e+00 5.506278e+00 4.106001e+00 3.696136e+00 4.670762e+00 4.167895e+00 4.038018e+00 3.695019e+00 3.458234e+00 2.862087e+00 3.921456e+00 4.401560e-01 4.961840e-01 5.296101e-01 8.491639e-01 6.946511e-01 6.667814e-01 8.174257e-01 7.736657e-01 7.273576e-01 6.954471e-01 6.305199e-01 5.423387e-01 5.808250e-01
<GCONST> 1.383112e+02
<STATE> 3
<MEAN> 39
 -7.832714e+00 -8.130177e+00 -3.951185e-01 -8.212592e+00 -5.040287e+00 -1.655642e+00 -5.157872e+00 -5.834017e-01 -2.499321e+00 -7.154948e-01 -2.554073e+00 7.562743e-01 6.414315e+01 4.258537e-03 6.085992e-04 -2.643190e-04 -4.864689e-04 -2.926562e-03 1.094654e-03 1.034278e-03 -2.014108e-03 -1.809459e-03 4.403655e-04 -1.964155e-03 -1.322454e-03 2.143400e-04 -2.537271e-04 1.706865e-04 1.170200e-04 4.260982e-05 -4.267464e-05 2.561811e-05 4.271405e-05 3.069594e-05 4.659771e-05 1.497211e-04 -5.029113e-05 5.135980e-05 3.307013e-05
<VARIANCE> 39
 5.503827e+01 6.967480e+01 8.009900e+01 1.060391e+02 8.095396e+01 6.219841e+01 8.441161e+01 6.503639e+01 7.095805e+01 5.524658e+01 6.074299e+01 4.300447e+01 1.144449e+02 2.703576e+00 3.303185e+00 3.392618e+00 5.514870e+00 4.105724e+00 3.694997e+00 4.674355e+00 4.169717e+00 4.040222e+00 3.695972e+00 3.459932e+00 2.862351e+00 3.931744e+00 4.401463e-01 4.958762e-01 5.298662e-01 8.507767e-01 6.943762e-01 6.666401e-01 8.181567e-01 7.738459e-01 7.274098e-01 6.955920e-01 6.308455e-01 5.423748e-01 5.824956e-01
<GCONST> 1.383260e+02
<STATE> 4
<MEAN> 39
 -7.826181e+00 -8.090898e+00 -4.104673e-01 -8.194539e+00 -5.067148e+00 -1.688277e+00 -5.129692e+00 -6.355752e-01 -2.468039e+00 -7.286381e-01 -2.546672e+00 7.574871e-01 6.406247e+01 2.762671e-03 1.322976e-03 3.917466e-04 -1.911378e-04 -3.129721e-03 1.205579e-03 1.129598e-03 -2.051053e-03 -1.383221e-03 1.228541e-03 -2.040347e-03 -1.176791e-03 3.959531e-04 -2.695485e-04 1.006362e-04 1.112786e-04 1.898462e-05 -5.023997e-05 3.716981e-06 -1.715418e-05 -1.835154e-05 8.333780e-05 1.468920e-04 -1.531336e-05 5.578742e-05 7.866495e-05
<VARIANCE> 39
 5.511968e+01 6.952368e+01 8.029820e+01 1.064784e+02 8.134759e+01 6.208559e+01 8.454541e+01 6.508781e+01 7.102383e+01 5.530888e+01 6.077887e+01 4.288490e+01 1.154265e+02 2.687057e+00 3.275619e+00 3.380653e+00 5.493248e+00 4.088599e+00 3.680848e+00 4.655965e+00 4.152473e+00 4.025860e+00 3.685448e+00 3.451972e+00 2.854486e+00 3.920926e+00 4.369010e-01 4.910884e-01 5.269744e-01 8.460584e-01 6.903424e-01 6.639910e-01 8.146780e-01 7.696018e-01 7.245703e-01 6.931422e-01 6.288946e-01 5.403970e-01 5.794588e-01
<GCONST> 1.382263e+02
<TRANSP> 5
 0.000000e+00 1.000000e+00 0.000000e+00 0.000000e+00 0.000000e+00
 0.000000e+00 7.217709e-01 2.782291e-01 0.000000e+00 0.000000e+00
 0.000000e+00 0.000000e+00 7.217578e-01 2.782423e-01 0.000000e+00
 0.000000e+00 0.000000e+00 0.000000e+00 8.438091e-01 1.561909e-01
 0.000000e+00 0.000000e+00 0.000000e+00 0.000000e+00 0.000000e+00
<ENDHMM>
~h "c"
<BEGINHMM>
<NUMSTATES> 5
<STATE> 2
<MEAN> 39
 -8.886419e+00 -7.781034e+00 -6.224954e-01 -6.865626e+00 -4.442822e+00 -1.680169e+00 -4.252178e+00 1.123012e-01 -1.985203e+00 -4.963665e-01 -1.710295e+00 1.227773e+00 6.347028e+01 4.784202e-03 -2.831846e-03 -5.473801e-03 -7.929003e-03 -6.969366e-04 -3.317149e-03 -1.066917e-02 -4.199877e-03 -8.007885e-03 -8.242179e-03 -6.369711e-03 -4.688916e-03 1.456083e-02 -2.621058e-04 4.083416e-04 1.809794e-04 -1.388208e-04 -1.904415e-04 1.666092e-05 -2.319772e-04 -2.559877e-04 1.848946e-04 1.799854e-04 -6.061330e-05 6.370157e-05 9.189392e-05
<VARIANCE> 39
 5.437792e+01 6.699606e+01 7.052389e+01 1.004263e+02 7.857001e+01 6.285342e+01 8.544061e+01 6.375568e+01 7.140054e+01 5.522703e+01 6.111930e+01 4.173435e+01 1.161887e+02 2.731206e+00 3.208019e+00 3.003122e+00 4.721888e+00 3.865689e+00 3.678479e+00 4.472818e+00 3.894962e+00 3.763545e+00 3.558377e+00 3.270375e+00 2.751717e+00 2.952383e+00 4.396775e-01 4.659653e-01 4.738894e-01 7.126522e-01 6.497864e-01 6.560490e-01 7.765860e-01 7.178659e-01 6.768489e-01 6.620593e-01 5.914472e-01 5.179582e-01 4.248412e-01
<GCONST> 1.359894e+02
<STATE> 3
<MEAN> 39
 -8.870621e+00 -7.787287e+00 -6.417570e-01 -6.894444e+00 -4.447508e+00 -1.692189e+00 -4.290104e+00 9.731168e-02 -2.012024e+00 -5.245131e-01 -1.732301e+00 1.212788e+00 6.352197e+01 4.194508e-03 -1.220550e-03 -5.018552e-03 -8.378813e-03 -1.313160e-03 -2.866560e-03 -1.098200e-02 -4.603554e-03 -7.290679e-03 -7.323627e-03 -6.376740e-03 -4.321177e-03 1.451335e-02 -1.353296e-04 4.507755e-04 1.240467e-04 -1.255432e-04 -1.526141e-04 1.614984e-04 -1.057175e-04 -1.337952e-04 1.574628e-04 2.531254e-04 -9.805808e-06 1.048184e-04 8.328265e-06
<VARIANCE> 39
 5.459017e+01 6.701960e+01 7.067287e+01 1.004374e+02 7.865969e+01 6.303888e+01 8.540979e+01 6.383282e+01 7.128979e+01 5.517437e+01 6.103485e+01 4.175234e+01 1.156354e+02 2.745104e+00 3.217051e+00 3.012741e+00 4.743890e+00 3.874138e+00 3.691490e+00 4.483836e+00 3.905037e+00 3.774137e+00 3.565419e+00 3.276786e+00 2.758153e+00 2.957820e+00 4.417780e-01 4.671820e-01 4.755824e-01 7.153322e-01 6.510903e-01 6.582583e-01 7.784468e-01 7.195113e-01 6.786533e-01 6.632318e-01 5.926220e-01 5.191172e-01 4.248330e-01
<GCONST> 1.360633e+02
<STATE> 4
<MEAN> 39
 -8.840905e+00 -7.748491e+00 -7.004976e-01 -6.939861e+00 -4.462951e+00 -1.745666e+00 -4.344961e+00 2.491078e-02 -2.028699e+00 -5.915039e-01 -1.756098e+00 1.188487e+00 6.354491e+01 4.343921e-03 6.619875e-04 -4.771140e-03 -8.911225e-03 -2.155235e-03 -2.372297e-03 -1.140850e-02 -4.827003e-03 -6.708240e-03 -6.007016e-03 -6.689014e-03 -3.755293e-03 1.456615e-02 2.688487e-05 3.352014e-04 7.227677e-05 -1.556546e-04 -1.302313e-04 1.130693e-04 -1.458988e-04 -1.301302e-04 1.811670e-05 2.156551e-04 -1.064568e-04 3.209421e-05 9.761017e-05
<VARIANCE> 39
 5.519612e+01 6.689596e+01 7.100609e+01 1.009232e+02 7.907417e+01 6.331858e+01 8.534288e+01 6.402331e+01 7.107279e+01 5.516589e+01 6.084046e+01 4.165149e+01 1.152165e+02 2.756989e+00 3.207216e+00 3.016043e+00 4.762010e+00 3.876070e+00 3.703126e+00 4.482218e+00 3.911595e+00 3.782252e+00 3.571359e+00 3.274999e+00 2.761350e+00 2.958413e+00 4.427765e-01 4.655417e-01 4.758613e-01 7.161085e-01 6.504522e-01 6.602357e-01 7.774059e-01 7.197766e-01 6.801497e-01 6.637794e-01 5.921856e-01 5.196947e-01 4.228990e-01
<GCONST> 1.360975e+02
<TRANSP> 5
 0.000000e+00 1.000000e+00 0.000000e+00 0.000000e+00 0.000000e+00
 0.000000e+00 7.232415e-01 2.767585e-01 0.000000e+00 0.000000e+00
 0.000000e+00 0.000000e+00 7.232374e-01 2.767627e-01 0.000000e+00
 0.000000e+00 0.000000e+00 0.000000e+00 8.454980e-01 1.545020e-01
 0.000000e+00 0.000000e+00 0.000000e+00 0.000000e+00 0.000000e+00
<ENDHMM>
~h "d"
<BEGINHMM>
<NUMSTATES> 5
<STATE> 2
<MEAN> 39
 -8.073152e+00 -8.284597e+00 -3.287597e-01 -8.228825e+00 -5.205716e+00 -2.159758e+00 -5.386571e+00 -5.158758e-01 -2.463801e+00 -8.902183e-01 -2.727920e+00 7.490245e-01 6.466467e+01 -1.280430e-03 1.720433e-03 2.070863e-03 4.166024e-03 6.871937e-04 3.220510e-03 4.144569e-03 1.185350e-03 2.893394e-03 1.465946e-03 8.800372e-04 2.209952e-04 -6.689353e-03 -1.557487e-04 2.193218e-04 6.230587e-05 1.037375e-04 -2.827121e-05 1.670541e-04 1.978060e-04 1.670094e-05 4.588219e-07 2.393308e-04 1.914314e-04 7.582658e-05 -3.273851e-04
<VARIANCE> 39
 5.453437e+01 6.897324e+01 8.063607e+01 9.876331e+01 8.188382e+01 6.513944e+01 8.609787e+01 6.577750e+01 7.096301e+01 5.609397e+01 6.111893e+01 4.294053e+01 1.118334e+02 2.654933e+00 3.316608e+00 3.338429e+00 5.045886e+00 4.128006e+00 3.871086e+00 4.686384e+00 4.212709e+00 3.975347e+00 3.689868e+00 3.496918e+00 2.872365e+00 3.800457e+00 4.266234e-01 4.974849e-01 5.161011e-01 7.910227e-01 7.036099e-01 6.984168e-01 8.288375e-01 7.846351e-01 7.198043e-01 6.931204e-01 6.356316e-01 5.426242e-01 5.891979e-01
<GCONST> 1.382008e+02
<STATE> 3
<MEAN> 39
 -8.078690e+00 -8.276193e+00 -3.203413e-01 -8.213006e+00 -5.203712e+00 -2.147028e+00 -5.370172e+00 -5.117164e-01 -2.452858e+00 -8.825712e-01 -2.723291e+00 7.504259e-01 6.463755e+01 -1.761946e-03 2.488457e-03 2.241940e-03 4.520836e-03 6.607899e-04 3.795911e-03 4.732712e-03 1.236873e-03 2.937181e-03 2.274506e-03 1.496487e-03 3.445970e-04 -7.881334e-03 -1.397796e-04 2.090829e-04 4.243724e-05 9.988087e-05 9.454023e-06 1.697027e-04 1.417523e-04 2.247225e-05 3.047287e-06 2.166536e-04 1.688193e-04 2.516856e-05 -3.287374e-04
<VARIANCE> 39
 5.447547e+01 6.896689e+01 8.061204e+01 9.867796e+01 8.180146e+01 6.518330e+01 8.609512e+01 6.573720e+01 7.093797e+01 5.612783e+01 6.111081e+01 4.290130e+01 1.121320e+02 2.651648e+00 3.309943e+00 3.335674e+00 5.034826e+00 4.120657e+00 3.865880e+00 4.679270e+00 4.208026e+00 3.970001e+00 3.685818e+00 3.493060e+00 2.867763e+00 3.799028e+00 4.259466e-01 4.963776e-01 5.155507e-01 7.892912e-01 7.021700e-01 6.973155e-01 8.275688e-01 7.836110e-01 7.187176e-01 6.921890e-01 6.348363e-01 5.416983e-01 5.889766e-01
<GCONST> 1.381620e+02
<STATE> 4
<MEAN> 39
 -8.096981e+00 -8.234894e+00 -3.299820e-01 -8.177044e+00 -5.209531e+00 -2.162988e+00 -5.316359e+00 -5.441806e-01 -2.394289e+00 -8.925920e-01 -2.694119e+00 7.563696e-01 6.450947e+01 -2.375981e-03 3.373328e-03 2.427180e-03 5.117351e-03 8.958704e-04 4.696277e-03 5.314429e-03 1.217163e-03 3.075434e-03 3.262239e-03 2.272398e-03 4.922695e-04 -9.599143e-03 -1.278571e-04 1.342322e-04 1.164746e-05 1.192909e-04 7.969057e-05 1.850963e-04 9.206759e-05 1.165025e-05 8.711009e-06 1.505412e-04 1.490833e-04 2.000033e-05 -2.990000e-04
<VARIANCE> 39
 5.452027e+01 6.880169e+01 8.059949e+01 9.895220e+01 8.194888e+01 6.515367e+01 8.606032e+01 6.573506e+01 7.088154e+01 5.623869e+01 6.112812e+01 4.273252e+01 1.133145e+02 2.629151e+00 3.274011e+00 3.316748e+00 4.985451e+00 4.096037e+00 3.847579e+00 4.645224e+00 4.180454e+00 3.946146e+00 3.670076e+00 3.475218e+00 2.853867e+00 3.778062e+00 4.220366e-01 4.900985e-01 5.113715e-01 7.806687e-01 6.966907e-01 6.933904e-01 8.215751e-01 7.773368e-01 7.139646e-01 6.880984e-01 6.309246e-01 5.387884e-01 5.836241e-01
<GCONST> 1.379834e+02
<TRANSP> 5
 0.000000e+00 1.000000e+00 0.000000e+00 0.000000e+00 0.000000e+00
 0.000000e+00 7.208838e-01 2.791161e-01 0.000000e+00 0.000000e+00
 0.000000e+00 0.000000e+00 7.208803e-01 2.791197e-01 0.000000e+00
 0.000000e+00 0.000000e+00 0.000000e+00 8.427519e-01 1.572482e-01
 0.000000e+00 0.000000e+00 0.000000e+00 0.000000e+00 0.000000e+00
<ENDHMM>
~h "e"
<BEGINHMM>
<NUMSTATES> 5
<STATE> 2
<MEAN> 39
 -8.041419e+00 -8.340038e+00 -8.412666e-01 -8.119402e+00 -4.746457e+00 -2.308692e+00 -5.493649e+00 -1.962818e-01 -2.012367e+00 -7.211144e-01 -2.716616e+00 7.679102e-01 6.466541e+01 -2.032702e-03 3.772518e-03 2.851793e-03 4.834551e-03 4.732426e-04 3.544596e-03 4.428240e-03 1.962979e-03 2.935336e-03 3.344931e-03 1.502463e-03 3.097472e-04 -9.101277e-03 -8.336105e-05 1.350502e-04 2.503790e-04 1.484058e-04 -6.882961e-06 1.750002e-04 1.895344e-04 -6.959779e-05 1.163487e-05 1.277156e-04 1.658312e-04 -1.346692e-06 -3.182141e-04
<VARIANCE> 39
 5.584505e+01 6.725520e+01 8.001884e+01 1.009212e+02 8.401315e+01 6.732056e+01 8.617760e+01 6.484910e+01 7.143920e+01 5.703325e+01 6.204489e+01 4.322335e+01 1.114797e+02 2.748626e+00 3.288239e+00 3.248348e+00 5.101305e+00 4.149136e+00 3.852414e+00 4.603010e+00 4.169136e+00 3.914862e+00 3.698529e+00 3.488019e+00 2.865641e+00 3.439395e+00 4.407311e-01 4.998901e-01 5.049464e-01 7.968975e-01 7.021039e-01 6.877907e-01 8.080400e-01 7.762267e-01 7.087092e-01 6.913297e-01 6.271548e-01 5.393326e-01 5.293248e-01
<GCONST> 1.379886e+02
<STATE> 3
<MEAN> 39
 -8.049108e+00 -8.325475e+00 -8.297107e-01 -8.102316e+00 -4.745263e+00 -2.294554e+00 -5.477381e+00 -1.900380e-01 -2.001985e+00 -7.085228e-01 -2.710964e+00 7.687144e-01 6.463181e+01 -2.268082e-03 4.217184e-03 3.716997e-03 5.321533e-03 4.175823e-04 4.147096e-03 5.073635e-03 1.600583e-03 2.975743e-03 3.749396e-03 2.054425e-03 3.035434e-04 -1.018575e-02 2.425659e-06 1.474068e-04 2.484737e-04 1.653214e-04 -1.751241e-05 1.251751e-04 2.445661e-04 -1.520282e-04 1.076679e-04 9.736786e-05 1.583018e-04 -4.168777e-05 -3.798999e-04
<VARIANCE> 39
 5.581001e+01 6.731625e+01 7.994064e+01 1.009319e+02 8.389774e+01 6.733757e+01 8.620018e+01 6.478594e+01 7.134425e+01 5.703672e+01 6.203057e+01 4.317307e+01 1.117843e+02 2.745337e+00 3.282716e+00 3.243672e+00 5.092101e+00 4.141740e+00 3.845913e+00 4.596991e+00 4.161822e+00 3.910869e+00 3.694414e+00 3.484591e+00 2.861316e+00 3.431252e+00 4.401678e-01 4.989448e-01 5.041963e-01 7.952208e-01 7.008674e-01 6.864846e-01 8.066922e-01 7.748756e-01 7.080054e-01 6.904590e-01 6.264849e-01 5.384663e-01 5.276549e-01
<GCONST> 1.379446e+02
<STATE> 4
<MEAN> 39
 -8.065907e+00 -8.280426e+00 -8.423374e-01 -8.064741e+00 -4.746657e+00 -2.311642e+00 -5.424293e+00 -2.185465e-01 -1.940389e+00 -7.181741e-01 -2.681322e+00 7.701942e-01 6.450685e+01 -2.347206e-03 4.937573e-03 5.015986e-03 5.766640e-03 9.676520e-05 4.891663e-03 5.858719e-03 6.499069e-04 3.061284e-03 4.153976e-03 2.652022e-03 1.836054e-04 -1.160619e-02 -1.066655e-05 2.011462e-04 2.515871e-04 1.494835e-04 -2.711230e-05 1.247423e-04 2.366274e-04 -1.924881e-04 9.075171e-05 1.334525e-04 1.132912e-04 -2.230234e-05 -3.917569e-04
<VARIANCE> 39
 5.588544e+01 6.724277e+01 7.991299e+01 1.012389e+02 8.403548e+01 6.725999e+01 8.614103e+01 6.475549e+01 7.120670e+01 5.704868e+01 6.198229e+01 4.299052e+01 1.128303e+02 2.723287e+00 3.247617e+00 3.220742e+00 5.048212e+00 4.118268e+00 3.828287e+00 4.563806e+00 4.132331e+00 3.890040e+00 3.676656e+00 3.464489e+00 2.846459e+00 3.402314e+00 4.361967e-01 4.933285e-01 5.001916e-01 7.862391e-01 6.957085e-01 6.823085e-01 7.999165e-01 7.679410e-01 7.039871e-01 6.860971e-01 6.225975e-01 5.356083e-01 5.209296e-01
<GCONST> 1.377536e+02
<TRANSP> 5
 0.000000e+00 1.000000e+00 0.000000e+00 0.000000e+00 0.000000e+00
 0.000000e+00 7.194604e-01 2.805396e-01 0.000000e+00 0.000000e+00
 0.000000e+00 0.000000e+00 7.194622e-01 2.805379e-01 0.000000e+00
 0.000000e+00 0.000000e+00 0.000000e+00 8.410324e-01 1.589675e-01
 0.000000e+00 0.000000e+00 0.000000e+00 0.000000e+00 0.000000e+00
<ENDHMM>
~h "f"
<BEGINHMM>
<NUMSTATES> 5
<STATE> 2
<MEAN> 39
 -8.158915e+00 -8.364806e+00 -1.126268e+00 -7.834175e+00 -4.550062e+00 -1.400683e+00 -5.016741e+00 -3.779453e-01 -2.523393e+00 -7.188149e-01 -2.377078e+00 7.685211e-01 6.430200e+01 1.695447e-03 2.023312e-03 -3.476497e-03 7.001253e-03 1.237014e-03 2.973986e-03 3.911510e-03 7.918267e-04 3.398243e-03 1.282507e-03 2.948816e-03 2.976770e-03 -9.344018e-03 -1.863605e-04 1.636289e-04 2.477447e-04 4.742564e-05 -1.541666e-04 -5.406157e-05 -4.017106e-05 -1.112759e-05 1.494606e-04 6.167693e-05 -1.027228e-04 3.025518e-06 1.271255e-06
<VARIANCE> 39
 5.585490e+01 6.610555e+01 7.751812e+01 1.054016e+02 7.892258e+01 6.190345e+01 8.114169e+01 6.209024e+01 7.086914e+01 5.515395e+01 5.908002e+01 4.270229e+01 1.092423e+02 3.038650e+00 3.169388e+00 3.265028e+00 5.439096e+00 3.889889e+00 3.596292e+00 4.405591e+00 3.928552e+00 3.865975e+00 3.607601e+00 3.409510e+00 2.773194e+00 2.963955e+00 4.983833e-01 4.659818e-01 4.992740e-01 8.276242e-01 6.563948e-01 6.410647e-01 7.703879e-01 7.231527e-01 6.882181e-01 6.734976e-01 6.165671e-01 5.193946e-01 4.194870e-01
<GCONST> 1.367449e+02
<STATE> 3
<MEAN> 39
 -8.153573e+00 -8.355237e+00 -1.136974e+00 -7.808945e+00 -4.546696e+00 -1.390354e+00 -5.002680e+00 -3.753448e-01 -2.509935e+00 -7.141647e-01 -2.366589e+00 7.791371e-01 6.426856e+01 1.119493e-03 2.677552e-03 -2.505503e-03 6.947083e-03 9.021136e-04 2.842127e-03 3.714491e-03 7.126409e-04 3.759733e-03 1.435640e-03 2.862576e-03 2.995793e-03 -9.201466e-03 -1.624998e-04 1.823919e-04 2.898652e-04 -2.924495e-05 -8.371229e-05 -3.425566e-05 -9.310037e-05 -2.143755e-05 5.979429e-05 2.592392e-05 -4.629139e-05 -4.685056e-05 8.788556e-05
<VARIANCE> 39
 5.581544e+01 6.610934e+01 7.733949e+01 1.053247e+02 7.878075e+01 6.189617e+01 8.108058e+01 6.200319e+01 7.083536e+01 5.514055e+01 5.896378e+01 4.265405e+01 1.094921e+02 3.037771e+00 3.164723e+00 3.259437e+00 5.434206e+00 3.885016e+00 3.591768e+00 4.400302e+00 3.924854e+00 3.865398e+00 3.605958e+00 3.404349e+00 2.767404e+00 2.959213e+00 4.981859e-01 4.653087e-01 4.984505e-01 8.269802e-01 6.557390e-01 6.400524e-01 7.692691e-01 7.224360e-01 6.881006e-01 6.731964e-01 6.155122e-01 5.182397e-01 4.187490e-01
<GCONST> 1.367051e+02
<STATE> 4
<MEAN> 39
 -8.147740e+00 -8.306370e+00 -1.149707e+00 -7.754391e+00 -4.555868e+00 -1.428282e+00 -4.953789e+00 -4.027588e-01 -2.452839e+00 -7.213103e-01 -2.333043e+00 7.935825e-01 6.411889e+01 5.707758e-04 3.356440e-03 -1.076174e-03 6.372009e-03 5.817357e-04 2.454087e-03 2.919665e-03 5.960579e-04 3.840171e-03 1.358578e-03 2.777689e-03 2.563023e-03 -8.230701e-03 -1.003906e-04 1.013156e-04 2.919199e-04 -1.132822e-04 -7.112272e-05 -6.822475e-05 -1.744167e-04 -2.652546e-05 -3.389423e-05 -1.547675e-05 -4.520407e-05 -1.361220e-04 1.920847e-04
<VARIANCE> 39
 5.577895e+01 6.592555e+01 7.695568e+01 1.054404e+02 7.881484e+01 6.171402e+01 8.098994e+01 6.189410e+01 7.081121e+01 5.507712e+01 5.883665e+01 4.236307e+01 1.106628e+02 3.006674e+00 3.132170e+00 3.236226e+00 5.384245e+00 3.861948e+00 3.573223e+00 4.363631e+00 3.900421e+00 3.847972e+00 3.587670e+00 3.382221e+00 2.749364e+00 2.933451e+00 4.921125e-01 4.601270e-01 4.944377e-01 8.179210e-01 6.515026e-01 6.364285e-01 7.626328e-01 7.172371e-01 6.852599e-01 6.692454e-01 6.112267e-01 5.146158e-01 4.134891e-01
<GCONST> 1.364911e+02
<TRANSP> 5
 0.000000e+00 1.000000e+00 0.000000e+00 0.000000e+00 0.000000e+00
 0.000000e+00 7.233398e-01 2.766602e-01 0.000000e+00 0.000000e+00
 0.000000e+00 0.000000e+00 7.233402e-01 2.766598e-01 0.000000e+00
 0.000000e+00 0.000000e+00 0.000000e+00 8.458798e-01 1.541202e-01
 0.000000e+00 0.000000e+00 0.000000e+00 0.000000e+00 0.000000e+00
<ENDHMM>
~h "g"
<BEGINHMM>
<NUMSTATES> 5
<STATE> 2
<MEAN> 39
 -7.687630e+00 -8.235001e+00 -1.185260e+00 -8.689720e+00 -4.852199e+00 -1.810614e+00 -5.238071e+00 -4.918225e-01 -2.515846e+00 -5.031958e-01 -2.661017e+00 8.832637e-01 6.405058e+01 3.309265e-03 3.685183e-04 -4.542284e-03 -2.734971e-03 -3.261898e-04 3.762677e-04 -3.061636e-03 -4.438645e-03 -1.439885e-03 3.350771e-04 -3.490394e-03 -1.898101e-04 7.311979e-04 -2.311953e-04 1.431495e-04 1.911182e-04 3.423564e-04 8.105288e-05 1.882562e-04 1.282542e-04 7.674521e-05 8.400602e-05 7.605070e-05 2.111465e-04 2.540945e-05 -1.463388e-04
<VARIANCE> 39
 5.583399e+01 6.757171e+01 7.997401e+01 1.062657e+02 7.981422e+01 6.393886e+01 8.548141e+01 6.418415e+01 7.257687e+01 5.680136e+01 6.268150e+01 4.416713e+01 1.138347e+02 2.556474e+00 3.213214e+00 3.320749e+00 5.262425e+00 4.120557e+00 3.817343e+00 4.714337e+00 4.153400e+00 4.100769e+00 3.744481e+00 3.551058e+00 2.981333e+00 3.553715e+00 4.127765e-01 4.789954e-01 5.175738e-01 8.191075e-01 7.027410e-01 6.926085e-01 8.329524e-01 7.785072e-01 7.476686e-01 7.041661e-01 6.482653e-01 5.654665e-01 5.074621e-01
<GCONST> 1.381932e+02
<STATE> 3
<MEAN> 39
 -7.677361e+00 -8.232326e+00 -1.200012e+00 -8.697514e+00 -4.852528e+00 -1.808482e+00 -5.248447e+00 -5.076581e-01 -2.520108e+00 -5.016266e-01 -2.672425e+00 8.827954e-01 6.405223e+01 2.458580e-03 8.878621e-04 -3.815764e-03 -1.707606e-03 -7.185002e-05 8.824167e-04 -2.737187e-03 -4.205004e-03 -1.092673e-03 6.169400e-04 -2.860368e-03 -1.646734e-04 2.772101e-04 -2.546153e-04 1.337922e-04 2.092064e-04 2.682061e-04 6.956616e-05 1.408999e-04 7.822962e-05 7.846515e-05 6.191633e-05 7.503476e-05 1.873158e-04 1.796646e-05 -8.919870e-05
<VARIANCE> 39
 5.577235e+01 6.756943e+01 8.002798e+01 1.063996e+02 7.984892e+01 6.403627e+01 8.554923e+01 6.418880e+01 7.255457e+01 5.680648e+01 6.268658e+01 4.419744e+01 1.138457e+02 2.556575e+00 3.211340e+00 3.322875e+00 5.267525e+00 4.119919e+00 3.820913e+00 4.720721e+00 4.155359e+00 4.104156e+00 3.747433e+00 3.554487e+00 2.984750e+00 3.559911e+00 4.128012e-01 4.787744e-01 5.178469e-01 8.199576e-01 7.027533e-01 6.932014e-01 8.342012e-01 7.788597e-01 7.483816e-01 7.047809e-01 6.488652e-01 5.661108e-01 5.083142e-01
<GCONST> 1.382162e+02
<STATE> 4
<MEAN> 39
 -7.671536e+00 -8.197175e+00 -1.237588e+00 -8.692780e+00 -4.856122e+00 -1.850608e+00 -5.238273e+00 -5.685169e-01 -2.483627e+00 -5.229609e-01 -2.662814e+00 8.870016e-01 6.397723e+01 1.242397e-03 1.405317e-03 -2.606110e-03 -4.535393e-04 7.222185e-05 1.213287e-03 -2.139193e-03 -3.880045e-03 -5.742775e-04 9.466269e-04 -2.051397e-03 1.063324e-04 -1.927429e-04 -2.627487e-04 7.739139e-05 2.394970e-04 2.570714e-04 2.756184e-05 8.081662e-05 1.232517e-04 8.529511e-05 5.623352e-05 6.494459e-05 1.798111e-04 5.270482e-05 -5.252330e-05
<VARIANCE> 39
 5.585592e+01 6.739617e+01 8.014774e+01 1.069372e+02 8.025230e+01 6.414335e+01 8.551779e+01 6.421957e+01 7.250304e+01 5.675160e+01 6.264016e+01 4.407417e+01 1.144158e+02 2.545443e+00 3.182128e+00 3.310836e+00 5.244054e+00 4.103926e+00 3.816598e+00 4.704577e+00 4.142627e+00 4.090877e+00 3.738827e+00 3.547385e+00 2.982147e+00 3.545800e+00 4.105860e-01 4.739984e-01 5.151814e-01 8.151029e-01 6.992637e-01 6.918107e-01 8.313640e-01 7.758334e-01 7.462551e-01 7.028386e-01 6.471426e-01 5.650331e-01 5.047851e-01
<GCONST> 1.381248e+02
<TRANSP> 5
 0.000000e+00 1.000000e+00 0.000000e+00 0.000000e+00 0.000000e+00
 0.000000e+00 7.211329e-01 2.788671e-01 0.000000e+00 0.000000e+00
 0.000000e+00 0.000000e+00 7.211331e-01 2.788669e-01 0.000000e+00
 0.000000e+00 0.000000e+00 0.000000e+00 8.429446e-01 1.570554e-01
 0.000000e+00 0.000000e+00 0.000000e+00 0.000000e+00 0.000000e+00
<ENDHMM>
~h "h"
<BEGINHMM>
<NUMSTATES> 5
<STATE> 2
<MEAN> 39
 -7.902270e+00 -8.495508e+00 -1.731780e+00 -8.537958e+00 -3.842861e+00 -1.110651e+00 -5.210925e+00 -2.044251e-01 -2.520535e+00 -8.809879e-01 -2.302840e+00 5.180773e-01 6.449563e+01 3.517467e-03 9.880343e-04 -4.346669e-03 -3.156372e-03 9.098267e-04 2.305188e-03 -3.533413e-03 -3.565311e-03 -3.792329e-03 -2.540881e-03 -2.220797e-03 -2.172566e-03 4.797554e-03 -1.684258e-04 2.007235e-04 2.095888e-04 2.484664e-04 -1.572853e-04 -1.413617e-04 6.561705e-05 1.086851e-04 1.621953e-04 1.855835e-04 2.178704e-05 1.151093e-04 -2.720785e-04
<VARIANCE> 39
 5.605654e+01 6.905809e+01 8.324809e+01 1.059060e+02 8.974174e+01 6.651951e+01 8.552393e+01 6.525048e+01 7.234940e+01 5.806907e+01 6.037862e+01 4.416943e+01 1.093939e+02 2.675772e+00 3.147465e+00 3.209400e+00 5.039806e+00 4.358868e+00 3.792341e+00 4.659639e+00 4.236293e+00 4.013845e+00 3.802509e+00 3.438922e+00 2.847515e+00 2.966543e+00 4.278027e-01 4.620268e-01 4.895255e-01 7.653545e-01 7.080057e-01 6.711920e-01 8.161063e-01 7.837408e-01 7.258092e-01 7.106470e-01 6.228636e-01 5.351985e-01 4.201236e-01
<GCONST> 1.376460e+02
<STATE> 3
<MEAN> 39
 -7.890800e+00 -8.490538e+00 -1.746285e+00 -8.547636e+00 -3.840392e+00 -1.103239e+00 -5.222212e+00 -2.153836e-01 -2.531722e+00 -8.887126e-01 -2.310454e+00 5.111260e-01 6.451003e+01 2.811660e-03 1.750734e-03 -3.491718e-03 -2.376545e-03 4.362395e-04 1.736639e-03 -3.194439e-03 -3.081595e-03 -2.942740e-03 -1.702117e-03 -2.195802e-03 -1.764171e-03 3.783498e-03 -1.990470e-04 2.132338e-04 2.376300e-04 2.011922e-04 -1.160144e-04 -1.700450e-04 8.930013e-05 1.411772e-04 2.374184e-04 2.280836e-04 2.393353e-06 1.237449e-04 -2.581309e-04
<VARIANCE> 39
 5.603135e+01 6.913670e+01 8.329126e+01 1.059202e+02 8.987520e+01 6.663294e+01 8.551546e+01 6.523479e+01 7.229375e+01 5.807110e+01 6.032394e+01 4.412025e+01 1.093083e+02 2.674438e+00 3.146863e+00 3.213803e+00 5.048085e+00 4.368490e+00 3.796279e+00 4.666604e+00 4.241723e+00 4.016532e+00 3.807075e+00 3.443135e+00 2.849022e+00 2.968800e+00 4.276132e-01 4.617066e-01 4.901625e-01 7.664014e-01 7.093027e-01 6.717573e-01 8.173712e-01 7.847205e-01 7.262501e-01 7.115771e-01 6.236541e-01 5.356072e-01 4.204797e-01
<GCONST> 1.376712e+02
<STATE> 4
<MEAN> 39
 -7.867940e+00 -8.462331e+00 -1.797713e+00 -8.550128e+00 -3.837729e+00 -1.139792e+00 -5.209751e+00 -2.664198e-01 -2.508430e+00 -9.165261e-01 -2.304295e+00 5.037521e-01 6.444362e+01 1.791426e-03 2.729623e-03 -1.864558e-03 -1.730696e-03 -6.324897e-04 7.674164e-04 -2.561655e-03 -2.593754e-03 -1.520508e-03 -5.092043e-04 -2.072127e-03 -8.992623e-04 2.174916e-03 -1.897922e-04 1.772165e-04 3.170810e-04 1.366384e-04 -1.785002e-04 -1.901563e-04 8.869511e-05 5.697447e-05 2.226548e-04 2.028174e-04 3.994879e-06 1.475195e-04 -2.281169e-04
<VARIANCE> 39
 5.614185e+01 6.914453e+01 8.341599e+01 1.063089e+02 9.028153e+01 6.664175e+01 8.543974e+01 6.534029e+01 7.226743e+01 5.806453e+01 6.023005e+01 4.392564e+01 1.098124e+02 2.653919e+00 3.119258e+00 3.204972e+00 5.029655e+00 4.360656e+00 3.788873e+00 4.648907e+00 4.231858e+00 4.003423e+00 3.795609e+00 3.433575e+00 2.841468e+00 2.955558e+00 4.238763e-01 4.565286e-01 4.880958e-01 7.628270e-01 7.076198e-01 6.699674e-01 8.142967e-01 7.820802e-01 7.239840e-01 7.090150e-01 6.215931e-01 5.339973e-01 4.173686e-01
<GCONST> 1.375714e+02
<TRANSP> 5
 0.000000e+00 1.000000e+00 0.000000e+00 0.000000e+00 0.000000e+00
 0.000000e+00 7.229310e-01 2.770690e-01 0.000000e+00 0.000000e+00
 0.000000e+00 0.000000e+00 7.229242e-01 2.770758e-01 0.000000e+00
 0.000000e+00 0.000000e+00 0.000000e+00 8.452390e-01 1.547610e-01
 0.000000e+00 0.000000e+00 0.000000e+00 0.000000e+00 0.000000e+00
<ENDHMM>
~h "i"
<BEGINHMM>
<NUMSTATES> 5
<STATE> 2
<MEAN> 39
 -9.426707e+00 -6.782546e+00 1.465398e+00 -8.114812e+00 -5.635460e+00 -1.712704e+00 -5.437613e+00 -1.229867e+00 -2.548618e+00 -2.605730e-01 -2.506515e+00 9.455721e-01 6.388769e+01 -3.271234e-04 2.121199e-03 6.807628e-04 1.254933e-03 9.303454e-04 3.729180e-03 3.306080e-03 -7.666482e-05 -1.038291e-03 2.301768e-03 -2.549329e-04 -7.389722e-04 -3.134718e-03 2.552301e-04 -2.691190e-04 -4.125875e-04 8.036608e-05 1.587583e-04 -2.800608e-05 8.110030e-05 1.276780e-04 1.267474e-04 -1.051086e-04 -5.921931e-06 -5.714752e-05 3.893377e-05
<VARIANCE> 39
 5.704047e+01 7.449038e+01 8.609978e+01 1.020664e+02 7.926938e+01 6.015157e+01 9.059590e+01 6.764276e+01 7.270898e+01 5.436457e+01 6.268499e+01 4.251130e+01 1.119018e+02 2.606683e+00 3.076446e+00 3.265307e+00 4.808361e+00 4.041645e+00 3.559116e+00 4.584936e+00 3.995728e+00 3.871821e+00 3.472624e+00 3.326332e+00 2.709905e+00 3.020026e+00 4.080778e-01 4.474968e-01 4.863662e-01 7.278891e-01 6.845853e-01 6.403598e-01 7.810012e-01 7.289125e-01 6.872627e-01 6.499981e-01 5.942549e-01 5.073678e-01 4.440137e-01
<GCONST> 1.365597e+02
<STATE> 3
<MEAN> 39
 -9.426419e+00 -6.777143e+00 1.464468e+00 -8.110087e+00 -5.630660e+00 -1.699687e+00 -5.425754e+00 -1.228811e+00 -2.551556e+00 -2.529229e-01 -2.507471e+00 9.426740e-01 6.387717e+01 6.487439e-04 1.018969e-03 -8.225015e-04 1.529561e-03 1.417067e-03 3.517522e-03 3.468906e-03 3.324293e-04 -5.331083e-04 1.807210e-03 -2.641032e-04 -9.449155e-04 -2.912362e-03 3.238737e-04 -2.869995e-04 -3.881999e-04 6.177410e-05 1.109521e-04 -1.105190e-04 8.049250e-05 4.473640e-05 2.138455e-04 -1.536265e-04 2.085185e-05 -7.783082e-05 -5.360052e-06
<VARIANCE> 39
 5.708956e+01 7.447838e+01 8.610171e+01 1.020721e+02 7.935284e+01 6.020203e+01 9.064322e+01 6.759735e+01 7.272707e+01 5.439928e+01 6.261542e+01 4.252578e+01 1.120609e+02 2.608722e+00 3.077656e+00 3.266483e+00 4.810328e+00 4.042980e+00 3.556518e+00 4.582646e+00 3.996720e+00 3.872416e+00 3.471462e+00 3.325869e+00 2.709727e+00 3.021337e+00 4.085324e-01 4.476629e-01 4.864806e-01 7.282393e-01 6.847472e-01 6.398513e-01 7.805919e-01 7.288970e-01 6.873496e-01 6.497570e-01 5.940648e-01 5.071699e-01 4.444228e-01
<GCONST> 1.365662e+02
<STATE> 4
<MEAN> 39
 -9.435326e+00 -6.735892e+00 1.433460e+00 -8.097319e+00 -5.623623e+00 -1.716738e+00 -5.396508e+00 -1.268501e+00 -2.500205e+00 -2.720654e-01 -2.489085e+00 9.419372e-01 6.378374e+01 2.385830e-03 -8.877028e-04 -3.223734e-03 1.623210e-03 2.003252e-03 2.886046e-03 3.481464e-03 8.529180e-04 4.212529e-04 8.496548e-04 -1.788712e-04 -1.286470e-03 -2.495808e-03 3.222383e-04 -2.615318e-04 -4.022144e-04 -1.787215e-05 6.208650e-05 -1.038798e-04 4.295441e-05 4.659196e-05 2.028402e-04 -1.330524e-04 -3.440687e-05 -7.960571e-05 3.204856e-06
<VARIANCE> 39
 5.732119e+01 7.431828e+01 8.599490e+01 1.024651e+02 7.964240e+01 6.025785e+01 9.065327e+01 6.756854e+01 7.267048e+01 5.448110e+01 6.254540e+01 4.236313e+01 1.129314e+02 2.595052e+00 3.052633e+00 3.250216e+00 4.789385e+00 4.028170e+00 3.545080e+00 4.559729e+00 3.984719e+00 3.854202e+00 3.461218e+00 3.313114e+00 2.700695e+00 3.008159e+00 4.062806e-01 4.442621e-01 4.838386e-01 7.237368e-01 6.812733e-01 6.368265e-01 7.760244e-01 7.254403e-01 6.838756e-01 6.468489e-01 5.913742e-01 5.053684e-01 4.418385e-01
<GCONST> 1.364528e+02
<TRANSP> 5
 0.000000e+00 1.000000e+00 0.000000e+00 0.000000e+00 0.000000e+00
 0.000000e+00 7.216412e-01 2.783588e-01 0.000000e+00 0.000000e+00
 0.000000e+00 0.000000e+00 7.216413e-01 2.783587e-01 0.000000e+00
 0.000000e+00 0.000000e+00 0.000000e+00 8.436717e-01 1.563283e-01
 0.000000e+00 0.000000e+00 0.000000e+00 0.000000e+00 0.000000e+00
<ENDHMM>
~h "j"
<BEGINHMM>
<NUMSTATES> 5
<STATE> 2
<MEAN> 39
 -9.184525e+00 -7.273059e+00 7.135810e-01 -7.676942e+00 -5.640211e+00 -1.952129e+00 -4.983597e+00 -9.443448e-01 -2.458942e+00 -3.624642e-01 -2.297245e+00 8.692806e-01 6.386582e+01 -2.373029e-03 9.313420e-04 2.816104e-03 -2.873376e-03 -4.004710e-03 -1.219565e-03 -1.618291e-03 -6.125749e-03 -4.702779e-03 -1.101937e-03 -1.654637e-03 -6.709051e-04 5.966555e-03 2.032931e-04 -1.424539e-04 -2.496988e-04 -1.005887e-04 1.765261e-04 2.568389e-04 3.557294e-05 1.889843e-04 2.991298e-05 3.880658e-05 6.496484e-05 8.962202e-05 8.812518e-05
<VARIANCE> 39
 5.802942e+01 7.158595e+01 7.840805e+01 9.802155e+01 8.116309e+01 6.069472e+01 8.485138e+01 6.760773e+01 7.196142e+01 5.403320e+01 6.103083e+01 4.208677e+01 1.114133e+02 3.011855e+00 3.363678e+00 3.318525e+00 4.948421e+00 4.292809e+00 3.775838e+00 4.605070e+00 4.165259e+00 3.996692e+00 3.596966e+00 3.394665e+00 2.775976e+00 3.142007e+00 4.851211e-01 4.965732e-01 5.211547e-01 7.529293e-01 7.291799e-01 6.817045e-01 8.004942e-01 7.719980e-01 7.199535e-01 6.762474e-01 6.112297e-01 5.249406e-01 4.493009e-01
<GCONST> 1.376548e+02
<STATE> 3
<MEAN> 39
 -9.191847e+00 -7.270326e+00 7.229618e-01 -7.687668e+00 -5.653059e+00 -1.954559e+00 -4.988984e+00 -9.652992e-01 -2.475281e+00 -3.658575e-01 -2.302851e+00 8.674927e-01 6.388792e+01 -1.589811e-03 5.116416e-04 1.938873e-03 -3.178716e-03 -3.183523e-03 -2.919452e-04 -1.454854e-03 -5.481422e-03 -4.406772e-03 -9.195374e-04 -1.555476e-03 -4.389749e-04 6.064173e-03 2.143316e-04 -1.175911e-04 -2.387663e-04 -1.090692e-04 2.149227e-04 2.654144e-04 4.287462e-05 1.861977e-04 8.162309e-05 6.133440e-05 8.443167e-06 5.539376e-05 3.501304e-05
<VARIANCE> 39
 5.806184e+01 7.164456e+01 7.850475e+01 9.790034e+01 8.119663e+01 6.073767e+01 8.490581e+01 6.760671e+01 7.191024e+01 5.406629e+01 6.102893e+01 4.211512e+01 1.111999e+02 3.016951e+00 3.372565e+00 3.324137e+00 4.956000e+00 4.302144e+00 3.780150e+00 4.609549e+00 4.168911e+00 4.002619e+00 3.599066e+00 3.397878e+00 2.777583e+00 3.143270e+00 4.860445e-01 4.978023e-01 5.219377e-01 7.540156e-01 7.308921e-01 6.825883e-01 8.012146e-01 7.727028e-01 7.207865e-01 6.766803e-01 6.117694e-01 5.251219e-01 4.492794e-01
<GCONST> 1.376890e+02
<STATE> 4
<MEAN> 39
 -9.207840e+00 -7.236483e+00 7.113856e-01 -7.705864e+00 -5.663346e+00 -1.982715e+00 -4.983063e+00 -1.033011e+00 -2.448268e+00 -3.900279e-01 -2.292726e+00 8.679929e-01 6.383893e+01 -3.856020e-04 3.545044e-05 8.098478e-04 -3.701284e-03 -2.115497e-03 7.597217e-04 -1.542200e-03 -4.714394e-03 -3.992729e-03 -9.096328e-04 -1.947101e-03 -5.125146e-04 6.165473e-03 2.332059e-04 -1.061774e-04 -2.554175e-04 -1.161111e-04 1.885500e-04 2.203402e-04 -5.219110e-06 1.526435e-04 7.699244e-05 3.480614e-06 -6.317199e-05 -5.976122e-06 1.204456e-05
<VARIANCE> 39
 5.830097e+01 7.153648e+01 7.871162e+01 9.815913e+01 8.152287e+01 6.080009e+01 8.504337e+01 6.771432e+01 7.187361e+01 5.414808e+01 6.104784e+01 4.201425e+01 1.114885e+02 3.006646e+00 3.351382e+00 3.315970e+00 4.941448e+00 4.297600e+00 3.775553e+00 4.596070e+00 4.161856e+00 3.994247e+00 3.589754e+00 3.390773e+00 2.771230e+00 3.125435e+00 4.837209e-01 4.940858e-01 5.197267e-01 7.501550e-01 7.292460e-01 6.819103e-01 7.981729e-01 7.703659e-01 7.190261e-01 6.746711e-01 6.104394e-01 5.237004e-01 4.449772e-01
<GCONST> 1.376181e+02
<TRANSP> 5
 0.000000e+00 1.000000e+00 0.000000e+00 0.000000e+00 0.000000e+00
 0.000000e+00 7.220276e-01 2.779724e-01 0.000000e+00 0.000000e+00
 0.000000e+00 0.000000e+00 7.220227e-01 2.779773e-01 0.000000e+00
 0.000000e+00 0.000000e+00 0.000000e+00 8.442545e-01 1.557455e-01
 0.000000e+00 0.000000e+00 0.000000e+00 0.000000e+00 0.000000e+00
<ENDHMM>
~h "k"
<BEGINHMM>
<NUMSTATES> 5
<STATE> 2
<MEAN> 39
 -8.074223e+00 -8.595537e+00 -1.253353e+00 -7.351694e+00 -3.961889e+00 -1.340342e+00 -4.444799e+00 -9.746870e-02 -1.896427e+00 -4.434249e-01 -2.179759e+00 1.064105e+00 6.374361e+01 2.918899e-03 -1.308058e-03 -3.174001e-03 4.108517e-03 2.405623e-03 -2.955496e-04 -8.539150e-05 -6.062674e-04 -2.981047e-05 -1.810940e-04 -2.220172e-03 4.565356e-04 3.193182e-03 -2.580573e-04 2.833838e-04 2.917022e-04 -1.278065e-04 -3.970075e-04 3.827670e-05 1.820976e-05 -3.338385e-05 -2.020866e-04 1.128098e-04 1.668642e-05 7.220962e-05 4.556816e-06
<VARIANCE> 39
 5.222583e+01 6.726145e+01 7.625095e+01 1.026795e+02 8.218620e+01 6.249517e+01 8.320711e+01 6.271406e+01 7.128526e+01 5.645393e+01 6.085493e+01 4.245489e+01 1.171331e+02 2.411844e+00 3.129883e+00 3.310315e+00 5.072645e+00 4.147652e+00 3.687562e+00 4.513618e+00 4.085938e+00 3.920869e+00 3.645180e+00 3.403297e+00 2.828103e+00 3.382253e+00 3.918491e-01 4.759759e-01 5.408133e-01 7.799261e-01 6.894388e-01 6.701914e-01 7.965596e-01 7.588125e-01 7.060471e-01 6.785269e-01 6.201116e-01 5.310464e-01 5.015197e-01
<GCONST> 1.371037e+02
<STATE> 3
<MEAN> 39
 -8.065028e+00 -8.597162e+00 -1.263458e+00 -7.337610e+00 -3.956457e+00 -1.340831e+00 -4.443035e+00 -9.887764e-02 -1.896572e+00 -4.432189e-01 -2.186734e+00 1.065658e+00 6.375403e+01 2.051995e-03 -2.040862e-04 -2.396552e-03 3.403795e-03 8.744773e-04 -2.607326e-04 1.116200e-04 -4.100038e-04 -5.153212e-04 1.658469e-04 -2.019959e-03 7.037214e-04 3.155709e-03 -2.531676e-04 2.841839e-04 1.937480e-04 -2.286490e-04 -4.475366e-04 -1.022976e-05 9.546520e-05 8.499397e-05 -1.290190e-04 1.203794e-04 6.666183e-05 8.117298e-05 -2.880592e-05
<VARIANCE> 39
 5.220988e+01 6.730797e+01 7.620832e+01 1.027315e+02 8.224880e+01 6.255666e+01 8.318183e+01 6.269884e+01 7.120193e+01 5.649942e+01 6.086982e+01 4.240783e+01 1.171610e+02 2.411850e+00 3.129923e+00 3.310596e+00 5.075230e+00 4.151914e+00 3.689989e+00 4.514750e+00 4.087781e+00 3.921833e+00 3.646662e+00 3.403666e+00 2.828223e+00 3.387413e+00 3.920693e-01 4.763798e-01 5.414402e-01 7.805542e-01 6.902336e-01 6.705209e-01 7.969033e-01 7.595204e-01 7.062694e-01 6.790715e-01 6.201102e-01 5.312477e-01 5.028871e-01
<GCONST> 1.371201e+02
<STATE> 4
<MEAN> 39
 -8.061061e+00 -8.569996e+00 -1.312047e+00 -7.297215e+00 -3.956895e+00 -1.382219e+00 -4.413886e+00 -1.277395e-01 -1.860738e+00 -4.643622e-01 -2.169664e+00 1.070835e+00 6.368061e+01 1.295198e-03 1.424344e-03 -1.795608e-03 2.201339e-03 -8.126657e-04 -6.916896e-04 4.720975e-04 -4.550137e-05 -9.032072e-04 2.806081e-04 -2.209136e-03 6.265906e-04 2.997037e-03 -1.825896e-04 2.208993e-04 1.317228e-04 -2.503569e-04 -3.442162e-04 -1.330328e-04 4.542745e-05 5.447500e-05 -9.747650e-05 5.464249e-05 -2.249266e-05 3.144159e-05 -2.487679e-06
<VARIANCE> 39
 5.243462e+01 6.727020e+01 7.618310e+01 1.031253e+02 8.244147e+01 6.264696e+01 8.323603e+01 6.270049e+01 7.098426e+01 5.652290e+01 6.090567e+01 4.214601e+01 1.177338e+02 2.405452e+00 3.109289e+00 3.296051e+00 5.054550e+00 4.139594e+00 3.686793e+00 4.499088e+00 4.077205e+00 3.907461e+00 3.636160e+00 3.393282e+00 2.818186e+00 3.373975e+00 3.906897e-01 4.731013e-01 5.394773e-01 7.768615e-01 6.880791e-01 6.693971e-01 7.938588e-01 7.573068e-01 7.038473e-01 6.771681e-01 6.176617e-01 5.295151e-01 4.999337e-01
<GCONST> 1.370339e+02
<TRANSP> 5
 0.000000e+00 1.000000e+00 0.000000e+00 0.000000e+00 0.000000e+00
 0.000000e+00 7.232420e-01 2.767580e-01 0.000000e+00 0.000000e+00
 0.000000e+00 0.000000e+00 7.232377e-01 2.767623e-01 0.000000e+00
 0.000000e+00 0.000000e+00 0.000000e+00 8.455642e-01 1.544358e-01
 0.000000e+00 0.000000e+00 0.000000e+00 0.000000e+00 0.000000e+00
<ENDHMM>
~h "l"
<BEGINHMM>
<NUMSTATES> 5
<STATE> 2
<MEAN> 39
 -8.074212e+00 -8.654190e+00 -3.736566e-01 -8.045033e+00 -5.137538e+00 -1.712784e+00 -5.307905e+00 -4.263141e-01 -2.208955e+00 -7.509445e-01 -2.601621e+00 8.906139e-01 6.416087e+01 4.781833e-04 3.940933e-04 -1.917177e-03 -2.848918e-04 3.466297e-03 3.216838e-03 1.409240e-03 2.765882e-03 1.089061e-03 6.827062e-04 7.635863e-04 -4.038241e-04 -5.076155e-03 -2.732726e-04 4.389665e-04 1.723606e-04 1.445445e-04 5.819202e-07 1.955705e-04 8.893341e-05 -7.699546e-05 -6.079191e-05 8.480479e-05 7.307989e-05 1.542530e-04 -2.189289e-04
<VARIANCE> 39
 5.296975e+01 6.845290e+01 8.094765e+01 1.015255e+02 8.532569e+01 6.512572e+01 8.915937e+01 6.629974e+01 7.264886e+01 5.807065e+01 6.296371e+01 4.312230e+01 1.176350e+02 2.342483e+00 2.988121e+00 3.077889e+00 4.635125e+00 3.918935e+00 3.752628e+00 4.472969e+00 3.966477e+00 3.824966e+00 3.646423e+00 3.312835e+00 2.761924e+00 2.951588e+00 3.732423e-01 4.415150e-01 4.631562e-01 7.190595e-01 6.565613e-01 6.692022e-01 7.816670e-01 7.308317e-01 6.880492e-01 6.799518e-01 5.991955e-01 5.171676e-01 4.265424e-01
<GCONST> 1.362473e+02
<STATE> 3
<MEAN> 39
 -8.073603e+00 -8.648955e+00 -3.791978e-01 -8.044864e+00 -5.125206e+00 -1.701138e+00 -5.302337e+00 -4.176103e-01 -2.204871e+00 -7.477942e-01 -2.598656e+00 8.899602e-01 6.414104e+01 -3.577358e-04 2.025203e-03 -1.277594e-03 6.973557e-05 3.400461e-03 3.610768e-03 1.561549e-03 2.371699e-03 8.851000e-04 1.170604e-03 1.028705e-03 9.148265e-05 -5.872643e-03 -2.452395e-04 4.317402e-04 1.899057e-04 8.697898e-05 -4.204176e-05 8.087710e-05 2.465868e-05 -7.375216e-05 -7.413473e-05 1.415382e-04 6.753553e-05 1.537139e-04 -1.795678e-04
<VARIANCE> 39
 5.290856e+01 6.847758e+01 8.092413e+01 1.015789e+02 8.529403e+01 6.521021e+01 8.926251e+01 6.626110e+01 7.259073e+01 5.809008e+01 6.295931e+01 4.311042e+01 1.179626e+02 2.338550e+00 2.981497e+00 3.074064e+00 4.628571e+00 3.914697e+00 3.750684e+00 4.470478e+00 3.964695e+00 3.823415e+00 3.645450e+00 3.309909e+00 2.758385e+00 2.947273e+00 3.724245e-01 4.405934e-01 4.624134e-01 7.178997e-01 6.557437e-01 6.688318e-01 7.811841e-01 7.306321e-01 6.878973e-01 6.796799e-01 5.986069e-01 5.163295e-01 4.257501e-01
<GCONST> 1.362215e+02
<STATE> 4
<MEAN> 39
 -8.082058e+00 -8.602845e+00 -4.074128e-01 -8.031457e+00 -5.122791e+00 -1.739380e+00 -5.275448e+00 -4.517026e-01 -2.159708e+00 -7.685891e-01 -2.571153e+00 8.953208e-01 6.403150e+01 -1.235989e-03 4.091069e-03 -3.691263e-04 3.441232e-04 2.855559e-03 3.312929e-03 1.513756e-03 1.680417e-03 6.283497e-04 2.150986e-03 1.167540e-03 4.195460e-04 -6.388414e-03 -2.029579e-04 3.312647e-04 1.905787e-04 5.872377e-05 -1.285600e-04 -5.197980e-05 -7.194176e-07 -6.801424e-05 -6.873428e-05 1.753251e-04 5.358478e-05 9.775536e-05 -8.469730e-05
<VARIANCE> 39
 5.289497e+01 6.836201e+01 8.100984e+01 1.019991e+02 8.556422e+01 6.526176e+01 8.935622e+01 6.629546e+01 7.253671e+01 5.817724e+01 6.289426e+01 4.310163e+01 1.189992e+02 2.319337e+00 2.949819e+00 3.058238e+00 4.598089e+00 3.899606e+00 3.739107e+00 4.450515e+00 3.946109e+00 3.810885e+00 3.635062e+00 3.296714e+00 2.750705e+00 2.931049e+00 3.687620e-01 4.354977e-01 4.591018e-01 7.118403e-01 6.526144e-01 6.666972e-01 7.775391e-01 7.268963e-01 6.859672e-01 6.774389e-01 5.960063e-01 5.141860e-01 4.215079e-01
<GCONST> 1.360936e+02
<TRANSP> 5
 0.000000e+00 1.000000e+00 0.000000e+00 0.000000e+00 0.000000e+00
 0.000000e+00 7.225670e-01 2.774330e-01 0.000000e+00 0.000000e+00
 0.000000e+00 0.000000e+00 7.225658e-01 2.774343e-01 0.000000e+00
 0.000000e+00 0.000000e+00 0.000000e+00 8.449401e-01 1.550599e-01
 0.000000e+00 0.000000e+00 0.000000e+00 0.000000e+00 0.000000e+00
<ENDHMM>
~h "m"
<BEGINHMM>
<NUMSTATES> 5
<STATE> 2
<MEAN> 39
 -7.902872e+00 -8.134161e+00 -8.395625e-02 -8.356588e+00 -5.187416e+00 -1.686890e+00 -5.617191e+00 -6.443090e-01 -2.813863e+00 -7.848323e-01 -2.635437e+00 3.995511e-01 6.393372e+01 2.942289e-03 2.644889e-03 -1.765332e-03 -5.074218e-03 7.931660e-04 3.074758e-03 -3.439609e-03 -2.477976e-03 -3.204170e-03 -6.593950e-04 -3.649057e-03 -3.652655e-03 -1.632291e-03 -2.690929e-04 1.491398e-04 -3.458757e-05 1.662017e-04 8.555374e-05 2.974413e-04 2.965087e-04 2.827458e-04 1.421438e-04 2.390523e-04 1.330513e-04 1.556683e-04 -2.142207e-04
<VARIANCE> 39
 5.465817e+01 6.870463e+01 7.942187e+01 1.043324e+02 8.292085e+01 6.253191e+01 8.700694e+01 6.674975e+01 7.239210e+01 5.585500e+01 6.236112e+01 4.570560e+01 1.113760e+02 2.444537e+00 2.990186e+00 3.277201e+00 5.023970e+00 3.941062e+00 3.599460e+00 4.395029e+00 4.049523e+00 3.802771e+00 3.569158e+00 3.301682e+00 2.832946e+00 3.104708e+00 3.875549e-01 4.420387e-01 5.078813e-01 7.725852e-01 6.595349e-01 6.447314e-01 7.681906e-01 7.501105e-01 6.853595e-01 6.635724e-01 5.971353e-01 5.279014e-01 4.420814e-01
<GCONST> 1.365575e+02
<STATE> 3
<MEAN> 39
 -7.893495e+00 -8.123220e+00 -9.084721e-02 -8.373533e+00 -5.183719e+00 -1.674126e+00 -5.627854e+00 -6.522919e-01 -2.823733e+00 -7.855639e-01 -2.647280e+00 3.877418e-01 6.392657e+01 1.990128e-03 3.156096e-03 -1.757806e-03 -4.206626e-03 1.268278e-03 3.963706e-03 -2.609281e-03 -1.763406e-03 -2.749457e-03 1.722516e-04 -2.890131e-03 -2.958645e-03 -2.360414e-03 -2.564178e-04 1.206906e-04 1.654688e-06 2.465423e-04 1.187376e-04 2.137879e-04 2.050959e-04 1.889579e-04 1.165964e-04 2.138332e-04 2.217344e-04 2.155685e-04 -1.774431e-04
<VARIANCE> 39
 5.460234e+01 6.870800e+01 7.960765e+01 1.045156e+02 8.295499e+01 6.259381e+01 8.708800e+01 6.676151e+01 7.243090e+01 5.592305e+01 6.233448e+01 4.569134e+01 1.113531e+02 2.441710e+00 2.982408e+00 3.281650e+00 5.026202e+00 3.938650e+00 3.599154e+00 4.398327e+00 4.051830e+00 3.802884e+00 3.571115e+00 3.301241e+00 2.832708e+00 3.105850e+00 3.871051e-01 4.408386e-01 5.082356e-01 7.727405e-01 6.590075e-01 6.449915e-01 7.687745e-01 7.505800e-01 6.854920e-01 6.638898e-01 5.971675e-01 5.279918e-01 4.422552e-01
<GCONST> 1.365626e+02
<STATE> 4
<MEAN> 39
 -7.891790e+00 -8.073304e+00 -1.307799e-01 -8.383345e+00 -5.193988e+00 -1.700322e+00 -5.619357e+00 -7.039814e-01 -2.795203e+00 -8.023729e-01 -2.644394e+00 3.794771e-01 6.383720e+01 6.647466e-04 3.535027e-03 -1.516318e-03 -2.868881e-03 1.838909e-03 4.249617e-03 -1.625025e-03 -1.034114e-03 -1.782679e-03 1.379833e-03 -1.811738e-03 -1.762175e-03 -2.931766e-03 -2.439196e-04 3.891866e-05 4.577541e-05 2.677063e-04 9.329723e-05 3.888045e-05 1.875832e-04 1.498892e-04 1.350504e-04 2.066221e-04 2.070675e-04 2.256028e-04 -1.257323e-04
<VARIANCE> 39
 5.466995e+01 6.857364e+01 7.991058e+01 1.051174e+02 8.320363e+01 6.254337e+01 8.715929e+01 6.677209e+01 7.249626e+01 5.589731e+01 6.229896e+01 4.542734e+01 1.119686e+02 2.421824e+00 2.948358e+00 3.268448e+00 5.003523e+00 3.919148e+00 3.586719e+00 4.383440e+00 4.036499e+00 3.790235e+00 3.559186e+00 3.291592e+00 2.821343e+00 3.086060e+00 3.833939e-01 4.350006e-01 5.052056e-01 7.675274e-01 6.548367e-01 6.431720e-01 7.656645e-01 7.466975e-01 6.829970e-01 6.614810e-01 5.955949e-01 5.259964e-01 4.377470e-01
<GCONST> 1.364323e+02
<TRANSP> 5
 0.000000e+00 1.000000e+00 0.000000e+00 0.000000e+00 0.000000e+00
 0.000000e+00 7.229572e-01 2.770428e-01 0.000000e+00 0.000000e+00
 0.000000e+00 0.000000e+00 7.229574e-01 2.770426e-01 0.000000e+00
 0.000000e+00 0.000000e+00 0.000000e+00 8.453597e-01 1.546403e-01
 0.000000e+00 0.000000e+00 0.000000e+00 0.000000e+00 0.000000e+00
<ENDHMM>
~h "n"
<BEGINHMM>
<NUMSTATES> 5
<STATE> 2
<MEAN> 39
 -8.184846e+00 -8.341087e+00 -1.661150e-02 -8.153757e+00 -5.409615e+00 -2.145370e+00 -5.372252e+00 -3.982402e-01 -2.726238e+00 -9.006521e-01 -2.681806e+00 7.112236e-01 6.414674e+01 3.741596e-03 1.920861e-03 3.017800e-03 -1.536660e-02 -9.618486e-03 -4.127836e-03 -1.018557e-02 -8.708294e-03 -1.308951e-02 -5.110919e-03 -1.042378e-02 -7.312942e-03 1.989373e-02 -1.853724e-04 2.062134e-04 -1.010978e-04 -1.709248e-04 1.218663e-04 2.740495e-04 1.459719e-05 -4.217320e-05 2.415194e-04 4.197307e-04 1.136012e-04 5.176831e-05 1.173808e-04
<VARIANCE> 39
 5.334979e+01 6.856791e+01 7.524290e+01 9.949775e+01 8.201681e+01 6.278225e+01 8.772417e+01 6.673408e+01 7.237683e+01 5.691295e+01 6.347173e+01 4.418326e+01 1.149414e+02 2.352282e+00 3.071075e+00 3.251692e+00 4.734725e+00 3.966396e+00 3.618282e+00 4.392736e+00 4.022949e+00 3.848696e+00 3.530257e+00 3.272245e+00 2.769021e+00 3.220328e+00 3.776135e-01 4.480023e-01 5.079949e-01 7.380250e-01 6.665926e-01 6.484860e-01 7.677685e-01 7.468165e-01 6.958472e-01 6.564600e-01 5.918197e-01 5.162243e-01 4.622926e-01
<GCONST> 1.363673e+02
<STATE> 3
<MEAN> 39
 -8.173114e+00 -8.330995e+00 -5.557120e-03 -8.210126e+00 -5.442891e+00 -2.158450e+00 -5.408980e+00 -4.305671e-01 -2.770556e+00 -9.158403e-01 -2.718917e+00 6.843308e-01 6.421941e+01 3.205410e-03 2.841533e-03 2.731133e-03 -1.586016e-02 -9.180387e-03 -3.211600e-03 -1.016373e-02 -8.976793e-03 -1.233023e-02 -3.879368e-03 -1.013417e-02 -7.536387e-03 2.008796e-02 -1.289651e-04 2.727236e-04 -9.630759e-05 -1.057681e-04 1.205948e-04 2.689960e-04 2.563436e-05 -7.921699e-05 1.853406e-04 2.979481e-04 7.310728e-05 -6.447174e-05 3.363725e-05
<VARIANCE> 39
 5.349699e+01 6.880881e+01 7.558925e+01 9.957759e+01 8.224747e+01 6.284352e+01 8.774292e+01 6.680048e+01 7.222648e+01 5.688975e+01 6.334224e+01 4.426979e+01 1.143274e+02 2.364531e+00 3.079695e+00 3.262426e+00 4.756642e+00 3.980613e+00 3.626610e+00 4.403461e+00 4.033727e+00 3.854603e+00 3.535046e+00 3.278140e+00 2.773960e+00 3.233041e+00 3.792160e-01 4.489081e-01 5.094487e-01 7.409655e-01 6.685553e-01 6.497497e-01 7.695684e-01 7.482743e-01 6.965019e-01 6.572994e-01 5.926107e-01 5.170510e-01 4.641936e-01
<GCONST> 1.364449e+02
<STATE> 4
<MEAN> 39
 -8.159247e+00 -8.276103e+00 -8.305959e-03 -8.298027e+00 -5.517495e+00 -2.221466e+00 -5.455573e+00 -5.402675e-01 -2.802918e+00 -9.633467e-01 -2.767143e+00 6.417018e-01 6.426488e+01 2.615834e-03 3.936455e-03 2.528201e-03 -1.561529e-02 -8.561983e-03 -2.240613e-03 -1.004494e-02 -9.793593e-03 -1.163356e-02 -3.297819e-03 -9.829605e-03 -7.873793e-03 1.990093e-02 -6.747959e-05 1.689020e-04 -8.629748e-05 6.160085e-05 1.005888e-04 1.937164e-04 5.470162e-05 -8.927679e-05 7.288184e-05 7.861986e-05 6.946741e-05 -2.280338e-05 -7.743179e-05
<VARIANCE> 39
 5.388823e+01 6.907150e+01 7.618170e+01 1.001515e+02 8.293212e+01 6.298711e+01 8.779292e+01 6.688511e+01 7.198394e+01 5.690723e+01 6.309919e+01 4.421615e+01 1.138123e+02 2.378278e+00 3.072931e+00 3.265645e+00 4.772770e+00 3.997695e+00 3.637732e+00 4.409511e+00 4.030375e+00 3.851419e+00 3.536639e+00 3.279880e+00 2.777075e+00 3.233641e+00 3.803738e-01 4.467770e-01 5.085781e-01 7.411439e-01 6.702636e-01 6.512842e-01 7.704064e-01 7.461892e-01 6.951670e-01 6.570979e-01 5.923334e-01 5.172852e-01 4.627464e-01
<GCONST> 1.364813e+02
<TRANSP> 5
 0.000000e+00 1.000000e+00 0.000000e+00 0.000000e+00 0.000000e+00
 0.000000e+00 7.214843e-01 2.785157e-01 0.000000e+00 0.000000e+00
 0.000000e+00 0.000000e+00 7.214749e-01 2.785251e-01 0.000000e+00
 0.000000e+00 0.000000e+00 0.000000e+00 8.435668e-01 1.564332e-01
 0.000000e+00 0.000000e+00 0.000000e+00 0.000000e+00 0.000000e+00
<ENDHMM>
~h "o"
<BEGINHMM>
<NUMSTATES> 5
<STATE> 2
<MEAN> 39
 -7.194174e+00 -7.731901e+00 -2.155151e+00 -9.402417e+00 -3.789037e+00 -7.983746e-01 -5.484417e+00 -2.644791e-01 -2.721529e+00 -8.471783e-01 -2.408991e+00 6.582584e-01 6.410636e+01 -2.504637e-03 -4.483731e-03 -8.824395e-03 5.741558e-03 4.392427e-03 1.119629e-03 -3.404460e-04 5.124593e-03 6.112142e-03 9.916120e-04 -8.424293e-04 1.059540e-03 -2.661436e-03 -3.962416e-04 -4.536373e-05 3.779436e-04 6.344824e-04 -1.473508e-04 -3.681130e-05 1.756172e-04 -1.962057e-04 1.819365e-04 3.755924e-04 1.380304e-04 2.689289e-04 -4.031822e-04
<VARIANCE> 39
 5.817482e+01 6.508806e+01 8.057930e+01 1.243965e+02 7.687752e+01 6.385491e+01 8.546317e+01 6.259328e+01 7.347366e+01 5.413189e+01 5.957591e+01 4.438932e+01 1.098009e+02 2.607770e+00 3.108965e+00 3.272911e+00 6.017255e+00 3.978099e+00 3.739496e+00 4.565080e+00 4.001276e+00 4.020333e+00 3.640331e+00 3.500179e+00 2.926966e+00 3.394536e+00 4.133515e-01 4.754511e-01 5.005865e-01 8.781806e-01 6.859907e-01 6.717211e-01 7.863760e-01 7.378265e-01 7.191457e-01 6.824660e-01 6.369957e-01 5.493055e-01 4.999362e-01
<GCONST> 1.377671e+02
<STATE> 3
<MEAN> 39
 -7.209346e+00 -7.746544e+00 -2.182174e+00 -9.371456e+00 -3.773292e+00 -7.945122e-01 -5.481108e+00 -2.449773e-01 -2.694821e+00 -8.390526e-01 -2.408130e+00 6.650833e-01 6.408967e+01 -4.012806e-03 -4.697295e-03 -7.157962e-03 8.128735e-03 3.830631e-03 1.003360e-03 4.622343e-04 4.274091e-03 6.754847e-03 2.510380e-03 -2.532620e-04 1.982810e-03 -3.975857e-03 -3.561859e-04 1.985420e-05 5.246512e-04 8.460438e-04 -1.242369e-04 -9.057664e-05 3.579817e-04 -3.491905e-04 2.348959e-04 4.755031e-04 2.368733e-04 2.598910e-04 -5.321846e-04
<VARIANCE> 39
 5.811249e+01 6.508300e+01 8.043688e+01 1.243190e+02 7.686340e+01 6.392612e+01 8.555522e+01 6.240757e+01 7.360330e+01 5.419058e+01 5.957519e+01 4.445032e+01 1.101496e+02 2.615359e+00 3.103971e+00 3.273055e+00 5.999636e+00 3.983065e+00 3.749473e+00 4.564003e+00 3.997817e+00 4.019912e+00 3.639604e+00 3.509354e+00 2.927730e+00 3.385389e+00 4.146079e-01 4.742745e-01 5.000970e-01 8.762160e-01 6.869517e-01 6.739837e-01 7.863743e-01 7.374656e-01 7.193285e-01 6.825645e-01 6.389468e-01 5.496723e-01 4.992186e-01
<GCONST> 1.377754e+02
<STATE> 4
<MEAN> 39
 -7.258582e+00 -7.732870e+00 -2.221629e+00 -9.283396e+00 -3.771609e+00 -8.424262e-01 -5.446592e+00 -2.731390e-01 -2.606296e+00 -8.331019e-01 -2.383670e+00 6.825389e-01 6.394928e+01 -7.033711e-03 -4.344991e-03 -2.756475e-03 1.338956e-02 3.067649e-03 5.944500e-04 2.938459e-03 2.972440e-03 8.562782e-03 5.209339e-03 1.518694e-03 3.360112e-03 -6.888207e-03 -3.699876e-04 9.377098e-05 7.649828e-04 8.317698e-04 -1.524633e-04 -1.049929e-04 4.812997e-04 -4.149478e-04 2.491972e-04 4.992079e-04 2.162290e-04 2.024016e-04 -5.118254e-04
<VARIANCE> 39
 5.813694e+01 6.483779e+01 8.057061e+01 1.243450e+02 7.733452e+01 6.373919e+01 8.564822e+01 6.236944e+01 7.376300e+01 5.429084e+01 5.966735e+01 4.431767e+01 1.113109e+02 2.602234e+00 3.059885e+00 3.256254e+00 5.910470e+00 3.968301e+00 3.740197e+00 4.536399e+00 3.978255e+00 4.005125e+00 3.625115e+00 3.500363e+00 2.916752e+00 3.341989e+00 4.119587e-01 4.663609e-01 4.953072e-01 8.617837e-01 6.833965e-01 6.728182e-01 7.816296e-01 7.330503e-01 7.169183e-01 6.797537e-01 6.371509e-01 5.476168e-01 4.922836e-01
<GCONST> 1.376106e+02
<TRANSP> 5
 0.000000e+00 1.000000e+00 0.000000e+00 0.000000e+00 0.000000e+00
 0.000000e+00 7.250091e-01 2.749908e-01 0.000000e+00 0.000000e+00
 0.000000e+00 0.000000e+00 7.250065e-01 2.749934e-01 0.000000e+00
 0.000000e+00 0.000000e+00 0.000000e+00 8.476873e-01 1.523127e-01
 0.000000e+00 0.000000e+00 0.000000e+00 0.000000e+00 0.000000e+00
<ENDHMM>
~h "p"
<BEGINHMM>
<NUMSTATES> 5
<STATE> 2
<MEAN> 39
 -8.204028e+00 -8.132456e+00 -1.217297e-01 -7.660993e+00 -4.593752e+00 -1.090956e+00 -4.732414e+00 -5.114262e-01 -2.410449e+00 -8.151330e-01 -2.139965e+00 7.110783e-01 6.411806e+01 1.557864e-04 6.944806e-04 -2.020627e-04 1.264078e-03 2.680133e-03 2.250143e-03 7.197473e-04 -8.225858e-04 7.360281e-04 -1.370503e-03 -5.365687e-05 -8.687534e-04 -1.659314e-03 -1.325629e-04 1.533839e-04 2.882761e-04 -1.940444e-04 -1.638542e-04 -3.213323e-05 -1.722659e-04 1.193686e-04 7.828261e-06 7.152432e-05 -2.211236e-04 8.141295e-05 1.181537e-04
<VARIANCE> 39
 5.499484e+01 6.996177e+01 8.125775e+01 1.006004e+02 8.248241e+01 6.239536e+01 8.339801e+01 6.332241e+01 6.987399e+01 5.485166e+01 5.850477e+01 4.183263e+01 1.117298e+02 2.719135e+00 3.337699e+00 3.350840e+00 5.136108e+00 4.277841e+00 3.732572e+00 4.634258e+00 4.113150e+00 3.979758e+00 3.644400e+00 3.404502e+00 2.822007e+00 3.574274e+00 4.414941e-01 5.012807e-01 5.226842e-01 7.854704e-01 7.187261e-01 6.675845e-01 8.080154e-01 7.671831e-01 7.146926e-01 6.833592e-01 6.176726e-01 5.329612e-01 5.440855e-01
<GCONST> 1.377619e+02
<STATE> 3
<MEAN> 39
 -8.203915e+00 -8.129149e+00 -1.226815e-01 -7.657205e+00 -4.583666e+00 -1.082442e+00 -4.730774e+00 -5.137783e-01 -2.406242e+00 -8.201014e-01 -2.141296e+00 7.097368e-01 6.411200e+01 -3.761839e-04 1.305296e-03 5.222308e-04 8.649355e-04 2.182006e-03 2.004338e-03 4.192405e-04 -3.553351e-04 9.730057e-04 -1.093255e-03 -6.636480e-04 -3.637905e-04 -1.500186e-03 -1.517251e-04 1.466749e-04 1.760420e-04 -8.590249e-05 -1.485850e-04 -3.965899e-05 -6.199610e-05 1.390120e-04 8.409109e-05 1.136446e-04 -1.593946e-04 1.482700e-04 5.890930e-05
<VARIANCE> 39
 5.497857e+01 6.986383e+01 8.122372e+01 1.005634e+02 8.242632e+01 6.230614e+01 8.336374e+01 6.322602e+01 6.979111e+01 5.490441e+01 5.842918e+01 4.188280e+01 1.117428e+02 2.722331e+00 3.332729e+00 3.351816e+00 5.138616e+00 4.277895e+00 3.732277e+00 4.631007e+00 4.109970e+00 3.977226e+00 3.643413e+00 3.403057e+00 2.825893e+00 3.565343e+00 4.418631e-01 5.003949e-01 5.227003e-01 7.854912e-01 7.188512e-01 6.676264e-01 8.074425e-01 7.666717e-01 7.141649e-01 6.828402e-01 6.175553e-01 5.335414e-01 5.425165e-01
<GCONST> 1.377462e+02
<STATE> 4
<MEAN> 39
 -8.210289e+00 -8.101879e+00 -1.543595e-01 -7.636792e+00 -4.590054e+00 -1.118756e+00 -4.706259e+00 -5.438154e-01 -2.354425e+00 -8.448778e-01 -2.127148e+00 7.173617e-01 6.400269e+01 -9.863805e-04 2.014338e-03 7.095087e-04 3.751569e-04 1.027279e-03 1.442748e-03 -2.605712e-05 6.373398e-05 1.269262e-03 -4.407081e-04 -1.455590e-03 2.257150e-04 -1.309776e-03 -1.352601e-04 1.124060e-04 9.054908e-05 -8.290642e-05 -2.632166e-04 -7.395238e-05 -5.139284e-05 8.864050e-05 3.839258e-05 1.658934e-04 -1.373574e-04 7.871390e-05 7.135750e-05
<VARIANCE> 39
 5.502409e+01 6.953705e+01 8.117725e+01 1.007318e+02 8.260522e+01 6.219209e+01 8.333865e+01 6.325050e+01 6.969994e+01 5.498952e+01 5.834188e+01 4.181972e+01 1.125347e+02 2.705920e+00 3.293948e+00 3.333790e+00 5.101406e+00 4.256742e+00 3.722172e+00 4.592985e+00 4.087883e+00 3.954607e+00 3.627223e+00 3.387429e+00 2.819162e+00 3.528879e+00 4.382238e-01 4.935367e-01 5.188881e-01 7.782917e-01 7.146611e-01 6.654037e-01 8.006802e-01 7.616730e-01 7.096743e-01 6.788906e-01 6.144451e-01 5.318056e-01 5.350662e-01
<GCONST> 1.375721e+02
<TRANSP> 5
 0.000000e+00 1.000000e+00 0.000000e+00 0.000000e+00 0.000000e+00
 0.000000e+00 7.252285e-01 2.747715e-01 0.000000e+00 0.000000e+00
 0.000000e+00 0.000000e+00 7.252277e-01 2.747723e-01 0.000000e+00
 0.000000e+00 0.000000e+00 0.000000e+00 8.480000e-01 1.520000e-01
 0.000000e+00 0.000000e+00 0.000000e+00 0.000000e+00 0.000000e+00
<ENDHMM>
~h "q"
<BEGINHMM>
<NUMSTATES> 5
<STATE> 2
<MEAN> 39
 -9.503820e+00 -7.185274e+00 8.192226e-01 -7.560784e+00 -5.439216e+00 -1.637534e+00 -4.643295e+00 -8.217964e-01 -2.293638e+00 -1.619830e-01 -2.122035e+00 9.289150e-01 6.399867e+01 -1.481686e-03 4.525296e-03 4.825142e-03 -2.446976e-03 -3.095859e-03 -2.701555e-04 2.401866e-03 -3.758999e-03 -1.490739e-03 3.123716e-03 3.172189e-04 1.148426e-04 -9.575508e-04 4.836803e-05 2.303794e-05 -5.892064e-05 -9.495679e-05 1.150769e-04 1.394770e-04 9.059804e-06 1.685723e-04 8.831691e-05 1.447002e-04 7.310300e-05 4.181806e-05 -1.719253e-05
<VARIANCE> 39
 6.160712e+01 7.183785e+01 7.936575e+01 9.415707e+01 8.132257e+01 6.090195e+01 8.260201e+01 6.522929e+01 7.154360e+01 5.326843e+01 5.951139e+01 4.139019e+01 1.118116e+02 3.007318e+00 3.233876e+00 3.230240e+00 4.633289e+00 4.181559e+00 3.749255e+00 4.514961e+00 4.028810e+00 3.968566e+00 3.539960e+00 3.358428e+00 2.752154e+00 2.990214e+00 4.584201e-01 4.713537e-01 4.974919e-01 7.161202e-01 6.971008e-01 6.654822e-01 7.821904e-01 7.443216e-01 7.123799e-01 6.676907e-01 6.056185e-01 5.196355e-01 4.341387e-01
<GCONST> 1.368513e+02
<STATE> 3
<MEAN> 39
 -9.508794e+00 -7.168269e+00 8.358426e-01 -7.570030e+00 -5.448647e+00 -1.636967e+00 -4.634160e+00 -8.334492e-01 -2.297581e+00 -1.497597e-01 -2.120484e+00 9.294637e-01 6.399511e+01 -1.330470e-03 4.773400e-03 4.577355e-03 -2.871376e-03 -2.726774e-03 1.339738e-04 2.447411e-03 -2.995517e-03 -1.082586e-03 3.641822e-03 4.637565e-04 8.698786e-05 -1.022462e-03 4.754367e-05 4.510448e-05 -6.998434e-05 -1.311798e-04 6.088484e-05 1.390832e-04 -3.096953e-06 2.112475e-04 9.880291e-05 1.341200e-04 3.794761e-06 -2.802302e-05 1.176356e-05
<VARIANCE> 39
 6.163693e+01 7.175211e+01 7.941529e+01 9.420175e+01 8.133559e+01 6.095401e+01 8.256411e+01 6.513753e+01 7.151877e+01 5.322184e+01 5.948833e+01 4.137237e+01 1.118918e+02 3.006695e+00 3.231573e+00 3.228519e+00 4.629238e+00 4.182370e+00 3.746988e+00 4.514160e+00 4.028107e+00 3.969380e+00 3.537811e+00 3.358572e+00 2.751969e+00 2.988053e+00 4.580816e-01 4.707672e-01 4.972407e-01 7.152970e-01 6.971625e-01 6.651219e-01 7.820811e-01 7.442967e-01 7.125567e-01 6.675082e-01 6.058819e-01 5.196421e-01 4.340179e-01
<GCONST> 1.368412e+02
<STATE> 4
<MEAN> 39
 -9.520236e+00 -7.119566e+00 8.293937e-01 -7.584599e+00 -5.460827e+00 -1.656334e+00 -4.605236e+00 -8.779090e-01 -2.257647e+00 -1.473310e-01 -2.100466e+00 9.279701e-01 6.391293e+01 -7.023900e-04 4.586891e-03 3.628823e-03 -3.370781e-03 -2.358167e-03 8.187522e-04 2.131300e-03 -2.002372e-03 -1.122786e-03 3.729621e-03 -2.025834e-04 -1.293007e-04 -8.170625e-04 1.356830e-04 -7.201952e-05 -1.617991e-04 -1.147721e-04 -1.870304e-05 1.145351e-04 -8.493220e-05 1.517225e-04 -2.326153e-05 1.032991e-05 -1.400872e-04 -6.644834e-05 4.255766e-05
<VARIANCE> 39
 6.184995e+01 7.139310e+01 7.946622e+01 9.457111e+01 8.163649e+01 6.094856e+01 8.256147e+01 6.509302e+01 7.145304e+01 5.315262e+01 5.944989e+01 4.122401e+01 1.125766e+02 2.987567e+00 3.199478e+00 3.209859e+00 4.603672e+00 4.166334e+00 3.733625e+00 4.492888e+00 4.013273e+00 3.951783e+00 3.524038e+00 3.346097e+00 2.746005e+00 2.971883e+00 4.545003e-01 4.658552e-01 4.938055e-01 7.100077e-01 6.935769e-01 6.627052e-01 7.781742e-01 7.406480e-01 7.093781e-01 6.647565e-01 6.038626e-01 5.184712e-01 4.309691e-01
<GCONST> 1.367108e+02
<TRANSP> 5
 0.000000e+00 1.000000e+00 0.000000e+00 0.000000e+00 0.000000e+00
 0.000000e+00 7.234170e-01 2.765830e-01 0.000000e+00 0.000000e+00
 0.000000e+00 0.000000e+00 7.234185e-01 2.765815e-01 0.000000e+00
 0.000000e+00 0.000000e+00 0.000000e+00 8.457288e-01 1.542712e-01
 0.000000e+00 0.000000e+00 0.000000e+00 0.000000e+00 0.000000e+00
<ENDHMM>
~h "r"
<BEGINHMM>
<NUMSTATES> 5
<STATE> 2
<MEAN> 39
 -7.874289e+00 -8.966578e+00 1.678362e-01 -7.564852e+00 -6.111128e+00 -2.376822e+00 -5.021817e+00 -3.071776e-02 -2.598520e+00 -7.584408e-01 -2.058235e+00 9.038333e-01 6.394566e+01 2.510135e-03 -2.210767e-03 1.319258e-03 7.347399e-04 -4.062498e-03 -1.927586e-03 -4.635057e-04 2.611731e-05 -1.305647e-03 7.788859e-04 -3.179393e-03 -1.331761e-03 -3.690960e-03 -1.424018e-04 3.051435e-04 -1.491784e-05 -1.429992e-04 3.960673e-04 3.078265e-04 -2.983561e-05 -6.631089e-05 2.683132e-04 4.339936e-04 -1.629161e-04 6.461907e-05 -1.396557e-04
<VARIANCE> 39
 5.585995e+01 6.971317e+01 7.383419e+01 9.919653e+01 8.939600e+01 6.720974e+01 8.586238e+01 6.485030e+01 7.448474e+01 5.676358e+01 6.031695e+01 4.278354e+01 1.181900e+02 2.348372e+00 2.869795e+00 2.874307e+00 4.478338e+00 3.893837e+00 3.628623e+00 4.192826e+00 3.894740e+00 3.729302e+00 3.513723e+00 3.216588e+00 2.725490e+00 2.733636e+00 3.683694e-01 4.143343e-01 4.337877e-01 6.736309e-01 6.418259e-01 6.368232e-01 7.261892e-01 7.131352e-01 6.684060e-01 6.497018e-01 5.798958e-01 5.076818e-01 3.826955e-01
<GCONST> 1.351202e+02
<STATE> 3
<MEAN> 39
 -7.865832e+00 -8.971222e+00 1.730900e-01 -7.563604e+00 -6.122581e+00 -2.381970e+00 -5.023355e+00 -3.113922e-02 -2.600827e+00 -7.528861e-01 -2.070325e+00 8.986434e-01 6.393055e+01 2.001748e-03 -1.168497e-03 1.140837e-03 8.896762e-05 -2.688843e-03 -7.807349e-04 -2.914263e-04 -3.250537e-05 -6.364927e-04 1.944207e-03 -3.643980e-03 -1.482001e-03 -4.105991e-03 -1.637154e-04 2.754792e-04 -5.969914e-05 -1.776006e-04 3.587520e-04 2.997273e-04 4.388573e-05 4.034315e-05 1.426235e-04 2.726510e-04 -1.196430e-04 -5.850189e-05 -7.671723e-05
<VARIANCE> 39
 5.565866e+01 6.971016e+01 7.376296e+01 9.914110e+01 8.950993e+01 6.727129e+01 8.592133e+01 6.489616e+01 7.457388e+01 5.679795e+01 6.036486e+01 4.285825e+01 1.183770e+02 2.338774e+00 2.863438e+00 2.870015e+00 4.469323e+00 3.893512e+00 3.625566e+00 4.191381e+00 3.894200e+00 3.728563e+00 3.513278e+00 3.217374e+00 2.727145e+00 2.733925e+00 3.669704e-01 4.133274e-01 4.332141e-01 6.721955e-01 6.417376e-01 6.361360e-01 7.255764e-01 7.128298e-01 6.682937e-01 6.494330e-01 5.797314e-01 5.076891e-01 3.822690e-01
<GCONST> 1.350998e+02
<STATE> 4
<MEAN> 39
 -7.847001e+00 -8.937618e+00 1.503882e-01 -7.565631e+00 -6.142294e+00 -2.421054e+00 -5.011376e+00 -7.365769e-02 -2.575552e+00 -7.664191e-01 -2.073647e+00 8.705373e-01 6.382726e+01 1.160474e-03 6.213184e-04 1.013304e-03 -7.993614e-04 -1.153169e-03 5.783457e-04 -1.835767e-04 -8.711210e-05 -1.064459e-04 3.197244e-03 -4.075993e-03 -1.984569e-03 -4.233079e-03 -1.958021e-04 2.655479e-04 -6.489691e-05 -1.394830e-04 2.681350e-04 2.555273e-04 4.337496e-05 5.500419e-05 6.004103e-05 1.931699e-04 -5.589335e-05 -8.063948e-05 1.508737e-05
<VARIANCE> 39
 5.551798e+01 6.946630e+01 7.378654e+01 9.943186e+01 8.999960e+01 6.727014e+01 8.589767e+01 6.496920e+01 7.468050e+01 5.684369e+01 6.042220e+01 4.285460e+01 1.190489e+02 2.310871e+00 2.834090e+00 2.855788e+00 4.435951e+00 3.884103e+00 3.610265e+00 4.173100e+00 3.878830e+00 3.718593e+00 3.504366e+00 3.209635e+00 2.724445e+00 2.725693e+00 3.625042e-01 4.085804e-01 4.307410e-01 6.658017e-01 6.394539e-01 6.329892e-01 7.214366e-01 7.091655e-01 6.664131e-01 6.472441e-01 5.776861e-01 5.066008e-01 3.792323e-01
<GCONST> 1.349723e+02
<TRANSP> 5
 0.000000e+00 1.000000e+00 0.000000e+00 0.000000e+00 0.000000e+00
 0.000000e+00 7.207817e-01 2.792183e-01 0.000000e+00 0.000000e+00
 0.000000e+00 0.000000e+00 7.207856e-01 2.792144e-01 0.000000e+00
 0.000000e+00 0.000000e+00 0.000000e+00 8.427360e-01 1.572640e-01
 0.000000e+00 0.000000e+00 0.000000e+00 0.000000e+00 0.000000e+00
<ENDHMM>
~h "s"
<BEGINHMM>
<NUMSTATES> 5
<STATE> 2
<MEAN> 39
 -9.110712e+00 -7.563858e+00 -1.071674e+00 -7.173187e+00 -4.475024e+00 -2.157771e+00 -4.773176e+00 8.754134e-03 -2.220832e+00 -7.019700e-01 -1.978082e+00 1.103316e+00 6.420889e+01 9.489751e-04 1.646520e-03 -3.081854e-03 -8.978608e-04 1.977426e-03 -2.773890e-03 -3.551974e-03 6.616979e-04 5.471677e-04 -1.965649e-03 3.994908e-06 -6.569468e-04 2.633036e-03 2.581917e-06 5.076833e-05 5.541730e-04 -1.383765e-04 -3.379007e-04 9.182715e-05 -1.061317e-04 -1.914405e-04 2.476870e-05 3.639209e-04 -9.261223e-05 -3.686073e-05 -2.029536e-04
<VARIANCE> 39
 6.030939e+01 7.136726e+01 7.392921e+01 1.038319e+02 7.722671e+01 6.648544e+01 8.571078e+01 6.245559e+01 7.089899e+01 5.561170e+01 6.012942e+01 4.193328e+01 1.095413e+02 3.053689e+00 3.360888e+00 2.888523e+00 5.052838e+00 3.747828e+00 3.901077e+00 4.671605e+00 3.919089e+00 3.796367e+00 3.603665e+00 3.352440e+00 2.772489e+00 2.780995e+00 4.693065e-01 4.832444e-01 4.452721e-01 7.475905e-01 6.261749e-01 6.869321e-01 8.046886e-01 7.196090e-01 6.768547e-01 6.667119e-01 5.994331e-01 5.180244e-01 3.940217e-01
<GCONST> 1.365252e+02
<STATE> 3
<MEAN> 39
 -9.107069e+00 -7.557857e+00 -1.079010e+00 -7.177240e+00 -4.469536e+00 -2.166815e+00 -4.785299e+00 9.849429e-03 -2.218343e+00 -7.057637e-01 -1.978907e+00 1.101696e+00 6.421554e+01 9.991208e-04 1.787000e-03 -1.282092e-03 -1.234988e-03 1.091689e-03 -2.355400e-03 -3.623310e-03 1.537401e-04 6.126057e-04 -7.100101e-04 -4.637276e-04 -7.021959e-04 1.744644e-03 3.238529e-06 3.028299e-05 4.709583e-04 -7.471634e-05 -2.529009e-04 1.409939e-04 1.554709e-05 -1.358121e-04 -1.948356e-06 3.459618e-04 -1.166368e-04 1.498364e-05 -2.324959e-04
<VARIANCE> 39
 6.039663e+01 7.128298e+01 7.402284e+01 1.038691e+02 7.722844e+01 6.659617e+01 8.564066e+01 6.247485e+01 7.085235e+01 5.560612e+01 6.009026e+01 4.193021e+01 1.094449e+02 3.057258e+00 3.363995e+00 2.883158e+00 5.053907e+00 3.744479e+00 3.903115e+00 4.672149e+00 3.921184e+00 3.793170e+00 3.600975e+00 3.354552e+00 2.774106e+00 2.778868e+00 4.700993e-01 4.836373e-01 4.440782e-01 7.472882e-01 6.253791e-01 6.870427e-01 8.045868e-01 7.197512e-01 6.760885e-01 6.660745e-01 5.997131e-01 5.183511e-01 3.936418e-01
<GCONST> 1.365219e+02
<STATE> 4
<MEAN> 39
 -9.103562e+00 -7.514264e+00 -1.101000e+00 -7.168263e+00 -4.464551e+00 -2.208645e+00 -4.774377e+00 -2.669075e-02 -2.177416e+00 -7.248304e-01 -1.954516e+00 1.108365e+00 6.414259e+01 1.070545e-03 1.654655e-03 8.628442e-04 -1.800315e-03 1.945814e-04 -1.073708e-03 -3.355462e-03 -7.524963e-04 3.911793e-04 3.998004e-04 -1.167891e-03 -6.225598e-04 2.821312e-04 1.470864e-05 -2.811440e-05 3.849452e-04 -8.301112e-05 -2.114138e-04 2.263286e-04 2.944538e-05 -1.755077e-04 -7.228661e-05 1.733557e-04 -1.218178e-04 4.408794e-07 -1.939298e-04
<VARIANCE> 39
 6.076595e+01 7.093944e+01 7.417317e+01 1.043371e+02 7.757840e+01 6.666009e+01 8.554218e+01 6.268131e+01 7.074360e+01 5.565878e+01 6.002137e+01 4.185255e+01 1.098707e+02 3.042607e+00 3.333573e+00 2.865410e+00 5.023550e+00 3.727344e+00 3.894262e+00 4.646752e+00 3.909906e+00 3.775380e+00 3.586027e+00 3.344008e+00 2.769136e+00 2.764424e+00 4.670565e-01 4.790127e-01 4.401686e-01 7.410098e-01 6.215674e-01 6.849700e-01 7.994227e-01 7.164786e-01 6.727439e-01 6.624858e-01 5.975820e-01 5.169266e-01 3.909312e-01
<GCONST> 1.364001e+02
<TRANSP> 5
 0.000000e+00 1.000000e+00 0.000000e+00 0.000000e+00 0.000000e+00
 0.000000e+00 7.230724e-01 2.769276e-01 0.000000e+00 0.000000e+00
 0.000000e+00 0.000000e+00 7.230638e-01 2.769363e-01 0.000000e+00
 0.000000e+00 0.000000e+00 0.000000e+00 8.455313e-01 1.544687e-01
 0.000000e+00 0.000000e+00 0.000000e+00 0.000000e+00 0.000000e+00
<ENDHMM>
~h "t"
<BEGINHMM>
<NUMSTATES> 5
<STATE> 2
<MEAN> 39
 -8.440379e+00 -8.033826e+00 -4.311843e-01 -7.323767e+00 -4.269903e+00 -1.283050e+00 -4.491287e+00 -1.367787e-01 -1.826957e+00 -4.668028e-01 -1.826593e+00 1.061030e+00 6.331927e+01 2.957653e-03 -2.356355e-03 -3.624945e-03 -2.924263e-03 3.028651e-03 1.617632e-03 -2.226362e-03 -8.621349e-04 -3.301034e-03 -3.525190e-03 5.554855e-04 -4.572433e-04 3.451813e-03 -1.366229e-04 2.132019e-04 3.241218e-04 8.844919e-05 -1.820370e-04 -2.483850e-05 -2.271844e-05 -2.277427e-05 -1.362313e-04 7.694089e-05 2.002908e-05 2.358957e-04 -3.629568e-05
<VARIANCE> 39
 5.349226e+01 6.697459e+01 7.379465e+01 1.000592e+02 7.983490e+01 6.095586e+01 8.416079e+01 6.386164e+01 7.146545e+01 5.576082e+01 6.065300e+01 4.236958e+01 1.167769e+02 2.559092e+00 3.051692e+00 3.108463e+00 4.820899e+00 4.045181e+00 3.667072e+00 4.561716e+00 4.060308e+00 3.882223e+00 3.572365e+00 3.358373e+00 2.772847e+00 3.373597e+00 4.128127e-01 4.575156e-01 4.860883e-01 7.372884e-01 6.755357e-01 6.620340e-01 8.010184e-01 7.554973e-01 7.008733e-01 6.717966e-01 6.074693e-01 5.226923e-01 5.294242e-01
<GCONST> 1.366689e+02
<STATE> 3
<MEAN> 39
 -8.430634e+00 -8.041380e+00 -4.419111e-01 -7.333664e+00 -4.260188e+00 -1.278097e+00 -4.499426e+00 -1.392772e-01 -1.838339e+00 -4.789349e-01 -1.824921e+00 1.061251e+00 6.333130e+01 2.460343e-03 -1.917236e-03 -2.415464e-03 -2.749934e-03 2.337043e-03 1.305321e-03 -2.533554e-03 -6.092752e-04 -3.441292e-03 -3.271004e-03 4.229201e-04 2.195963e-04 3.453960e-03 -1.418521e-04 1.060663e-04 3.135178e-04 2.945588e-05 -1.664370e-04 -6.185610e-05 -8.530137e-05 7.635850e-05 -5.343917e-05 3.692988e-05 -8.447599e-05 1.787006e-04 3.108097e-05
<VARIANCE> 39
 5.348263e+01 6.691384e+01 7.373856e+01 1.000317e+02 7.987741e+01 6.093536e+01 8.416074e+01 6.384478e+01 7.128903e+01 5.571338e+01 6.071183e+01 4.238776e+01 1.166238e+02 2.560028e+00 3.052657e+00 3.111674e+00 4.828046e+00 4.047508e+00 3.667129e+00 4.565980e+00 4.060755e+00 3.882072e+00 3.574678e+00 3.359849e+00 2.775776e+00 3.376670e+00 4.131549e-01 4.576262e-01 4.867872e-01 7.383375e-01 6.759720e-01 6.621754e-01 8.017879e-01 7.557963e-01 7.007838e-01 6.721137e-01 6.075444e-01 5.233059e-01 5.300144e-01
<GCONST> 1.366802e+02
<STATE> 4
<MEAN> 39
 -8.418186e+00 -8.026974e+00 -4.806625e-01 -7.346160e+00 -4.264246e+00 -1.317321e+00 -4.504899e+00 -1.831682e-01 -1.828972e+00 -5.284374e-01 -1.817468e+00 1.059692e+00 6.329044e+01 1.839216e-03 -1.379342e-03 -9.097288e-04 -2.692162e-03 1.361446e-03 1.087050e-03 -3.187829e-03 -5.005238e-04 -3.276839e-03 -2.965163e-03 -3.661586e-04 7.280961e-04 3.802707e-03 -1.103600e-04 9.836833e-05 2.677716e-04 3.361885e-06 -1.745002e-04 -6.207702e-07 -1.215867e-04 -3.092649e-05 -4.790208e-05 1.888149e-05 -1.730126e-04 3.946829e-05 1.061054e-04
<VARIANCE> 39
 5.371027e+01 6.672478e+01 7.392963e+01 1.002878e+02 8.021183e+01 6.089420e+01 8.413673e+01 6.394636e+01 7.096928e+01 5.570475e+01 6.075276e+01 4.232782e+01 1.168807e+02 2.550473e+00 3.035706e+00 3.109128e+00 4.812178e+00 4.043156e+00 3.661798e+00 4.553734e+00 4.050330e+00 3.870323e+00 3.572256e+00 3.353115e+00 2.773926e+00 3.375189e+00 4.113442e-01 4.546641e-01 4.860544e-01 7.345040e-01 6.747605e-01 6.610565e-01 7.991977e-01 7.529199e-01 6.985185e-01 6.708153e-01 6.058797e-01 5.230038e-01 5.284059e-01
<GCONST> 1.366207e+02
<TRANSP> 5
 0.000000e+00 1.000000e+00 0.000000e+00 0.000000e+00 0.000000e+00
 0.000000e+00 7.223965e-01 2.776036e-01 0.000000e+00 0.000000e+00
 0.000000e+00 0.000000e+00 7.223985e-01 2.776015e-01 0.000000e+00
 0.000000e+00 0.000000e+00 0.000000e+00 8.445641e-01 1.554359e-01
 0.000000e+00 0.000000e+00 0.000000e+00 0.000000e+00 0.000000e+00
<ENDHMM>
~h "u"
<BEGINHMM>
<NUMSTATES> 5
<STATE> 2
<MEAN> 39
 -7.762640e+00 -7.257506e+00 -9.067810e-01 -8.205714e+00 -4.841877e+00 -1.489520e+00 -5.353032e+00 -3.787980e-01 -2.430480e+00 -4.576529e-01 -2.180275e+00 9.998617e-01 6.334868e+01 -1.396440e-03 2.277425e-03 -1.229859e-03 3.821496e-03 3.767755e-03 4.325550e-03 8.719548e-04 6.464285e-04 1.563595e-03 3.344566e-03 1.285885e-03 2.723515e-03 -6.493567e-03 -1.506512e-04 -1.955098e-04 3.429191e-04 9.605347e-05 -1.617330e-04 -1.851143e-04 -6.775925e-06 -1.365130e-04 2.082466e-05 3.745061e-05 -1.273341e-04 -1.289760e-04 2.628064e-04
<VARIANCE> 39
 6.173395e+01 6.811456e+01 7.369835e+01 1.100232e+02 7.820683e+01 6.131863e+01 8.605732e+01 6.420243e+01 7.437799e+01 5.411980e+01 6.015729e+01 4.221865e+01 1.100500e+02 2.896066e+00 3.019557e+00 3.131654e+00 5.404328e+00 3.944491e+00 3.749051e+00 4.700497e+00 4.126540e+00 4.066607e+00 3.642860e+00 3.387069e+00 2.827216e+00 3.066929e+00 4.518020e-01 4.538863e-01 4.916824e-01 8.173857e-01 6.690347e-01 6.833711e-01 8.237607e-01 7.650446e-01 7.286234e-01 6.907324e-01 6.184303e-01 5.359126e-01 4.569525e-01
<GCONST> 1.373727e+02
<STATE> 3
<MEAN> 39
 -7.768901e+00 -7.250795e+00 -9.089054e-01 -8.191240e+00 -4.829559e+00 -1.474839e+00 -5.350624e+00 -3.778850e-01 -2.425534e+00 -4.452330e-01 -2.176655e+00 1.008563e+00 6.332737e+01 -1.838887e-03 1.530020e-03 3.001315e-05 4.163948e-03 3.090021e-03 3.601644e-03 7.929637e-04 6.938691e-05 1.573394e-03 3.472633e-03 8.631533e-04 2.230010e-03 -5.519941e-03 -6.340211e-06 -1.708943e-04 3.619466e-04 8.559503e-05 -2.501198e-04 -2.647371e-04 1.386800e-05 -2.617671e-04 3.555923e-05 -3.708148e-06 -1.269222e-04 -1.931674e-04 2.094591e-04
<VARIANCE> 39
 6.164829e+01 6.797643e+01 7.372327e+01 1.100289e+02 7.824419e+01 6.136557e+01 8.616147e+01 6.420953e+01 7.442500e+01 5.416871e+01 6.017461e+01 4.222361e+01 1.102326e+02 2.892916e+00 3.014228e+00 3.131889e+00 5.403058e+00 3.939952e+00 3.746157e+00 4.702582e+00 4.125779e+00 4.065058e+00 3.641389e+00 3.386530e+00 2.826206e+00 3.064591e+00 4.514962e-01 4.533952e-01 4.919401e-01 8.176604e-01 6.683977e-01 6.829975e-01 8.239374e-01 7.648141e-01 7.281814e-01 6.904677e-01 6.183347e-01 5.356196e-01 4.569616e-01
<GCONST> 1.373650e+02
<STATE> 4
<MEAN> 39
 -7.775067e+00 -7.215466e+00 -9.258555e-01 -8.156524e+00 -4.828472e+00 -1.502223e+00 -5.330245e+00 -4.188404e-01 -2.381687e+00 -4.512120e-01 -2.162574e+00 1.014467e+00 6.321988e+01 -2.220658e-03 4.869989e-04 1.828808e-03 4.394175e-03 1.747517e-03 2.381396e-03 6.836638e-04 -1.082725e-03 1.538903e-03 3.471238e-03 1.623256e-04 1.310042e-03 -4.083313e-03 -4.520034e-05 -6.912014e-05 3.659945e-04 4.318845e-05 -3.294597e-04 -2.447156e-04 5.921390e-05 -2.557259e-04 -1.340400e-05 1.358445e-05 -2.152380e-04 -1.881062e-04 1.952864e-04
<VARIANCE> 39
 6.161266e+01 6.760271e+01 7.389159e+01 1.102054e+02 7.859290e+01 6.134528e+01 8.623289e+01 6.424552e+01 7.447975e+01 5.427583e+01 6.021830e+01 4.206732e+01 1.109439e+02 2.864051e+00 2.981038e+00 3.118563e+00 5.358675e+00 3.919340e+00 3.729930e+00 4.675869e+00 4.106498e+00 4.044369e+00 3.625982e+00 3.370291e+00 2.813113e+00 3.039274e+00 4.463114e-01 4.483531e-01 4.893467e-01 8.096148e-01 6.642653e-01 6.797563e-01 8.181738e-01 7.599730e-01 7.237600e-01 6.869980e-01 6.152707e-01 5.330734e-01 4.522382e-01
<GCONST> 1.372003e+02
<TRANSP> 5
 0.000000e+00 1.000000e+00 0.000000e+00 0.000000e+00 0.000000e+00
 0.000000e+00 7.232834e-01 2.767166e-01 0.000000e+00 0.000000e+00
 0.000000e+00 0.000000e+00 7.232764e-01 2.767235e-01 0.000000e+00
 0.000000e+00 0.000000e+00 0.000000e+00 8.457296e-01 1.542704e-01
 0.000000e+00 0.000000e+00 0.000000e+00 0.000000e+00 0.000000e+00
<ENDHMM>
~h "v"
<BEGINHMM>
<NUMSTATES> 5
<STATE> 2
<MEAN> 39
 -8.849220e+00 -7.556398e+00 2.091730e+00 -8.442990e+00 -6.500050e+00 -1.944279e+00 -5.537130e+00 -1.636243e+00 -3.286722e+00 7.577848e-02 -2.783015e+00 6.445304e-01 6.420842e+01 -3.651333e-04 3.624704e-03 4.305906e-03 -3.012880e-03 -3.315047e-03 1.295820e-03 -1.445787e-03 -2.980652e-03 -2.792248e-03 5.241147e-04 -2.610474e-03 -5.060660e-04 2.412518e-03 5.012829e-05 -2.705186e-05 -4.607559e-04 1.587609e-04 2.774024e-04 2.337345e-05 1.302807e-04 2.760144e-04 3.127395e-04 -1.989598e-04 2.917374e-05 8.394913e-05 -8.577964e-05
<VARIANCE> 39
 5.734046e+01 6.571313e+01 9.735574e+01 9.673721e+01 9.163383e+01 6.158189e+01 8.414600e+01 7.361848e+01 7.851501e+01 5.398941e+01 6.399202e+01 4.330854e+01 1.063455e+02 2.612816e+00 2.932165e+00 3.315293e+00 4.454781e+00 4.177671e+00 3.664718e+00 4.354574e+00 4.076398e+00 4.008816e+00 3.484806e+00 3.316959e+00 2.736494e+00 2.927143e+00 4.056923e-01 4.349762e-01 4.790902e-01 6.877136e-01 6.759501e-01 6.478667e-01 7.532845e-01 7.320362e-01 7.037913e-01 6.505228e-01 5.910597e-01 5.103752e-01 4.215080e-01
<GCONST> 1.365182e+02
<STATE> 3
<MEAN> 39
 -8.849998e+00 -7.543824e+00 2.103089e+00 -8.453405e+00 -6.508992e+00 -1.939551e+00 -5.541837e+00 -1.644535e+00 -3.295353e+00 7.653499e-02 -2.791740e+00 6.430182e-01 6.421768e+01 -1.438984e-04 3.531281e-03 2.499236e-03 -2.421602e-03 -2.253705e-03 1.287278e-03 -9.809852e-04 -2.058672e-03 -1.664041e-03 -1.509644e-04 -2.425312e-03 -2.304295e-04 2.139434e-03 9.586095e-05 -2.179305e-05 -4.716417e-04 1.412872e-04 2.725678e-04 -7.194797e-05 1.469207e-04 2.061527e-04 3.274203e-04 -1.930462e-04 5.892603e-05 6.136884e-05 -9.145055e-05
<VARIANCE> 39
 5.739352e+01 6.571033e+01 9.736670e+01 9.680978e+01 9.164262e+01 6.166305e+01 8.413365e+01 7.355511e+01 7.858950e+01 5.399401e+01 6.397681e+01 4.327122e+01 1.063065e+02 2.618098e+00 2.936534e+00 3.317049e+00 4.459387e+00 4.183051e+00 3.668364e+00 4.356245e+00 4.078501e+00 4.013018e+00 3.485182e+00 3.318718e+00 2.737487e+00 2.930384e+00 4.066685e-01 4.359156e-01 4.793395e-01 6.882812e-01 6.767792e-01 6.485365e-01 7.537661e-01 7.323910e-01 7.041759e-01 6.507217e-01 5.912098e-01 5.106040e-01 4.224678e-01
<GCONST> 1.365445e+02
<STATE> 4
<MEAN> 39
 -8.849640e+00 -7.501105e+00 2.093079e+00 -8.467669e+00 -6.525539e+00 -1.966434e+00 -5.535338e+00 -1.699844e+00 -3.256831e+00 4.884517e-02 -2.793412e+00 6.442755e-01 6.415649e+01 4.991438e-04 3.231463e-03 -8.351394e-04 -2.015471e-03 -3.048168e-04 9.707882e-04 -3.397813e-04 -7.296796e-04 1.320490e-04 -9.987894e-04 -1.884635e-03 1.324925e-04 2.036341e-03 1.051289e-04 -1.631488e-05 -5.445994e-04 6.077017e-05 2.769011e-04 -1.003216e-04 1.415951e-04 1.853743e-04 3.183432e-04 -1.197233e-04 5.058953e-05 1.067581e-04 -5.744820e-05
<VARIANCE> 39
 5.762281e+01 6.550475e+01 9.740854e+01 9.734613e+01 9.205408e+01 6.173623e+01 8.406124e+01 7.371210e+01 7.855777e+01 5.401291e+01 6.408117e+01 4.306524e+01 1.067321e+02 2.611272e+00 2.917418e+00 3.298942e+00 4.444597e+00 4.171377e+00 3.660630e+00 4.334580e+00 4.067345e+00 3.994718e+00 3.472045e+00 3.311323e+00 2.730099e+00 2.916715e+00 4.052024e-01 4.333087e-01 4.761733e-01 6.844784e-01 6.739926e-01 6.471124e-01 7.498938e-01 7.289286e-01 7.003750e-01 6.481450e-01 5.894569e-01 5.091735e-01 4.197015e-01
<GCONST> 1.364508e+02
<TRANSP> 5
 0.000000e+00 1.000000e+00 0.000000e+00 0.000000e+00 0.000000e+00
 0.000000e+00 7.234129e-01 2.765872e-01 0.000000e+00 0.000000e+00
 0.000000e+00 0.000000e+00 7.234230e-01 2.765770e-01 0.000000e+00
 0.000000e+00 0.000000e+00 0.000000e+00 8.458860e-01 1.541141e-01
 0.000000e+00 0.000000e+00 0.000000e+00 0.000000e+00 0.000000e+00
<ENDHMM>
~h "x"
<BEGINHMM>
<NUMSTATES> 5
<STATE> 2
<MEAN> 39
 -9.595224e+00 -7.176518e+00 5.504173e-01 -7.662711e+00 -5.419525e+00 -1.605344e+00 -4.605442e+00 -7.612069e-01 -2.293806e+00 -2.249334e-01 -2.150251e+00 9.131954e-01 6.419086e+01 -2.330575e-03 1.488615e-03 -2.575309e-04 2.293189e-03 -1.885518e-04 9.091032e-04 4.336476e-03 1.708138e-04 4.470655e-04 3.291888e-05 1.345940e-03 2.813797e-04 -2.460770e-03 2.309790e-04 -1.172502e-05 -2.373829e-04 -1.530062e-04 1.387626e-04 8.739828e-05 -7.378498e-06 2.877208e-04 4.182951e-05 1.006967e-04 -8.851895e-05 5.640549e-05 -1.324111e-04
<VARIANCE> 39
 6.253533e+01 7.538283e+01 7.714728e+01 9.702154e+01 8.128290e+01 6.038757e+01 8.392416e+01 6.478234e+01 7.142612e+01 5.391303e+01 5.971671e+01 4.110808e+01 1.132590e+02 3.030179e+00 3.434968e+00 3.188423e+00 4.753186e+00 4.267150e+00 3.717693e+00 4.536308e+00 3.983028e+00 3.916812e+00 3.541694e+00 3.317966e+00 2.736872e+00 2.632878e+00 4.547502e-01 4.818975e-01 4.928891e-01 7.238264e-01 7.223376e-01 6.652147e-01 7.832063e-01 7.393110e-01 7.036661e-01 6.658949e-01 5.958897e-01 5.165233e-01 3.709658e-01
<GCONST> 1.367147e+02
<STATE> 3
<MEAN> 39
 -9.602287e+00 -7.170450e+00 5.479078e-01 -7.656207e+00 -5.418708e+00 -1.601171e+00 -4.590097e+00 -7.590860e-01 -2.291641e+00 -2.238070e-01 -2.146356e+00 9.137486e-01 6.418110e+01 -1.608903e-03 1.494105e-03 -1.078588e-03 1.727097e-03 4.499402e-04 1.412317e-03 4.210350e-03 1.029573e-03 6.897569e-04 4.053134e-04 9.994700e-04 2.956045e-04 -2.916575e-03 1.852289e-04 -8.690098e-06 -2.265097e-04 -1.965093e-04 1.703208e-04 1.676751e-04 -8.964513e-05 2.275110e-04 2.812484e-05 1.299939e-04 -1.077633e-04 -2.443150e-06 -7.347521e-05
<VARIANCE> 39
 6.252256e+01 7.542443e+01 7.711083e+01 9.691695e+01 8.126297e+01 6.038552e+01 8.388769e+01 6.470747e+01 7.139489e+01 5.395989e+01 5.966746e+01 4.112750e+01 1.133872e+02 3.028278e+00 3.440949e+00 3.186123e+00 4.752954e+00 4.267994e+00 3.718132e+00 4.531463e+00 3.980700e+00 3.916326e+00 3.540884e+00 3.317169e+00 2.736804e+00 2.630492e+00 4.544411e-01 4.822731e-01 4.924796e-01 7.240902e-01 7.226735e-01 6.652575e-01 7.823719e-01 7.391205e-01 7.038021e-01 6.655887e-01 5.957844e-01 5.165654e-01 3.702454e-01
<GCONST> 1.367067e+02
<STATE> 4
<MEAN> 39
 -9.615253e+00 -7.131279e+00 5.216243e-01 -7.660400e+00 -5.421166e+00 -1.628806e+00 -4.572161e+00 -7.955579e-01 -2.249182e+00 -2.418315e-01 -2.130341e+00 9.111710e-01 6.409641e+01 -4.258668e-04 1.573805e-03 -2.061663e-03 8.142716e-04 1.224413e-03 2.063256e-03 3.329108e-03 1.528233e-03 9.497571e-04 8.457266e-04 5.670728e-04 2.486247e-04 -3.223456e-03 2.206064e-04 -2.704804e-05 -1.781587e-04 -1.800919e-04 1.074066e-04 1.239397e-04 -1.974091e-04 1.225994e-04 2.069870e-05 1.061682e-04 -6.523883e-05 7.248964e-06 -3.444328e-05
<VARIANCE> 39
 6.270420e+01 7.529138e+01 7.706310e+01 9.722755e+01 8.140822e+01 6.038046e+01 8.376535e+01 6.465352e+01 7.126304e+01 5.401554e+01 5.953206e+01 4.101527e+01 1.141590e+02 3.004241e+00 3.415559e+00 3.168939e+00 4.728522e+00 4.251067e+00 3.707763e+00 4.500491e+00 3.964242e+00 3.898818e+00 3.526868e+00 3.304968e+00 2.732294e+00 2.619057e+00 4.499905e-01 4.775120e-01 4.887697e-01 7.195241e-01 7.192507e-01 6.633133e-01 7.771649e-01 7.355019e-01 7.010674e-01 6.625394e-01 5.935651e-01 5.153404e-01 3.667893e-01
<GCONST> 1.365721e+02
<TRANSP> 5
 0.000000e+00 1.000000e+00 0.000000e+00 0.000000e+00 0.000000e+00
 0.000000e+00 7.227477e-01 2.772523e-01 0.000000e+00 0.000000e+00
 0.000000e+00 0.000000e+00 7.227463e-01 2.772537e-01 0.000000e+00
 0.000000e+00 0.000000e+00 0.000000e+00 8.451570e-01 1.548430e-01
 0.000000e+00 0.000000e+00 0.000000e+00 0.000000e+00 0.000000e+00
<ENDHMM>
~h "z"
<BEGINHMM>
<NUMSTATES> 5
<STATE> 2
<MEAN> 39
 -8.552250e+00 -7.872148e+00 -7.728573e-01 -7.611179e+00 -4.958260e+00 -2.221258e+00 -5.079322e+00 -3.160383e-01 -2.262315e+00 -7.483563e-01 -2.272758e+00 9.881318e-01 6.422837e+01 -1.378522e-03 1.693547e-03 -5.332752e-04 2.559043e-03 5.465294e-04 -2.453197e-03 4.859268e-04 -2.847188e-04 -1.014550e-03 -1.924712e-03 -8.648860e-04 7.338708e-04 2.329989e-03 -1.163284e-04 1.097843e-04 9.086004e-05 -1.191759e-04 1.229524e-04 3.025660e-04 1.993473e-04 2.323162e-04 -8.023050e-05 2.229889e-04 3.637359e-05 -2.028157e-05 -1.389560e-04
<VARIANCE> 39
 5.574734e+01 7.053958e+01 7.381854e+01 1.019692e+02 8.061153e+01 6.586903e+01 8.722498e+01 6.389133e+01 7.123743e+01 5.595092e+01 6.036024e+01 4.249471e+01 1.131961e+02 3.014147e+00 3.410606e+00 3.048027e+00 5.151466e+00 3.909991e+00 3.984305e+00 4.754813e+00 4.013963e+00 3.923605e+00 3.698598e+00 3.420745e+00 2.840443e+00 3.316728e+00 4.973343e-01 5.059549e-01 4.718556e-01 7.801989e-01 6.555021e-01 7.163491e-01 8.295250e-01 7.383793e-01 7.024620e-01 6.908163e-01 6.193164e-01 5.369471e-01 4.730279e-01
<GCONST> 1.376815e+02
<STATE> 3
<MEAN> 39
 -8.556962e+00 -7.865447e+00 -7.755255e-01 -7.603292e+00 -4.955584e+00 -2.228152e+00 -5.075960e+00 -3.152493e-01 -2.265992e+00 -7.544085e-01 -2.276733e+00 9.896510e-01 6.423656e+01 -1.596800e-03 2.014887e-03 -4.302012e-04 2.261194e-03 8.922736e-04 -1.320068e-03 1.301283e-03 4.808290e-04 -1.063568e-03 -1.067311e-03 -1.011444e-03 4.948713e-04 1.841653e-03 -5.640052e-05 7.566657e-05 9.842579e-07 -9.567141e-05 7.306253e-05 3.494444e-04 2.179388e-04 2.062724e-04 -1.703328e-05 2.446173e-04 -4.692716e-05 -8.716987e-05 -1.355134e-04
<VARIANCE> 39
 5.571436e+01 7.061671e+01 7.377048e+01 1.019136e+02 8.062452e+01 6.590364e+01 8.724949e+01 6.379893e+01 7.111031e+01 5.599255e+01 6.029593e+01 4.243538e+01 1.131170e+02 3.018192e+00 3.417609e+00 3.045294e+00 5.159807e+00 3.907966e+00 3.986189e+00 4.757412e+00 4.012167e+00 3.921237e+00 3.700928e+00 3.421938e+00 2.840159e+00 3.321040e+00 4.982754e-01 5.070076e-01 4.714732e-01 7.814928e-01 6.550443e-01 7.168182e-01 8.298359e-01 7.381693e-01 7.019653e-01 6.912358e-01 6.194774e-01 5.368383e-01 4.737721e-01
<GCONST> 1.376883e+02
<STATE> 4
<MEAN> 39
 -8.572309e+00 -7.836679e+00 -8.133647e-01 -7.578211e+00 -4.952723e+00 -2.269725e+00 -5.041935e+00 -3.423729e-01 -2.228523e+00 -7.787116e-01 -2.252352e+00 9.905787e-01 6.415622e+01 -1.176192e-03 1.729820e-03 -3.990625e-04 1.669541e-03 6.710960e-04 3.785414e-04 1.978202e-03 8.518668e-04 -1.109074e-03 -1.862110e-04 -1.556700e-03 -9.371139e-05 1.581461e-03 4.005720e-05 -4.245315e-05 4.773170e-05 -7.358417e-05 -5.127567e-05 3.632067e-04 1.236086e-04 5.263022e-05 -9.821699e-06 1.874532e-04 -5.283262e-05 -1.005925e-04 -1.059816e-04
<VARIANCE> 39
 5.577082e+01 7.052052e+01 7.379668e+01 1.021928e+02 8.087884e+01 6.591895e+01 8.736216e+01 6.377443e+01 7.100607e+01 5.610918e+01 6.013235e+01 4.223446e+01 1.137360e+02 3.002034e+00 3.397430e+00 3.028030e+00 5.130411e+00 3.892765e+00 3.978791e+00 4.734284e+00 3.992831e+00 3.902462e+00 3.691064e+00 3.406456e+00 2.829502e+00 3.302628e+00 4.951898e-01 5.038131e-01 4.681192e-01 7.755980e-01 6.518402e-01 7.152110e-01 8.249662e-01 7.338344e-01 6.984027e-01 6.887953e-01 6.165658e-01 5.346690e-01 4.693050e-01
<GCONST> 1.375614e+02
<TRANSP> 5
 0.000000e+00 1.000000e+00 0.000000e+00 0.000000e+00 0.000000e+00
 0.000000e+00 7.217855e-01 2.782145e-01 0.000000e+00 0.000000e+00
 0.000000e+00 0.000000e+00 7.217927e-01 2.782073e-01 0.000000e+00
 0.000000e+00 0.000000e+00 0.000000e+00 8.439919e-01 1.560081e-01
 0.000000e+00 0.000000e+00 0.000000e+00 0.000000e+00 0.000000e+00
<ENDHMM>
~h "aa"
<BEGINHMM>
<NUMSTATES> 5
<STATE> 2
<MEAN> 39
 -8.249640e+00 -9.873907e+00 -1.824329e+00 -7.435488e+00 -3.513196e+00 -9.644870e-01 -4.706081e+00 -6.370619e-02 -2.339537e+00 -1.419586e+00 -2.132720e+00 7.183251e-01 6.438631e+01 1.381767e-04 -2.309621e-04 -6.515287e-04 1.232432e-03 4.234349e-04 3.372389e-03 2.458378e-03 1.861040e-04 -5.683010e-03 -3.890078e-03 7.398357e-05 -1.798693e-03 4.025152e-04 -3.201639e-04 6.078911e-04 5.220763e-04 2.034390e-05 -5.672026e-05 8.851103e-05 1.466927e-04 2.631109e-05 8.276795e-05 5.216958e-04 2.471334e-04 2.957870e-04 -2.991281e-04
<VARIANCE> 39
 5.025845e+01 7.822171e+01 7.881578e+01 1.001577e+02 8.487712e+01 6.351982e+01 8.532928e+01 6.340210e+01 7.363280e+01 6.095960e+01 6.050340e+01 4.230922e+01 1.270041e+02 2.224355e+00 3.051261e+00 2.815110e+00 4.299594e+00 3.781778e+00 3.364537e+00 4.169334e+00 3.742920e+00 3.669139e+00 3.459070e+00 3.124580e+00 2.636155e+00 3.137395e+00 3.547978e-01 4.272187e-01 4.278625e-01 6.453667e-01 6.087682e-01 5.925485e-01 7.149511e-01 6.813445e-01 6.462194e-01 6.288171e-01 5.564800e-01 4.908939e-01 4.353534e-01
<GCONST> 1.347680e+02
<STATE> 3
<MEAN> 39
 -8.249704e+00 -9.872140e+00 -1.823474e+00 -7.430428e+00 -3.513292e+00 -9.540164e-01 -4.697081e+00 -6.370723e-02 -2.359835e+00 -1.431493e+00 -2.132330e+00 7.130775e-01 6.438728e+01 -6.170153e-04 1.854964e-03 1.166943e-03 1.540820e-03 -2.520671e-05 3.157750e-03 3.234197e-03 1.843268e-04 -5.174333e-03 -2.126975e-03 1.504545e-04 -1.224137e-03 -5.208101e-04 -1.600548e-04 5.206001e-04 4.370377e-04 6.066647e-05 -1.203101e-04 -8.289651e-05 1.697693e-04 -9.888638e-06 1.418290e-04 4.528039e-04 -4.723709e-05 1.678183e-04 -1.873553e-04
<VARIANCE> 39
 5.017823e+01 7.844974e+01 7.878158e+01 9.997642e+01 8.493491e+01 6.354129e+01 8.539706e+01 6.335808e+01 7.355471e+01 6.097844e+01 6.035707e+01 4.228288e+01 1.274368e+02 2.230603e+00 3.051848e+00 2.814745e+00 4.304964e+00 3.779564e+00 3.362771e+00 4.170929e+00 3.743493e+00 3.672045e+00 3.462448e+00 3.123949e+00 2.635292e+00 3.151947e+00 3.559161e-01 4.271632e-01 4.278005e-01 6.460060e-01 6.082082e-01 5.921445e-01 7.148205e-01 6.811572e-01 6.462772e-01 6.291503e-01 5.566543e-01 4.904126e-01 4.375491e-01
<GCONST> 1.347840e+02
<STATE> 4
<MEAN> 39
 -8.246646e+00 -9.845692e+00 -1.860847e+00 -7.409557e+00 -3.522064e+00 -9.911213e-01 -4.682381e+00 -1.049875e-01 -2.356867e+00 -1.459980e+00 -2.122712e+00 7.030639e-01 6.431806e+01 -8.437080e-04 4.230743e-03 3.399880e-03 2.042435e-03 -1.487734e-03 1.930029e-03 3.920091e-03 -3.425999e-04 -4.065870e-03 -9.027245e-04 -8.072961e-04 -8.052004e-04 -1.643217e-03 -4.626325e-05 4.365980e-04 3.397022e-04 6.714567e-05 -1.710550e-04 -1.520827e-04 9.325847e-05 -8.753361e-05 2.173877e-04 2.787320e-04 -1.915523e-04 1.118903e-04 -1.838833e-04
<VARIANCE> 39
 5.022892e+01 7.865816e+01 7.880898e+01 1.001960e+02 8.532322e+01 6.344538e+01 8.559238e+01 6.343100e+01 7.338056e+01 6.093813e+01 6.004679e+01 4.220218e+01 1.285658e+02 2.234851e+00 3.034508e+00 2.808620e+00 4.298645e+00 3.766589e+00 3.359267e+00 4.165061e+00 3.732267e+00 3.671198e+00 3.457751e+00 3.117442e+00 2.630088e+00 3.171024e+00 3.564613e-01 4.248194e-01 4.264731e-01 6.439799e-01 6.057708e-01 5.916848e-01 7.134834e-01 6.782405e-01 6.453496e-01 6.278853e-01 5.558496e-01 4.887167e-01 4.398831e-01
<GCONST> 1.347552e+02
<TRANSP> 5
 0.000000e+00 1.000000e+00 0.000000e+00 0.000000e+00 0.000000e+00
 0.000000e+00 7.227911e-01 2.772089e-01 0.000000e+00 0.000000e+00
 0.000000e+00 0.000000e+00 7.227924e-01 2.772075e-01 0.000000e+00
 0.000000e+00 0.000000e+00 0.000000e+00 8.448395e-01 1.551606e-01
 0.000000e+00 0.000000e+00 0.000000e+00 0.000000e+00 0.000000e+00
<ENDHMM>
~h "ai"
<BEGINHMM>
<NUMSTATES> 5
<STATE> 2
<MEAN> 39
 -8.446155e+00 -9.125757e+00 -4.782485e-01 -7.252365e+00 -5.330876e+00 -1.503666e+00 -3.838987e+00 -4.913166e-02 -2.516212e+00 -1.074752e+00 -2.416894e+00 9.340613e-01 6.453716e+01 2.038954e-04 2.765795e-03 1.923910e-03 9.803399e-04 -9.749437e-04 8.475695e-04 1.442302e-03 6.054969e-04 7.277564e-05 2.389508e-03 1.128922e-04 -8.338210e-04 -3.405778e-03 5.075839e-05 2.930005e-04 -8.845176e-05 -6.020469e-05 2.132147e-05 7.235940e-06 -2.612629e-04 -1.709407e-04 1.065753e-04 1.364505e-04 -5.154609e-05 -3.274600e-05 -8.665427e-05
<VARIANCE> 39
 5.142243e+01 7.557006e+01 7.134039e+01 9.603837e+01 8.173969e+01 6.046862e+01 8.568843e+01 6.376482e+01 7.065768e+01 5.697067e+01 6.016322e+01 4.049360e+01 1.215160e+02 2.538990e+00 3.433955e+00 3.041919e+00 4.760088e+00 4.055987e+00 3.677095e+00 4.435947e+00 3.950253e+00 3.879569e+00 3.601581e+00 3.315332e+00 2.693990e+00 3.425907e+00 4.179632e-01 4.950532e-01 4.752683e-01 7.377232e-01 6.720682e-01 6.651649e-01 7.748056e-01 7.306626e-01 6.921270e-01 6.698963e-01 6.010009e-01 5.080795e-01 4.949251e-01
<GCONST> 1.365911e+02
<STATE> 3
<MEAN> 39
 -8.444854e+00 -9.113653e+00 -4.718393e-01 -7.249598e+00 -5.334804e+00 -1.500859e+00 -3.835993e+00 -4.849565e-02 -2.515918e+00 -1.065496e+00 -2.417372e+00 9.310972e-01 6.452521e+01 4.535905e-04 3.862753e-03 1.666659e-03 6.537785e-04 -9.212955e-04 7.778487e-04 3.737553e-04 -1.676948e-04 4.801267e-04 2.817621e-03 -2.252613e-05 -9.652516e-04 -3.688109e-03 1.132444e-04 3.203193e-04 -6.090899e-05 -6.480710e-05 -4.491965e-06 -5.559494e-05 -2.647946e-04 -3.086571e-04 1.617506e-04 9.723838e-05 -6.433111e-05 -6.456982e-05 -1.273714e-04
<VARIANCE> 39
 5.145673e+01 7.554926e+01 7.136489e+01 9.600423e+01 8.182204e+01 6.051928e+01 8.559669e+01 6.376448e+01 7.068050e+01 5.705404e+01 6.012434e+01 4.045688e+01 1.217240e+02 2.540887e+00 3.432973e+00 3.042234e+00 4.760050e+00 4.054964e+00 3.677077e+00 4.434094e+00 3.950102e+00 3.880682e+00 3.602122e+00 3.314485e+00 2.691712e+00 3.431050e+00 4.182970e-01 4.952765e-01 4.751936e-01 7.377222e-01 6.718822e-01 6.653669e-01 7.745820e-01 7.306790e-01 6.923608e-01 6.699802e-01 6.008062e-01 5.077211e-01 4.959074e-01
<GCONST> 1.365971e+02
<STATE> 4
<MEAN> 39
 -8.454120e+00 -9.066409e+00 -4.910602e-01 -7.231286e+00 -5.356175e+00 -1.528996e+00 -3.814342e+00 -9.161445e-02 -2.477180e+00 -1.069880e+00 -2.397818e+00 9.293939e-01 6.443217e+01 1.002059e-03 5.554386e-03 1.566298e-03 -2.559942e-04 -1.042772e-03 2.704812e-04 -1.524785e-03 -1.968197e-03 9.668547e-04 3.188512e-03 -4.014947e-04 -1.308066e-03 -3.878336e-03 8.113615e-05 3.784139e-04 -2.300576e-05 -1.221367e-04 -2.865527e-07 -6.269220e-05 -3.108972e-04 -4.100263e-04 1.120867e-04 1.184495e-04 -1.443799e-04 -7.957264e-05 -1.354606e-04
<VARIANCE> 39
 5.160009e+01 7.542269e+01 7.148703e+01 9.628525e+01 8.220987e+01 6.045128e+01 8.555869e+01 6.378115e+01 7.077898e+01 5.712851e+01 6.006398e+01 4.031480e+01 1.227444e+02 2.530473e+00 3.408357e+00 3.032222e+00 4.733650e+00 4.043296e+00 3.666102e+00 4.414434e+00 3.933312e+00 3.868751e+00 3.593141e+00 3.304684e+00 2.682685e+00 3.421522e+00 4.161885e-01 4.914106e-01 4.728221e-01 7.324618e-01 6.693197e-01 6.632480e-01 7.710009e-01 7.267946e-01 6.899408e-01 6.676924e-01 5.983553e-01 5.060027e-01 4.928172e-01
<GCONST> 1.365007e+02
<TRANSP> 5
 0.000000e+00 1.000000e+00 0.000000e+00 0.000000e+00 0.000000e+00
 0.000000e+00 7.221880e-01 2.778120e-01 0.000000e+00 0.000000e+00
 0.000000e+00 0.000000e+00 7.221812e-01 2.778187e-01 0.000000e+00
 0.000000e+00 0.000000e+00 0.000000e+00 8.442276e-01 1.557724e-01
 0.000000e+00 0.000000e+00 0.000000e+00 0.000000e+00 0.000000e+00
<ENDHMM>
~h "an"
<BEGINHMM>
<NUMSTATES> 5
<STATE> 2
<MEAN> 39
 -8.519475e+00 -8.877927e+00 -5.829995e-01 -7.038932e+00 -4.716220e+00 -1.807942e+00 -4.276029e+00 1.581323e-01 -2.523045e+00 -1.249634e+00 -2.152322e+00 9.781279e-01 6.411890e+01 4.985617e-04 3.314374e-03 2.934624e-03 -3.009250e-03 -3.744688e-03 -1.828171e-03 -2.175145e-03 -2.683286e-03 -4.113818e-03 4.583448e-04 -2.736475e-03 -1.814767e-03 2.845307e-03 9.532765e-05 1.818904e-04 1.879799e-05 -2.918884e-04 -1.737342e-04 2.644717e-05 -1.063748e-04 -1.346141e-04 1.168787e-05 8.907025e-05 -4.783177e-05 8.002331e-06 1.055683e-06
<VARIANCE> 39
 5.336102e+01 7.371628e+01 7.150706e+01 9.576676e+01 7.822225e+01 6.105447e+01 8.310587e+01 6.307066e+01 7.294777e+01 5.914111e+01 6.071463e+01 4.215470e+01 1.211436e+02 2.666010e+00 3.420470e+00 2.981965e+00 4.510772e+00 3.823690e+00 3.566591e+00 4.243821e+00 3.888135e+00 3.783261e+00 3.569968e+00 3.288641e+00 2.710207e+00 3.272353e+00 4.345285e-01 4.849299e-01 4.637350e-01 6.943991e-01 6.439534e-01 6.375179e-01 7.376505e-01 7.171503e-01 6.740760e-01 6.556318e-01 5.927173e-01 5.057911e-01 4.628380e-01
<GCONST> 1.360288e+02
<STATE> 3
<MEAN> 39
 -8.516788e+00 -8.864850e+00 -5.720780e-01 -7.052897e+00 -4.731093e+00 -1.814104e+00 -4.285596e+00 1.470765e-01 -2.537473e+00 -1.247477e+00 -2.162738e+00 9.714223e-01 6.412848e+01 9.066323e-04 3.913819e-03 2.886193e-03 -4.175155e-03 -4.345511e-03 -1.758195e-03 -2.632965e-03 -3.173721e-03 -3.958275e-03 7.503148e-04 -2.898579e-03 -1.804741e-03 2.826383e-03 1.625872e-04 1.766528e-04 -9.489199e-06 -3.054336e-04 -1.686233e-04 -3.942849e-05 -9.133757e-05 -1.998508e-04 9.884173e-05 2.296324e-05 -4.342190e-05 -4.472808e-06 -4.338910e-05
<VARIANCE> 39
 5.338564e+01 7.381255e+01 7.155938e+01 9.573385e+01 7.831966e+01 6.113696e+01 8.311333e+01 6.310091e+01 7.291467e+01 5.914160e+01 6.068576e+01 4.218476e+01 1.212452e+02 2.668563e+00 3.423519e+00 2.984298e+00 4.514635e+00 3.826909e+00 3.570674e+00 4.246560e+00 3.892372e+00 3.787091e+00 3.572704e+00 3.289390e+00 2.711489e+00 3.279071e+00 4.349685e-01 4.851787e-01 4.640736e-01 6.951278e-01 6.444086e-01 6.379725e-01 7.381927e-01 7.182280e-01 6.746244e-01 6.560772e-01 5.927843e-01 5.060751e-01 4.638183e-01
<GCONST> 1.360577e+02
<STATE> 4
<MEAN> 39
 -8.500566e+00 -8.816767e+00 -5.814692e-01 -7.079035e+00 -4.767825e+00 -1.867266e+00 -4.295760e+00 8.297905e-02 -2.538176e+00 -1.267026e+00 -2.159331e+00 9.619976e-01 6.406723e+01 1.756588e-03 5.145632e-03 2.649471e-03 -6.006741e-03 -4.969030e-03 -1.543431e-03 -3.281069e-03 -4.088926e-03 -2.882860e-03 1.282658e-03 -2.999147e-03 -1.863266e-03 1.865749e-03 1.742504e-04 2.901800e-04 -2.807668e-05 -3.121211e-04 -1.435571e-04 -2.096982e-05 -8.828801e-05 -2.438684e-04 1.852967e-04 6.781690e-05 -4.388409e-05 -3.124340e-05 -1.412129e-04
<VARIANCE> 39
 5.357110e+01 7.378729e+01 7.181898e+01 9.595380e+01 7.875685e+01 6.136102e+01 8.309689e+01 6.324181e+01 7.295720e+01 5.916579e+01 6.060110e+01 4.212367e+01 1.218209e+02 2.656420e+00 3.397892e+00 2.975813e+00 4.492310e+00 3.821685e+00 3.569555e+00 4.232080e+00 3.884257e+00 3.780829e+00 3.564690e+00 3.277779e+00 2.705224e+00 3.268142e+00 4.323766e-01 4.807551e-01 4.619060e-01 6.906888e-01 6.425785e-01 6.366336e-01 7.352822e-01 7.159768e-01 6.727735e-01 6.539177e-01 5.901859e-01 5.046695e-01 4.605822e-01
<GCONST> 1.359823e+02
<TRANSP> 5
 0.000000e+00 1.000000e+00 0.000000e+00 0.000000e+00 0.000000e+00
 0.000000e+00 7.241199e-01 2.758801e-01 0.000000e+00 0.000000e+00
 0.000000e+00 0.000000e+00 7.241140e-01 2.758861e-01 0.000000e+00
 0.000000e+00 0.000000e+00 0.000000e+00 8.466195e-01 1.533805e-01
 0.000000e+00 0.000000e+00 0.000000e+00 0.000000e+00 0.000000e+00
<ENDHMM>
~h "ao"
<BEGINHMM>
<NUMSTATES> 5
<STATE> 2
<MEAN> 39
 -7.826711e+00 -8.932693e+00 -2.016839e+00 -8.537540e+00 -3.562454e+00 -8.625109e-01 -5.154741e+00 -5.503671e-01 -2.156194e+00 -1.049206e+00 -2.385521e+00 5.303484e-01 6.489964e+01 4.818315e-04 2.388212e-03 -4.737168e-03 1.665981e-04 4.736053e-03 5.874169e-03 1.622660e-03 1.008490e-03 3.071296e-03 -2.762575e-04 8.201124e-04 -9.710321e-04 -4.683014e-03 -2.171623e-04 1.140856e-04 5.400894e-04 2.517153e-04 -4.036319e-04 -2.296088e-04 8.706415e-05 -4.419342e-05 5.617179e-05 1.116891e-04 5.631516e-05 1.246727e-04 -2.521810e-04
<VARIANCE> 39
