~o
<STREAMINFO> 1 39
<VECSIZE> 39<NULLD><MFCC_D_A_0><DIAGC>
~s "silst"
<MEAN> 39
 -1.039535e+01 -7.303175e+00 -7.178397e-01 -1.118740e+00 -5.722609e-01 2.370620e+00 1.186182e+00 3.089394e+00 2.425630e+00 1.833542e+00 2.209832e+00 3.358672e+00 5.292900e+01 -5.251910e-01 -3.597681e-01 -6.321253e-02 2.291291e-01 4.998777e-01 2.418113e-01 4.495414e-01 5.259919e-01 3.024277e-01 3.418248e-01 4.402307e-01 3.139014e-01 -5.800021e-02 5.252559e-02 -7.170545e-02 -2.019440e-02 -1.711605e-01 -9.013714e-02 -1.020438e-01 -1.356908e-01 -3.633530e-02 -1.009373e-01 -7.362121e-02 -5.964518e-02 -3.626525e-02 1.997479e-01
<VARIANCE> 39
 3.346055e+01 4.369712e+01 3.826869e+01 3.611555e+01 4.756310e+01 4.076636e+01 4.093975e+01 4.015265e+01 4.259476e+01 4.494536e+01 3.533861e+01 2.856859e+01 3.972490e+01 2.459826e+00 3.011752e+00 2.636923e+00 3.352893e+00 3.544421e+00 3.492073e+00 4.237827e+00 3.770872e+00 4.717598e+00 4.448747e+00 3.468728e+00 2.796764e+00 4.482226e+00 3.926298e-01 5.054957e-01 4.681251e-01 5.732740e-01 5.790760e-01 5.908361e-01 7.129794e-01 6.762524e-01 8.311219e-01 7.809774e-01 5.995978e-01 5.010023e-01 7.089316e-01
<GCONST> 1.288996e+02
~h "a"
<BEGINHMM>
<NUMSTATES> 5
<STATE> 2
<MEAN> 39
 -5.318081e+00 -2.096111e+01 -1.014653e+01 -8.112531e+00 -6.922722e-01 -2.774983e-01 -6.208955e+00 -2.901474e+00 -6.502079e+00 -7.647378e+00 -6.019002e+00 9.336232e-01 7.624310e+01 9.236276e-02 -2.610105e+00 -1.749590e+00 -7.903035e-02 9.969853e-01 4.198601e-01 -1.369767e+00 -1.410688e+00 -9.054746e-01 -9.712230e-01 -5.439557e-01 -4.223706e-01 1.580218e+00 -4.015278e-01 6.613982e-01 7.272473e-01 7.384456e-01 1.449635e-01 4.311221e-02 1.609520e-01 1.067744e-01 5.324351e-01 5.451176e-01 4.409364e-01 -5.849870e-02 -7.212210e-01
<VARIANCE> 39
 2.553094e+01 3.036999e+01 2.762783e+01 5.172067e+01 4.796708e+01 5.562690e+01 6.865182e+01 4.827422e+01 4.627863e+01 4.328958e+01 5.273812e+01 5.471305e+01 3.076849e+01 2.914806e+00 3.316589e+00 3.435584e+00 5.469584e+00 4.835442e+00 4.384239e+00 4.716140e+00 4.040033e+00 4.038903e+00 3.918873e+00 4.191054e+00 3.561652e+00 2.664253e+00 4.811206e-01 5.188069e-01 4.596224e-01 7.628188e-01 7.725170e-01 7.090938e-01 9.600489e-01 9.566827e-01 6.799116e-01 6.770006e-01 7.375279e-01 6.969987e-01 5.617959e-01
<GCONST> 1.330943e+02
<STATE> 3
<MEAN> 39
 -5.835225e+00 -2.402743e+01 -1.100822e+01 -4.366683e+00 2.713062e+00 1.385032e+00 -9.347855e+00 -5.541358e+00 -4.613328e+00 -7.154994e+00 -5.591950e+00 -1.049699e+00 7.659138e+01 3.396408e-02 3.180720e-02 5.378325e-02 3.824133e-02 -1.794467e-01 -3.802287e-02 1.418099e-01 1.017203e-01 5.018132e-02 -5.728343e-02 6.124428e-03 -2.906935e-03 -1.788644e-01 7.380981e-02 3.582997e-01 1.551984e-01 -2.391343e-01 -3.508290e-01 -1.328740e-01 2.752420e-01 2.735590e-01 -2.606524e-02 -2.016289e-03 -3.522274e-02 9.244839e-02 -2.002916e-01
<VARIANCE> 39
 2.392306e+01 2.386792e+01 2.134530e+01 5.107325e+01 3.781854e+01 6.117556e+01 5.874694e+01 3.516373e+01 3.901134e+01 3.947881e+01 3.750731e+01 4.399765e+01 3.159762e+01 4.533831e-01 8.153538e-01 8.305624e-01 1.907492e+00 1.773907e+00 1.440806e+00 2.060883e+00 1.797723e+00 1.791192e+00 1.620920e+00 1.503762e+00 1.502870e+00 4.816106e-01 1.052797e-01 1.893835e-01 1.999357e-01 3.006172e-01 3.039781e-01 2.992181e-01 3.304506e-01 3.263441e-01 3.465806e-01 3.276148e-01 2.923078e-01 2.828855e-01 1.035153e-01
<GCONST> 1.031759e+02
<STATE> 4
<MEAN> 39
 -5.593332e+00 -2.088923e+01 -9.593197e+00 -6.861096e+00 -2.084455e+00 -3.878642e-01 -4.838731e+00 -2.095131e+00 -5.581943e+00 -8.204419e+00 -5.609914e+00 8.341247e-01 7.361246e+01 3.543283e-01 2.009158e+00 1.080614e+00 -5.863616e-01 -1.694298e+00 -8.635771e-01 7.703844e-01 9.870393e-01 3.840315e-01 4.968054e-01 9.219640e-02 1.338713e-01 -1.557847e+00 -9.018487e-02 5.445478e-01 3.987620e-01 4.082215e-01 1.742142e-01 -7.085935e-02 -2.279474e-01 -1.690042e-01 2.805727e-01 4.671915e-01 2.386793e-01 -5.198894e-02 -5.084580e-01
<VARIANCE> 39
 2.385760e+01 3.357842e+01 2.841666e+01 6.305441e+01 6.963547e+01 5.512383e+01 7.739677e+01 5.268594e+01 5.746527e+01 4.969016e+01 5.256808e+01 5.158459e+01 6.284052e+01 1.310189e+00 2.708145e+00 2.133952e+00 4.084458e+00 4.403236e+00 3.668604e+00 4.234024e+00 3.433928e+00 3.608460e+00 3.822135e+00 3.254921e+00 3.030944e+00 2.050332e+00 2.562109e-01 4.243691e-01 3.454526e-01 7.768205e-01 8.937098e-01 6.504200e-01 8.386238e-01 7.589625e-01 6.698535e-01 6.694977e-01 6.121337e-01 5.507933e-01 3.256793e-01
<GCONST> 1.294053e+02
<TRANSP> 5
 0.000000e+00 1.000000e+00 0.000000e+00 0.000000e+00 0.000000e+00
 0.000000e+00 6.585250e-01 3.414750e-01 0.000000e+00 0.000000e+00
 0.000000e+00 0.000000e+00 8.250479e-01 1.749521e-01 0.000000e+00
 0.000000e+00 0.000000e+00 0.000000e+00 5.773144e-01 4.226857e-01
 0.000000e+00 0.000000e+00 0.000000e+00 0.000000e+00 0.000000e+00
<ENDHMM>
~h "b"
<BEGINHMM>
<NUMSTATES> 5
<STATE> 2
<MEAN> 39
 -2.292105e+00 -5.572597e+00 3.062263e-01 -5.589421e+00 -5.064093e+00 -2.904433e+00 -8.110934e+00 -4.483554e+00 -4.070114e+00 -2.367208e+00 -4.532552e+00 -1.196782e+00 5.987059e+01 -3.306326e-01 1.266374e+00 7.079291e-01 2.187491e+00 9.082140e-01 7.006320e-01 1.073006e+00 -1.222551e-01 6.972165e-01 1.530569e-01 5.075999e-01 -9.808587e-02 -2.361324e+00 -3.337100e-01 -3.470241e-01 -9.049027e-02 -2.776256e-01 -2.987280e-02 8.369318e-02 2.987130e-01 4.099838e-01 1.422932e-01 1.547477e-01 1.477742e-01 1.615146e-01 6.314607e-01
<VARIANCE> 39
 3.042676e+01 4.730942e+01 4.855774e+01 7.083421e+01 5.030141e+01 5.451821e+01 6.450469e+01 6.321858e+01 5.691153e+01 5.187751e+01 5.296688e+01 5.248006e+01 7.616067e+01 2.666202e+00 3.431450e+00 3.788460e+00 5.662464e+00 4.141490e+00 3.881071e+00 4.902543e+00 5.741024e+00 4.655270e+00 4.502963e+00 4.057119e+00 3.721241e+00 5.350774e+00 4.720139e-01 7.613861e-01 7.687068e-01 1.235283e+00 8.125826e-01 7.461770e-01 8.933098e-01 1.141191e+00 9.263704e-01 1.001118e+00 8.033760e-01 7.795484e-01 1.543615e+00
<GCONST> 1.407387e+02
<STATE> 3
<MEAN> 39
 -7.935376e+00 -4.258509e+00 1.142372e+00 1.600967e-01 -1.813987e+00 1.243849e+00 -1.589535e-01 3.673643e-01 2.144289e+00 1.783737e+00 4.399076e-01 1.112503e+00 5.271984e+01 -2.622396e-01 -8.227195e-01 1.050894e-01 -2.097743e-01 -8.722040e-02 -5.154498e-04 5.469491e-01 9.122960e-01 4.638439e-01 4.555448e-01 5.165135e-01 4.591190e-01 2.385695e+00 6.183279e-01 -3.933572e-01 -5.213203e-02 -1.117466e+00 -5.285500e-01 -4.056024e-01 -7.469730e-01 -2.987879e-01 -6.762584e-01 -3.251276e-01 -5.400718e-01 -9.868739e-02 1.660522e+00
<VARIANCE> 39
 2.288254e+01 3.375385e+01 2.739038e+01 2.320004e+01 2.780718e+01 3.064114e+01 4.141422e+01 4.270280e+01 4.500186e+01 4.019790e+01 3.775406e+01 3.252291e+01 2.969145e+01 3.171050e+00 2.940215e+00 4.452949e+00 3.754588e+00 3.439357e+00 3.669706e+00 4.623048e+00 4.746429e+00 5.094623e+00 4.634762e+00 4.243791e+00 3.423354e+00 8.804493e+00 4.811440e-01 9.162550e-01 1.082972e+00 9.334186e-01 8.115022e-01 7.363290e-01 8.269605e-01 1.088871e+00 9.196537e-01 9.199210e-01 8.120341e-01 7.193183e-01 8.977839e-01
<GCONST> 1.334563e+02
<STATE> 4
<MEAN> 39
 -3.948704e+00 -6.629923e+00 3.505320e+00 -3.454707e+00 -4.668336e+00 -1.503915e+00 -2.904233e+00 -9.443182e-02 -6.201589e-01 5.958636e-01 -1.266169e+00 7.670481e-01 6.858962e+01 1.164779e+00 -1.346252e+00 -8.751704e-02 -3.967911e+00 -1.707405e+00 -8.535254e-01 -1.761206e+00 -5.202055e-01 -1.776182e+00 -5.618305e-01 -1.538686e+00 2.780514e-02 4.839293e+00 -2.758449e-01 -9.394221e-02 -4.993035e-01 -8.823166e-01 -1.583698e-01 1.092548e-02 -4.610311e-01 -3.056577e-01 -4.474519e-01 -2.179139e-01 -4.074504e-01 -4.245789e-02 -7.405297e-01
<VARIANCE> 39
 3.845786e+01 3.150290e+01 6.973265e+01 5.738482e+01 4.217085e+01 3.606803e+01 4.173327e+01 3.751522e+01 3.584689e+01 2.820333e+01 2.971983e+01 2.778346e+01 4.962828e+01 4.320308e+00 7.299267e+00 1.210850e+01 6.114986e+00 6.843672e+00 5.714538e+00 7.177747e+00 8.454127e+00 6.678402e+00 5.886034e+00 4.970277e+00 4.820053e+00 6.249187e+00 7.269459e-01 8.449784e-01 9.298296e-01 1.419183e+00 8.703794e-01 7.674720e-01 1.115616e+00 1.022755e+00 9.674889e-01 8.930926e-01 8.341312e-01 7.122433e-01 1.084020e+00
<GCONST> 1.424342e+02
<TRANSP> 5
 0.000000e+00 1.000000e+00 0.000000e+00 0.000000e+00 0.000000e+00
 0.000000e+00 6.201740e-01 3.798260e-01 0.000000e+00 0.000000e+00
 0.000000e+00 0.000000e+00 6.127976e-01 3.872024e-01 0.000000e+00
 0.000000e+00 0.000000e+00 0.000000e+00 4.856107e-01 5.143893e-01
 0.000000e+00 0.000000e+00 0.000000e+00 0.000000e+00 0.000000e+00
<ENDHMM>
~h "c"
<BEGINHMM>
<NUMSTATES> 5
<STATE> 2
<MEAN> 39
 -1.001556e+01 -1.112123e+00 -1.581300e+00 -1.286179e+00 -5.494837e+00 -4.340599e+00 -5.723097e+00 -2.815874e+00 -2.214905e+00 -1.784125e+00 -2.130533e+00 4.875652e-01 6.145337e+01 -2.742864e+00 1.601263e+00 -5.092188e-01 2.312237e+00 1.275726e+00 1.666724e+00 2.121813e+00 1.290739e+00 1.080541e+00 1.201314e+00 1.147499e+00 2.004008e-01 -5.729270e-01 -2.738346e-01 -4.380809e-01 -1.605522e-01 -3.970804e-01 8.385590e-02 1.987887e-01 3.139811e-01 4.053015e-01 9.874503e-02 2.793592e-01 1.202937e-01 1.200402e-01 6.670476e-01
<VARIANCE> 39
 5.161295e+01 4.136476e+01 4.010322e+01 5.061269e+01 5.422130e+01 5.568165e+01 6.124329e+01 5.148092e+01 4.924770e+01 4.634608e+01 4.000127e+01 3.658830e+01 5.099846e+01 3.810328e+00 4.966218e+00 3.957590e+00 5.064835e+00 4.486790e+00 5.479975e+00 5.802453e+00 5.625926e+00 4.743998e+00 4.923888e+00 4.198258e+00 3.876848e+00 4.757552e+00 1.064362e+00 7.944877e-01 6.427568e-01 8.923929e-01 8.173658e-01 1.074331e+00 1.076548e+00 9.310191e-01 8.254853e-01 9.076856e-01 7.157233e-01 6.348529e-01 6.315583e-01
<GCONST> 1.397197e+02
<STATE> 3
<MEAN> 39
 -1.875821e+01 9.500725e-01 -3.769561e+00 2.296779e+00 -1.460235e+00 6.226488e-01 2.659359e+00 3.293856e+00 2.185735e+00 3.529187e+00 2.420853e+00 2.387587e+00 6.533254e+01 3.641379e-01 -4.205472e-01 3.072934e-01 -1.851592e-01 4.624597e-01 -1.378207e-01 5.037684e-01 4.929523e-01 -2.415158e-01 -2.399312e-01 5.779710e-02 9.668545e-02 2.327290e+00 9.624346e-01 -4.661402e-01 3.335070e-01 -3.505459e-01 1.365690e-02 -3.139949e-01 -5.611355e-01 -3.544195e-01 -4.053188e-01 -5.675254e-01 -3.509474e-01 -5.339496e-02 -1.325852e-02
<VARIANCE> 39
 3.558446e+01 3.477406e+01 2.570293e+01 3.002223e+01 3.127638e+01 3.059841e+01 2.660105e+01 2.632600e+01 2.551365e+01 2.237707e+01 1.942561e+01 1.613298e+01 5.497877e+01 5.414804e+00 3.599091e+00 3.385956e+00 2.510292e+00 2.996315e+00 2.910560e+00 3.326481e+00 3.160028e+00 3.111008e+00 3.013404e+00 2.562933e+00 2.184984e+00 2.334972e+00 8.210131e-01 6.712749e-01 5.539308e-01 6.208685e-01 6.484353e-01 7.364830e-01 7.575481e-01 6.673319e-01 6.697671e-01 6.697339e-01 5.764725e-01 4.844284e-01 7.590773e-01
<GCONST> 1.239631e+02
<STATE> 4
<MEAN> 39
 -1.224863e+01 -6.100722e+00 7.354236e-02 6.359589e-01 3.036947e+00 8.736532e-01 1.037785e+00 3.394926e+00 -8.070512e-01 -7.926613e-01 7.881715e-01 2.445036e+00 7.106037e+01 1.668777e+00 -1.907129e+00 -3.435149e-01 -1.228537e+00 3.876685e-01 3.845000e-02 -1.428528e+00 -8.807099e-01 -8.909464e-01 -1.316969e+00 -7.788235e-01 -4.238163e-02 9.414543e-02 4.940197e-02 3.738623e-02 -5.975063e-01 -5.612680e-01 -5.352741e-01 -1.598898e-01 -4.895498e-01 -4.072962e-01 -2.241478e-01 -1.063106e-01 -2.451851e-01 -1.494124e-01 -1.820111e-01
<VARIANCE> 39
 3.943387e+01 6.809959e+01 2.668357e+01 2.870263e+01 4.502467e+01 4.920762e+01 4.367142e+01 3.496534e+01 3.556358e+01 3.143415e+01 2.705801e+01 2.364028e+01 3.265836e+01 4.235459e+00 4.237038e+00 3.389444e+00 4.420716e+00 5.293631e+00 4.753244e+00 5.240224e+00 4.418581e+00 3.854157e+00 4.087682e+00 3.576669e+00 3.127119e+00 1.525513e+00 6.587569e-01 7.023852e-01 5.866081e-01 7.467555e-01 8.448033e-01 8.097973e-01 7.991431e-01 7.717925e-01 7.190205e-01 6.862862e-01 6.192189e-01 6.015681e-01 3.924307e-01
<GCONST> 1.306820e+02
<TRANSP> 5
 0.000000e+00 1.000000e+00 0.000000e+00 0.000000e+00 0.000000e+00
 0.000000e+00 6.954613e-01 3.045386e-01 0.000000e+00 0.000000e+00
 0.000000e+00 0.000000e+00 7.293107e-01 2.706893e-01 0.000000e+00
 0.000000e+00 0.000000e+00 0.000000e+00 7.058550e-01 2.941450e-01
 0.000000e+00 0.000000e+00 0.000000e+00 0.000000e+00 0.000000e+00
<ENDHMM>
~h "d"
<BEGINHMM>
<NUMSTATES> 5
<STATE> 2
<MEAN> 39
 -3.672485e+00 -5.813650e+00 1.175161e+00 -6.965598e+00 -8.081355e+00 -7.782743e+00 -9.450768e+00 -3.938393e+00 -2.810087e+00 -3.496014e+00 -5.410087e+00 1.149581e-01 6.222362e+01 -4.597336e-02 1.354480e+00 7.205273e-01 2.227915e+00 8.086947e-01 5.127704e-01 7.483413e-01 -7.300358e-02 4.754113e-01 -2.742449e-02 3.555047e-01 -3.017305e-01 -2.521517e+00 -3.693734e-01 -4.065132e-01 -3.526779e-01 -3.526069e-01 2.459921e-01 3.468477e-01 4.228492e-01 4.128076e-01 2.463298e-02 2.041326e-01 1.951308e-01 4.110245e-02 6.666407e-01
<VARIANCE> 39
 2.438903e+01 3.872967e+01 4.987661e+01 5.799896e+01 6.329311e+01 5.593066e+01 7.116634e+01 5.837795e+01 5.666863e+01 5.002738e+01 5.011572e+01 4.845502e+01 7.068250e+01 1.691408e+00 2.577967e+00 3.793931e+00 4.329391e+00 5.021747e+00 5.222711e+00 5.622284e+00 4.857548e+00 4.279738e+00 3.929814e+00 3.571532e+00 3.498814e+00 5.063670e+00 2.796982e-01 6.050621e-01 6.755781e-01 1.144816e+00 8.736330e-01 9.911776e-01 9.563646e-01 9.804039e-01 8.329003e-01 8.264508e-01 7.024087e-01 7.813383e-01 1.719367e+00
<GCONST> 1.381469e+02
<STATE> 3
<MEAN> 39
 -7.646688e+00 -3.993767e+00 1.734281e+00 -9.027686e-01 -3.423020e+00 -2.046839e+00 -2.893200e+00 -1.187920e+00 6.650411e-01 -3.725420e-02 -1.401692e+00 1.462288e-01 5.551983e+01 -1.051657e+00 -9.578291e-01 -6.506388e-01 -8.514068e-01 3.083598e-01 1.459114e-02 8.969694e-01 1.254179e+00 5.334178e-01 4.913599e-01 8.051377e-01 6.445541e-01 2.623166e+00 2.489745e-01 -6.107195e-01 -2.700396e-01 -1.305222e+00 -5.511407e-01 -5.967485e-01 -6.279533e-01 1.097946e-01 -3.735309e-01 -3.071111e-01 -4.420633e-01 2.200256e-01 1.800384e+00
<VARIANCE> 39
 2.906139e+01 3.143200e+01 2.881492e+01 2.904915e+01 3.598092e+01 4.519231e+01 5.619922e+01 4.375087e+01 4.533945e+01 4.417392e+01 4.282029e+01 3.386844e+01 4.388750e+01 2.020092e+00 2.747102e+00 3.809378e+00 4.032209e+00 4.307032e+00 5.264718e+00 5.227733e+00 4.848506e+00 4.469414e+00 4.443298e+00 3.926874e+00 3.468695e+00 8.603820e+00 4.980892e-01 8.375806e-01 9.547083e-01 7.465237e-01 9.205599e-01 9.876585e-01 1.268476e+00 1.319627e+00 1.058776e+00 1.012829e+00 8.712471e-01 7.835982e-01 9.090188e-01
<GCONST> 1.364408e+02
<STATE> 4
<MEAN> 39
 -7.684257e+00 -7.404806e+00 -7.956457e-02 -7.737074e+00 -5.720289e+00 -6.618730e+00 -4.238777e+00 1.672637e+00 -3.845087e-02 -1.044806e+00 -1.071269e+00 2.611711e+00 7.088943e+01 6.745780e-01 -1.762901e+00 -1.249710e+00 -3.445858e+00 -9.785568e-01 -1.373827e+00 -1.491202e+00 7.775612e-01 -9.199782e-01 -9.777417e-01 -1.506047e+00 5.761738e-01 4.691956e+00 2.767534e-01 -2.029717e-01 -1.805964e-01 -2.688042e-01 5.745839e-03 3.124204e-01 -4.826734e-01 -4.224986e-01 -4.108664e-01 -2.322440e-01 -6.085669e-01 -3.026714e-01 -7.680814e-01
<VARIANCE> 39
 3.219621e+01 3.111701e+01 4.216821e+01 3.805331e+01 4.319967e+01 6.505340e+01 6.125359e+01 4.468248e+01 3.730209e+01 3.524462e+01 3.912022e+01 3.235190e+01 3.554018e+01 2.947409e+00 5.763103e+00 7.828452e+00 3.659843e+00 5.788096e+00 5.804371e+00 1.001810e+01 9.174086e+00 6.897200e+00 6.220606e+00 5.347884e+00 4.681730e+00 5.127656e+00 4.883648e-01 6.455798e-01 8.022714e-01 7.604981e-01 9.117563e-01 1.104256e+00 1.178088e+00 1.029355e+00 8.545154e-01 8.617956e-01 8.519130e-01 7.479818e-01 9.630340e-01
<GCONST> 1.403121e+02
<TRANSP> 5
 0.000000e+00 1.000000e+00 0.000000e+00 0.000000e+00 0.000000e+00
 0.000000e+00 5.698968e-01 4.301033e-01 0.000000e+00 0.000000e+00
 0.000000e+00 0.000000e+00 5.596749e-01 4.403252e-01 0.000000e+00
 0.000000e+00 0.000000e+00 0.000000e+00 4.140324e-01 5.859676e-01
 0.000000e+00 0.000000e+00 0.000000e+00 0.000000e+00 0.000000e+00
<ENDHMM>
~h "e"
<BEGINHMM>
<NUMSTATES> 5
<STATE> 2
<MEAN> 39
 -3.723289e+00 -1.083540e+01 -5.537299e+00 -1.508144e+01 -5.075338e+00 -1.019751e+01 -1.324267e+01 1.191199e+00 -5.623543e-01 -1.922762e+00 -7.079174e+00 1.968036e+00 7.253204e+01 3.419561e-01 -1.514366e+00 -1.037691e+00 -2.956542e+00 -2.511405e-01 5.703258e-02 -4.950077e-01 9.641342e-01 6.835179e-02 -4.597276e-01 -1.590604e+00 -4.723699e-01 1.714607e+00 -3.912153e-01 1.194571e-01 1.671278e-01 7.628297e-01 3.372733e-01 5.455396e-01 6.286103e-01 -7.631294e-02 7.061730e-02 1.214090e-01 1.839045e-01 -2.888813e-01 -4.221752e-01
<VARIANCE> 39
 2.367719e+01 3.599057e+01 4.785938e+01 4.370519e+01 6.362765e+01 6.677923e+01 7.242117e+01 6.488657e+01 5.916287e+01 6.176535e+01 5.615761e+01 6.203983e+01 2.872677e+01 2.057847e+00 2.403295e+00 2.696689e+00 5.043514e+00 5.273470e+00 4.227182e+00 6.460179e+00 5.138002e+00 4.487410e+00 4.645221e+00 4.103218e+00 4.185488e+00 1.530794e+00 4.076913e-01 5.814389e-01 4.624802e-01 6.439112e-01 6.962516e-01 7.038065e-01 9.578489e-01 1.131050e+00 7.743954e-01 7.425666e-01 7.302327e-01 8.164966e-01 4.117315e-01
<GCONST> 1.344773e+02
<STATE> 3
<MEAN> 39
 -3.899616e+00 -1.427274e+01 -9.121225e+00 -1.737084e+01 -1.916828e+00 -5.117212e+00 -1.061214e+01 2.680050e+00 6.233478e-01 -3.433248e+00 -1.038125e+01 -2.423333e+00 7.440763e+01 3.836080e-02 -2.591673e-01 -1.021505e-01 3.005954e-02 2.414028e-02 4.309236e-01 3.968668e-01 -7.588826e-02 -3.802988e-02 -2.268863e-01 -8.594519e-02 -2.392164e-01 -3.744248e-02 2.549141e-02 4.116376e-01 3.442129e-01 5.244560e-01 -1.626499e-01 -7.857665e-02 -3.111760e-02 -3.230605e-01 -1.241758e-01 9.789007e-02 3.694613e-01 1.681297e-01 -4.770010e-01
<VARIANCE> 39
 2.366527e+01 2.682654e+01 4.487725e+01 4.014503e+01 5.891719e+01 7.453742e+01 6.730495e+01 6.011966e+01 5.755120e+01 6.502116e+01 4.399748e+01 4.686076e+01 2.940645e+01 5.240474e-01 1.133865e+00 1.487370e+00 1.716333e+00 2.860066e+00 2.664089e+00 2.353182e+00 2.400326e+00 2.258917e+00 2.451891e+00 2.314390e+00 2.527689e+00 8.615512e-01 1.268566e-01 2.609183e-01 2.328147e-01 4.380345e-01 3.953364e-01 4.293806e-01 4.827579e-01 5.794064e-01 4.648458e-01 4.922091e-01 4.817144e-01 4.207656e-01 2.416040e-01
<GCONST> 1.158378e+02
<STATE> 4
<MEAN> 39
 -3.215932e+00 -1.159188e+01 -5.349837e+00 -1.354238e+01 -5.204141e+00 -6.829660e+00 -9.799968e+00 4.993852e-01 -1.472176e+00 -4.326917e+00 -7.391008e+00 -5.566263e-01 7.044827e+01 -2.018829e-01 1.522277e+00 1.320822e+00 2.111049e+00 -2.838094e-01 6.099445e-01 6.534495e-01 -8.894804e-01 -4.151149e-01 2.512494e-01 1.104528e+00 1.811637e-01 -2.068787e+00 -3.119240e-01 3.135445e-01 2.182082e-01 4.836368e-01 2.121110e-01 2.664887e-01 2.719606e-01 2.802990e-02 1.465499e-01 2.623634e-01 2.239343e-01 -8.725667e-03 -4.539607e-01
<VARIANCE> 39
 2.489881e+01 3.636772e+01 5.964925e+01 5.522583e+01 8.500684e+01 8.505196e+01 6.651923e+01 6.303394e+01 6.735678e+01 6.046514e+01 4.795843e+01 4.801758e+01 5.491769e+01 1.770370e+00 2.957042e+00 2.709343e+00 4.734003e+00 4.414917e+00 4.413784e+00 4.802727e+00 4.771420e+00 4.241847e+00 4.229283e+00 3.816900e+00 3.389525e+00 3.342498e+00 3.059490e-01 6.000478e-01 5.186659e-01 7.586281e-01 8.111551e-01 8.133588e-01 9.136632e-01 1.067588e+00 8.391276e-01 8.406312e-01 7.345113e-01 6.759358e-01 4.791121e-01
<GCONST> 1.359812e+02
<TRANSP> 5
 0.000000e+00 1.000000e+00 0.000000e+00 0.000000e+00 0.000000e+00
 0.000000e+00 4.680683e-01 5.319318e-01 0.000000e+00 0.000000e+00
 0.000000e+00 0.000000e+00 7.383204e-01 2.616796e-01 0.000000e+00
 0.000000e+00 0.000000e+00 0.000000e+00 4.488835e-01 5.511164e-01
 0.000000e+00 0.000000e+00 0.000000e+00 0.000000e+00 0.000000e+00
<ENDHMM>
~h "f"
<BEGINHMM>
<NUMSTATES> 5
<STATE> 2
<MEAN> 39
 -6.015491e+00 -4.844033e+00 -1.567902e+00 -4.184151e+00 -4.629130e+00 -1.664382e+00 -6.246702e+00 -2.717727e+00 -4.771492e+00 -4.055398e+00 -3.594365e+00 -7.995048e-01 6.417145e+01 -2.306082e+00 9.928987e-01 1.128234e+00 3.167209e+00 1.077267e+00 1.158882e+00 1.575489e+00 6.243958e-01 1.058195e+00 1.060994e+00 9.747200e-01 2.781015e-01 -1.092966e+00 -5.012484e-01 -4.654501e-01 -7.022763e-02 -2.791483e-01 -2.337637e-02 8.868323e-02 2.811774e-01 4.902101e-01 3.103966e-01 4.275873e-01 2.170836e-01 1.886916e-01 3.145175e-01
<VARIANCE> 39
 4.534367e+01 2.808285e+01 3.965059e+01 6.521979e+01 3.570681e+01 4.193986e+01 4.087929e+01 3.518074e+01 3.713279e+01 3.404970e+01 2.974534e+01 2.936102e+01 3.772584e+01 3.598136e+00 3.712596e+00 4.081647e+00 6.014353e+00 4.075119e+00 4.265121e+00 4.367977e+00 5.076206e+00 4.540579e+00 4.177546e+00 3.453833e+00 3.164726e+00 1.986488e+00 7.589672e-01 4.564947e-01 6.182026e-01 1.202425e+00 6.012424e-01 5.988259e-01 7.487215e-01 6.994430e-01 6.632661e-01 6.513131e-01 5.429352e-01 5.023998e-01 2.648550e-01
<GCONST> 1.300879e+02
<STATE> 3
<MEAN> 39
 -1.657076e+01 -6.046156e+00 1.043169e-01 2.560732e+00 -2.250800e+00 2.360258e+00 2.042785e-01 3.295923e+00 1.683898e+00 2.736995e+00 1.631425e+00 2.148736e+00 6.285825e+01 -6.486503e-01 -3.797186e-01 -1.812658e-01 1.170159e-01 1.135185e-01 1.573909e-01 3.499210e-01 4.792209e-01 5.122803e-01 4.866672e-01 4.500908e-01 3.011716e-01 3.049452e-01 1.054449e+00 -1.093400e-01 -3.386244e-01 -8.800669e-01 -2.498499e-01 -4.141156e-01 -5.865078e-01 -4.871060e-01 -5.187632e-01 -5.728140e-01 -4.766276e-01 -1.831287e-01 4.118193e-01
<VARIANCE> 39
 2.518298e+01 1.735767e+01 1.708402e+01 1.574422e+01 1.753139e+01 1.741160e+01 1.920061e+01 1.929108e+01 2.019346e+01 1.920500e+01 1.687830e+01 1.545566e+01 3.219052e+01 3.307553e+00 1.242525e+00 1.385310e+00 1.830805e+00 1.613829e+00 1.963875e+00 2.247246e+00 2.607068e+00 2.650943e+00 2.684170e+00 2.162714e+00 1.806673e+00 1.459271e+00 4.637730e-01 4.377848e-01 4.850132e-01 7.289839e-01 4.635810e-01 5.316619e-01 5.184882e-01 5.226197e-01 5.166940e-01 5.476125e-01 5.166895e-01 4.617043e-01 3.753598e-01
<GCONST> 1.099367e+02
<STATE> 4
<MEAN> 39
 -1.138821e+01 -5.658387e+00 -6.932032e-01 8.110207e-02 -2.761837e+00 2.767045e-01 -1.792497e+00 1.346126e+00 -2.109605e-01 3.318954e-01 8.702645e-02 1.413073e+00 6.573878e+01 3.402733e+00 -1.100133e+00 -1.761402e+00 -3.612795e+00 -7.005299e-01 -1.083132e+00 -1.773743e+00 -1.101431e+00 -1.250224e+00 -1.500337e+00 -1.601966e+00 -4.396622e-01 2.083520e+00 3.741080e-01 -5.474545e-01 -4.873272e-01 -9.915543e-01 -6.961647e-02 -7.518331e-03 -3.729376e-01 -1.346377e-01 -3.645420e-01 -2.559595e-01 -4.182662e-01 -1.137826e-01 3.221282e-01
<VARIANCE> 39
 5.838591e+01 2.239685e+01 2.160822e+01 2.747358e+01 2.011615e+01 2.369666e+01 2.511306e+01 2.061110e+01 2.023886e+01 2.104131e+01 1.993035e+01 1.750344e+01 3.207736e+01 3.402792e+00 4.808452e+00 4.217993e+00 5.571911e+00 3.779709e+00 4.593790e+00 3.442177e+00 3.432123e+00 3.284086e+00 3.655772e+00 4.067939e+00 3.755733e+00 2.660596e+00 9.708920e-01 5.935884e-01 5.037590e-01 8.498201e-01 5.953171e-01 5.944881e-01 6.368945e-01 5.858036e-01 5.426663e-01 5.955292e-01 6.121672e-01 5.195432e-01 3.408803e-01
<GCONST> 1.237230e+02
<TRANSP> 5
 0.000000e+00 1.000000e+00 0.000000e+00 0.000000e+00 0.000000e+00
 0.000000e+00 6.251376e-01 3.748624e-01 0.000000e+00 0.000000e+00
 0.000000e+00 0.000000e+00 7.335173e-01 2.664827e-01 0.000000e+00
 0.000000e+00 0.000000e+00 0.000000e+00 5.855067e-01 4.144933e-01
 0.000000e+00 0.000000e+00 0.000000e+00 0.000000e+00 0.000000e+00
<ENDHMM>
~h "g"
<BEGINHMM>
<NUMSTATES> 5
<STATE> 2
<MEAN> 39
 -2.541421e+00 -4.892420e+00 -1.876157e+00 -9.481060e+00 -6.577080e+00 -4.279739e+00 -9.055195e+00 -4.913947e+00 -4.509908e+00 -1.473451e+00 -5.672411e+00 7.287785e-03 6.068145e+01 -3.222589e-01 8.425259e-01 1.335972e-01 2.220973e+00 9.446258e-01 7.233065e-01 1.468823e+00 2.525684e-01 8.599820e-01 3.628711e-01 8.927073e-01 6.983101e-02 -2.509275e+00 -2.986490e-01 -5.035300e-01 -3.659390e-01 -2.048081e-01 1.509210e-01 1.436780e-01 4.489439e-01 5.691332e-01 1.854661e-01 2.276675e-01 1.860528e-01 1.572740e-01 5.006764e-01
<VARIANCE> 39
 2.789635e+01 4.229703e+01 5.413713e+01 7.147791e+01 5.508586e+01 5.601149e+01 6.687772e+01 5.321807e+01 5.975590e+01 5.828372e+01 5.709440e+01 5.038668e+01 6.344213e+01 2.148343e+00 3.318797e+00 4.550088e+00 5.603562e+00 5.244728e+00 5.112899e+00 6.618906e+00 6.381003e+00 5.589421e+00 5.152161e+00 4.688273e+00 4.277215e+00 4.145493e+00 3.116366e-01 5.590189e-01 8.764062e-01 1.485133e+00 1.011916e+00 1.025818e+00 1.220838e+00 1.057167e+00 1.096742e+00 1.069267e+00 9.008875e-01 9.347712e-01 1.148640e+00
<GCONST> 1.424436e+02
<STATE> 3
<MEAN> 39
 -7.898394e+00 -6.148157e+00 -2.340811e+00 -2.186283e+00 -2.489286e+00 -1.753808e-02 3.270964e-01 1.387576e+00 2.434839e+00 3.147196e+00 3.581373e-01 2.461397e+00 5.402628e+01 -1.050100e-01 -1.153838e+00 -2.221207e+00 -9.993250e-01 6.311592e-01 -3.513213e-01 7.817720e-01 1.378367e+00 1.403282e-01 6.939452e-01 -4.080550e-02 7.769191e-01 1.929210e+00 6.586980e-01 1.173712e-02 -3.543696e-01 -1.393991e+00 -4.475327e-01 -5.510483e-01 -9.979171e-01 -5.022261e-01 -8.707498e-01 -4.175722e-01 -7.714536e-01 -3.204178e-02 1.407730e+00
<VARIANCE> 39
 2.544794e+01 4.112501e+01 3.839069e+01 4.078078e+01 3.865437e+01 3.907750e+01 4.177128e+01 3.946949e+01 4.506937e+01 3.807159e+01 3.856554e+01 2.811420e+01 3.641721e+01 2.948444e+00 3.510548e+00 4.802582e+00 6.619978e+00 5.392222e+00 5.500445e+00 6.330803e+00 5.233970e+00 6.169484e+00 4.994172e+00 4.966732e+00 3.733458e+00 6.443909e+00 3.966582e-01 7.166379e-01 9.233308e-01 1.011610e+00 8.847477e-01 9.470738e-01 9.443969e-01 1.048347e+00 9.779413e-01 9.297520e-01 8.426803e-01 7.754630e-01 7.282349e-01
<GCONST> 1.372929e+02
<STATE> 4
<MEAN> 39
 -3.038215e+00 -6.669721e+00 -1.027016e+01 -1.121255e+01 -2.918609e+00 -3.988238e+00 -3.351422e+00 1.189141e+00 -3.258677e+00 2.297615e+00 -4.221860e+00 3.569196e+00 6.533720e+01 1.502175e+00 8.452192e-02 -8.269466e-01 -3.785169e+00 -9.329765e-01 -1.030643e+00 -2.342517e+00 -1.028083e+00 -2.005121e+00 -7.531301e-01 -1.557339e+00 2.765700e-01 3.314399e+00 -1.185687e-01 -8.057953e-02 7.438862e-01 -1.721070e-01 -2.398582e-01 2.942091e-01 -4.628401e-01 -3.945842e-01 1.038995e-02 -3.024015e-01 -7.381619e-02 -3.716524e-01 -3.026356e-01
<VARIANCE> 39
 3.958968e+01 4.517550e+01 4.293286e+01 8.290105e+01 5.685433e+01 6.029966e+01 6.715763e+01 5.139861e+01 5.393411e+01 4.027181e+01 3.955263e+01 3.784871e+01 3.743064e+01 2.087268e+00 4.010242e+00 5.431407e+00 5.257283e+00 5.152704e+00 5.019476e+00 6.404663e+00 6.029841e+00 5.593823e+00 5.242643e+00 5.122999e+00 5.080233e+00 3.607319e+00 4.887520e-01 8.414369e-01 8.813234e-01 1.405890e+00 1.121359e+00 1.076748e+00 1.479312e+00 1.257621e+00 1.237291e+00 9.863337e-01 9.033779e-01 9.486845e-01 5.814940e-01
<GCONST> 1.421887e+02
<TRANSP> 5
 0.000000e+00 1.000000e+00 0.000000e+00 0.000000e+00 0.000000e+00
 0.000000e+00 6.460665e-01 3.539335e-01 0.000000e+00 0.000000e+00
 0.000000e+00 0.000000e+00 6.006320e-01 3.993680e-01 0.000000e+00
 0.000000e+00 0.000000e+00 0.000000e+00 5.536906e-01 4.463094e-01
 0.000000e+00 0.000000e+00 0.000000e+00 0.000000e+00 0.000000e+00
<ENDHMM>
~h "h"
<BEGINHMM>
<NUMSTATES> 5
<STATE> 2
<MEAN> 39
 -3.203755e+00 -8.881313e+00 -9.207381e+00 -1.273895e+01 -5.402687e-01 -1.520355e+00 -1.073142e+01 -1.920226e+00 -6.877001e+00 -5.538120e+00 -4.887356e+00 -1.972500e+00 6.765462e+01 -3.532370e-01 1.137979e+00 -1.812503e-01 1.550863e+00 1.863004e+00 1.340671e+00 7.467153e-01 -9.115180e-02 1.687657e-01 2.640728e-01 7.268838e-01 -3.129283e-01 -1.258199e+00 -4.681907e-01 -1.303927e-01 3.359637e-01 3.301680e-01 1.054927e-01 1.995224e-01 6.008384e-01 4.467511e-01 3.342648e-01 5.051505e-01 2.384448e-01 9.734738e-02 1.894247e-03
<VARIANCE> 39
 3.296629e+01 4.897780e+01 4.745085e+01 7.007250e+01 6.819197e+01 7.876685e+01 7.111288e+01 6.018611e+01 7.732698e+01 6.927794e+01 5.586581e+01 5.507204e+01 4.844904e+01 2.753279e+00 2.901004e+00 4.488835e+00 5.926694e+00 6.659388e+00 4.867114e+00 7.041357e+00 6.333355e+00 6.088577e+00 5.838039e+00 4.630079e+00 3.941240e+00 1.456507e+00 3.376180e-01 4.816288e-01 5.678836e-01 7.559775e-01 8.736054e-01 8.245070e-01 1.061129e+00 1.240329e+00 1.182502e+00 1.108899e+00 8.789015e-01 7.201533e-01 1.959063e-01
<GCONST> 1.395762e+02
<STATE> 3
<MEAN> 39
 -9.324733e+00 -7.285463e+00 -7.515081e+00 -4.326494e+00 7.054316e+00 4.460349e+00 -2.440514e+00 3.233292e+00 -1.596892e+00 3.704530e-01 -4.849073e-01 -1.802657e+00 6.371827e+01 -1.341915e+00 -3.056051e-01 -7.116737e-02 1.025176e+00 1.008179e+00 9.509227e-01 1.629074e+00 1.844840e+00 1.675928e+00 1.696402e+00 9.888747e-01 2.929003e-01 -3.988115e-01 5.243162e-01 -1.515080e-01 -1.839675e-01 -7.973328e-01 -6.742746e-01 -4.263613e-01 -6.221801e-01 -4.217839e-01 -3.298567e-01 -4.305051e-01 -2.542233e-01 3.437046e-02 3.270974e-01
<VARIANCE> 39
 3.511003e+01 4.744452e+01 3.404203e+01 5.036204e+01 6.451962e+01 4.550499e+01 4.917226e+01 5.439964e+01 5.284877e+01 5.187981e+01 3.524641e+01 3.392731e+01 4.132903e+01 1.994672e+00 1.921521e+00 2.592579e+00 3.769542e+00 4.010133e+00 3.336038e+00 4.367001e+00 4.862889e+00 3.913234e+00 4.575677e+00 3.390039e+00 2.940878e+00 9.819590e-01 3.451292e-01 4.011001e-01 5.101048e-01 5.878895e-01 7.309724e-01 6.562131e-01 8.785480e-01 1.107964e+00 8.907924e-01 9.271452e-01 6.654244e-01 5.858423e-01 1.714993e-01
<GCONST> 1.287422e+02
<STATE> 4
<MEAN> 39
 -9.893431e+00 -7.692435e+00 -7.639640e+00 -4.361021e+00 6.571369e+00 4.672720e+00 -1.536863e+00 4.572173e+00 1.079222e+00 1.814655e+00 6.777478e-01 -1.063223e+00 6.305133e+01 1.338781e+00 -2.813425e-03 -2.442587e-01 -1.393826e+00 -1.122914e+00 -6.326607e-01 -1.315753e+00 -1.333737e+00 -9.607086e-01 -1.028228e+00 -5.232924e-01 -4.286212e-02 7.924261e-01 4.975380e-01 -1.308530e-01 -1.500380e-01 -6.930485e-01 -4.451201e-01 -2.802531e-01 -5.311593e-01 -5.112721e-01 -4.435292e-01 -3.753718e-01 -3.116458e-01 -2.573314e-02 4.103202e-01
<VARIANCE> 39
 4.067209e+01 6.483332e+01 3.746608e+01 5.325383e+01 6.797736e+01 4.619864e+01 4.994199e+01 5.636677e+01 4.737819e+01 4.775111e+01 3.433319e+01 3.067932e+01 4.031074e+01 2.690051e+00 2.388263e+00 2.793214e+00 4.732746e+00 4.366430e+00 3.269296e+00 4.366499e+00 4.680807e+00 3.530937e+00 3.509328e+00 3.022612e+00 2.683336e+00 1.772613e+00 3.871576e-01 5.045159e-01 5.161269e-01 7.359011e-01 6.812811e-01 6.162687e-01 7.978628e-01 8.773706e-01 6.880879e-01 7.357909e-01 5.893657e-01 5.113307e-01 3.123362e-01
<GCONST> 1.299594e+02
<TRANSP> 5
 0.000000e+00 1.000000e+00 0.000000e+00 0.000000e+00 0.000000e+00
 0.000000e+00 6.526780e-01 3.473220e-01 0.000000e+00 0.000000e+00
 0.000000e+00 0.000000e+00 6.060443e-01 3.939556e-01 0.000000e+00
 0.000000e+00 0.000000e+00 0.000000e+00 7.556955e-01 2.443045e-01
 0.000000e+00 0.000000e+00 0.000000e+00 0.000000e+00 0.000000e+00
<ENDHMM>
~h "i"
<BEGINHMM>
<NUMSTATES> 5
<STATE> 2
<MEAN> 39
 -1.268455e+01 1.172320e+00 1.273806e+01 -1.557981e+01 -1.161273e+01 -4.712797e+00 -1.485883e+01 -1.019603e+01 -7.718356e+00 -1.262500e+00 -6.285931e+00 1.021187e+00 6.872734e+01 5.128385e-01 -6.132109e-01 1.616325e+00 -2.451118e+00 -1.419050e+00 -4.328410e-01 -1.927751e+00 -9.714692e-01 -1.369162e+00 2.229665e-02 -1.564233e+00 -1.244047e-02 5.968434e-01 -1.788574e-01 -2.059992e-01 -5.830089e-01 5.667652e-01 4.107012e-01 2.696467e-01 6.959474e-01 5.927354e-01 4.517933e-01 1.944926e-01 1.633401e-01 -4.409835e-02 -2.304050e-01
<VARIANCE> 39
 2.422642e+01 3.604352e+01 3.522080e+01 5.214511e+01 3.656470e+01 3.623404e+01 4.681298e+01 4.194157e+01 5.156174e+01 4.330513e+01 4.703246e+01 5.789000e+01 2.572838e+01 3.497972e+00 3.390742e+00 2.906677e+00 4.061810e+00 4.197425e+00 4.208035e+00 5.322409e+00 4.693105e+00 5.056630e+00 4.097824e+00 3.725120e+00 3.444290e+00 1.158186e+00 3.622548e-01 3.574174e-01 4.247015e-01 6.019903e-01 5.777913e-01 6.000684e-01 7.815312e-01 6.670171e-01 6.253392e-01 6.972893e-01 6.028147e-01 5.898464e-01 2.498529e-01
<GCONST> 1.279960e+02
<STATE> 3
<MEAN> 39
 -1.239219e+01 9.347451e-01 1.468384e+01 -1.896317e+01 -1.213638e+01 -3.856901e+00 -1.723211e+01 -9.345356e+00 -8.126562e+00 -5.026374e-01 -8.859391e+00 2.519320e-01 6.830048e+01 2.369448e-01 -3.600273e-01 -1.300029e-03 2.187456e-01 -4.748105e-01 1.136578e-01 2.941194e-01 -1.330870e-01 1.930799e-01 1.900884e-01 9.316716e-03 8.945884e-02 -1.107520e-01 9.965171e-02 -2.534295e-02 -2.772418e-01 5.202858e-01 6.901276e-02 -2.779110e-02 3.871816e-01 8.786118e-02 1.454474e-01 -1.225417e-02 2.516504e-01 -1.742695e-02 -1.798590e-01
<VARIANCE> 39
 2.440126e+01 3.338063e+01 2.957873e+01 4.113003e+01 3.933553e+01 3.771370e+01 4.368298e+01 4.278571e+01 6.402167e+01 5.314443e+01 4.629007e+01 4.897898e+01 3.076152e+01 5.796897e-01 1.294932e+00 8.903250e-01 1.554152e+00 1.686858e+00 1.361098e+00 1.978840e+00 1.568578e+00 1.641319e+00 1.732705e+00 1.639667e+00 1.578779e+00 5.636410e-01 1.542031e-01 1.887788e-01 2.545179e-01 3.918437e-01 3.542006e-01 3.143647e-01 4.049132e-01 3.826921e-01 3.942132e-01 3.754025e-01 3.718461e-01 3.101723e-01 1.180500e-01
<GCONST> 1.069197e+02
<STATE> 4
<MEAN> 39
 -9.800771e+00 -2.936579e+00 1.211693e+01 -1.317483e+01 -1.541095e+01 -4.252518e+00 -1.161457e+01 -9.615924e+00 -7.076515e+00 7.536496e-01 -6.872027e+00 6.253007e-01 6.677707e+01 7.066092e-01 -4.040650e-01 -1.855005e+00 2.888548e+00 9.533579e-01 -1.440008e-01 1.973942e+00 1.153370e+00 8.004739e-01 -3.353105e-01 1.129230e+00 -2.658228e-01 -1.389087e+00 -2.174015e-01 2.523419e-01 -4.289510e-01 3.559853e-01 8.688431e-01 1.746422e-01 1.168642e-01 4.776111e-01 3.142152e-01 -1.347275e-01 2.322735e-01 5.090851e-04 -3.502022e-01
<VARIANCE> 39
 2.672730e+01 4.459327e+01 3.689937e+01 6.074955e+01 4.521973e+01 4.260300e+01 5.190367e+01 5.167402e+01 6.535751e+01 4.895524e+01 5.029660e+01 4.612695e+01 5.564207e+01 2.213408e+00 2.861829e+00 2.759126e+00 3.899663e+00 4.852692e+00 3.740922e+00 4.478780e+00 4.112113e+00 4.284983e+00 4.080968e+00 3.393049e+00 3.043591e+00 2.521574e+00 3.363321e-01 4.825602e-01 4.246569e-01 7.582907e-01 7.305382e-01 6.362849e-01 7.963300e-01 7.607005e-01 7.066685e-01 7.518693e-01 6.173271e-01 5.178640e-01 3.886037e-01
<GCONST> 1.309906e+02
<TRANSP> 5
 0.000000e+00 1.000000e+00 0.000000e+00 0.000000e+00 0.000000e+00
 0.000000e+00 5.067961e-01 4.932038e-01 0.000000e+00 0.000000e+00
 0.000000e+00 0.000000e+00 7.854450e-01 2.145550e-01 0.000000e+00
 0.000000e+00 0.000000e+00 0.000000e+00 5.653893e-01 4.346107e-01
 0.000000e+00 0.000000e+00 0.000000e+00 0.000000e+00 0.000000e+00
<ENDHMM>
~h "j"
<BEGINHMM>
<NUMSTATES> 5
<STATE> 2
<MEAN> 39
 -6.904778e+00 -1.633013e+00 2.834912e+00 -3.397617e+00 -8.750767e+00 -5.546385e+00 -7.099336e+00 -5.676740e+00 -4.954328e+00 -3.583385e+00 -4.668426e+00 -1.228568e+00 6.056136e+01 -1.708648e+00 1.464872e+00 -4.496773e-01 2.027224e+00 1.643024e+00 1.418593e+00 1.552840e+00 6.830681e-01 1.017746e+00 5.236849e-01 9.291804e-01 -9.186322e-02 -1.500323e+00 -6.954018e-01 -2.283832e-01 -3.755592e-01 -3.468175e-01 2.819577e-01 3.264649e-01 2.376702e-01 4.426665e-01 3.514710e-01 4.520918e-01 2.275364e-01 2.188657e-01 6.228912e-01
<VARIANCE> 39
 3.349529e+01 4.184269e+01 3.602086e+01 4.654141e+01 5.197591e+01 4.763839e+01 5.395118e+01 5.257927e+01 4.894908e+01 4.173409e+01 4.109005e+01 4.170017e+01 5.731586e+01 4.230981e+00 4.080564e+00 4.125516e+00 4.203861e+00 4.842944e+00 4.640339e+00 5.459824e+00 5.912830e+00 5.039839e+00 4.882530e+00 3.979184e+00 3.869538e+00 5.172679e+00 5.274535e-01 6.470867e-01 6.339379e-01 8.938571e-01 1.059134e+00 9.131687e-01 9.283100e-01 8.691425e-01 8.303962e-01 8.047706e-01 6.825395e-01 7.273394e-01 9.190914e-01
<GCONST> 1.380194e+02
<STATE> 3
<MEAN> 39
 -1.953452e+01 1.135406e+00 -1.867038e+00 4.342291e-01 -1.298950e+00 1.942163e+00 5.307935e-01 1.422576e+00 2.971731e+00 2.933097e+00 1.596250e+00 1.865154e+00 6.062942e+01 -2.311935e+00 8.950735e-01 -4.208822e-02 -6.298524e-01 3.175655e-01 6.543240e-01 3.114105e-01 1.916990e-01 4.631451e-01 4.971023e-01 4.500662e-01 2.723873e-01 2.230471e+00 9.023273e-01 -1.495165e-01 8.092435e-01 -6.807532e-01 -7.920729e-01 -5.921120e-01 -7.078891e-01 -7.559300e-01 -6.748565e-01 -4.284334e-01 -4.281110e-01 -1.551124e-01 3.709154e-01
<VARIANCE> 39
 4.087986e+01 3.901036e+01 3.187788e+01 3.035772e+01 3.025657e+01 2.554094e+01 2.735281e+01 2.883109e+01 2.963493e+01 2.480198e+01 2.324396e+01 1.950694e+01 4.072292e+01 3.905300e+00 3.478032e+00 4.086275e+00 2.746473e+00 3.232252e+00 3.018592e+00 3.480556e+00 3.775727e+00 3.536247e+00 3.493453e+00 3.076155e+00 2.500561e+00 2.385469e+00 1.019821e+00 8.813207e-01 6.089262e-01 8.157706e-01 7.885195e-01 7.326931e-01 7.068933e-01 7.676303e-01 6.799113e-01 6.018479e-01 5.755520e-01 5.464519e-01 7.573085e-01
<GCONST> 1.266798e+02
<STATE> 4
<MEAN> 39
 -2.009358e+01 4.380370e+00 4.197332e+00 -4.162388e+00 -4.680479e+00 4.484867e-01 -2.772474e+00 -3.847188e+00 -3.106031e-01 9.672062e-01 9.798107e-02 6.813086e-01 6.840778e+01 2.517029e+00 -9.858875e-01 2.845226e+00 -2.818147e+00 -3.270858e+00 -2.023980e+00 -2.438233e+00 -2.499538e+00 -2.168533e+00 -6.237378e-01 -9.939526e-01 1.510453e-02 1.553710e+00 8.984579e-01 -9.847857e-01 6.675801e-02 -5.722952e-01 -5.733693e-01 -4.753870e-01 -4.111625e-01 3.400303e-03 -4.780898e-01 -3.776943e-02 -4.994942e-01 1.721708e-02 -2.697894e-01
<VARIANCE> 39
 4.088453e+01 3.136908e+01 4.585466e+01 3.092407e+01 4.485136e+01 3.739584e+01 4.208122e+01 4.121228e+01 3.374574e+01 2.549249e+01 2.186570e+01 2.016312e+01 2.319006e+01 3.061567e+00 4.364630e+00 2.572067e+00 5.030373e+00 3.576611e+00 3.859959e+00 4.292938e+00 4.817986e+00 3.614761e+00 3.169580e+00 3.134857e+00 3.536782e+00 1.572669e+00 9.235042e-01 7.354900e-01 8.124327e-01 6.667742e-01 9.023023e-01 8.431507e-01 9.434386e-01 1.119849e+00 7.640263e-01 7.074921e-01 6.503350e-01 5.651673e-01 2.179640e-01
<GCONST> 1.287103e+02
<TRANSP> 5
 0.000000e+00 1.000000e+00 0.000000e+00 0.000000e+00 0.000000e+00
 0.000000e+00 7.206563e-01 2.793437e-01 0.000000e+00 0.000000e+00
 0.000000e+00 0.000000e+00 7.172660e-01 2.827340e-01 0.000000e+00
 0.000000e+00 0.000000e+00 0.000000e+00 5.979111e-01 4.020889e-01
 0.000000e+00 0.000000e+00 0.000000e+00 0.000000e+00 0.000000e+00
<ENDHMM>
~h "k"
<BEGINHMM>
<NUMSTATES> 5
<STATE> 2
<MEAN> 39
 -4.193107e+00 -5.320356e+00 -1.607710e+00 -7.275019e+00 -5.322124e+00 -3.042303e+00 -6.685369e+00 -3.690177e+00 -3.187456e+00 -7.777303e-01 -3.972839e+00 6.350327e-01 5.980286e+01 -8.276806e-01 4.455987e-03 -5.497899e-01 2.270260e+00 1.607957e+00 9.457511e-01 1.897518e+00 1.040200e+00 1.266926e+00 1.082106e+00 1.169072e+00 4.261391e-01 -1.676341e+00 -2.764111e-01 -6.241726e-01 -5.126451e-01 -1.862416e-01 3.355854e-01 9.103742e-02 3.277348e-01 5.990958e-01 2.061038e-01 2.530034e-01 8.814540e-02 8.999652e-02 7.811190e-01
<VARIANCE> 39
 3.017604e+01 3.748823e+01 5.119164e+01 7.211591e+01 5.671954e+01 5.511679e+01 6.931266e+01 5.230731e+01 5.970642e+01 5.544995e+01 5.375958e+01 4.670278e+01 6.027761e+01 2.370414e+00 4.296838e+00 5.577354e+00 6.436278e+00 5.396022e+00 5.097607e+00 6.742767e+00 6.624938e+00 5.922538e+00 5.224870e+00 4.990763e+00 4.391744e+00 6.858402e+00 3.953651e-01 5.647424e-01 8.465422e-01 1.274418e+00 9.782699e-01 1.081760e+00 1.336862e+00 1.011958e+00 1.063543e+00 9.974768e-01 1.010635e+00 8.195972e-01 1.271225e+00
<GCONST> 1.437041e+02
<STATE> 3
<MEAN> 39
 -8.198715e+00 -9.790068e+00 -8.217561e+00 -2.796651e+00 1.952403e+00 -9.622678e-02 8.973722e-01 4.383708e+00 2.524120e+00 4.659777e+00 -2.279473e-01 2.897559e+00 6.194278e+01 -5.016377e-02 -7.561997e-01 -7.491071e-01 4.747937e-01 1.347088e+00 4.193619e-02 1.901003e-01 7.571902e-01 1.298929e-01 -3.494560e-02 -2.165501e-01 -6.503378e-02 2.572973e+00 2.495520e-01 3.627102e-01 7.352703e-01 -7.972567e-02 -2.587447e-01 -3.781198e-02 -5.345891e-01 -6.187311e-01 -3.759705e-01 -5.292748e-01 -2.190771e-01 -1.650388e-01 1.235871e-01
<VARIANCE> 39
 3.231407e+01 3.836034e+01 5.423985e+01 5.834386e+01 4.502333e+01 5.402298e+01 4.822839e+01 3.590061e+01 4.642997e+01 3.682287e+01 3.653442e+01 2.783236e+01 7.640183e+01 2.443080e+00 4.188451e+00 8.119238e+00 5.344663e+00 4.330029e+00 5.614146e+00 5.377676e+00 4.897473e+00 5.064929e+00 4.559159e+00 4.484251e+00 3.494685e+00 5.480989e+00 4.793703e-01 7.318002e-01 1.332002e+00 1.192095e+00 8.943518e-01 1.152877e+00 1.128594e+00 9.519891e-01 1.054603e+00 8.960549e-01 1.000528e+00 7.141674e-01 1.737642e+00
<GCONST> 1.406447e+02
<STATE> 4
<MEAN> 39
 -8.394351e+00 -1.011359e+01 -2.549940e+00 1.555873e+00 5.989347e+00 1.376888e+00 -9.814584e-01 1.801079e+00 9.291095e-01 3.608044e-01 -1.317344e+00 1.758335e+00 6.960065e+01 6.971609e-01 -2.482185e-02 2.570441e-01 -1.163278e+00 -5.256883e-01 4.669794e-02 -1.395253e+00 -1.532463e+00 -1.159164e+00 -1.334438e+00 -5.576364e-01 -1.279878e-01 5.667518e-01 3.181793e-01 -2.073088e-01 -6.756584e-01 -1.009595e+00 -7.225529e-01 -3.638321e-01 -3.777332e-01 -2.126405e-01 -3.732452e-01 -1.282620e-01 -2.798456e-01 -2.542006e-03 -6.950068e-02
<VARIANCE> 39
 3.979125e+01 4.105848e+01 4.192731e+01 4.494080e+01 4.078152e+01 5.967271e+01 4.613329e+01 3.629051e+01 4.281345e+01 3.946880e+01 3.055794e+01 2.510441e+01 3.138982e+01 2.310493e+00 3.499988e+00 5.196848e+00 6.252152e+00 5.144398e+00 4.757083e+00 4.553978e+00 4.157260e+00 3.913041e+00 3.981490e+00 3.620639e+00 3.214315e+00 1.194621e+00 4.140158e-01 6.664557e-01 6.837570e-01 7.088202e-01 7.523002e-01 8.094769e-01 7.570782e-01 7.753711e-01 6.701880e-01 6.973688e-01 6.192182e-01 5.675145e-01 3.597729e-01
<GCONST> 1.305772e+02
<TRANSP> 5
 0.000000e+00 1.000000e+00 0.000000e+00 0.000000e+00 0.000000e+00
 0.000000e+00 6.645527e-01 3.354472e-01 0.000000e+00 0.000000e+00
 0.000000e+00 0.000000e+00 7.511104e-01 2.488897e-01 0.000000e+00
 0.000000e+00 0.000000e+00 0.000000e+00 7.393401e-01 2.606599e-01
 0.000000e+00 0.000000e+00 0.000000e+00 0.000000e+00 0.000000e+00
<ENDHMM>
~h "l"
<BEGINHMM>
<NUMSTATES> 5
<STATE> 2
<MEAN> 39
 -3.993928e+00 -1.136175e+01 2.714905e-02 -8.207649e+00 -9.707982e+00 -6.986871e+00 -1.116994e+01 -2.940347e+00 -1.652967e+00 -3.626115e+00 -4.647294e+00 1.925639e+00 6.664983e+01 1.416974e-01 9.281514e-01 1.183954e+00 7.701741e-01 -6.383758e-02 -1.256147e+00 -1.326090e+00 -8.558927e-01 -1.374005e-02 -3.933383e-01 -3.058024e-01 3.647270e-01 -6.742814e-01 -1.621677e-01 -2.903255e-02 -4.965850e-02 -4.986578e-01 1.034157e-01 3.217404e-01 1.613021e-01 5.834224e-02 -2.604923e-01 1.058565e-01 -1.156837e-01 -1.738479e-01 3.601062e-01
<VARIANCE> 39
 3.314971e+01 5.064976e+01 6.719602e+01 8.404544e+01 6.952586e+01 9.425203e+01 9.367714e+01 8.364684e+01 7.963850e+01 6.977776e+01 6.515458e+01 5.460235e+01 6.944595e+01 1.295304e+00 3.023671e+00 3.742548e+00 5.513856e+00 5.403965e+00 6.969355e+00 6.644117e+00 5.905289e+00 6.291068e+00 5.768168e+00 4.517703e+00 3.899166e+00 2.890528e+00 1.968829e-01 5.929914e-01 5.607340e-01 1.093734e+00 9.821168e-01 1.462531e+00 1.317313e+00 1.286648e+00 1.156339e+00 1.191137e+00 8.834160e-01 7.424326e-01 4.386484e-01
<GCONST> 1.430761e+02
<STATE> 3
<MEAN> 39
 -4.172803e+00 -8.434171e+00 3.504614e+00 -9.047184e+00 -8.599238e+00 -9.545541e+00 -1.496512e+01 -4.606139e+00 -3.052369e+00 -4.570958e+00 -6.695674e+00 1.789191e+00 6.592505e+01 -2.933230e-01 -1.273659e-01 1.487882e-01 -1.088594e+00 -3.231121e-01 5.348204e-01 4.777968e-01 4.887707e-02 -4.027950e-01 7.087665e-01 -2.567008e-01 -5.049437e-01 8.524054e-01 -1.265626e-01 -5.772776e-01 -4.429951e-01 -6.243162e-01 -2.774874e-01 5.548373e-01 6.900047e-01 3.297316e-01 -1.417312e-01 2.506655e-01 -2.639963e-02 -1.716052e-01 7.278751e-01
<VARIANCE> 39
 2.908080e+01 3.529101e+01 7.516043e+01 8.395858e+01 5.994393e+01 7.216510e+01 7.762685e+01 7.241372e+01 8.233212e+01 6.968629e+01 6.154245e+01 5.220543e+01 3.702711e+01 8.758582e-01 2.041890e+00 3.240155e+00 3.223520e+00 3.990413e+00 4.629975e+00 5.913601e+00 5.187754e+00 4.819355e+00 5.325713e+00 4.008403e+00 3.061666e+00 1.749572e+00 1.710725e-01 4.225897e-01 5.307570e-01 9.219099e-01 8.621373e-01 1.244768e+00 1.433555e+00 1.095349e+00 1.099056e+00 1.369521e+00 8.798901e-01 7.360556e-01 3.028926e-01
<GCONST> 1.362484e+02
<STATE> 4
<MEAN> 39
 -5.028732e+00 -9.907838e+00 1.949153e+00 -1.057830e+01 -9.454790e+00 -6.390604e+00 -9.987938e+00 -2.813070e+00 -3.129170e+00 -1.482849e+00 -4.781643e+00 4.299051e-01 6.734498e+01 -4.166961e-01 -8.479769e-01 -3.376172e-01 -1.824266e+00 -6.357833e-01 1.025007e+00 8.728625e-01 3.093351e-01 -5.357050e-01 5.199742e-01 -4.914972e-01 -3.790579e-01 1.814761e+00 -7.400745e-02 -1.656608e-01 -2.047926e-01 -1.603563e-01 9.021598e-02 2.114231e-01 2.274729e-03 1.043970e-02 -8.844776e-02 -2.198824e-01 -1.393866e-01 7.029031e-02 2.149445e-01
<VARIANCE> 39
 3.056032e+01 4.008591e+01 8.149208e+01 6.928033e+01 7.133421e+01 6.374347e+01 7.180704e+01 6.663541e+01 7.135163e+01 5.019524e+01 5.010361e+01 4.181585e+01 6.079849e+01 1.288594e+00 2.887040e+00 4.136405e+00 4.717662e+00 5.210376e+00 6.438062e+00 7.705728e+00 6.371847e+00 5.651897e+00 7.202227e+00 4.334865e+00 3.708167e+00 2.062444e+00 1.467569e-01 3.432474e-01 3.824583e-01 6.543369e-01 6.622116e-01 8.239077e-01 9.828341e-01 8.052501e-01 8.275981e-01 7.409497e-01 6.440509e-01 5.170415e-01 2.552119e-01
<GCONST> 1.349921e+02
<TRANSP> 5
 0.000000e+00 1.000000e+00 0.000000e+00 0.000000e+00 0.000000e+00
 0.000000e+00 5.184805e-01 4.815195e-01 0.000000e+00 0.000000e+00
 0.000000e+00 0.000000e+00 4.707274e-01 5.292727e-01 0.000000e+00
 0.000000e+00 0.000000e+00 0.000000e+00 2.237082e-01 7.762918e-01
 0.000000e+00 0.000000e+00 0.000000e+00 0.000000e+00 0.000000e+00
<ENDHMM>
~h "m"
<BEGINHMM>
<NUMSTATES> 5
<STATE> 2
<MEAN> 39
 -2.978462e+00 -7.719461e+00 6.508742e-01 -6.130107e+00 -5.295067e+00 -3.902657e+00 -1.025133e+01 -3.785898e+00 -4.553717e+00 -1.539569e+00 -4.230844e+00 -1.465192e+00 6.149123e+01 3.875849e-01 9.717223e-01 1.210887e+00 1.619739e+00 -8.826956e-02 -1.014303e+00 -1.596088e+00 -1.832532e+00 -7.267951e-01 1.468378e-01 -8.802311e-01 -8.845754e-01 -1.233897e+00 -1.435983e-01 -2.799367e-01 -1.515885e-01 -4.727663e-01 -1.901025e-01 -6.049872e-02 -2.205553e-02 4.025061e-02 -2.117488e-01 -1.048395e-01 -1.594797e-01 -9.557470e-02 5.408436e-01
<VARIANCE> 39
 2.961919e+01 4.026147e+01 4.110126e+01 6.423383e+01 5.316395e+01 5.932249e+01 7.015694e+01 6.520905e+01 6.604369e+01 5.133316e+01 5.636531e+01 6.356260e+01 5.856831e+01 1.968061e+00 2.284081e+00 4.430426e+00 5.448482e+00 4.321812e+00 4.495219e+00 5.184298e+00 5.014336e+00 5.354577e+00 5.014549e+00 4.630820e+00 4.275770e+00 4.223838e+00 2.986689e-01 3.800981e-01 7.043844e-01 7.991350e-01 6.023567e-01 6.683221e-01 8.448150e-01 1.041665e+00 8.257492e-01 7.511618e-01 6.744866e-01 6.692405e-01 3.921266e-01
<GCONST> 1.361379e+02
<STATE> 3
<MEAN> 39
 -2.037344e+00 -6.843592e+00 3.012047e+00 -4.374360e+00 -6.614499e+00 -7.118271e+00 -1.520510e+01 -8.493333e+00 -7.922046e+00 -1.943971e+00 -8.235139e+00 -5.593048e+00 6.115098e+01 7.060448e-02 -3.913841e-01 -2.070632e-01 -5.657657e-01 -5.369695e-01 -2.898855e-01 -2.784126e-02 2.501975e-01 -7.663169e-02 -2.207924e-01 -1.813453e-01 -2.948086e-01 7.593190e-01 -1.058648e-01 -4.436126e-01 -4.107474e-01 -1.072043e+00 -2.232500e-01 4.035406e-01 6.014833e-01 7.888126e-01 2.432393e-01 -1.733870e-01 2.862185e-01 3.854481e-01 8.443025e-01
<VARIANCE> 39
 1.513949e+01 2.799144e+01 2.645075e+01 4.038526e+01 4.625868e+01 5.667963e+01 4.454087e+01 5.268089e+01 6.129391e+01 5.683869e+01 5.348705e+01 5.680678e+01 1.572256e+01 7.253746e-01 1.484527e+00 2.696093e+00 3.155641e+00 2.273950e+00 2.850199e+00 3.190716e+00 3.816328e+00 3.259353e+00 3.230651e+00 3.161864e+00 3.027023e+00 2.038346e+00 2.615713e-01 3.154773e-01 9.351961e-01 6.170439e-01 5.949762e-01 7.148807e-01 7.969477e-01 9.096220e-01 7.976235e-01 9.696789e-01 8.112792e-01 7.971647e-01 2.783338e-01
<GCONST> 1.249784e+02
<STATE> 4
<MEAN> 39
 -1.704418e+00 -8.551088e+00 1.431441e+00 -8.608420e+00 -9.774752e+00 -6.368480e+00 -1.236936e+01 -4.619854e+00 -6.330648e+00 -2.960092e+00 -6.414679e+00 -4.502460e+00 6.489839e+01 -5.486987e-01 -1.008288e+00 -4.132718e-01 -3.448322e+00 -1.131574e+00 9.848712e-01 9.823810e-01 1.544991e+00 2.914506e-01 -3.073553e-01 1.727832e-01 7.453133e-01 2.544543e+00 -3.442672e-01 1.542168e-01 3.785411e-02 -5.391763e-01 2.996014e-01 4.541944e-01 1.021243e-01 5.734981e-02 -1.547641e-01 6.880190e-02 -7.447897e-02 1.503755e-01 1.386979e-01
<VARIANCE> 39
 1.888724e+01 2.850470e+01 5.036636e+01 4.733269e+01 4.919587e+01 4.578004e+01 3.913290e+01 4.491719e+01 4.479867e+01 3.771378e+01 3.902748e+01 4.244163e+01 2.699609e+01 2.400186e+00 3.016415e+00 1.011930e+01 4.637899e+00 5.028867e+00 5.027734e+00 5.303318e+00 6.483180e+00 4.491456e+00 6.184907e+00 4.691436e+00 4.371365e+00 2.032970e+00 1.926770e-01 3.702139e-01 5.408031e-01 8.153632e-01 6.194997e-01 5.628625e-01 6.807049e-01 6.342059e-01 6.319572e-01 6.011555e-01 5.562741e-01 4.985959e-01 2.393524e-01
<GCONST> 1.296918e+02
<TRANSP> 5
 0.000000e+00 1.000000e+00 0.000000e+00 0.000000e+00 0.000000e+00
 0.000000e+00 4.765563e-01 5.234437e-01 0.000000e+00 0.000000e+00
 0.000000e+00 0.000000e+00 6.304720e-01 3.695280e-01 0.000000e+00
 0.000000e+00 0.000000e+00 0.000000e+00 4.307133e-01 5.692867e-01
 0.000000e+00 0.000000e+00 0.000000e+00 0.000000e+00 0.000000e+00
<ENDHMM>
~h "n"
<BEGINHMM>
<NUMSTATES> 5
<STATE> 2
<MEAN> 39
 -5.373562e+00 -7.188991e+00 1.039308e+00 -7.169363e+00 -7.446998e+00 -6.594374e+00 -7.437885e+00 -1.892223e+00 -3.479369e+00 -2.310880e+00 -3.917539e+00 9.175444e-01 6.209623e+01 8.111230e-01 1.148429e+00 1.296975e+00 1.177706e+00 -1.092358e+00 -4.799567e-01 -9.740881e-01 -1.415087e+00 5.970988e-02 -5.034449e-01 -5.008631e-01 -2.406583e-01 -1.413118e+00 -3.420421e-02 -1.090857e-01 -1.091828e-01 -3.737574e-01 -4.821788e-02 1.572391e-01 -2.021625e-01 -9.170263e-02 -1.163533e-01 -8.686119e-02 -1.566153e-01 -1.191023e-01 4.149394e-01
<VARIANCE> 39
 3.159042e+01 3.972276e+01 4.762933e+01 6.847794e+01 6.516145e+01 6.993251e+01 8.298961e+01 6.323988e+01 7.152905e+01 5.301104e+01 6.666736e+01 5.540502e+01 7.919476e+01 1.622860e+00 2.191287e+00 4.227772e+00 4.539913e+00 4.650189e+00 4.682960e+00 5.472194e+00 4.764275e+00 5.060452e+00 4.656331e+00 4.131594e+00 3.561334e+00 4.378617e+00 3.089865e-01 3.983560e-01 6.865975e-01 7.691647e-01 7.659323e-01 8.973954e-01 8.544537e-01 8.700539e-01 8.410817e-01 7.504988e-01 6.917934e-01 5.890635e-01 6.079337e-01
<GCONST> 1.373488e+02
<STATE> 3
<MEAN> 39
 -2.138030e+00 -4.654959e+00 4.552891e+00 -5.380184e+00 -1.193394e+01 -8.072806e+00 -1.197752e+01 -7.215694e+00 -3.647234e+00 -4.881991e+00 -7.204186e+00 -1.389729e+00 6.025727e+01 -1.938275e-01 8.150402e-02 -9.753290e-02 -6.140279e-01 -1.460744e-01 -2.044376e-01 -3.554212e-01 1.218629e-02 -1.024136e-01 -9.795037e-02 -4.838093e-01 -2.244295e-01 8.074842e-01 -5.100527e-01 -5.166181e-01 -5.551267e-01 -1.057100e+00 5.240541e-01 1.808607e-01 3.464807e-01 7.837900e-01 -3.056527e-01 2.524929e-01 9.350659e-02 9.067785e-02 1.126442e+00
<VARIANCE> 39
 1.808873e+01 2.935847e+01 2.446663e+01 3.588657e+01 3.796566e+01 3.868951e+01 4.700322e+01 4.653436e+01 5.859343e+01 5.033365e+01 5.799548e+01 5.329499e+01 1.757041e+01 1.429043e+00 1.993201e+00 3.529934e+00 4.279508e+00 3.750991e+00 3.759194e+00 4.397185e+00 4.340153e+00 3.648344e+00 3.673268e+00 3.379782e+00 2.775268e+00 3.510527e+00 2.813685e-01 4.274889e-01 1.208145e+00 7.612517e-01 8.763997e-01 8.438457e-01 1.026310e+00 8.449283e-01 7.961840e-01 8.409916e-01 7.163282e-01 6.406143e-01 3.491476e-01
<GCONST> 1.291726e+02
<STATE> 4
<MEAN> 39
 -4.996909e+00 -5.546793e+00 2.108797e+00 -1.048489e+01 -9.368000e+00 -8.452806e+00 -1.153068e+01 -3.603814e+00 -4.489749e+00 -3.722561e+00 -7.559405e+00 -1.436097e+00 6.582615e+01 -1.171679e+00 -1.277811e+00 -1.185012e+00 -3.111639e+00 1.114501e+00 6.817153e-01 2.455762e-01 1.675525e+00 -1.045636e+00 3.466385e-01 -1.734027e-01 5.203839e-02 3.184154e+00 -2.318266e-02 -3.817232e-01 -7.816707e-02 -1.714011e-01 9.510142e-02 5.073006e-01 1.598384e-01 3.804662e-02 -2.197757e-01 7.873537e-03 1.195450e-01 2.844601e-02 1.424477e-01
<VARIANCE> 39
 2.414903e+01 3.979402e+01 4.574919e+01 5.721888e+01 4.309124e+01 4.749532e+01 4.956753e+01 5.896173e+01 4.868056e+01 4.240003e+01 4.495850e+01 4.586432e+01 2.990459e+01 1.768929e+00 4.246898e+00 1.010704e+01 4.743687e+00 6.034898e+00 4.949197e+00 7.218066e+00 5.658973e+00 4.820071e+00 5.170260e+00 4.098366e+00 3.857183e+00 1.998368e+00 2.444629e-01 4.064112e-01 6.067853e-01 7.089666e-01 7.259252e-01 6.712598e-01 7.421004e-01 7.833657e-01 6.497456e-01 6.155738e-01 5.545532e-01 5.138003e-01 4.005438e-01
<GCONST> 1.328423e+02
<TRANSP> 5
 0.000000e+00 1.000000e+00 0.000000e+00 0.000000e+00 0.000000e+00
 0.000000e+00 4.836498e-01 5.163503e-01 0.000000e+00 0.000000e+00
 0.000000e+00 0.000000e+00 5.917903e-01 4.082097e-01 0.000000e+00
 0.000000e+00 0.000000e+00 0.000000e+00 4.276773e-01 5.723227e-01
 0.000000e+00 0.000000e+00 0.000000e+00 0.000000e+00 0.000000e+00
<ENDHMM>
~h "o"
<BEGINHMM>
<NUMSTATES> 5
<STATE> 2
<MEAN> 39
 2.095861e+00 -1.825755e+00 -8.746422e+00 -2.265416e+01 -6.667805e+00 -6.374449e-01 -8.724932e+00 1.442010e+00 -9.331651e+00 -3.887320e+00 -4.175647e+00 7.319014e-01 6.675732e+01 7.211376e-01 1.100089e-01 -2.104277e+00 -4.739699e+00 1.002368e-02 3.654986e-01 -1.375824e+00 5.177348e-01 -1.375355e+00 -4.886744e-01 -2.763109e-01 4.747897e-01 1.160611e+00 -6.810474e-01 -5.940943e-01 3.419899e-01 1.028637e+00 6.459247e-01 2.648612e-01 1.479308e-01 -2.275961e-01 4.324252e-01 2.436631e-01 1.540457e-01 -1.294046e-01 -2.139206e-02
<VARIANCE> 39
 2.009666e+01 2.558377e+01 3.339346e+01 6.748779e+01 4.761080e+01 4.324436e+01 4.012988e+01 5.345417e+01 4.279031e+01 3.616084e+01 3.789908e+01 4.814955e+01 2.513423e+01 2.405422e+00 3.047717e+00 2.845895e+00 7.333208e+00 5.210162e+00 4.068096e+00 5.960685e+00 5.011853e+00 4.177201e+00 3.818630e+00 3.799531e+00 3.763843e+00 1.556424e+00 2.315633e-01 3.308890e-01 3.951397e-01 1.233910e+00 5.733954e-01 5.901840e-01 8.017006e-01 8.778502e-01 8.861169e-01 7.713834e-01 6.184097e-01 6.754410e-01 3.265001e-01
<GCONST> 1.292773e+02
<STATE> 3
<MEAN> 39
 4.518940e-01 -5.722317e+00 -1.282236e+01 -2.806270e+01 -1.732821e+00 3.491968e+00 -9.791368e+00 1.223088e+00 -9.768113e+00 -3.881393e+00 -2.183443e+00 -5.310587e-01 6.986651e+01 -3.730071e-01 -1.007630e+00 -3.719876e-01 2.610981e-01 9.638050e-01 4.097121e-01 -2.882563e-01 -5.585574e-01 5.633460e-01 4.437408e-01 1.515356e-01 -5.161573e-01 5.608373e-01 -4.107501e-02 -2.342790e-02 2.545566e-01 5.841730e-01 -1.212315e-01 -2.161869e-01 6.324522e-03 -8.765554e-02 3.161657e-01 6.180767e-02 -2.052056e-01 -1.404593e-01 -1.469708e-01
<VARIANCE> 39
 2.160190e+01 3.168951e+01 3.250461e+01 3.870561e+01 5.926387e+01 5.821145e+01 4.885423e+01 5.768163e+01 5.517291e+01 4.210400e+01 4.415340e+01 5.104240e+01 2.717157e+01 4.051421e-01 1.035869e+00 8.103985e-01 1.860682e+00 1.674824e+00 1.673810e+00 1.988391e+00 2.042083e+00 2.516501e+00 2.360967e+00 2.623307e+00 2.484519e+00 6.612830e-01 8.127069e-02 1.596226e-01 2.215767e-01 4.916307e-01 3.295488e-01 3.398473e-01 3.791662e-01 3.703914e-01 4.833849e-01 4.290480e-01 5.291595e-01 4.557710e-01 7.875757e-02
<GCONST> 1.091728e+02
<STATE> 4
<MEAN> 39
 -2.300879e+00 -1.208851e+01 -1.237136e+01 -2.031339e+01 7.860790e-01 -2.930787e-01 -1.322558e+01 -1.991513e+00 -2.879356e+00 -1.709160e+00 -6.879452e+00 -3.504662e+00 7.198897e+01 -4.465234e-01 -1.445883e-01 1.331542e+00 2.605785e+00 -9.994031e-01 -1.590956e+00 1.093945e-01 2.316328e-01 1.303302e+00 -4.821574e-01 -1.036078e+00 3.032898e-01 -7.169722e-01 -7.906614e-02 5.192367e-01 4.769410e-01 4.462892e-01 -3.404926e-01 -5.603593e-02 5.803216e-01 1.838260e-01 -3.662602e-01 -1.841954e-01 4.379358e-01 4.757281e-01 -5.439153e-01
<VARIANCE> 39
 2.154509e+01 3.131135e+01 2.925022e+01 5.398014e+01 5.587634e+01 8.368090e+01 5.638354e+01 5.723241e+01 7.318369e+01 5.355531e+01 5.494901e+01 5.096169e+01 4.547078e+01 1.040710e+00 2.865476e+00 2.130673e+00 3.408780e+00 3.975711e+00 4.147910e+00 4.090348e+00 3.980154e+00 5.393858e+00 4.954788e+00 5.191000e+00 4.835132e+00 2.611836e+00 2.492893e-01 3.807747e-01 3.372640e-01 6.212664e-01 8.253022e-01 1.015172e+00 7.458659e-01 8.746831e-01 1.011891e+00 1.067568e+00 1.002886e+00 8.340955e-01 2.111059e-01
<GCONST> 1.320719e+02
<TRANSP> 5
 0.000000e+00 1.000000e+00 0.000000e+00 0.000000e+00 0.000000e+00
 0.000000e+00 6.497093e-01 3.502907e-01 0.000000e+00 0.000000e+00
 0.000000e+00 0.000000e+00 8.340245e-01 1.659755e-01 0.000000e+00
 0.000000e+00 0.000000e+00 0.000000e+00 7.019703e-01 2.980296e-01
 0.000000e+00 0.000000e+00 0.000000e+00 0.000000e+00 0.000000e+00
<ENDHMM>
~h "p"
<BEGINHMM>
<NUMSTATES> 5
<STATE> 2
<MEAN> 39
 -2.581937e+00 -5.165879e+00 1.587636e+00 -4.748448e+00 -4.900875e+00 -2.943494e+00 -7.610790e+00 -4.741928e+00 -4.169216e+00 -2.178696e+00 -4.210975e+00 -1.234794e+00 6.081771e+01 -6.968769e-01 1.072722e+00 6.972138e-01 2.357715e+00 1.326898e+00 1.060143e+00 1.668040e+00 6.585916e-01 1.135848e+00 5.179749e-01 9.332635e-01 3.159487e-01 -1.832953e+00 -4.654924e-01 -4.016661e-01 -5.973654e-02 -2.311143e-01 1.131641e-01 3.098260e-01 4.706509e-01 5.460693e-01 2.964166e-01 2.176564e-01 2.680384e-01 1.722285e-01 6.847249e-01
<VARIANCE> 39
 3.112649e+01 4.363563e+01 5.307689e+01 6.730962e+01 5.436098e+01 5.268731e+01 5.825531e+01 5.449892e+01 5.235724e+01 4.553799e+01 4.369059e+01 4.482982e+01 7.407646e+01 3.440577e+00 4.088482e+00 4.610493e+00 6.145022e+00 4.558645e+00 4.623308e+00 5.829909e+00 6.522984e+00 5.149310e+00 4.623038e+00 4.364380e+00 3.931725e+00 7.491882e+00 5.415164e-01 7.713277e-01 7.872391e-01 1.159243e+00 8.855242e-01 7.620733e-01 9.450485e-01 1.097834e+00 8.900004e-01 8.775787e-01 7.889162e-01 7.200588e-01 1.570014e+00
<GCONST> 1.417750e+02
<STATE> 3
<MEAN> 39
 -7.870739e+00 -5.321006e+00 2.996753e+00 7.314647e-01 -1.028453e+00 1.966850e+00 1.565059e+00 2.304778e+00 2.794666e+00 2.557928e+00 1.626627e+00 1.808069e+00 6.030024e+01 -7.821975e-01 -7.457609e-01 6.976160e-01 7.402936e-02 6.529804e-01 9.969495e-01 1.033060e+00 7.595318e-01 3.735155e-01 4.142935e-02 4.791636e-01 3.513551e-01 2.933517e+00 8.383430e-02 -1.617774e-01 -8.501580e-02 -6.249002e-01 -8.000138e-02 -6.619437e-02 -6.024705e-01 -5.040891e-01 -5.208518e-01 -4.418138e-01 -3.955738e-01 -1.315274e-01 5.281349e-01
<VARIANCE> 39
 3.492985e+01 2.874315e+01 3.715968e+01 2.348741e+01 3.087395e+01 2.631268e+01 2.647463e+01 2.847851e+01 3.139053e+01 2.880409e+01 2.418229e+01 2.086994e+01 9.652852e+01 4.360311e+00 4.104273e+00 5.575491e+00 3.696056e+00 4.788872e+00 4.148504e+00 4.329614e+00 4.900392e+00 5.066156e+00 4.557950e+00 4.032813e+00 3.286664e+00 8.437733e+00 7.919893e-01 8.163992e-01 9.609000e-01 8.491706e-01 8.470440e-01 7.473114e-01 7.993271e-01 8.375443e-01 8.362292e-01 7.448073e-01 6.622009e-01 5.906200e-01 2.382782e+00
<GCONST> 1.340554e+02
<STATE> 4
<MEAN> 39
 -1.231227e+01 -7.006731e+00 3.864667e+00 -3.369928e+00 2.492098e+00 5.256971e+00 -1.348856e-01 6.296545e-01 7.130309e-01 -5.490110e-01 6.319618e-01 1.568213e+00 6.939508e+01 1.005380e-01 3.241820e-02 -6.351483e-01 -1.414010e+00 -4.371493e-01 -3.733228e-01 -1.369684e+00 -9.996375e-01 -1.018505e+00 -7.657486e-01 -6.272448e-01 -1.265862e-01 3.437663e-01 5.222809e-01 9.516338e-02 -1.948004e-01 -3.513861e-01 -6.854582e-01 -5.102785e-01 -4.765182e-01 -3.119288e-01 -3.467120e-01 -3.024007e-02 -2.909296e-01 -8.795293e-02 -3.492571e-01
<VARIANCE> 39
 5.305927e+01 7.885911e+01 6.559106e+01 4.234600e+01 6.064683e+01 3.484176e+01 3.697104e+01 3.306649e+01 3.253368e+01 3.233673e+01 2.335206e+01 2.145637e+01 3.252863e+01 4.481931e+00 4.620513e+00 4.058858e+00 4.196149e+00 6.428274e+00 4.351648e+00 4.177514e+00 4.346826e+00 3.857734e+00 3.310960e+00 3.097001e+00 2.635587e+00 2.998689e+00 6.479495e-01 7.570877e-01 8.757565e-01 8.352277e-01 9.698387e-01 7.709305e-01 8.335938e-01 8.487386e-01 7.263287e-01 6.712314e-01 6.159823e-01 5.580922e-01 7.499099e-01
<GCONST> 1.334728e+02
<TRANSP> 5
 0.000000e+00 1.000000e+00 0.000000e+00 0.000000e+00 0.000000e+00
 0.000000e+00 6.437405e-01 3.562595e-01 0.000000e+00 0.000000e+00
 0.000000e+00 0.000000e+00 6.998934e-01 3.001066e-01 0.000000e+00
 0.000000e+00 0.000000e+00 0.000000e+00 7.817479e-01 2.182521e-01
 0.000000e+00 0.000000e+00 0.000000e+00 0.000000e+00 0.000000e+00
<ENDHMM>
~h "q"
<BEGINHMM>
<NUMSTATES> 5
<STATE> 2
<MEAN> 39
 -8.969767e+00 -1.310117e+00 1.893330e+00 -3.804286e+00 -7.138507e+00 -5.400455e+00 -6.125588e+00 -4.581350e+00 -3.845409e+00 -2.568858e+00 -3.524533e+00 -2.218896e-01 6.198349e+01 -2.622251e+00 1.745415e+00 -4.581769e-01 1.897864e+00 1.956450e+00 1.668610e+00 1.994153e+00 1.053153e+00 1.248112e+00 9.385177e-01 1.218431e+00 1.252135e-01 -1.045982e+00 -6.567628e-01 -3.102697e-01 -3.166225e-01 -4.515491e-01 2.868352e-01 4.144856e-01 2.575377e-01 4.587599e-01 3.283259e-01 4.922222e-01 1.553248e-01 1.259643e-01 6.485078e-01
<VARIANCE> 39
 4.533304e+01 4.741746e+01 4.233416e+01 4.859570e+01 5.677336e+01 5.198254e+01 5.607812e+01 5.352763e+01 4.864683e+01 4.015411e+01 3.960190e+01 3.774401e+01 5.479760e+01 4.735900e+00 4.993895e+00 4.763616e+00 5.011950e+00 5.428042e+00 5.219406e+00 6.031764e+00 6.238464e+00 5.529989e+00 5.493198e+00 4.164742e+00 3.961176e+00 5.095551e+00 7.048273e-01 7.800092e-01 7.668228e-01 9.081933e-01 1.185265e+00 1.026617e+00 1.083734e+00 9.699636e-01 9.261151e-01 8.923520e-01 7.525293e-01 7.211039e-01 7.983219e-01
<GCONST> 1.412791e+02
<STATE> 3
<MEAN> 39
 -2.267229e+01 1.933339e+00 -1.746786e+00 -1.592969e+00 -9.154697e-02 2.046936e+00 1.312762e+00 1.864349e+00 3.236060e+00 4.012376e+00 1.699968e+00 2.050131e+00 6.425045e+01 -1.547515e+00 3.038818e-01 5.073164e-01 -7.928844e-01 3.089837e-01 8.168275e-01 3.504775e-01 2.317999e-01 3.464895e-01 4.309087e-01 2.297598e-01 6.744750e-04 2.040711e+00 8.785436e-01 -2.269289e-01 5.741211e-01 -2.522446e-01 -5.605623e-01 -2.978750e-01 -4.595951e-01 -4.962030e-01 -4.528108e-01 -4.300005e-01 -3.142341e-01 -1.719594e-01 1.095271e-01
<VARIANCE> 39
 3.432014e+01 3.410844e+01 3.282068e+01 3.640520e+01 2.899780e+01 2.442908e+01 2.554993e+01 2.426262e+01 2.541125e+01 2.099852e+01 2.010689e+01 1.689287e+01 4.206384e+01 4.158727e+00 3.082865e+00 3.458354e+00 2.311790e+00 2.749285e+00 2.709758e+00 2.920469e+00 3.000421e+00 3.014749e+00 2.903984e+00 2.529287e+00 2.057396e+00 1.999633e+00 6.183779e-01 5.641181e-01 4.666983e-01 6.149497e-01 6.325610e-01 5.639936e-01 6.282533e-01 6.071375e-01 5.896353e-01 5.297248e-01 4.982960e-01 4.243456e-01 5.960342e-01
<GCONST> 1.204573e+02
<STATE> 4
<MEAN> 39
 -2.010066e+01 1.032240e+00 6.713758e+00 -5.394362e+00 -3.758013e+00 3.922577e+00 4.337221e-02 -1.165642e+00 7.810223e-01 2.339257e+00 3.300667e-01 2.304918e-01 7.170088e+01 1.862267e+00 -6.986417e-01 1.392331e+00 -6.817529e-01 -1.715464e+00 -7.086892e-01 -9.406196e-01 -1.131604e+00 -1.017885e+00 -5.629894e-01 -4.601020e-01 -4.279105e-02 1.398097e-01 4.267197e-01 -1.845254e-01 -1.356430e-01 -2.353429e-01 -3.489785e-01 -5.011754e-01 -4.089137e-01 -1.980076e-01 -3.493684e-01 -9.460340e-02 -2.402428e-01 8.032911e-02 -2.683308e-01
<VARIANCE> 39
 4.531752e+01 4.392635e+01 3.411365e+01 2.619926e+01 3.515071e+01 2.309707e+01 2.736979e+01 2.585592e+01 2.654615e+01 2.322688e+01 1.946083e+01 1.629972e+01 2.602082e+01 2.539238e+00 1.951317e+00 2.097217e+00 3.204427e+00 3.176908e+00 3.769857e+00 4.018423e+00 3.442361e+00 3.206234e+00 2.472687e+00 2.480152e+00 2.249146e+00 1.447057e+00 4.478157e-01 4.049648e-01 4.569078e-01 5.460647e-01 5.407434e-01 5.544563e-01 6.710617e-01 6.518060e-01 6.370893e-01 5.290948e-01 5.329028e-01 4.420057e-01 2.589946e-01
<GCONST> 1.185358e+02
<TRANSP> 5
 0.000000e+00 1.000000e+00 0.000000e+00 0.000000e+00 0.000000e+00
 0.000000e+00 7.210118e-01 2.789882e-01 0.000000e+00 0.000000e+00
 0.000000e+00 0.000000e+00 7.623877e-01 2.376123e-01 0.000000e+00
 0.000000e+00 0.000000e+00 0.000000e+00 8.098029e-01 1.901971e-01
 0.000000e+00 0.000000e+00 0.000000e+00 0.000000e+00 0.000000e+00
<ENDHMM>
~h "r"
<BEGINHMM>
<NUMSTATES> 5
<STATE> 2
<MEAN> 39
 -2.887398e+00 -1.409461e+01 1.373428e+00 -4.664349e+00 -1.462067e+01 -8.094077e+00 -1.054448e+01 -1.151149e+00 -4.855482e+00 -2.945234e+00 -3.306292e+00 1.040473e+00 6.716222e+01 3.732036e-01 -3.048753e-01 7.683093e-01 8.374403e-01 -1.260495e+00 -1.402000e+00 -7.404303e-02 6.227282e-02 -7.483494e-01 -4.961295e-01 3.906200e-01 2.353030e-01 1.874222e-01 -1.043188e-01 -1.175381e-03 -1.425954e-01 -4.880173e-01 2.241523e-01 2.612125e-01 1.193117e-01 8.445125e-02 -6.242501e-02 1.034196e-01 -5.066083e-02 -9.619535e-02 2.209373e-01
<VARIANCE> 39
 4.022203e+01 4.737907e+01 7.275800e+01 7.819485e+01 7.458690e+01 7.866977e+01 8.864650e+01 6.810942e+01 7.139144e+01 6.581927e+01 5.826387e+01 4.837183e+01 6.126823e+01 1.405376e+00 2.227588e+00 2.985668e+00 6.514065e+00 5.176263e+00 5.968167e+00 5.876397e+00 5.855067e+00 5.319603e+00 5.259341e+00 4.155330e+00 3.918300e+00 3.070797e+00 2.406290e-01 3.510128e-01 3.953117e-01 8.701880e-01 9.652331e-01 1.130720e+00 8.780641e-01 9.566323e-01 9.146518e-01 9.860081e-01 7.368007e-01 7.000014e-01 2.740541e-01
<GCONST> 1.384092e+02
<STATE> 3
<MEAN> 39
 -2.727711e+00 -1.565775e+01 6.091725e+00 -8.644012e+00 -1.958447e+01 -1.045422e+01 -7.644316e+00 -2.583865e-01 -8.817921e+00 -2.517714e+00 -1.740763e+00 -3.892229e-01 6.973211e+01 -1.633326e-01 -3.254656e-01 -4.794978e-01 -9.547150e-01 2.941819e-01 2.709130e-01 4.907403e-01 8.830129e-01 1.034265e-01 1.034198e-01 -3.947744e-01 -3.256563e-01 7.178854e-01 -1.024645e-01 3.560998e-02 -3.033662e-01 -2.185098e-01 3.807743e-01 2.044108e-01 6.863585e-02 5.590923e-02 1.143814e-01 -7.301115e-02 -2.768323e-01 -3.292308e-02 1.201003e-01
<VARIANCE> 39
 2.830206e+01 2.957132e+01 4.255850e+01 7.253350e+01 5.093895e+01 5.653614e+01 5.807357e+01 6.774506e+01 5.718945e+01 5.427188e+01 4.538685e+01 4.549651e+01 3.279451e+01 7.649229e-01 1.255750e+00 2.191867e+00 3.176975e+00 2.519816e+00 2.479052e+00 2.934150e+00 3.420719e+00 2.649031e+00 2.901471e+00 2.740777e+00 2.310395e+00 1.049330e+00 1.069936e-01 2.086233e-01 2.334052e-01 5.261058e-01 4.396623e-01 4.745371e-01 4.796717e-01 6.391473e-01 5.050507e-01 5.494161e-01 4.648597e-01 4.190758e-01 1.650294e-01
<GCONST> 1.184521e+02
<STATE> 4
<MEAN> 39
 -4.132879e+00 -1.464760e+01 9.726845e-01 -9.744649e+00 -1.432673e+01 -7.360539e+00 -4.877303e+00 3.231074e+00 -5.965404e+00 -3.858656e+00 -4.139518e+00 -4.097412e-01 7.001829e+01 -2.082755e-01 2.046309e-01 -5.603812e-01 -3.168645e-01 7.235307e-01 2.462389e-01 1.457737e-01 2.181401e-02 -8.705515e-02 -2.006159e-01 -3.873286e-01 -1.757120e-02 1.921061e-01 5.062337e-02 1.207173e-01 4.795048e-02 6.522530e-02 1.634851e-02 -1.505250e-02 -2.191260e-01 -2.102510e-01 -6.189695e-02 2.542884e-02 6.482503e-02 6.767547e-02 -1.443891e-01
<VARIANCE> 39
 3.044261e+01 3.291568e+01 4.460810e+01 6.696085e+01 5.345603e+01 5.038550e+01 7.414800e+01 6.784071e+01 5.552436e+01 4.229113e+01 4.214971e+01 3.621862e+01 6.674398e+01 6.348011e-01 1.143498e+00 1.589541e+00 2.269989e+00 2.324345e+00 2.366568e+00 2.612487e+00 2.424684e+00 2.342700e+00 2.548425e+00 2.219046e+00 1.783051e+00 8.425732e-01 9.881694e-02 1.498957e-01 1.809008e-01 3.815499e-01 3.469256e-01 4.008105e-01 3.983905e-01 4.529074e-01 3.807882e-01 3.850277e-01 3.498127e-01 3.277766e-01 9.658571e-02
<GCONST> 1.128145e+02
<TRANSP> 5
 0.000000e+00 1.000000e+00 0.000000e+00 0.000000e+00 0.000000e+00
 0.000000e+00 6.568415e-01 3.431585e-01 0.000000e+00 0.000000e+00
 0.000000e+00 0.000000e+00 6.828430e-01 3.171571e-01 0.000000e+00
 0.000000e+00 0.000000e+00 0.000000e+00 6.140031e-01 3.859969e-01
 0.000000e+00 0.000000e+00 0.000000e+00 0.000000e+00 0.000000e+00
<ENDHMM>
~h "s"
<BEGINHMM>
<NUMSTATES> 5
<STATE> 2
<MEAN> 39
 -9.386924e+00 -9.671789e-01 -2.971208e+00 -3.596665e+00 -5.989110e+00 -7.405422e+00 -6.242084e+00 -3.518563e+00 -5.177380e+00 -4.172277e+00 -3.026342e+00 4.431768e-01 6.697137e+01 -2.815474e+00 2.343506e+00 -4.222891e-02 3.255974e+00 1.326832e+00 1.341155e+00 1.967938e+00 5.714576e-01 1.119565e+00 8.391910e-01 1.040998e+00 6.324317e-02 -5.412704e-01 -5.340379e-01 -4.090542e-01 -4.834597e-02 -1.307301e-01 1.725696e-01 5.839230e-01 3.787695e-01 5.440209e-01 3.146088e-01 5.375873e-01 1.430145e-01 7.903025e-02 9.338205e-02
<VARIANCE> 39
 4.659877e+01 4.773860e+01 4.379619e+01 6.749756e+01 6.390097e+01 6.043850e+01 6.229616e+01 4.930704e+01 5.028371e+01 4.447340e+01 3.835455e+01 3.659058e+01 4.026338e+01 3.908166e+00 4.720461e+00 3.944135e+00 5.000646e+00 5.096023e+00 6.988376e+00 6.027624e+00 6.423992e+00 4.839566e+00 5.531460e+00 3.910922e+00 3.572938e+00 1.511413e+00 6.689375e-01 8.709564e-01 4.932352e-01 1.065014e+00 7.471396e-01 8.996505e-01 9.489509e-01 8.008251e-01 7.144405e-01 7.923514e-01 6.357697e-01 6.192676e-01 1.515632e-01
<GCONST> 1.365394e+02
<STATE> 3
<MEAN> 39
 -2.144218e+01 1.278909e+00 -4.009562e+00 3.726510e+00 -1.092296e+00 2.609027e-01 2.071890e+00 2.928369e+00 1.203289e+00 2.690115e+00 1.730731e+00 2.378492e+00 6.499766e+01 -9.144016e-01 -4.350818e-01 -2.100339e-01 1.629526e-01 3.568369e-01 6.954935e-01 5.271387e-01 8.944917e-01 6.765395e-01 7.422824e-01 4.342706e-01 3.313328e-01 -1.726549e-01 8.956786e-01 -2.717202e-01 1.190598e-01 -6.364992e-01 -3.460498e-01 -6.037456e-01 -6.246535e-01 -3.819706e-01 -3.794470e-01 -4.422739e-01 -3.062901e-01 -7.841199e-02 2.065108e-01
<VARIANCE> 39
 2.443281e+01 2.929950e+01 2.481351e+01 3.148723e+01 3.687577e+01 3.584491e+01 3.325627e+01 2.758292e+01 2.683707e+01 2.442282e+01 2.123889e+01 1.770044e+01 2.774077e+01 2.483070e+00 1.326512e+00 1.588938e+00 1.804686e+00 1.911787e+00 2.741391e+00 2.685929e+00 2.743464e+00 2.595994e+00 2.717592e+00 2.156583e+00 1.882088e+00 7.863469e-01 3.395596e-01 4.048529e-01 3.384087e-01 5.121074e-01 4.479181e-01 5.793781e-01 6.039424e-01 5.467570e-01 4.979220e-01 5.305311e-01 4.610592e-01 4.262051e-01 1.807460e-01
<GCONST> 1.128081e+02
<STATE> 4
<MEAN> 39
 -1.763643e+01 2.858162e-02 -2.299211e+00 9.491491e-01 -1.268991e+00 -1.948704e+00 2.864113e-01 3.019214e+00 2.505024e-01 1.915640e+00 9.504936e-01 2.207966e+00 6.602724e+01 2.603537e+00 -1.100551e+00 -7.970894e-02 -2.210903e+00 -8.892314e-01 -1.758394e+00 -1.957522e+00 -6.499094e-01 -7.094034e-01 -9.857944e-01 -8.788692e-01 5.540725e-02 1.437071e+00 5.761406e-01 -5.499233e-01 -2.494281e-01 -7.831488e-01 -1.628725e-01 -2.163970e-01 -5.336992e-01 -1.859155e-01 -2.539697e-01 -2.887283e-01 -3.011542e-01 2.815042e-02 2.996854e-01
<VARIANCE> 39
 4.907135e+01 3.007569e+01 2.773453e+01 3.509782e+01 4.004869e+01 4.258598e+01 3.764731e+01 2.968728e+01 2.896494e+01 2.608342e+01 2.334656e+01 1.946294e+01 3.526121e+01 6.573743e+00 4.468357e+00 2.448093e+00 5.738867e+00 3.047828e+00 4.939870e+00 6.158220e+00 3.871255e+00 2.962161e+00 3.452852e+00 3.754204e+00 3.332519e+00 1.961108e+00 8.506282e-01 6.314806e-01 4.225197e-01 6.939566e-01 6.071007e-01 8.639054e-01 8.624013e-01 7.440841e-01 6.257553e-01 6.321213e-01 6.494951e-01 5.757058e-01 3.184434e-01
<GCONST> 1.280630e+02
<TRANSP> 5
 0.000000e+00 1.000000e+00 0.000000e+00 0.000000e+00 0.000000e+00
 0.000000e+00 6.891278e-01 3.108722e-01 0.000000e+00 0.000000e+00
 0.000000e+00 0.000000e+00 7.493969e-01 2.506032e-01 0.000000e+00
 0.000000e+00 0.000000e+00 0.000000e+00 6.636962e-01 3.363037e-01
 0.000000e+00 0.000000e+00 0.000000e+00 0.000000e+00 0.000000e+00
<ENDHMM>
~h "t"
<BEGINHMM>
<NUMSTATES> 5
<STATE> 2
<MEAN> 39
 -5.223859e+00 -4.596457e+00 1.834795e+00 -4.959468e+00 -6.669679e+00 -5.058666e+00 -6.613523e+00 -3.794209e+00 -2.401075e+00 -2.013409e+00 -3.498367e+00 4.987298e-01 5.992635e+01 -1.055196e+00 7.070571e-01 2.718104e-01 2.021913e+00 1.646262e+00 1.479613e+00 1.931015e+00 1.105678e+00 1.135697e+00 9.067122e-01 1.275578e+00 1.514076e-01 -1.508985e+00 -4.393791e-01 -4.072107e-01 -1.923202e-01 -2.692336e-01 3.651933e-01 4.449126e-01 4.825273e-01 5.514091e-01 2.303453e-01 3.089208e-01 2.824576e-01 1.009502e-01 9.035197e-01
<VARIANCE> 39
 2.725285e+01 3.547299e+01 4.128720e+01 5.364813e+01 5.842128e+01 5.052001e+01 6.310490e+01 5.473151e+01 5.244526e+01 4.639664e+01 4.644926e+01 4.268495e+01 7.184225e+01 2.851791e+00 3.871570e+00 4.209363e+00 4.824022e+00 5.194127e+00 5.410259e+00 6.672474e+00 6.202265e+00 5.085190e+00 4.995032e+00 4.604509e+00 3.867899e+00 8.890203e+00 4.206367e-01 6.078820e-01 6.303054e-01 8.805104e-01 8.851606e-01 9.430763e-01 1.075900e+00 9.262226e-01 8.774983e-01 8.382057e-01 7.520080e-01 7.255737e-01 1.595241e+00
<GCONST> 1.402433e+02
<STATE> 3
<MEAN> 39
 -1.160032e+01 -5.364381e+00 1.755719e+00 -7.137412e-01 2.758287e-01 2.151635e+00 3.094054e+00 3.918879e+00 3.684079e+00 3.848018e+00 3.185132e+00 2.507894e+00 6.271797e+01 -6.685027e-01 -3.545947e-01 2.085008e-01 2.862585e-01 1.395198e+00 7.966889e-01 7.065579e-01 8.625557e-01 9.775421e-02 -1.635333e-01 3.894205e-01 2.150529e-01 3.039444e+00 4.056318e-01 -1.218435e-01 -6.324463e-02 -3.067462e-01 -1.759511e-01 -3.623158e-01 -8.127255e-01 -5.633284e-01 -5.337864e-01 -6.065007e-01 -5.366428e-01 -9.515935e-02 1.692192e-01
<VARIANCE> 39
 3.080470e+01 3.506978e+01 2.906297e+01 3.058609e+01 3.386293e+01 3.367386e+01 3.422691e+01 3.354377e+01 3.566619e+01 2.990852e+01 2.506338e+01 2.325268e+01 1.000014e+02 3.815263e+00 5.000231e+00 4.164573e+00 3.729371e+00 4.449484e+00 4.813618e+00 5.118948e+00 4.922751e+00 5.122643e+00 4.820528e+00 4.076762e+00 3.306239e+00 8.145998e+00 7.099072e-01 8.329063e-01 9.083650e-01 8.464003e-01 9.088236e-01 1.001603e+00 1.088588e+00 1.054618e+00 9.807073e-01 8.923801e-01 8.200226e-01 6.897448e-01 2.638280e+00
<GCONST> 1.368927e+02
<STATE> 4
<MEAN> 39
 -1.244399e+01 -6.979996e+00 1.518543e+00 -1.130035e+00 4.497656e+00 3.334135e+00 -5.204102e-01 2.469323e+00 1.405992e+00 -2.883229e-01 1.037420e+00 1.889271e+00 6.916550e+01 8.523930e-01 -5.156134e-01 -7.356806e-01 -1.149619e+00 -5.000184e-01 -4.026045e-01 -1.721722e+00 -1.333407e+00 -1.095850e+00 -1.043487e+00 -9.240297e-01 -2.040841e-01 1.271829e-01 4.454449e-01 -1.144920e-02 -2.561577e-01 -6.134718e-01 -7.599298e-01 -3.306693e-01 -3.973326e-01 -3.946061e-01 -3.136261e-01 -5.065444e-02 -2.567863e-01 -7.502615e-02 -2.806105e-01
<VARIANCE> 39
 4.756097e+01 8.335135e+01 4.197828e+01 4.209365e+01 4.909657e+01 4.464570e+01 3.853545e+01 3.291332e+01 3.598483e+01 3.395416e+01 2.652544e+01 2.346098e+01 3.824672e+01 3.379294e+00 3.793550e+00 4.237151e+00 4.054009e+00 5.491596e+00 4.530434e+00 4.453851e+00 4.424360e+00 4.047704e+00 3.912170e+00 3.541458e+00 3.212563e+00 3.173707e+00 5.521370e-01 6.845412e-01 6.656408e-01 7.255049e-01 7.715878e-01 8.411174e-01 7.955152e-01 8.171814e-01 7.547513e-01 7.081997e-01 6.519321e-01 6.285689e-01 8.718131e-01
<GCONST> 1.331817e+02
<TRANSP> 5
 0.000000e+00 1.000000e+00 0.000000e+00 0.000000e+00 0.000000e+00
 0.000000e+00 6.451499e-01 3.548500e-01 0.000000e+00 0.000000e+00
 0.000000e+00 0.000000e+00 7.109091e-01 2.890909e-01 0.000000e+00
 0.000000e+00 0.000000e+00 0.000000e+00 7.424104e-01 2.575897e-01
 0.000000e+00 0.000000e+00 0.000000e+00 0.000000e+00 0.000000e+00
<ENDHMM>
~h "u"
<BEGINHMM>
<NUMSTATES> 5
<STATE> 2
<MEAN> 39
 -3.364494e-01 -3.684726e+00 -4.324187e+00 -1.103180e+01 -7.504352e+00 -2.866271e+00 -1.164160e+01 -5.119936e+00 -6.266195e+00 -1.888206e+00 -2.971329e+00 6.781014e-01 6.584490e+01 2.170462e+00 7.258224e-01 -1.355276e+00 -4.383599e+00 -1.088844e+00 5.086933e-01 -1.776684e+00 -8.927786e-01 -2.248899e+00 -7.168374e-01 -7.834685e-01 4.932527e-01 1.037687e-01 -6.744670e-01 -6.739324e-02 1.058798e-01 7.442520e-02 3.400849e-01 2.467013e-01 4.055268e-01 5.462528e-01 1.980084e-01 1.482648e-01 -1.064444e-02 8.128557e-02 -1.113086e-01
<VARIANCE> 39
 3.153204e+01 3.538479e+01 2.725130e+01 7.917765e+01 4.495239e+01 4.430911e+01 6.473885e+01 5.774717e+01 4.386843e+01 3.900724e+01 3.775407e+01 3.662182e+01 3.619305e+01 3.773128e+00 3.086074e+00 3.029390e+00 6.967924e+00 5.324145e+00 6.354819e+00 6.364095e+00 6.537774e+00 5.475114e+00 4.998197e+00 4.742573e+00 4.192716e+00 1.711203e+00 4.625470e-01 4.714529e-01 4.055181e-01 1.246316e+00 7.504175e-01 8.843133e-01 1.109671e+00 1.032463e+00 9.327017e-01 8.769078e-01 7.404641e-01 6.845577e-01 3.170808e-01
<GCONST> 1.355422e+02
<STATE> 3
<MEAN> 39
 1.635737e+00 -5.889857e-01 -7.716461e+00 -2.312480e+01 -8.586562e+00 -1.300902e+00 -1.205583e+01 -1.588747e+00 -1.128990e+01 -3.421006e+00 -5.895879e+00 1.991324e+00 6.528413e+01 -6.777362e-02 -8.332340e-02 -2.034843e-01 -3.362779e-01 2.841874e-01 1.432339e-01 -2.866576e-01 -1.790014e-01 -3.479159e-02 2.562784e-01 -2.423153e-02 4.993932e-02 8.351980e-03 -2.769163e-01 -2.369639e-01 3.318774e-01 9.651867e-01 1.396698e-01 -2.046381e-01 8.901592e-02 -1.212892e-01 5.174097e-01 2.026341e-01 1.208412e-01 -1.807846e-01 -6.624864e-02
<VARIANCE> 39
 2.051933e+01 3.308876e+01 3.194978e+01 4.472878e+01 4.480979e+01 5.406329e+01 5.465173e+01 5.628717e+01 6.078649e+01 4.722345e+01 5.023804e+01 4.457623e+01 2.411516e+01 5.569186e-01 1.777586e+00 1.266496e+00 4.846759e+00 2.586757e+00 2.917851e+00 4.214445e+00 4.147987e+00 3.595737e+00 3.488144e+00 3.350460e+00 2.885009e+00 7.735506e-01 1.974664e-01 2.299212e-01 3.627785e-01 7.473083e-01 5.197130e-01 7.550668e-01 6.939783e-01 6.943617e-01 7.456410e-01 6.746997e-01 6.528413e-01 6.052931e-01 1.246699e-01
<GCONST> 1.216130e+02
<STATE> 4
<MEAN> 39
 -3.450174e-01 -3.867208e+00 -5.339310e+00 -1.502124e+01 -6.563636e+00 -2.874052e+00 -1.445605e+01 -5.163169e+00 -6.095347e+00 -1.197337e-01 -4.730611e+00 5.245335e-01 6.463795e+01 -1.220604e+00 -6.210016e-01 1.639479e+00 2.982660e+00 1.859769e-01 -1.078394e+00 5.018724e-01 1.741044e-01 1.522489e+00 1.176062e-01 -2.155579e-01 -5.037713e-01 -6.153790e-01 -3.874626e-01 2.264931e-01 3.655075e-01 3.813115e-01 -7.300954e-02 6.019361e-02 8.572676e-01 4.389355e-01 1.409562e-02 -2.904355e-01 1.366916e-01 9.692824e-02 -3.109765e-01
<VARIANCE> 39
 2.388599e+01 4.942292e+01 3.792064e+01 6.378336e+01 5.663634e+01 5.942923e+01 9.905025e+01 6.234901e+01 6.230864e+01 5.851371e+01 5.457727e+01 4.251480e+01 5.380391e+01 1.726996e+00 2.427454e+00 3.656324e+00 5.623148e+00 5.212062e+00 6.459977e+00 6.919161e+00 4.755471e+00 4.984569e+00 5.591269e+00 4.631296e+00 3.716102e+00 2.241405e+00 2.791473e-01 5.474154e-01 6.248016e-01 1.034039e+00 9.628653e-01 1.100925e+00 1.457917e+00 1.049652e+00 9.746155e-01 1.178545e+00 9.147550e-01 7.076942e-01 3.461267e-01
<GCONST> 1.385860e+02
<TRANSP> 5
 0.000000e+00 1.000000e+00 0.000000e+00 0.000000e+00 0.000000e+00
 0.000000e+00 5.380347e-01 4.619652e-01 0.000000e+00 0.000000e+00
 0.000000e+00 0.000000e+00 7.838648e-01 2.161352e-01 0.000000e+00
 0.000000e+00 0.000000e+00 0.000000e+00 5.266990e-01 4.733010e-01
 0.000000e+00 0.000000e+00 0.000000e+00 0.000000e+00 0.000000e+00
<ENDHMM>
~h "v"
<BEGINHMM>
<NUMSTATES> 5
<STATE> 2
<MEAN> 39
 -9.630980e+00 -4.848990e+00 1.566756e+01 -1.132675e+01 -1.811825e+01 -4.472391e+00 -1.103814e+01 -1.213549e+01 -1.128559e+01 1.137114e+00 -6.206772e+00 -6.108194e-01 6.841660e+01 1.376662e+00 -1.153556e+00 8.275795e-01 -1.077796e+00 -1.677396e+00 -1.565277e+00 -1.045264e+00 -8.699160e-01 -1.833124e+00 3.660482e-02 -1.084027e+00 -1.551893e-01 4.356863e-01 -4.095854e-01 -6.434909e-02 -5.225448e-01 1.094277e-01 7.048382e-01 2.627473e-01 4.810988e-01 7.807153e-01 5.020654e-01 1.559259e-01 1.246718e-01 1.549237e-02 -5.767585e-02
<VARIANCE> 39
 2.962776e+01 3.077058e+01 2.589303e+01 5.565509e+01 2.861474e+01 3.633429e+01 3.806270e+01 4.370586e+01 5.069467e+01 3.439803e+01 4.697237e+01 4.725207e+01 2.707550e+01 3.830279e+00 2.568235e+00 2.637518e+00 3.031447e+00 4.320944e+00 4.487240e+00 4.888460e+00 5.736083e+00 5.012772e+00 3.572689e+00 4.385594e+00 3.353377e+00 8.994526e-01 3.796281e-01 3.159461e-01 2.983360e-01 5.094764e-01 5.132807e-01 6.244647e-01 6.287358e-01 6.716571e-01 6.136647e-01 6.150501e-01 6.063840e-01 5.463511e-01 1.271437e-01
<GCONST> 1.245815e+02
<STATE> 3
<MEAN> 39
 -7.932389e+00 -7.634325e+00 1.623239e+01 -1.299105e+01 -1.984699e+01 -6.517840e+00 -9.968200e+00 -1.099912e+01 -1.318822e+01 3.662987e+00 -8.327085e+00 -1.675723e+00 6.867617e+01 1.548954e-01 -1.012422e-01 -4.455286e-01 9.101247e-02 1.215242e-01 -4.088570e-01 2.365440e-01 4.841389e-01 1.658328e-01 -2.941571e-02 3.011906e-01 1.595044e-01 -1.325364e-01 -3.456191e-02 2.292908e-01 -3.072444e-01 3.092920e-01 3.517660e-01 1.189754e-01 6.807622e-02 1.615752e-01 3.751969e-01 -2.346824e-01 2.187413e-01 7.327551e-02 -2.259891e-01
<VARIANCE> 39
 2.527052e+01 2.993373e+01 2.610170e+01 5.237767e+01 2.625014e+01 3.855850e+01 3.981466e+01 5.221019e+01 6.247517e+01 3.357906e+01 4.500946e+01 3.637476e+01 2.945805e+01 6.229408e-01 1.089719e+00 1.272696e+00 1.616850e+00 1.371690e+00 1.873607e+00 1.869671e+00 2.063845e+00 1.924145e+00 1.987232e+00 2.184213e+00 1.741060e+00 5.645217e-01 1.781694e-01 2.055708e-01 2.592450e-01 3.793347e-01 3.582008e-01 3.478267e-01 4.401640e-01 3.842332e-01 4.675991e-01 3.585472e-01 3.966355e-01 3.099918e-01 1.212273e-01
<GCONST> 1.077737e+02
<STATE> 4
<MEAN> 39
 -6.876514e+00 -5.891221e+00 1.153496e+01 -9.209027e+00 -1.644463e+01 -7.629844e+00 -9.019384e+00 -7.718509e+00 -9.477713e+00 9.041247e-01 -5.036490e+00 -1.134116e-01 6.531957e+01 -1.472099e-02 6.302465e-01 -2.095374e+00 1.642343e+00 2.287892e+00 4.601488e-01 6.078347e-01 1.296181e+00 1.885479e+00 -8.059276e-01 7.140920e-01 2.713141e-01 -1.449898e+00 -2.376788e-01 1.103404e-01 -2.464644e-01 2.229875e-01 4.843793e-01 4.873419e-01 2.412300e-01 8.006561e-02 3.635743e-01 1.768278e-01 2.968118e-02 -4.488106e-02 -2.719278e-01
<VARIANCE> 39
 2.856522e+01 4.232839e+01 4.345289e+01 6.280753e+01 4.387492e+01 5.076433e+01 4.467730e+01 5.625726e+01 6.112973e+01 4.201266e+01 4.765425e+01 3.707106e+01 5.431263e+01 2.297754e+00 2.610831e+00 2.997162e+00 4.242554e+00 3.794049e+00 4.348989e+00 4.729406e+00 4.318963e+00 4.270984e+00 3.543038e+00 3.627560e+00 2.872775e+00 2.511875e+00 2.719429e-01 4.885483e-01 4.677956e-01 7.239515e-01 6.468314e-01 7.013112e-01 7.450986e-01 8.513084e-01 7.095381e-01 6.627663e-01 6.166927e-01 5.472098e-01 3.282565e-01
<GCONST> 1.303818e+02
<TRANSP> 5
 0.000000e+00 1.000000e+00 0.000000e+00 0.000000e+00 0.000000e+00
 0.000000e+00 4.586597e-01 5.413403e-01 0.000000e+00 0.000000e+00
 0.000000e+00 0.000000e+00 7.229750e-01 2.770251e-01 0.000000e+00
 0.000000e+00 0.000000e+00 0.000000e+00 5.630033e-01 4.369967e-01
 0.000000e+00 0.000000e+00 0.000000e+00 0.000000e+00 0.000000e+00
<ENDHMM>
~h "x"
<BEGINHMM>
<NUMSTATES> 5
<STATE> 2
<MEAN> 39
 -1.138845e+01 2.560205e-01 3.447995e+00 -6.247479e+00 -9.254728e+00 -5.427349e+00 -6.284825e+00 -5.853848e+00 -5.888441e+00 -2.551793e+00 -3.220987e+00 -1.513076e-01 6.748928e+01 -2.900032e+00 2.544962e+00 -3.528972e-02 2.490888e+00 1.698811e+00 1.480689e+00 2.069593e+00 4.461247e-01 1.118640e+00 6.573250e-01 1.258768e+00 -2.608544e-01 -3.009544e-01 -4.765724e-01 -3.545047e-01 -4.444720e-01 -1.437282e-01 5.028020e-01 5.043077e-01 3.018827e-01 5.501522e-01 4.685103e-01 4.713033e-01 7.436519e-02 6.611872e-02 1.544436e-01
<VARIANCE> 39
 4.763334e+01 5.458569e+01 5.157367e+01 5.978058e+01 5.558192e+01 5.283049e+01 6.421131e+01 5.691507e+01 5.056357e+01 4.005154e+01 3.817185e+01 3.559386e+01 3.824583e+01 3.584658e+00 4.768312e+00 5.207680e+00 5.114846e+00 6.372710e+00 5.870768e+00 6.999667e+00 6.584404e+00 5.700553e+00 5.717149e+00 4.347816e+00 3.721031e+00 1.813162e+00 6.212769e-01 8.969702e-01 6.115105e-01 9.714669e-01 9.745199e-01 9.019420e-01 1.154588e+00 8.905537e-01 8.050192e-01 8.487440e-01 7.473432e-01 6.938176e-01 1.714480e-01
<GCONST> 1.386631e+02
<STATE> 3
<MEAN> 39
 -2.398354e+01 4.219577e+00 -1.674142e-01 -9.443785e-01 -1.340776e+00 2.687387e+00 1.056925e+00 9.109544e-02 1.980338e+00 2.871086e+00 9.466048e-01 7.461637e-01 6.744655e+01 -8.771883e-01 -2.218554e-01 -2.112477e-01 -1.409349e-01 3.966390e-01 7.125459e-01 2.971030e-01 5.370159e-01 6.779387e-01 4.238050e-01 2.473089e-01 1.984690e-01 1.843605e-01 8.194149e-01 -2.670182e-01 4.458708e-01 -4.765876e-01 -6.020221e-01 -4.818162e-01 -5.125692e-01 -4.599006e-01 -4.537332e-01 -3.255727e-01 -2.160003e-01 -1.888508e-02 6.093536e-02
<VARIANCE> 39
 2.545615e+01 3.213949e+01 3.943537e+01 3.361271e+01 3.057685e+01 2.389838e+01 2.693958e+01 2.672654e+01 2.680319e+01 2.347811e+01 2.080495e+01 1.704625e+01 2.563483e+01 2.148400e+00 1.204198e+00 2.099265e+00 1.681243e+00 2.133205e+00 2.195310e+00 2.446850e+00 2.665438e+00 2.514205e+00 2.440888e+00 1.965806e+00 1.734612e+00 6.061698e-01 3.432180e-01 3.682461e-01 3.190535e-01 5.041009e-01 5.382136e-01 5.113665e-01 5.803905e-01 5.601957e-01 5.080602e-01 4.989027e-01 4.532878e-01 4.073395e-01 1.200850e-01
<GCONST> 1.109871e+02
<STATE> 4
<MEAN> 39
 -2.077340e+01 2.962037e+00 3.871925e+00 -3.634380e+00 -3.831848e+00 2.322590e+00 -8.072301e-01 -1.975428e+00 6.264722e-01 1.964963e+00 5.275912e-01 4.850825e-01 6.878809e+01 2.949920e+00 -1.051521e+00 1.924378e+00 -2.044274e+00 -2.764304e+00 -1.938961e+00 -1.870637e+00 -1.801365e+00 -1.654217e+00 -6.505180e-01 -6.398262e-01 1.388901e-01 6.388149e-01 6.719060e-01 -6.354465e-01 5.124859e-02 -6.755683e-01 -6.578320e-01 -5.815313e-01 -4.087616e-01 -1.341677e-01 -5.404756e-01 -1.008798e-01 -4.252962e-01 3.257562e-02 2.097428e-01
<VARIANCE> 39
 4.131461e+01 3.724726e+01 4.816669e+01 3.103616e+01 3.587830e+01 2.992251e+01 3.241513e+01 3.245507e+01 2.819080e+01 2.370570e+01 2.164665e+01 1.819206e+01 2.599384e+01 3.150864e+00 3.485081e+00 2.330825e+00 4.666152e+00 3.816514e+00 3.775918e+00 3.996666e+00 4.148125e+00 3.171030e+00 2.677654e+00 2.900828e+00 3.106496e+00 1.117748e+00 5.892270e-01 5.740801e-01 6.046710e-01 5.355459e-01 6.592932e-01 6.783051e-01 7.557459e-01 8.697777e-01 6.883801e-01 6.309638e-01 5.934993e-01 5.434887e-01 1.553501e-01
<GCONST> 1.234458e+02
<TRANSP> 5
 0.000000e+00 1.000000e+00 0.000000e+00 0.000000e+00 0.000000e+00
 0.000000e+00 7.173279e-01 2.826721e-01 0.000000e+00 0.000000e+00
 0.000000e+00 0.000000e+00 7.999763e-01 2.000237e-01 0.000000e+00
 0.000000e+00 0.000000e+00 0.000000e+00 6.565686e-01 3.434314e-01
 0.000000e+00 0.000000e+00 0.000000e+00 0.000000e+00 0.000000e+00
<ENDHMM>
~h "z"
<BEGINHMM>
<NUMSTATES> 5
<STATE> 2
<MEAN> 39
 -6.144537e+00 -2.211994e+00 1.899123e-01 -2.904357e+00 -7.260359e+00 -6.460139e+00 -8.219343e+00 -4.597893e+00 -4.122961e+00 -4.291570e+00 -4.187797e+00 -3.938743e-01 6.066825e+01 -1.789240e+00 1.600644e+00 -1.673446e-01 2.433240e+00 1.240640e+00 1.440562e+00 1.586751e+00 6.905782e-01 8.165200e-01 7.371495e-01 7.458812e-01 -3.760580e-03 -1.669372e+00 -6.341618e-01 -3.446668e-01 -3.604287e-01 -2.716995e-01 1.725309e-01 4.109065e-01 4.845651e-01 5.478109e-01 2.408714e-01 4.922076e-01 2.782735e-01 1.790257e-01 5.203112e-01
<VARIANCE> 39
 2.992350e+01 3.786491e+01 4.086326e+01 5.122587e+01 5.641870e+01 5.250064e+01 6.052784e+01 4.890440e+01 4.962117e+01 4.739706e+01 4.264797e+01 4.191742e+01 5.360579e+01 3.553165e+00 3.857041e+00 3.939722e+00 4.605831e+00 4.585772e+00 5.289393e+00 6.046353e+00 5.342267e+00 4.730616e+00 5.139182e+00 3.862496e+00 3.663603e+00 4.408067e+00 4.477627e-01 6.387676e-01 5.609792e-01 9.496567e-01 8.013211e-01 9.497433e-01 9.222443e-01 7.749482e-01 7.786754e-01 7.952150e-01 6.591794e-01 7.092574e-01 7.787108e-01
<GCONST> 1.371002e+02
<STATE> 3
<MEAN> 39
 -1.716422e+01 -7.114577e-01 -2.732946e+00 2.172812e+00 -1.945745e+00 1.326123e+00 9.956141e-01 2.772039e+00 2.310905e+00 3.425427e+00 1.977363e+00 2.481246e+00 5.823540e+01 -1.848025e+00 2.770199e-01 -8.411840e-01 1.959230e-01 2.435145e-01 3.054463e-01 7.246889e-01 9.502167e-01 3.843128e-01 6.028461e-01 6.544757e-01 4.562635e-01 1.890076e+00 1.009126e+00 -2.788666e-01 1.965796e-01 -6.983783e-01 -4.385008e-01 -8.286409e-01 -7.867472e-01 -4.340824e-01 -4.764392e-01 -6.272084e-01 -4.652726e-01 -9.330478e-02 7.172673e-01
<VARIANCE> 39
 3.227816e+01 3.377285e+01 3.075250e+01 3.133829e+01 3.395339e+01 3.218095e+01 3.388765e+01 3.104300e+01 3.151206e+01 2.821193e+01 2.565379e+01 2.055717e+01 3.467136e+01 3.815041e+00 3.381102e+00 2.734274e+00 2.794008e+00 3.009169e+00 3.748287e+00 3.904167e+00 3.732546e+00 3.932802e+00 3.957332e+00 3.185487e+00 2.733997e+00 3.122575e+00 1.005987e+00 9.133006e-01 5.781603e-01 9.043354e-01 6.320109e-01 7.864256e-01 8.970122e-01 7.274843e-01 6.876598e-01 6.934963e-01 6.334260e-01 5.679702e-01 6.069298e-01
<GCONST> 1.277201e+02
<STATE> 4
<MEAN> 39
 -1.461248e+01 -2.193833e-01 -2.843573e+00 -7.024847e-01 -4.125031e+00 -3.974191e+00 -1.860042e+00 2.149272e+00 -1.433530e-01 3.378441e-01 1.878894e-01 2.444832e+00 6.805626e+01 3.144224e+00 -2.063660e+00 -7.829060e-02 -3.171482e+00 -1.139559e+00 -2.387870e+00 -2.253281e+00 -3.244769e-01 -8.116066e-01 -1.340229e+00 -1.414901e+00 1.640766e-01 2.665565e+00 6.653525e-01 -8.812116e-01 -1.338031e-01 -8.690299e-01 -1.480762e-02 8.183710e-02 -4.675387e-01 -2.399469e-01 -2.855019e-01 -2.212832e-01 -4.098328e-01 -1.278211e-01 -2.550337e-01
<VARIANCE> 39
 5.894629e+01 3.547575e+01 2.956969e+01 4.398227e+01 4.838087e+01 5.463194e+01 4.788799e+01 3.226030e+01 3.019370e+01 2.953881e+01 2.743387e+01 2.316266e+01 2.985527e+01 4.685213e+00 6.993473e+00 3.175876e+00 6.387192e+00 4.124137e+00 5.094503e+00 8.123461e+00 5.277397e+00 4.088464e+00 4.619606e+00 4.552379e+00 3.752650e+00 2.104048e+00 1.460806e+00 9.593345e-01 5.636706e-01 9.926341e-01 8.592336e-01 1.350290e+00 1.286205e+00 8.921511e-01 7.499402e-01 8.455971e-01 7.735865e-01 6.872013e-01 3.051459e-01
<GCONST> 1.359513e+02
<TRANSP> 5
 0.000000e+00 1.000000e+00 0.000000e+00 0.000000e+00 0.000000e+00
 0.000000e+00 6.815677e-01 3.184323e-01 0.000000e+00 0.000000e+00
 0.000000e+00 0.000000e+00 6.856148e-01 3.143852e-01 0.000000e+00
 0.000000e+00 0.000000e+00 0.000000e+00 5.623077e-01 4.376923e-01
 0.000000e+00 0.000000e+00 0.000000e+00 0.000000e+00 0.000000e+00
<ENDHMM>
~h "aa"
<BEGINHMM>
<NUMSTATES> 5
<STATE> 2
<MEAN> 39
 -6.497241e+00 -1.776889e+01 -9.968401e+00 -1.195265e+01 1.965561e+00 7.778131e-01 -5.442691e+00 -3.723763e-01 -3.618905e+00 -5.066633e+00 -3.697044e+00 -6.513044e-01 7.108635e+01 -2.591074e-01 -1.415083e+00 -3.717965e-01 1.053478e+00 1.112625e+00 9.929545e-02 -6.863441e-01 -5.085883e-01 -2.620341e-01 -7.874404e-01 -1.795229e-01 2.172377e-01 9.981059e-01 -7.301940e-03 1.135254e-01 2.084275e-01 -2.831398e-03 -2.811661e-01 -1.236934e-01 -1.195820e-01 -6.409150e-02 -6.860826e-02 6.092065e-02 -1.615169e-02 4.173615e-02 4.628164e-02
<VARIANCE> 39
 2.681583e+01 4.812853e+01 5.064440e+01 9.003343e+01 8.893726e+01 6.805569e+01 9.077074e+01 6.503767e+01 6.726585e+01 6.057242e+01 5.677132e+01 5.726830e+01 8.294329e+01 9.076316e-01 1.805476e+00 2.288991e+00 3.487504e+00 3.951450e+00 3.212568e+00 4.112392e+00 3.546980e+00 3.934181e+00 3.908412e+00 3.666871e+00 3.784125e+00 2.514033e+00 1.276034e-01 2.894492e-01 2.829031e-01 4.266787e-01 5.479104e-01 4.577148e-01 7.560866e-01 6.559474e-01 6.611705e-01 6.812676e-01 6.362171e-01 6.957314e-01 4.006832e-01
<GCONST> 1.295269e+02
<STATE> 3
<MEAN> 39
 -6.173266e+00 -2.131210e+01 -1.016751e+01 -7.259835e+00 2.526543e+00 6.343573e-01 -1.091720e+01 -7.831689e-01 -5.454597e+00 -8.036430e+00 -5.001945e+00 -7.563721e-01 7.452888e+01 -9.334219e-02 -1.053127e-01 1.241897e-01 3.406328e-01 -1.915216e-01 -1.852942e-01 1.977060e-03 2.004778e-02 -2.407388e-01 -2.135352e-01 4.926130e-02 1.792673e-01 9.459570e-02 2.354410e-02 1.189400e-01 4.281234e-02 -1.352293e-01 -1.432484e-01 -1.279722e-02 1.600755e-01 5.258019e-02 -5.598883e-02 3.970617e-02 -4.398753e-03 -1.683784e-02 -7.153784e-02
<VARIANCE> 39
 2.588872e+01 3.168379e+01 3.653257e+01 5.302903e+01 5.355050e+01 6.593553e+01 7.777056e+01 5.782682e+01 5.144741e+01 5.181956e+01 4.361603e+01 4.347631e+01 5.531291e+01 4.036911e-01 8.384825e-01 7.817121e-01 1.215823e+00 1.462393e+00 1.266429e+00 1.641748e+00 1.529542e+00 1.565124e+00 1.420884e+00 1.357446e+00 1.411957e+00 7.444275e-01 6.417929e-02 1.313896e-01 1.251782e-01 1.809440e-01 1.979550e-01 1.936470e-01 2.415317e-01 2.336760e-01 2.487685e-01 2.379482e-01 2.310380e-01 2.275275e-01 1.058487e-01
<GCONST> 1.008253e+02
<STATE> 4
<MEAN> 39
 -9.127914e+00 -1.573478e+01 -5.869600e+00 -3.311510e+00 2.265626e+00 1.165360e+00 -3.544366e+00 1.817424e+00 -7.457721e-01 -2.564738e+00 4.975913e-01 3.112751e+00 6.238715e+01 -3.065433e-03 1.446190e-01 1.874824e-01 -2.274371e-02 -4.565222e-01 -1.607628e-02 2.142656e-01 -1.974231e-01 -1.982040e-01 7.869277e-02 -5.710158e-02 4.737671e-03 -5.473761e-02 1.062106e-01 -1.832306e-01 -1.209193e-01 -2.842942e-01 -5.586752e-02 -7.703525e-02 -1.197064e-01 -8.453250e-02 -2.115836e-01 -1.724830e-01 -1.618745e-01 -1.359916e-01 3.305205e-01
<VARIANCE> 39
 2.589447e+01 7.091624e+01 4.025526e+01 5.189609e+01 5.430747e+01 4.754329e+01 6.925120e+01 5.513803e+01 7.005961e+01 7.153464e+01 5.268610e+01 3.936395e+01 1.803126e+02 6.540795e-01 2.822288e+00 1.750664e+00 1.933866e+00 2.730567e+00 2.094488e+00 2.910021e+00 2.589589e+00 3.024183e+00 2.935431e+00 2.175513e+00 2.141432e+00 2.412232e+00 1.453201e-01 7.391648e-01 3.884758e-01 3.988662e-01 5.119662e-01 4.245740e-01 6.067416e-01 5.088598e-01 5.711494e-01 6.260943e-01 4.495706e-01 4.362265e-01 8.222425e-01
<GCONST> 1.248411e+02
<TRANSP> 5
 0.000000e+00 1.000000e+00 0.000000e+00 0.000000e+00 0.000000e+00
 0.000000e+00 6.361071e-01 3.638929e-01 0.000000e+00 0.000000e+00
 0.000000e+00 0.000000e+00 7.604005e-01 2.395995e-01 0.000000e+00
 0.000000e+00 0.000000e+00 0.000000e+00 5.249746e-01 4.750254e-01
 0.000000e+00 0.000000e+00 0.000000e+00 0.000000e+00 0.000000e+00
<ENDHMM>
~h "ai"
<BEGINHMM>
<NUMSTATES> 5
<STATE> 2
<MEAN> 39
 -6.419553e+00 -1.978430e+01 -6.732933e+00 -8.288757e+00 -6.387523e+00 -2.403820e+00 -1.627470e+00 -6.261629e-01 -7.642626e+00 -8.081203e+00 -6.758546e+00 1.784225e+00 7.642752e+01 1.050789e-01 -2.221998e+00 -9.853438e-01 -1.112760e+00 -5.593065e-01 3.094934e-01 6.282688e-01 -5.273330e-01 -1.948746e+00 -1.277704e+00 -7.859678e-01 -2.679484e-01 1.610041e+00 -3.809666e-01 6.017982e-01 4.909573e-01 4.921235e-01 1.957834e-01 2.507379e-01 1.990493e-01 5.464163e-02 3.479857e-01 5.012307e-01 4.652593e-01 -9.619559e-02 -5.646886e-01
<VARIANCE> 39
 2.325368e+01 3.256965e+01 2.787350e+01 5.430072e+01 5.329058e+01 4.875491e+01 6.927893e+01 6.811350e+01 4.932442e+01 4.120441e+01 4.898797e+01 4.030404e+01 3.380072e+01 2.576729e+00 3.913746e+00 2.685276e+00 4.576582e+00 5.203255e+00 4.645247e+00 5.254995e+00 4.886055e+00 3.571270e+00 3.521915e+00 3.909812e+00 3.114080e+00 2.242302e+00 3.995252e-01 5.525534e-01 4.746944e-01 7.726832e-01 6.992770e-01 7.650507e-01 8.672785e-01 1.006771e+00 7.715149e-01 6.492631e-01 6.617026e-01 5.951847e-01 4.738119e-01
<GCONST> 1.321210e+02
<STATE> 3
<MEAN> 39
 -7.098800e+00 -2.197388e+01 -5.607791e+00 -9.300862e+00 -8.537489e+00 -1.873916e-01 1.471851e+00 -8.722177e-01 -1.069655e+01 -8.585113e+00 -6.305108e+00 4.319150e-01 7.764708e+01 -7.681051e-02 4.694653e-01 7.295960e-01 -7.517920e-01 -1.029382e+00 -6.698500e-02 5.930074e-01 2.596413e-01 1.704204e-01 4.282512e-01 -7.641371e-02 -5.278390e-01 -2.187031e-01 7.583722e-02 4.090676e-01 1.864953e-01 -8.250815e-02 -1.464461e-01 -2.570481e-01 -2.467683e-01 5.724447e-02 3.898698e-01 2.695309e-01 -4.162151e-03 -2.357812e-02 -2.567882e-01
<VARIANCE> 39
 2.197048e+01 2.229092e+01 2.506425e+01 4.573252e+01 3.985677e+01 3.560941e+01 6.720118e+01 6.905793e+01 3.657449e+01 2.931610e+01 3.422465e+01 2.971865e+01 2.745948e+01 4.201005e-01 1.116328e+00 9.139218e-01 1.952693e+00 1.867226e+00 1.609945e+00 1.992301e+00 1.797917e+00 2.100348e+00 1.861748e+00 1.769128e+00 1.661824e+00 4.103216e-01 9.494682e-02 1.782800e-01 1.643902e-01 2.841905e-01 2.721025e-01 2.792706e-01 4.242356e-01 3.557789e-01 3.496194e-01 3.442779e-01 3.126219e-01 3.073978e-01 7.593448e-02
<GCONST> 1.029326e+02
<STATE> 4
<MEAN> 39
 -6.754128e+00 -1.551366e+01 4.289311e-01 -1.479600e+01 -1.571963e+01 -3.845160e+00 1.610041e+00 2.405559e-01 -6.111308e+00 -3.383889e+00 -6.918750e+00 -2.352219e+00 7.431259e+01 2.960132e-01 1.964864e+00 1.293273e+00 1.014314e-01 -5.928237e-01 -1.097812e+00 -1.509628e+00 -5.966411e-01 1.032028e+00 1.163415e+00 5.155329e-01 3.106912e-01 -1.534415e+00 7.408554e-03 2.208146e-01 -6.467020e-02 7.312447e-01 6.543487e-01 1.719143e-01 -2.969986e-01 -3.010559e-01 -1.460920e-01 -1.837128e-01 2.465980e-01 3.295838e-01 -4.113756e-01
<VARIANCE> 39
 2.080627e+01 3.322546e+01 3.315474e+01 4.697287e+01 4.283198e+01 4.723124e+01 6.284413e+01 6.676837e+01 4.473911e+01 4.073268e+01 3.045950e+01 3.038283e+01 4.003693e+01 8.741111e-01 1.546470e+00 1.767874e+00 3.569567e+00 3.186873e+00 2.628508e+00 3.491093e+00 3.044996e+00 3.092637e+00 3.079573e+00 2.358788e+00 2.465016e+00 1.331733e+00 1.750849e-01 2.769894e-01 2.727170e-01 4.439391e-01 4.687733e-01 5.737461e-01 7.793589e-01 5.978775e-01 5.773779e-01 6.065726e-01 4.479560e-01 4.722407e-01 1.891407e-01
<GCONST> 1.189999e+02
<TRANSP> 5
 0.000000e+00 1.000000e+00 0.000000e+00 0.000000e+00 0.000000e+00
 0.000000e+00 6.689271e-01 3.310729e-01 0.000000e+00 0.000000e+00
 0.000000e+00 0.000000e+00 8.116914e-01 1.883086e-01 0.000000e+00
 0.000000e+00 0.000000e+00 0.000000e+00 6.328899e-01 3.671101e-01
 0.000000e+00 0.000000e+00 0.000000e+00 0.000000e+00 0.000000e+00
<ENDHMM>
~h "an"
<BEGINHMM>
<NUMSTATES> 5
<STATE> 2
<MEAN> 39
 -5.987613e+00 -1.973896e+01 -7.095128e+00 -1.031247e+01 -5.126396e+00 -4.023523e+00 -3.463582e+00 8.906760e-01 -7.029754e+00 -8.661334e+00 -6.497437e+00 1.986339e+00 7.668929e+01 9.565158e-02 -2.271271e+00 -1.181827e+00 -9.552833e-01 1.881368e-01 1.927724e-01 -5.128059e-02 -2.401357e-01 -1.568182e+00 -1.459692e+00 -9.046366e-01 -9.242223e-02 1.378331e+00 -4.672544e-01 7.092844e-01 5.697408e-01 7.041171e-01 2.582437e-01 2.374403e-01 1.300499e-01 8.107483e-03 2.684439e-01 4.910538e-01 5.080718e-01 -4.859352e-02 -6.427107e-01
<VARIANCE> 39
 2.378335e+01 3.020591e+01 3.126983e+01 4.856795e+01 5.467392e+01 4.923940e+01 7.486314e+01 5.815264e+01 5.203409e+01 4.421002e+01 5.866086e+01 5.362149e+01 2.922954e+01 2.568821e+00 4.089073e+00 2.895535e+00 4.488617e+00 4.780533e+00 4.360553e+00 4.837906e+00 4.246146e+00 3.709666e+00 3.667052e+00 4.167809e+00 3.375511e+00 2.203418e+00 5.128892e-01 5.507425e-01 4.484125e-01 6.691740e-01 7.425312e-01 7.534178e-01 8.509682e-01 9.119053e-01 6.951324e-01 6.399801e-01 7.211834e-01 7.218699e-01 3.897362e-01
<GCONST> 1.323394e+02
<STATE> 3
<MEAN> 39
 -6.906892e+00 -2.102277e+01 -6.313384e+00 -9.843027e+00 -4.951530e+00 -3.529485e+00 -3.534520e+00 1.858853e+00 -1.024400e+01 -9.806358e+00 -6.124318e+00 1.143843e+00 7.690575e+01 1.178590e-01 8.482189e-01 5.684822e-01 -1.605921e-01 -6.054060e-01 -5.479027e-01 -8.164872e-02 2.803640e-01 -7.754555e-02 4.191890e-01 1.685769e-01 -2.517127e-01 -7.147378e-01 1.401185e-01 4.817241e-01 2.278637e-01 5.032515e-02 -2.063735e-01 -1.898936e-01 -1.388450e-01 -9.560365e-02 2.402108e-01 2.598951e-01 5.978476e-02 -4.631714e-02 -3.959261e-01
<VARIANCE> 39
 2.393682e+01 2.186524e+01 2.806406e+01 4.281606e+01 4.508843e+01 4.355204e+01 8.004892e+01 6.008393e+01 4.856113e+01 3.831556e+01 4.721959e+01 3.662806e+01 2.500852e+01 5.417109e-01 1.427412e+00 1.186846e+00 1.738203e+00 2.228830e+00 2.060211e+00 2.361715e+00 2.204661e+00 2.136630e+00 2.063325e+00 1.900641e+00 1.971078e+00 7.662925e-01 9.651699e-02 1.792492e-01 1.940213e-01 3.511191e-01 3.185174e-01 3.295612e-01 4.516747e-01 5.136784e-01 3.920270e-01 3.744929e-01 3.518064e-01 3.288286e-01 1.065459e-01
<GCONST> 1.086996e+02
<STATE> 4
<MEAN> 39
 -4.094807e+00 -1.081836e+01 -4.520447e-01 -7.865494e+00 -9.612411e+00 -8.025816e+00 -5.860054e+00 -1.402458e-01 -8.008055e+00 -6.075376e+00 -5.068151e+00 -5.721529e-01 6.647919e+01 3.907690e-01 1.966472e+00 1.249674e+00 9.115117e-01 -4.535288e-01 -1.247922e-01 -8.655460e-01 -1.401055e+00 5.396096e-01 5.463719e-01 3.671332e-01 -2.825670e-01 -2.224052e+00 -1.395666e-01 -1.115640e-01 -1.173134e-01 1.298356e-01 2.974476e-01 3.358756e-01 3.760689e-02 -1.198079e-01 2.597569e-02 -1.317222e-01 -1.320479e-02 5.714715e-02 6.616430e-02
<VARIANCE> 39
 2.305375e+01 3.833438e+01 4.245001e+01 5.403107e+01 5.571881e+01 5.323524e+01 6.834158e+01 6.569543e+01 6.268467e+01 4.612190e+01 4.884640e+01 4.923959e+01 5.468996e+01 9.558716e-01 1.701997e+00 2.357297e+00 2.716916e+00 2.862037e+00 3.212505e+00 4.153644e+00 3.891570e+00 3.444157e+00 3.342518e+00 2.862970e+00 2.649239e+00 1.651190e+00 1.433305e-01 2.530997e-01 3.797000e-01 4.371516e-01 4.599442e-01 5.341713e-01 6.645642e-01 7.904841e-01 6.171755e-01 5.868015e-01 4.969304e-01 4.685449e-01 2.540902e-01
<GCONST> 1.236734e+02
<TRANSP> 5
 0.000000e+00 1.000000e+00 0.000000e+00 0.000000e+00 0.000000e+00
 0.000000e+00 6.613457e-01 3.386543e-01 0.000000e+00 0.000000e+00
 0.000000e+00 0.000000e+00 8.161357e-01 1.838643e-01 0.000000e+00
