~o
<STREAMINFO> 1 39
<VECSIZE> 39<NULLD><MFCC_D_A_0><DIAGC>
~s "silst"
<MEAN> 39
 -1.096862e+01 -6.646672e+00 -3.042985e-01 -3.205301e-01 2.930200e-02 3.121833e+00 1.911592e+00 3.494435e+00 3.135041e+00 2.670938e+00 2.888665e+00 3.713910e+00 5.265588e+01 -5.499047e-01 -4.154740e-01 -8.300497e-02 2.344578e-01 5.361940e-01 2.506280e-01 4.769290e-01 5.817252e-01 3.235966e-01 3.798810e-01 4.830224e-01 3.482305e-01 -6.911425e-02 7.060623e-02 -7.662321e-02 -1.727143e-02 -1.999104e-01 -1.127635e-01 -1.333086e-01 -1.763592e-01 -5.936377e-02 -1.448567e-01 -1.167127e-01 -9.173541e-02 -5.364672e-02 2.286356e-01
<VARIANCE> 39
 2.949211e+01 4.179617e+01 3.610675e+01 3.244285e+01 4.293475e+01 3.678627e+01 3.707416e+01 3.747853e+01 4.067405e+01 4.251045e+01 3.370773e+01 2.763344e+01 3.395442e+01 2.445011e+00 3.086726e+00 2.670635e+00 3.422531e+00 3.575094e+00 3.492306e+00 4.342906e+00 3.789743e+00 4.901502e+00 4.602633e+00 3.546781e+00 2.836293e+00 4.377044e+00 3.906977e-01 5.170577e-01 4.742373e-01 5.757305e-01 5.808411e-01 5.891219e-01 7.090126e-01 6.712409e-01 8.430076e-01 7.920820e-01 6.021472e-01 5.029833e-01 6.712850e-01
<GCONST> 1.280297e+02
~h "a"
<BEGINHMM>
<NUMSTATES> 5
<STATE> 2
<MEAN> 39
 -5.121109e+00 -2.094163e+01 -1.025220e+01 -8.388341e+00 -8.797553e-01 -3.584837e-01 -6.180635e+00 -2.787418e+00 -6.425773e+00 -7.622396e+00 -6.110959e+00 9.102610e-01 7.640884e+01 7.856058e-02 -2.678387e+00 -1.775693e+00 -1.204387e-01 1.027616e+00 4.689049e-01 -1.303540e+00 -1.378281e+00 -9.242644e-01 -9.910175e-01 -5.557941e-01 -3.934804e-01 1.647457e+00 -4.265525e-01 6.606982e-01 7.465957e-01 7.750871e-01 1.729710e-01 5.608182e-02 1.501437e-01 8.268075e-02 5.216169e-01 5.425429e-01 4.501412e-01 -5.877106e-02 -7.546839e-01
<VARIANCE> 39
 2.493255e+01 2.985948e+01 2.648487e+01 5.074666e+01 4.848622e+01 5.606559e+01 6.894358e+01 4.910966e+01 4.626928e+01 4.321080e+01 5.257820e+01 5.560812e+01 2.775327e+01 2.905566e+00 3.393718e+00 3.430755e+00 5.522120e+00 4.744830e+00 4.351469e+00 4.681856e+00 4.060070e+00 4.057850e+00 3.947982e+00 4.195029e+00 3.575403e+00 2.821886e+00 4.744623e-01 5.091136e-01 4.336714e-01 7.415189e-01 7.754627e-01 7.160648e-01 9.700049e-01 9.829980e-01 6.889785e-01 6.774999e-01 7.332436e-01 7.035058e-01 5.477759e-01
<GCONST> 1.329380e+02
<STATE> 3
<MEAN> 39
 -5.883461e+00 -2.404046e+01 -1.098500e+01 -4.307127e+00 2.739192e+00 1.394634e+00 -9.332629e+00 -5.566559e+00 -4.570869e+00 -7.061312e+00 -5.507351e+00 -9.896531e-01 7.663750e+01 2.579770e-02 1.540836e-02 4.404551e-02 3.756126e-02 -1.618862e-01 -2.782613e-02 1.375946e-01 9.070460e-02 4.128720e-02 -6.287524e-02 6.858825e-03 -4.431362e-03 -1.580431e-01 7.650455e-02 3.536124e-01 1.474468e-01 -2.542433e-01 -3.593509e-01 -1.334297e-01 2.796177e-01 2.775508e-01 -3.281759e-02 -1.337615e-02 -4.413914e-02 9.074868e-02 -1.951214e-01
<VARIANCE> 39
 2.402683e+01 2.370702e+01 2.147590e+01 5.107598e+01 3.751824e+01 6.115552e+01 5.841370e+01 3.509056e+01 3.898399e+01 3.958447e+01 3.823685e+01 4.427154e+01 3.139923e+01 4.410190e-01 7.754652e-01 8.163776e-01 1.899387e+00 1.724511e+00 1.423904e+00 2.062371e+00 1.784488e+00 1.791142e+00 1.626255e+00 1.503171e+00 1.503897e+00 4.629915e-01 1.043892e-01 1.861682e-01 1.987573e-01 3.005018e-01 3.042321e-01 2.987007e-01 3.287743e-01 3.276068e-01 3.481668e-01 3.260906e-01 2.939056e-01 2.841231e-01 1.018392e-01
<GCONST> 1.029622e+02
<STATE> 4
<MEAN> 39
 -5.468330e+00 -2.152707e+01 -9.711132e+00 -8.119215e+00 -3.284314e+00 -8.973571e-01 -4.543783e+00 -2.074227e+00 -6.550720e+00 -8.758680e+00 -6.162613e+00 5.727506e-01 7.535320e+01 4.904408e-01 2.171123e+00 1.157564e+00 -8.023365e-01 -2.003379e+00 -1.050162e+00 6.997045e-01 9.977431e-01 3.850669e-01 4.840272e-01 -2.078199e-02 5.328875e-02 -1.566704e+00 -8.341426e-02 6.382036e-01 4.696890e-01 5.143425e-01 2.355302e-01 -9.022679e-02 -3.220070e-01 -2.265443e-01 3.243783e-01 5.188462e-01 2.691502e-01 -5.151001e-02 -6.185310e-01
<VARIANCE> 39
 2.372323e+01 2.909130e+01 2.816185e+01 5.502736e+01 6.775262e+01 5.503230e+01 8.049773e+01 5.269889e+01 5.409356e+01 4.576216e+01 5.039058e+01 5.192289e+01 4.064595e+01 1.200640e+00 2.502287e+00 2.204693e+00 4.373908e+00 4.153342e+00 3.748768e+00 4.445877e+00 3.521013e+00 3.736647e+00 3.860728e+00 3.239178e+00 3.089483e+00 1.965970e+00 2.704633e-01 3.764583e-01 3.229658e-01 7.552425e-01 9.568279e-01 6.963661e-01 8.650671e-01 7.796912e-01 6.698581e-01 6.288921e-01 6.083904e-01 5.654208e-01 2.691045e-01
<GCONST> 1.282963e+02
<TRANSP> 5
 0.000000e+00 1.000000e+00 0.000000e+00 0.000000e+00 0.000000e+00
 0.000000e+00 6.570682e-01 3.429318e-01 0.000000e+00 0.000000e+00
 0.000000e+00 0.000000e+00 8.275955e-01 1.724045e-01 0.000000e+00
 0.000000e+00 0.000000e+00 0.000000e+00 6.082552e-01 3.917448e-01
 0.000000e+00 0.000000e+00 0.000000e+00 0.000000e+00 0.000000e+00
<ENDHMM>
~h "b"
<BEGINHMM>
<NUMSTATES> 5
<STATE> 2
<MEAN> 39
 -2.164782e+00 -4.550447e+00 9.350188e-01 -4.428106e+00 -4.714891e+00 -2.655136e+00 -7.950421e+00 -5.048872e+00 -4.067706e+00 -2.508263e+00 -4.559257e+00 -1.580862e+00 5.841904e+01 -5.993726e-01 1.150798e+00 6.683272e-01 2.191032e+00 9.142150e-01 7.580990e-01 1.266187e+00 -1.916200e-03 7.269028e-01 1.233442e-01 5.259138e-01 -7.786374e-02 -2.288834e+00 -3.426161e-01 -5.029537e-01 -1.739227e-01 -4.722516e-01 -1.091543e-01 4.208241e-02 2.868273e-01 5.253165e-01 1.709173e-01 2.172817e-01 1.700973e-01 2.248102e-01 8.490694e-01
<VARIANCE> 39
 2.827329e+01 4.113203e+01 4.149905e+01 5.978370e+01 4.505994e+01 5.027126e+01 6.142543e+01 5.925427e+01 5.330370e+01 4.969931e+01 5.053681e+01 5.012465e+01 6.024269e+01 2.493734e+00 3.442670e+00 3.718148e+00 5.455791e+00 3.998641e+00 3.867672e+00 4.649230e+00 5.828326e+00 4.632817e+00 4.509042e+00 4.066053e+00 3.685785e+00 5.564373e+00 4.630263e-01 6.901096e-01 7.656975e-01 1.129516e+00 8.032155e-01 7.484197e-01 8.863695e-01 1.090312e+00 9.124103e-01 9.993351e-01 8.023574e-01 7.750639e-01 1.387793e+00
<GCONST> 1.388870e+02
<STATE> 3
<MEAN> 39
 -8.112668e+00 -4.413498e+00 1.030075e+00 9.722264e-02 -1.846083e+00 1.338796e+00 1.063646e-01 6.764592e-01 2.496452e+00 2.084003e+00 6.757486e-01 1.269194e+00 5.261977e+01 -2.551070e-01 -8.670781e-01 7.928657e-02 -2.610767e-01 -1.122332e-01 -1.623628e-02 5.248048e-01 9.243895e-01 4.675332e-01 4.793886e-01 5.356795e-01 4.904046e-01 2.441151e+00 6.501130e-01 -3.506218e-01 -2.705493e-02 -1.092106e+00 -5.151975e-01 -4.117480e-01 -7.772982e-01 -3.513553e-01 -7.187375e-01 -3.632361e-01 -5.702870e-01 -1.295367e-01 1.646379e+00
<VARIANCE> 39
 2.193704e+01 3.371030e+01 2.759822e+01 2.322699e+01 2.783782e+01 3.035214e+01 4.034602e+01 4.123423e+01 4.396532e+01 3.915947e+01 3.667963e+01 3.160880e+01 2.822917e+01 3.122605e+00 2.862776e+00 4.495535e+00 3.583833e+00 3.396976e+00 3.619746e+00 4.585897e+00 4.744395e+00 5.166169e+00 4.699979e+00 4.278893e+00 3.445163e+00 8.434958e+00 4.560481e-01 9.038649e-01 1.071997e+00 9.332428e-01 8.068233e-01 7.263973e-01 8.053116e-01 1.047313e+00 8.883855e-01 8.965684e-01 7.917050e-01 7.115732e-01 8.513717e-01
<GCONST> 1.327686e+02
<STATE> 4
<MEAN> 39
 -3.988951e+00 -6.395107e+00 3.721537e+00 -3.010804e+00 -4.611361e+00 -1.485836e+00 -2.768060e+00 -1.321038e-01 -6.224204e-01 5.523242e-01 -1.148215e+00 7.413995e-01 6.839799e+01 1.231940e+00 -1.295633e+00 -4.576177e-02 -3.999458e+00 -1.748670e+00 -8.697666e-01 -1.769041e+00 -5.039507e-01 -1.779463e+00 -5.233471e-01 -1.508807e+00 3.690901e-02 4.889736e+00 -2.597566e-01 -1.129298e-01 -5.236502e-01 -9.578359e-01 -1.798613e-01 4.857743e-03 -4.869362e-01 -3.020293e-01 -4.519905e-01 -2.085889e-01 -4.287142e-01 -4.432961e-02 -7.195581e-01
<VARIANCE> 39
 3.813299e+01 2.931924e+01 6.572026e+01 5.227031e+01 4.085949e+01 3.490753e+01 3.989457e+01 3.604859e+01 3.431402e+01 2.699768e+01 2.764615e+01 2.596553e+01 4.741251e+01 4.252264e+00 7.196993e+00 1.203306e+01 5.927409e+00 6.764015e+00 5.696553e+00 7.049148e+00 8.399847e+00 6.704712e+00 5.876353e+00 4.961861e+00 4.773734e+00 6.074028e+00 7.272568e-01 8.414410e-01 8.936058e-01 1.296122e+00 8.534009e-01 7.647198e-01 1.097017e+00 1.009863e+00 9.479830e-01 8.898800e-01 8.135906e-01 6.996554e-01 1.049129e+00
<GCONST> 1.413482e+02
<TRANSP> 5
 0.000000e+00 1.000000e+00 0.000000e+00 0.000000e+00 0.000000e+00
 0.000000e+00 6.041878e-01 3.958122e-01 0.000000e+00 0.000000e+00
 0.000000e+00 0.000000e+00 6.023886e-01 3.976114e-01 0.000000e+00
 0.000000e+00 0.000000e+00 0.000000e+00 4.720595e-01 5.279405e-01
 0.000000e+00 0.000000e+00 0.000000e+00 0.000000e+00 0.000000e+00
<ENDHMM>
~h "c"
<BEGINHMM>
<NUMSTATES> 5
<STATE> 2
<MEAN> 39
 -9.341576e+00 -8.446810e-01 -1.375134e+00 -1.465489e+00 -5.685946e+00 -4.861313e+00 -6.395779e+00 -3.346041e+00 -2.641881e+00 -2.273234e+00 -2.424056e+00 3.485999e-01 6.134568e+01 -2.879765e+00 1.739685e+00 -5.132376e-01 2.528278e+00 1.355434e+00 1.825304e+00 2.241850e+00 1.294220e+00 1.097645e+00 1.218601e+00 1.154041e+00 1.348327e-01 -8.068236e-01 -3.831961e-01 -4.934688e-01 -2.089885e-01 -4.338589e-01 8.439306e-02 2.550153e-01 3.845927e-01 4.888658e-01 1.493391e-01 3.693593e-01 1.454651e-01 1.374494e-01 6.936113e-01
<VARIANCE> 39
 4.727203e+01 3.842435e+01 3.961927e+01 5.036596e+01 5.453233e+01 5.527110e+01 5.965651e+01 4.988606e+01 4.881884e+01 4.522343e+01 3.976347e+01 3.771880e+01 4.818098e+01 3.459453e+00 4.889309e+00 4.014479e+00 5.064787e+00 4.586510e+00 5.539799e+00 5.795695e+00 5.718484e+00 4.874902e+00 5.035763e+00 4.313796e+00 3.942959e+00 4.534415e+00 9.197323e-01 7.632862e-01 6.265280e-01 8.724471e-01 8.000849e-01 1.051517e+00 1.050308e+00 8.972982e-01 8.077111e-01 8.585346e-01 7.080802e-01 6.415284e-01 5.689274e-01
<GCONST> 1.388909e+02
<STATE> 3
<MEAN> 39
 -1.901408e+01 8.106004e-01 -3.864454e+00 2.135751e+00 -1.526411e+00 6.085696e-01 2.390157e+00 3.346434e+00 2.238084e+00 3.604963e+00 2.367793e+00 2.381415e+00 6.458360e+01 6.832328e-02 -3.323936e-01 1.548610e-01 -8.911769e-02 4.332767e-01 -1.441683e-02 6.209100e-01 5.884218e-01 -9.475851e-02 -6.723043e-02 1.617469e-01 1.051473e-01 2.265382e+00 9.942483e-01 -4.372883e-01 3.588856e-01 -3.509645e-01 -1.341747e-02 -3.446230e-01 -5.347628e-01 -3.569680e-01 -4.016360e-01 -5.570839e-01 -3.410026e-01 -6.172876e-02 8.589578e-02
<VARIANCE> 39
 3.183344e+01 3.400982e+01 2.530460e+01 3.061473e+01 3.153144e+01 3.070579e+01 2.685771e+01 2.630375e+01 2.582389e+01 2.229522e+01 1.959450e+01 1.631699e+01 5.376015e+01 5.616346e+00 3.385813e+00 3.305813e+00 2.466290e+00 2.870229e+00 2.942341e+00 3.381123e+00 3.283039e+00 3.210665e+00 3.147694e+00 2.665703e+00 2.194004e+00 2.319139e+00 7.124782e-01 6.411071e-01 5.223491e-01 5.970632e-01 6.373238e-01 6.986296e-01 7.297330e-01 6.419790e-01 6.515517e-01 6.479522e-01 5.588074e-01 4.719476e-01 7.791032e-01
<GCONST> 1.234041e+02
<STATE> 4
<MEAN> 39
 -1.183100e+01 -6.051242e+00 -1.337946e-01 5.703513e-01 2.901634e+00 8.211750e-01 9.130082e-01 3.060716e+00 -1.053388e+00 -1.092665e+00 5.926883e-01 2.366498e+00 7.128630e+01 1.719986e+00 -1.911000e+00 -3.404126e-01 -1.303693e+00 3.623964e-01 1.378255e-02 -1.449534e+00 -9.232880e-01 -9.620968e-01 -1.344525e+00 -7.905684e-01 -3.993808e-02 9.201288e-02 2.368624e-02 2.220624e-02 -5.873952e-01 -5.543809e-01 -5.285500e-01 -1.444298e-01 -4.818744e-01 -3.781022e-01 -2.193621e-01 -8.941494e-02 -2.298439e-01 -1.431913e-01 -1.882459e-01
<VARIANCE> 39
 4.026641e+01 6.977425e+01 2.655631e+01 2.938695e+01 4.521124e+01 4.950246e+01 4.508825e+01 3.634438e+01 3.673205e+01 3.300785e+01 2.777564e+01 2.418208e+01 3.027152e+01 4.088206e+00 4.181684e+00 3.705713e+00 4.500679e+00 5.475314e+00 4.674603e+00 5.339064e+00 4.552547e+00 3.951947e+00 4.124198e+00 3.638501e+00 3.249270e+00 1.399639e+00 6.760832e-01 7.230592e-01 5.840681e-01 7.532636e-01 8.564996e-01 8.267323e-01 8.325368e-01 8.025061e-01 7.400883e-01 7.210886e-01 6.322560e-01 6.183675e-01 4.028611e-01
<GCONST> 1.313351e+02
<TRANSP> 5
 0.000000e+00 1.000000e+00 0.000000e+00 0.000000e+00 0.000000e+00
 0.000000e+00 6.799798e-01 3.200202e-01 0.000000e+00 0.000000e+00
 0.000000e+00 0.000000e+00 7.534992e-01 2.465008e-01 0.000000e+00
 0.000000e+00 0.000000e+00 0.000000e+00 7.310857e-01 2.689143e-01
 0.000000e+00 0.000000e+00 0.000000e+00 0.000000e+00 0.000000e+00
<ENDHMM>
~h "d"
<BEGINHMM>
<NUMSTATES> 5
<STATE> 2
<MEAN> 39
 -3.447462e+00 -5.011318e+00 1.759698e+00 -5.881112e+00 -7.897790e+00 -7.593753e+00 -9.445899e+00 -4.258641e+00 -2.572899e+00 -3.544959e+00 -5.318294e+00 -6.550800e-02 6.075627e+01 -1.715130e-01 1.284034e+00 6.327777e-01 2.231147e+00 9.324552e-01 7.374842e-01 9.172179e-01 -2.931311e-02 4.427250e-01 -9.618312e-03 3.693951e-01 -3.792365e-01 -2.474154e+00 -4.255043e-01 -5.402551e-01 -4.461242e-01 -5.424803e-01 2.070335e-01 2.985431e-01 4.400536e-01 5.049394e-01 2.397399e-02 2.441447e-01 2.019807e-01 8.800605e-02 9.175668e-01
<VARIANCE> 39
 2.324847e+01 3.441946e+01 4.184208e+01 5.080782e+01 5.858626e+01 5.379144e+01 6.799400e+01 5.480334e+01 5.419297e+01 4.829707e+01 4.928663e+01 4.800309e+01 5.979459e+01 1.656490e+00 2.511224e+00 3.781318e+00 4.215065e+00 4.843919e+00 4.947677e+00 5.488757e+00 4.877727e+00 4.304860e+00 3.889923e+00 3.532979e+00 3.410010e+00 5.254672e+00 2.615786e-01 5.351182e-01 6.445891e-01 1.019463e+00 8.803024e-01 1.009196e+00 9.390851e-01 9.438015e-01 8.339957e-01 8.210999e-01 7.051845e-01 7.965884e-01 1.508054e+00
<GCONST> 1.364872e+02
<STATE> 3
<MEAN> 39
 -7.596435e+00 -4.008781e+00 1.722297e+00 -9.111758e-01 -3.487796e+00 -2.082667e+00 -2.921335e+00 -1.207982e+00 6.526216e-01 -5.253720e-02 -1.457566e+00 1.341009e-01 5.536236e+01 -1.085593e+00 -9.794027e-01 -6.658465e-01 -8.528006e-01 3.172219e-01 2.560017e-02 9.273623e-01 1.274532e+00 5.509509e-01 5.225936e-01 8.385693e-01 6.573114e-01 2.608912e+00 2.480867e-01 -6.047480e-01 -2.623615e-01 -1.305298e+00 -5.490145e-01 -5.988305e-01 -6.293061e-01 1.104572e-01 -3.685109e-01 -3.047892e-01 -4.352745e-01 2.191170e-01 1.820131e+00
<VARIANCE> 39
 2.857043e+01 3.153434e+01 2.896324e+01 2.911030e+01 3.595197e+01 4.522434e+01 5.640147e+01 4.390639e+01 4.593109e+01 4.458723e+01 4.298539e+01 3.412891e+01 4.172978e+01 1.971292e+00 2.652389e+00 3.712207e+00 3.836580e+00 4.214622e+00 5.196512e+00 5.142311e+00 4.758222e+00 4.431911e+00 4.432711e+00 3.906399e+00 3.438600e+00 8.277442e+00 4.872550e-01 8.397847e-01 9.522936e-01 7.466357e-01 9.182774e-01 9.877175e-01 1.264599e+00 1.321173e+00 1.060011e+00 1.013807e+00 8.663514e-01 7.860463e-01 8.485009e-01
<GCONST> 1.360608e+02
<STATE> 4
<MEAN> 39
 -7.833248e+00 -7.190370e+00 1.183930e-01 -7.466447e+00 -5.618883e+00 -6.471272e+00 -4.139928e+00 1.512451e+00 8.673150e-03 -9.096498e-01 -8.837507e-01 2.456819e+00 7.060870e+01 6.518185e-01 -1.707431e+00 -1.189335e+00 -3.457376e+00 -1.017488e+00 -1.404432e+00 -1.461688e+00 8.219904e-01 -8.812228e-01 -9.199197e-01 -1.433481e+00 6.030420e-01 4.771473e+00 3.025524e-01 -2.213641e-01 -1.891880e-01 -3.254057e-01 -3.017549e-02 2.759265e-01 -5.103537e-01 -4.027318e-01 -4.240868e-01 -2.517531e-01 -6.418902e-01 -2.819362e-01 -7.184847e-01
<VARIANCE> 39
 3.230420e+01 2.957559e+01 4.073677e+01 3.718789e+01 4.294233e+01 6.565906e+01 5.968389e+01 4.366464e+01 3.668253e+01 3.451942e+01 3.783460e+01 3.123526e+01 3.492669e+01 2.950411e+00 5.707818e+00 7.935772e+00 3.600413e+00 5.752131e+00 5.774330e+00 1.003317e+01 9.144853e+00 6.871414e+00 6.216409e+00 5.349463e+00 4.665772e+00 4.973962e+00 4.830113e-01 6.481732e-01 8.087282e-01 7.288020e-01 9.021094e-01 1.114127e+00 1.172356e+00 1.023860e+00 8.550108e-01 8.623845e-01 8.359587e-01 7.430521e-01 9.503939e-01
<GCONST> 1.398845e+02
<TRANSP> 5
 0.000000e+00 1.000000e+00 0.000000e+00 0.000000e+00 0.000000e+00
 0.000000e+00 5.093414e-01 4.906587e-01 0.000000e+00 0.000000e+00
 0.000000e+00 0.000000e+00 5.455978e-01 4.544022e-01 0.000000e+00
 0.000000e+00 0.000000e+00 0.000000e+00 4.122290e-01 5.877710e-01
 0.000000e+00 0.000000e+00 0.000000e+00 0.000000e+00 0.000000e+00
<ENDHMM>
~h "e"
<BEGINHMM>
<NUMSTATES> 5
<STATE> 2
<MEAN> 39
 -3.832351e+00 -1.135794e+01 -5.180106e+00 -1.512564e+01 -5.643373e+00 -1.056759e+01 -1.291702e+01 1.748295e+00 -5.939941e-01 -2.162923e+00 -7.222158e+00 2.205610e+00 7.288934e+01 3.256578e-01 -1.608574e+00 -1.099635e+00 -2.905669e+00 -1.669016e-01 9.315421e-02 -4.079375e-01 1.048442e+00 1.033930e-01 -4.496018e-01 -1.625884e+00 -4.699661e-01 1.713224e+00 -3.884645e-01 1.795998e-01 1.766266e-01 7.896346e-01 3.622167e-01 5.679179e-01 6.061446e-01 -1.382945e-01 5.694111e-02 1.120854e-01 1.868707e-01 -3.140681e-01 -4.568950e-01
<VARIANCE> 39
 2.312373e+01 3.542304e+01 4.776424e+01 4.042339e+01 6.456565e+01 6.389898e+01 7.400350e+01 6.373399e+01 5.967928e+01 6.223334e+01 5.675516e+01 6.141264e+01 2.757071e+01 2.049844e+00 2.382593e+00 2.625358e+00 4.831297e+00 5.165184e+00 4.175774e+00 6.323514e+00 5.039004e+00 4.476181e+00 4.665533e+00 4.127078e+00 4.186235e+00 1.456678e+00 4.150189e-01 5.808188e-01 4.556392e-01 5.915643e-01 7.100658e-01 7.010210e-01 9.657298e-01 1.132951e+00 7.738623e-01 7.460005e-01 7.435323e-01 8.232926e-01 3.976754e-01
<GCONST> 1.340477e+02
<STATE> 3
<MEAN> 39
 -3.896686e+00 -1.432446e+01 -9.137916e+00 -1.718837e+01 -1.861609e+00 -5.002417e+00 -1.040228e+01 2.686262e+00 6.907325e-01 -3.508182e+00 -1.034171e+01 -2.434514e+00 7.436860e+01 2.364033e-02 -2.745779e-01 -1.461589e-01 8.608736e-03 6.768157e-02 4.413924e-01 4.114460e-01 -4.733072e-02 -1.655368e-02 -2.269513e-01 -1.238333e-01 -2.606829e-01 -2.050118e-02 3.260582e-02 3.913695e-01 3.408206e-01 4.848679e-01 -1.874108e-01 -1.071538e-01 -5.197287e-02 -3.082900e-01 -1.221660e-01 1.006761e-01 3.564749e-01 1.765136e-01 -4.527143e-01
<VARIANCE> 39
 2.350021e+01 2.754987e+01 4.409307e+01 4.051991e+01 5.879219e+01 7.338425e+01 6.739168e+01 5.996815e+01 5.726579e+01 6.501538e+01 4.449989e+01 4.662446e+01 3.023014e+01 4.871436e-01 1.022709e+00 1.386394e+00 1.567487e+00 2.699271e+00 2.554298e+00 2.244829e+00 2.245740e+00 2.171630e+00 2.358258e+00 2.189165e+00 2.427656e+00 7.509993e-01 1.184520e-01 2.469362e-01 2.235263e-01 4.151285e-01 3.808552e-01 4.095586e-01 4.585365e-01 5.603337e-01 4.453697e-01 4.760649e-01 4.677233e-01 4.062809e-01 2.280612e-01
<GCONST> 1.144105e+02
<STATE> 4
<MEAN> 39
 -3.449685e+00 -1.275223e+01 -5.755792e+00 -1.454020e+01 -5.388995e+00 -7.370725e+00 -9.635603e+00 1.531965e+00 -1.030044e+00 -4.292571e+00 -8.071500e+00 -4.171358e-01 7.166751e+01 1.887475e-02 1.402485e+00 1.298557e+00 1.866509e+00 -5.533108e-01 3.502877e-01 4.326551e-01 -9.919345e-01 -5.149921e-01 2.446919e-01 1.167674e+00 2.960200e-01 -1.944651e+00 -2.288192e-01 4.860373e-01 3.289503e-01 6.360393e-01 1.941338e-01 2.883576e-01 2.039788e-01 -1.684821e-01 5.535088e-02 2.339482e-01 3.052223e-01 -1.651505e-03 -6.305212e-01
<VARIANCE> 39
 2.456621e+01 3.278352e+01 5.417370e+01 4.852425e+01 8.140236e+01 8.338766e+01 6.900532e+01 6.331756e+01 6.835583e+01 6.111356e+01 4.802436e+01 4.694685e+01 4.953305e+01 1.450798e+00 2.382154e+00 2.559329e+00 4.237978e+00 4.380817e+00 4.204655e+00 4.417659e+00 4.327798e+00 4.013202e+00 4.079354e+00 3.522415e+00 3.312824e+00 2.951502e+00 2.880137e-01 5.479699e-01 4.695557e-01 6.803310e-01 7.827201e-01 7.890170e-01 9.276443e-01 1.044472e+00 8.446295e-01 8.382399e-01 7.349654e-01 6.745411e-01 4.129376e-01
<GCONST> 1.337993e+02
<TRANSP> 5
 0.000000e+00 1.000000e+00 0.000000e+00 0.000000e+00 0.000000e+00
 0.000000e+00 4.679458e-01 5.320542e-01 0.000000e+00 0.000000e+00
 0.000000e+00 0.000000e+00 7.435950e-01 2.564050e-01 0.000000e+00
 0.000000e+00 0.000000e+00 0.000000e+00 3.991385e-01 6.008615e-01
 0.000000e+00 0.000000e+00 0.000000e+00 0.000000e+00 0.000000e+00
<ENDHMM>
~h "f"
<BEGINHMM>
<NUMSTATES> 5
<STATE> 2
<MEAN> 39
 -5.838967e+00 -4.433359e+00 -1.248876e+00 -3.845449e+00 -4.456643e+00 -1.567861e+00 -6.189260e+00 -2.908990e+00 -4.899756e+00 -4.090606e+00 -3.615162e+00 -8.781760e-01 6.407479e+01 -2.569052e+00 9.664591e-01 1.184042e+00 3.361494e+00 1.113243e+00 1.212707e+00 1.752429e+00 7.582434e-01 1.166235e+00 1.172181e+00 1.059821e+00 3.109468e-01 -1.090793e+00 -5.158568e-01 -5.449410e-01 -1.282198e-01 -3.805310e-01 -7.083612e-02 6.848608e-02 2.563377e-01 5.225152e-01 3.278971e-01 4.475637e-01 2.169724e-01 2.012573e-01 3.433676e-01
<VARIANCE> 39
 4.312229e+01 2.520085e+01 3.871586e+01 6.277090e+01 3.465007e+01 4.060913e+01 3.943175e+01 3.288264e+01 3.534525e+01 3.133009e+01 2.782084e+01 2.793595e+01 3.580023e+01 3.246805e+00 3.790311e+00 4.216431e+00 6.008354e+00 4.159446e+00 4.464730e+00 4.245152e+00 5.062372e+00 4.627676e+00 4.226752e+00 3.562649e+00 3.237216e+00 2.062468e+00 7.326684e-01 4.223313e-01 6.205372e-01 1.189239e+00 6.093799e-01 6.027761e-01 7.650256e-01 6.851836e-01 6.650518e-01 6.342448e-01 5.397688e-01 4.975117e-01 2.534229e-01
<GCONST> 1.293232e+02
<STATE> 3
<MEAN> 39
 -1.652705e+01 -6.091474e+00 -2.681274e-02 2.471767e+00 -2.372143e+00 2.250391e+00 9.199028e-02 3.238795e+00 1.625018e+00 2.703260e+00 1.571370e+00 2.120993e+00 6.308685e+01 -6.548437e-01 -3.534724e-01 -1.746857e-01 1.092903e-01 7.706553e-02 1.407846e-01 3.039252e-01 4.285281e-01 4.568720e-01 4.575798e-01 4.184492e-01 2.744523e-01 2.649240e-01 1.013676e+00 -8.095451e-02 -2.916972e-01 -8.167076e-01 -2.268781e-01 -3.846417e-01 -5.479186e-01 -4.607201e-01 -4.911200e-01 -5.398223e-01 -4.508617e-01 -1.758757e-01 3.740087e-01
<VARIANCE> 39
 2.482752e+01 1.721471e+01 1.704146e+01 1.586514e+01 1.757080e+01 1.750756e+01 1.907327e+01 1.909234e+01 1.992877e+01 1.901641e+01 1.675214e+01 1.524084e+01 3.198269e+01 3.059612e+00 1.191463e+00 1.315814e+00 1.676482e+00 1.590036e+00 1.922199e+00 2.189443e+00 2.541209e+00 2.604829e+00 2.635930e+00 2.123298e+00 1.757966e+00 1.407577e+00 4.535401e-01 4.099800e-01 4.630669e-01 7.132310e-01 4.551618e-01 5.196677e-01 5.139616e-01 5.063094e-01 5.090577e-01 5.360289e-01 5.025849e-01 4.414723e-01 3.599557e-01
<GCONST> 1.090059e+02
<STATE> 4
<MEAN> 39
 -1.132494e+01 -5.670449e+00 -6.027724e-01 -2.101757e-02 -2.809309e+00 1.793282e-01 -1.839654e+00 1.279518e+00 -3.343866e-01 2.154656e-01 3.468784e-02 1.389984e+00 6.587236e+01 3.624185e+00 -1.160875e+00 -1.882231e+00 -3.860600e+00 -7.249373e-01 -1.121852e+00 -1.840702e+00 -1.121806e+00 -1.277535e+00 -1.546994e+00 -1.653680e+00 -4.308668e-01 2.142050e+00 3.723174e-01 -6.030474e-01 -5.322281e-01 -1.048167e+00 -6.810057e-02 -7.487418e-03 -4.012269e-01 -1.431386e-01 -3.790134e-01 -2.665172e-01 -4.441791e-01 -1.226285e-01 3.477919e-01
<VARIANCE> 39
 5.822173e+01 2.168249e+01 2.167586e+01 2.739113e+01 2.019710e+01 2.400843e+01 2.519175e+01 2.099305e+01 2.035338e+01 2.109716e+01 1.987469e+01 1.760535e+01 3.013687e+01 2.634752e+00 4.838551e+00 4.158810e+00 4.951536e+00 3.971115e+00 4.762396e+00 3.460278e+00 3.530232e+00 3.412261e+00 3.723782e+00 4.154816e+00 3.910858e+00 2.578665e+00 9.630934e-01 5.648293e-01 4.996055e-01 8.296906e-01 6.071874e-01 6.119131e-01 6.504528e-01 6.076663e-01 5.511719e-01 6.241875e-01 6.230895e-01 5.359225e-01 3.284064e-01
<GCONST> 1.235900e+02
<TRANSP> 5
 0.000000e+00 1.000000e+00 0.000000e+00 0.000000e+00 0.000000e+00
 0.000000e+00 6.328002e-01 3.671998e-01 0.000000e+00 0.000000e+00
 0.000000e+00 0.000000e+00 7.645156e-01 2.354843e-01 0.000000e+00
 0.000000e+00 0.000000e+00 0.000000e+00 5.629340e-01 4.370660e-01
 0.000000e+00 0.000000e+00 0.000000e+00 0.000000e+00 0.000000e+00
<ENDHMM>
~h "g"
<BEGINHMM>
<NUMSTATES> 5
<STATE> 2
<MEAN> 39
 -2.373954e+00 -4.254657e+00 -1.645472e+00 -8.916532e+00 -6.438366e+00 -4.036808e+00 -8.840940e+00 -5.168304e+00 -4.389956e+00 -1.481136e+00 -5.439868e+00 -7.284983e-02 5.969062e+01 -4.601356e-01 7.320256e-01 1.512049e-01 2.351514e+00 9.789805e-01 8.073589e-01 1.687070e+00 3.929005e-01 9.378362e-01 3.520190e-01 9.680632e-01 4.338155e-02 -2.514039e+00 -3.203745e-01 -5.890616e-01 -4.319677e-01 -3.138309e-01 1.374464e-01 1.065603e-01 4.332406e-01 6.345969e-01 1.949002e-01 2.632243e-01 1.628647e-01 1.906582e-01 6.319109e-01
<VARIANCE> 39
 2.680778e+01 3.814586e+01 4.979532e+01 6.854097e+01 5.207394e+01 5.361158e+01 6.543104e+01 5.052781e+01 5.769110e+01 5.667532e+01 5.540434e+01 4.880833e+01 5.425589e+01 2.133364e+00 3.350730e+00 4.605831e+00 5.467620e+00 5.178370e+00 5.088037e+00 6.208289e+00 6.353836e+00 5.632003e+00 5.202847e+00 4.683471e+00 4.260575e+00 4.267548e+00 3.063103e-01 5.007652e-01 8.614623e-01 1.449036e+00 1.016237e+00 1.025136e+00 1.233221e+00 1.007390e+00 1.101423e+00 1.060115e+00 8.934574e-01 9.317082e-01 1.045299e+00
<GCONST> 1.413517e+02
<STATE> 3
<MEAN> 39
 -7.934157e+00 -6.076570e+00 -2.109664e+00 -2.086789e+00 -2.606361e+00 -1.085265e-02 2.760709e-01 1.339841e+00 2.538663e+00 3.149671e+00 4.333795e-01 2.444824e+00 5.376661e+01 -1.669816e-01 -1.203907e+00 -2.240869e+00 -9.377262e-01 6.753765e-01 -3.081233e-01 8.595481e-01 1.458158e+00 2.140110e-01 7.415789e-01 1.527638e-02 7.950461e-01 1.852888e+00 6.709772e-01 5.249050e-03 -3.958841e-01 -1.409548e+00 -4.316313e-01 -5.562149e-01 -9.889152e-01 -4.946677e-01 -8.819541e-01 -4.143294e-01 -7.853422e-01 -3.080695e-02 1.443306e+00
<VARIANCE> 39
 2.427962e+01 4.026613e+01 3.649323e+01 3.913839e+01 3.792437e+01 3.890808e+01 4.159740e+01 3.916040e+01 4.538379e+01 3.814651e+01 3.889910e+01 2.833926e+01 3.384915e+01 2.835844e+00 3.378955e+00 4.664591e+00 6.390066e+00 5.279251e+00 5.445061e+00 6.156821e+00 5.071960e+00 6.057580e+00 4.945763e+00 4.910054e+00 3.684797e+00 6.289999e+00 3.825528e-01 6.892415e-01 8.745438e-01 9.980763e-01 8.725625e-01 9.496418e-01 9.234059e-01 1.028691e+00 9.775199e-01 9.279520e-01 8.429949e-01 7.706755e-01 6.670677e-01
<GCONST> 1.364495e+02
<STATE> 4
<MEAN> 39
 -3.265249e+00 -6.731224e+00 -1.032994e+01 -1.047108e+01 -2.632464e+00 -3.770760e+00 -2.767720e+00 1.494045e+00 -2.857997e+00 2.338353e+00 -4.085546e+00 3.344885e+00 6.479446e+01 1.573220e+00 1.907618e-01 -9.060467e-01 -3.765831e+00 -9.369280e-01 -1.089501e+00 -2.289015e+00 -9.811866e-01 -2.041324e+00 -7.508928e-01 -1.560410e+00 3.281112e-01 3.336384e+00 -6.230719e-02 -2.640205e-02 7.720494e-01 -2.909507e-01 -2.990388e-01 2.561307e-01 -5.604703e-01 -4.552167e-01 -6.456198e-02 -3.164889e-01 -9.604061e-02 -3.348402e-01 -2.505160e-01
<VARIANCE> 39
 3.926194e+01 4.609170e+01 4.151090e+01 7.748555e+01 5.627048e+01 5.964066e+01 6.452058e+01 4.980024e+01 5.234175e+01 3.973851e+01 3.754015e+01 3.491074e+01 3.703564e+01 1.969205e+00 3.818277e+00 5.647670e+00 5.229228e+00 5.151770e+00 4.981148e+00 6.308288e+00 5.926263e+00 5.472467e+00 5.177607e+00 5.015761e+00 4.895411e+00 3.673585e+00 4.856876e-01 8.410487e-01 8.674731e-01 1.310345e+00 1.095864e+00 1.073437e+00 1.438713e+00 1.226330e+00 1.200003e+00 9.807883e-01 8.907621e-01 9.150282e-01 5.861539e-01
<GCONST> 1.413804e+02
<TRANSP> 5
 0.000000e+00 1.000000e+00 0.000000e+00 0.000000e+00 0.000000e+00
 0.000000e+00 6.189353e-01 3.810647e-01 0.000000e+00 0.000000e+00
 0.000000e+00 0.000000e+00 5.859113e-01 4.140887e-01 0.000000e+00
 0.000000e+00 0.000000e+00 0.000000e+00 5.545430e-01 4.454570e-01
 0.000000e+00 0.000000e+00 0.000000e+00 0.000000e+00 0.000000e+00
<ENDHMM>
~h "h"
<BEGINHMM>
<NUMSTATES> 5
<STATE> 2
<MEAN> 39
 -2.912159e+00 -8.452012e+00 -9.334417e+00 -1.275596e+01 -2.037678e-01 -1.125090e+00 -1.075219e+01 -2.313496e+00 -7.161880e+00 -5.672697e+00 -4.712841e+00 -2.066878e+00 6.736204e+01 -5.315451e-01 1.160925e+00 -4.950088e-02 1.733436e+00 1.918136e+00 1.409147e+00 9.728472e-01 5.821831e-02 2.326365e-01 3.712353e-01 8.023404e-01 -2.882839e-01 -1.302693e+00 -5.097212e-01 -1.918012e-01 3.330514e-01 3.179716e-01 7.432023e-02 1.608220e-01 6.264165e-01 5.408587e-01 3.985389e-01 5.487906e-01 2.208319e-01 1.055271e-01 3.919975e-02
<VARIANCE> 39
 3.109839e+01 4.726144e+01 4.522985e+01 6.910518e+01 6.526784e+01 7.774780e+01 6.892036e+01 5.696578e+01 7.582923e+01 6.848452e+01 5.447388e+01 5.459347e+01 4.578162e+01 2.937728e+00 2.990679e+00 4.469303e+00 6.066848e+00 6.769294e+00 4.972100e+00 7.163820e+00 6.763279e+00 6.301768e+00 6.034621e+00 4.716900e+00 4.021327e+00 1.514325e+00 3.122103e-01 4.726081e-01 5.789065e-01 7.718817e-01 8.829120e-01 8.349520e-01 1.046391e+00 1.172581e+00 1.165863e+00 1.093723e+00 8.890124e-01 7.262217e-01 1.953388e-01
<GCONST> 1.394205e+02
<STATE> 3
<MEAN> 39
 -9.735899e+00 -7.546630e+00 -7.648087e+00 -4.251518e+00 7.288070e+00 4.474166e+00 -2.240001e+00 3.632425e+00 -1.138248e+00 6.931103e-01 -3.515961e-01 -1.816535e+00 6.391898e+01 -1.267822e+00 -3.098183e-01 -9.634306e-02 9.117394e-01 8.956359e-01 8.482150e-01 1.486282e+00 1.771776e+00 1.608907e+00 1.605915e+00 9.303234e-01 2.680009e-01 -3.433793e-01 5.575761e-01 -1.114897e-01 -1.553797e-01 -7.672986e-01 -6.548706e-01 -3.987473e-01 -6.257458e-01 -4.786695e-01 -3.673123e-01 -4.691744e-01 -2.614063e-01 2.789894e-02 2.919914e-01
<VARIANCE> 39
 3.476746e+01 4.789341e+01 3.432892e+01 5.063385e+01 6.527428e+01 4.574454e+01 4.829467e+01 5.314477e+01 5.071396e+01 5.103340e+01 3.505851e+01 3.315044e+01 4.030816e+01 1.890105e+00 1.793414e+00 2.438010e+00 3.501123e+00 3.834022e+00 3.189410e+00 4.078297e+00 4.544068e+00 3.650101e+00 4.341120e+00 3.234886e+00 2.794544e+00 9.049349e-01 3.085726e-01 3.792002e-01 4.978260e-01 5.824268e-01 7.127233e-01 6.421929e-01 8.295674e-01 1.016743e+00 8.207819e-01 8.671655e-01 6.443506e-01 5.644087e-01 1.725251e-01
<GCONST> 1.272297e+02
<STATE> 4
<MEAN> 39
 -9.769810e+00 -7.740576e+00 -7.587129e+00 -4.391177e+00 6.558160e+00 4.669469e+00 -1.635844e+00 4.525156e+00 9.231966e-01 1.600571e+00 5.923823e-01 -1.106060e+00 6.323305e+01 1.449736e+00 1.328074e-02 -2.609156e-01 -1.479641e+00 -1.217657e+00 -6.844002e-01 -1.410508e+00 -1.467714e+00 -1.067992e+00 -1.126842e+00 -5.654102e-01 -3.078752e-02 8.076885e-01 5.030956e-01 -1.446664e-01 -1.694278e-01 -7.249258e-01 -4.543463e-01 -2.847992e-01 -5.374671e-01 -5.093912e-01 -4.440673e-01 -3.647830e-01 -3.163255e-01 -2.699238e-02 4.322329e-01
<VARIANCE> 39
 4.066569e+01 6.633413e+01 3.698591e+01 5.354696e+01 6.739261e+01 4.673672e+01 5.007877e+01 5.700863e+01 4.782091e+01 4.850297e+01 3.455607e+01 3.073310e+01 3.918892e+01 2.605810e+00 2.406942e+00 2.830935e+00 4.843249e+00 4.336679e+00 3.291121e+00 4.334532e+00 4.554836e+00 3.449797e+00 3.451032e+00 3.063274e+00 2.724157e+00 1.762657e+00 3.874702e-01 5.110044e-01 5.163580e-01 7.379678e-01 6.794741e-01 6.247346e-01 8.078513e-01 8.863752e-01 6.898772e-01 7.412140e-01 5.962752e-01 5.167692e-01 3.075226e-01
<GCONST> 1.300242e+02
<TRANSP> 5
 0.000000e+00 1.000000e+00 0.000000e+00 0.000000e+00 0.000000e+00
 0.000000e+00 6.516101e-01 3.483899e-01 0.000000e+00 0.000000e+00
 0.000000e+00 0.000000e+00 6.467163e-01 3.532837e-01 0.000000e+00
 0.000000e+00 0.000000e+00 0.000000e+00 7.445322e-01 2.554678e-01
 0.000000e+00 0.000000e+00 0.000000e+00 0.000000e+00 0.000000e+00
<ENDHMM>
~h "i"
<BEGINHMM>
<NUMSTATES> 5
<STATE> 2
<MEAN> 39
 -1.269367e+01 1.046887e+00 1.286461e+01 -1.583067e+01 -1.179264e+01 -4.713508e+00 -1.495920e+01 -1.028838e+01 -7.849512e+00 -1.129996e+00 -6.461453e+00 1.022221e+00 6.886271e+01 5.034204e-01 -5.828546e-01 1.592193e+00 -2.442624e+00 -1.339219e+00 -4.219212e-01 -1.939558e+00 -9.155815e-01 -1.345327e+00 1.228536e-02 -1.571875e+00 -2.290612e-02 5.341229e-01 -1.790235e-01 -1.973246e-01 -6.029494e-01 5.998943e-01 4.330208e-01 2.680540e-01 7.217014e-01 6.040494e-01 4.662140e-01 1.828177e-01 1.869858e-01 -4.863620e-02 -2.424189e-01
<VARIANCE> 39
 2.386344e+01 3.525764e+01 3.509548e+01 5.076013e+01 3.590790e+01 3.622137e+01 4.646710e+01 4.171425e+01 5.229602e+01 4.370279e+01 4.736472e+01 5.826802e+01 2.520015e+01 3.407965e+00 3.425560e+00 2.906990e+00 3.954851e+00 4.232284e+00 4.148465e+00 5.227848e+00 4.705007e+00 4.998098e+00 3.991286e+00 3.656408e+00 3.394652e+00 1.016102e+00 3.627706e-01 3.582493e-01 4.143688e-01 5.776705e-01 5.703525e-01 5.983645e-01 7.503029e-01 6.545622e-01 6.185194e-01 6.968559e-01 5.998538e-01 5.863380e-01 2.516935e-01
<GCONST> 1.274947e+02
<STATE> 3
<MEAN> 39
 -1.238620e+01 1.169877e+00 1.461064e+01 -1.893278e+01 -1.187094e+01 -3.846292e+00 -1.723241e+01 -9.052121e+00 -8.172492e+00 -4.153049e-01 -8.786406e+00 9.824724e-02 6.809126e+01 2.078818e-01 -3.246111e-01 2.811926e-02 1.763429e-01 -4.400947e-01 1.220036e-01 2.435291e-01 -1.367947e-01 1.891522e-01 1.719223e-01 9.751879e-05 9.791908e-02 -1.001811e-01 9.960923e-02 -4.745232e-02 -2.455486e-01 4.762381e-01 3.181453e-02 -2.494637e-02 3.661056e-01 5.877903e-02 1.297135e-01 -2.253907e-03 2.234622e-01 -9.215544e-03 -1.562792e-01
<VARIANCE> 39
 2.422734e+01 3.315773e+01 3.011090e+01 4.235752e+01 3.988000e+01 3.816238e+01 4.414671e+01 4.273775e+01 6.437490e+01 5.270011e+01 4.725376e+01 4.925079e+01 3.120034e+01 5.293825e-01 1.235405e+00 8.420408e-01 1.365794e+00 1.651063e+00 1.303566e+00 1.856429e+00 1.519325e+00 1.584576e+00 1.664319e+00 1.563774e+00 1.521960e+00 5.361891e-01 1.427598e-01 1.749572e-01 2.414543e-01 3.770806e-01 3.309432e-01 3.017821e-01 3.915257e-01 3.610544e-01 3.756113e-01 3.566263e-01 3.553965e-01 2.988312e-01 1.083845e-01
<GCONST> 1.056205e+02
<STATE> 4
<MEAN> 39
 -9.967984e+00 -3.210063e+00 1.262576e+01 -1.424713e+01 -1.586256e+01 -4.421424e+00 -1.209803e+01 -1.004423e+01 -7.565540e+00 8.798951e-01 -7.427901e+00 7.027301e-01 6.761493e+01 8.222362e-01 -4.353498e-01 -1.771404e+00 2.895122e+00 7.214090e-01 -2.317213e-01 1.949848e+00 1.028695e+00 7.170357e-01 -3.392018e-01 1.115198e+00 -3.006511e-01 -1.332381e+00 -1.800078e-01 2.960781e-01 -4.918508e-01 4.851165e-01 9.333777e-01 1.530625e-01 1.555189e-01 5.191976e-01 3.385776e-01 -1.839300e-01 2.779572e-01 -2.736869e-02 -4.285164e-01
<VARIANCE> 39
 2.651654e+01 4.362634e+01 3.509975e+01 5.673346e+01 4.162741e+01 4.105523e+01 5.107269e+01 5.167242e+01 6.565183e+01 4.951625e+01 5.030223e+01 4.690010e+01 4.954345e+01 2.024580e+00 2.854876e+00 2.692202e+00 3.667711e+00 4.799556e+00 3.602510e+00 4.331586e+00 4.073852e+00 4.210909e+00 4.035558e+00 3.317985e+00 3.039770e+00 2.516453e+00 3.471249e-01 4.761792e-01 4.040515e-01 7.161543e-01 6.657290e-01 6.377759e-01 8.033475e-01 7.452409e-01 7.072673e-01 7.406892e-01 6.183165e-01 5.197586e-01 3.741390e-01
<GCONST> 1.300619e+02
<TRANSP> 5
 0.000000e+00 1.000000e+00 0.000000e+00 0.000000e+00 0.000000e+00
 0.000000e+00 5.018863e-01 4.981136e-01 0.000000e+00 0.000000e+00
 0.000000e+00 0.000000e+00 7.927594e-01 2.072407e-01 0.000000e+00
 0.000000e+00 0.000000e+00 0.000000e+00 5.668661e-01 4.331339e-01
 0.000000e+00 0.000000e+00 0.000000e+00 0.000000e+00 0.000000e+00
<ENDHMM>
~h "j"
<BEGINHMM>
<NUMSTATES> 5
<STATE> 2
<MEAN> 39
 -6.846691e+00 -1.217586e+00 2.959600e+00 -2.975958e+00 -8.600664e+00 -5.488029e+00 -7.067696e+00 -5.852187e+00 -4.951721e+00 -3.750689e+00 -4.687726e+00 -1.397130e+00 6.008199e+01 -1.811244e+00 1.424165e+00 -5.406655e-01 2.040472e+00 1.747718e+00 1.533648e+00 1.653413e+00 7.627187e-01 1.072127e+00 5.818812e-01 9.575675e-01 -1.022557e-01 -1.493492e+00 -7.242902e-01 -2.740185e-01 -3.882177e-01 -4.160183e-01 2.484111e-01 3.047548e-01 2.224554e-01 4.690927e-01 3.639340e-01 4.898835e-01 2.322315e-01 2.461428e-01 6.957706e-01
<VARIANCE> 39
 3.298454e+01 3.839835e+01 3.387075e+01 4.267389e+01 5.019293e+01 4.597167e+01 5.079808e+01 5.012773e+01 4.727081e+01 3.994633e+01 3.955071e+01 4.063670e+01 5.090435e+01 4.107400e+00 4.110086e+00 3.970913e+00 4.191954e+00 4.588393e+00 4.456292e+00 5.236376e+00 5.859441e+00 5.012856e+00 4.816738e+00 3.951718e+00 3.869028e+00 5.230696e+00 5.167313e-01 6.308423e-01 6.341600e-01 8.336454e-01 1.046592e+00 8.991565e-01 9.103186e-01 8.515649e-01 8.258962e-01 7.756457e-01 6.736224e-01 7.168652e-01 8.336127e-01
<GCONST> 1.367561e+02
<STATE> 3
<MEAN> 39
 -1.942468e+01 1.036374e+00 -1.864868e+00 3.915259e-01 -1.372099e+00 1.901561e+00 4.873826e-01 1.435308e+00 2.946526e+00 2.931979e+00 1.578646e+00 1.859869e+00 6.053892e+01 -2.342066e+00 8.895684e-01 -5.811527e-02 -6.221746e-01 3.214273e-01 6.653488e-01 3.224178e-01 2.085092e-01 4.739183e-01 5.142555e-01 4.633629e-01 2.836288e-01 2.222351e+00 8.960417e-01 -1.401346e-01 8.097187e-01 -6.783230e-01 -7.878096e-01 -5.919070e-01 -7.093537e-01 -7.575397e-01 -6.742005e-01 -4.301388e-01 -4.298647e-01 -1.569629e-01 3.792156e-01
<VARIANCE> 39
 4.114042e+01 3.940580e+01 3.216850e+01 3.065516e+01 3.043897e+01 2.563445e+01 2.754873e+01 2.895453e+01 2.977905e+01 2.483220e+01 2.333857e+01 1.955963e+01 4.062299e+01 3.824168e+00 3.505964e+00 4.082475e+00 2.758507e+00 3.239735e+00 3.013132e+00 3.481168e+00 3.791903e+00 3.541145e+00 3.486994e+00 3.087767e+00 2.508874e+00 2.410431e+00 1.027086e+00 8.864144e-01 6.096755e-01 8.202522e-01 7.920914e-01 7.343399e-01 7.088420e-01 7.683014e-01 6.808176e-01 6.014612e-01 5.770774e-01 5.466062e-01 7.662232e-01
<GCONST> 1.268042e+02
<STATE> 4
<MEAN> 39
 -2.019256e+01 4.460196e+00 4.081258e+00 -4.050208e+00 -4.578717e+00 4.790923e-01 -2.727328e+00 -3.799337e+00 -2.506207e-01 9.626804e-01 1.072714e-01 6.717559e-01 6.833430e+01 2.514054e+00 -9.622803e-01 2.876654e+00 -2.842278e+00 -3.284113e+00 -2.041433e+00 -2.455615e+00 -2.527346e+00 -2.177027e+00 -6.252885e-01 -9.872348e-01 1.174727e-02 1.581298e+00 9.256895e-01 -1.000065e+00 8.227847e-02 -5.907655e-01 -5.930423e-01 -4.893016e-01 -4.285803e-01 -8.209029e-03 -4.925147e-01 -4.005941e-02 -5.052144e-01 1.725352e-02 -2.721991e-01
<VARIANCE> 39
 4.007227e+01 3.098652e+01 4.562758e+01 3.072595e+01 4.401754e+01 3.700615e+01 4.153720e+01 4.076259e+01 3.357619e+01 2.547062e+01 2.185848e+01 2.003599e+01 2.298972e+01 3.059348e+00 4.384701e+00 2.478565e+00 4.955328e+00 3.553757e+00 3.805277e+00 4.232190e+00 4.799690e+00 3.592727e+00 3.157346e+00 3.124996e+00 3.530800e+00 1.554758e+00 9.055040e-01 7.392154e-01 8.104171e-01 6.638589e-01 8.905465e-01 8.365378e-01 9.347276e-01 1.120692e+00 7.611006e-01 7.071330e-01 6.516227e-01 5.662374e-01 2.151082e-01
<GCONST> 1.284142e+02
<TRANSP> 5
 0.000000e+00 1.000000e+00 0.000000e+00 0.000000e+00 0.000000e+00
 0.000000e+00 7.062578e-01 2.937422e-01 0.000000e+00 0.000000e+00
 0.000000e+00 0.000000e+00 7.188373e-01 2.811628e-01 0.000000e+00
 0.000000e+00 0.000000e+00 0.000000e+00 5.914209e-01 4.085791e-01
 0.000000e+00 0.000000e+00 0.000000e+00 0.000000e+00 0.000000e+00
<ENDHMM>
~h "k"
<BEGINHMM>
<NUMSTATES> 5
<STATE> 2
<MEAN> 39
 -3.944559e+00 -4.845008e+00 -1.458345e+00 -6.987510e+00 -5.232044e+00 -2.879357e+00 -6.714523e+00 -4.016049e+00 -3.196292e+00 -9.082068e-01 -3.889608e+00 5.684700e-01 5.900954e+01 -9.566513e-01 -7.929088e-02 -5.728396e-01 2.417663e+00 1.670991e+00 1.050509e+00 2.119104e+00 1.179915e+00 1.334621e+00 1.152976e+00 1.276905e+00 4.085878e-01 -1.745145e+00 -3.073803e-01 -7.129704e-01 -5.709833e-01 -2.610143e-01 3.315347e-01 5.645027e-02 3.382621e-01 6.674652e-01 2.232314e-01 2.894717e-01 6.345119e-02 1.046587e-01 9.147124e-01
<VARIANCE> 39
 2.911669e+01 3.421404e+01 4.839614e+01 6.871122e+01 5.357278e+01 5.278663e+01 6.757498e+01 5.049408e+01 5.859245e+01 5.450470e+01 5.219510e+01 4.522023e+01 5.117337e+01 2.256290e+00 4.211572e+00 5.598327e+00 6.407242e+00 5.331520e+00 5.045013e+00 6.346575e+00 6.510670e+00 5.946316e+00 5.201656e+00 4.995112e+00 4.418769e+00 6.848660e+00 3.921345e-01 5.052924e-01 8.130726e-01 1.236454e+00 9.730368e-01 1.071226e+00 1.342192e+00 9.670412e-01 1.065380e+00 9.877788e-01 1.008084e+00 8.177858e-01 1.118822e+00
<GCONST> 1.424975e+02
<STATE> 3
<MEAN> 39
 -8.223568e+00 -9.954022e+00 -8.207564e+00 -2.827273e+00 1.810995e+00 -2.253425e-01 8.572827e-01 4.315843e+00 2.546629e+00 4.614368e+00 -2.766778e-01 2.855847e+00 6.186663e+01 -9.250258e-02 -7.451273e-01 -7.066469e-01 4.985891e-01 1.319448e+00 5.089543e-02 2.341039e-01 7.826439e-01 1.578843e-01 -1.547016e-02 -1.842489e-01 -6.705624e-02 2.505925e+00 2.566053e-01 3.679713e-01 7.222759e-01 -9.471601e-02 -2.430949e-01 -3.050396e-02 -5.288405e-01 -6.049582e-01 -3.718840e-01 -5.192545e-01 -2.245801e-01 -1.573088e-01 1.335080e-01
<VARIANCE> 39
 3.191072e+01 3.777239e+01 5.236331e+01 5.749218e+01 4.526584e+01 5.379213e+01 4.750436e+01 3.589309e+01 4.614211e+01 3.663253e+01 3.604818e+01 2.739184e+01 7.529070e+01 2.433837e+00 4.083386e+00 7.971582e+00 5.257318e+00 4.265591e+00 5.475669e+00 5.337111e+00 4.872899e+00 4.988899e+00 4.535324e+00 4.415022e+00 3.433753e+00 5.492773e+00 4.695554e-01 7.025131e-01 1.270782e+00 1.160971e+00 8.793039e-01 1.133315e+00 1.096557e+00 9.339572e-01 1.033964e+00 8.796938e-01 9.871425e-01 6.978064e-01 1.732100e+00
<GCONST> 1.400342e+02
<STATE> 4
<MEAN> 39
 -8.162827e+00 -9.968268e+00 -2.362860e+00 1.485297e+00 5.889948e+00 1.307266e+00 -1.193700e+00 1.530450e+00 6.179389e-01 4.925629e-02 -1.457242e+00 1.704587e+00 6.980524e+01 7.393922e-01 -4.981209e-02 1.605570e-01 -1.293032e+00 -5.786644e-01 2.584868e-02 -1.449990e+00 -1.562871e+00 -1.222754e+00 -1.360805e+00 -5.859196e-01 -1.007786e-01 5.715998e-01 2.963524e-01 -2.456964e-01 -7.064166e-01 -1.011883e+00 -7.166590e-01 -3.595997e-01 -3.561598e-01 -1.776141e-01 -3.533583e-01 -9.951073e-02 -2.668258e-01 3.390141e-03 -5.550983e-02
<VARIANCE> 39
 4.111464e+01 4.172438e+01 4.054437e+01 4.497963e+01 4.156439e+01 6.017333e+01 4.810963e+01 3.757634e+01 4.309173e+01 4.020953e+01 3.093616e+01 2.551103e+01 3.007550e+01 2.348556e+00 3.567625e+00 5.275168e+00 6.420367e+00 5.378788e+00 4.894379e+00 4.614507e+00 4.175277e+00 3.950616e+00 4.051680e+00 3.729729e+00 3.316968e+00 1.122532e+00 4.198926e-01 6.569557e-01 6.302295e-01 6.969743e-01 7.535108e-01 8.139964e-01 7.859262e-01 8.052722e-01 6.847178e-01 7.158993e-01 6.216171e-01 5.759658e-01 3.514138e-01
<GCONST> 1.309281e+02
<TRANSP> 5
 0.000000e+00 1.000000e+00 0.000000e+00 0.000000e+00 0.000000e+00
 0.000000e+00 6.381184e-01 3.618815e-01 0.000000e+00 0.000000e+00
 0.000000e+00 0.000000e+00 7.687710e-01 2.312290e-01 0.000000e+00
 0.000000e+00 0.000000e+00 0.000000e+00 7.460949e-01 2.539051e-01
 0.000000e+00 0.000000e+00 0.000000e+00 0.000000e+00 0.000000e+00
<ENDHMM>
~h "l"
<BEGINHMM>
<NUMSTATES> 5
<STATE> 2
<MEAN> 39
 -4.143100e+00 -1.069447e+01 4.354341e-01 -7.321622e+00 -9.318668e+00 -6.925039e+00 -1.087162e+01 -2.988126e+00 -1.221965e+00 -3.397001e+00 -4.162690e+00 2.106783e+00 6.551012e+01 1.936050e-01 1.029017e+00 1.204138e+00 7.561066e-01 -3.554359e-03 -1.318197e+00 -1.444792e+00 -1.017415e+00 -1.633381e-01 -4.923737e-01 -3.859492e-01 3.177719e-01 -6.046294e-01 -1.595239e-01 -9.568909e-02 -7.430627e-02 -6.101874e-01 6.132063e-02 3.347987e-01 1.590126e-01 9.386593e-02 -2.962361e-01 9.754226e-02 -1.504939e-01 -1.942022e-01 4.612134e-01
<VARIANCE> 39
 3.462044e+01 5.019090e+01 6.407166e+01 8.280946e+01 6.961079e+01 9.350726e+01 9.553165e+01 8.046877e+01 7.740720e+01 6.868995e+01 6.421394e+01 5.289248e+01 7.270702e+01 1.404361e+00 2.772168e+00 3.615986e+00 5.376986e+00 5.322025e+00 6.829192e+00 6.693592e+00 5.751800e+00 6.389376e+00 5.736427e+00 4.523988e+00 3.912966e+00 3.108605e+00 2.129686e-01 5.816320e-01 5.504183e-01 1.005600e+00 9.906306e-01 1.444343e+00 1.302021e+00 1.231254e+00 1.113499e+00 1.163600e+00 8.614059e-01 7.208772e-01 4.131521e-01
<GCONST> 1.426665e+02
<STATE> 3
<MEAN> 39
 -4.037036e+00 -8.010746e+00 3.862000e+00 -8.447303e+00 -8.517353e+00 -9.548285e+00 -1.542604e+01 -5.053132e+00 -2.965176e+00 -5.079396e+00 -6.776863e+00 1.901681e+00 6.557272e+01 -2.668401e-01 -1.602131e-01 2.457713e-01 -1.162710e+00 -4.051703e-01 4.296499e-01 3.409441e-01 2.557105e-02 -4.657239e-01 7.074776e-01 -2.785875e-01 -5.020422e-01 9.208643e-01 -1.549989e-01 -6.370850e-01 -4.875364e-01 -7.109601e-01 -3.265170e-01 5.763485e-01 7.810443e-01 4.169106e-01 -1.426146e-01 3.524736e-01 1.198510e-02 -1.862257e-01 7.880172e-01
<VARIANCE> 39
 2.854591e+01 3.580030e+01 7.467745e+01 8.295422e+01 5.623942e+01 6.937912e+01 7.320551e+01 7.188656e+01 8.168747e+01 6.884504e+01 6.184652e+01 5.233684e+01 3.298079e+01 9.684777e-01 1.998671e+00 3.352450e+00 3.274155e+00 4.063807e+00 4.586626e+00 5.781435e+00 5.143166e+00 4.825072e+00 5.052538e+00 4.080358e+00 3.054435e+00 1.994735e+00 1.812401e-01 3.977661e-01 5.328126e-01 9.123899e-01 8.587759e-01 1.259087e+00 1.407171e+00 1.111163e+00 1.137516e+00 1.386621e+00 9.220094e-01 7.737017e-01 2.551931e-01
<GCONST> 1.360958e+02
<STATE> 4
<MEAN> 39
 -4.709223e+00 -1.024609e+01 3.319959e+00 -1.173563e+01 -1.132173e+01 -7.742111e+00 -1.105329e+01 -3.634670e+00 -4.383321e+00 -1.130597e+00 -5.325110e+00 9.491557e-02 6.922168e+01 -5.962179e-01 -1.052335e+00 -4.162182e-01 -2.345991e+00 -8.769622e-01 1.164409e+00 1.123974e+00 5.073123e-01 -6.098055e-01 8.754717e-01 -5.098467e-01 -3.842509e-01 2.214164e+00 -1.110912e-01 -9.404356e-02 -2.711259e-01 -8.873139e-02 2.447963e-01 3.340673e-01 3.105360e-02 2.554836e-02 2.069429e-03 -2.926490e-01 -1.788267e-01 1.055522e-01 1.018063e-01
<VARIANCE> 39
 2.810907e+01 3.543109e+01 8.271416e+01 6.172222e+01 6.756872e+01 6.084391e+01 6.382872e+01 6.682593e+01 7.332913e+01 4.862305e+01 4.658641e+01 4.082652e+01 3.617736e+01 1.292209e+00 2.900449e+00 4.479535e+00 4.751751e+00 5.724464e+00 6.828686e+00 7.962839e+00 6.782266e+00 6.287385e+00 7.716453e+00 4.851664e+00 4.139989e+00 1.802032e+00 1.431458e-01 3.883062e-01 3.888817e-01 6.751519e-01 6.895031e-01 9.102866e-01 1.092862e+00 8.756102e-01 9.294122e-01 8.085318e-01 6.922739e-01 5.385231e-01 2.537687e-01
<GCONST> 1.352411e+02
<TRANSP> 5
 0.000000e+00 1.000000e+00 0.000000e+00 0.000000e+00 0.000000e+00
 0.000000e+00 4.764602e-01 5.235398e-01 0.000000e+00 0.000000e+00
 0.000000e+00 0.000000e+00 4.505638e-01 5.494362e-01 0.000000e+00
 0.000000e+00 0.000000e+00 0.000000e+00 2.734325e-01 7.265675e-01
 0.000000e+00 0.000000e+00 0.000000e+00 0.000000e+00 0.000000e+00
<ENDHMM>
~h "m"
<BEGINHMM>
<NUMSTATES> 5
<STATE> 2
<MEAN> 39
 -2.821311e+00 -7.283938e+00 1.095160e+00 -5.600476e+00 -5.262866e+00 -3.910599e+00 -1.049104e+01 -4.306573e+00 -4.643576e+00 -1.262833e+00 -4.238524e+00 -1.523704e+00 6.099739e+01 3.078857e-01 9.421923e-01 1.247281e+00 1.663402e+00 -7.922537e-02 -1.049752e+00 -1.630037e+00 -1.948548e+00 -8.411440e-01 9.969461e-02 -9.622200e-01 -9.311169e-01 -1.199600e+00 -1.546805e-01 -3.388184e-01 -2.251963e-01 -5.822774e-01 -2.068786e-01 -4.748082e-02 1.060432e-02 1.270823e-01 -2.029088e-01 -1.432640e-01 -1.641453e-01 -1.024693e-01 6.211960e-01
<VARIANCE> 39
 2.833916e+01 3.762685e+01 3.639721e+01 5.983522e+01 5.082937e+01 5.786204e+01 6.870711e+01 6.392091e+01 6.528382e+01 4.931538e+01 5.569766e+01 6.411974e+01 5.133142e+01 2.040135e+00 2.258423e+00 4.368262e+00 5.436661e+00 4.377998e+00 4.541668e+00 5.232828e+00 4.847350e+00 5.365107e+00 5.075907e+00 4.676699e+00 4.320026e+00 4.279072e+00 2.973171e-01 3.575698e-01 6.848291e-01 7.160226e-01 5.990434e-01 6.721210e-01 8.607395e-01 1.038357e+00 8.222798e-01 7.402756e-01 6.682374e-01 6.629812e-01 3.341679e-01
<GCONST> 1.352050e+02
<STATE> 3
<MEAN> 39
 -2.004144e+00 -6.715644e+00 3.040499e+00 -4.588021e+00 -6.653862e+00 -6.860874e+00 -1.499454e+01 -8.259431e+00 -7.952088e+00 -2.148896e+00 -8.283456e+00 -5.692226e+00 6.112629e+01 8.028407e-02 -3.455616e-01 -2.372743e-01 -5.243377e-01 -5.278983e-01 -2.850264e-01 -1.494693e-02 2.793126e-01 -4.819650e-02 -1.936591e-01 -1.533512e-01 -3.007007e-01 6.883234e-01 -8.160736e-02 -4.237316e-01 -4.041276e-01 -1.024152e+00 -2.286284e-01 3.661299e-01 5.594889e-01 7.511598e-01 2.426960e-01 -1.468999e-01 2.889367e-01 3.753679e-01 8.117712e-01
<VARIANCE> 39
 1.492827e+01 2.780306e+01 2.635160e+01 4.045571e+01 4.594178e+01 5.687984e+01 4.449643e+01 5.248137e+01 6.117191e+01 5.679457e+01 5.243714e+01 5.419550e+01 1.551576e+01 6.403667e-01 1.375651e+00 2.426825e+00 2.821959e+00 2.173773e+00 2.674013e+00 2.931811e+00 3.500819e+00 3.104695e+00 3.097686e+00 3.006162e+00 2.858807e+00 1.790918e+00 2.477964e-01 3.083793e-01 8.924299e-01 6.194859e-01 5.753065e-01 7.015448e-01 7.778360e-01 8.926980e-01 7.714165e-01 9.458455e-01 7.848040e-01 7.681676e-01 2.797885e-01
<GCONST> 1.235007e+02
<STATE> 4
<MEAN> 39
 -1.773890e+00 -9.007761e+00 1.582317e+00 -8.340719e+00 -9.977032e+00 -6.796946e+00 -1.249976e+01 -4.910977e+00 -6.307487e+00 -2.709814e+00 -6.344640e+00 -4.343225e+00 6.526044e+01 -6.641021e-01 -1.104414e+00 -3.286234e-01 -3.680000e+00 -1.147579e+00 1.111803e+00 1.044985e+00 1.578475e+00 2.338707e-01 -3.523594e-01 1.539410e-01 8.032927e-01 2.733955e+00 -3.822205e-01 1.782789e-01 5.870262e-02 -5.739270e-01 3.311394e-01 4.969527e-01 1.189850e-01 6.261722e-02 -1.565449e-01 6.705597e-02 -9.189851e-02 1.492870e-01 1.357172e-01
<VARIANCE> 39
 1.898599e+01 2.734709e+01 5.336298e+01 4.737074e+01 5.030930e+01 4.469278e+01 3.930777e+01 4.577248e+01 4.396659e+01 3.797544e+01 3.912373e+01 4.317301e+01 2.668832e+01 2.488851e+00 3.102123e+00 1.077396e+01 4.385542e+00 5.249504e+00 5.104691e+00 5.621521e+00 6.835599e+00 4.670856e+00 6.453286e+00 4.901858e+00 4.570520e+00 1.797076e+00 1.882174e-01 3.981921e-01 5.666741e-01 8.411262e-01 6.330807e-01 5.626513e-01 7.248071e-01 6.776133e-01 6.501845e-01 6.262689e-01 5.672951e-01 5.264417e-01 2.758062e-01
<GCONST> 1.305818e+02
<TRANSP> 5
 0.000000e+00 1.000000e+00 0.000000e+00 0.000000e+00 0.000000e+00
 0.000000e+00 4.586660e-01 5.413340e-01 0.000000e+00 0.000000e+00
 0.000000e+00 0.000000e+00 6.495291e-01 3.504709e-01 0.000000e+00
 0.000000e+00 0.000000e+00 0.000000e+00 4.241584e-01 5.758417e-01
 0.000000e+00 0.000000e+00 0.000000e+00 0.000000e+00 0.000000e+00
<ENDHMM>
~h "n"
<BEGINHMM>
<NUMSTATES> 5
<STATE> 2
<MEAN> 39
 -5.129605e+00 -6.520673e+00 1.700269e+00 -6.526224e+00 -7.733901e+00 -6.611383e+00 -7.749744e+00 -2.432428e+00 -3.275209e+00 -2.222380e+00 -3.868809e+00 1.004050e+00 6.125968e+01 8.506172e-01 1.124484e+00 1.297026e+00 1.154330e+00 -1.165281e+00 -4.175716e-01 -1.050742e+00 -1.546350e+00 6.018244e-04 -6.380113e-01 -5.772359e-01 -3.001725e-01 -1.345712e+00 -7.751018e-02 -1.793820e-01 -1.996638e-01 -4.997975e-01 -3.008866e-02 1.500095e-01 -1.640832e-01 -9.569064e-03 -1.414927e-01 -7.553473e-02 -1.715444e-01 -1.361577e-01 5.494139e-01
<VARIANCE> 39
 3.064240e+01 3.746110e+01 4.326574e+01 6.394162e+01 6.299964e+01 6.922857e+01 8.070248e+01 6.199365e+01 6.955165e+01 5.191068e+01 6.747426e+01 5.646013e+01 7.011462e+01 1.688057e+00 2.123572e+00 4.299232e+00 4.701057e+00 4.908199e+00 4.974187e+00 5.792165e+00 4.797233e+00 5.330239e+00 4.744736e+00 4.311293e+00 3.688538e+00 4.673534e+00 3.229153e-01 4.045055e-01 6.881996e-01 7.111503e-01 7.702559e-01 9.041300e-01 8.756061e-01 8.773127e-01 8.428136e-01 7.565908e-01 6.903970e-01 5.968584e-01 5.520544e-01
<GCONST> 1.372689e+02
<STATE> 3
<MEAN> 39
 -1.999013e+00 -4.640243e+00 4.568676e+00 -5.449841e+00 -1.204421e+01 -8.122126e+00 -1.200485e+01 -7.207021e+00 -3.647941e+00 -4.913239e+00 -7.373394e+00 -1.620211e+00 6.029748e+01 -2.512220e-01 6.411374e-02 -1.214189e-01 -6.680593e-01 -8.968329e-02 -1.711926e-01 -3.060042e-01 8.325810e-02 -9.380889e-02 -4.842869e-02 -4.496129e-01 -2.080031e-01 8.410165e-01 -5.034804e-01 -4.972741e-01 -5.268704e-01 -1.045020e+00 5.156975e-01 1.705500e-01 3.307987e-01 7.659664e-01 -3.073809e-01 2.566889e-01 1.020635e-01 1.045690e-01 1.104475e+00
<VARIANCE> 39
 1.746487e+01 2.897861e+01 2.424674e+01 3.473984e+01 3.695324e+01 3.789569e+01 4.640826e+01 4.607363e+01 5.870865e+01 4.964547e+01 5.640557e+01 5.109328e+01 1.666991e+01 1.358493e+00 1.910061e+00 3.378769e+00 4.152472e+00 3.504705e+00 3.559616e+00 4.166677e+00 4.045186e+00 3.474509e+00 3.519965e+00 3.241096e+00 2.668161e+00 3.215844e+00 2.730108e-01 4.169087e-01 1.199273e+00 7.458608e-01 8.628486e-01 8.277088e-01 1.012584e+00 8.361601e-01 7.779461e-01 8.239408e-01 7.010522e-01 6.207159e-01 3.439514e-01
<GCONST> 1.279504e+02
<STATE> 4
<MEAN> 39
 -5.205297e+00 -5.470971e+00 2.284524e+00 -1.081551e+01 -9.332425e+00 -8.386619e+00 -1.159616e+01 -3.640563e+00 -4.488961e+00 -3.593020e+00 -7.486992e+00 -1.301901e+00 6.599297e+01 -1.183848e+00 -1.296364e+00 -1.167462e+00 -3.147894e+00 1.084223e+00 6.893634e-01 2.524969e-01 1.697178e+00 -1.055940e+00 3.559663e-01 -1.912561e-01 4.689495e-02 3.203331e+00 6.287266e-04 -3.927879e-01 -1.007230e-01 -1.234192e-01 8.591637e-02 4.983918e-01 1.745607e-01 3.997152e-02 -2.144735e-01 -3.800394e-03 1.135040e-01 1.898714e-02 1.172951e-01
<VARIANCE> 39
 2.407597e+01 3.991860e+01 4.648750e+01 5.978754e+01 4.303113e+01 4.842897e+01 4.962294e+01 5.901833e+01 4.836934e+01 4.284668e+01 4.519779e+01 4.685756e+01 2.868476e+01 1.767485e+00 4.191556e+00 1.021790e+01 4.747705e+00 6.140824e+00 4.972267e+00 7.282716e+00 5.664171e+00 4.861943e+00 5.238047e+00 4.122762e+00 3.908191e+00 1.973720e+00 2.473471e-01 4.100671e-01 5.983603e-01 7.242845e-01 7.334223e-01 6.933450e-01 7.515287e-01 7.877455e-01 6.568607e-01 6.196797e-01 5.593515e-01 5.192640e-01 3.906700e-01
<GCONST> 1.330704e+02
<TRANSP> 5
 0.000000e+00 1.000000e+00 0.000000e+00 0.000000e+00 0.000000e+00
 0.000000e+00 4.398817e-01 5.601183e-01 0.000000e+00 0.000000e+00
 0.000000e+00 0.000000e+00 6.041330e-01 3.958671e-01 0.000000e+00
 0.000000e+00 0.000000e+00 0.000000e+00 4.222164e-01 5.777836e-01
 0.000000e+00 0.000000e+00 0.000000e+00 0.000000e+00 0.000000e+00
<ENDHMM>
~h "o"
<BEGINHMM>
<NUMSTATES> 5
<STATE> 2
<MEAN> 39
 2.108810e+00 -1.908331e+00 -8.973974e+00 -2.329138e+01 -6.528446e+00 -5.898913e-01 -8.946313e+00 1.536724e+00 -9.562658e+00 -3.881214e+00 -4.196021e+00 8.871719e-01 6.690373e+01 6.328029e-01 2.539984e-02 -2.062410e+00 -4.599973e+00 1.062774e-01 3.861349e-01 -1.353611e+00 4.902255e-01 -1.300818e+00 -4.366180e-01 -2.508492e-01 4.493108e-01 1.177256e+00 -6.803243e-01 -5.974193e-01 3.719331e-01 1.113660e+00 6.361988e-01 2.504080e-01 1.698934e-01 -2.467153e-01 4.656165e-01 2.524889e-01 1.535053e-01 -1.633658e-01 -3.283501e-02
<VARIANCE> 39
 1.982967e+01 2.554352e+01 3.421410e+01 6.385804e+01 4.771043e+01 4.383508e+01 4.051216e+01 5.409649e+01 4.356225e+01 3.708601e+01 3.888999e+01 4.945515e+01 2.526012e+01 2.394975e+00 3.086123e+00 2.793153e+00 7.542283e+00 5.222132e+00 3.996176e+00 5.758148e+00 4.912626e+00 4.185923e+00 3.840909e+00 3.805576e+00 3.751805e+00 1.467251e+00 2.284333e-01 3.244497e-01 3.960174e-01 1.161704e+00 5.738011e-01 5.936916e-01 8.019706e-01 8.833712e-01 8.808113e-01 7.801172e-01 6.338750e-01 6.945505e-01 3.121403e-01
<GCONST> 1.291987e+02
<STATE> 3
<MEAN> 39
 4.747875e-01 -5.729871e+00 -1.277212e+01 -2.802737e+01 -1.738757e+00 3.482950e+00 -9.721695e+00 1.168276e+00 -9.640266e+00 -3.863625e+00 -2.160747e+00 -5.825267e-01 6.980029e+01 -3.634677e-01 -9.834842e-01 -3.590233e-01 2.873155e-01 9.423335e-01 4.124212e-01 -2.636066e-01 -5.518522e-01 5.505141e-01 4.295956e-01 1.608253e-01 -5.157843e-01 5.341083e-01 -3.347907e-02 -1.685167e-02 2.423450e-01 5.550537e-01 -1.215232e-01 -2.099109e-01 -3.826306e-03 -8.616325e-02 2.959902e-01 5.649619e-02 -2.033346e-01 -1.315439e-01 -1.460088e-01
<VARIANCE> 39
 2.152884e+01 3.167200e+01 3.261428e+01 3.947561e+01 6.028185e+01 5.809293e+01 4.898953e+01 5.726596e+01 5.564766e+01 4.183430e+01 4.376283e+01 5.065777e+01 2.749439e+01 3.950433e-01 1.015724e+00 7.853804e-01 1.780245e+00 1.634610e+00 1.652141e+00 1.960987e+00 2.012130e+00 2.456034e+00 2.334417e+00 2.551941e+00 2.428889e+00 6.477730e-01 7.640399e-02 1.524418e-01 2.118878e-01 4.593986e-01 3.196177e-01 3.297236e-01 3.659315e-01 3.512231e-01 4.699260e-01 4.134764e-01 5.135320e-01 4.385579e-01 7.667276e-02
<GCONST> 1.083767e+02
<STATE> 4
<MEAN> 39
 -2.359818e+00 -1.237711e+01 -1.262529e+01 -2.097122e+01 9.222145e-01 -1.547304e-01 -1.350049e+01 -1.844564e+00 -2.786396e+00 -1.379523e+00 -6.896724e+00 -3.535457e+00 7.264024e+01 -4.097833e-01 -2.680167e-01 1.277001e+00 2.548280e+00 -1.021056e+00 -1.714857e+00 -4.690573e-02 2.520561e-01 1.441728e+00 -4.940134e-01 -1.207359e+00 2.472821e-01 -5.827086e-01 -4.263648e-02 5.538331e-01 5.147344e-01 4.774933e-01 -4.023380e-01 -1.279413e-01 5.716206e-01 1.817812e-01 -4.063769e-01 -2.482931e-01 4.218049e-01 5.124678e-01 -5.746610e-01
<VARIANCE> 39
 2.168880e+01 3.014445e+01 2.738016e+01 4.993974e+01 5.263710e+01 8.040484e+01 5.524901e+01 5.627314e+01 7.348878e+01 5.240021e+01 5.536768e+01 5.055352e+01 4.017181e+01 9.850475e-01 2.698483e+00 1.979111e+00 3.236295e+00 3.895009e+00 4.038770e+00 3.872435e+00 3.932853e+00 5.229254e+00 4.971268e+00 4.838641e+00 4.947189e+00 2.441590e+00 2.432980e-01 3.521018e-01 3.115152e-01 5.942789e-01 7.762094e-01 9.685903e-01 7.302277e-01 8.575132e-01 1.014733e+00 1.030676e+00 1.037495e+00 8.071140e-01 1.959971e-01
<GCONST> 1.306394e+02
<TRANSP> 5
 0.000000e+00 1.000000e+00 0.000000e+00 0.000000e+00 0.000000e+00
 0.000000e+00 6.573007e-01 3.426992e-01 0.000000e+00 0.000000e+00
 0.000000e+00 0.000000e+00 8.316359e-01 1.683641e-01 0.000000e+00
 0.000000e+00 0.000000e+00 0.000000e+00 6.955908e-01 3.044092e-01
 0.000000e+00 0.000000e+00 0.000000e+00 0.000000e+00 0.000000e+00
<ENDHMM>
~h "p"
<BEGINHMM>
<NUMSTATES> 5
<STATE> 2
<MEAN> 39
 -2.459015e+00 -4.586059e+00 1.849355e+00 -3.993906e+00 -4.547968e+00 -2.730948e+00 -7.586509e+00 -5.095445e+00 -4.070821e+00 -2.257431e+00 -4.148394e+00 -1.376436e+00 5.963635e+01 -9.129800e-01 1.051375e+00 7.158812e-01 2.427217e+00 1.348254e+00 1.133598e+00 1.854174e+00 7.509729e-01 1.193312e+00 5.546048e-01 9.669992e-01 3.223145e-01 -1.833896e+00 -4.892094e-01 -5.186785e-01 -9.750129e-02 -3.574148e-01 5.220400e-02 2.833082e-01 4.829290e-01 6.222726e-01 2.989940e-01 2.467708e-01 2.753015e-01 1.972194e-01 8.768836e-01
<VARIANCE> 39
 2.930560e+01 3.881970e+01 4.643604e+01 5.879188e+01 4.928629e+01 5.023567e+01 5.557546e+01 5.159423e+01 5.086120e+01 4.347108e+01 4.228677e+01 4.408163e+01 6.337049e+01 3.227677e+00 4.067696e+00 4.565992e+00 6.014246e+00 4.413488e+00 4.636604e+00 5.590934e+00 6.508893e+00 5.125733e+00 4.633552e+00 4.386991e+00 3.999898e+00 7.733437e+00 5.276467e-01 6.914170e-01 7.878885e-01 1.058881e+00 8.646933e-01 7.612225e-01 9.420700e-01 1.050999e+00 8.893850e-01 8.675234e-01 7.871494e-01 7.301574e-01 1.393576e+00
<GCONST> 1.402619e+02
<STATE> 3
<MEAN> 39
 -7.755256e+00 -5.403211e+00 3.080642e+00 6.969798e-01 -1.154583e+00 1.904809e+00 1.562712e+00 2.224587e+00 2.675581e+00 2.480439e+00 1.541095e+00 1.726363e+00 6.101509e+01 -7.461646e-01 -7.375003e-01 6.766319e-01 3.598347e-03 6.396037e-01 9.582212e-01 9.394488e-01 6.819994e-01 2.919940e-01 -1.634435e-02 4.179746e-01 3.410339e-01 3.005272e+00 7.434466e-02 -1.412672e-01 -1.102893e-01 -6.156333e-01 -5.251599e-02 -5.252215e-02 -5.956343e-01 -4.897971e-01 -4.998453e-01 -4.233887e-01 -3.833835e-01 -1.202108e-01 4.264298e-01
<VARIANCE> 39
 3.521251e+01 2.810125e+01 3.701974e+01 2.300919e+01 3.035489e+01 2.562400e+01 2.586015e+01 2.814162e+01 3.069203e+01 2.833970e+01 2.386362e+01 2.038748e+01 9.623624e+01 4.343712e+00 4.028398e+00 5.505200e+00 3.729722e+00 4.773026e+00 4.120842e+00 4.367335e+00 4.897873e+00 5.011316e+00 4.508438e+00 4.008009e+00 3.218370e+00 7.945014e+00 7.864119e-01 8.066674e-01 9.466308e-01 8.316795e-01 8.401774e-01 7.458884e-01 7.958503e-01 8.335267e-01 8.363860e-01 7.432768e-01 6.633611e-01 5.852334e-01 2.421220e+00
<GCONST> 1.336547e+02
<STATE> 4
<MEAN> 39
 -1.233871e+01 -7.111577e+00 3.667490e+00 -3.544109e+00 2.558879e+00 5.272679e+00 -3.341876e-01 4.833236e-01 5.119781e-01 -7.190982e-01 5.129545e-01 1.556408e+00 6.943082e+01 1.218335e-01 3.309377e-02 -6.986440e-01 -1.423189e+00 -4.892651e-01 -4.118210e-01 -1.400665e+00 -1.001243e+00 -1.024289e+00 -7.414876e-01 -6.240698e-01 -1.172359e-01 1.973084e-01 5.389401e-01 8.567457e-02 -1.754035e-01 -3.440222e-01 -7.032059e-01 -5.153129e-01 -4.623086e-01 -2.976241e-01 -3.381310e-01 -1.870873e-02 -2.869898e-01 -8.927030e-02 -3.056419e-01
<VARIANCE> 39
 5.263017e+01 8.044468e+01 6.667350e+01 4.213028e+01 6.096900e+01 3.512989e+01 3.804705e+01 3.373528e+01 3.392582e+01 3.341151e+01 2.411865e+01 2.193124e+01 3.192190e+01 4.426199e+00 4.554423e+00 3.915766e+00 4.220603e+00 6.485608e+00 4.338388e+00 4.205717e+00 4.398561e+00 3.884653e+00 3.321248e+00 3.150781e+00 2.672703e+00 2.289258e+00 6.097130e-01 7.444080e-01 8.570089e-01 8.300860e-01 9.334475e-01 7.621574e-01 8.338444e-01 8.486497e-01 7.250050e-01 6.734072e-01 6.180871e-01 5.580740e-01 6.987771e-01
<GCONST> 1.331859e+02
<TRANSP> 5
 0.000000e+00 1.000000e+00 0.000000e+00 0.000000e+00 0.000000e+00
 0.000000e+00 6.247528e-01 3.752472e-01 0.000000e+00 0.000000e+00
 0.000000e+00 0.000000e+00 7.237746e-01 2.762254e-01 0.000000e+00
 0.000000e+00 0.000000e+00 0.000000e+00 7.838423e-01 2.161577e-01
 0.000000e+00 0.000000e+00 0.000000e+00 0.000000e+00 0.000000e+00
<ENDHMM>
~h "q"
<BEGINHMM>
<NUMSTATES> 5
<STATE> 2
<MEAN> 39
 -8.581246e+00 -1.191245e+00 2.053451e+00 -3.773223e+00 -7.302495e+00 -5.650136e+00 -6.449938e+00 -4.851144e+00 -4.088962e+00 -2.862392e+00 -3.688546e+00 -2.933193e-01 6.179750e+01 -2.650586e+00 1.792969e+00 -4.933157e-01 2.001599e+00 2.016354e+00 1.719480e+00 2.070203e+00 1.062478e+00 1.250491e+00 9.178893e-01 1.241126e+00 9.285678e-02 -1.136176e+00 -7.189760e-01 -3.327116e-01 -3.551788e-01 -4.769306e-01 3.123422e-01 4.446089e-01 2.885144e-01 5.058619e-01 3.611220e-01 5.492046e-01 1.723468e-01 1.363707e-01 6.750278e-01
<VARIANCE> 39
 4.224877e+01 4.576769e+01 4.114237e+01 4.727934e+01 5.512514e+01 5.126907e+01 5.454929e+01 5.238196e+01 4.750520e+01 3.922733e+01 3.937184e+01 3.853949e+01 5.290925e+01 4.556327e+00 5.002578e+00 4.810876e+00 4.990602e+00 5.398221e+00 5.201456e+00 5.962810e+00 6.290361e+00 5.627209e+00 5.531021e+00 4.208457e+00 3.978632e+00 5.037352e+00 6.465016e-01 7.634665e-01 7.428713e-01 8.778218e-01 1.149267e+00 1.025460e+00 1.059824e+00 9.431861e-01 9.114351e-01 8.625079e-01 7.500709e-01 7.303426e-01 7.534454e-01
<GCONST> 1.405875e+02
<STATE> 3
<MEAN> 39
 -2.251631e+01 1.877819e+00 -1.802016e+00 -1.555766e+00 -2.320255e-01 1.946777e+00 1.182187e+00 1.787163e+00 3.119596e+00 3.914191e+00 1.616048e+00 1.995452e+00 6.408446e+01 -1.637182e+00 2.955889e-01 4.316362e-01 -7.535537e-01 3.661190e-01 8.624191e-01 4.191463e-01 3.031577e-01 4.138107e-01 5.005871e-01 2.821424e-01 3.671151e-02 2.002183e+00 8.653161e-01 -2.302625e-01 5.738557e-01 -2.742236e-01 -5.599161e-01 -2.988839e-01 -4.608546e-01 -4.918710e-01 -4.507267e-01 -4.241949e-01 -3.180858e-01 -1.699666e-01 1.438338e-01
<VARIANCE> 39
 3.469639e+01 3.415456e+01 3.313169e+01 3.659820e+01 2.953489e+01 2.488167e+01 2.591658e+01 2.458397e+01 2.587373e+01 2.125163e+01 2.026242e+01 1.710901e+01 4.097096e+01 4.257640e+00 3.086128e+00 3.494791e+00 2.361343e+00 2.847054e+00 2.780924e+00 3.020003e+00 3.134971e+00 3.104642e+00 3.009879e+00 2.607384e+00 2.119603e+00 2.036779e+00 6.084631e-01 5.696067e-01 4.680050e-01 6.318253e-01 6.362673e-01 5.674958e-01 6.336471e-01 6.124468e-01 5.935445e-01 5.314403e-01 5.021163e-01 4.276506e-01 6.237170e-01
<GCONST> 1.210341e+02
<STATE> 4
<MEAN> 39
 -1.999377e+01 1.030907e+00 6.719181e+00 -5.357231e+00 -3.781474e+00 3.878466e+00 4.604027e-02 -1.175204e+00 7.309383e-01 2.319106e+00 3.175459e-01 2.173460e-01 7.170190e+01 1.871585e+00 -7.056763e-01 1.381855e+00 -6.825525e-01 -1.706164e+00 -7.179852e-01 -9.423006e-01 -1.121522e+00 -1.023893e+00 -5.666991e-01 -4.659702e-01 -4.402044e-02 1.405535e-01 4.211612e-01 -1.869909e-01 -1.417549e-01 -2.387038e-01 -3.422038e-01 -4.963154e-01 -4.102458e-01 -1.935940e-01 -3.439659e-01 -9.364462e-02 -2.397794e-01 8.112457e-02 -2.662416e-01
<VARIANCE> 39
 4.606239e+01 4.428358e+01 3.450145e+01 2.641696e+01 3.522200e+01 2.315524e+01 2.767196e+01 2.601566e+01 2.663968e+01 2.337089e+01 1.956006e+01 1.634122e+01 2.608158e+01 2.565007e+00 1.993225e+00 2.147184e+00 3.231062e+00 3.201243e+00 3.791492e+00 4.054060e+00 3.459329e+00 3.232203e+00 2.507857e+00 2.515029e+00 2.275313e+00 1.456793e+00 4.539151e-01 4.090318e-01 4.663087e-01 5.515170e-01 5.452148e-01 5.559716e-01 6.733889e-01 6.516764e-01 6.376165e-01 5.345340e-01 5.361615e-01 4.434645e-01 2.628167e-01
<GCONST> 1.188689e+02
<TRANSP> 5
 0.000000e+00 1.000000e+00 0.000000e+00 0.000000e+00 0.000000e+00
 0.000000e+00 7.059493e-01 2.940507e-01 0.000000e+00 0.000000e+00
 0.000000e+00 0.000000e+00 7.735023e-01 2.264977e-01 0.000000e+00
 0.000000e+00 0.000000e+00 0.000000e+00 8.132126e-01 1.867874e-01
 0.000000e+00 0.000000e+00 0.000000e+00 0.000000e+00 0.000000e+00
<ENDHMM>
~h "r"
<BEGINHMM>
<NUMSTATES> 5
<STATE> 2
<MEAN> 39
 -3.210556e+00 -1.323322e+01 1.662194e+00 -3.859000e+00 -1.413286e+01 -7.986344e+00 -1.043848e+01 -1.628523e+00 -4.673711e+00 -2.857879e+00 -2.870960e+00 1.034581e+00 6.643518e+01 3.769000e-01 -3.396485e-01 6.805562e-01 7.089328e-01 -1.208107e+00 -1.445474e+00 -1.700644e-01 3.179915e-02 -7.833083e-01 -5.184528e-01 2.885844e-01 2.045800e-01 4.014850e-01 -7.313821e-02 -6.974665e-02 -1.709867e-01 -5.738173e-01 1.799946e-01 2.780294e-01 1.126461e-01 1.465736e-01 -6.229215e-02 1.269092e-01 -8.316822e-02 -8.612899e-02 2.644254e-01
<VARIANCE> 39
 4.475989e+01 4.907104e+01 7.467643e+01 7.510970e+01 7.570628e+01 7.784774e+01 9.076279e+01 6.732316e+01 7.169781e+01 6.593974e+01 5.683405e+01 4.688799e+01 6.196064e+01 1.760488e+00 2.448082e+00 3.111940e+00 6.844473e+00 5.409259e+00 5.884365e+00 6.185727e+00 5.998881e+00 5.435086e+00 5.257175e+00 4.211236e+00 3.938801e+00 3.511658e+00 3.236252e-01 4.082708e-01 4.381940e-01 8.489580e-01 1.044107e+00 1.175338e+00 9.372028e-01 9.821478e-01 9.599418e-01 1.021239e+00 7.468361e-01 7.090839e-01 3.028610e-01
<GCONST> 1.401488e+02
<STATE> 3
<MEAN> 39
 -2.655698e+00 -1.555317e+01 6.223495e+00 -7.984945e+00 -1.974643e+01 -1.073831e+01 -7.980541e+00 -5.801108e-01 -8.660322e+00 -2.470292e+00 -1.396268e+00 6.325960e-03 6.960983e+01 -1.029561e-01 -4.697785e-01 -4.743236e-01 -1.100283e+00 1.476950e-01 3.001680e-01 4.375832e-01 1.004051e+00 9.288488e-02 2.084607e-01 -3.941846e-01 -3.397815e-01 8.216175e-01 -1.141468e-01 2.365350e-02 -3.460675e-01 -2.886449e-01 4.326063e-01 2.670306e-01 9.084795e-02 9.053785e-02 1.320364e-01 -6.956747e-02 -3.331671e-01 -7.572827e-02 1.353875e-01
<VARIANCE> 39
 2.850224e+01 2.958485e+01 4.316132e+01 7.057423e+01 4.993974e+01 5.630846e+01 5.727031e+01 6.604913e+01 5.850710e+01 5.611000e+01 4.567181e+01 4.684130e+01 2.930376e+01 8.660027e-01 1.379505e+00 2.372084e+00 3.213114e+00 2.553290e+00 2.611515e+00 3.061649e+00 3.585189e+00 2.798929e+00 3.050520e+00 2.883673e+00 2.427261e+00 1.090028e+00 1.215971e-01 2.203207e-01 2.306359e-01 5.291062e-01 4.655003e-01 5.021338e-01 5.026573e-01 6.449762e-01 5.347049e-01 5.890554e-01 4.715451e-01 4.360110e-01 1.631796e-01
<GCONST> 1.195837e+02
<STATE> 4
<MEAN> 39
 -3.964125e+00 -1.559635e+01 1.628464e+00 -1.116869e+01 -1.553699e+01 -7.915994e+00 -5.130803e+00 3.699041e+00 -6.891570e+00 -3.748624e+00 -4.819470e+00 -1.006263e+00 7.246797e+01 -2.461419e-01 1.783214e-01 -7.434263e-01 -5.108919e-01 9.255878e-01 3.677120e-01 2.462064e-01 9.488933e-02 -8.505348e-02 -2.676230e-01 -5.444586e-01 -5.987331e-02 2.951578e-01 3.903289e-02 1.840746e-01 6.080303e-02 1.372616e-01 6.099454e-02 -2.301562e-02 -2.392724e-01 -2.890012e-01 -6.392903e-02 1.270119e-02 1.127052e-01 1.096759e-01 -2.085873e-01
<VARIANCE> 39
 2.870584e+01 3.094514e+01 4.057008e+01 6.567134e+01 4.528240e+01 5.033969e+01 7.724895e+01 6.865327e+01 5.430910e+01 4.236309e+01 4.089481e+01 3.668332e+01 3.353976e+01 6.672247e-01 1.182388e+00 1.692101e+00 2.465944e+00 2.405365e+00 2.530988e+00 2.830369e+00 2.463066e+00 2.463469e+00 2.761953e+00 2.379877e+00 1.904125e+00 7.880865e-01 1.007570e-01 1.380348e-01 1.668892e-01 3.959814e-01 3.643588e-01 4.051316e-01 4.005634e-01 4.683324e-01 3.829031e-01 3.827976e-01 3.425861e-01 3.416502e-01 8.415326e-02
<GCONST> 1.122398e+02
<TRANSP> 5
 0.000000e+00 1.000000e+00 0.000000e+00 0.000000e+00 0.000000e+00
 0.000000e+00 6.617181e-01 3.382819e-01 0.000000e+00 0.000000e+00
 0.000000e+00 0.000000e+00 6.583826e-01 3.416174e-01 0.000000e+00
 0.000000e+00 0.000000e+00 0.000000e+00 6.307063e-01 3.692937e-01
 0.000000e+00 0.000000e+00 0.000000e+00 0.000000e+00 0.000000e+00
<ENDHMM>
~h "s"
<BEGINHMM>
<NUMSTATES> 5
<STATE> 2
<MEAN> 39
 -9.374250e+00 -5.540113e-01 -2.887444e+00 -3.289804e+00 -5.801856e+00 -7.399318e+00 -6.144332e+00 -3.612789e+00 -5.129551e+00 -4.210670e+00 -2.935640e+00 3.521582e-01 6.696085e+01 -2.987891e+00 2.386412e+00 -4.866012e-02 3.333516e+00 1.387135e+00 1.423105e+00 2.088248e+00 6.239498e-01 1.121622e+00 9.027481e-01 1.070019e+00 5.635994e-02 -4.645291e-01 -5.360782e-01 -4.699550e-01 -6.353627e-02 -1.876234e-01 1.462299e-01 5.868098e-01 3.564107e-01 5.658019e-01 3.185339e-01 5.570979e-01 1.298507e-01 9.351096e-02 8.701190e-02
<VARIANCE> 39
 4.669975e+01 4.486673e+01 4.339996e+01 6.559976e+01 6.275018e+01 5.915642e+01 6.333154e+01 4.767572e+01 4.891266e+01 4.369616e+01 3.703905e+01 3.586380e+01 3.748227e+01 3.530928e+00 4.735218e+00 4.091178e+00 5.043014e+00 5.165672e+00 7.027456e+00 5.934561e+00 6.498508e+00 4.944344e+00 5.498427e+00 3.960181e+00 3.631381e+00 1.746641e+00 6.734655e-01 8.374038e-01 5.053549e-01 1.050236e+00 7.510296e-01 9.000157e-01 9.852463e-01 7.860832e-01 7.205836e-01 7.849689e-01 6.381363e-01 6.233020e-01 1.553698e-01
<GCONST> 1.364005e+02
<STATE> 3
<MEAN> 39
 -2.155821e+01 1.201231e+00 -3.866857e+00 3.441786e+00 -9.418650e-01 8.232915e-02 2.014759e+00 3.025292e+00 1.056184e+00 2.728576e+00 1.702496e+00 2.373736e+00 6.511990e+01 -8.616378e-01 -4.195795e-01 -2.047364e-01 1.392984e-01 3.199754e-01 6.375408e-01 4.310629e-01 8.166118e-01 6.010443e-01 6.544584e-01 3.816992e-01 2.976548e-01 -1.414868e-01 8.779564e-01 -2.502804e-01 1.273929e-01 -5.889564e-01 -3.281179e-01 -5.632164e-01 -5.953808e-01 -3.726617e-01 -3.506262e-01 -4.190054e-01 -2.879528e-01 -8.023216e-02 1.835601e-01
<VARIANCE> 39
 2.411852e+01 2.940517e+01 2.537507e+01 3.246082e+01 3.737377e+01 3.606255e+01 3.380504e+01 2.803166e+01 2.698186e+01 2.443636e+01 2.137810e+01 1.770462e+01 2.597655e+01 2.425776e+00 1.297637e+00 1.575324e+00 1.751860e+00 1.881051e+00 2.649367e+00 2.693542e+00 2.720709e+00 2.573640e+00 2.722869e+00 2.139071e+00 1.867770e+00 7.965038e-01 3.254069e-01 3.920052e-01 3.307961e-01 5.071869e-01 4.392445e-01 5.746124e-01 6.008683e-01 5.405245e-01 4.969425e-01 5.255687e-01 4.561854e-01 4.172809e-01 1.795504e-01
<GCONST> 1.124999e+02
<STATE> 4
<MEAN> 39
 -1.714903e+01 4.080264e-02 -2.462672e+00 9.365312e-01 -1.745196e+00 -2.118572e+00 -2.002796e-01 2.762440e+00 1.020575e-01 1.605303e+00 7.397662e-01 2.094078e+00 6.662772e+01 3.075201e+00 -1.301654e+00 -8.888716e-02 -2.536931e+00 -1.016455e+00 -1.978037e+00 -2.206168e+00 -7.478161e-01 -7.518698e-01 -1.080746e+00 -9.552747e-01 1.078547e-01 1.466976e+00 5.776896e-01 -6.227705e-01 -2.926565e-01 -8.760950e-01 -1.628170e-01 -2.213082e-01 -5.647255e-01 -1.828095e-01 -2.771884e-01 -3.020284e-01 -3.341804e-01 3.654098e-02 3.231196e-01
<VARIANCE> 39
 4.939231e+01 2.967730e+01 2.786185e+01 3.665565e+01 3.993434e+01 4.485331e+01 3.758947e+01 2.936793e+01 2.890315e+01 2.582760e+01 2.315712e+01 1.957749e+01 3.110169e+01 5.500721e+00 4.554015e+00 2.586926e+00 5.701581e+00 3.179528e+00 4.943043e+00 6.380370e+00 4.102346e+00 3.090874e+00 3.620617e+00 4.006444e+00 3.556096e+00 1.860965e+00 8.904158e-01 6.242242e-01 4.197525e-01 6.730523e-01 6.501555e-01 9.375404e-01 9.094446e-01 7.780890e-01 6.364145e-01 6.536341e-01 6.711903e-01 6.011099e-01 2.869861e-01
<GCONST> 1.284619e+02
<TRANSP> 5
 0.000000e+00 1.000000e+00 0.000000e+00 0.000000e+00 0.000000e+00
 0.000000e+00 6.862226e-01 3.137775e-01 0.000000e+00 0.000000e+00
 0.000000e+00 0.000000e+00 7.785560e-01 2.214440e-01 0.000000e+00
 0.000000e+00 0.000000e+00 0.000000e+00 6.246154e-01 3.753845e-01
 0.000000e+00 0.000000e+00 0.000000e+00 0.000000e+00 0.000000e+00
<ENDHMM>
~h "t"
<BEGINHMM>
<NUMSTATES> 5
<STATE> 2
<MEAN> 39
 -5.031041e+00 -4.228728e+00 2.035591e+00 -4.531078e+00 -6.678208e+00 -5.132112e+00 -6.683123e+00 -4.012918e+00 -2.481985e+00 -2.244582e+00 -3.530828e+00 4.271917e-01 5.929865e+01 -1.148444e+00 7.037210e-01 2.427418e-01 2.085673e+00 1.740197e+00 1.627787e+00 2.078283e+00 1.174145e+00 1.175341e+00 9.825186e-01 1.330047e+00 1.144463e-01 -1.568885e+00 -4.801492e-01 -4.731025e-01 -2.236785e-01 -3.464910e-01 3.639531e-01 4.474497e-01 5.021670e-01 6.017231e-01 2.491383e-01 3.501497e-01 2.952276e-01 1.160875e-01 1.028146e+00
<VARIANCE> 39
 2.592596e+01 3.286001e+01 3.823480e+01 4.937688e+01 5.597401e+01 4.889183e+01 6.103152e+01 5.265043e+01 5.088097e+01 4.535587e+01 4.557428e+01 4.307658e+01 6.408390e+01 2.770241e+00 3.847913e+00 4.242175e+00 4.810395e+00 5.122131e+00 5.225290e+00 6.465617e+00 6.168991e+00 5.110549e+00 5.008457e+00 4.662268e+00 3.877357e+00 8.923887e+00 4.100972e-01 5.757027e-01 6.229231e-01 8.291191e-01 8.838096e-01 9.339643e-01 1.057543e+00 9.000822e-01 8.710598e-01 8.190374e-01 7.467820e-01 7.314597e-01 1.415814e+00
<GCONST> 1.391852e+02
<STATE> 3
<MEAN> 39
 -1.173706e+01 -5.358350e+00 1.612498e+00 -8.950744e-01 -5.273977e-02 2.014319e+00 2.967927e+00 3.819729e+00 3.838554e+00 3.952273e+00 3.200846e+00 2.521388e+00 6.236890e+01 -6.771222e-01 -3.067417e-01 2.402373e-01 2.661211e-01 1.351614e+00 7.731475e-01 7.430036e-01 8.750821e-01 1.148762e-01 -1.424853e-01 3.962424e-01 1.944313e-01 3.131484e+00 3.896509e-01 -1.059976e-01 -2.208093e-02 -2.655177e-01 -1.197271e-01 -3.283973e-01 -7.602417e-01 -5.141853e-01 -5.117315e-01 -5.930355e-01 -5.177436e-01 -8.984536e-02 2.017110e-01
<VARIANCE> 39
 3.014823e+01 3.349348e+01 2.780652e+01 2.980078e+01 3.155124e+01 3.196743e+01 3.316001e+01 3.294665e+01 3.401604e+01 2.866330e+01 2.455536e+01 2.256813e+01 9.861696e+01 3.802930e+00 4.743333e+00 4.014014e+00 3.685493e+00 4.381312e+00 4.767509e+00 5.035625e+00 4.853552e+00 5.037816e+00 4.820037e+00 4.115927e+00 3.247666e+00 7.979451e+00 6.879667e-01 7.922956e-01 8.410840e-01 8.074918e-01 8.477484e-01 9.565926e-01 1.055799e+00 1.012858e+00 9.444124e-01 8.631858e-01 7.984805e-01 6.599302e-01 2.621945e+00
<GCONST> 1.356825e+02
<STATE> 4
<MEAN> 39
 -1.193669e+01 -7.030039e+00 1.459672e+00 -1.163371e+00 4.619793e+00 3.229077e+00 -8.528090e-01 2.150635e+00 9.296770e-01 -7.414603e-01 7.110600e-01 1.707950e+00 6.952543e+01 8.826165e-01 -5.607274e-01 -8.311035e-01 -1.224987e+00 -5.325309e-01 -3.811450e-01 -1.780244e+00 -1.368983e+00 -1.128785e+00 -1.031626e+00 -9.213173e-01 -1.936429e-01 -4.096286e-02 4.308797e-01 -2.971197e-02 -2.830420e-01 -6.570260e-01 -7.945961e-01 -3.423801e-01 -3.920459e-01 -3.777740e-01 -3.021717e-01 -2.477647e-02 -2.430070e-01 -6.974126e-02 -2.669545e-01
<VARIANCE> 39
 4.982582e+01 8.437678e+01 4.390354e+01 4.264387e+01 4.997278e+01 4.676738e+01 4.046754e+01 3.457401e+01 3.792665e+01 3.543399e+01 2.732930e+01 2.423561e+01 3.368528e+01 3.441802e+00 3.880226e+00 4.314369e+00 4.314583e+00 5.768844e+00 4.694533e+00 4.550272e+00 4.542124e+00 4.196668e+00 4.042275e+00 3.668518e+00 3.366065e+00 2.213760e+00 5.527287e-01 7.048801e-01 6.923355e-01 7.179343e-01 7.609844e-01 8.740509e-01 8.543514e-01 8.690799e-01 7.890471e-01 7.439602e-01 6.744558e-01 6.480772e-01 8.351472e-01
<GCONST> 1.338674e+02
<TRANSP> 5
 0.000000e+00 1.000000e+00 0.000000e+00 0.000000e+00 0.000000e+00
 0.000000e+00 6.137065e-01 3.862935e-01 0.000000e+00 0.000000e+00
 0.000000e+00 0.000000e+00 7.289600e-01 2.710401e-01 0.000000e+00
 0.000000e+00 0.000000e+00 0.000000e+00 7.570769e-01 2.429232e-01
 0.000000e+00 0.000000e+00 0.000000e+00 0.000000e+00 0.000000e+00
<ENDHMM>
~h "u"
<BEGINHMM>
<NUMSTATES> 5
<STATE> 2
<MEAN> 39
 -1.559065e-01 -3.689775e+00 -4.637949e+00 -1.195197e+01 -7.540421e+00 -2.661146e+00 -1.212796e+01 -5.236990e+00 -6.694283e+00 -1.921741e+00 -3.023362e+00 9.018850e-01 6.608238e+01 2.104061e+00 7.509419e-01 -1.376269e+00 -4.480932e+00 -1.008763e+00 5.538829e-01 -1.715786e+00 -7.755260e-01 -2.271116e+00 -7.204772e-01 -8.008056e-01 5.232075e-01 6.896107e-02 -7.075427e-01 -7.102893e-02 1.397639e-01 1.867639e-01 3.561409e-01 2.074680e-01 4.533421e-01 5.635577e-01 2.504825e-01 1.528734e-01 -1.131577e-02 4.801748e-02 -1.197317e-01
<VARIANCE> 39
 2.983983e+01 3.461696e+01 2.702392e+01 7.709502e+01 4.415863e+01 4.569954e+01 6.464575e+01 5.783921e+01 4.512228e+01 4.056646e+01 3.930219e+01 3.910876e+01 3.410593e+01 3.789501e+00 3.018056e+00 2.963119e+00 6.481840e+00 5.359385e+00 6.269795e+00 6.442454e+00 6.586445e+00 5.436545e+00 4.943840e+00 4.746000e+00 4.193493e+00 1.581316e+00 4.358925e-01 4.665942e-01 3.962607e-01 1.218488e+00 7.349176e-01 9.169061e-01 1.097425e+00 1.026160e+00 9.313125e-01 8.933627e-01 7.535147e-01 7.156754e-01 3.069046e-01
<GCONST> 1.352907e+02
<STATE> 3
<MEAN> 39
 1.686704e+00 -1.477140e-01 -7.427701e+00 -2.301028e+01 -8.998345e+00 -1.705479e+00 -1.144672e+01 -1.141239e+00 -1.071391e+01 -3.590627e+00 -5.997197e+00 1.710232e+00 6.482922e+01 -6.745507e-02 -5.413670e-02 -1.986825e-01 -2.957739e-01 2.561409e-01 1.763518e-01 -1.701975e-01 -1.468397e-01 -4.325090e-02 2.209007e-01 3.549146e-02 9.759600e-02 -2.870571e-02 -2.529669e-01 -2.541879e-01 2.813073e-01 8.952168e-01 1.670181e-01 -1.416112e-01 3.196711e-02 -1.740955e-01 4.539680e-01 2.221099e-01 1.453729e-01 -1.489456e-01 -5.410194e-02
<VARIANCE> 39
 2.035077e+01 3.266608e+01 3.224542e+01 4.599955e+01 4.395312e+01 5.379282e+01 5.398295e+01 5.324355e+01 6.317817e+01 4.483149e+01 4.841768e+01 4.331536e+01 2.544959e+01 5.138462e-01 1.562559e+00 1.148074e+00 4.025002e+00 2.443375e+00 2.704247e+00 3.781564e+00 3.837797e+00 3.122543e+00 3.161805e+00 3.127781e+00 2.684666e+00 7.281510e-01 1.792059e-01 2.093818e-01 3.246639e-01 7.201572e-01 4.621637e-01 6.716008e-01 6.320041e-01 6.106339e-01 7.224410e-01 6.143318e-01 5.939145e-01 5.624086e-01 1.138175e-01
<GCONST> 1.190790e+02
<STATE> 4
<MEAN> 39
 -3.805420e-01 -4.950126e+00 -6.220001e+00 -1.583537e+01 -5.554369e+00 -2.093112e+00 -1.631747e+01 -6.102224e+00 -7.207758e+00 6.740179e-01 -4.612716e+00 1.077010e+00 6.613977e+01 -1.155068e+00 -8.180507e-01 1.721321e+00 3.149759e+00 1.560641e-01 -1.372893e+00 8.886853e-02 -1.338761e-02 1.745345e+00 2.534756e-01 -3.842318e-01 -6.753515e-01 -4.433989e-01 -4.066377e-01 3.046516e-01 5.324462e-01 5.496317e-01 -1.992392e-01 -1.012616e-01 1.005572e+00 5.389941e-01 9.730651e-02 -4.241549e-01 5.532400e-02 2.915020e-02 -4.010110e-01
<VARIANCE> 39
 2.367735e+01 4.328611e+01 3.818169e+01 6.354245e+01 5.455632e+01 6.312925e+01 8.838917e+01 6.355964e+01 6.751852e+01 5.990175e+01 5.873960e+01 4.570440e+01 4.636667e+01 1.643437e+00 2.558994e+00 3.596611e+00 5.307517e+00 5.408319e+00 6.462803e+00 8.019552e+00 5.414442e+00 5.081644e+00 6.267864e+00 4.920106e+00 3.895374e+00 2.437066e+00 2.946095e-01 5.461586e-01 6.506179e-01 1.116699e+00 1.037752e+00 1.308180e+00 1.397569e+00 1.111471e+00 1.106951e+00 1.194381e+00 1.039905e+00 8.083149e-01 3.549131e-01
<GCONST> 1.399036e+02
<TRANSP> 5
 0.000000e+00 1.000000e+00 0.000000e+00 0.000000e+00 0.000000e+00
 0.000000e+00 5.406290e-01 4.593710e-01 0.000000e+00 0.000000e+00
 0.000000e+00 0.000000e+00 7.905719e-01 2.094281e-01 0.000000e+00
 0.000000e+00 0.000000e+00 0.000000e+00 5.148215e-01 4.851785e-01
 0.000000e+00 0.000000e+00 0.000000e+00 0.000000e+00 0.000000e+00
<ENDHMM>
~h "v"
<BEGINHMM>
<NUMSTATES> 5
<STATE> 2
<MEAN> 39
 -9.668410e+00 -4.991037e+00 1.576814e+01 -1.155819e+01 -1.825362e+01 -4.629407e+00 -1.109018e+01 -1.224495e+01 -1.155440e+01 1.246075e+00 -6.372307e+00 -5.942429e-01 6.854848e+01 1.347262e+00 -1.164580e+00 7.850170e-01 -1.073728e+00 -1.600751e+00 -1.539442e+00 -9.989873e-01 -8.153297e-01 -1.778437e+00 4.059434e-02 -1.109512e+00 -1.619006e-01 4.146166e-01 -4.131228e-01 -4.714169e-02 -5.257629e-01 1.277904e-01 7.179680e-01 2.832142e-01 4.890650e-01 7.856329e-01 5.318561e-01 1.418260e-01 1.456649e-01 1.489368e-02 -6.742956e-02
<VARIANCE> 39
 2.873644e+01 3.035999e+01 2.553834e+01 5.466325e+01 2.750342e+01 3.628507e+01 3.763551e+01 4.344727e+01 5.099395e+01 3.454397e+01 4.714667e+01 4.837863e+01 2.648843e+01 3.759530e+00 2.521804e+00 2.562609e+00 2.850291e+00 4.307860e+00 4.422268e+00 4.853189e+00 5.679880e+00 4.904898e+00 3.450956e+00 4.314712e+00 3.304835e+00 7.696305e-01 3.840446e-01 3.184526e-01 2.935254e-01 5.023268e-01 4.996406e-01 6.109262e-01 6.214454e-01 6.641572e-01 6.046079e-01 6.200110e-01 6.049221e-01 5.472085e-01 1.234579e-01
<GCONST> 1.239381e+02
<STATE> 3
<MEAN> 39
 -7.914470e+00 -7.566665e+00 1.619812e+01 -1.289535e+01 -1.982627e+01 -6.531858e+00 -9.883239e+00 -1.096652e+01 -1.305992e+01 3.684085e+00 -8.254782e+00 -1.665613e+00 6.857282e+01 1.482425e-01 -7.627945e-02 -4.240946e-01 8.218342e-02 1.202267e-01 -3.778444e-01 2.196839e-01 4.666826e-01 1.897251e-01 -3.264134e-02 3.071576e-01 1.652020e-01 -1.467318e-01 -2.556918e-02 2.149574e-01 -2.870911e-01 2.930022e-01 3.308907e-01 1.105122e-01 5.423783e-02 1.468592e-01 3.496380e-01 -2.323651e-01 2.096016e-01 7.295599e-02 -2.212948e-01
<VARIANCE> 39
 2.531522e+01 3.020867e+01 2.631255e+01 5.312992e+01 2.656937e+01 3.900173e+01 4.013643e+01 5.242352e+01 6.308487e+01 3.400823e+01 4.575583e+01 3.612934e+01 2.989613e+01 5.896240e-01 1.026177e+00 1.219078e+00 1.521984e+00 1.325355e+00 1.832863e+00 1.826178e+00 2.008866e+00 1.844801e+00 1.910121e+00 2.080688e+00 1.699762e+00 5.407385e-01 1.671820e-01 1.944670e-01 2.522990e-01 3.643101e-01 3.464746e-01 3.390498e-01 4.258396e-01 3.698967e-01 4.516801e-01 3.480578e-01 3.863479e-01 3.035769e-01 1.150315e-01
<GCONST> 1.068860e+02
<STATE> 4
<MEAN> 39
 -6.984093e+00 -6.234689e+00 1.203988e+01 -9.887808e+00 -1.689360e+01 -7.768932e+00 -9.231503e+00 -7.856955e+00 -9.971746e+00 1.103994e+00 -5.341496e+00 -8.225826e-02 6.586034e+01 9.950900e-02 5.920540e-01 -2.094824e+00 1.625862e+00 2.218459e+00 3.119706e-01 5.186541e-01 1.311085e+00 1.864402e+00 -9.075750e-01 7.010687e-01 2.893557e-01 -1.424101e+00 -2.066357e-01 1.718120e-01 -3.114424e-01 3.108721e-01 5.539424e-01 5.013157e-01 2.385678e-01 6.818830e-02 4.237896e-01 1.372510e-01 3.147794e-02 -5.978069e-02 -3.448273e-01
<VARIANCE> 39
 2.782196e+01 4.230291e+01 4.145594e+01 6.300528e+01 4.065915e+01 5.049964e+01 4.367153e+01 5.723871e+01 6.163833e+01 4.128356e+01 4.812637e+01 3.735510e+01 5.249332e+01 2.133221e+00 2.498858e+00 2.960019e+00 4.164339e+00 3.677578e+00 4.286374e+00 4.718903e+00 4.253457e+00 4.266968e+00 3.462348e+00 3.653473e+00 2.929473e+00 2.463401e+00 2.770453e-01 4.907604e-01 4.594879e-01 7.448015e-01 6.226346e-01 7.050453e-01 7.541234e-01 8.663474e-01 6.977406e-01 6.633608e-01 6.257041e-01 5.489289e-01 3.309170e-01
<GCONST> 1.300093e+02
<TRANSP> 5
 0.000000e+00 1.000000e+00 0.000000e+00 0.000000e+00 0.000000e+00
 0.000000e+00 4.611935e-01 5.388066e-01 0.000000e+00 0.000000e+00
 0.000000e+00 0.000000e+00 7.253993e-01 2.746008e-01 0.000000e+00
 0.000000e+00 0.000000e+00 0.000000e+00 5.441142e-01 4.558858e-01
 0.000000e+00 0.000000e+00 0.000000e+00 0.000000e+00 0.000000e+00
<ENDHMM>
~h "x"
<BEGINHMM>
<NUMSTATES> 5
<STATE> 2
<MEAN> 39
 -1.140354e+01 5.365771e-01 3.511970e+00 -6.020544e+00 -9.132897e+00 -5.395896e+00 -6.200866e+00 -5.865589e+00 -5.834475e+00 -2.590407e+00 -3.135432e+00 -1.918553e-01 6.749134e+01 -3.006653e+00 2.571815e+00 -7.534423e-02 2.530665e+00 1.773603e+00 1.561283e+00 2.164660e+00 4.911346e-01 1.157572e+00 7.210846e-01 1.289136e+00 -2.728980e-01 -2.721628e-01 -4.656643e-01 -3.991824e-01 -4.680212e-01 -1.842836e-01 4.798972e-01 4.939798e-01 2.751815e-01 5.567047e-01 4.632961e-01 4.775060e-01 5.245831e-02 7.389300e-02 1.528940e-01
<VARIANCE> 39
 4.777689e+01 5.239673e+01 5.033363e+01 5.841426e+01 5.512239e+01 5.287352e+01 6.436853e+01 5.604161e+01 5.010067e+01 3.944254e+01 3.757788e+01 3.540776e+01 3.584263e+01 3.381580e+00 4.768606e+00 5.261382e+00 5.169798e+00 6.343732e+00 5.873506e+00 6.858167e+00 6.619819e+00 5.748231e+00 5.743125e+00 4.372317e+00 3.747026e+00 1.899013e+00 6.331902e-01 8.757799e-01 6.023958e-01 9.657963e-01 9.894546e-01 9.258623e-01 1.185668e+00 8.877624e-01 8.146956e-01 8.531052e-01 7.564794e-01 7.004495e-01 1.703190e-01
<GCONST> 1.385332e+02
<STATE> 3
<MEAN> 39
 -2.380317e+01 4.210436e+00 1.188494e-02 -1.194600e+00 -1.463925e+00 2.712530e+00 8.804260e-01 9.317994e-03 1.841530e+00 2.801319e+00 8.381971e-01 7.041994e-01 6.763928e+01 -7.687988e-01 -2.297467e-01 -1.427524e-01 -1.693684e-01 3.067017e-01 6.467800e-01 2.275850e-01 4.373576e-01 5.877452e-01 3.557966e-01 2.001886e-01 1.764634e-01 1.899937e-01 8.134301e-01 -2.579496e-01 4.453987e-01 -4.493297e-01 -5.899616e-01 -4.744531e-01 -4.895635e-01 -4.472242e-01 -4.412911e-01 -3.073172e-01 -2.047496e-01 -1.656906e-02 5.033349e-02
<VARIANCE> 39
 2.633312e+01 3.302522e+01 4.085564e+01 3.456864e+01 3.101664e+01 2.418608e+01 2.692510e+01 2.706423e+01 2.669771e+01 2.339115e+01 2.096625e+01 1.702451e+01 2.574465e+01 2.183432e+00 1.178289e+00 2.143035e+00 1.671334e+00 2.154246e+00 2.189859e+00 2.443744e+00 2.695527e+00 2.526426e+00 2.426347e+00 1.961049e+00 1.727468e+00 6.037909e-01 3.376042e-01 3.591040e-01 3.137465e-01 5.007931e-01 5.329373e-01 5.090961e-01 5.802083e-01 5.583321e-01 5.085194e-01 4.967769e-01 4.507160e-01 4.064982e-01 1.192560e-01
<GCONST> 1.110668e+02
<STATE> 4
<MEAN> 39
 -2.035418e+01 2.847606e+00 4.049556e+00 -3.636700e+00 -4.300273e+00 1.978354e+00 -1.039928e+00 -2.346623e+00 4.064374e-01 1.869720e+00 5.516868e-01 4.986601e-01 6.869641e+01 3.301854e+00 -1.213869e+00 2.049925e+00 -2.298868e+00 -3.069579e+00 -2.226062e+00 -2.074596e+00 -1.928480e+00 -1.846860e+00 -6.679696e-01 -7.120063e-01 1.863208e-01 6.605588e-01 6.295519e-01 -7.081762e-01 -2.124334e-02 -7.384109e-01 -6.376380e-01 -5.733511e-01 -4.069502e-01 -7.656727e-02 -5.490897e-01 -9.864814e-02 -4.764907e-01 2.802251e-02 2.458441e-01
<VARIANCE> 39
 4.266177e+01 3.520087e+01 4.850101e+01 3.048133e+01 3.684205e+01 3.157499e+01 3.492187e+01 3.356499e+01 2.917169e+01 2.421668e+01 2.173707e+01 1.867564e+01 2.486923e+01 2.518379e+00 3.843572e+00 2.337239e+00 4.839860e+00 3.504132e+00 3.534239e+00 4.069117e+00 4.427003e+00 3.231729e+00 2.853104e+00 3.143170e+00 3.381953e+00 1.091965e+00 6.361324e-01 5.723304e-01 6.402849e-01 5.038341e-01 7.172034e-01 7.238498e-01 8.050964e-01 9.257811e-01 7.155932e-01 6.714784e-01 6.008987e-01 5.604419e-01 1.402633e-01
<GCONST> 1.240958e+02
<TRANSP> 5
 0.000000e+00 1.000000e+00 0.000000e+00 0.000000e+00 0.000000e+00
 0.000000e+00 7.168029e-01 2.831971e-01 0.000000e+00 0.000000e+00
 0.000000e+00 0.000000e+00 8.175315e-01 1.824685e-01 0.000000e+00
 0.000000e+00 0.000000e+00 0.000000e+00 6.206211e-01 3.793789e-01
 0.000000e+00 0.000000e+00 0.000000e+00 0.000000e+00 0.000000e+00
<ENDHMM>
~h "z"
<BEGINHMM>
<NUMSTATES> 5
<STATE> 2
<MEAN> 39
 -6.202323e+00 -1.592064e+00 3.537423e-01 -2.176733e+00 -6.930734e+00 -6.234163e+00 -8.149020e+00 -4.779828e+00 -4.094115e+00 -4.402611e+00 -4.164633e+00 -5.915506e-01 5.993216e+01 -1.979308e+00 1.533572e+00 -2.414943e-01 2.418173e+00 1.327249e+00 1.630161e+00 1.783579e+00 8.083061e-01 8.646457e-01 8.697584e-01 7.911022e-01 -2.492708e-02 -1.631710e+00 -6.559032e-01 -4.290980e-01 -3.975426e-01 -3.766350e-01 1.274669e-01 3.737986e-01 4.765204e-01 5.917131e-01 2.594942e-01 5.344916e-01 2.894503e-01 2.205538e-01 6.228651e-01
<VARIANCE> 39
 2.956030e+01 3.410297e+01 3.775889e+01 4.495539e+01 5.276697e+01 5.048192e+01 5.809094e+01 4.582164e+01 4.779745e+01 4.545536e+01 4.093126e+01 4.025772e+01 4.621573e+01 3.316885e+00 3.942178e+00 3.886490e+00 4.575386e+00 4.491890e+00 5.043731e+00 5.770837e+00 5.280472e+00 4.763633e+00 5.051417e+00 3.889844e+00 3.674946e+00 4.491777e+00 4.497803e-01 5.955942e-01 5.483494e-01 8.678263e-01 7.842653e-01 9.325641e-01 9.201608e-01 7.415313e-01 7.706687e-01 7.634720e-01 6.477630e-01 6.914040e-01 6.772874e-01
<GCONST> 1.355793e+02
<STATE> 3
<MEAN> 39
 -1.713329e+01 -8.356590e-01 -2.803590e+00 2.110174e+00 -2.049068e+00 1.312978e+00 9.471001e-01 2.795366e+00 2.352972e+00 3.444893e+00 1.975003e+00 2.483579e+00 5.813996e+01 -1.937375e+00 2.688021e-01 -8.685714e-01 2.357925e-01 2.653200e-01 3.701662e-01 7.716129e-01 9.849975e-01 4.086866e-01 6.475559e-01 6.927772e-01 4.715478e-01 1.839727e+00 9.939005e-01 -2.437931e-01 2.053433e-01 -6.683186e-01 -4.315942e-01 -8.293823e-01 -7.877812e-01 -4.485112e-01 -4.865291e-01 -6.337193e-01 -4.663224e-01 -1.006961e-01 7.220144e-01
<VARIANCE> 39
 3.210005e+01 3.366624e+01 3.080520e+01 3.136529e+01 3.401657e+01 3.210435e+01 3.370361e+01 3.086522e+01 3.151375e+01 2.804233e+01 2.574019e+01 2.053854e+01 3.353442e+01 3.490997e+00 3.334366e+00 2.674003e+00 2.726981e+00 2.939832e+00 3.609709e+00 3.818271e+00 3.666652e+00 3.885606e+00 3.896589e+00 3.148520e+00 2.698854e+00 3.055638e+00 9.809235e-01 8.896208e-01 5.685517e-01 8.940033e-01 6.240923e-01 7.781581e-01 8.786271e-01 7.149032e-01 6.793063e-01 6.806384e-01 6.245927e-01 5.609723e-01 6.014944e-01
<GCONST> 1.271338e+02
<STATE> 4
<MEAN> 39
 -1.515098e+01 1.695377e-01 -2.904620e+00 -1.670175e-01 -3.877554e+00 -3.538950e+00 -1.570854e+00 2.122724e+00 -1.146326e-01 4.921855e-01 3.840764e-01 2.332027e+00 6.776048e+01 3.148063e+00 -1.899136e+00 -3.424744e-02 -3.070639e+00 -1.138389e+00 -2.431310e+00 -2.258359e+00 -3.657875e-01 -7.999256e-01 -1.326607e+00 -1.356965e+00 1.762507e-01 2.677707e+00 7.627054e-01 -9.289820e-01 -1.194482e-01 -9.519818e-01 -5.140288e-02 -4.087947e-03 -5.260489e-01 -2.352929e-01 -2.771330e-01 -2.434348e-01 -4.414092e-01 -1.048101e-01 -2.265644e-01
<VARIANCE> 39
 5.647824e+01 3.269425e+01 2.920728e+01 4.107793e+01 4.695341e+01 5.308958e+01 4.601133e+01 3.142098e+01 2.978095e+01 2.859228e+01 2.583207e+01 2.179281e+01 2.803858e+01 4.493115e+00 6.748034e+00 3.142102e+00 6.339317e+00 4.071095e+00 4.966279e+00 7.780416e+00 5.157504e+00 4.015433e+00 4.475202e+00 4.434456e+00 3.696968e+00 2.111573e+00 1.396254e+00 9.387227e-01 5.721971e-01 9.217812e-01 8.428127e-01 1.331059e+00 1.265784e+00 8.944895e-01 7.520395e-01 8.526947e-01 7.690219e-01 6.795934e-01 3.071938e-01
<GCONST> 1.349311e+02
<TRANSP> 5
 0.000000e+00 1.000000e+00 0.000000e+00 0.000000e+00 0.000000e+00
 0.000000e+00 6.584802e-01 3.415198e-01 0.000000e+00 0.000000e+00
 0.000000e+00 0.000000e+00 6.850134e-01 3.149865e-01 0.000000e+00
 0.000000e+00 0.000000e+00 0.000000e+00 5.628215e-01 4.371785e-01
 0.000000e+00 0.000000e+00 0.000000e+00 0.000000e+00 0.000000e+00
<ENDHMM>
~h "aa"
<BEGINHMM>
<NUMSTATES> 5
<STATE> 2
<MEAN> 39
 -6.677183e+00 -1.780132e+01 -9.889263e+00 -1.159056e+01 2.243263e+00 6.982799e-01 -4.928890e+00 -3.627428e-01 -3.118618e+00 -4.847406e+00 -3.507397e+00 -5.694143e-01 7.080437e+01 -2.740531e-01 -1.494882e+00 -3.773634e-01 1.083600e+00 1.189757e+00 5.358545e-02 -7.151299e-01 -5.402820e-01 -2.961215e-01 -8.269370e-01 -1.968653e-01 2.407756e-01 1.104167e+00 -1.057564e-03 1.142701e-01 2.172544e-01 -1.531532e-02 -3.058648e-01 -1.335570e-01 -1.488127e-01 -8.474857e-02 -9.513114e-02 5.644250e-02 -2.426252e-02 4.637853e-02 6.803770e-02
<VARIANCE> 39
 2.606241e+01 4.596476e+01 5.103601e+01 8.980920e+01 9.267923e+01 6.805771e+01 9.275717e+01 6.664598e+01 6.766962e+01 6.113103e+01 5.558538e+01 5.754729e+01 8.536362e+01 1.003981e+00 1.856683e+00 2.536423e+00 3.619493e+00 4.175170e+00 3.341823e+00 4.419005e+00 3.808666e+00 4.133080e+00 4.095050e+00 3.806131e+00 3.913051e+00 2.981315e+00 1.408379e-01 3.071395e-01 3.091424e-01 4.621941e-01 5.881439e-01 4.846071e-01 8.154147e-01 7.157354e-01 6.970913e-01 7.151893e-01 6.556463e-01 7.256312e-01 4.817449e-01
<GCONST> 1.313913e+02
<STATE> 3
<MEAN> 39
 -6.335802e+00 -2.139210e+01 -9.948237e+00 -7.069993e+00 2.545237e+00 3.892671e-01 -1.079654e+01 -4.904787e-01 -5.313196e+00 -7.950926e+00 -4.961957e+00 -5.583627e-01 7.435053e+01 -9.740577e-02 -1.462039e-01 1.174475e-01 3.876458e-01 -1.769839e-01 -1.643775e-01 -2.231877e-02 6.253980e-04 -2.208705e-01 -2.030093e-01 5.757273e-02 1.994151e-01 9.895050e-02 2.535041e-02 1.246637e-01 3.842336e-02 -1.374361e-01 -1.494626e-01 -6.544948e-03 1.572872e-01 4.529785e-02 -5.934419e-02 4.312251e-02 -4.121093e-03 -2.200196e-02 -7.829055e-02
<VARIANCE> 39
 2.584628e+01 3.048784e+01 3.655625e+01 5.176318e+01 5.435365e+01 6.356289e+01 7.958765e+01 5.759128e+01 5.053652e+01 5.291314e+01 4.481367e+01 4.359143e+01 5.775927e+01 4.225365e-01 8.589058e-01 8.166195e-01 1.232955e+00 1.536897e+00 1.322466e+00 1.715118e+00 1.589383e+00 1.606838e+00 1.464073e+00 1.390427e+00 1.483847e+00 8.016220e-01 6.476558e-02 1.321344e-01 1.275028e-01 1.844700e-01 2.051658e-01 1.981500e-01 2.464342e-01 2.407591e-01 2.505455e-01 2.451973e-01 2.336222e-01 2.333593e-01 1.102620e-01
<GCONST> 1.016170e+02
<STATE> 4
<MEAN> 39
 -9.418875e+00 -1.529306e+01 -6.047699e+00 -2.786512e+00 2.757509e+00 2.118229e+00 -3.038268e+00 1.740080e+00 3.575270e-01 -1.344184e+00 9.338019e-01 3.424057e+00 6.186669e+01 8.773874e-02 -3.077993e-01 1.578967e-02 -1.330240e-01 -3.439967e-01 -9.538647e-02 -1.168896e-01 -4.092985e-01 -4.185817e-01 -1.771780e-01 -1.767955e-01 -2.077652e-02 5.562392e-01 1.459166e-01 -3.026595e-01 -1.677532e-01 -3.922766e-01 -7.516655e-02 -1.298983e-01 -2.069823e-01 -1.583699e-01 -3.485441e-01 -2.858258e-01 -2.300135e-01 -1.982961e-01 5.919720e-01
<VARIANCE> 39
 2.362745e+01 7.791763e+01 4.368340e+01 5.503519e+01 5.314201e+01 4.706497e+01 7.396487e+01 5.559822e+01 7.100382e+01 7.420393e+01 5.502748e+01 3.972112e+01 1.786918e+02 1.071524e+00 5.095563e+00 2.513956e+00 2.912741e+00 3.561515e+00 2.814080e+00 4.563483e+00 3.359253e+00 3.933643e+00 3.890805e+00 2.796993e+00 2.539424e+00 7.060621e+00 1.982024e-01 9.607223e-01 4.541739e-01 4.785587e-01 6.089402e-01 5.017235e-01 7.416436e-01 6.026461e-01 6.348954e-01 6.921719e-01 5.127599e-01 4.774028e-01 1.257584e+00
<GCONST> 1.327614e+02
<TRANSP> 5
 0.000000e+00 1.000000e+00 0.000000e+00 0.000000e+00 0.000000e+00
 0.000000e+00 6.299309e-01 3.700690e-01 0.000000e+00 0.000000e+00
 0.000000e+00 0.000000e+00 7.559658e-01 2.440342e-01 0.000000e+00
 0.000000e+00 0.000000e+00 0.000000e+00 5.661935e-01 4.338065e-01
 0.000000e+00 0.000000e+00 0.000000e+00 0.000000e+00 0.000000e+00
<ENDHMM>
~h "ai"
<BEGINHMM>
<NUMSTATES> 5
<STATE> 2
<MEAN> 39
 -6.202024e+00 -1.986541e+01 -6.777882e+00 -8.720461e+00 -6.766993e+00 -2.714055e+00 -1.670025e+00 -4.248581e-01 -7.647200e+00 -8.086002e+00 -6.980684e+00 1.754877e+00 7.676842e+01 7.112122e-02 -2.262067e+00 -9.551007e-01 -1.145941e+00 -5.201124e-01 3.543336e-01 7.096489e-01 -4.410946e-01 -1.915533e+00 -1.271359e+00 -7.961469e-01 -2.526955e-01 1.622040e+00 -4.060584e-01 6.227618e-01 5.082390e-01 5.323890e-01 2.283354e-01 2.812868e-01 2.030443e-01 3.719090e-02 3.480586e-01 5.032081e-01 4.827002e-01 -9.320036e-02 -6.113815e-01
<VARIANCE> 39
 2.260618e+01 3.137500e+01 2.735013e+01 5.182543e+01 5.203285e+01 4.816053e+01 6.939292e+01 6.902659e+01 4.906531e+01 4.112175e+01 4.810057e+01 4.101906e+01 2.816567e+01 2.501296e+00 3.977389e+00 2.643883e+00 4.729133e+00 5.070483e+00 4.597680e+00 5.065245e+00 4.850930e+00 3.536314e+00 3.532045e+00 3.942644e+00 3.093004e+00 2.202953e+00 3.913837e-01 5.235448e-01 4.553137e-01 7.440646e-01 6.878000e-01 7.631266e-01 8.598068e-01 1.006722e+00 7.744360e-01 6.440582e-01 6.468816e-01 5.990314e-01 4.230373e-01
<GCONST> 1.313632e+02
<STATE> 3
<MEAN> 39
 -7.100883e+00 -2.201929e+01 -5.653690e+00 -9.191160e+00 -8.396040e+00 -1.280290e-01 1.385994e+00 -8.578010e-01 -1.067158e+01 -8.603592e+00 -6.236856e+00 5.520170e-01 7.764094e+01 -7.713051e-02 4.577158e-01 7.135863e-01 -7.330631e-01 -1.013178e+00 -5.521353e-02 6.082405e-01 2.588063e-01 1.490923e-01 4.034830e-01 -7.434963e-02 -5.208961e-01 -2.136249e-01 7.970871e-02 4.052938e-01 1.832872e-01 -1.006153e-01 -1.598897e-01 -2.630514e-01 -2.403132e-01 6.875689e-02 3.911370e-01 2.670588e-01 -1.843924e-02 -3.604181e-02 -2.527391e-01
<VARIANCE> 39
 2.211652e+01 2.223457e+01 2.492274e+01 4.477294e+01 3.948158e+01 3.555495e+01 6.695346e+01 6.966403e+01 3.681573e+01 2.949854e+01 3.457714e+01 2.955300e+01 2.758295e+01 4.114781e-01 1.061978e+00 8.952851e-01 1.936037e+00 1.834998e+00 1.571709e+00 1.953050e+00 1.794138e+00 2.038655e+00 1.821507e+00 1.772127e+00 1.654167e+00 3.937351e-01 9.361532e-02 1.761612e-01 1.632479e-01 2.749871e-01 2.671258e-01 2.793265e-01 4.161353e-01 3.495348e-01 3.493524e-01 3.438439e-01 3.073142e-01 3.019035e-01 7.445928e-02
<GCONST> 1.024886e+02
<STATE> 4
<MEAN> 39
 -6.858821e+00 -1.590207e+01 3.579383e-01 -1.531604e+01 -1.590042e+01 -3.924936e+00 1.827084e+00 3.164295e-01 -6.316004e+00 -3.396565e+00 -7.122542e+00 -2.625837e+00 7.496517e+01 3.177114e-01 1.973016e+00 1.340135e+00 -6.311414e-02 -7.602426e-01 -1.229800e+00 -1.573051e+00 -5.968391e-01 1.093661e+00 1.263170e+00 4.886020e-01 2.817950e-01 -1.461252e+00 3.898699e-02 2.564400e-01 -4.301915e-02 7.684230e-01 6.587436e-01 1.487334e-01 -3.626538e-01 -3.498341e-01 -1.590147e-01 -1.951859e-01 2.665021e-01 3.671752e-01 -4.455984e-01
<VARIANCE> 39
 2.039928e+01 3.107700e+01 3.206833e+01 4.337044e+01 3.992433e+01 4.531557e+01 6.174507e+01 6.582339e+01 4.365310e+01 4.008788e+01 2.860122e+01 2.861317e+01 3.477197e+01 8.301567e-01 1.394906e+00 1.709524e+00 3.384324e+00 2.978480e+00 2.493610e+00 3.295239e+00 3.000948e+00 3.049240e+00 2.995471e+00 2.353173e+00 2.491846e+00 1.162911e+00 1.640314e-01 2.594554e-01 2.653156e-01 4.249698e-01 4.379030e-01 5.547631e-01 7.455602e-01 5.671331e-01 5.622653e-01 6.089514e-01 4.376945e-01 4.532043e-01 1.812815e-01
<GCONST> 1.172189e+02
<TRANSP> 5
 0.000000e+00 1.000000e+00 0.000000e+00 0.000000e+00 0.000000e+00
 0.000000e+00 6.704950e-01 3.295050e-01 0.000000e+00 0.000000e+00
 0.000000e+00 0.000000e+00 8.105183e-01 1.894817e-01 0.000000e+00
 0.000000e+00 0.000000e+00 0.000000e+00 6.509378e-01 3.490622e-01
 0.000000e+00 0.000000e+00 0.000000e+00 0.000000e+00 0.000000e+00
<ENDHMM>
~h "an"
<BEGINHMM>
<NUMSTATES> 5
<STATE> 2
<MEAN> 39
 -5.820166e+00 -1.967524e+01 -7.070109e+00 -1.057459e+01 -5.337609e+00 -4.196661e+00 -3.515284e+00 1.035066e+00 -6.910309e+00 -8.552880e+00 -6.546786e+00 1.951175e+00 7.678545e+01 1.078973e-01 -2.370663e+00 -1.231767e+00 -1.012663e+00 1.967585e-01 2.150130e-01 -2.459938e-02 -2.136348e-01 -1.588507e+00 -1.507656e+00 -9.461589e-01 -8.302288e-02 1.442504e+00 -5.027995e-01 7.114552e-01 5.753947e-01 7.428465e-01 2.963198e-01 2.719865e-01 1.432442e-01 -6.517089e-03 2.564928e-01 4.854970e-01 5.182118e-01 -4.695386e-02 -6.702095e-01
<VARIANCE> 39
 2.328769e+01 2.978897e+01 3.113152e+01 4.747283e+01 5.412442e+01 4.919015e+01 7.456110e+01 5.821748e+01 5.196503e+01 4.444486e+01 5.907391e+01 5.471824e+01 2.622154e+01 2.637913e+00 4.069664e+00 2.842780e+00 4.598956e+00 4.733371e+00 4.395384e+00 4.792072e+00 4.252762e+00 3.704092e+00 3.683450e+00 4.232266e+00 3.402261e+00 2.208365e+00 5.044986e-01 5.456852e-01 4.432665e-01 6.471762e-01 7.421655e-01 7.584636e-01 8.488573e-01 9.168124e-01 7.015644e-01 6.464449e-01 7.243500e-01 7.347386e-01 3.824176e-01
<GCONST> 1.321927e+02
<STATE> 3
<MEAN> 39
 -6.981530e+00 -2.118631e+01 -6.374936e+00 -9.733133e+00 -4.768169e+00 -3.308197e+00 -3.554554e+00 1.737500e+00 -1.017913e+01 -9.860367e+00 -6.033371e+00 1.218063e+00 7.703328e+01 8.308090e-02 7.730250e-01 5.276533e-01 -1.936144e-01 -5.654916e-01 -5.009046e-01 -5.021929e-02 3.081631e-01 -1.091259e-01 3.709630e-01 1.495354e-01 -2.502871e-01 -6.380245e-01 1.424043e-01 4.903675e-01 2.259321e-01 2.215636e-02 -2.211547e-01 -2.107628e-01 -1.294263e-01 -6.277344e-02 2.426726e-01 2.734616e-01 5.414536e-02 -5.225252e-02 -3.906343e-01
<VARIANCE> 39
 2.406435e+01 2.150503e+01 2.781424e+01 4.253707e+01 4.476336e+01 4.229693e+01 7.943418e+01 5.981875e+01 4.844044e+01 3.838626e+01 4.767163e+01 3.652751e+01 2.484762e+01 5.177624e-01 1.344875e+00 1.158361e+00 1.739269e+00 2.245416e+00 2.017282e+00 2.335244e+00 2.170918e+00 2.115154e+00 2.025110e+00 1.891665e+00 1.977019e+00 6.459369e-01 9.692256e-02 1.823929e-01 1.911851e-01 3.334971e-01 3.079759e-01 3.162280e-01 4.373999e-01 4.868391e-01 3.880557e-01 3.716780e-01 3.496921e-01 3.256616e-01 1.053083e-01
<GCONST> 1.080033e+02
<STATE> 4
<MEAN> 39
 -4.123176e+00 -1.138456e+01 -6.887423e-01 -8.655055e+00 -9.871288e+00 -8.339706e+00 -5.843059e+00 2.202094e-03 -8.482564e+00 -6.201936e+00 -5.307579e+00 -7.558334e-01 6.741157e+01 4.852260e-01 2.087858e+00 1.324859e+00 9.219975e-01 -5.539222e-01 -2.356477e-01 -9.775354e-01 -1.453024e+00 5.346678e-01 6.010474e-01 3.641023e-01 -3.181540e-01 -2.323594e+00 -1.310370e-01 -7.874351e-02 -9.307551e-02 1.888166e-01 3.146196e-01 3.595283e-01 9.741690e-03 -1.825375e-01 2.698747e-02 -1.474740e-01 8.263253e-04 6.861824e-02 2.642690e-02
<VARIANCE> 39
 2.316111e+01 3.837687e+01 4.362350e+01 5.340919e+01 5.584303e+01 5.277985e+01 7.166634e+01 6.788760e+01 6.147760e+01 4.686655e+01 4.857486e+01 4.988964e+01 5.090902e+01 9.341349e-01 1.558427e+00 2.305672e+00 2.790353e+00 2.909812e+00 3.366726e+00 4.140551e+00 3.842245e+00 3.489188e+00 3.438394e+00 2.928657e+00 2.694281e+00 1.533410e+00 1.523187e-01 2.692232e-01 4.061275e-01 4.691935e-01 4.797232e-01 5.404035e-01 7.196029e-01 8.357820e-01 6.278464e-01 5.913193e-01 5.109713e-01 4.841449e-01 2.894650e-01
<GCONST> 1.243144e+02
<TRANSP> 5
 0.000000e+00 1.000000e+00 0.000000e+00 0.000000e+00 0.000000e+00
 0.000000e+00 6.527545e-01 3.472455e-01 0.000000e+00 0.000000e+00
 0.000000e+00 0.000000e+00 8.162810e-01 1.837190e-01 0.000000e+00
