~o
<STREAMINFO> 1 39
<VECSIZE> 39<NULLD><MFCC_D_A_0><DIAGC>
~s "silst"
<MEAN> 39
 -1.123619e+01 -6.359646e+00 -7.364127e-02 -1.374128e-02 2.202782e-01 3.418152e+00 2.205243e+00 3.664808e+00 3.467342e+00 3.160033e+00 3.194648e+00 3.847197e+00 5.233582e+01 -5.073408e-01 -4.204239e-01 -8.957317e-02 2.080108e-01 5.045611e-01 2.295174e-01 4.437052e-01 5.628188e-01 2.968504e-01 3.624157e-01 4.514540e-01 3.319210e-01 -3.672368e-02 7.837558e-02 -7.208785e-02 -1.339964e-02 -1.953695e-01 -1.153231e-01 -1.413831e-01 -1.837947e-01 -6.924957e-02 -1.550999e-01 -1.353695e-01 -1.010865e-01 -5.875181e-02 2.213197e-01
<VARIANCE> 39
 2.774022e+01 4.052478e+01 3.506049e+01 3.122763e+01 4.056066e+01 3.498965e+01 3.551493e+01 3.623768e+01 3.941568e+01 4.086301e+01 3.313600e+01 2.716485e+01 3.113167e+01 2.394733e+00 3.035969e+00 2.624811e+00 3.338869e+00 3.475100e+00 3.391160e+00 4.246712e+00 3.717066e+00 4.808766e+00 4.503082e+00 3.503810e+00 2.803691e+00 4.144619e+00 3.844526e-01 5.059312e-01 4.662606e-01 5.610728e-01 5.650742e-01 5.749031e-01 6.901961e-01 6.575831e-01 8.240027e-01 7.721163e-01 5.946376e-01 4.972936e-01 6.449109e-01
<GCONST> 1.269038e+02
~h "a"
<BEGINHMM>
<NUMSTATES> 5
<STATE> 2
<MEAN> 39
 -5.035144e+00 -2.091570e+01 -1.030502e+01 -8.534825e+00 -9.652679e-01 -3.865689e-01 -6.129811e+00 -2.723002e+00 -6.388056e+00 -7.597527e+00 -6.153610e+00 8.977631e-01 7.649245e+01 6.729192e-02 -2.710340e+00 -1.777915e+00 -1.309822e-01 1.046854e+00 4.897830e-01 -1.268219e+00 -1.359826e+00 -9.343668e-01 -9.988653e-01 -5.559903e-01 -3.774375e-01 1.671305e+00 -4.365007e-01 6.637223e-01 7.545913e-01 7.926831e-01 1.827127e-01 5.957089e-02 1.420874e-01 6.987276e-02 5.166481e-01 5.408781e-01 4.538114e-01 -5.947573e-02 -7.731050e-01
<VARIANCE> 39
 2.475481e+01 2.993485e+01 2.623353e+01 5.033580e+01 4.904862e+01 5.628238e+01 6.945973e+01 4.953658e+01 4.622170e+01 4.330936e+01 5.250364e+01 5.597752e+01 2.674295e+01 2.888166e+00 3.411198e+00 3.434738e+00 5.574420e+00 4.694268e+00 4.320079e+00 4.655910e+00 4.065827e+00 4.079713e+00 3.964167e+00 4.216432e+00 3.585884e+00 2.855381e+00 4.722660e-01 5.060378e-01 4.237064e-01 7.331520e-01 7.810622e-01 7.180770e-01 9.773009e-01 9.915935e-01 6.946356e-01 6.801589e-01 7.333132e-01 7.070513e-01 5.441941e-01
<GCONST> 1.329251e+02
<STATE> 3
<MEAN> 39
 -5.898305e+00 -2.402158e+01 -1.099219e+01 -4.305353e+00 2.741428e+00 1.382195e+00 -9.295771e+00 -5.576460e+00 -4.562178e+00 -7.035798e+00 -5.469834e+00 -9.793409e-01 7.665577e+01 2.501228e-02 1.676319e-02 4.288029e-02 3.181199e-02 -1.675453e-01 -2.786567e-02 1.416519e-01 9.225114e-02 3.402273e-02 -6.567440e-02 4.578453e-03 -2.764115e-03 -1.543900e-01 7.767092e-02 3.545656e-01 1.461993e-01 -2.589014e-01 -3.622834e-01 -1.322943e-01 2.800425e-01 2.786814e-01 -3.377474e-02 -1.419032e-02 -4.693858e-02 8.930033e-02 -1.945066e-01
<VARIANCE> 39
 2.410512e+01 2.380798e+01 2.165298e+01 5.146000e+01 3.765184e+01 6.143895e+01 5.869249e+01 3.509041e+01 3.902203e+01 3.970361e+01 3.860821e+01 4.466349e+01 3.138963e+01 4.412015e-01 7.725067e-01 8.188447e-01 1.908132e+00 1.729591e+00 1.431802e+00 2.076584e+00 1.792871e+00 1.805246e+00 1.638343e+00 1.517429e+00 1.516512e+00 4.611833e-01 1.049355e-01 1.866000e-01 1.991364e-01 3.023578e-01 3.055463e-01 2.999506e-01 3.300486e-01 3.286391e-01 3.504856e-01 3.279285e-01 2.966197e-01 2.860313e-01 1.023886e-01
<GCONST> 1.031385e+02
<STATE> 4
<MEAN> 39
 -5.552244e+00 -2.166785e+01 -9.652157e+00 -8.576669e+00 -3.726271e+00 -1.150453e+00 -4.284427e+00 -1.905604e+00 -6.833457e+00 -8.840051e+00 -6.246903e+00 5.540870e-01 7.588814e+01 5.417281e-01 2.228908e+00 1.183006e+00 -8.829036e-01 -2.133290e+00 -1.127596e+00 6.539544e-01 9.871967e-01 4.092693e-01 5.164701e-01 -5.865214e-02 2.332193e-02 -1.549402e+00 -7.178058e-02 6.806638e-01 4.904573e-01 5.623658e-01 2.676032e-01 -8.354019e-02 -3.687370e-01 -2.634930e-01 3.345205e-01 5.251257e-01 2.781014e-01 -5.115411e-02 -6.621285e-01
<VARIANCE> 39
 2.379384e+01 2.733654e+01 2.864295e+01 5.244005e+01 6.696152e+01 5.513442e+01 8.147719e+01 5.337960e+01 5.365961e+01 4.476222e+01 5.092949e+01 5.267295e+01 3.499113e+01 1.164519e+00 2.441664e+00 2.224168e+00 4.349153e+00 3.969498e+00 3.782284e+00 4.529834e+00 3.582085e+00 3.772224e+00 3.859894e+00 3.273533e+00 3.153209e+00 1.876141e+00 2.702874e-01 3.522800e-01 3.199525e-01 7.526357e-01 9.714835e-01 7.123646e-01 8.712909e-01 7.896184e-01 6.770524e-01 6.211657e-01 6.141285e-01 5.760894e-01 2.623560e-01
<GCONST> 1.279858e+02
<TRANSP> 5
 0.000000e+00 1.000000e+00 0.000000e+00 0.000000e+00 0.000000e+00
 0.000000e+00 6.563355e-01 3.436645e-01 0.000000e+00 0.000000e+00
 0.000000e+00 0.000000e+00 8.294261e-01 1.705739e-01 0.000000e+00
 0.000000e+00 0.000000e+00 0.000000e+00 6.176836e-01 3.823164e-01
 0.000000e+00 0.000000e+00 0.000000e+00 0.000000e+00 0.000000e+00
<ENDHMM>
~h "b"
<BEGINHMM>
<NUMSTATES> 5
<STATE> 2
<MEAN> 39
 -2.252338e+00 -3.738771e+00 1.603293e+00 -3.312671e+00 -4.461836e+00 -2.496090e+00 -7.736200e+00 -5.561526e+00 -4.190959e+00 -2.827456e+00 -4.792237e+00 -2.065143e+00 5.721306e+01 -8.317951e-01 9.714291e-01 5.635883e-01 2.068441e+00 8.736440e-01 7.621810e-01 1.399282e+00 1.437822e-01 7.352859e-01 1.121261e-01 5.273492e-01 -4.088471e-02 -2.128350e+00 -3.145951e-01 -6.239263e-01 -2.533745e-01 -6.478491e-01 -1.774218e-01 3.098212e-03 2.481021e-01 6.126881e-01 2.099334e-01 2.831017e-01 2.032525e-01 2.930756e-01 1.021892e+00
<VARIANCE> 39
 2.630063e+01 3.663404e+01 3.504457e+01 4.771157e+01 4.105369e+01 4.661013e+01 5.869387e+01 5.396957e+01 4.975811e+01 4.701175e+01 4.793710e+01 4.713037e+01 4.459626e+01 2.203045e+00 3.346215e+00 3.536502e+00 5.159906e+00 3.839996e+00 3.813006e+00 4.454209e+00 5.791117e+00 4.596361e+00 4.481217e+00 4.047128e+00 3.610172e+00 5.504101e+00 4.445691e-01 6.120172e-01 7.355630e-01 9.713557e-01 7.738036e-01 7.236319e-01 8.658521e-01 1.003895e+00 8.724142e-01 9.643142e-01 7.787886e-01 7.368321e-01 1.164617e+00
<GCONST> 1.361795e+02
<STATE> 3
<MEAN> 39
 -8.298434e+00 -4.656765e+00 8.358029e-01 -2.027580e-02 -1.875632e+00 1.439879e+00 3.680455e-01 1.022618e+00 2.860688e+00 2.391122e+00 9.362584e-01 1.494079e+00 5.252414e+01 -2.385214e-01 -8.832129e-01 5.409402e-02 -3.043043e-01 -1.332346e-01 -2.499719e-02 4.932705e-01 9.116092e-01 4.649318e-01 4.973530e-01 5.481225e-01 5.075406e-01 2.440897e+00 6.670634e-01 -3.020399e-01 4.211994e-03 -1.047876e+00 -4.953330e-01 -4.128207e-01 -7.933634e-01 -3.966844e-01 -7.531637e-01 -3.999951e-01 -5.954048e-01 -1.609264e-01 1.620113e+00
<VARIANCE> 39
 2.137484e+01 3.358458e+01 2.798602e+01 2.358938e+01 2.814352e+01 3.028365e+01 3.952739e+01 3.987461e+01 4.295002e+01 3.809081e+01 3.583366e+01 3.091930e+01 2.816949e+01 3.037600e+00 2.815454e+00 4.479611e+00 3.460260e+00 3.348721e+00 3.556949e+00 4.492456e+00 4.690433e+00 5.143951e+00 4.710352e+00 4.274826e+00 3.446587e+00 8.248986e+00 4.405371e-01 8.839406e-01 1.055992e+00 9.533837e-01 8.067420e-01 7.174535e-01 7.911094e-01 1.002370e+00 8.533465e-01 8.675618e-01 7.697744e-01 6.991792e-01 8.382507e-01
<GCONST> 1.321937e+02
<STATE> 4
<MEAN> 39
 -4.004105e+00 -6.268710e+00 3.786491e+00 -2.868497e+00 -4.605387e+00 -1.468489e+00 -2.733183e+00 -1.641443e-01 -6.656827e-01 5.266285e-01 -1.101185e+00 7.384861e-01 6.826379e+01 1.262972e+00 -1.250004e+00 -2.635611e-02 -4.007202e+00 -1.767735e+00 -8.743266e-01 -1.778037e+00 -5.061478e-01 -1.792410e+00 -5.117574e-01 -1.496240e+00 3.617241e-02 4.884192e+00 -2.526208e-01 -1.192900e-01 -5.316204e-01 -9.841042e-01 -1.856099e-01 4.569813e-03 -4.935296e-01 -2.970784e-01 -4.475557e-01 -2.010274e-01 -4.343252e-01 -4.494590e-02 -7.066525e-01
<VARIANCE> 39
 3.802645e+01 2.865788e+01 6.438052e+01 5.108779e+01 4.070061e+01 3.437229e+01 3.917873e+01 3.554384e+01 3.399187e+01 2.661040e+01 2.675082e+01 2.527188e+01 4.689597e+01 4.231151e+00 7.179038e+00 1.198758e+01 5.960825e+00 6.738726e+00 5.672213e+00 6.988719e+00 8.333801e+00 6.676364e+00 5.849291e+00 4.925107e+00 4.743306e+00 6.125517e+00 7.271590e-01 8.410216e-01 8.816825e-01 1.249686e+00 8.526802e-01 7.637676e-01 1.086780e+00 1.007253e+00 9.435625e-01 8.853961e-01 8.026323e-01 6.957939e-01 1.043875e+00
<GCONST> 1.409899e+02
<TRANSP> 5
 0.000000e+00 1.000000e+00 0.000000e+00 0.000000e+00 0.000000e+00
 0.000000e+00 6.051166e-01 3.948834e-01 0.000000e+00 0.000000e+00
 0.000000e+00 0.000000e+00 5.982756e-01 4.017244e-01 0.000000e+00
 0.000000e+00 0.000000e+00 0.000000e+00 4.714927e-01 5.285073e-01
 0.000000e+00 0.000000e+00 0.000000e+00 0.000000e+00 0.000000e+00
<ENDHMM>
~h "c"
<BEGINHMM>
<NUMSTATES> 5
<STATE> 2
<MEAN> 39
 -9.015239e+00 -6.347368e-01 -1.172801e+00 -1.356539e+00 -5.807359e+00 -5.020791e+00 -6.656215e+00 -3.719251e+00 -2.929701e+00 -2.590953e+00 -2.598000e+00 1.726845e-01 6.115425e+01 -2.947992e+00 1.753034e+00 -5.284033e-01 2.587209e+00 1.412825e+00 1.912660e+00 2.322338e+00 1.323316e+00 1.117528e+00 1.243225e+00 1.158561e+00 9.770081e-02 -8.801833e-01 -4.340832e-01 -5.322765e-01 -2.353553e-01 -4.682764e-01 8.232129e-02 2.710123e-01 4.061665e-01 5.399888e-01 1.815956e-01 4.167404e-01 1.636480e-01 1.637849e-01 7.214140e-01
<VARIANCE> 39
 4.421468e+01 3.674437e+01 3.908812e+01 4.835599e+01 5.386701e+01 5.375237e+01 5.845773e+01 4.862505e+01 4.816596e+01 4.423813e+01 3.896908e+01 3.776419e+01 4.585884e+01 3.312895e+00 4.721506e+00 4.026248e+00 5.003424e+00 4.649321e+00 5.553194e+00 5.784801e+00 5.677898e+00 4.908371e+00 5.059138e+00 4.384009e+00 3.994792e+00 4.400674e+00 8.353413e-01 7.343601e-01 6.189784e-01 8.538020e-01 7.879115e-01 1.012876e+00 1.029916e+00 8.675288e-01 8.010075e-01 8.290498e-01 7.001393e-01 6.400230e-01 5.347873e-01
<GCONST> 1.380720e+02
<STATE> 3
<MEAN> 39
 -1.912623e+01 6.159030e-01 -3.879411e+00 2.085773e+00 -1.592711e+00 6.525898e-01 2.249610e+00 3.358087e+00 2.266467e+00 3.624734e+00 2.358469e+00 2.387956e+00 6.408646e+01 -1.340710e-01 -2.710159e-01 6.621978e-02 -2.268821e-02 4.240297e-01 6.370688e-02 6.909180e-01 6.605473e-01 -8.136675e-03 3.381233e-02 2.282635e-01 1.239363e-01 2.224859e+00 1.020708e+00 -4.238155e-01 3.546920e-01 -3.729531e-01 -4.220400e-02 -3.800475e-01 -5.410282e-01 -3.661783e-01 -4.083161e-01 -5.597991e-01 -3.518210e-01 -6.683762e-02 1.513375e-01
<VARIANCE> 39
 3.014820e+01 3.426295e+01 2.564686e+01 3.106211e+01 3.186621e+01 3.094507e+01 2.721338e+01 2.625987e+01 2.593853e+01 2.228494e+01 1.983052e+01 1.657760e+01 5.246983e+01 5.747704e+00 3.346367e+00 3.251979e+00 2.496346e+00 2.851645e+00 3.091227e+00 3.512995e+00 3.370709e+00 3.302830e+00 3.276419e+00 2.745065e+00 2.236518e+00 2.449812e+00 6.719571e-01 6.530247e-01 5.193449e-01 6.149657e-01 6.386926e-01 7.002063e-01 7.304317e-01 6.357138e-01 6.495217e-01 6.446742e-01 5.593511e-01 4.714470e-01 7.939337e-01
<GCONST> 1.236984e+02
<STATE> 4
<MEAN> 39
 -1.170049e+01 -5.918371e+00 -2.413186e-01 5.510303e-01 2.666052e+00 7.777426e-01 8.614218e-01 2.863218e+00 -1.146630e+00 -1.157938e+00 5.390968e-01 2.311501e+00 7.139885e+01 1.766230e+00 -1.907103e+00 -3.305293e-01 -1.340857e+00 3.377972e-01 -4.729965e-02 -1.454116e+00 -9.228017e-01 -9.838758e-01 -1.346007e+00 -8.040751e-01 -2.941469e-02 1.436819e-01 1.012046e-02 -6.584790e-03 -5.659434e-01 -5.430263e-01 -4.943733e-01 -1.331761e-01 -4.689850e-01 -3.487272e-01 -2.088344e-01 -8.211740e-02 -2.210910e-01 -1.323463e-01 -1.997622e-01
<VARIANCE> 39
 4.051932e+01 7.171146e+01 2.734108e+01 2.977471e+01 4.590786e+01 4.925781e+01 4.568494e+01 3.677635e+01 3.677964e+01 3.346392e+01 2.792299e+01 2.429576e+01 2.993871e+01 4.016574e+00 4.194049e+00 3.836936e+00 4.601808e+00 5.489463e+00 4.763182e+00 5.362563e+00 4.566266e+00 3.928037e+00 4.113597e+00 3.653419e+00 3.287876e+00 1.476945e+00 6.779623e-01 7.505147e-01 5.958225e-01 7.574690e-01 8.792906e-01 8.341721e-01 8.460218e-01 8.145450e-01 7.407038e-01 7.291123e-01 6.394379e-01 6.229607e-01 4.116160e-01
<GCONST> 1.317760e+02
<TRANSP> 5
 0.000000e+00 1.000000e+00 0.000000e+00 0.000000e+00 0.000000e+00
 0.000000e+00 6.586139e-01 3.413861e-01 0.000000e+00 0.000000e+00
 0.000000e+00 0.000000e+00 7.610908e-01 2.389092e-01 0.000000e+00
 0.000000e+00 0.000000e+00 0.000000e+00 7.413330e-01 2.586670e-01
 0.000000e+00 0.000000e+00 0.000000e+00 0.000000e+00 0.000000e+00
<ENDHMM>
~h "d"
<BEGINHMM>
<NUMSTATES> 5
<STATE> 2
<MEAN> 39
 -3.323619e+00 -4.361161e+00 2.308714e+00 -4.940828e+00 -7.777173e+00 -7.169753e+00 -9.308826e+00 -4.588871e+00 -2.579715e+00 -3.673151e+00 -5.334224e+00 -4.206949e-01 5.956491e+01 -2.958428e-01 1.143655e+00 4.892640e-01 2.104336e+00 1.012827e+00 8.602332e-01 1.040956e+00 7.083225e-02 4.446858e-01 3.289899e-02 3.847235e-01 -4.048804e-01 -2.292907e+00 -4.551831e-01 -6.391961e-01 -5.092841e-01 -6.946476e-01 1.617485e-01 2.097954e-01 4.214811e-01 5.759540e-01 3.584076e-02 2.714974e-01 2.088744e-01 1.543002e-01 1.121355e+00
<VARIANCE> 39
 2.245994e+01 3.210286e+01 3.679612e+01 4.444014e+01 5.478625e+01 5.041088e+01 6.439435e+01 5.157636e+01 5.148211e+01 4.667025e+01 4.815809e+01 4.673554e+01 4.990978e+01 1.620070e+00 2.409902e+00 3.692961e+00 4.074152e+00 4.723079e+00 4.820759e+00 5.370015e+00 4.862259e+00 4.293831e+00 3.853112e+00 3.511689e+00 3.312175e+00 5.241161e+00 2.521113e-01 4.847849e-01 6.265017e-01 9.064369e-01 8.678595e-01 9.716315e-01 9.282415e-01 9.124285e-01 8.217874e-01 8.092626e-01 6.979463e-01 7.808977e-01 1.282405e+00
<GCONST> 1.347094e+02
<STATE> 3
<MEAN> 39
 -7.672947e+00 -4.091353e+00 1.636495e+00 -9.146129e-01 -3.451446e+00 -2.019006e+00 -2.813766e+00 -1.077096e+00 7.513631e-01 4.151014e-02 -1.374104e+00 2.158106e-01 5.524656e+01 -1.096859e+00 -1.015408e+00 -6.871772e-01 -8.854510e-01 3.039598e-01 1.068889e-02 9.246833e-01 1.295121e+00 5.707271e-01 5.415611e-01 8.582367e-01 6.809219e-01 2.640756e+00 2.604701e-01 -5.855907e-01 -2.434462e-01 -1.294359e+00 -5.526162e-01 -6.049427e-01 -6.416196e-01 9.068087e-02 -3.795533e-01 -3.177453e-01 -4.448279e-01 2.069279e-01 1.824850e+00
<VARIANCE> 39
 2.809708e+01 3.172177e+01 2.925107e+01 2.938757e+01 3.588624e+01 4.543704e+01 5.637429e+01 4.405035e+01 4.638468e+01 4.480297e+01 4.301926e+01 3.420244e+01 4.163731e+01 1.946773e+00 2.581320e+00 3.647380e+00 3.640440e+00 4.114939e+00 5.090306e+00 5.030601e+00 4.696474e+00 4.404356e+00 4.427176e+00 3.891280e+00 3.403637e+00 7.925306e+00 4.749753e-01 8.447247e-01 9.506502e-01 7.564943e-01 9.172237e-01 9.861870e-01 1.253036e+00 1.318354e+00 1.054812e+00 1.009053e+00 8.555725e-01 7.855928e-01 8.245255e-01
<GCONST> 1.357623e+02
<STATE> 4
<MEAN> 39
 -7.951429e+00 -7.069279e+00 2.382886e-01 -7.278411e+00 -5.491870e+00 -6.279937e+00 -4.075429e+00 1.418199e+00 4.059944e-02 -8.167642e-01 -7.911340e-01 2.380382e+00 7.039969e+01 6.471696e-01 -1.667817e+00 -1.152044e+00 -3.450227e+00 -1.035425e+00 -1.417835e+00 -1.461893e+00 8.156921e-01 -8.716238e-01 -8.995648e-01 -1.396214e+00 6.132168e-01 4.803901e+00 3.175573e-01 -2.316429e-01 -1.962912e-01 -3.570974e-01 -5.518828e-02 2.461402e-01 -5.218081e-01 -3.894185e-01 -4.297881e-01 -2.614055e-01 -6.525708e-01 -2.688741e-01 -6.858439e-01
<VARIANCE> 39
 3.268135e+01 2.931745e+01 4.057718e+01 3.705867e+01 4.269827e+01 6.590025e+01 5.928473e+01 4.351276e+01 3.641014e+01 3.429372e+01 3.736392e+01 3.073607e+01 3.555213e+01 2.969559e+00 5.728080e+00 8.010062e+00 3.614983e+00 5.746993e+00 5.764205e+00 1.002414e+01 9.139165e+00 6.845648e+00 6.187259e+00 5.351413e+00 4.675576e+00 4.934533e+00 4.873578e-01 6.544968e-01 8.184679e-01 7.198246e-01 9.017818e-01 1.122749e+00 1.176848e+00 1.024184e+00 8.616348e-01 8.663562e-01 8.346438e-01 7.398494e-01 9.577215e-01
<GCONST> 1.398919e+02
<TRANSP> 5
 0.000000e+00 1.000000e+00 0.000000e+00 0.000000e+00 0.000000e+00
 0.000000e+00 4.814450e-01 5.185550e-01 0.000000e+00 0.000000e+00
 0.000000e+00 0.000000e+00 5.298385e-01 4.701615e-01 0.000000e+00
 0.000000e+00 0.000000e+00 0.000000e+00 4.154958e-01 5.845042e-01
 0.000000e+00 0.000000e+00 0.000000e+00 0.000000e+00 0.000000e+00
<ENDHMM>
~h "e"
<BEGINHMM>
<NUMSTATES> 5
<STATE> 2
<MEAN> 39
 -3.834456e+00 -1.126054e+01 -5.355519e+00 -1.541052e+01 -5.522540e+00 -1.039623e+01 -1.300468e+01 1.657894e+00 -6.346352e-01 -2.086399e+00 -7.213929e+00 2.085313e+00 7.292509e+01 3.091866e-01 -1.604808e+00 -1.049341e+00 -2.892509e+00 -2.155297e-01 1.032321e-01 -3.961354e-01 1.030164e+00 9.800045e-02 -4.537566e-01 -1.603125e+00 -4.659445e-01 1.727397e+00 -3.889415e-01 1.715991e-01 1.826240e-01 8.151001e-01 3.665101e-01 5.634258e-01 6.084340e-01 -1.314787e-01 6.394727e-02 1.207975e-01 1.935773e-01 -3.009360e-01 -4.716080e-01
<VARIANCE> 39
 2.350600e+01 3.484936e+01 4.849969e+01 3.947717e+01 6.366245e+01 6.565467e+01 7.423896e+01 6.456580e+01 5.929846e+01 6.227552e+01 5.722152e+01 6.193530e+01 2.767048e+01 2.043527e+00 2.352835e+00 2.642209e+00 4.814806e+00 5.163006e+00 4.142738e+00 6.262102e+00 4.957054e+00 4.424403e+00 4.624026e+00 4.111481e+00 4.164150e+00 1.445606e+00 4.193222e-01 5.689737e-01 4.604700e-01 5.749584e-01 7.047353e-01 6.981621e-01 9.825591e-01 1.142569e+00 7.742105e-01 7.445110e-01 7.452007e-01 8.250146e-01 3.921739e-01
<GCONST> 1.339734e+02
<STATE> 3
<MEAN> 39
 -3.837865e+00 -1.406322e+01 -9.263034e+00 -1.730095e+01 -1.797423e+00 -4.730540e+00 -1.052060e+01 2.462168e+00 7.029389e-01 -3.313955e+00 -1.014133e+01 -2.579999e+00 7.431593e+01 1.078105e-02 -2.877839e-01 -1.242008e-01 5.737759e-03 3.622900e-02 4.174350e-01 4.168776e-01 -2.023283e-02 -8.349776e-03 -2.230654e-01 -1.341061e-01 -2.512049e-01 -2.226112e-03 3.684838e-02 3.775301e-01 3.363690e-01 4.710191e-01 -1.908512e-01 -1.254486e-01 -5.894936e-02 -2.909735e-01 -1.199679e-01 9.620396e-02 3.444614e-01 1.857096e-01 -4.419776e-01
<VARIANCE> 39
 2.388473e+01 2.828073e+01 4.433795e+01 4.093233e+01 5.835879e+01 7.444182e+01 6.748429e+01 6.008866e+01 5.696774e+01 6.560835e+01 4.575364e+01 4.669104e+01 3.043580e+01 4.674927e-01 9.598909e-01 1.316880e+00 1.514752e+00 2.593793e+00 2.518508e+00 2.188732e+00 2.192351e+00 2.122794e+00 2.320216e+00 2.116641e+00 2.361582e+00 6.834356e-01 1.160333e-01 2.392081e-01 2.219974e-01 4.070450e-01 3.769400e-01 4.002819e-01 4.525497e-01 5.455244e-01 4.396414e-01 4.708251e-01 4.640844e-01 4.008272e-01 2.212729e-01
<GCONST> 1.138029e+02
<STATE> 4
<MEAN> 39
 -3.839006e+00 -1.344517e+01 -5.928027e+00 -1.541090e+01 -5.781044e+00 -7.849532e+00 -9.611738e+00 2.239028e+00 -7.921230e-01 -4.168291e+00 -8.457366e+00 -2.450524e-01 7.275288e+01 1.613537e-01 1.288862e+00 1.339136e+00 1.634160e+00 -8.301438e-01 8.341569e-02 2.357788e-01 -1.045468e+00 -6.160392e-01 2.440553e-01 1.231214e+00 4.275865e-01 -1.743451e+00 -1.555560e-01 6.223672e-01 3.935255e-01 7.467133e-01 2.208516e-01 3.128478e-01 1.364598e-01 -3.249196e-01 -1.580449e-02 2.050047e-01 3.463078e-01 -1.972493e-02 -7.610446e-01
<VARIANCE> 39
 2.438836e+01 2.987240e+01 5.364108e+01 4.392547e+01 8.005103e+01 8.172989e+01 7.128477e+01 6.271784e+01 6.844289e+01 6.158408e+01 4.807399e+01 4.644439e+01 4.168501e+01 1.282856e+00 2.021084e+00 2.426147e+00 3.721930e+00 4.380014e+00 4.142345e+00 4.171172e+00 4.008441e+00 3.913554e+00 4.032977e+00 3.358975e+00 3.326024e+00 2.409837e+00 2.698992e-01 4.576237e-01 4.304732e-01 6.178102e-01 7.708149e-01 7.653461e-01 9.213809e-01 9.513564e-01 8.347608e-01 8.305938e-01 7.237572e-01 6.747230e-01 3.612959e-01
<GCONST> 1.317558e+02
<TRANSP> 5
 0.000000e+00 1.000000e+00 0.000000e+00 0.000000e+00 0.000000e+00
 0.000000e+00 4.810024e-01 5.189977e-01 0.000000e+00 0.000000e+00
 0.000000e+00 0.000000e+00 7.442160e-01 2.557840e-01 0.000000e+00
 0.000000e+00 0.000000e+00 0.000000e+00 3.788894e-01 6.211106e-01
 0.000000e+00 0.000000e+00 0.000000e+00 0.000000e+00 0.000000e+00
<ENDHMM>
~h "f"
<BEGINHMM>
<NUMSTATES> 5
<STATE> 2
<MEAN> 39
 -5.963023e+00 -4.145612e+00 -8.809463e-01 -3.351871e+00 -4.339836e+00 -1.505053e+00 -6.002631e+00 -2.987283e+00 -4.942117e+00 -4.031284e+00 -3.569487e+00 -9.064407e-01 6.391932e+01 -2.729393e+00 8.953626e-01 1.172441e+00 3.405176e+00 1.142478e+00 1.250793e+00 1.845882e+00 8.730698e-01 1.256034e+00 1.249808e+00 1.114721e+00 3.296871e-01 -1.056446e+00 -4.896710e-01 -5.907575e-01 -1.806606e-01 -4.766658e-01 -1.108296e-01 4.816846e-02 2.149249e-01 5.280818e-01 3.253620e-01 4.419588e-01 2.051772e-01 2.069054e-01 3.655753e-01
<VARIANCE> 39
 4.273347e+01 2.334062e+01 3.676502e+01 5.786245e+01 3.366322e+01 3.888438e+01 3.835855e+01 3.188647e+01 3.394892e+01 2.986706e+01 2.658407e+01 2.685844e+01 3.456983e+01 2.995050e+00 3.740342e+00 4.318199e+00 5.945033e+00 4.183098e+00 4.518436e+00 4.170213e+00 5.004664e+00 4.620729e+00 4.229654e+00 3.590053e+00 3.270179e+00 2.073478e+00 7.202904e-01 4.048403e-01 6.037983e-01 1.131683e+00 6.118551e-01 5.986995e-01 7.632645e-01 6.886561e-01 6.663641e-01 6.281984e-01 5.353582e-01 4.922385e-01 2.480042e-01
<GCONST> 1.285113e+02
<STATE> 3
<MEAN> 39
 -1.640893e+01 -6.068132e+00 -9.551660e-02 2.401249e+00 -2.465670e+00 2.153098e+00 -1.743098e-02 3.166596e+00 1.549456e+00 2.630275e+00 1.491297e+00 2.076791e+00 6.323582e+01 -6.474346e-01 -3.431978e-01 -1.758872e-01 1.004654e-01 6.016116e-02 1.300064e-01 2.805490e-01 4.047652e-01 4.313394e-01 4.386272e-01 4.000382e-01 2.624276e-01 2.502497e-01 9.967120e-01 -7.072846e-02 -2.720746e-01 -7.933030e-01 -2.152947e-01 -3.688586e-01 -5.294853e-01 -4.488665e-01 -4.786986e-01 -5.221918e-01 -4.382311e-01 -1.693665e-01 3.575605e-01
<VARIANCE> 39
 2.524098e+01 1.735984e+01 1.703872e+01 1.597814e+01 1.768952e+01 1.769592e+01 1.917072e+01 1.913524e+01 1.991494e+01 1.898144e+01 1.682021e+01 1.522192e+01 3.251873e+01 2.952993e+00 1.175939e+00 1.292172e+00 1.613493e+00 1.584561e+00 1.906241e+00 2.159651e+00 2.507142e+00 2.573405e+00 2.588812e+00 2.099759e+00 1.741698e+00 1.390944e+00 4.490512e-01 4.003583e-01 4.573849e-01 7.064314e-01 4.553946e-01 5.181388e-01 5.157970e-01 5.044261e-01 5.078290e-01 5.329075e-01 4.996648e-01 4.375230e-01 3.548363e-01
<GCONST> 1.087772e+02
<STATE> 4
<MEAN> 39
 -1.133226e+01 -5.689873e+00 -5.917333e-01 -5.271872e-02 -2.829958e+00 1.775350e-01 -1.834567e+00 1.273515e+00 -3.441526e-01 2.093409e-01 3.723597e-02 1.401265e+00 6.586494e+01 3.699249e+00 -1.176503e+00 -1.925514e+00 -3.948263e+00 -7.351077e-01 -1.127556e+00 -1.859604e+00 -1.130160e+00 -1.288134e+00 -1.560167e+00 -1.670361e+00 -4.283165e-01 2.157022e+00 3.684268e-01 -6.201281e-01 -5.459138e-01 -1.063862e+00 -6.678904e-02 -8.674219e-03 -4.105884e-01 -1.481712e-01 -3.846976e-01 -2.713668e-01 -4.536541e-01 -1.268266e-01 3.576996e-01
<VARIANCE> 39
 5.833941e+01 2.139736e+01 2.175672e+01 2.751214e+01 2.042519e+01 2.419658e+01 2.527040e+01 2.128773e+01 2.057268e+01 2.131821e+01 1.997463e+01 1.767758e+01 2.983920e+01 2.371087e+00 4.843107e+00 4.128580e+00 4.731613e+00 4.047766e+00 4.824288e+00 3.466535e+00 3.561779e+00 3.461519e+00 3.758576e+00 4.186443e+00 3.956897e+00 2.559708e+00 9.615577e-01 5.515148e-01 4.975160e-01 8.230749e-01 6.113541e-01 6.174216e-01 6.551911e-01 6.180384e-01 5.544948e-01 6.382032e-01 6.274913e-01 5.410039e-01 3.250157e-01
<GCONST> 1.236010e+02
<TRANSP> 5
 0.000000e+00 1.000000e+00 0.000000e+00 0.000000e+00 0.000000e+00
 0.000000e+00 6.242998e-01 3.757002e-01 0.000000e+00 0.000000e+00
 0.000000e+00 0.000000e+00 7.746410e-01 2.253590e-01 0.000000e+00
 0.000000e+00 0.000000e+00 0.000000e+00 5.562407e-01 4.437594e-01
 0.000000e+00 0.000000e+00 0.000000e+00 0.000000e+00 0.000000e+00
<ENDHMM>
~h "g"
<BEGINHMM>
<NUMSTATES> 5
<STATE> 2
<MEAN> 39
 -2.346361e+00 -3.799307e+00 -1.341840e+00 -8.352774e+00 -6.399652e+00 -3.806896e+00 -8.528379e+00 -5.348781e+00 -4.291811e+00 -1.599357e+00 -5.253391e+00 -2.261843e-01 5.891958e+01 -5.784243e-01 6.019423e-01 1.225128e-01 2.367617e+00 9.904371e-01 8.400836e-01 1.823793e+00 5.349288e-01 9.891243e-01 3.609310e-01 1.003057e+00 2.722316e-02 -2.427689e+00 -3.221821e-01 -6.394397e-01 -4.869226e-01 -4.123611e-01 1.311285e-01 6.951211e-02 3.895868e-01 6.666414e-01 1.907079e-01 2.983489e-01 1.380570e-01 2.286530e-01 7.336630e-01
<VARIANCE> 39
 2.638040e+01 3.562918e+01 4.704237e+01 6.515547e+01 4.990049e+01 5.125917e+01 6.363256e+01 4.851337e+01 5.574452e+01 5.477105e+01 5.324803e+01 4.707484e+01 4.729889e+01 2.100442e+00 3.304319e+00 4.621319e+00 5.393724e+00 5.133604e+00 5.119677e+00 5.926339e+00 6.247163e+00 5.630053e+00 5.190729e+00 4.649989e+00 4.213526e+00 4.278627e+00 3.069695e-01 4.701340e-01 8.347846e-01 1.384428e+00 1.010114e+00 9.959148e-01 1.217316e+00 9.726771e-01 1.087423e+00 1.026826e+00 8.635550e-01 9.040509e-01 9.547734e-01
<GCONST> 1.401776e+02
<STATE> 3
<MEAN> 39
 -8.035300e+00 -6.001418e+00 -1.944239e+00 -2.014548e+00 -2.694513e+00 4.806386e-02 3.009373e-01 1.342378e+00 2.646353e+00 3.196731e+00 5.394275e-01 2.457763e+00 5.357368e+01 -2.104957e-01 -1.223268e+00 -2.223680e+00 -9.038184e-01 6.807842e-01 -2.764212e-01 8.977044e-01 1.488633e+00 2.577977e-01 7.705315e-01 5.634039e-02 8.023158e-01 1.800969e+00 6.778864e-01 -9.410079e-04 -4.132479e-01 -1.406145e+00 -4.240524e-01 -5.651162e-01 -9.835425e-01 -4.946394e-01 -8.864961e-01 -4.144796e-01 -7.925856e-01 -3.280787e-02 1.462052e+00
<VARIANCE> 39
 2.418679e+01 3.946175e+01 3.514309e+01 3.807750e+01 3.735038e+01 3.848086e+01 4.157650e+01 3.878508e+01 4.559921e+01 3.816098e+01 3.906475e+01 2.843637e+01 3.253636e+01 2.787082e+00 3.318420e+00 4.610587e+00 6.193961e+00 5.203001e+00 5.349133e+00 6.012360e+00 4.982613e+00 5.952854e+00 4.878057e+00 4.835263e+00 3.639688e+00 6.175383e+00 3.808896e-01 6.731265e-01 8.425261e-01 9.997470e-01 8.675780e-01 9.459246e-01 9.134296e-01 1.011881e+00 9.765920e-01 9.210413e-01 8.385119e-01 7.659106e-01 6.406593e-01
<GCONST> 1.359068e+02
<STATE> 4
<MEAN> 39
 -3.542451e+00 -6.848414e+00 -1.021822e+01 -9.968462e+00 -2.517625e+00 -3.645643e+00 -2.449503e+00 1.642955e+00 -2.533901e+00 2.386543e+00 -3.935081e+00 3.214001e+00 6.453224e+01 1.594102e+00 2.135643e-01 -9.468676e-01 -3.714429e+00 -9.340965e-01 -1.119979e+00 -2.232954e+00 -9.462700e-01 -2.033259e+00 -7.392500e-01 -1.559836e+00 3.432768e-01 3.346759e+00 -1.958147e-02 8.655498e-03 7.730628e-01 -3.577044e-01 -3.280360e-01 2.305412e-01 -6.078315e-01 -4.851331e-01 -1.161799e-01 -3.244876e-01 -1.165555e-01 -3.100058e-01 -2.180444e-01
<VARIANCE> 39
 3.985136e+01 4.691372e+01 4.251593e+01 7.483310e+01 5.623970e+01 5.911064e+01 6.367340e+01 4.907123e+01 5.132625e+01 3.966910e+01 3.702118e+01 3.349865e+01 3.732872e+01 1.955485e+00 3.825768e+00 5.800152e+00 5.311216e+00 5.216044e+00 5.001965e+00 6.305582e+00 5.881086e+00 5.463378e+00 5.145579e+00 4.954798e+00 4.815880e+00 3.746036e+00 4.898859e-01 8.496084e-01 8.716785e-01 1.272312e+00 1.084834e+00 1.071520e+00 1.421433e+00 1.211556e+00 1.176773e+00 9.789427e-01 8.896889e-01 8.957245e-01 5.927398e-01
<GCONST> 1.412500e+02
<TRANSP> 5
 0.000000e+00 1.000000e+00 0.000000e+00 0.000000e+00 0.000000e+00
 0.000000e+00 5.991862e-01 4.008138e-01 0.000000e+00 0.000000e+00
 0.000000e+00 0.000000e+00 5.752677e-01 4.247323e-01 0.000000e+00
 0.000000e+00 0.000000e+00 0.000000e+00 5.586081e-01 4.413919e-01
 0.000000e+00 0.000000e+00 0.000000e+00 0.000000e+00 0.000000e+00
<ENDHMM>
~h "h"
<BEGINHMM>
<NUMSTATES> 5
<STATE> 2
<MEAN> 39
 -2.848041e+00 -8.113029e+00 -9.272418e+00 -1.252369e+01 7.428250e-02 -8.230852e-01 -1.065952e+01 -2.600056e+00 -7.304192e+00 -5.724676e+00 -4.601750e+00 -2.136714e+00 6.712927e+01 -6.823524e-01 1.126606e+00 2.325562e-02 1.841695e+00 1.963262e+00 1.452732e+00 1.156282e+00 2.075940e-01 3.122939e-01 4.773949e-01 8.600260e-01 -2.614330e-01 -1.301476e+00 -5.194364e-01 -2.359774e-01 3.125574e-01 2.786259e-01 3.475555e-02 1.257874e-01 6.237627e-01 5.960162e-01 4.357122e-01 5.676282e-01 2.033931e-01 1.132264e-01 6.882780e-02
<VARIANCE> 39
 3.060170e+01 4.682095e+01 4.487544e+01 6.899863e+01 6.475336e+01 7.659415e+01 6.754263e+01 5.471933e+01 7.396246e+01 6.707406e+01 5.266224e+01 5.341011e+01 4.395270e+01 3.061501e+00 3.094533e+00 4.451581e+00 6.144596e+00 6.789508e+00 5.032938e+00 7.198332e+00 7.093226e+00 6.482938e+00 6.215136e+00 4.745117e+00 4.073338e+00 1.576149e+00 2.988475e-01 4.619727e-01 5.951968e-01 7.987201e-01 8.937828e-01 8.421625e-01 1.042956e+00 1.118243e+00 1.142276e+00 1.079243e+00 8.860340e-01 7.242761e-01 1.939718e-01
<GCONST> 1.393472e+02
<STATE> 3
<MEAN> 39
 -1.017125e+01 -7.746967e+00 -7.775847e+00 -4.198732e+00 7.429021e+00 4.475306e+00 -2.003543e+00 3.983920e+00 -6.253994e-01 1.080508e+00 -1.775068e-01 -1.728802e+00 6.405891e+01 -1.138911e+00 -2.954523e-01 -1.192455e-01 7.675391e-01 7.457157e-01 7.333903e-01 1.306689e+00 1.611445e+00 1.482747e+00 1.446172e+00 8.389800e-01 2.409320e-01 -2.935409e-01 5.818328e-01 -7.343218e-02 -1.193775e-01 -7.221758e-01 -6.301363e-01 -3.738173e-01 -6.285918e-01 -5.308288e-01 -4.031292e-01 -4.997380e-01 -2.684423e-01 2.045945e-02 2.556714e-01
<VARIANCE> 39
 3.521642e+01 4.895573e+01 3.501315e+01 5.095892e+01 6.621993e+01 4.564651e+01 4.756264e+01 5.227944e+01 4.953279e+01 4.985807e+01 3.481893e+01 3.244979e+01 3.954754e+01 1.821895e+00 1.687505e+00 2.304566e+00 3.225764e+00 3.646741e+00 3.047407e+00 3.861203e+00 4.379278e+00 3.494254e+00 4.172050e+00 3.089456e+00 2.655396e+00 8.497351e-01 2.829479e-01 3.642173e-01 4.935045e-01 5.930634e-01 7.010041e-01 6.321935e-01 7.904382e-01 9.387585e-01 7.640606e-01 8.160738e-01 6.242373e-01 5.459027e-01 1.743763e-01
<GCONST> 1.260458e+02
<STATE> 4
<MEAN> 39
 -9.497932e+00 -7.527357e+00 -7.471942e+00 -4.539618e+00 6.251509e+00 4.557154e+00 -1.882684e+00 4.247225e+00 6.770310e-01 1.316244e+00 4.488688e-01 -1.136516e+00 6.334018e+01 1.601079e+00 3.400780e-02 -2.648604e-01 -1.631725e+00 -1.350951e+00 -7.592838e-01 -1.551394e+00 -1.610656e+00 -1.189039e+00 -1.228731e+00 -6.263440e-01 -3.078479e-02 8.560296e-01 4.867468e-01 -1.755331e-01 -1.932386e-01 -7.527109e-01 -4.483783e-01 -2.811551e-01 -5.249566e-01 -4.776097e-01 -4.283295e-01 -3.347109e-01 -3.164660e-01 -2.800039e-02 4.602337e-01
<VARIANCE> 39
 4.170728e+01 6.844533e+01 3.706551e+01 5.372482e+01 6.757501e+01 4.773135e+01 5.193958e+01 5.904747e+01 4.837079e+01 4.883335e+01 3.473956e+01 3.075739e+01 3.862929e+01 2.535794e+00 2.485591e+00 2.969026e+00 5.061937e+00 4.376305e+00 3.358015e+00 4.382587e+00 4.495525e+00 3.432833e+00 3.448964e+00 3.143510e+00 2.793665e+00 1.756354e+00 4.025067e-01 5.228005e-01 5.146489e-01 7.374256e-01 6.885269e-01 6.353092e-01 8.329819e-01 9.169527e-01 7.046928e-01 7.515234e-01 6.021006e-01 5.215253e-01 2.994427e-01
<GCONST> 1.305362e+02
<TRANSP> 5
 0.000000e+00 1.000000e+00 0.000000e+00 0.000000e+00 0.000000e+00
 0.000000e+00 6.502220e-01 3.497780e-01 0.000000e+00 0.000000e+00
 0.000000e+00 0.000000e+00 6.811380e-01 3.188620e-01 0.000000e+00
 0.000000e+00 0.000000e+00 0.000000e+00 7.303315e-01 2.696685e-01
 0.000000e+00 0.000000e+00 0.000000e+00 0.000000e+00 0.000000e+00
<ENDHMM>
~h "i"
<BEGINHMM>
<NUMSTATES> 5
<STATE> 2
<MEAN> 39
 -1.273362e+01 1.087928e+00 1.291318e+01 -1.597793e+01 -1.175183e+01 -4.692948e+00 -1.507646e+01 -1.030476e+01 -7.909214e+00 -1.130387e+00 -6.586299e+00 1.009731e+00 6.886782e+01 4.906947e-01 -5.538986e-01 1.548714e+00 -2.409227e+00 -1.255195e+00 -4.260601e-01 -1.930225e+00 -8.548700e-01 -1.329741e+00 -1.721654e-02 -1.562586e+00 -4.334934e-02 4.891159e-01 -1.807938e-01 -1.997104e-01 -6.068780e-01 6.113899e-01 4.268392e-01 2.677649e-01 7.380664e-01 6.030361e-01 4.728818e-01 1.857117e-01 2.054537e-01 -4.707234e-02 -2.347368e-01
<VARIANCE> 39
 2.361882e+01 3.445280e+01 3.510891e+01 5.036160e+01 3.549114e+01 3.636441e+01 4.610341e+01 4.190652e+01 5.249267e+01 4.393971e+01 4.766141e+01 5.857798e+01 2.524452e+01 3.336610e+00 3.417234e+00 2.902778e+00 3.890992e+00 4.267557e+00 4.050522e+00 5.105540e+00 4.678064e+00 4.914174e+00 3.903203e+00 3.619725e+00 3.345140e+00 9.532504e-01 3.642673e-01 3.542603e-01 4.099078e-01 5.701784e-01 5.689127e-01 5.961068e-01 7.229592e-01 6.497270e-01 6.135237e-01 6.874458e-01 5.956365e-01 5.855546e-01 2.491188e-01
<GCONST> 1.271288e+02
<STATE> 3
<MEAN> 39
 -1.241774e+01 1.426815e+00 1.450101e+01 -1.890660e+01 -1.157936e+01 -3.909559e+00 -1.723608e+01 -8.890612e+00 -8.219941e+00 -4.520974e-01 -8.775777e+00 -7.279821e-03 6.793204e+01 1.872162e-01 -3.047865e-01 4.792268e-02 1.487055e-01 -4.218740e-01 1.279833e-01 2.056887e-01 -1.395690e-01 1.861516e-01 1.521125e-01 -1.627908e-03 1.054299e-01 -8.548261e-02 9.738875e-02 -6.501041e-02 -2.216613e-01 4.405888e-01 1.304727e-03 -1.949439e-02 3.490981e-01 3.822103e-02 1.232951e-01 8.581510e-03 2.047576e-01 -2.675401e-04 -1.350791e-01
<VARIANCE> 39
 2.412748e+01 3.298660e+01 3.060370e+01 4.300347e+01 4.022158e+01 3.839911e+01 4.444201e+01 4.262544e+01 6.405621e+01 5.253730e+01 4.764730e+01 4.927959e+01 3.109224e+01 5.012166e-01 1.188400e+00 8.167722e-01 1.266344e+00 1.615125e+00 1.268558e+00 1.762635e+00 1.488614e+00 1.552693e+00 1.621461e+00 1.520537e+00 1.488356e+00 5.226541e-01 1.346654e-01 1.669313e-01 2.320792e-01 3.647501e-01 3.150369e-01 2.918121e-01 3.812017e-01 3.460942e-01 3.613942e-01 3.425838e-01 3.434280e-01 2.904863e-01 1.001308e-01
<GCONST> 1.046647e+02
<STATE> 4
<MEAN> 39
 -1.021394e+01 -3.311562e+00 1.294277e+01 -1.494137e+01 -1.602821e+01 -4.408262e+00 -1.244351e+01 -1.024803e+01 -7.759943e+00 9.876589e-01 -7.724310e+00 8.145858e-01 6.809035e+01 8.857339e-01 -5.000164e-01 -1.683472e+00 2.814791e+00 5.068313e-01 -2.849886e-01 1.916827e+00 9.179237e-01 6.454446e-01 -3.018197e-01 1.079042e+00 -2.958868e-01 -1.236927e+00 -1.388474e-01 3.195445e-01 -5.265297e-01 5.695667e-01 9.488729e-01 1.277629e-01 1.842151e-01 5.325885e-01 3.387802e-01 -2.168867e-01 3.037699e-01 -5.284146e-02 -4.709396e-01
<VARIANCE> 39
 2.615254e+01 4.329918e+01 3.425613e+01 5.427432e+01 4.058228e+01 4.040730e+01 5.119016e+01 5.192912e+01 6.641841e+01 5.016362e+01 5.064729e+01 4.786087e+01 4.629412e+01 1.874587e+00 2.759174e+00 2.655211e+00 3.533633e+00 4.651611e+00 3.487272e+00 4.188323e+00 4.014964e+00 4.097944e+00 3.970774e+00 3.239210e+00 3.011839e+00 2.423227e+00 3.446992e-01 4.658514e-01 3.902270e-01 6.761478e-01 6.452767e-01 6.304658e-01 8.062348e-01 7.306334e-01 7.105289e-01 7.252934e-01 6.149559e-01 5.174584e-01 3.578447e-01
<GCONST> 1.292822e+02
<TRANSP> 5
 0.000000e+00 1.000000e+00 0.000000e+00 0.000000e+00 0.000000e+00
 0.000000e+00 5.010359e-01 4.989641e-01 0.000000e+00 0.000000e+00
 0.000000e+00 0.000000e+00 7.986366e-01 2.013634e-01 0.000000e+00
 0.000000e+00 0.000000e+00 0.000000e+00 5.686498e-01 4.313502e-01
 0.000000e+00 0.000000e+00 0.000000e+00 0.000000e+00 0.000000e+00
<ENDHMM>
~h "j"
<BEGINHMM>
<NUMSTATES> 5
<STATE> 2
<MEAN> 39
 -6.905591e+00 -8.826833e-01 3.055611e+00 -2.677182e+00 -8.418616e+00 -5.325148e+00 -6.998533e+00 -5.966415e+00 -4.924883e+00 -3.814301e+00 -4.702009e+00 -1.572578e+00 5.974908e+01 -1.889684e+00 1.367523e+00 -6.185838e-01 2.000843e+00 1.806419e+00 1.569297e+00 1.698223e+00 8.385451e-01 1.119915e+00 6.245513e-01 9.703362e-01 -9.298323e-02 -1.431859e+00 -7.360651e-01 -2.967022e-01 -3.823817e-01 -4.608507e-01 2.108355e-01 2.766878e-01 2.041034e-01 4.769340e-01 3.581136e-01 5.069653e-01 2.364489e-01 2.729077e-01 7.452815e-01
<VARIANCE> 39
 3.330967e+01 3.684061e+01 3.292241e+01 4.030839e+01 4.899481e+01 4.427865e+01 4.895396e+01 4.877085e+01 4.625300e+01 3.913115e+01 3.879943e+01 3.944722e+01 4.678070e+01 4.051050e+00 4.084301e+00 3.836738e+00 4.150451e+00 4.457467e+00 4.390478e+00 5.110331e+00 5.772243e+00 4.949611e+00 4.748964e+00 3.935420e+00 3.853007e+00 5.148702e+00 5.164058e-01 6.186184e-01 6.368772e-01 7.929317e-01 1.014578e+00 8.660598e-01 8.944231e-01 8.395913e-01 8.187982e-01 7.604213e-01 6.620263e-01 6.930892e-01 7.654688e-01
<GCONST> 1.358075e+02
<STATE> 3
<MEAN> 39
 -1.948389e+01 1.038842e+00 -1.864142e+00 3.260561e-01 -1.385695e+00 1.887317e+00 4.684412e-01 1.433152e+00 2.935730e+00 2.938190e+00 1.578495e+00 1.855493e+00 6.060162e+01 -2.337597e+00 8.713297e-01 -6.660404e-02 -6.159683e-01 3.304416e-01 6.826134e-01 3.391371e-01 2.294092e-01 4.867201e-01 5.271620e-01 4.747926e-01 2.893725e-01 2.201997e+00 8.923202e-01 -1.342600e-01 8.066325e-01 -6.665874e-01 -7.805735e-01 -5.848261e-01 -7.045285e-01 -7.556705e-01 -6.711054e-01 -4.322216e-01 -4.297465e-01 -1.589539e-01 3.770739e-01
<VARIANCE> 39
 4.129070e+01 3.930449e+01 3.232020e+01 3.098832e+01 3.041862e+01 2.570589e+01 2.751551e+01 2.892995e+01 2.977059e+01 2.476753e+01 2.331272e+01 1.953157e+01 4.070829e+01 3.819105e+00 3.499517e+00 4.055178e+00 2.746759e+00 3.211564e+00 2.998823e+00 3.453925e+00 3.770620e+00 3.516464e+00 3.476842e+00 3.082983e+00 2.500031e+00 2.420042e+00 1.016789e+00 8.760988e-01 6.076459e-01 8.216897e-01 7.907192e-01 7.341058e-01 7.064652e-01 7.651016e-01 6.777760e-01 5.995974e-01 5.754303e-01 5.441621e-01 7.645878e-01
<GCONST> 1.267154e+02
<STATE> 4
<MEAN> 39
 -2.019153e+01 4.410500e+00 4.124073e+00 -4.048973e+00 -4.568249e+00 5.202446e-01 -2.660984e+00 -3.755038e+00 -2.527355e-01 9.804286e-01 1.197670e-01 6.604151e-01 6.837936e+01 2.510770e+00 -9.601870e-01 2.842735e+00 -2.794039e+00 -3.250526e+00 -2.024378e+00 -2.425815e+00 -2.493899e+00 -2.159938e+00 -6.311001e-01 -9.791992e-01 7.938991e-03 1.557453e+00 9.182391e-01 -9.885661e-01 7.650919e-02 -5.862942e-01 -5.877501e-01 -4.901234e-01 -4.304502e-01 -1.150993e-02 -4.883983e-01 -4.358819e-02 -5.024545e-01 1.697624e-02 -2.694203e-01
<VARIANCE> 39
 4.024503e+01 3.115896e+01 4.565094e+01 3.071017e+01 4.405949e+01 3.702615e+01 4.159104e+01 4.071279e+01 3.362568e+01 2.549898e+01 2.186729e+01 2.002778e+01 2.320930e+01 3.066229e+00 4.384153e+00 2.540355e+00 5.011869e+00 3.602937e+00 3.825577e+00 4.276091e+00 4.811586e+00 3.594547e+00 3.154692e+00 3.125723e+00 3.512959e+00 1.582141e+00 9.060137e-01 7.388104e-01 8.148253e-01 6.666086e-01 8.944185e-01 8.352845e-01 9.330065e-01 1.117383e+00 7.626652e-01 7.072814e-01 6.510606e-01 5.645816e-01 2.178649e-01
<GCONST> 1.285388e+02
<TRANSP> 5
 0.000000e+00 1.000000e+00 0.000000e+00 0.000000e+00 0.000000e+00
 0.000000e+00 6.969219e-01 3.030781e-01 0.000000e+00 0.000000e+00
 0.000000e+00 0.000000e+00 7.195248e-01 2.804752e-01 0.000000e+00
 0.000000e+00 0.000000e+00 0.000000e+00 5.989117e-01 4.010883e-01
 0.000000e+00 0.000000e+00 0.000000e+00 0.000000e+00 0.000000e+00
<ENDHMM>
~h "k"
<BEGINHMM>
<NUMSTATES> 5
<STATE> 2
<MEAN> 39
 -3.920992e+00 -4.482980e+00 -1.218889e+00 -6.502257e+00 -5.137287e+00 -2.666179e+00 -6.518402e+00 -4.151156e+00 -3.113256e+00 -9.228116e-01 -3.709346e+00 4.986183e-01 5.828127e+01 -1.074895e+00 -2.011724e-01 -6.357076e-01 2.441756e+00 1.714742e+00 1.094151e+00 2.261231e+00 1.324665e+00 1.395667e+00 1.209577e+00 1.330541e+00 4.077914e-01 -1.688279e+00 -3.044057e-01 -7.641034e-01 -6.205019e-01 -3.418788e-01 3.226787e-01 1.328398e-02 3.026419e-01 6.917081e-01 2.174645e-01 3.041911e-01 2.798314e-02 1.194936e-01 1.025791e+00
<VARIANCE> 39
 2.848036e+01 3.190526e+01 4.622142e+01 6.420994e+01 5.109925e+01 5.050005e+01 6.564265e+01 4.893539e+01 5.728406e+01 5.339590e+01 5.039533e+01 4.370271e+01 4.415811e+01 2.122962e+00 4.085186e+00 5.644442e+00 6.360731e+00 5.284410e+00 5.064561e+00 6.031400e+00 6.287577e+00 5.936275e+00 5.163943e+00 5.019681e+00 4.411721e+00 6.723816e+00 3.918697e-01 4.738536e-01 7.785720e-01 1.182046e+00 9.588838e-01 1.038619e+00 1.319843e+00 9.426308e-01 1.061111e+00 9.716029e-01 9.816476e-01 7.975569e-01 9.895833e-01
<GCONST> 1.412387e+02
<STATE> 3
<MEAN> 39
 -8.267257e+00 -1.003035e+01 -8.173225e+00 -2.795557e+00 1.761960e+00 -2.749462e-01 8.255923e-01 4.296070e+00 2.557332e+00 4.568711e+00 -2.866864e-01 2.808123e+00 6.189132e+01 -1.073514e-01 -7.232199e-01 -6.631156e-01 5.024368e-01 1.300826e+00 7.137315e-02 2.432246e-01 7.755614e-01 1.645768e-01 -2.039744e-02 -1.678627e-01 -7.110081e-02 2.456341e+00 2.620219e-01 3.690925e-01 7.084225e-01 -1.092127e-01 -2.406579e-01 -2.865024e-02 -5.249735e-01 -6.025831e-01 -3.743814e-01 -5.132247e-01 -2.271289e-01 -1.522584e-01 1.310627e-01
<VARIANCE> 39
 3.183104e+01 3.748709e+01 5.151041e+01 5.717811e+01 4.584722e+01 5.372388e+01 4.717774e+01 3.578462e+01 4.603669e+01 3.667373e+01 3.584311e+01 2.721047e+01 7.433334e+01 2.402164e+00 4.038325e+00 7.913992e+00 5.202008e+00 4.229979e+00 5.412204e+00 5.306465e+00 4.865320e+00 4.945411e+00 4.510336e+00 4.371873e+00 3.399556e+00 5.455991e+00 4.616730e-01 6.870415e-01 1.246680e+00 1.152732e+00 8.775282e-01 1.120102e+00 1.081962e+00 9.252226e-01 1.028926e+00 8.756166e-01 9.799629e-01 6.923234e-01 1.706344e+00
<GCONST> 1.397255e+02
<STATE> 4
<MEAN> 39
 -8.050899e+00 -9.881330e+00 -2.273823e+00 1.390000e+00 5.783274e+00 1.273548e+00 -1.336722e+00 1.357887e+00 4.438716e-01 -1.241700e-01 -1.527415e+00 1.685013e+00 6.988454e+01 7.697118e-01 -7.197596e-02 9.314737e-02 -1.377163e+00 -6.260201e-01 -3.848085e-03 -1.482862e+00 -1.579085e+00 -1.262619e+00 -1.373460e+00 -6.104205e-01 -9.205855e-02 5.841784e-01 2.808407e-01 -2.663429e-01 -7.180459e-01 -1.001310e+00 -7.062494e-01 -3.543624e-01 -3.359381e-01 -1.505580e-01 -3.364298e-01 -7.944523e-02 -2.578270e-01 4.980410e-03 -4.548207e-02
<VARIANCE> 39
 4.179083e+01 4.235207e+01 4.002800e+01 4.542105e+01 4.211256e+01 6.019473e+01 4.926039e+01 3.815916e+01 4.316348e+01 4.047932e+01 3.127695e+01 2.579234e+01 2.989331e+01 2.366903e+00 3.604275e+00 5.279228e+00 6.483757e+00 5.465333e+00 4.926686e+00 4.625353e+00 4.183972e+00 3.968927e+00 4.079969e+00 3.774158e+00 3.365605e+00 1.111591e+00 4.237784e-01 6.494361e-01 6.122824e-01 7.008471e-01 7.572112e-01 8.107116e-01 7.969730e-01 8.141551e-01 6.887331e-01 7.179183e-01 6.220926e-01 5.775359e-01 3.462479e-01
<GCONST> 1.311142e+02
<TRANSP> 5
 0.000000e+00 1.000000e+00 0.000000e+00 0.000000e+00 0.000000e+00
 0.000000e+00 6.174703e-01 3.825296e-01 0.000000e+00 0.000000e+00
 0.000000e+00 0.000000e+00 7.776170e-01 2.223830e-01 0.000000e+00
 0.000000e+00 0.000000e+00 0.000000e+00 7.483154e-01 2.516846e-01
 0.000000e+00 0.000000e+00 0.000000e+00 0.000000e+00 0.000000e+00
<ENDHMM>
~h "l"
<BEGINHMM>
<NUMSTATES> 5
<STATE> 2
<MEAN> 39
 -4.312357e+00 -1.031843e+01 6.628673e-01 -6.888124e+00 -9.059240e+00 -6.952964e+00 -1.062110e+01 -3.032627e+00 -1.165057e+00 -3.259907e+00 -3.939588e+00 2.160141e+00 6.498434e+01 2.037009e-01 1.048308e+00 1.163383e+00 6.645454e-01 2.497437e-02 -1.291939e+00 -1.455307e+00 -1.031413e+00 -2.168674e-01 -5.232623e-01 -4.203885e-01 2.653986e-01 -5.355062e-01 -1.502843e-01 -1.404448e-01 -8.760849e-02 -6.601481e-01 2.136393e-02 3.442051e-01 1.508472e-01 1.112817e-01 -2.999661e-01 9.520707e-02 -1.655926e-01 -1.975479e-01 5.094239e-01
<VARIANCE> 39
 3.557594e+01 5.002737e+01 6.317675e+01 8.207235e+01 6.963242e+01 9.156374e+01 9.596450e+01 7.797030e+01 7.632208e+01 6.803519e+01 6.345578e+01 5.184162e+01 7.393463e+01 1.462670e+00 2.637087e+00 3.553277e+00 5.285413e+00 5.230479e+00 6.667195e+00 6.653579e+00 5.654002e+00 6.340927e+00 5.616961e+00 4.466897e+00 3.864253e+00 3.211385e+00 2.219848e-01 5.683127e-01 5.507311e-01 9.648904e-01 9.834559e-01 1.415382e+00 1.301740e+00 1.192275e+00 1.091273e+00 1.142387e+00 8.417745e-01 7.052266e-01 4.012769e-01
<GCONST> 1.422559e+02
<STATE> 3
<MEAN> 39
 -3.989902e+00 -7.853913e+00 3.956303e+00 -8.279640e+00 -8.546510e+00 -9.408435e+00 -1.550758e+01 -5.233326e+00 -2.931170e+00 -5.220350e+00 -6.831958e+00 1.848416e+00 6.546880e+01 -2.549941e-01 -1.956901e-01 2.697994e-01 -1.201019e+00 -4.538172e-01 4.055059e-01 2.985462e-01 1.928198e-02 -4.886965e-01 7.104548e-01 -2.832700e-01 -4.858297e-01 9.586786e-01 -1.634364e-01 -6.425904e-01 -4.856415e-01 -7.261866e-01 -3.361916e-01 5.603234e-01 7.905482e-01 4.404417e-01 -1.463462e-01 3.797681e-01 2.612725e-02 -1.767602e-01 7.939959e-01
<VARIANCE> 39
 2.834249e+01 3.631816e+01 7.479928e+01 8.231919e+01 5.537384e+01 6.770683e+01 7.184580e+01 7.145670e+01 8.047923e+01 6.828263e+01 6.155312e+01 5.227243e+01 3.161449e+01 1.011917e+00 2.026486e+00 3.413107e+00 3.409753e+00 4.130519e+00 4.603761e+00 5.770140e+00 5.130186e+00 4.836473e+00 4.983171e+00 4.096650e+00 3.049589e+00 2.163752e+00 1.829835e-01 3.919626e-01 5.358689e-01 9.047832e-01 8.509240e-01 1.246924e+00 1.398062e+00 1.110050e+00 1.133615e+00 1.375558e+00 9.287740e-01 7.838855e-01 2.406707e-01
<GCONST> 1.360811e+02
<STATE> 4
<MEAN> 39
 -4.742464e+00 -1.054280e+01 3.791499e+00 -1.233367e+01 -1.201933e+01 -8.041709e+00 -1.127916e+01 -3.808678e+00 -4.933828e+00 -8.055576e-01 -5.443211e+00 1.085253e-01 6.982594e+01 -6.538804e-01 -1.023179e+00 -4.162824e-01 -2.426671e+00 -9.059284e-01 1.170416e+00 1.146920e+00 5.422636e-01 -5.936453e-01 9.831007e-01 -5.311019e-01 -3.488601e-01 2.229137e+00 -1.072264e-01 -3.343778e-02 -2.941327e-01 -9.885073e-03 3.213270e-01 3.616414e-01 3.355050e-02 2.389706e-02 5.706275e-02 -3.408197e-01 -1.908653e-01 1.034073e-01 1.670857e-02
<VARIANCE> 39
 2.772730e+01 3.267434e+01 8.459821e+01 5.868913e+01 6.731808e+01 6.039442e+01 6.196369e+01 6.804287e+01 7.452679e+01 4.895554e+01 4.614983e+01 4.114144e+01 3.044820e+01 1.229928e+00 2.949798e+00 4.458767e+00 4.708413e+00 5.616336e+00 6.728945e+00 7.808444e+00 6.714438e+00 6.322545e+00 7.585577e+00 4.914010e+00 4.227570e+00 1.724969e+00 1.419263e-01 4.007874e-01 3.881472e-01 6.928076e-01 6.904671e-01 9.388884e-01 1.118046e+00 8.880109e-01 9.678147e-01 8.362259e-01 7.048557e-01 5.399700e-01 2.691165e-01
<GCONST> 1.350832e+02
<TRANSP> 5
 0.000000e+00 1.000000e+00 0.000000e+00 0.000000e+00 0.000000e+00
 0.000000e+00 4.617483e-01 5.382517e-01 0.000000e+00 0.000000e+00
 0.000000e+00 0.000000e+00 4.481693e-01 5.518306e-01 0.000000e+00
 0.000000e+00 0.000000e+00 0.000000e+00 3.341430e-01 6.658570e-01
 0.000000e+00 0.000000e+00 0.000000e+00 0.000000e+00 0.000000e+00
<ENDHMM>
~h "m"
<BEGINHMM>
<NUMSTATES> 5
<STATE> 2
<MEAN> 39
 -2.727154e+00 -7.108303e+00 1.336698e+00 -5.331265e+00 -5.276175e+00 -4.016031e+00 -1.072176e+01 -4.706230e+00 -4.776036e+00 -1.129691e+00 -4.319982e+00 -1.625246e+00 6.082784e+01 2.547159e-01 9.269691e-01 1.273030e+00 1.706378e+00 -7.673462e-02 -1.073679e+00 -1.620226e+00 -1.989002e+00 -9.026968e-01 6.328177e-02 -1.009315e+00 -9.590315e-01 -1.199622e+00 -1.596316e-01 -3.728397e-01 -2.712472e-01 -6.470177e-01 -2.042180e-01 -2.907510e-02 3.855282e-02 1.901646e-01 -1.890251e-01 -1.651181e-01 -1.677876e-01 -1.021879e-01 6.670381e-01
<VARIANCE> 39
 2.748612e+01 3.656598e+01 3.474588e+01 5.776089e+01 4.991439e+01 5.736664e+01 6.784422e+01 6.296307e+01 6.422065e+01 4.823322e+01 5.498728e+01 6.422240e+01 4.734273e+01 2.075491e+00 2.256532e+00 4.377899e+00 5.427896e+00 4.420820e+00 4.594998e+00 5.267962e+00 4.719630e+00 5.345112e+00 5.062758e+00 4.709190e+00 4.312274e+00 4.246262e+00 2.900468e-01 3.464420e-01 6.745055e-01 6.853884e-01 5.960400e-01 6.785457e-01 8.807180e-01 1.039860e+00 8.144897e-01 7.367306e-01 6.670232e-01 6.655362e-01 3.107314e-01
<GCONST> 1.347169e+02
<STATE> 3
<MEAN> 39
 -2.024064e+00 -6.623071e+00 3.064495e+00 -4.771547e+00 -6.720451e+00 -6.656146e+00 -1.476550e+01 -8.054325e+00 -7.967169e+00 -2.324473e+00 -8.286424e+00 -5.706707e+00 6.110424e+01 7.997596e-02 -3.049660e-01 -2.380359e-01 -4.934548e-01 -5.131899e-01 -2.727160e-01 -1.063292e-02 2.777089e-01 -3.079150e-02 -1.700138e-01 -1.349077e-01 -2.897013e-01 6.321712e-01 -6.483324e-02 -4.033995e-01 -3.903186e-01 -9.811249e-01 -2.319726e-01 3.338102e-01 5.160514e-01 7.124799e-01 2.399051e-01 -1.206649e-01 2.847525e-01 3.627161e-01 7.815585e-01
<VARIANCE> 39
 1.498136e+01 2.767053e+01 2.642801e+01 4.048451e+01 4.607539e+01 5.718800e+01 4.457073e+01 5.224539e+01 6.107631e+01 5.655326e+01 5.154520e+01 5.263768e+01 1.556509e+01 5.897338e-01 1.284593e+00 2.246786e+00 2.579323e+00 2.114810e+00 2.548741e+00 2.725400e+00 3.251631e+00 2.988242e+00 3.011635e+00 2.891015e+00 2.752068e+00 1.597102e+00 2.384531e-01 3.043449e-01 8.629140e-01 6.268182e-01 5.620255e-01 6.904135e-01 7.628703e-01 8.779063e-01 7.498850e-01 9.206303e-01 7.644234e-01 7.457424e-01 2.806473e-01
<GCONST> 1.224042e+02
<STATE> 4
<MEAN> 39
 -1.833794e+00 -9.128325e+00 1.652749e+00 -8.223761e+00 -1.004441e+01 -6.966030e+00 -1.257980e+01 -5.034375e+00 -6.288655e+00 -2.572820e+00 -6.347214e+00 -4.249789e+00 6.532385e+01 -6.939490e-01 -1.139904e+00 -3.099661e-01 -3.730627e+00 -1.143300e+00 1.144881e+00 1.074018e+00 1.590996e+00 2.029793e-01 -3.847815e-01 1.393650e-01 8.058507e-01 2.788575e+00 -3.920765e-01 1.752109e-01 5.799876e-02 -5.853225e-01 3.366127e-01 5.103680e-01 1.353790e-01 7.100806e-02 -1.555296e-01 5.705141e-02 -9.194310e-02 1.475034e-01 1.434698e-01
<VARIANCE> 39
 1.919900e+01 2.710493e+01 5.415899e+01 4.817818e+01 5.101701e+01 4.443761e+01 4.001264e+01 4.696260e+01 4.379550e+01 3.861039e+01 3.978350e+01 4.411809e+01 2.684317e+01 2.497100e+00 3.132192e+00 1.084079e+01 4.321502e+00 5.264002e+00 5.076871e+00 5.730750e+00 6.932718e+00 4.690132e+00 6.481152e+00 4.937162e+00 4.633345e+00 1.744511e+00 1.868807e-01 4.150558e-01 5.819988e-01 8.516397e-01 6.404211e-01 5.652736e-01 7.544717e-01 7.061659e-01 6.570848e-01 6.459642e-01 5.796317e-01 5.438115e-01 2.996206e-01
<GCONST> 1.311082e+02
<TRANSP> 5
 0.000000e+00 1.000000e+00 0.000000e+00 0.000000e+00 0.000000e+00
 0.000000e+00 4.556925e-01 5.443075e-01 0.000000e+00 0.000000e+00
 0.000000e+00 0.000000e+00 6.629558e-01 3.370443e-01 0.000000e+00
 0.000000e+00 0.000000e+00 0.000000e+00 4.337559e-01 5.662441e-01
 0.000000e+00 0.000000e+00 0.000000e+00 0.000000e+00 0.000000e+00
<ENDHMM>
~h "n"
<BEGINHMM>
<NUMSTATES> 5
<STATE> 2
<MEAN> 39
 -4.947509e+00 -6.054024e+00 2.252587e+00 -5.990391e+00 -8.001122e+00 -6.403993e+00 -7.967320e+00 -2.922284e+00 -3.133582e+00 -2.288191e+00 -3.879521e+00 9.646981e-01 6.059312e+01 8.651296e-01 1.099265e+00 1.255241e+00 1.095416e+00 -1.193593e+00 -3.989589e-01 -1.081063e+00 -1.602782e+00 -3.186087e-02 -7.142148e-01 -6.311243e-01 -3.601429e-01 -1.251832e+00 -1.170771e-01 -2.336731e-01 -2.638832e-01 -5.913752e-01 -4.564432e-03 1.244593e-01 -1.268362e-01 7.056586e-02 -1.574568e-01 -5.125826e-02 -1.803913e-01 -1.333328e-01 6.536675e-01
<VARIANCE> 39
 3.017930e+01 3.671920e+01 3.856333e+01 6.016264e+01 6.100458e+01 6.562940e+01 7.872292e+01 6.062091e+01 6.777703e+01 5.120801e+01 6.706387e+01 5.695783e+01 6.349929e+01 1.721435e+00 2.070349e+00 4.248585e+00 4.798618e+00 5.074448e+00 5.232089e+00 5.967480e+00 4.793853e+00 5.449537e+00 4.774174e+00 4.396761e+00 3.704413e+00 4.782884e+00 3.354536e-01 4.128312e-01 6.835381e-01 6.697641e-01 7.713026e-01 8.868086e-01 8.950415e-01 8.779720e-01 8.280262e-01 7.557384e-01 6.822369e-01 5.987207e-01 5.024852e-01
<GCONST> 1.368549e+02
<STATE> 3
<MEAN> 39
 -1.939285e+00 -4.637987e+00 4.582109e+00 -5.493021e+00 -1.207113e+01 -8.146748e+00 -1.201369e+01 -7.148486e+00 -3.650906e+00 -4.931830e+00 -7.502858e+00 -1.791918e+00 6.035558e+01 -3.008287e-01 4.044198e-02 -1.521585e-01 -7.161416e-01 -3.965435e-02 -1.542934e-01 -2.567110e-01 1.539411e-01 -8.754121e-02 -7.070854e-03 -4.197002e-01 -1.900533e-01 8.777449e-01 -4.932655e-01 -4.835540e-01 -5.041987e-01 -1.033509e+00 5.037925e-01 1.666993e-01 3.147707e-01 7.466005e-01 -3.116050e-01 2.559858e-01 1.066993e-01 1.148031e-01 1.086159e+00
<VARIANCE> 39
 1.743483e+01 2.876569e+01 2.424890e+01 3.412990e+01 3.652237e+01 3.755141e+01 4.610865e+01 4.599015e+01 5.881601e+01 4.927529e+01 5.525542e+01 4.939484e+01 1.616777e+01 1.284171e+00 1.853692e+00 3.261464e+00 4.020735e+00 3.281952e+00 3.360844e+00 3.962229e+00 3.796389e+00 3.345005e+00 3.372724e+00 3.129962e+00 2.579011e+00 2.959943e+00 2.711771e-01 4.134356e-01 1.194990e+00 7.402210e-01 8.567092e-01 8.199351e-01 1.002071e+00 8.336762e-01 7.662219e-01 8.116215e-01 6.915747e-01 6.058243e-01 3.459196e-01
<GCONST> 1.270619e+02
<STATE> 4
<MEAN> 39
 -5.387208e+00 -5.422459e+00 2.415426e+00 -1.108058e+01 -9.326750e+00 -8.242260e+00 -1.162785e+01 -3.668292e+00 -4.518296e+00 -3.486509e+00 -7.430395e+00 -1.228058e+00 6.613839e+01 -1.181902e+00 -1.302897e+00 -1.135626e+00 -3.146816e+00 1.040876e+00 6.948896e-01 2.686816e-01 1.694620e+00 -1.049896e+00 3.653574e-01 -1.956750e-01 4.494076e-02 3.202740e+00 2.040144e-02 -3.971641e-01 -1.151795e-01 -8.664076e-02 7.689780e-02 4.786712e-01 1.844519e-01 3.907129e-02 -2.083052e-01 -1.284480e-02 1.071534e-01 1.343388e-02 9.883332e-02
<VARIANCE> 39
 2.455930e+01 4.014064e+01 4.751944e+01 6.196821e+01 4.340916e+01 4.975635e+01 4.999765e+01 5.924665e+01 4.848098e+01 4.345209e+01 4.553119e+01 4.746514e+01 2.836596e+01 1.787371e+00 4.170141e+00 1.024056e+01 4.786907e+00 6.238734e+00 4.982286e+00 7.268714e+00 5.671235e+00 4.880236e+00 5.247608e+00 4.128211e+00 3.926316e+00 1.983856e+00 2.553920e-01 4.175309e-01 6.017029e-01 7.506472e-01 7.439748e-01 7.198485e-01 7.602398e-01 7.926933e-01 6.618643e-01 6.249171e-01 5.643566e-01 5.241838e-01 3.908146e-01
<GCONST> 1.334721e+02
<TRANSP> 5
 0.000000e+00 1.000000e+00 0.000000e+00 0.000000e+00 0.000000e+00
 0.000000e+00 4.202882e-01 5.797118e-01 0.000000e+00 0.000000e+00
 0.000000e+00 0.000000e+00 6.076655e-01 3.923346e-01 0.000000e+00
 0.000000e+00 0.000000e+00 0.000000e+00 4.242499e-01 5.757501e-01
 0.000000e+00 0.000000e+00 0.000000e+00 0.000000e+00 0.000000e+00
<ENDHMM>
~h "o"
<BEGINHMM>
<NUMSTATES> 5
<STATE> 2
<MEAN> 39
 2.039218e+00 -1.960059e+00 -9.126534e+00 -2.355136e+01 -6.489975e+00 -5.313991e-01 -9.068213e+00 1.577546e+00 -9.678263e+00 -3.911209e+00 -4.210745e+00 9.130590e-01 6.699842e+01 5.799160e-01 -2.709036e-02 -2.028258e+00 -4.479010e+00 1.505436e-01 4.009584e-01 -1.322316e+00 4.692503e-01 -1.252040e+00 -4.152139e-01 -2.279502e-01 4.243111e-01 1.187260e+00 -6.722791e-01 -5.949535e-01 3.838637e-01 1.142523e+00 6.301290e-01 2.403163e-01 1.784329e-01 -2.505451e-01 4.789294e-01 2.562045e-01 1.506242e-01 -1.778274e-01 -3.161032e-02
<VARIANCE> 39
 1.972569e+01 2.586575e+01 3.465903e+01 6.134086e+01 4.788129e+01 4.429449e+01 4.061783e+01 5.498556e+01 4.442589e+01 3.761016e+01 3.975093e+01 5.046346e+01 2.529681e+01 2.357208e+00 3.074507e+00 2.753372e+00 7.660723e+00 5.212222e+00 3.957134e+00 5.731418e+00 4.911015e+00 4.226857e+00 3.827747e+00 3.805018e+00 3.749263e+00 1.429227e+00 2.260578e-01 3.199359e-01 3.917834e-01 1.113789e+00 5.712503e-01 5.957059e-01 8.080305e-01 8.831345e-01 8.884764e-01 7.830872e-01 6.403846e-01 7.045065e-01 2.996614e-01
<GCONST> 1.291578e+02
<STATE> 3
<MEAN> 39
 4.705662e-01 -5.696074e+00 -1.274311e+01 -2.793367e+01 -1.798061e+00 3.541026e+00 -9.683055e+00 1.134022e+00 -9.547003e+00 -3.896576e+00 -2.117785e+00 -6.575605e-01 6.975980e+01 -3.536967e-01 -9.660557e-01 -3.510093e-01 2.940174e-01 9.332317e-01 4.099675e-01 -2.474666e-01 -5.459444e-01 5.467687e-01 4.254477e-01 1.623169e-01 -5.106054e-01 5.181963e-01 -3.097470e-02 -1.331528e-02 2.339255e-01 5.374557e-01 -1.188173e-01 -2.067756e-01 -7.364414e-03 -8.262308e-02 2.857583e-01 5.646941e-02 -2.040678e-01 -1.279644e-01 -1.455479e-01
<VARIANCE> 39
 2.166463e+01 3.159196e+01 3.292954e+01 3.991265e+01 6.120744e+01 5.877188e+01 4.898626e+01 5.778491e+01 5.581544e+01 4.176877e+01 4.386416e+01 5.025661e+01 2.770141e+01 3.884619e-01 1.007352e+00 7.721156e-01 1.743630e+00 1.607685e+00 1.631485e+00 1.947729e+00 2.001429e+00 2.410900e+00 2.313704e+00 2.526063e+00 2.404496e+00 6.436626e-01 7.394931e-02 1.490846e-01 2.080675e-01 4.403912e-01 3.126109e-01 3.237508e-01 3.589040e-01 3.418297e-01 4.627687e-01 4.034658e-01 5.055077e-01 4.268779e-01 7.570838e-02
<GCONST> 1.079843e+02
<STATE> 4
<MEAN> 39
 -2.489797e+00 -1.252635e+01 -1.263938e+01 -2.119139e+01 9.019684e-01 -2.292110e-01 -1.359228e+01 -1.622545e+00 -2.733781e+00 -1.225480e+00 -7.025932e+00 -3.477873e+00 7.305927e+01 -3.919241e-01 -2.990890e-01 1.266256e+00 2.489302e+00 -1.045505e+00 -1.793575e+00 -9.281793e-02 2.751040e-01 1.472325e+00 -5.149216e-01 -1.264012e+00 2.489826e-01 -5.181562e-01 -2.455031e-02 5.830894e-01 5.267546e-01 4.958462e-01 -4.195664e-01 -1.375700e-01 5.670071e-01 1.562955e-01 -4.247508e-01 -2.806150e-01 4.269410e-01 5.162819e-01 -5.988401e-01
<VARIANCE> 39
 2.186970e+01 2.978139e+01 2.721378e+01 4.838717e+01 5.151569e+01 8.018243e+01 5.525557e+01 5.547121e+01 7.358218e+01 5.182102e+01 5.605341e+01 5.045164e+01 3.743424e+01 9.648947e-01 2.637729e+00 1.946619e+00 3.147526e+00 3.928050e+00 3.967239e+00 3.751451e+00 3.877006e+00 5.172637e+00 4.980470e+00 4.731321e+00 5.012923e+00 2.316243e+00 2.375669e-01 3.462435e-01 3.061795e-01 5.892830e-01 7.568140e-01 9.374163e-01 7.311141e-01 8.607156e-01 1.011567e+00 1.013467e+00 1.061377e+00 8.041238e-01 2.004078e-01
<GCONST> 1.301769e+02
<TRANSP> 5
 0.000000e+00 1.000000e+00 0.000000e+00 0.000000e+00 0.000000e+00
 0.000000e+00 6.624463e-01 3.375537e-01 0.000000e+00 0.000000e+00
 0.000000e+00 0.000000e+00 8.295093e-01 1.704908e-01 0.000000e+00
 0.000000e+00 0.000000e+00 0.000000e+00 7.011687e-01 2.988313e-01
 0.000000e+00 0.000000e+00 0.000000e+00 0.000000e+00 0.000000e+00
<ENDHMM>
~h "p"
<BEGINHMM>
<NUMSTATES> 5
<STATE> 2
<MEAN> 39
 -2.578132e+00 -4.032310e+00 2.234869e+00 -3.207796e+00 -4.284261e+00 -2.535072e+00 -7.477248e+00 -5.376339e+00 -4.072649e+00 -2.373616e+00 -4.148101e+00 -1.561693e+00 5.857933e+01 -1.112311e+00 9.365461e-01 6.391472e-01 2.376945e+00 1.338693e+00 1.165415e+00 2.002198e+00 8.543900e-01 1.249088e+00 5.979642e-01 9.900386e-01 3.484018e-01 -1.766323e+00 -4.783805e-01 -6.062498e-01 -1.310836e-01 -4.792141e-01 -3.860950e-03 2.513459e-01 4.598510e-01 6.673247e-01 3.029056e-01 2.739362e-01 2.830397e-01 2.247052e-01 1.030178e+00
<VARIANCE> 39
 2.781875e+01 3.508078e+01 4.146285e+01 5.028810e+01 4.558453e+01 4.762725e+01 5.428234e+01 4.905588e+01 4.903381e+01 4.174549e+01 4.154227e+01 4.310508e+01 5.199603e+01 2.929986e+00 3.972715e+00 4.495096e+00 5.784115e+00 4.344923e+00 4.642292e+00 5.424011e+00 6.467576e+00 5.122190e+00 4.651042e+00 4.434657e+00 4.027156e+00 7.471863e+00 5.150074e-01 6.213103e-01 7.766173e-01 9.483358e-01 8.508062e-01 7.497333e-01 9.412230e-01 1.009175e+00 8.793752e-01 8.510936e-01 7.836779e-01 7.241259e-01 1.168279e+00
<GCONST> 1.385304e+02
<STATE> 3
<MEAN> 39
 -7.679938e+00 -5.455905e+00 3.162543e+00 5.940585e-01 -1.245980e+00 1.913916e+00 1.552875e+00 2.135929e+00 2.595662e+00 2.419258e+00 1.485218e+00 1.690387e+00 6.150252e+01 -7.186900e-01 -7.110047e-01 6.596984e-01 -7.762884e-02 6.152229e-01 9.194995e-01 8.256041e-01 5.950696e-01 2.330200e-01 -5.145593e-02 3.700562e-01 3.239457e-01 3.005669e+00 6.793095e-02 -1.172632e-01 -1.307958e-01 -5.950796e-01 -2.971593e-02 -5.058031e-02 -5.864401e-01 -4.711774e-01 -4.822852e-01 -4.066769e-01 -3.695725e-01 -1.113945e-01 3.392905e-01
<VARIANCE> 39
 3.643578e+01 2.795179e+01 3.836402e+01 2.345275e+01 3.053811e+01 2.555825e+01 2.573043e+01 2.795522e+01 3.046953e+01 2.825604e+01 2.362744e+01 2.013959e+01 9.879975e+01 4.307936e+00 4.035177e+00 5.444586e+00 3.756476e+00 4.757989e+00 4.063362e+00 4.371518e+00 4.836211e+00 4.908368e+00 4.430067e+00 3.936100e+00 3.154026e+00 7.668970e+00 7.871668e-01 8.088928e-01 9.583097e-01 8.285062e-01 8.408464e-01 7.469826e-01 8.060834e-01 8.337427e-01 8.399450e-01 7.452031e-01 6.659459e-01 5.841891e-01 2.471494e+00
<GCONST> 1.336295e+02
<STATE> 4
<MEAN> 39
 -1.243043e+01 -7.230909e+00 3.443141e+00 -3.673824e+00 2.661417e+00 5.298832e+00 -4.672567e-01 4.295193e-01 4.160490e-01 -8.195348e-01 4.714508e-01 1.573327e+00 6.934132e+01 1.618780e-01 3.396154e-02 -7.517931e-01 -1.425225e+00 -5.417548e-01 -4.569159e-01 -1.423529e+00 -1.008288e+00 -1.045318e+00 -7.354390e-01 -6.349115e-01 -1.197097e-01 9.958860e-02 5.569301e-01 8.007357e-02 -1.527236e-01 -3.388524e-01 -7.242045e-01 -5.192534e-01 -4.514140e-01 -2.940370e-01 -3.386419e-01 -1.386181e-02 -2.903118e-01 -9.446697e-02 -2.619324e-01
<VARIANCE> 39
 5.186374e+01 8.199287e+01 6.710672e+01 4.202332e+01 6.107323e+01 3.548925e+01 3.888559e+01 3.439899e+01 3.484678e+01 3.421391e+01 2.466449e+01 2.225842e+01 3.196441e+01 4.398046e+00 4.532926e+00 3.824522e+00 4.271324e+00 6.528079e+00 4.318750e+00 4.254502e+00 4.448185e+00 3.910917e+00 3.330259e+00 3.187070e+00 2.706439e+00 1.884777e+00 5.811322e-01 7.360051e-01 8.340675e-01 8.272969e-01 9.030923e-01 7.582921e-01 8.352693e-01 8.507537e-01 7.210796e-01 6.747460e-01 6.152385e-01 5.563241e-01 6.518770e-01
<GCONST> 1.329730e+02
<TRANSP> 5
 0.000000e+00 1.000000e+00 0.000000e+00 0.000000e+00 0.000000e+00
 0.000000e+00 6.114777e-01 3.885223e-01 0.000000e+00 0.000000e+00
 0.000000e+00 0.000000e+00 7.399733e-01 2.600267e-01 0.000000e+00
 0.000000e+00 0.000000e+00 0.000000e+00 7.811322e-01 2.188678e-01
 0.000000e+00 0.000000e+00 0.000000e+00 0.000000e+00 0.000000e+00
<ENDHMM>
~h "q"
<BEGINHMM>
<NUMSTATES> 5
<STATE> 2
<MEAN> 39
 -8.379276e+00 -1.074663e+00 2.142733e+00 -3.705195e+00 -7.348902e+00 -5.706765e+00 -6.613988e+00 -5.012279e+00 -4.209110e+00 -3.029344e+00 -3.774320e+00 -3.767853e-01 6.164591e+01 -2.678810e+00 1.794620e+00 -5.139896e-01 2.039734e+00 2.057988e+00 1.752114e+00 2.117059e+00 1.078363e+00 1.261396e+00 9.143231e-01 1.236636e+00 7.184381e-02 -1.165208e+00 -7.468570e-01 -3.505986e-01 -3.736915e-01 -4.958777e-01 3.167476e-01 4.487267e-01 3.045915e-01 5.325707e-01 3.784214e-01 5.787433e-01 1.823231e-01 1.482801e-01 6.954353e-01
<VARIANCE> 39
 4.108613e+01 4.448911e+01 4.059303e+01 4.606929e+01 5.379573e+01 5.046566e+01 5.339259e+01 5.176994e+01 4.679961e+01 3.866606e+01 3.910564e+01 3.882919e+01 5.134267e+01 4.423532e+00 4.964349e+00 4.801683e+00 4.928560e+00 5.381440e+00 5.211232e+00 5.926747e+00 6.269095e+00 5.666287e+00 5.513320e+00 4.228826e+00 4.003119e+00 4.945541e+00 6.205452e-01 7.502054e-01 7.315710e-01 8.499903e-01 1.118000e+00 1.011933e+00 1.042670e+00 9.285285e-01 9.025489e-01 8.461207e-01 7.445178e-01 7.324408e-01 7.228340e-01
<GCONST> 1.400397e+02
<STATE> 3
<MEAN> 39
 -2.231467e+01 1.816496e+00 -1.850959e+00 -1.502637e+00 -3.048378e-01 1.890834e+00 1.119878e+00 1.774042e+00 3.059569e+00 3.856628e+00 1.563145e+00 1.969052e+00 6.392278e+01 -1.707271e+00 3.114162e-01 3.849781e-01 -7.255479e-01 4.037045e-01 8.868967e-01 4.609528e-01 3.446648e-01 4.549019e-01 5.446936e-01 3.127366e-01 5.863213e-02 1.984545e+00 8.553544e-01 -2.324415e-01 5.727431e-01 -2.915965e-01 -5.613830e-01 -3.022219e-01 -4.666931e-01 -4.905508e-01 -4.514331e-01 -4.219871e-01 -3.196431e-01 -1.669904e-01 1.693643e-01
<VARIANCE> 39
 3.572803e+01 3.451408e+01 3.350281e+01 3.671133e+01 3.003721e+01 2.520331e+01 2.626635e+01 2.495982e+01 2.621400e+01 2.151977e+01 2.044185e+01 1.731462e+01 4.102444e+01 4.291976e+00 3.113142e+00 3.540520e+00 2.413376e+00 2.910599e+00 2.830392e+00 3.087421e+00 3.218064e+00 3.169103e+00 3.078254e+00 2.649519e+00 2.164015e+00 2.077005e+00 6.141070e-01 5.816941e-01 4.735524e-01 6.417030e-01 6.427630e-01 5.730643e-01 6.382835e-01 6.167516e-01 5.990945e-01 5.365716e-01 5.050986e-01 4.322228e-01 6.457033e-01
<GCONST> 1.215948e+02
<STATE> 4
<MEAN> 39
 -1.999001e+01 1.069538e+00 6.663570e+00 -5.333381e+00 -3.757151e+00 3.859627e+00 3.926316e-02 -1.168763e+00 7.434441e-01 2.322948e+00 3.170821e-01 2.374528e-01 7.168759e+01 1.858709e+00 -7.019677e-01 1.387295e+00 -6.938747e-01 -1.699676e+00 -7.147790e-01 -9.485862e-01 -1.121563e+00 -1.022837e+00 -5.629582e-01 -4.644441e-01 -4.164589e-02 1.494597e-01 4.220941e-01 -1.881367e-01 -1.393360e-01 -2.383809e-01 -3.421307e-01 -4.932673e-01 -4.101681e-01 -1.938623e-01 -3.423163e-01 -9.243619e-02 -2.387399e-01 8.111333e-02 -2.678429e-01
<VARIANCE> 39
 4.630126e+01 4.428908e+01 3.507874e+01 2.656631e+01 3.524712e+01 2.314141e+01 2.774228e+01 2.610775e+01 2.663004e+01 2.335561e+01 1.956908e+01 1.635840e+01 2.611043e+01 2.583020e+00 1.998749e+00 2.148434e+00 3.235002e+00 3.210366e+00 3.790067e+00 4.047957e+00 3.472025e+00 3.240017e+00 2.511184e+00 2.517548e+00 2.285451e+00 1.474939e+00 4.545970e-01 4.094033e-01 4.704864e-01 5.517626e-01 5.457453e-01 5.538577e-01 6.720635e-01 6.516534e-01 6.367008e-01 5.349731e-01 5.364209e-01 4.437355e-01 2.616606e-01
<GCONST> 1.189450e+02
<TRANSP> 5
 0.000000e+00 1.000000e+00 0.000000e+00 0.000000e+00 0.000000e+00
 0.000000e+00 6.945379e-01 3.054621e-01 0.000000e+00 0.000000e+00
 0.000000e+00 0.000000e+00 7.764977e-01 2.235023e-01 0.000000e+00
 0.000000e+00 0.000000e+00 0.000000e+00 8.158661e-01 1.841339e-01
 0.000000e+00 0.000000e+00 0.000000e+00 0.000000e+00 0.000000e+00
<ENDHMM>
~h "r"
<BEGINHMM>
<NUMSTATES> 5
<STATE> 2
<MEAN> 39
 -3.606580e+00 -1.255721e+01 1.946277e+00 -3.419796e+00 -1.363880e+01 -7.880536e+00 -1.022678e+01 -1.920760e+00 -4.563358e+00 -2.845327e+00 -2.645736e+00 8.987922e-01 6.605288e+01 3.655769e-01 -3.276258e-01 6.003830e-01 6.121687e-01 -1.121029e+00 -1.426155e+00 -2.332822e-01 1.709474e-02 -7.725480e-01 -5.202650e-01 2.347092e-01 1.809613e-01 5.040345e-01 -2.627914e-02 -1.213215e-01 -1.795076e-01 -6.183767e-01 1.116751e-01 2.837396e-01 8.278278e-02 1.681576e-01 -6.405313e-02 1.456672e-01 -8.927298e-02 -6.748837e-02 2.849916e-01
<VARIANCE> 39
 4.852429e+01 5.016061e+01 7.590511e+01 7.319839e+01 7.535818e+01 7.556616e+01 9.128144e+01 6.702126e+01 7.100129e+01 6.492271e+01 5.503871e+01 4.535357e+01 6.149843e+01 2.021016e+00 2.503016e+00 3.192539e+00 6.774749e+00 5.450411e+00 5.804737e+00 6.167920e+00 5.936277e+00 5.426680e+00 5.151186e+00 4.114577e+00 3.887787e+00 3.553263e+00 3.958543e-01 4.454834e-01 4.653706e-01 8.304693e-01 1.071363e+00 1.181763e+00 9.578212e-01 9.860792e-01 9.713799e-01 1.019589e+00 7.362736e-01 7.015970e-01 3.112206e-01
<GCONST> 1.406169e+02
<STATE> 3
<MEAN> 39
 -2.555307e+00 -1.537733e+01 6.078180e+00 -7.305490e+00 -1.968764e+01 -1.085624e+01 -8.293622e+00 -8.748251e-01 -8.452808e+00 -2.555995e+00 -1.274944e+00 3.689304e-01 6.939536e+01 -2.789528e-02 -5.574565e-01 -4.403959e-01 -1.165640e+00 1.685172e-04 3.185222e-01 3.635153e-01 1.023697e+00 6.416172e-02 2.844462e-01 -3.596851e-01 -3.231500e-01 8.533576e-01 -1.200080e-01 7.709056e-03 -3.642051e-01 -3.550222e-01 4.507900e-01 3.147472e-01 1.034522e-01 1.253590e-01 1.417595e-01 -4.820453e-02 -3.667977e-01 -1.146884e-01 1.536192e-01
<VARIANCE> 39
 2.894499e+01 2.996829e+01 4.506764e+01 6.859857e+01 5.069530e+01 5.654718e+01 5.781031e+01 6.571336e+01 5.961785e+01 5.695703e+01 4.614170e+01 4.707308e+01 2.797261e+01 9.371825e-01 1.484421e+00 2.520254e+00 3.301656e+00 2.560662e+00 2.773996e+00 3.188462e+00 3.736177e+00 2.946882e+00 3.182271e+00 2.995686e+00 2.522098e+00 1.126936e+00 1.345598e-01 2.221701e-01 2.347118e-01 5.237840e-01 4.927423e-01 5.233048e-01 5.205684e-01 6.444815e-01 5.575945e-01 6.149192e-01 4.746159e-01 4.470982e-01 1.603929e-01
<GCONST> 1.205903e+02
<STATE> 4
<MEAN> 39
 -3.849469e+00 -1.622216e+01 1.969673e+00 -1.198787e+01 -1.605977e+01 -8.097389e+00 -5.275924e+00 3.909360e+00 -7.247086e+00 -3.503649e+00 -4.999521e+00 -1.262629e+00 7.308464e+01 -2.642395e-01 1.347206e-01 -8.222601e-01 -6.648488e-01 1.011819e+00 4.494232e-01 3.406597e-01 1.835191e-01 -6.006584e-02 -2.801321e-01 -6.367083e-01 -1.043603e-01 3.704353e-01 1.488408e-02 2.247552e-01 5.627730e-02 1.877176e-01 1.105956e-01 -3.121732e-02 -2.222334e-01 -3.302218e-01 -6.113102e-02 -1.620388e-02 1.274813e-01 1.322149e-01 -2.341115e-01
<VARIANCE> 39
 2.754433e+01 2.895001e+01 3.916558e+01 6.108496e+01 4.387673e+01 5.137613e+01 7.720570e+01 6.703637e+01 5.412648e+01 4.324537e+01 4.074270e+01 3.709395e+01 2.844314e+01 6.844811e-01 1.216675e+00 1.769770e+00 2.632689e+00 2.481748e+00 2.677751e+00 3.008217e+00 2.616553e+00 2.640258e+00 2.952113e+00 2.495841e+00 2.024287e+00 7.481936e-01 9.365474e-02 1.303697e-01 1.618450e-01 3.891883e-01 3.814585e-01 4.058577e-01 4.161184e-01 4.830992e-01 3.940100e-01 3.964006e-01 3.481398e-01 3.548269e-01 7.902162e-02
<GCONST> 1.124078e+02
<TRANSP> 5
 0.000000e+00 1.000000e+00 0.000000e+00 0.000000e+00 0.000000e+00
 0.000000e+00 6.600111e-01 3.399889e-01 0.000000e+00 0.000000e+00
 0.000000e+00 0.000000e+00 6.434550e-01 3.565450e-01 0.000000e+00
 0.000000e+00 0.000000e+00 0.000000e+00 6.498690e-01 3.501310e-01
 0.000000e+00 0.000000e+00 0.000000e+00 0.000000e+00 0.000000e+00
<ENDHMM>
~h "s"
<BEGINHMM>
<NUMSTATES> 5
<STATE> 2
<MEAN> 39
 -9.595490e+00 -1.139521e-01 -2.803236e+00 -2.855009e+00 -5.632393e+00 -7.289644e+00 -5.942174e+00 -3.685970e+00 -5.040616e+00 -4.165420e+00 -2.810561e+00 2.715268e-01 6.690704e+01 -3.109827e+00 2.337335e+00 -7.237376e-02 3.333900e+00 1.428621e+00 1.506347e+00 2.164093e+00 7.007191e-01 1.140635e+00 9.782525e-01 1.077640e+00 5.059751e-02 -4.070686e-01 -5.068797e-01 -5.273503e-01 -7.539166e-02 -2.505495e-01 1.178629e-01 5.695877e-01 3.238814e-01 5.782760e-01 3.139880e-01 5.574729e-01 1.147671e-01 1.112313e-01 8.134763e-02
<VARIANCE> 39
 4.705908e+01 4.222277e+01 4.253854e+01 6.343367e+01 6.131314e+01 5.802005e+01 6.362286e+01 4.657038e+01 4.768785e+01 4.281126e+01 3.564278e+01 3.485582e+01 3.564367e+01 3.286200e+00 4.761995e+00 4.133674e+00 5.106504e+00 5.159826e+00 7.027822e+00 5.830419e+00 6.501029e+00 4.967417e+00 5.415454e+00 3.978724e+00 3.651466e+00 1.847818e+00 6.881412e-01 7.937044e-01 5.069762e-01 1.023297e+00 7.466632e-01 9.063246e-01 1.007104e+00 7.806992e-01 7.213342e-01 7.819726e-01 6.345957e-01 6.193748e-01 1.598001e-01
<GCONST> 1.360384e+02
<STATE> 3
<MEAN> 39
 -2.158896e+01 1.136193e+00 -3.838681e+00 3.350921e+00 -9.438980e-01 5.288243e-02 1.973201e+00 3.065275e+00 1.018254e+00 2.749608e+00 1.686602e+00 2.376235e+00 6.520536e+01 -7.868655e-01 -4.150237e-01 -1.912870e-01 1.099174e-01 2.834882e-01 5.825000e-01 3.566677e-01 7.550908e-01 5.444412e-01 5.836605e-01 3.396033e-01 2.718856e-01 -1.179570e-01 8.671322e-01 -2.310295e-01 1.307317e-01 -5.618884e-01 -3.164754e-01 -5.482215e-01 -5.812944e-01 -3.699426e-01 -3.362324e-01 -4.075674e-01 -2.781428e-01 -7.878189e-02 1.746897e-01
<VARIANCE> 39
 2.390744e+01 2.952452e+01 2.552110e+01 3.253094e+01 3.719576e+01 3.604778e+01 3.370314e+01 2.798037e+01 2.690713e+01 2.428460e+01 2.137523e+01 1.756494e+01 2.551317e+01 2.363207e+00 1.262827e+00 1.553221e+00 1.694929e+00 1.852648e+00 2.578971e+00 2.654752e+00 2.689299e+00 2.541262e+00 2.692783e+00 2.120227e+00 1.848543e+00 7.973399e-01 3.253844e-01 3.821830e-01 3.249400e-01 5.010907e-01 4.343010e-01 5.710231e-01 6.002019e-01 5.378072e-01 4.945643e-01 5.197963e-01 4.547320e-01 4.121958e-01 1.782686e-01
<GCONST> 1.121297e+02
<STATE> 4
<MEAN> 39
 -1.690184e+01 -6.748529e-02 -2.559540e+00 8.900101e-01 -1.999918e+00 -2.250319e+00 -5.192617e-01 2.664412e+00 7.775634e-02 1.443723e+00 6.713693e-01 2.069741e+00 6.687775e+01 3.369897e+00 -1.423071e+00 -1.025752e-01 -2.756860e+00 -1.088482e+00 -2.122445e+00 -2.385592e+00 -8.119242e-01 -7.770030e-01 -1.140907e+00 -1.005112e+00 1.503180e-01 1.481202e+00 5.594392e-01 -6.646206e-01 -3.200840e-01 -9.240729e-01 -1.573733e-01 -2.138810e-01 -5.731769e-01 -1.769977e-01 -2.913365e-01 -3.067732e-01 -3.534580e-01 3.944979e-02 3.318307e-01
<VARIANCE> 39
 5.053039e+01 2.929627e+01 2.786233e+01 3.784032e+01 4.012882e+01 4.695362e+01 3.830181e+01 2.961990e+01 2.885258e+01 2.599527e+01 2.322700e+01 1.987036e+01 2.858094e+01 4.710514e+00 4.649106e+00 2.682703e+00 5.620542e+00 3.266878e+00 4.928026e+00 6.494130e+00 4.296648e+00 3.194969e+00 3.750753e+00 4.177720e+00 3.706214e+00 1.767954e+00 9.148093e-01 6.118941e-01 4.154760e-01 6.581325e-01 6.729717e-01 9.963586e-01 9.479932e-01 7.991416e-01 6.428235e-01 6.674560e-01 6.791846e-01 6.198894e-01 2.597528e-01
<GCONST> 1.287074e+02
<TRANSP> 5
 0.000000e+00 1.000000e+00 0.000000e+00 0.000000e+00 0.000000e+00
 0.000000e+00 6.793715e-01 3.206285e-01 0.000000e+00 0.000000e+00
 0.000000e+00 0.000000e+00 7.930874e-01 2.069126e-01 0.000000e+00
 0.000000e+00 0.000000e+00 0.000000e+00 6.002395e-01 3.997605e-01
 0.000000e+00 0.000000e+00 0.000000e+00 0.000000e+00 0.000000e+00
<ENDHMM>
~h "t"
<BEGINHMM>
<NUMSTATES> 5
<STATE> 2
<MEAN> 39
 -5.019368e+00 -3.870118e+00 2.267981e+00 -4.032660e+00 -6.534606e+00 -4.900106e+00 -6.606005e+00 -4.115506e+00 -2.520798e+00 -2.341780e+00 -3.503813e+00 2.850198e-01 5.865632e+01 -1.247878e+00 6.179724e-01 1.716869e-01 2.042504e+00 1.803748e+00 1.710077e+00 2.186367e+00 1.253877e+00 1.219933e+00 1.055646e+00 1.364029e+00 1.053749e-01 -1.489117e+00 -4.887340e-01 -5.146629e-01 -2.394332e-01 -4.148945e-01 3.374640e-01 4.091424e-01 4.868407e-01 6.162108e-01 2.495609e-01 3.604124e-01 2.923535e-01 1.403585e-01 1.135848e+00
<VARIANCE> 39
 2.533971e+01 3.131282e+01 3.572054e+01 4.504539e+01 5.372391e+01 4.684084e+01 5.962857e+01 5.111672e+01 4.978158e+01 4.455854e+01 4.496964e+01 4.268839e+01 5.698708e+01 2.666852e+00 3.764874e+00 4.211504e+00 4.712917e+00 5.062608e+00 5.165631e+00 6.334224e+00 6.119187e+00 5.143050e+00 4.966952e+00 4.696243e+00 3.892465e+00 8.752423e+00 4.122418e-01 5.570451e-01 6.196891e-01 7.862608e-01 8.744302e-01 9.069754e-01 1.054819e+00 8.919806e-01 8.647562e-01 8.102925e-01 7.436442e-01 7.258943e-01 1.259430e+00
<GCONST> 1.382041e+02
<STATE> 3
<MEAN> 39
 -1.180642e+01 -5.299279e+00 1.571772e+00 -1.027826e+00 -1.766616e-01 1.962635e+00 2.848912e+00 3.774297e+00 3.894720e+00 3.939910e+00 3.171911e+00 2.497626e+00 6.233877e+01 -6.550560e-01 -2.689164e-01 2.477024e-01 2.398882e-01 1.314950e+00 7.362391e-01 7.232329e-01 8.611256e-01 1.035178e-01 -1.540289e-01 3.830306e-01 1.825061e-01 3.148534e+00 3.902255e-01 -9.844942e-02 -8.105679e-03 -2.507346e-01 -1.079428e-01 -3.191578e-01 -7.398725e-01 -5.017092e-01 -5.076175e-01 -5.835179e-01 -5.102618e-01 -8.799693e-02 1.971454e-01
<VARIANCE> 39
 3.065408e+01 3.352151e+01 2.755815e+01 2.957462e+01 3.085157e+01 3.149090e+01 3.276556e+01 3.260002e+01 3.342531e+01 2.826667e+01 2.441104e+01 2.231998e+01 9.879707e+01 3.805833e+00 4.628300e+00 3.978480e+00 3.663292e+00 4.351459e+00 4.736342e+00 5.020018e+00 4.808744e+00 4.979363e+00 4.778819e+00 4.119169e+00 3.218523e+00 7.877435e+00 6.793717e-01 7.786585e-01 8.212646e-01 7.917908e-01 8.308599e-01 9.415112e-01 1.039433e+00 9.914201e-01 9.269264e-01 8.525053e-01 7.883049e-01 6.499606e-01 2.619951e+00
<GCONST> 1.352646e+02
<STATE> 4
<MEAN> 39
 -1.172624e+01 -7.120679e+00 1.382773e+00 -1.143769e+00 4.631853e+00 3.159741e+00 -9.620589e-01 2.019933e+00 7.294458e-01 -8.907934e-01 5.946732e-01 1.678116e+00 6.956520e+01 8.849319e-01 -5.961753e-01 -8.731087e-01 -1.249732e+00 -5.421905e-01 -3.592134e-01 -1.785688e+00 -1.378382e+00 -1.136001e+00 -1.015613e+00 -9.151496e-01 -1.822675e-01 -1.030269e-01 4.160020e-01 -3.417070e-02 -2.885979e-01 -6.677287e-01 -7.939509e-01 -3.386963e-01 -3.828750e-01 -3.626357e-01 -2.912736e-01 -1.482129e-02 -2.344425e-01 -6.746195e-02 -2.491332e-01
<VARIANCE> 39
 5.028755e+01 8.399857e+01 4.443879e+01 4.299215e+01 5.034698e+01 4.754341e+01 4.201502e+01 3.551764e+01 3.899874e+01 3.650650e+01 2.797868e+01 2.471168e+01 3.316501e+01 3.469054e+00 3.898673e+00 4.304510e+00 4.438115e+00 5.879045e+00 4.760676e+00 4.621390e+00 4.597597e+00 4.268516e+00 4.107868e+00 3.707398e+00 3.424227e+00 1.877846e+00 5.541087e-01 7.072675e-01 6.949943e-01 7.151670e-01 7.641558e-01 8.823974e-01 8.833252e-01 8.927178e-01 8.050909e-01 7.582931e-01 6.842477e-01 6.542507e-01 8.147071e-01
<GCONST> 1.341791e+02
<TRANSP> 5
 0.000000e+00 1.000000e+00 0.000000e+00 0.000000e+00 0.000000e+00
 0.000000e+00 5.915045e-01 4.084955e-01 0.000000e+00 0.000000e+00
 0.000000e+00 0.000000e+00 7.365765e-01 2.634235e-01 0.000000e+00
 0.000000e+00 0.000000e+00 0.000000e+00 7.625506e-01 2.374494e-01
 0.000000e+00 0.000000e+00 0.000000e+00 0.000000e+00 0.000000e+00
<ENDHMM>
~h "u"
<BEGINHMM>
<NUMSTATES> 5
<STATE> 2
<MEAN> 39
 -1.122728e-03 -3.672915e+00 -4.891956e+00 -1.277713e+01 -7.611439e+00 -2.478001e+00 -1.247002e+01 -5.272233e+00 -7.133286e+00 -1.992031e+00 -3.091601e+00 1.130101e+00 6.620341e+01 1.998554e+00 7.626214e-01 -1.375496e+00 -4.494227e+00 -9.278706e-01 5.640563e-01 -1.624918e+00 -6.409075e-01 -2.267443e+00 -7.297787e-01 -8.257301e-01 5.238687e-01 4.464442e-02 -7.269212e-01 -7.652713e-02 1.669163e-01 2.856588e-01 3.648961e-01 1.701778e-01 4.823736e-01 5.650357e-01 3.002301e-01 1.602830e-01 -8.948415e-03 1.716374e-02 -1.167905e-01
<VARIANCE> 39
 2.850056e+01 3.408693e+01 2.718556e+01 7.589037e+01 4.373002e+01 4.710515e+01 6.459062e+01 5.841260e+01 4.663369e+01 4.187741e+01 4.063567e+01 4.100964e+01 3.265783e+01 3.789214e+00 2.981907e+00 2.888504e+00 6.230245e+00 5.327090e+00 6.110603e+00 6.525691e+00 6.635312e+00 5.372962e+00 4.850660e+00 4.714373e+00 4.186061e+00 1.499747e+00 4.112054e-01 4.609020e-01 3.932659e-01 1.205521e+00 7.307851e-01 9.538682e-01 1.080941e+00 1.027016e+00 9.332522e-01 9.049559e-01 7.633978e-01 7.390296e-01 2.926566e-01
<GCONST> 1.351136e+02
<STATE> 3
<MEAN> 39
 1.736675e+00 1.724259e-01 -7.251846e+00 -2.295270e+01 -9.312763e+00 -2.057907e+00 -1.106397e+01 -7.763612e-01 -1.036246e+01 -3.689214e+00 -6.130801e+00 1.424104e+00 6.455116e+01 -6.833325e-02 -4.144609e-02 -1.834598e-01 -2.473561e-01 2.361179e-01 1.869922e-01 -9.693907e-02 -1.237818e-01 -3.118972e-02 1.935379e-01 7.146313e-02 1.264773e-01 -4.979802e-02 -2.349023e-01 -2.576471e-01 2.476959e-01 8.375987e-01 1.819363e-01 -9.461735e-02 3.515346e-03 -2.048923e-01 4.047043e-01 2.261666e-01 1.651147e-01 -1.183714e-01 -4.863396e-02
<VARIANCE> 39
 2.028279e+01 3.242007e+01 3.217941e+01 4.722152e+01 4.326070e+01 5.346936e+01 5.305919e+01 5.178204e+01 6.306084e+01 4.331535e+01 4.699492e+01 4.193568e+01 2.588885e+01 4.965976e-01 1.425959e+00 1.095586e+00 3.527717e+00 2.326237e+00 2.600976e+00 3.469432e+00 3.570640e+00 2.854160e+00 2.916192e+00 2.961529e+00 2.562600e+00 6.957731e-01 1.676648e-01 1.993418e-01 3.014918e-01 6.964278e-01 4.292123e-01 6.053485e-01 5.982811e-01 5.676827e-01 6.899604e-01 5.838265e-01 5.518522e-01 5.259594e-01 1.079232e-01
<GCONST> 1.172565e+02
<STATE> 4
<MEAN> 39
 -4.468567e-01 -5.271089e+00 -6.707149e+00 -1.655548e+01 -5.169548e+00 -1.693118e+00 -1.686446e+01 -6.309141e+00 -7.774618e+00 9.048667e-01 -4.485528e+00 1.542324e+00 6.676522e+01 -1.054199e+00 -9.129474e-01 1.638212e+00 3.085155e+00 1.704671e-01 -1.443991e+00 -1.929323e-01 -1.800165e-01 1.793498e+00 3.658998e-01 -4.215733e-01 -7.224363e-01 -3.157809e-01 -3.934414e-01 3.231169e-01 6.106222e-01 6.614208e-01 -2.601638e-01 -2.005129e-01 1.015398e+00 5.508929e-01 1.621182e-01 -4.632655e-01 8.238852e-05 -3.717947e-02 -4.355695e-01
<VARIANCE> 39
 2.381073e+01 4.131434e+01 3.758274e+01 6.288333e+01 5.360532e+01 6.456441e+01 8.255048e+01 6.400824e+01 7.138526e+01 6.002196e+01 6.062648e+01 4.793874e+01 4.259703e+01 1.539293e+00 2.528861e+00 3.545815e+00 5.061603e+00 5.329446e+00 6.353246e+00 8.120865e+00 5.737777e+00 4.967156e+00 6.481923e+00 4.959983e+00 3.900717e+00 2.368980e+00 2.969596e-01 5.400066e-01 6.202804e-01 1.112908e+00 1.020881e+00 1.366948e+00 1.366442e+00 1.115758e+00 1.176264e+00 1.166938e+00 1.077057e+00 8.580870e-01 3.544708e-01
<GCONST> 1.398093e+02
<TRANSP> 5
 0.000000e+00 1.000000e+00 0.000000e+00 0.000000e+00 0.000000e+00
 0.000000e+00 5.484175e-01 4.515826e-01 0.000000e+00 0.000000e+00
 0.000000e+00 0.000000e+00 7.923366e-01 2.076633e-01 0.000000e+00
 0.000000e+00 0.000000e+00 0.000000e+00 5.306461e-01 4.693539e-01
 0.000000e+00 0.000000e+00 0.000000e+00 0.000000e+00 0.000000e+00
<ENDHMM>
~h "v"
<BEGINHMM>
<NUMSTATES> 5
<STATE> 2
<MEAN> 39
 -9.672927e+00 -5.062569e+00 1.580777e+01 -1.165993e+01 -1.831871e+01 -4.707588e+00 -1.109935e+01 -1.229813e+01 -1.168172e+01 1.308216e+00 -6.479624e+00 -5.905682e-01 6.861281e+01 1.317757e+00 -1.172063e+00 7.617378e-01 -1.063776e+00 -1.558223e+00 -1.508165e+00 -9.643157e-01 -7.784327e-01 -1.738854e+00 5.263840e-02 -1.113856e+00 -1.646449e-01 4.051325e-01 -4.155822e-01 -3.772821e-02 -5.260724e-01 1.355469e-01 7.189252e-01 2.930656e-01 4.904635e-01 7.859135e-01 5.457210e-01 1.331928e-01 1.603414e-01 1.535948e-02 -6.913833e-02
<VARIANCE> 39
 2.823882e+01 3.004649e+01 2.550944e+01 5.417945e+01 2.697895e+01 3.623654e+01 3.760314e+01 4.351951e+01 5.136649e+01 3.465646e+01 4.727415e+01 4.909099e+01 2.637474e+01 3.691553e+00 2.494725e+00 2.504844e+00 2.766195e+00 4.272186e+00 4.378436e+00 4.811723e+00 5.607409e+00 4.821197e+00 3.377080e+00 4.260016e+00 3.275331e+00 7.146036e-01 3.850547e-01 3.182290e-01 2.940089e-01 4.936682e-01 4.937368e-01 6.048595e-01 6.186609e-01 6.598917e-01 6.011068e-01 6.194491e-01 6.007617e-01 5.491464e-01 1.205193e-01
<GCONST> 1.235670e+02
<STATE> 3
<MEAN> 39
 -7.934774e+00 -7.516001e+00 1.616613e+01 -1.287628e+01 -1.981816e+01 -6.505638e+00 -9.861957e+00 -1.094257e+01 -1.295502e+01 3.697068e+00 -8.227147e+00 -1.653771e+00 6.855734e+01 1.444412e-01 -6.872511e-02 -4.107621e-01 7.442473e-02 1.151460e-01 -3.566583e-01 2.089991e-01 4.569199e-01 1.990678e-01 -3.293154e-02 3.100463e-01 1.681752e-01 -1.497189e-01 -2.104754e-02 2.067929e-01 -2.740126e-01 2.813045e-01 3.171394e-01 1.036311e-01 4.798788e-02 1.391744e-01 3.310457e-01 -2.289798e-01 2.042179e-01 7.227310e-02 -2.161733e-01
<VARIANCE> 39
 2.539921e+01 3.029202e+01 2.666334e+01 5.339705e+01 2.689829e+01 3.916390e+01 4.031105e+01 5.280020e+01 6.323802e+01 3.416117e+01 4.598965e+01 3.623331e+01 3.026414e+01 5.715455e-01 9.974595e-01 1.191439e+00 1.462978e+00 1.300966e+00 1.805042e+00 1.802898e+00 1.964922e+00 1.799093e+00 1.853676e+00 2.019892e+00 1.674283e+00 5.281188e-01 1.602937e-01 1.885106e-01 2.475838e-01 3.524750e-01 3.395689e-01 3.319601e-01 4.160647e-01 3.623607e-01 4.409232e-01 3.421158e-01 3.799166e-01 2.996003e-01 1.100119e-01
<GCONST> 1.063251e+02
<STATE> 4
<MEAN> 39
 -7.118149e+00 -6.522478e+00 1.238586e+01 -1.040008e+01 -1.722938e+01 -7.842400e+00 -9.354351e+00 -7.917264e+00 -1.032173e+01 1.304229e+00 -5.547966e+00 -3.063289e-02 6.628726e+01 1.754835e-01 5.512889e-01 -2.062168e+00 1.570451e+00 2.129398e+00 1.885883e-01 4.353664e-01 1.307334e+00 1.805470e+00 -9.594753e-01 6.846752e-01 3.083459e-01 -1.366148e+00 -1.770229e-01 2.173159e-01 -3.547049e-01 3.713480e-01 5.996001e-01 4.994949e-01 2.308095e-01 5.787649e-02 4.641258e-01 1.016266e-01 3.244968e-02 -7.442881e-02 -3.914847e-01
<VARIANCE> 39
 2.742552e+01 4.233701e+01 4.020768e+01 6.273182e+01 3.870818e+01 5.079227e+01 4.318119e+01 5.838833e+01 6.200657e+01 4.074858e+01 4.869577e+01 3.792596e+01 5.075363e+01 2.026038e+00 2.393445e+00 2.919903e+00 3.995423e+00 3.617383e+00 4.176110e+00 4.702786e+00 4.160065e+00 4.230317e+00 3.402409e+00 3.649692e+00 2.947264e+00 2.366973e+00 2.795141e-01 4.851168e-01 4.455239e-01 7.513086e-01 5.990651e-01 7.073109e-01 7.604376e-01 8.750437e-01 6.850502e-01 6.582763e-01 6.310872e-01 5.509361e-01 3.283288e-01
<GCONST> 1.295696e+02
<TRANSP> 5
 0.000000e+00 1.000000e+00 0.000000e+00 0.000000e+00 0.000000e+00
 0.000000e+00 4.632909e-01 5.367091e-01 0.000000e+00 0.000000e+00
 0.000000e+00 0.000000e+00 7.257719e-01 2.742281e-01 0.000000e+00
 0.000000e+00 0.000000e+00 0.000000e+00 5.323597e-01 4.676403e-01
 0.000000e+00 0.000000e+00 0.000000e+00 0.000000e+00 0.000000e+00
<ENDHMM>
~h "x"
<BEGINHMM>
<NUMSTATES> 5
<STATE> 2
<MEAN> 39
 -1.158523e+01 8.388042e-01 3.562902e+00 -5.773200e+00 -8.987967e+00 -5.306476e+00 -6.076044e+00 -5.908472e+00 -5.782387e+00 -2.571862e+00 -3.033445e+00 -2.474915e-01 6.745590e+01 -3.090991e+00 2.540560e+00 -1.290268e-01 2.539919e+00 1.846421e+00 1.625876e+00 2.230855e+00 5.626785e-01 1.207275e+00 7.820315e-01 1.300150e+00 -2.739322e-01 -2.593208e-01 -4.391403e-01 -4.418160e-01 -4.758336e-01 -2.252078e-01 4.507950e-01 4.749941e-01 2.471844e-01 5.613179e-01 4.568385e-01 4.758519e-01 3.374286e-02 8.504340e-02 1.543573e-01
<VARIANCE> 39
 4.846458e+01 5.032689e+01 4.945877e+01 5.726418e+01 5.462379e+01 5.254488e+01 6.427464e+01 5.507458e+01 4.947924e+01 3.890799e+01 3.697421e+01 3.504321e+01 3.425491e+01 3.232942e+00 4.803101e+00 5.248783e+00 5.148699e+00 6.241061e+00 5.829187e+00 6.737204e+00 6.613903e+00 5.723520e+00 5.729652e+00 4.360057e+00 3.762968e+00 1.843369e+00 6.512495e-01 8.501692e-01 6.016971e-01 9.530108e-01 9.983377e-01 9.356350e-01 1.202715e+00 8.857978e-01 8.207426e-01 8.560160e-01 7.566471e-01 6.970121e-01 1.674898e-01
<GCONST> 1.382207e+02
<STATE> 3
<MEAN> 39
 -2.371827e+01 4.187764e+00 7.289933e-02 -1.296681e+00 -1.523725e+00 2.733252e+00 8.202010e-01 -2.132752e-02 1.800143e+00 2.785645e+00 7.939499e-01 6.877980e-01 6.772151e+01 -6.863711e-01 -2.362241e-01 -8.919971e-02 -1.922890e-01 2.470761e-01 5.989129e-01 1.819572e-01 3.768325e-01 5.345594e-01 3.161025e-01 1.769038e-01 1.654413e-01 1.929730e-01 8.180507e-01 -2.549931e-01 4.485722e-01 -4.429808e-01 -5.935885e-01 -4.802297e-01 -4.857639e-01 -4.472799e-01 -4.438374e-01 -3.015493e-01 -2.003264e-01 -1.401795e-02 4.820488e-02
<VARIANCE> 39
 2.706968e+01 3.354934e+01 4.164550e+01 3.486366e+01 3.128852e+01 2.427828e+01 2.686573e+01 2.713048e+01 2.660523e+01 2.335692e+01 2.107004e+01 1.700898e+01 2.609196e+01 2.227337e+00 1.168404e+00 2.180944e+00 1.662756e+00 2.157918e+00 2.184378e+00 2.428914e+00 2.704959e+00 2.521755e+00 2.410376e+00 1.956068e+00 1.722841e+00 6.027132e-01 3.397757e-01 3.569848e-01 3.115939e-01 5.018666e-01 5.333160e-01 5.115734e-01 5.797704e-01 5.609626e-01 5.106850e-01 4.978106e-01 4.532177e-01 4.098180e-01 1.206713e-01
<GCONST> 1.112051e+02
<STATE> 4
<MEAN> 39
 -2.000792e+01 2.773383e+00 4.234650e+00 -3.731064e+00 -4.629353e+00 1.677035e+00 -1.265702e+00 -2.611872e+00 2.380074e-01 1.801175e+00 5.709577e-01 5.341792e-01 6.861332e+01 3.458436e+00 -1.314799e+00 2.091123e+00 -2.456167e+00 -3.233633e+00 -2.376519e+00 -2.191486e+00 -1.982352e+00 -1.959804e+00 -6.759836e-01 -7.692434e-01 2.096469e-01 7.010447e-01 5.721492e-01 -7.417037e-01 -7.635473e-02 -7.478980e-01 -5.908928e-01 -5.357730e-01 -3.769695e-01 -2.357189e-02 -5.306292e-01 -9.150761e-02 -4.984173e-01 1.974797e-02 2.606211e-01
<VARIANCE> 39
 4.391720e+01 3.404758e+01 4.841367e+01 3.028673e+01 3.831784e+01 3.307784e+01 3.693728e+01 3.498198e+01 3.002239e+01 2.455332e+01 2.182733e+01 1.905237e+01 2.472791e+01 2.334391e+00 4.098420e+00 2.390968e+00 4.904109e+00 3.351832e+00 3.424808e+00 4.104070e+00 4.631274e+00 3.290050e+00 2.949207e+00 3.280988e+00 3.561172e+00 1.117436e+00 6.636825e-01 5.619787e-01 6.520123e-01 4.913603e-01 7.647756e-01 7.595821e-01 8.380951e-01 9.487751e-01 7.347550e-01 6.885517e-01 6.000444e-01 5.629777e-01 1.344592e-01
<GCONST> 1.247048e+02
<TRANSP> 5
 0.000000e+00 1.000000e+00 0.000000e+00 0.000000e+00 0.000000e+00
 0.000000e+00 7.120717e-01 2.879283e-01 0.000000e+00 0.000000e+00
 0.000000e+00 0.000000e+00 8.236158e-01 1.763842e-01 0.000000e+00
 0.000000e+00 0.000000e+00 0.000000e+00 6.039065e-01 3.960935e-01
 0.000000e+00 0.000000e+00 0.000000e+00 0.000000e+00 0.000000e+00
<ENDHMM>
~h "z"
<BEGINHMM>
<NUMSTATES> 5
<STATE> 2
<MEAN> 39
 -6.344008e+00 -1.150383e+00 5.473387e-01 -1.622898e+00 -6.709143e+00 -5.940356e+00 -7.921222e+00 -4.861115e+00 -4.098966e+00 -4.417671e+00 -4.138041e+00 -7.985471e-01 5.938210e+01 -2.099942e+00 1.421554e+00 -3.150670e-01 2.319790e+00 1.371170e+00 1.720796e+00 1.886091e+00 9.142927e-01 9.072762e-01 9.667445e-01 8.088611e-01 -1.679099e-02 -1.543832e+00 -6.482422e-01 -4.815026e-01 -4.134196e-01 -4.511431e-01 8.363836e-02 3.186127e-01 4.395348e-01 6.049569e-01 2.660546e-01 5.461559e-01 2.941501e-01 2.583111e-01 6.971308e-01
<VARIANCE> 39
 2.971240e+01 3.193771e+01 3.623923e+01 4.087096e+01 5.070726e+01 4.805726e+01 5.634249e+01 4.415946e+01 4.634803e+01 4.410881e+01 3.960114e+01 3.843037e+01 4.111522e+01 3.182235e+00 3.914115e+00 3.805906e+00 4.484014e+00 4.474292e+00 4.923173e+00 5.591595e+00 5.174866e+00 4.773414e+00 4.950523e+00 3.889319e+00 3.676075e+00 4.449215e+00 4.639842e-01 5.701619e-01 5.439737e-01 8.200327e-01 7.629971e-01 8.928380e-01 9.163698e-01 7.301117e-01 7.573739e-01 7.497782e-01 6.353403e-01 6.654747e-01 6.050381e-01
<GCONST> 1.343978e+02
<STATE> 3
<MEAN> 39
 -1.709540e+01 -9.487677e-01 -2.812248e+00 2.032825e+00 -2.105321e+00 1.319629e+00 9.288160e-01 2.834333e+00 2.407131e+00 3.502856e+00 1.990525e+00 2.515776e+00 5.801097e+01 -1.989279e+00 2.604977e-01 -8.856090e-01 2.509738e-01 2.805219e-01 4.027055e-01 7.868926e-01 1.000816e+00 4.232687e-01 6.701453e-01 7.108783e-01 4.833450e-01 1.807186e+00 9.751157e-01 -2.139626e-01 2.107258e-01 -6.404434e-01 -4.272315e-01 -8.225520e-01 -7.827615e-01 -4.581414e-01 -4.952578e-01 -6.388943e-01 -4.648974e-01 -1.112234e-01 7.260089e-01
<VARIANCE> 39
 3.209261e+01 3.381017e+01 3.077979e+01 3.162293e+01 3.413791e+01 3.210163e+01 3.363020e+01 3.069848e+01 3.151986e+01 2.798461e+01 2.577411e+01 2.060102e+01 3.305219e+01 3.261120e+00 3.296345e+00 2.624072e+00 2.679214e+00 2.899229e+00 3.498923e+00 3.726288e+00 3.610388e+00 3.823213e+00 3.830390e+00 3.099429e+00 2.670042e+00 3.014822e+00 9.678394e-01 8.731019e-01 5.616856e-01 8.844642e-01 6.243791e-01 7.732453e-01 8.665466e-01 7.062336e-01 6.731695e-01 6.693323e-01 6.133971e-01 5.541254e-01 6.006596e-01
<GCONST> 1.267103e+02
<STATE> 4
<MEAN> 39
 -1.547578e+01 3.424912e-01 -2.896690e+00 4.713149e-02 -3.685352e+00 -3.287447e+00 -1.407770e+00 2.123939e+00 -8.032770e-02 6.017077e-01 4.789491e-01 2.263328e+00 6.755819e+01 3.119419e+00 -1.782341e+00 -9.639140e-03 -2.975878e+00 -1.142307e+00 -2.414230e+00 -2.233553e+00 -3.908697e-01 -7.992918e-01 -1.311081e+00 -1.309948e+00 1.655116e-01 2.683115e+00 8.266963e-01 -9.437082e-01 -1.056998e-01 -9.842501e-01 -8.474819e-02 -5.339641e-02 -5.573707e-01 -2.395918e-01 -2.760791e-01 -2.563238e-01 -4.509560e-01 -9.014428e-02 -2.114814e-01
<VARIANCE> 39
 5.541569e+01 3.176484e+01 2.929569e+01 3.998972e+01 4.612613e+01 5.230267e+01 4.548719e+01 3.133560e+01 2.959230e+01 2.832461e+01 2.521228e+01 2.112701e+01 2.732715e+01 4.454017e+00 6.673775e+00 3.124977e+00 6.304532e+00 4.024171e+00 4.864029e+00 7.633337e+00 5.102555e+00 3.979102e+00 4.383354e+00 4.346720e+00 3.644454e+00 2.137766e+00 1.367248e+00 9.382343e-01 5.807464e-01 8.927271e-01 8.340067e-01 1.324795e+00 1.265723e+00 8.993943e-01 7.540311e-01 8.577631e-01 7.697338e-01 6.794208e-01 3.125787e-01
<GCONST> 1.345492e+02
<TRANSP> 5
 0.000000e+00 1.000000e+00 0.000000e+00 0.000000e+00 0.000000e+00
 0.000000e+00 6.434243e-01 3.565757e-01 0.000000e+00 0.000000e+00
 0.000000e+00 0.000000e+00 6.808231e-01 3.191769e-01 0.000000e+00
 0.000000e+00 0.000000e+00 0.000000e+00 5.685774e-01 4.314226e-01
 0.000000e+00 0.000000e+00 0.000000e+00 0.000000e+00 0.000000e+00
<ENDHMM>
~h "aa"
<BEGINHMM>
<NUMSTATES> 5
<STATE> 2
<MEAN> 39
 -6.729609e+00 -1.747642e+01 -9.784415e+00 -1.169129e+01 1.948602e+00 6.706549e-01 -4.373255e+00 -1.600480e-01 -2.838123e+00 -4.682855e+00 -3.533065e+00 -5.037241e-01 7.052917e+01 -3.018735e-01 -1.462107e+00 -3.670095e-01 1.187221e+00 1.258433e+00 9.149775e-02 -6.307557e-01 -4.885763e-01 -2.318948e-01 -7.663964e-01 -1.605325e-01 2.880724e-01 9.402063e-01 6.065586e-03 9.926374e-02 2.266427e-01 -1.545092e-02 -2.932485e-01 -1.437896e-01 -2.011057e-01 -1.109342e-01 -1.076131e-01 5.107240e-02 -2.796428e-02 4.535230e-02 9.579134e-02
<VARIANCE> 39
 2.610863e+01 4.634398e+01 5.324049e+01 8.895435e+01 9.724667e+01 6.805802e+01 9.451270e+01 6.873880e+01 6.890631e+01 6.234022e+01 5.545021e+01 5.883426e+01 8.608026e+01 9.847153e-01 1.816759e+00 2.594361e+00 3.486168e+00 4.154943e+00 3.401626e+00 4.540062e+00 3.906647e+00 4.187320e+00 4.251303e+00 3.890308e+00 3.939008e+00 2.686221e+00 1.406655e-01 2.933961e-01 3.151518e-01 4.703984e-01 5.981624e-01 4.978355e-01 8.371098e-01 7.496939e-01 7.235920e-01 7.398595e-01 6.704342e-01 7.534482e-01 4.581520e-01
<GCONST> 1.317688e+02
<STATE> 3
<MEAN> 39
 -6.428608e+00 -2.120552e+01 -9.829358e+00 -6.987261e+00 2.618071e+00 3.544744e-01 -1.063083e+01 -2.425662e-01 -5.043016e+00 -7.713958e+00 -4.849206e+00 -4.158716e-01 7.386253e+01 -1.083473e-01 -1.783199e-01 1.187689e-01 4.354331e-01 -1.410368e-01 -1.548432e-01 -4.219450e-02 -9.145852e-03 -1.797827e-01 -1.978481e-01 6.265153e-02 2.160945e-01 9.869667e-02 2.487581e-02 1.193483e-01 3.387748e-02 -1.356817e-01 -1.566565e-01 -5.408381e-03 1.471284e-01 2.866439e-02 -6.932802e-02 3.724431e-02 -6.212223e-03 -2.697590e-02 -6.397470e-02
<VARIANCE> 39
 2.597260e+01 3.240281e+01 3.694497e+01 5.234264e+01 5.501197e+01 6.262673e+01 8.169497e+01 5.794329e+01 5.117908e+01 5.393270e+01 4.583507e+01 4.382710e+01 6.320752e+01 4.447739e-01 9.069725e-01 8.669988e-01 1.282031e+00 1.633233e+00 1.406332e+00 1.818103e+00 1.673358e+00 1.677046e+00 1.561577e+00 1.453989e+00 1.570410e+00 9.019032e-01 6.726701e-02 1.423392e-01 1.359815e-01 1.968989e-01 2.188836e-01 2.084096e-01 2.623661e-01 2.526967e-01 2.620185e-01 2.592104e-01 2.483540e-01 2.431583e-01 1.223354e-01
<GCONST> 1.034216e+02
<STATE> 4
<MEAN> 39
 -9.452985e+00 -1.524437e+01 -6.037708e+00 -2.637283e+00 2.783454e+00 2.340282e+00 -2.862329e+00 1.674055e+00 9.031315e-01 -8.337398e-01 1.159934e+00 3.558011e+00 6.150448e+01 1.616041e-01 -8.142377e-01 -2.041649e-01 -2.478821e-01 -1.831807e-01 -1.980438e-01 -4.992881e-01 -6.545118e-01 -6.828008e-01 -4.450676e-01 -2.816061e-01 -1.020638e-01 1.278943e+00 1.460438e-01 -2.867523e-01 -1.665197e-01 -4.117978e-01 -1.098259e-01 -1.403179e-01 -2.109533e-01 -1.805767e-01 -3.846360e-01 -3.099218e-01 -2.446608e-01 -2.170253e-01 6.314900e-01
<VARIANCE> 39
 2.340475e+01 7.798295e+01 4.300227e+01 5.556118e+01 5.253047e+01 4.719295e+01 7.316112e+01 5.442812e+01 6.603203e+01 6.883833e+01 5.337292e+01 3.885736e+01 1.656871e+02 1.499054e+00 6.616512e+00 3.111937e+00 3.817006e+00 4.216567e+00 3.485510e+00 5.782779e+00 4.067423e+00 4.801491e+00 4.717720e+00 3.313152e+00 2.888819e+00 1.105144e+01 2.327525e-01 1.047676e+00 4.931902e-01 5.165177e-01 6.645234e-01 5.739133e-01 8.110421e-01 6.550604e-01 6.683052e-01 7.153583e-01 5.541927e-01 5.049738e-01 1.425433e+00
<GCONST> 1.366038e+02
<TRANSP> 5
 0.000000e+00 1.000000e+00 0.000000e+00 0.000000e+00 0.000000e+00
 0.000000e+00 6.003722e-01 3.996279e-01 0.000000e+00 0.000000e+00
 0.000000e+00 0.000000e+00 7.474134e-01 2.525866e-01 0.000000e+00
 0.000000e+00 0.000000e+00 0.000000e+00 6.135970e-01 3.864029e-01
 0.000000e+00 0.000000e+00 0.000000e+00 0.000000e+00 0.000000e+00
<ENDHMM>
~h "ai"
<BEGINHMM>
<NUMSTATES> 5
<STATE> 2
<MEAN> 39
 -6.080129e+00 -1.980031e+01 -6.811057e+00 -8.955138e+00 -6.934107e+00 -2.873623e+00 -1.692311e+00 -2.855054e-01 -7.615911e+00 -8.076139e+00 -7.109958e+00 1.717819e+00 7.688560e+01 5.020958e-02 -2.279406e+00 -9.332569e-01 -1.158359e+00 -4.931591e-01 3.779849e-01 7.514748e-01 -3.892106e-01 -1.888184e+00 -1.261559e+00 -8.020745e-01 -2.460355e-01 1.610433e+00 -4.171852e-01 6.263781e-01 5.154260e-01 5.551270e-01 2.426716e-01 2.943845e-01 1.997109e-01 2.406136e-02 3.441785e-01 5.021367e-01 4.911653e-01 -9.172850e-02 -6.279147e-01
<VARIANCE> 39
 2.246579e+01 3.203269e+01 2.741067e+01 5.131769e+01 5.168446e+01 4.823481e+01 6.978683e+01 6.949173e+01 4.957386e+01 4.110715e+01 4.741350e+01 4.134982e+01 2.680834e+01 2.454374e+00 3.957568e+00 2.618976e+00 4.813616e+00 4.997230e+00 4.571179e+00 4.947225e+00 4.829169e+00 3.513608e+00 3.533810e+00 3.954212e+00 3.080491e+00 2.034760e+00 3.906386e-01 5.196935e-01 4.494619e-01 7.302254e-01 6.846957e-01 7.657107e-01 8.602133e-01 1.007928e+00 7.815505e-01 6.457543e-01 6.402832e-01 6.024551e-01 4.096897e-01
<GCONST> 1.311156e+02
<STATE> 3
<MEAN> 39
 -7.099296e+00 -2.202447e+01 -5.707142e+00 -9.101645e+00 -8.292838e+00 -1.112531e-01 1.295812e+00 -8.774531e-01 -1.065612e+01 -8.612415e+00 -6.196638e+00 6.047622e-01 7.762491e+01 -7.570465e-02 4.462475e-01 7.024521e-01 -7.183613e-01 -1.001087e+00 -4.553467e-02 6.147844e-01 2.540326e-01 1.328503e-01 3.861533e-01 -7.041960e-02 -5.123570e-01 -2.097055e-01 8.105469e-02 4.032445e-01 1.823688e-01 -1.085752e-01 -1.652226e-01 -2.623721e-01 -2.334253e-01 7.593828e-02 3.914817e-01 2.651657e-01 -2.545677e-02 -4.306217e-02 -2.509879e-01
<VARIANCE> 39
 2.225479e+01 2.243347e+01 2.495870e+01 4.463787e+01 3.940258e+01 3.571552e+01 6.715218e+01 6.990018e+01 3.707296e+01 2.975262e+01 3.488454e+01 2.957448e+01 2.782549e+01 4.111714e-01 1.037843e+00 8.892421e-01 1.930319e+00 1.825840e+00 1.553893e+00 1.942493e+00 1.799331e+00 2.011107e+00 1.800918e+00 1.771075e+00 1.651745e+00 3.894059e-01 9.396262e-02 1.757986e-01 1.635496e-01 2.719183e-01 2.667440e-01 2.805735e-01 4.129335e-01 3.473439e-01 3.507099e-01 3.442523e-01 3.058302e-01 2.999386e-01 7.436229e-02
<GCONST> 1.024281e+02
<STATE> 4
<MEAN> 39
 -6.928127e+00 -1.609555e+01 2.644598e-01 -1.549481e+01 -1.591427e+01 -3.978863e+00 1.906217e+00 3.681018e-01 -6.392823e+00 -3.398335e+00 -7.197211e+00 -2.706904e+00 7.530257e+01 3.338420e-01 1.963174e+00 1.352360e+00 -1.361998e-01 -8.446177e-01 -1.292707e+00 -1.596913e+00 -5.968399e-01 1.114958e+00 1.304999e+00 4.744034e-01 2.751304e-01 -1.408126e+00 5.705755e-02 2.818104e-01 -3.039018e-02 7.855664e-01 6.543005e-01 1.399052e-01 -3.884601e-01 -3.681211e-01 -1.624342e-01 -1.997800e-01 2.731860e-01 3.761730e-01 -4.680278e-01
<VARIANCE> 39
 2.032526e+01 2.998118e+01 3.172808e+01 4.216259e+01 3.946618e+01 4.478360e+01 6.134638e+01 6.533768e+01 4.343992e+01 4.004470e+01 2.815401e+01 2.818955e+01 3.263756e+01 8.120750e-01 1.345599e+00 1.670456e+00 3.226259e+00 2.831979e+00 2.418729e+00 3.240618e+00 2.999738e+00 3.031651e+00 2.938982e+00 2.369457e+00 2.537904e+00 1.049202e+00 1.569784e-01 2.518520e-01 2.590628e-01 4.313447e-01 4.326824e-01 5.464067e-01 7.197069e-01 5.480927e-01 5.591053e-01 6.151695e-01 4.329593e-01 4.458750e-01 1.875214e-01
<GCONST> 1.165056e+02
<TRANSP> 5
 0.000000e+00 1.000000e+00 0.000000e+00 0.000000e+00 0.000000e+00
 0.000000e+00 6.689028e-01 3.310972e-01 0.000000e+00 0.000000e+00
 0.000000e+00 0.000000e+00 8.086700e-01 1.913299e-01 0.000000e+00
 0.000000e+00 0.000000e+00 0.000000e+00 6.627836e-01 3.372164e-01
 0.000000e+00 0.000000e+00 0.000000e+00 0.000000e+00 0.000000e+00
<ENDHMM>
~h "an"
<BEGINHMM>
<NUMSTATES> 5
<STATE> 2
<MEAN> 39
 -5.721837e+00 -1.960785e+01 -7.073530e+00 -1.070475e+01 -5.426444e+00 -4.292733e+00 -3.532128e+00 1.120099e+00 -6.833365e+00 -8.502708e+00 -6.604170e+00 1.928423e+00 7.683402e+01 1.065227e-01 -2.424795e+00 -1.255434e+00 -1.039012e+00 2.074286e-01 2.308680e-01 -4.043294e-03 -2.003478e-01 -1.602452e+00 -1.531240e+00 -9.647419e-01 -7.631187e-02 1.473693e+00 -5.222936e-01 7.084472e-01 5.789136e-01 7.631777e-01 3.150558e-01 2.912202e-01 1.482921e-01 -1.498187e-02 2.499899e-01 4.809974e-01 5.242800e-01 -4.656145e-02 -6.841679e-01
<VARIANCE> 39
 2.306222e+01 2.976090e+01 3.112856e+01 4.685910e+01 5.406065e+01 4.932008e+01 7.457967e+01 5.817913e+01 5.190244e+01 4.445968e+01 5.901933e+01 5.513091e+01 2.528506e+01 2.668750e+00 4.013598e+00 2.811347e+00 4.663413e+00 4.713160e+00 4.386929e+00 4.751220e+00 4.250818e+00 3.686885e+00 3.670801e+00 4.263488e+00 3.406125e+00 2.127375e+00 4.998539e-01 5.441354e-01 4.423691e-01 6.363990e-01 7.465247e-01 7.617204e-01 8.515432e-01 9.215132e-01 7.055227e-01 6.511294e-01 7.273019e-01 7.408407e-01 3.861232e-01
<GCONST> 1.321101e+02
<STATE> 3
<MEAN> 39
 -7.006900e+00 -2.127954e+01 -6.461907e+00 -9.622870e+00 -4.640296e+00 -3.197613e+00 -3.630161e+00 1.640722e+00 -1.015456e+01 -9.906231e+00 -5.992570e+00 1.256294e+00 7.710283e+01 6.088472e-02 7.196535e-01 5.015490e-01 -2.043754e-01 -5.397895e-01 -4.662802e-01 -3.259759e-02 3.174888e-01 -1.336937e-01 3.344292e-01 1.386697e-01 -2.461913e-01 -5.877105e-01 1.412584e-01 4.931410e-01 2.244588e-01 2.923289e-03 -2.284404e-01 -2.193547e-01 -1.175627e-01 -3.842166e-02 2.440711e-01 2.797517e-01 5.000038e-02 -5.622325e-02 -3.839437e-01
<VARIANCE> 39
 2.422035e+01 2.135624e+01 2.771512e+01 4.242884e+01 4.450216e+01 4.170044e+01 7.917229e+01 5.962124e+01 4.829737e+01 3.835970e+01 4.780746e+01 3.644270e+01 2.492511e+01 4.994724e-01 1.289072e+00 1.141002e+00 1.742439e+00 2.242405e+00 1.974402e+00 2.323914e+00 2.159446e+00 2.092801e+00 1.995985e+00 1.886772e+00 1.976590e+00 5.803800e-01 9.737293e-02 1.859488e-01 1.900793e-01 3.199286e-01 3.024799e-01 3.099965e-01 4.257663e-01 4.670050e-01 3.849984e-01 3.700995e-01 3.476080e-01 3.234294e-01 1.035840e-01
<GCONST> 1.075391e+02
<STATE> 4
<MEAN> 39
 -4.297886e+00 -1.196667e+01 -1.000489e+00 -9.184859e+00 -9.895802e+00 -8.384722e+00 -5.579252e+00 3.246879e-01 -8.714727e+00 -6.260489e+00 -5.370636e+00 -7.146492e-01 6.815840e+01 5.373855e-01 2.147014e+00 1.355788e+00 8.847822e-01 -6.399206e-01 -3.275217e-01 -1.018146e+00 -1.426753e+00 5.430454e-01 6.567748e-01 3.691881e-01 -3.313799e-01 -2.353282e+00 -1.137774e-01 -3.925280e-02 -6.366182e-02 2.343932e-01 3.125796e-01 3.623133e-01 -2.952942e-02 -2.435641e-01 3.198445e-02 -1.506254e-01 1.155310e-02 6.872004e-02 -1.893002e-02
<VARIANCE> 39
 2.359728e+01 3.802266e+01 4.394897e+01 5.253893e+01 5.680262e+01 5.327819e+01 7.415389e+01 6.829251e+01 6.172885e+01 4.753162e+01 4.896294e+01 5.042505e+01 4.923749e+01 9.150676e-01 1.489345e+00 2.249166e+00 2.835468e+00 2.887731e+00 3.419510e+00 4.107675e+00 3.882006e+00 3.498351e+00 3.461597e+00 2.948462e+00 2.701565e+00 1.459718e+00 1.589808e-01 2.783034e-01 4.123423e-01 4.796097e-01 4.880387e-01 5.420218e-01 7.413769e-01 8.333553e-01 6.319252e-01 5.924119e-01 5.161554e-01 4.904169e-01 3.045990e-01
<GCONST> 1.245322e+02
<TRANSP> 5
 0.000000e+00 1.000000e+00 0.000000e+00 0.000000e+00 0.000000e+00
 0.000000e+00 6.461843e-01 3.538156e-01 0.000000e+00 0.000000e+00
 0.000000e+00 0.000000e+00 8.154370e-01 1.845630e-01 0.000000e+00
