~o
<STREAMINFO> 1 39
<VECSIZE> 39<NULLD><MFCC_D_A_0><DIAGC>
~h "ii"
<BEGINHMM>
<NUMSTATES> 5
<STATE> 2
<MEAN> 39
 -8.541321e+00 -8.000110e+00 -1.329445e-01 -7.826166e+00 -5.029053e+00 -1.689677e+00 -4.933764e+00 -4.046610e-01 -2.261182e+00 -4.847213e-01 -2.237925e+00 8.850434e-01 6.301070e+01 -1.352675e-03 1.870498e-03 -2.764141e-04 -6.976602e-04 -3.420527e-04 1.393128e-03 -6.322996e-05 -3.842450e-04 -1.645737e-03 1.862613e-03 -1.562339e-03 1.027830e-04 -2.615176e-04 -4.197140e-04 1.373720e-04 -1.041117e-05 -5.785859e-05 -3.536579e-05 2.214038e-04 -8.991463e-05 1.683200e-04 -3.659200e-04 1.688902e-04 -4.141758e-04 1.429574e-04 3.938597e-04
<VARIANCE> 39
 5.483543e+01 6.776463e+01 7.797680e+01 9.985931e+01 8.119214e+01 6.232211e+01 8.438729e+01 6.445840e+01 7.160141e+01 5.538554e+01 6.075543e+01 4.208915e+01 1.953069e+02 2.631704e+00 3.085724e+00 3.101612e+00 4.672972e+00 3.950680e+00 3.618678e+00 4.375962e+00 3.935581e+00 3.800573e+00 3.519429e+00 3.285434e+00 2.726914e+00 3.022288e+00 4.180704e-01 4.548345e-01 4.749576e-01 7.154720e-01 6.625421e-01 6.462558e-01 7.639505e-01 7.261668e-01 6.826125e-01 6.562239e-01 5.926718e-01 5.120473e-01 4.388200e-01
<GCONST> 1.365655e+02
<STATE> 3
<MEAN> 39
 -8.541321e+00 -8.000110e+00 -1.329445e-01 -7.826166e+00 -5.029053e+00 -1.689677e+00 -4.933764e+00 -4.046610e-01 -2.261182e+00 -4.847213e-01 -2.237925e+00 8.850434e-01 6.301070e+01 -1.352675e-03 1.870498e-03 -2.764141e-04 -6.976602e-04 -3.420527e-04 1.393128e-03 -6.322996e-05 -3.842450e-04 -1.645737e-03 1.862613e-03 -1.562339e-03 1.027830e-04 -2.615176e-04 -4.197140e-04 1.373720e-04 -1.041117e-05 -5.785859e-05 -3.536579e-05 2.214038e-04 -8.991463e-05 1.683200e-04 -3.659200e-04 1.688902e-04 -4.141758e-04 1.429574e-04 3.938597e-04
<VARIANCE> 39
 5.483543e+01 6.776463e+01 7.797680e+01 9.985931e+01 8.119214e+01 6.232211e+01 8.438729e+01 6.445840e+01 7.160141e+01 5.538554e+01 6.075543e+01 4.208915e+01 1.953069e+02 2.631704e+00 3.085724e+00 3.101612e+00 4.672972e+00 3.950680e+00 3.618678e+00 4.375962e+00 3.935581e+00 3.800573e+00 3.519429e+00 3.285434e+00 2.726914e+00 3.022288e+00 4.180704e-01 4.548345e-01 4.749576e-01 7.154720e-01 6.625421e-01 6.462558e-01 7.639505e-01 7.261668e-01 6.826125e-01 6.562239e-01 5.926718e-01 5.120473e-01 4.388200e-01
<GCONST> 1.365655e+02
<STATE> 4
<MEAN> 39
 -8.541321e+00 -8.000110e+00 -1.329445e-01 -7.826166e+00 -5.029053e+00 -1.689677e+00 -4.933764e+00 -4.046610e-01 -2.261182e+00 -4.847213e-01 -2.237925e+00 8.850434e-01 6.301070e+01 -1.352675e-03 1.870498e-03 -2.764141e-04 -6.976602e-04 -3.420527e-04 1.393128e-03 -6.322996e-05 -3.842450e-04 -1.645737e-03 1.862613e-03 -1.562339e-03 1.027830e-04 -2.615176e-04 -4.197140e-04 1.373720e-04 -1.041117e-05 -5.785859e-05 -3.536579e-05 2.214038e-04 -8.991463e-05 1.683200e-04 -3.659200e-04 1.688902e-04 -4.141758e-04 1.429574e-04 3.938597e-04
<VARIANCE> 39
 5.483543e+01 6.776463e+01 7.797680e+01 9.985931e+01 8.119214e+01 6.232211e+01 8.438729e+01 6.445840e+01 7.160141e+01 5.538554e+01 6.075543e+01 4.208915e+01 1.953069e+02 2.631704e+00 3.085724e+00 3.101612e+00 4.672972e+00 3.950680e+00 3.618678e+00 4.375962e+00 3.935581e+00 3.800573e+00 3.519429e+00 3.285434e+00 2.726914e+00 3.022288e+00 4.180704e-01 4.548345e-01 4.749576e-01 7.154720e-01 6.625421e-01 6.462558e-01 7.639505e-01 7.261668e-01 6.826125e-01 6.562239e-01 5.926718e-01 5.120473e-01 4.388200e-01
<GCONST> 1.365655e+02
<TRANSP> 5
 0.000000e+00 1.000000e+00 0.000000e+00 0.000000e+00 0.000000e+00
 0.000000e+00 6.000000e-01 4.000000e-01 0.000000e+00 0.000000e+00
 0.000000e+00 0.000000e+00 6.000000e-01 4.000000e-01 0.000000e+00
 0.000000e+00 0.000000e+00 0.000000e+00 7.000000e-01 3.000000e-01
 0.000000e+00 0.000000e+00 0.000000e+00 0.000000e+00 0.000000e+00
<ENDHMM>
~h "i"
<BEGINHMM>
<NUMSTATES> 5
<STATE> 2
<MEAN> 39
 -8.541321e+00 -8.000110e+00 -1.329445e-01 -7.826166e+00 -5.029053e+00 -1.689677e+00 -4.933764e+00 -4.046610e-01 -2.261182e+00 -4.847213e-01 -2.237925e+00 8.850434e-01 6.301070e+01 -1.352675e-03 1.870498e-03 -2.764141e-04 -6.976602e-04 -3.420527e-04 1.393128e-03 -6.322996e-05 -3.842450e-04 -1.645737e-03 1.862613e-03 -1.562339e-03 1.027830e-04 -2.615176e-04 -4.197140e-04 1.373720e-04 -1.041117e-05 -5.785859e-05 -3.536579e-05 2.214038e-04 -8.991463e-05 1.683200e-04 -3.659200e-04 1.688902e-04 -4.141758e-04 1.429574e-04 3.938597e-04
<VARIANCE> 39
 5.483543e+01 6.776463e+01 7.797680e+01 9.985931e+01 8.119214e+01 6.232211e+01 8.438729e+01 6.445840e+01 7.160141e+01 5.538554e+01 6.075543e+01 4.208915e+01 1.953069e+02 2.631704e+00 3.085724e+00 3.101612e+00 4.672972e+00 3.950680e+00 3.618678e+00 4.375962e+00 3.935581e+00 3.800573e+00 3.519429e+00 3.285434e+00 2.726914e+00 3.022288e+00 4.180704e-01 4.548345e-01 4.749576e-01 7.154720e-01 6.625421e-01 6.462558e-01 7.639505e-01 7.261668e-01 6.826125e-01 6.562239e-01 5.926718e-01 5.120473e-01 4.388200e-01
<GCONST> 1.365655e+02
<STATE> 3
<MEAN> 39
 -8.541321e+00 -8.000110e+00 -1.329445e-01 -7.826166e+00 -5.029053e+00 -1.689677e+00 -4.933764e+00 -4.046610e-01 -2.261182e+00 -4.847213e-01 -2.237925e+00 8.850434e-01 6.301070e+01 -1.352675e-03 1.870498e-03 -2.764141e-04 -6.976602e-04 -3.420527e-04 1.393128e-03 -6.322996e-05 -3.842450e-04 -1.645737e-03 1.862613e-03 -1.562339e-03 1.027830e-04 -2.615176e-04 -4.197140e-04 1.373720e-04 -1.041117e-05 -5.785859e-05 -3.536579e-05 2.214038e-04 -8.991463e-05 1.683200e-04 -3.659200e-04 1.688902e-04 -4.141758e-04 1.429574e-04 3.938597e-04
<VARIANCE> 39
 5.483543e+01 6.776463e+01 7.797680e+01 9.985931e+01 8.119214e+01 6.232211e+01 8.438729e+01 6.445840e+01 7.160141e+01 5.538554e+01 6.075543e+01 4.208915e+01 1.953069e+02 2.631704e+00 3.085724e+00 3.101612e+00 4.672972e+00 3.950680e+00 3.618678e+00 4.375962e+00 3.935581e+00 3.800573e+00 3.519429e+00 3.285434e+00 2.726914e+00 3.022288e+00 4.180704e-01 4.548345e-01 4.749576e-01 7.154720e-01 6.625421e-01 6.462558e-01 7.639505e-01 7.261668e-01 6.826125e-01 6.562239e-01 5.926718e-01 5.120473e-01 4.388200e-01
<GCONST> 1.365655e+02
<STATE> 4
<MEAN> 39
 -8.541321e+00 -8.000110e+00 -1.329445e-01 -7.826166e+00 -5.029053e+00 -1.689677e+00 -4.933764e+00 -4.046610e-01 -2.261182e+00 -4.847213e-01 -2.237925e+00 8.850434e-01 6.301070e+01 -1.352675e-03 1.870498e-03 -2.764141e-04 -6.976602e-04 -3.420527e-04 1.393128e-03 -6.322996e-05 -3.842450e-04 -1.645737e-03 1.862613e-03 -1.562339e-03 1.027830e-04 -2.615176e-04 -4.197140e-04 1.373720e-04 -1.041117e-05 -5.785859e-05 -3.536579e-05 2.214038e-04 -8.991463e-05 1.683200e-04 -3.659200e-04 1.688902e-04 -4.141758e-04 1.429574e-04 3.938597e-04
<VARIANCE> 39
 5.483543e+01 6.776463e+01 7.797680e+01 9.985931e+01 8.119214e+01 6.232211e+01 8.438729e+01 6.445840e+01 7.160141e+01 5.538554e+01 6.075543e+01 4.208915e+01 1.953069e+02 2.631704e+00 3.085724e+00 3.101612e+00 4.672972e+00 3.950680e+00 3.618678e+00 4.375962e+00 3.935581e+00 3.800573e+00 3.519429e+00 3.285434e+00 2.726914e+00 3.022288e+00 4.180704e-01 4.548345e-01 4.749576e-01 7.154720e-01 6.625421e-01 6.462558e-01 7.639505e-01 7.261668e-01 6.826125e-01 6.562239e-01 5.926718e-01 5.120473e-01 4.388200e-01
<GCONST> 1.365655e+02
<TRANSP> 5
 0.000000e+00 1.000000e+00 0.000000e+00 0.000000e+00 0.000000e+00
 0.000000e+00 6.000000e-01 4.000000e-01 0.000000e+00 0.000000e+00
 0.000000e+00 0.000000e+00 6.000000e-01 4.000000e-01 0.000000e+00
 0.000000e+00 0.000000e+00 0.000000e+00 7.000000e-01 3.000000e-01
 0.000000e+00 0.000000e+00 0.000000e+00 0.000000e+00 0.000000e+00
<ENDHMM>
~h "uu"
<BEGINHMM>
<NUMSTATES> 5
<STATE> 2
<MEAN> 39
 -8.541321e+00 -8.000110e+00 -1.329445e-01 -7.826166e+00 -5.029053e+00 -1.689677e+00 -4.933764e+00 -4.046610e-01 -2.261182e+00 -4.847213e-01 -2.237925e+00 8.850434e-01 6.301070e+01 -1.352675e-03 1.870498e-03 -2.764141e-04 -6.976602e-04 -3.420527e-04 1.393128e-03 -6.322996e-05 -3.842450e-04 -1.645737e-03 1.862613e-03 -1.562339e-03 1.027830e-04 -2.615176e-04 -4.197140e-04 1.373720e-04 -1.041117e-05 -5.785859e-05 -3.536579e-05 2.214038e-04 -8.991463e-05 1.683200e-04 -3.659200e-04 1.688902e-04 -4.141758e-04 1.429574e-04 3.938597e-04
<VARIANCE> 39
 5.483543e+01 6.776463e+01 7.797680e+01 9.985931e+01 8.119214e+01 6.232211e+01 8.438729e+01 6.445840e+01 7.160141e+01 5.538554e+01 6.075543e+01 4.208915e+01 1.953069e+02 2.631704e+00 3.085724e+00 3.101612e+00 4.672972e+00 3.950680e+00 3.618678e+00 4.375962e+00 3.935581e+00 3.800573e+00 3.519429e+00 3.285434e+00 2.726914e+00 3.022288e+00 4.180704e-01 4.548345e-01 4.749576e-01 7.154720e-01 6.625421e-01 6.462558e-01 7.639505e-01 7.261668e-01 6.826125e-01 6.562239e-01 5.926718e-01 5.120473e-01 4.388200e-01
<GCONST> 1.365655e+02
<STATE> 3
<MEAN> 39
 -8.541321e+00 -8.000110e+00 -1.329445e-01 -7.826166e+00 -5.029053e+00 -1.689677e+00 -4.933764e+00 -4.046610e-01 -2.261182e+00 -4.847213e-01 -2.237925e+00 8.850434e-01 6.301070e+01 -1.352675e-03 1.870498e-03 -2.764141e-04 -6.976602e-04 -3.420527e-04 1.393128e-03 -6.322996e-05 -3.842450e-04 -1.645737e-03 1.862613e-03 -1.562339e-03 1.027830e-04 -2.615176e-04 -4.197140e-04 1.373720e-04 -1.041117e-05 -5.785859e-05 -3.536579e-05 2.214038e-04 -8.991463e-05 1.683200e-04 -3.659200e-04 1.688902e-04 -4.141758e-04 1.429574e-04 3.938597e-04
<VARIANCE> 39
 5.483543e+01 6.776463e+01 7.797680e+01 9.985931e+01 8.119214e+01 6.232211e+01 8.438729e+01 6.445840e+01 7.160141e+01 5.538554e+01 6.075543e+01 4.208915e+01 1.953069e+02 2.631704e+00 3.085724e+00 3.101612e+00 4.672972e+00 3.950680e+00 3.618678e+00 4.375962e+00 3.935581e+00 3.800573e+00 3.519429e+00 3.285434e+00 2.726914e+00 3.022288e+00 4.180704e-01 4.548345e-01 4.749576e-01 7.154720e-01 6.625421e-01 6.462558e-01 7.639505e-01 7.261668e-01 6.826125e-01 6.562239e-01 5.926718e-01 5.120473e-01 4.388200e-01
<GCONST> 1.365655e+02
<STATE> 4
<MEAN> 39
 -8.541321e+00 -8.000110e+00 -1.329445e-01 -7.826166e+00 -5.029053e+00 -1.689677e+00 -4.933764e+00 -4.046610e-01 -2.261182e+00 -4.847213e-01 -2.237925e+00 8.850434e-01 6.301070e+01 -1.352675e-03 1.870498e-03 -2.764141e-04 -6.976602e-04 -3.420527e-04 1.393128e-03 -6.322996e-05 -3.842450e-04 -1.645737e-03 1.862613e-03 -1.562339e-03 1.027830e-04 -2.615176e-04 -4.197140e-04 1.373720e-04 -1.041117e-05 -5.785859e-05 -3.536579e-05 2.214038e-04 -8.991463e-05 1.683200e-04 -3.659200e-04 1.688902e-04 -4.141758e-04 1.429574e-04 3.938597e-04
<VARIANCE> 39
 5.483543e+01 6.776463e+01 7.797680e+01 9.985931e+01 8.119214e+01 6.232211e+01 8.438729e+01 6.445840e+01 7.160141e+01 5.538554e+01 6.075543e+01 4.208915e+01 1.953069e+02 2.631704e+00 3.085724e+00 3.101612e+00 4.672972e+00 3.950680e+00 3.618678e+00 4.375962e+00 3.935581e+00 3.800573e+00 3.519429e+00 3.285434e+00 2.726914e+00 3.022288e+00 4.180704e-01 4.548345e-01 4.749576e-01 7.154720e-01 6.625421e-01 6.462558e-01 7.639505e-01 7.261668e-01 6.826125e-01 6.562239e-01 5.926718e-01 5.120473e-01 4.388200e-01
<GCONST> 1.365655e+02
<TRANSP> 5
 0.000000e+00 1.000000e+00 0.000000e+00 0.000000e+00 0.000000e+00
 0.000000e+00 6.000000e-01 4.000000e-01 0.000000e+00 0.000000e+00
 0.000000e+00 0.000000e+00 6.000000e-01 4.000000e-01 0.000000e+00
 0.000000e+00 0.000000e+00 0.000000e+00 7.000000e-01 3.000000e-01
 0.000000e+00 0.000000e+00 0.000000e+00 0.000000e+00 0.000000e+00
<ENDHMM>
~h "uan"
<BEGINHMM>
<NUMSTATES> 5
<STATE> 2
<MEAN> 39
 -8.541321e+00 -8.000110e+00 -1.329445e-01 -7.826166e+00 -5.029053e+00 -1.689677e+00 -4.933764e+00 -4.046610e-01 -2.261182e+00 -4.847213e-01 -2.237925e+00 8.850434e-01 6.301070e+01 -1.352675e-03 1.870498e-03 -2.764141e-04 -6.976602e-04 -3.420527e-04 1.393128e-03 -6.322996e-05 -3.842450e-04 -1.645737e-03 1.862613e-03 -1.562339e-03 1.027830e-04 -2.615176e-04 -4.197140e-04 1.373720e-04 -1.041117e-05 -5.785859e-05 -3.536579e-05 2.214038e-04 -8.991463e-05 1.683200e-04 -3.659200e-04 1.688902e-04 -4.141758e-04 1.429574e-04 3.938597e-04
<VARIANCE> 39
 5.483543e+01 6.776463e+01 7.797680e+01 9.985931e+01 8.119214e+01 6.232211e+01 8.438729e+01 6.445840e+01 7.160141e+01 5.538554e+01 6.075543e+01 4.208915e+01 1.953069e+02 2.631704e+00 3.085724e+00 3.101612e+00 4.672972e+00 3.950680e+00 3.618678e+00 4.375962e+00 3.935581e+00 3.800573e+00 3.519429e+00 3.285434e+00 2.726914e+00 3.022288e+00 4.180704e-01 4.548345e-01 4.749576e-01 7.154720e-01 6.625421e-01 6.462558e-01 7.639505e-01 7.261668e-01 6.826125e-01 6.562239e-01 5.926718e-01 5.120473e-01 4.388200e-01
<GCONST> 1.365655e+02
<STATE> 3
<MEAN> 39
 -8.541321e+00 -8.000110e+00 -1.329445e-01 -7.826166e+00 -5.029053e+00 -1.689677e+00 -4.933764e+00 -4.046610e-01 -2.261182e+00 -4.847213e-01 -2.237925e+00 8.850434e-01 6.301070e+01 -1.352675e-03 1.870498e-03 -2.764141e-04 -6.976602e-04 -3.420527e-04 1.393128e-03 -6.322996e-05 -3.842450e-04 -1.645737e-03 1.862613e-03 -1.562339e-03 1.027830e-04 -2.615176e-04 -4.197140e-04 1.373720e-04 -1.041117e-05 -5.785859e-05 -3.536579e-05 2.214038e-04 -8.991463e-05 1.683200e-04 -3.659200e-04 1.688902e-04 -4.141758e-04 1.429574e-04 3.938597e-04
<VARIANCE> 39
 5.483543e+01 6.776463e+01 7.797680e+01 9.985931e+01 8.119214e+01 6.232211e+01 8.438729e+01 6.445840e+01 7.160141e+01 5.538554e+01 6.075543e+01 4.208915e+01 1.953069e+02 2.631704e+00 3.085724e+00 3.101612e+00 4.672972e+00 3.950680e+00 3.618678e+00 4.375962e+00 3.935581e+00 3.800573e+00 3.519429e+00 3.285434e+00 2.726914e+00 3.022288e+00 4.180704e-01 4.548345e-01 4.749576e-01 7.154720e-01 6.625421e-01 6.462558e-01 7.639505e-01 7.261668e-01 6.826125e-01 6.562239e-01 5.926718e-01 5.120473e-01 4.388200e-01
<GCONST> 1.365655e+02
<STATE> 4
<MEAN> 39
 -8.541321e+00 -8.000110e+00 -1.329445e-01 -7.826166e+00 -5.029053e+00 -1.689677e+00 -4.933764e+00 -4.046610e-01 -2.261182e+00 -4.847213e-01 -2.237925e+00 8.850434e-01 6.301070e+01 -1.352675e-03 1.870498e-03 -2.764141e-04 -6.976602e-04 -3.420527e-04 1.393128e-03 -6.322996e-05 -3.842450e-04 -1.645737e-03 1.862613e-03 -1.562339e-03 1.027830e-04 -2.615176e-04 -4.197140e-04 1.373720e-04 -1.041117e-05 -5.785859e-05 -3.536579e-05 2.214038e-04 -8.991463e-05 1.683200e-04 -3.659200e-04 1.688902e-04 -4.141758e-04 1.429574e-04 3.938597e-04
<VARIANCE> 39
 5.483543e+01 6.776463e+01 7.797680e+01 9.985931e+01 8.119214e+01 6.232211e+01 8.438729e+01 6.445840e+01 7.160141e+01 5.538554e+01 6.075543e+01 4.208915e+01 1.953069e+02 2.631704e+00 3.085724e+00 3.101612e+00 4.672972e+00 3.950680e+00 3.618678e+00 4.375962e+00 3.935581e+00 3.800573e+00 3.519429e+00 3.285434e+00 2.726914e+00 3.022288e+00 4.180704e-01 4.548345e-01 4.749576e-01 7.154720e-01 6.625421e-01 6.462558e-01 7.639505e-01 7.261668e-01 6.826125e-01 6.562239e-01 5.926718e-01 5.120473e-01 4.388200e-01
<GCONST> 1.365655e+02
<TRANSP> 5
 0.000000e+00 1.000000e+00 0.000000e+00 0.000000e+00 0.000000e+00
 0.000000e+00 6.000000e-01 4.000000e-01 0.000000e+00 0.000000e+00
 0.000000e+00 0.000000e+00 6.000000e-01 4.000000e-01 0.000000e+00
 0.000000e+00 0.000000e+00 0.000000e+00 7.000000e-01 3.000000e-01
 0.000000e+00 0.000000e+00 0.000000e+00 0.000000e+00 0.000000e+00
<ENDHMM>
~h "d"
<BEGINHMM>
<NUMSTATES> 5
<STATE> 2
<MEAN> 39
 -8.541321e+00 -8.000110e+00 -1.329445e-01 -7.826166e+00 -5.029053e+00 -1.689677e+00 -4.933764e+00 -4.046610e-01 -2.261182e+00 -4.847213e-01 -2.237925e+00 8.850434e-01 6.301070e+01 -1.352675e-03 1.870498e-03 -2.764141e-04 -6.976602e-04 -3.420527e-04 1.393128e-03 -6.322996e-05 -3.842450e-04 -1.645737e-03 1.862613e-03 -1.562339e-03 1.027830e-04 -2.615176e-04 -4.197140e-04 1.373720e-04 -1.041117e-05 -5.785859e-05 -3.536579e-05 2.214038e-04 -8.991463e-05 1.683200e-04 -3.659200e-04 1.688902e-04 -4.141758e-04 1.429574e-04 3.938597e-04
<VARIANCE> 39
 5.483543e+01 6.776463e+01 7.797680e+01 9.985931e+01 8.119214e+01 6.232211e+01 8.438729e+01 6.445840e+01 7.160141e+01 5.538554e+01 6.075543e+01 4.208915e+01 1.953069e+02 2.631704e+00 3.085724e+00 3.101612e+00 4.672972e+00 3.950680e+00 3.618678e+00 4.375962e+00 3.935581e+00 3.800573e+00 3.519429e+00 3.285434e+00 2.726914e+00 3.022288e+00 4.180704e-01 4.548345e-01 4.749576e-01 7.154720e-01 6.625421e-01 6.462558e-01 7.639505e-01 7.261668e-01 6.826125e-01 6.562239e-01 5.926718e-01 5.120473e-01 4.388200e-01
<GCONST> 1.365655e+02
<STATE> 3
<MEAN> 39
 -8.541321e+00 -8.000110e+00 -1.329445e-01 -7.826166e+00 -5.029053e+00 -1.689677e+00 -4.933764e+00 -4.046610e-01 -2.261182e+00 -4.847213e-01 -2.237925e+00 8.850434e-01 6.301070e+01 -1.352675e-03 1.870498e-03 -2.764141e-04 -6.976602e-04 -3.420527e-04 1.393128e-03 -6.322996e-05 -3.842450e-04 -1.645737e-03 1.862613e-03 -1.562339e-03 1.027830e-04 -2.615176e-04 -4.197140e-04 1.373720e-04 -1.041117e-05 -5.785859e-05 -3.536579e-05 2.214038e-04 -8.991463e-05 1.683200e-04 -3.659200e-04 1.688902e-04 -4.141758e-04 1.429574e-04 3.938597e-04
<VARIANCE> 39
 5.483543e+01 6.776463e+01 7.797680e+01 9.985931e+01 8.119214e+01 6.232211e+01 8.438729e+01 6.445840e+01 7.160141e+01 5.538554e+01 6.075543e+01 4.208915e+01 1.953069e+02 2.631704e+00 3.085724e+00 3.101612e+00 4.672972e+00 3.950680e+00 3.618678e+00 4.375962e+00 3.935581e+00 3.800573e+00 3.519429e+00 3.285434e+00 2.726914e+00 3.022288e+00 4.180704e-01 4.548345e-01 4.749576e-01 7.154720e-01 6.625421e-01 6.462558e-01 7.639505e-01 7.261668e-01 6.826125e-01 6.562239e-01 5.926718e-01 5.120473e-01 4.388200e-01
<GCONST> 1.365655e+02
<STATE> 4
<MEAN> 39
 -8.541321e+00 -8.000110e+00 -1.329445e-01 -7.826166e+00 -5.029053e+00 -1.689677e+00 -4.933764e+00 -4.046610e-01 -2.261182e+00 -4.847213e-01 -2.237925e+00 8.850434e-01 6.301070e+01 -1.352675e-03 1.870498e-03 -2.764141e-04 -6.976602e-04 -3.420527e-04 1.393128e-03 -6.322996e-05 -3.842450e-04 -1.645737e-03 1.862613e-03 -1.562339e-03 1.027830e-04 -2.615176e-04 -4.197140e-04 1.373720e-04 -1.041117e-05 -5.785859e-05 -3.536579e-05 2.214038e-04 -8.991463e-05 1.683200e-04 -3.659200e-04 1.688902e-04 -4.141758e-04 1.429574e-04 3.938597e-04
<VARIANCE> 39
 5.483543e+01 6.776463e+01 7.797680e+01 9.985931e+01 8.119214e+01 6.232211e+01 8.438729e+01 6.445840e+01 7.160141e+01 5.538554e+01 6.075543e+01 4.208915e+01 1.953069e+02 2.631704e+00 3.085724e+00 3.101612e+00 4.672972e+00 3.950680e+00 3.618678e+00 4.375962e+00 3.935581e+00 3.800573e+00 3.519429e+00 3.285434e+00 2.726914e+00 3.022288e+00 4.180704e-01 4.548345e-01 4.749576e-01 7.154720e-01 6.625421e-01 6.462558e-01 7.639505e-01 7.261668e-01 6.826125e-01 6.562239e-01 5.926718e-01 5.120473e-01 4.388200e-01
<GCONST> 1.365655e+02
<TRANSP> 5
 0.000000e+00 1.000000e+00 0.000000e+00 0.000000e+00 0.000000e+00
 0.000000e+00 6.000000e-01 4.000000e-01 0.000000e+00 0.000000e+00
 0.000000e+00 0.000000e+00 6.000000e-01 4.000000e-01 0.000000e+00
 0.000000e+00 0.000000e+00 0.000000e+00 7.000000e-01 3.000000e-01
 0.000000e+00 0.000000e+00 0.000000e+00 0.000000e+00 0.000000e+00
<ENDHMM>
~h "uo"
<BEGINHMM>
<NUMSTATES> 5
<STATE> 2
<MEAN> 39
 -8.541321e+00 -8.000110e+00 -1.329445e-01 -7.826166e+00 -5.029053e+00 -1.689677e+00 -4.933764e+00 -4.046610e-01 -2.261182e+00 -4.847213e-01 -2.237925e+00 8.850434e-01 6.301070e+01 -1.352675e-03 1.870498e-03 -2.764141e-04 -6.976602e-04 -3.420527e-04 1.393128e-03 -6.322996e-05 -3.842450e-04 -1.645737e-03 1.862613e-03 -1.562339e-03 1.027830e-04 -2.615176e-04 -4.197140e-04 1.373720e-04 -1.041117e-05 -5.785859e-05 -3.536579e-05 2.214038e-04 -8.991463e-05 1.683200e-04 -3.659200e-04 1.688902e-04 -4.141758e-04 1.429574e-04 3.938597e-04
<VARIANCE> 39
 5.483543e+01 6.776463e+01 7.797680e+01 9.985931e+01 8.119214e+01 6.232211e+01 8.438729e+01 6.445840e+01 7.160141e+01 5.538554e+01 6.075543e+01 4.208915e+01 1.953069e+02 2.631704e+00 3.085724e+00 3.101612e+00 4.672972e+00 3.950680e+00 3.618678e+00 4.375962e+00 3.935581e+00 3.800573e+00 3.519429e+00 3.285434e+00 2.726914e+00 3.022288e+00 4.180704e-01 4.548345e-01 4.749576e-01 7.154720e-01 6.625421e-01 6.462558e-01 7.639505e-01 7.261668e-01 6.826125e-01 6.562239e-01 5.926718e-01 5.120473e-01 4.388200e-01
<GCONST> 1.365655e+02
<STATE> 3
<MEAN> 39
 -8.541321e+00 -8.000110e+00 -1.329445e-01 -7.826166e+00 -5.029053e+00 -1.689677e+00 -4.933764e+00 -4.046610e-01 -2.261182e+00 -4.847213e-01 -2.237925e+00 8.850434e-01 6.301070e+01 -1.352675e-03 1.870498e-03 -2.764141e-04 -6.976602e-04 -3.420527e-04 1.393128e-03 -6.322996e-05 -3.842450e-04 -1.645737e-03 1.862613e-03 -1.562339e-03 1.027830e-04 -2.615176e-04 -4.197140e-04 1.373720e-04 -1.041117e-05 -5.785859e-05 -3.536579e-05 2.214038e-04 -8.991463e-05 1.683200e-04 -3.659200e-04 1.688902e-04 -4.141758e-04 1.429574e-04 3.938597e-04
<VARIANCE> 39
 5.483543e+01 6.776463e+01 7.797680e+01 9.985931e+01 8.119214e+01 6.232211e+01 8.438729e+01 6.445840e+01 7.160141e+01 5.538554e+01 6.075543e+01 4.208915e+01 1.953069e+02 2.631704e+00 3.085724e+00 3.101612e+00 4.672972e+00 3.950680e+00 3.618678e+00 4.375962e+00 3.935581e+00 3.800573e+00 3.519429e+00 3.285434e+00 2.726914e+00 3.022288e+00 4.180704e-01 4.548345e-01 4.749576e-01 7.154720e-01 6.625421e-01 6.462558e-01 7.639505e-01 7.261668e-01 6.826125e-01 6.562239e-01 5.926718e-01 5.120473e-01 4.388200e-01
<GCONST> 1.365655e+02
<STATE> 4
<MEAN> 39
 -8.541321e+00 -8.000110e+00 -1.329445e-01 -7.826166e+00 -5.029053e+00 -1.689677e+00 -4.933764e+00 -4.046610e-01 -2.261182e+00 -4.847213e-01 -2.237925e+00 8.850434e-01 6.301070e+01 -1.352675e-03 1.870498e-03 -2.764141e-04 -6.976602e-04 -3.420527e-04 1.393128e-03 -6.322996e-05 -3.842450e-04 -1.645737e-03 1.862613e-03 -1.562339e-03 1.027830e-04 -2.615176e-04 -4.197140e-04 1.373720e-04 -1.041117e-05 -5.785859e-05 -3.536579e-05 2.214038e-04 -8.991463e-05 1.683200e-04 -3.659200e-04 1.688902e-04 -4.141758e-04 1.429574e-04 3.938597e-04
<VARIANCE> 39
 5.483543e+01 6.776463e+01 7.797680e+01 9.985931e+01 8.119214e+01 6.232211e+01 8.438729e+01 6.445840e+01 7.160141e+01 5.538554e+01 6.075543e+01 4.208915e+01 1.953069e+02 2.631704e+00 3.085724e+00 3.101612e+00 4.672972e+00 3.950680e+00 3.618678e+00 4.375962e+00 3.935581e+00 3.800573e+00 3.519429e+00 3.285434e+00 2.726914e+00 3.022288e+00 4.180704e-01 4.548345e-01 4.749576e-01 7.154720e-01 6.625421e-01 6.462558e-01 7.639505e-01 7.261668e-01 6.826125e-01 6.562239e-01 5.926718e-01 5.120473e-01 4.388200e-01
<GCONST> 1.365655e+02
<TRANSP> 5
 0.000000e+00 1.000000e+00 0.000000e+00 0.000000e+00 0.000000e+00
 0.000000e+00 6.000000e-01 4.000000e-01 0.000000e+00 0.000000e+00
 0.000000e+00 0.000000e+00 6.000000e-01 4.000000e-01 0.000000e+00
 0.000000e+00 0.000000e+00 0.000000e+00 7.000000e-01 3.000000e-01
 0.000000e+00 0.000000e+00 0.000000e+00 0.000000e+00 0.000000e+00
<ENDHMM>
~h "x"
<BEGINHMM>
<NUMSTATES> 5
<STATE> 2
<MEAN> 39
 -8.541321e+00 -8.000110e+00 -1.329445e-01 -7.826166e+00 -5.029053e+00 -1.689677e+00 -4.933764e+00 -4.046610e-01 -2.261182e+00 -4.847213e-01 -2.237925e+00 8.850434e-01 6.301070e+01 -1.352675e-03 1.870498e-03 -2.764141e-04 -6.976602e-04 -3.420527e-04 1.393128e-03 -6.322996e-05 -3.842450e-04 -1.645737e-03 1.862613e-03 -1.562339e-03 1.027830e-04 -2.615176e-04 -4.197140e-04 1.373720e-04 -1.041117e-05 -5.785859e-05 -3.536579e-05 2.214038e-04 -8.991463e-05 1.683200e-04 -3.659200e-04 1.688902e-04 -4.141758e-04 1.429574e-04 3.938597e-04
<VARIANCE> 39
 5.483543e+01 6.776463e+01 7.797680e+01 9.985931e+01 8.119214e+01 6.232211e+01 8.438729e+01 6.445840e+01 7.160141e+01 5.538554e+01 6.075543e+01 4.208915e+01 1.953069e+02 2.631704e+00 3.085724e+00 3.101612e+00 4.672972e+00 3.950680e+00 3.618678e+00 4.375962e+00 3.935581e+00 3.800573e+00 3.519429e+00 3.285434e+00 2.726914e+00 3.022288e+00 4.180704e-01 4.548345e-01 4.749576e-01 7.154720e-01 6.625421e-01 6.462558e-01 7.639505e-01 7.261668e-01 6.826125e-01 6.562239e-01 5.926718e-01 5.120473e-01 4.388200e-01
<GCONST> 1.365655e+02
<STATE> 3
<MEAN> 39
 -8.541321e+00 -8.000110e+00 -1.329445e-01 -7.826166e+00 -5.029053e+00 -1.689677e+00 -4.933764e+00 -4.046610e-01 -2.261182e+00 -4.847213e-01 -2.237925e+00 8.850434e-01 6.301070e+01 -1.352675e-03 1.870498e-03 -2.764141e-04 -6.976602e-04 -3.420527e-04 1.393128e-03 -6.322996e-05 -3.842450e-04 -1.645737e-03 1.862613e-03 -1.562339e-03 1.027830e-04 -2.615176e-04 -4.197140e-04 1.373720e-04 -1.041117e-05 -5.785859e-05 -3.536579e-05 2.214038e-04 -8.991463e-05 1.683200e-04 -3.659200e-04 1.688902e-04 -4.141758e-04 1.429574e-04 3.938597e-04
<VARIANCE> 39
 5.483543e+01 6.776463e+01 7.797680e+01 9.985931e+01 8.119214e+01 6.232211e+01 8.438729e+01 6.445840e+01 7.160141e+01 5.538554e+01 6.075543e+01 4.208915e+01 1.953069e+02 2.631704e+00 3.085724e+00 3.101612e+00 4.672972e+00 3.950680e+00 3.618678e+00 4.375962e+00 3.935581e+00 3.800573e+00 3.519429e+00 3.285434e+00 2.726914e+00 3.022288e+00 4.180704e-01 4.548345e-01 4.749576e-01 7.154720e-01 6.625421e-01 6.462558e-01 7.639505e-01 7.261668e-01 6.826125e-01 6.562239e-01 5.926718e-01 5.120473e-01 4.388200e-01
<GCONST> 1.365655e+02
<STATE> 4
<MEAN> 39
 -8.541321e+00 -8.000110e+00 -1.329445e-01 -7.826166e+00 -5.029053e+00 -1.689677e+00 -4.933764e+00 -4.046610e-01 -2.261182e+00 -4.847213e-01 -2.237925e+00 8.850434e-01 6.301070e+01 -1.352675e-03 1.870498e-03 -2.764141e-04 -6.976602e-04 -3.420527e-04 1.393128e-03 -6.322996e-05 -3.842450e-04 -1.645737e-03 1.862613e-03 -1.562339e-03 1.027830e-04 -2.615176e-04 -4.197140e-04 1.373720e-04 -1.041117e-05 -5.785859e-05 -3.536579e-05 2.214038e-04 -8.991463e-05 1.683200e-04 -3.659200e-04 1.688902e-04 -4.141758e-04 1.429574e-04 3.938597e-04
<VARIANCE> 39
 5.483543e+01 6.776463e+01 7.797680e+01 9.985931e+01 8.119214e+01 6.232211e+01 8.438729e+01 6.445840e+01 7.160141e+01 5.538554e+01 6.075543e+01 4.208915e+01 1.953069e+02 2.631704e+00 3.085724e+00 3.101612e+00 4.672972e+00 3.950680e+00 3.618678e+00 4.375962e+00 3.935581e+00 3.800573e+00 3.519429e+00 3.285434e+00 2.726914e+00 3.022288e+00 4.180704e-01 4.548345e-01 4.749576e-01 7.154720e-01 6.625421e-01 6.462558e-01 7.639505e-01 7.261668e-01 6.826125e-01 6.562239e-01 5.926718e-01 5.120473e-01 4.388200e-01
<GCONST> 1.365655e+02
<TRANSP> 5
 0.000000e+00 1.000000e+00 0.000000e+00 0.000000e+00 0.000000e+00
 0.000000e+00 6.000000e-01 4.000000e-01 0.000000e+00 0.000000e+00
 0.000000e+00 0.000000e+00 6.000000e-01 4.000000e-01 0.000000e+00
 0.000000e+00 0.000000e+00 0.000000e+00 7.000000e-01 3.000000e-01
 0.000000e+00 0.000000e+00 0.000000e+00 0.000000e+00 0.000000e+00
<ENDHMM>
~h "ia"
<BEGINHMM>
<NUMSTATES> 5
<STATE> 2
<MEAN> 39
 -8.541321e+00 -8.000110e+00 -1.329445e-01 -7.826166e+00 -5.029053e+00 -1.689677e+00 -4.933764e+00 -4.046610e-01 -2.261182e+00 -4.847213e-01 -2.237925e+00 8.850434e-01 6.301070e+01 -1.352675e-03 1.870498e-03 -2.764141e-04 -6.976602e-04 -3.420527e-04 1.393128e-03 -6.322996e-05 -3.842450e-04 -1.645737e-03 1.862613e-03 -1.562339e-03 1.027830e-04 -2.615176e-04 -4.197140e-04 1.373720e-04 -1.041117e-05 -5.785859e-05 -3.536579e-05 2.214038e-04 -8.991463e-05 1.683200e-04 -3.659200e-04 1.688902e-04 -4.141758e-04 1.429574e-04 3.938597e-04
<VARIANCE> 39
 5.483543e+01 6.776463e+01 7.797680e+01 9.985931e+01 8.119214e+01 6.232211e+01 8.438729e+01 6.445840e+01 7.160141e+01 5.538554e+01 6.075543e+01 4.208915e+01 1.953069e+02 2.631704e+00 3.085724e+00 3.101612e+00 4.672972e+00 3.950680e+00 3.618678e+00 4.375962e+00 3.935581e+00 3.800573e+00 3.519429e+00 3.285434e+00 2.726914e+00 3.022288e+00 4.180704e-01 4.548345e-01 4.749576e-01 7.154720e-01 6.625421e-01 6.462558e-01 7.639505e-01 7.261668e-01 6.826125e-01 6.562239e-01 5.926718e-01 5.120473e-01 4.388200e-01
<GCONST> 1.365655e+02
<STATE> 3
<MEAN> 39
 -8.541321e+00 -8.000110e+00 -1.329445e-01 -7.826166e+00 -5.029053e+00 -1.689677e+00 -4.933764e+00 -4.046610e-01 -2.261182e+00 -4.847213e-01 -2.237925e+00 8.850434e-01 6.301070e+01 -1.352675e-03 1.870498e-03 -2.764141e-04 -6.976602e-04 -3.420527e-04 1.393128e-03 -6.322996e-05 -3.842450e-04 -1.645737e-03 1.862613e-03 -1.562339e-03 1.027830e-04 -2.615176e-04 -4.197140e-04 1.373720e-04 -1.041117e-05 -5.785859e-05 -3.536579e-05 2.214038e-04 -8.991463e-05 1.683200e-04 -3.659200e-04 1.688902e-04 -4.141758e-04 1.429574e-04 3.938597e-04
<VARIANCE> 39
 5.483543e+01 6.776463e+01 7.797680e+01 9.985931e+01 8.119214e+01 6.232211e+01 8.438729e+01 6.445840e+01 7.160141e+01 5.538554e+01 6.075543e+01 4.208915e+01 1.953069e+02 2.631704e+00 3.085724e+00 3.101612e+00 4.672972e+00 3.950680e+00 3.618678e+00 4.375962e+00 3.935581e+00 3.800573e+00 3.519429e+00 3.285434e+00 2.726914e+00 3.022288e+00 4.180704e-01 4.548345e-01 4.749576e-01 7.154720e-01 6.625421e-01 6.462558e-01 7.639505e-01 7.261668e-01 6.826125e-01 6.562239e-01 5.926718e-01 5.120473e-01 4.388200e-01
<GCONST> 1.365655e+02
<STATE> 4
<MEAN> 39
 -8.541321e+00 -8.000110e+00 -1.329445e-01 -7.826166e+00 -5.029053e+00 -1.689677e+00 -4.933764e+00 -4.046610e-01 -2.261182e+00 -4.847213e-01 -2.237925e+00 8.850434e-01 6.301070e+01 -1.352675e-03 1.870498e-03 -2.764141e-04 -6.976602e-04 -3.420527e-04 1.393128e-03 -6.322996e-05 -3.842450e-04 -1.645737e-03 1.862613e-03 -1.562339e-03 1.027830e-04 -2.615176e-04 -4.197140e-04 1.373720e-04 -1.041117e-05 -5.785859e-05 -3.536579e-05 2.214038e-04 -8.991463e-05 1.683200e-04 -3.659200e-04 1.688902e-04 -4.141758e-04 1.429574e-04 3.938597e-04
<VARIANCE> 39
 5.483543e+01 6.776463e+01 7.797680e+01 9.985931e+01 8.119214e+01 6.232211e+01 8.438729e+01 6.445840e+01 7.160141e+01 5.538554e+01 6.075543e+01 4.208915e+01 1.953069e+02 2.631704e+00 3.085724e+00 3.101612e+00 4.672972e+00 3.950680e+00 3.618678e+00 4.375962e+00 3.935581e+00 3.800573e+00 3.519429e+00 3.285434e+00 2.726914e+00 3.022288e+00 4.180704e-01 4.548345e-01 4.749576e-01 7.154720e-01 6.625421e-01 6.462558e-01 7.639505e-01 7.261668e-01 6.826125e-01 6.562239e-01 5.926718e-01 5.120473e-01 4.388200e-01
<GCONST> 1.365655e+02
<TRANSP> 5
 0.000000e+00 1.000000e+00 0.000000e+00 0.000000e+00 0.000000e+00
 0.000000e+00 6.000000e-01 4.000000e-01 0.000000e+00 0.000000e+00
 0.000000e+00 0.000000e+00 6.000000e-01 4.000000e-01 0.000000e+00
 0.000000e+00 0.000000e+00 0.000000e+00 7.000000e-01 3.000000e-01
 0.000000e+00 0.000000e+00 0.000000e+00 0.000000e+00 0.000000e+00
<ENDHMM>
~h "z"
<BEGINHMM>
<NUMSTATES> 5
<STATE> 2
<MEAN> 39
 -8.541321e+00 -8.000110e+00 -1.329445e-01 -7.826166e+00 -5.029053e+00 -1.689677e+00 -4.933764e+00 -4.046610e-01 -2.261182e+00 -4.847213e-01 -2.237925e+00 8.850434e-01 6.301070e+01 -1.352675e-03 1.870498e-03 -2.764141e-04 -6.976602e-04 -3.420527e-04 1.393128e-03 -6.322996e-05 -3.842450e-04 -1.645737e-03 1.862613e-03 -1.562339e-03 1.027830e-04 -2.615176e-04 -4.197140e-04 1.373720e-04 -1.041117e-05 -5.785859e-05 -3.536579e-05 2.214038e-04 -8.991463e-05 1.683200e-04 -3.659200e-04 1.688902e-04 -4.141758e-04 1.429574e-04 3.938597e-04
<VARIANCE> 39
 5.483543e+01 6.776463e+01 7.797680e+01 9.985931e+01 8.119214e+01 6.232211e+01 8.438729e+01 6.445840e+01 7.160141e+01 5.538554e+01 6.075543e+01 4.208915e+01 1.953069e+02 2.631704e+00 3.085724e+00 3.101612e+00 4.672972e+00 3.950680e+00 3.618678e+00 4.375962e+00 3.935581e+00 3.800573e+00 3.519429e+00 3.285434e+00 2.726914e+00 3.022288e+00 4.180704e-01 4.548345e-01 4.749576e-01 7.154720e-01 6.625421e-01 6.462558e-01 7.639505e-01 7.261668e-01 6.826125e-01 6.562239e-01 5.926718e-01 5.120473e-01 4.388200e-01
<GCONST> 1.365655e+02
<STATE> 3
<MEAN> 39
 -8.541321e+00 -8.000110e+00 -1.329445e-01 -7.826166e+00 -5.029053e+00 -1.689677e+00 -4.933764e+00 -4.046610e-01 -2.261182e+00 -4.847213e-01 -2.237925e+00 8.850434e-01 6.301070e+01 -1.352675e-03 1.870498e-03 -2.764141e-04 -6.976602e-04 -3.420527e-04 1.393128e-03 -6.322996e-05 -3.842450e-04 -1.645737e-03 1.862613e-03 -1.562339e-03 1.027830e-04 -2.615176e-04 -4.197140e-04 1.373720e-04 -1.041117e-05 -5.785859e-05 -3.536579e-05 2.214038e-04 -8.991463e-05 1.683200e-04 -3.659200e-04 1.688902e-04 -4.141758e-04 1.429574e-04 3.938597e-04
<VARIANCE> 39
 5.483543e+01 6.776463e+01 7.797680e+01 9.985931e+01 8.119214e+01 6.232211e+01 8.438729e+01 6.445840e+01 7.160141e+01 5.538554e+01 6.075543e+01 4.208915e+01 1.953069e+02 2.631704e+00 3.085724e+00 3.101612e+00 4.672972e+00 3.950680e+00 3.618678e+00 4.375962e+00 3.935581e+00 3.800573e+00 3.519429e+00 3.285434e+00 2.726914e+00 3.022288e+00 4.180704e-01 4.548345e-01 4.749576e-01 7.154720e-01 6.625421e-01 6.462558e-01 7.639505e-01 7.261668e-01 6.826125e-01 6.562239e-01 5.926718e-01 5.120473e-01 4.388200e-01
<GCONST> 1.365655e+02
<STATE> 4
<MEAN> 39
 -8.541321e+00 -8.000110e+00 -1.329445e-01 -7.826166e+00 -5.029053e+00 -1.689677e+00 -4.933764e+00 -4.046610e-01 -2.261182e+00 -4.847213e-01 -2.237925e+00 8.850434e-01 6.301070e+01 -1.352675e-03 1.870498e-03 -2.764141e-04 -6.976602e-04 -3.420527e-04 1.393128e-03 -6.322996e-05 -3.842450e-04 -1.645737e-03 1.862613e-03 -1.562339e-03 1.027830e-04 -2.615176e-04 -4.197140e-04 1.373720e-04 -1.041117e-05 -5.785859e-05 -3.536579e-05 2.214038e-04 -8.991463e-05 1.683200e-04 -3.659200e-04 1.688902e-04 -4.141758e-04 1.429574e-04 3.938597e-04
<VARIANCE> 39
 5.483543e+01 6.776463e+01 7.797680e+01 9.985931e+01 8.119214e+01 6.232211e+01 8.438729e+01 6.445840e+01 7.160141e+01 5.538554e+01 6.075543e+01 4.208915e+01 1.953069e+02 2.631704e+00 3.085724e+00 3.101612e+00 4.672972e+00 3.950680e+00 3.618678e+00 4.375962e+00 3.935581e+00 3.800573e+00 3.519429e+00 3.285434e+00 2.726914e+00 3.022288e+00 4.180704e-01 4.548345e-01 4.749576e-01 7.154720e-01 6.625421e-01 6.462558e-01 7.639505e-01 7.261668e-01 6.826125e-01 6.562239e-01 5.926718e-01 5.120473e-01 4.388200e-01
<GCONST> 1.365655e+02
<TRANSP> 5
 0.000000e+00 1.000000e+00 0.000000e+00 0.000000e+00 0.000000e+00
 0.000000e+00 6.000000e-01 4.000000e-01 0.000000e+00 0.000000e+00
 0.000000e+00 0.000000e+00 6.000000e-01 4.000000e-01 0.000000e+00
 0.000000e+00 0.000000e+00 0.000000e+00 7.000000e-01 3.000000e-01
 0.000000e+00 0.000000e+00 0.000000e+00 0.000000e+00 0.000000e+00
<ENDHMM>
~h "iy"
<BEGINHMM>
<NUMSTATES> 5
<STATE> 2
<MEAN> 39
 -8.541321e+00 -8.000110e+00 -1.329445e-01 -7.826166e+00 -5.029053e+00 -1.689677e+00 -4.933764e+00 -4.046610e-01 -2.261182e+00 -4.847213e-01 -2.237925e+00 8.850434e-01 6.301070e+01 -1.352675e-03 1.870498e-03 -2.764141e-04 -6.976602e-04 -3.420527e-04 1.393128e-03 -6.322996e-05 -3.842450e-04 -1.645737e-03 1.862613e-03 -1.562339e-03 1.027830e-04 -2.615176e-04 -4.197140e-04 1.373720e-04 -1.041117e-05 -5.785859e-05 -3.536579e-05 2.214038e-04 -8.991463e-05 1.683200e-04 -3.659200e-04 1.688902e-04 -4.141758e-04 1.429574e-04 3.938597e-04
<VARIANCE> 39
 5.483543e+01 6.776463e+01 7.797680e+01 9.985931e+01 8.119214e+01 6.232211e+01 8.438729e+01 6.445840e+01 7.160141e+01 5.538554e+01 6.075543e+01 4.208915e+01 1.953069e+02 2.631704e+00 3.085724e+00 3.101612e+00 4.672972e+00 3.950680e+00 3.618678e+00 4.375962e+00 3.935581e+00 3.800573e+00 3.519429e+00 3.285434e+00 2.726914e+00 3.022288e+00 4.180704e-01 4.548345e-01 4.749576e-01 7.154720e-01 6.625421e-01 6.462558e-01 7.639505e-01 7.261668e-01 6.826125e-01 6.562239e-01 5.926718e-01 5.120473e-01 4.388200e-01
<GCONST> 1.365655e+02
<STATE> 3
<MEAN> 39
 -8.541321e+00 -8.000110e+00 -1.329445e-01 -7.826166e+00 -5.029053e+00 -1.689677e+00 -4.933764e+00 -4.046610e-01 -2.261182e+00 -4.847213e-01 -2.237925e+00 8.850434e-01 6.301070e+01 -1.352675e-03 1.870498e-03 -2.764141e-04 -6.976602e-04 -3.420527e-04 1.393128e-03 -6.322996e-05 -3.842450e-04 -1.645737e-03 1.862613e-03 -1.562339e-03 1.027830e-04 -2.615176e-04 -4.197140e-04 1.373720e-04 -1.041117e-05 -5.785859e-05 -3.536579e-05 2.214038e-04 -8.991463e-05 1.683200e-04 -3.659200e-04 1.688902e-04 -4.141758e-04 1.429574e-04 3.938597e-04
<VARIANCE> 39
 5.483543e+01 6.776463e+01 7.797680e+01 9.985931e+01 8.119214e+01 6.232211e+01 8.438729e+01 6.445840e+01 7.160141e+01 5.538554e+01 6.075543e+01 4.208915e+01 1.953069e+02 2.631704e+00 3.085724e+00 3.101612e+00 4.672972e+00 3.950680e+00 3.618678e+00 4.375962e+00 3.935581e+00 3.800573e+00 3.519429e+00 3.285434e+00 2.726914e+00 3.022288e+00 4.180704e-01 4.548345e-01 4.749576e-01 7.154720e-01 6.625421e-01 6.462558e-01 7.639505e-01 7.261668e-01 6.826125e-01 6.562239e-01 5.926718e-01 5.120473e-01 4.388200e-01
<GCONST> 1.365655e+02
<STATE> 4
<MEAN> 39
 -8.541321e+00 -8.000110e+00 -1.329445e-01 -7.826166e+00 -5.029053e+00 -1.689677e+00 -4.933764e+00 -4.046610e-01 -2.261182e+00 -4.847213e-01 -2.237925e+00 8.850434e-01 6.301070e+01 -1.352675e-03 1.870498e-03 -2.764141e-04 -6.976602e-04 -3.420527e-04 1.393128e-03 -6.322996e-05 -3.842450e-04 -1.645737e-03 1.862613e-03 -1.562339e-03 1.027830e-04 -2.615176e-04 -4.197140e-04 1.373720e-04 -1.041117e-05 -5.785859e-05 -3.536579e-05 2.214038e-04 -8.991463e-05 1.683200e-04 -3.659200e-04 1.688902e-04 -4.141758e-04 1.429574e-04 3.938597e-04
<VARIANCE> 39
 5.483543e+01 6.776463e+01 7.797680e+01 9.985931e+01 8.119214e+01 6.232211e+01 8.438729e+01 6.445840e+01 7.160141e+01 5.538554e+01 6.075543e+01 4.208915e+01 1.953069e+02 2.631704e+00 3.085724e+00 3.101612e+00 4.672972e+00 3.950680e+00 3.618678e+00 4.375962e+00 3.935581e+00 3.800573e+00 3.519429e+00 3.285434e+00 2.726914e+00 3.022288e+00 4.180704e-01 4.548345e-01 4.749576e-01 7.154720e-01 6.625421e-01 6.462558e-01 7.639505e-01 7.261668e-01 6.826125e-01 6.562239e-01 5.926718e-01 5.120473e-01 4.388200e-01
<GCONST> 1.365655e+02
<TRANSP> 5
 0.000000e+00 1.000000e+00 0.000000e+00 0.000000e+00 0.000000e+00
 0.000000e+00 6.000000e-01 4.000000e-01 0.000000e+00 0.000000e+00
 0.000000e+00 0.000000e+00 6.000000e-01 4.000000e-01 0.000000e+00
 0.000000e+00 0.000000e+00 0.000000e+00 7.000000e-01 3.000000e-01
 0.000000e+00 0.000000e+00 0.000000e+00 0.000000e+00 0.000000e+00
<ENDHMM>
~h "l"
<BEGINHMM>
<NUMSTATES> 5
<STATE> 2
<MEAN> 39
 -8.541321e+00 -8.000110e+00 -1.329445e-01 -7.826166e+00 -5.029053e+00 -1.689677e+00 -4.933764e+00 -4.046610e-01 -2.261182e+00 -4.847213e-01 -2.237925e+00 8.850434e-01 6.301070e+01 -1.352675e-03 1.870498e-03 -2.764141e-04 -6.976602e-04 -3.420527e-04 1.393128e-03 -6.322996e-05 -3.842450e-04 -1.645737e-03 1.862613e-03 -1.562339e-03 1.027830e-04 -2.615176e-04 -4.197140e-04 1.373720e-04 -1.041117e-05 -5.785859e-05 -3.536579e-05 2.214038e-04 -8.991463e-05 1.683200e-04 -3.659200e-04 1.688902e-04 -4.141758e-04 1.429574e-04 3.938597e-04
<VARIANCE> 39
 5.483543e+01 6.776463e+01 7.797680e+01 9.985931e+01 8.119214e+01 6.232211e+01 8.438729e+01 6.445840e+01 7.160141e+01 5.538554e+01 6.075543e+01 4.208915e+01 1.953069e+02 2.631704e+00 3.085724e+00 3.101612e+00 4.672972e+00 3.950680e+00 3.618678e+00 4.375962e+00 3.935581e+00 3.800573e+00 3.519429e+00 3.285434e+00 2.726914e+00 3.022288e+00 4.180704e-01 4.548345e-01 4.749576e-01 7.154720e-01 6.625421e-01 6.462558e-01 7.639505e-01 7.261668e-01 6.826125e-01 6.562239e-01 5.926718e-01 5.120473e-01 4.388200e-01
<GCONST> 1.365655e+02
<STATE> 3
<MEAN> 39
 -8.541321e+00 -8.000110e+00 -1.329445e-01 -7.826166e+00 -5.029053e+00 -1.689677e+00 -4.933764e+00 -4.046610e-01 -2.261182e+00 -4.847213e-01 -2.237925e+00 8.850434e-01 6.301070e+01 -1.352675e-03 1.870498e-03 -2.764141e-04 -6.976602e-04 -3.420527e-04 1.393128e-03 -6.322996e-05 -3.842450e-04 -1.645737e-03 1.862613e-03 -1.562339e-03 1.027830e-04 -2.615176e-04 -4.197140e-04 1.373720e-04 -1.041117e-05 -5.785859e-05 -3.536579e-05 2.214038e-04 -8.991463e-05 1.683200e-04 -3.659200e-04 1.688902e-04 -4.141758e-04 1.429574e-04 3.938597e-04
<VARIANCE> 39
 5.483543e+01 6.776463e+01 7.797680e+01 9.985931e+01 8.119214e+01 6.232211e+01 8.438729e+01 6.445840e+01 7.160141e+01 5.538554e+01 6.075543e+01 4.208915e+01 1.953069e+02 2.631704e+00 3.085724e+00 3.101612e+00 4.672972e+00 3.950680e+00 3.618678e+00 4.375962e+00 3.935581e+00 3.800573e+00 3.519429e+00 3.285434e+00 2.726914e+00 3.022288e+00 4.180704e-01 4.548345e-01 4.749576e-01 7.154720e-01 6.625421e-01 6.462558e-01 7.639505e-01 7.261668e-01 6.826125e-01 6.562239e-01 5.926718e-01 5.120473e-01 4.388200e-01
<GCONST> 1.365655e+02
<STATE> 4
<MEAN> 39
 -8.541321e+00 -8.000110e+00 -1.329445e-01 -7.826166e+00 -5.029053e+00 -1.689677e+00 -4.933764e+00 -4.046610e-01 -2.261182e+00 -4.847213e-01 -2.237925e+00 8.850434e-01 6.301070e+01 -1.352675e-03 1.870498e-03 -2.764141e-04 -6.976602e-04 -3.420527e-04 1.393128e-03 -6.322996e-05 -3.842450e-04 -1.645737e-03 1.862613e-03 -1.562339e-03 1.027830e-04 -2.615176e-04 -4.197140e-04 1.373720e-04 -1.041117e-05 -5.785859e-05 -3.536579e-05 2.214038e-04 -8.991463e-05 1.683200e-04 -3.659200e-04 1.688902e-04 -4.141758e-04 1.429574e-04 3.938597e-04
<VARIANCE> 39
 5.483543e+01 6.776463e+01 7.797680e+01 9.985931e+01 8.119214e+01 6.232211e+01 8.438729e+01 6.445840e+01 7.160141e+01 5.538554e+01 6.075543e+01 4.208915e+01 1.953069e+02 2.631704e+00 3.085724e+00 3.101612e+00 4.672972e+00 3.950680e+00 3.618678e+00 4.375962e+00 3.935581e+00 3.800573e+00 3.519429e+00 3.285434e+00 2.726914e+00 3.022288e+00 4.180704e-01 4.548345e-01 4.749576e-01 7.154720e-01 6.625421e-01 6.462558e-01 7.639505e-01 7.261668e-01 6.826125e-01 6.562239e-01 5.926718e-01 5.120473e-01 4.388200e-01
<GCONST> 1.365655e+02
<TRANSP> 5
 0.000000e+00 1.000000e+00 0.000000e+00 0.000000e+00 0.000000e+00
 0.000000e+00 6.000000e-01 4.000000e-01 0.000000e+00 0.000000e+00
 0.000000e+00 0.000000e+00 6.000000e-01 4.000000e-01 0.000000e+00
 0.000000e+00 0.000000e+00 0.000000e+00 7.000000e-01 3.000000e-01
 0.000000e+00 0.000000e+00 0.000000e+00 0.000000e+00 0.000000e+00
<ENDHMM>
~h "iang"
<BEGINHMM>
<NUMSTATES> 5
<STATE> 2
<MEAN> 39
 -8.541321e+00 -8.000110e+00 -1.329445e-01 -7.826166e+00 -5.029053e+00 -1.689677e+00 -4.933764e+00 -4.046610e-01 -2.261182e+00 -4.847213e-01 -2.237925e+00 8.850434e-01 6.301070e+01 -1.352675e-03 1.870498e-03 -2.764141e-04 -6.976602e-04 -3.420527e-04 1.393128e-03 -6.322996e-05 -3.842450e-04 -1.645737e-03 1.862613e-03 -1.562339e-03 1.027830e-04 -2.615176e-04 -4.197140e-04 1.373720e-04 -1.041117e-05 -5.785859e-05 -3.536579e-05 2.214038e-04 -8.991463e-05 1.683200e-04 -3.659200e-04 1.688902e-04 -4.141758e-04 1.429574e-04 3.938597e-04
<VARIANCE> 39
 5.483543e+01 6.776463e+01 7.797680e+01 9.985931e+01 8.119214e+01 6.232211e+01 8.438729e+01 6.445840e+01 7.160141e+01 5.538554e+01 6.075543e+01 4.208915e+01 1.953069e+02 2.631704e+00 3.085724e+00 3.101612e+00 4.672972e+00 3.950680e+00 3.618678e+00 4.375962e+00 3.935581e+00 3.800573e+00 3.519429e+00 3.285434e+00 2.726914e+00 3.022288e+00 4.180704e-01 4.548345e-01 4.749576e-01 7.154720e-01 6.625421e-01 6.462558e-01 7.639505e-01 7.261668e-01 6.826125e-01 6.562239e-01 5.926718e-01 5.120473e-01 4.388200e-01
<GCONST> 1.365655e+02
<STATE> 3
<MEAN> 39
 -8.541321e+00 -8.000110e+00 -1.329445e-01 -7.826166e+00 -5.029053e+00 -1.689677e+00 -4.933764e+00 -4.046610e-01 -2.261182e+00 -4.847213e-01 -2.237925e+00 8.850434e-01 6.301070e+01 -1.352675e-03 1.870498e-03 -2.764141e-04 -6.976602e-04 -3.420527e-04 1.393128e-03 -6.322996e-05 -3.842450e-04 -1.645737e-03 1.862613e-03 -1.562339e-03 1.027830e-04 -2.615176e-04 -4.197140e-04 1.373720e-04 -1.041117e-05 -5.785859e-05 -3.536579e-05 2.214038e-04 -8.991463e-05 1.683200e-04 -3.659200e-04 1.688902e-04 -4.141758e-04 1.429574e-04 3.938597e-04
<VARIANCE> 39
 5.483543e+01 6.776463e+01 7.797680e+01 9.985931e+01 8.119214e+01 6.232211e+01 8.438729e+01 6.445840e+01 7.160141e+01 5.538554e+01 6.075543e+01 4.208915e+01 1.953069e+02 2.631704e+00 3.085724e+00 3.101612e+00 4.672972e+00 3.950680e+00 3.618678e+00 4.375962e+00 3.935581e+00 3.800573e+00 3.519429e+00 3.285434e+00 2.726914e+00 3.022288e+00 4.180704e-01 4.548345e-01 4.749576e-01 7.154720e-01 6.625421e-01 6.462558e-01 7.639505e-01 7.261668e-01 6.826125e-01 6.562239e-01 5.926718e-01 5.120473e-01 4.388200e-01
<GCONST> 1.365655e+02
<STATE> 4
<MEAN> 39
 -8.541321e+00 -8.000110e+00 -1.329445e-01 -7.826166e+00 -5.029053e+00 -1.689677e+00 -4.933764e+00 -4.046610e-01 -2.261182e+00 -4.847213e-01 -2.237925e+00 8.850434e-01 6.301070e+01 -1.352675e-03 1.870498e-03 -2.764141e-04 -6.976602e-04 -3.420527e-04 1.393128e-03 -6.322996e-05 -3.842450e-04 -1.645737e-03 1.862613e-03 -1.562339e-03 1.027830e-04 -2.615176e-04 -4.197140e-04 1.373720e-04 -1.041117e-05 -5.785859e-05 -3.536579e-05 2.214038e-04 -8.991463e-05 1.683200e-04 -3.659200e-04 1.688902e-04 -4.141758e-04 1.429574e-04 3.938597e-04
<VARIANCE> 39
 5.483543e+01 6.776463e+01 7.797680e+01 9.985931e+01 8.119214e+01 6.232211e+01 8.438729e+01 6.445840e+01 7.160141e+01 5.538554e+01 6.075543e+01 4.208915e+01 1.953069e+02 2.631704e+00 3.085724e+00 3.101612e+00 4.672972e+00 3.950680e+00 3.618678e+00 4.375962e+00 3.935581e+00 3.800573e+00 3.519429e+00 3.285434e+00 2.726914e+00 3.022288e+00 4.180704e-01 4.548345e-01 4.749576e-01 7.154720e-01 6.625421e-01 6.462558e-01 7.639505e-01 7.261668e-01 6.826125e-01 6.562239e-01 5.926718e-01 5.120473e-01 4.388200e-01
<GCONST> 1.365655e+02
<TRANSP> 5
 0.000000e+00 1.000000e+00 0.000000e+00 0.000000e+00 0.000000e+00
 0.000000e+00 6.000000e-01 4.000000e-01 0.000000e+00 0.000000e+00
 0.000000e+00 0.000000e+00 6.000000e-01 4.000000e-01 0.000000e+00
 0.000000e+00 0.000000e+00 0.000000e+00 7.000000e-01 3.000000e-01
 0.000000e+00 0.000000e+00 0.000000e+00 0.000000e+00 0.000000e+00
<ENDHMM>
~h "g"
<BEGINHMM>
<NUMSTATES> 5
<STATE> 2
<MEAN> 39
 -8.541321e+00 -8.000110e+00 -1.329445e-01 -7.826166e+00 -5.029053e+00 -1.689677e+00 -4.933764e+00 -4.046610e-01 -2.261182e+00 -4.847213e-01 -2.237925e+00 8.850434e-01 6.301070e+01 -1.352675e-03 1.870498e-03 -2.764141e-04 -6.976602e-04 -3.420527e-04 1.393128e-03 -6.322996e-05 -3.842450e-04 -1.645737e-03 1.862613e-03 -1.562339e-03 1.027830e-04 -2.615176e-04 -4.197140e-04 1.373720e-04 -1.041117e-05 -5.785859e-05 -3.536579e-05 2.214038e-04 -8.991463e-05 1.683200e-04 -3.659200e-04 1.688902e-04 -4.141758e-04 1.429574e-04 3.938597e-04
<VARIANCE> 39
 5.483543e+01 6.776463e+01 7.797680e+01 9.985931e+01 8.119214e+01 6.232211e+01 8.438729e+01 6.445840e+01 7.160141e+01 5.538554e+01 6.075543e+01 4.208915e+01 1.953069e+02 2.631704e+00 3.085724e+00 3.101612e+00 4.672972e+00 3.950680e+00 3.618678e+00 4.375962e+00 3.935581e+00 3.800573e+00 3.519429e+00 3.285434e+00 2.726914e+00 3.022288e+00 4.180704e-01 4.548345e-01 4.749576e-01 7.154720e-01 6.625421e-01 6.462558e-01 7.639505e-01 7.261668e-01 6.826125e-01 6.562239e-01 5.926718e-01 5.120473e-01 4.388200e-01
<GCONST> 1.365655e+02
<STATE> 3
<MEAN> 39
 -8.541321e+00 -8.000110e+00 -1.329445e-01 -7.826166e+00 -5.029053e+00 -1.689677e+00 -4.933764e+00 -4.046610e-01 -2.261182e+00 -4.847213e-01 -2.237925e+00 8.850434e-01 6.301070e+01 -1.352675e-03 1.870498e-03 -2.764141e-04 -6.976602e-04 -3.420527e-04 1.393128e-03 -6.322996e-05 -3.842450e-04 -1.645737e-03 1.862613e-03 -1.562339e-03 1.027830e-04 -2.615176e-04 -4.197140e-04 1.373720e-04 -1.041117e-05 -5.785859e-05 -3.536579e-05 2.214038e-04 -8.991463e-05 1.683200e-04 -3.659200e-04 1.688902e-04 -4.141758e-04 1.429574e-04 3.938597e-04
<VARIANCE> 39
 5.483543e+01 6.776463e+01 7.797680e+01 9.985931e+01 8.119214e+01 6.232211e+01 8.438729e+01 6.445840e+01 7.160141e+01 5.538554e+01 6.075543e+01 4.208915e+01 1.953069e+02 2.631704e+00 3.085724e+00 3.101612e+00 4.672972e+00 3.950680e+00 3.618678e+00 4.375962e+00 3.935581e+00 3.800573e+00 3.519429e+00 3.285434e+00 2.726914e+00 3.022288e+00 4.180704e-01 4.548345e-01 4.749576e-01 7.154720e-01 6.625421e-01 6.462558e-01 7.639505e-01 7.261668e-01 6.826125e-01 6.562239e-01 5.926718e-01 5.120473e-01 4.388200e-01
<GCONST> 1.365655e+02
<STATE> 4
<MEAN> 39
 -8.541321e+00 -8.000110e+00 -1.329445e-01 -7.826166e+00 -5.029053e+00 -1.689677e+00 -4.933764e+00 -4.046610e-01 -2.261182e+00 -4.847213e-01 -2.237925e+00 8.850434e-01 6.301070e+01 -1.352675e-03 1.870498e-03 -2.764141e-04 -6.976602e-04 -3.420527e-04 1.393128e-03 -6.322996e-05 -3.842450e-04 -1.645737e-03 1.862613e-03 -1.562339e-03 1.027830e-04 -2.615176e-04 -4.197140e-04 1.373720e-04 -1.041117e-05 -5.785859e-05 -3.536579e-05 2.214038e-04 -8.991463e-05 1.683200e-04 -3.659200e-04 1.688902e-04 -4.141758e-04 1.429574e-04 3.938597e-04
<VARIANCE> 39
 5.483543e+01 6.776463e+01 7.797680e+01 9.985931e+01 8.119214e+01 6.232211e+01 8.438729e+01 6.445840e+01 7.160141e+01 5.538554e+01 6.075543e+01 4.208915e+01 1.953069e+02 2.631704e+00 3.085724e+00 3.101612e+00 4.672972e+00 3.950680e+00 3.618678e+00 4.375962e+00 3.935581e+00 3.800573e+00 3.519429e+00 3.285434e+00 2.726914e+00 3.022288e+00 4.180704e-01 4.548345e-01 4.749576e-01 7.154720e-01 6.625421e-01 6.462558e-01 7.639505e-01 7.261668e-01 6.826125e-01 6.562239e-01 5.926718e-01 5.120473e-01 4.388200e-01
<GCONST> 1.365655e+02
<TRANSP> 5
 0.000000e+00 1.000000e+00 0.000000e+00 0.000000e+00 0.000000e+00
 0.000000e+00 6.000000e-01 4.000000e-01 0.000000e+00 0.000000e+00
 0.000000e+00 0.000000e+00 6.000000e-01 4.000000e-01 0.000000e+00
 0.000000e+00 0.000000e+00 0.000000e+00 7.000000e-01 3.000000e-01
 0.000000e+00 0.000000e+00 0.000000e+00 0.000000e+00 0.000000e+00
<ENDHMM>
~h "e"
<BEGINHMM>
<NUMSTATES> 5
<STATE> 2
<MEAN> 39
 -8.541321e+00 -8.000110e+00 -1.329445e-01 -7.826166e+00 -5.029053e+00 -1.689677e+00 -4.933764e+00 -4.046610e-01 -2.261182e+00 -4.847213e-01 -2.237925e+00 8.850434e-01 6.301070e+01 -1.352675e-03 1.870498e-03 -2.764141e-04 -6.976602e-04 -3.420527e-04 1.393128e-03 -6.322996e-05 -3.842450e-04 -1.645737e-03 1.862613e-03 -1.562339e-03 1.027830e-04 -2.615176e-04 -4.197140e-04 1.373720e-04 -1.041117e-05 -5.785859e-05 -3.536579e-05 2.214038e-04 -8.991463e-05 1.683200e-04 -3.659200e-04 1.688902e-04 -4.141758e-04 1.429574e-04 3.938597e-04
<VARIANCE> 39
 5.483543e+01 6.776463e+01 7.797680e+01 9.985931e+01 8.119214e+01 6.232211e+01 8.438729e+01 6.445840e+01 7.160141e+01 5.538554e+01 6.075543e+01 4.208915e+01 1.953069e+02 2.631704e+00 3.085724e+00 3.101612e+00 4.672972e+00 3.950680e+00 3.618678e+00 4.375962e+00 3.935581e+00 3.800573e+00 3.519429e+00 3.285434e+00 2.726914e+00 3.022288e+00 4.180704e-01 4.548345e-01 4.749576e-01 7.154720e-01 6.625421e-01 6.462558e-01 7.639505e-01 7.261668e-01 6.826125e-01 6.562239e-01 5.926718e-01 5.120473e-01 4.388200e-01
<GCONST> 1.365655e+02
<STATE> 3
<MEAN> 39
 -8.541321e+00 -8.000110e+00 -1.329445e-01 -7.826166e+00 -5.029053e+00 -1.689677e+00 -4.933764e+00 -4.046610e-01 -2.261182e+00 -4.847213e-01 -2.237925e+00 8.850434e-01 6.301070e+01 -1.352675e-03 1.870498e-03 -2.764141e-04 -6.976602e-04 -3.420527e-04 1.393128e-03 -6.322996e-05 -3.842450e-04 -1.645737e-03 1.862613e-03 -1.562339e-03 1.027830e-04 -2.615176e-04 -4.197140e-04 1.373720e-04 -1.041117e-05 -5.785859e-05 -3.536579e-05 2.214038e-04 -8.991463e-05 1.683200e-04 -3.659200e-04 1.688902e-04 -4.141758e-04 1.429574e-04 3.938597e-04
<VARIANCE> 39
 5.483543e+01 6.776463e+01 7.797680e+01 9.985931e+01 8.119214e+01 6.232211e+01 8.438729e+01 6.445840e+01 7.160141e+01 5.538554e+01 6.075543e+01 4.208915e+01 1.953069e+02 2.631704e+00 3.085724e+00 3.101612e+00 4.672972e+00 3.950680e+00 3.618678e+00 4.375962e+00 3.935581e+00 3.800573e+00 3.519429e+00 3.285434e+00 2.726914e+00 3.022288e+00 4.180704e-01 4.548345e-01 4.749576e-01 7.154720e-01 6.625421e-01 6.462558e-01 7.639505e-01 7.261668e-01 6.826125e-01 6.562239e-01 5.926718e-01 5.120473e-01 4.388200e-01
<GCONST> 1.365655e+02
<STATE> 4
<MEAN> 39
 -8.541321e+00 -8.000110e+00 -1.329445e-01 -7.826166e+00 -5.029053e+00 -1.689677e+00 -4.933764e+00 -4.046610e-01 -2.261182e+00 -4.847213e-01 -2.237925e+00 8.850434e-01 6.301070e+01 -1.352675e-03 1.870498e-03 -2.764141e-04 -6.976602e-04 -3.420527e-04 1.393128e-03 -6.322996e-05 -3.842450e-04 -1.645737e-03 1.862613e-03 -1.562339e-03 1.027830e-04 -2.615176e-04 -4.197140e-04 1.373720e-04 -1.041117e-05 -5.785859e-05 -3.536579e-05 2.214038e-04 -8.991463e-05 1.683200e-04 -3.659200e-04 1.688902e-04 -4.141758e-04 1.429574e-04 3.938597e-04
<VARIANCE> 39
 5.483543e+01 6.776463e+01 7.797680e+01 9.985931e+01 8.119214e+01 6.232211e+01 8.438729e+01 6.445840e+01 7.160141e+01 5.538554e+01 6.075543e+01 4.208915e+01 1.953069e+02 2.631704e+00 3.085724e+00 3.101612e+00 4.672972e+00 3.950680e+00 3.618678e+00 4.375962e+00 3.935581e+00 3.800573e+00 3.519429e+00 3.285434e+00 2.726914e+00 3.022288e+00 4.180704e-01 4.548345e-01 4.749576e-01 7.154720e-01 6.625421e-01 6.462558e-01 7.639505e-01 7.261668e-01 6.826125e-01 6.562239e-01 5.926718e-01 5.120473e-01 4.388200e-01
<GCONST> 1.365655e+02
<TRANSP> 5
 0.000000e+00 1.000000e+00 0.000000e+00 0.000000e+00 0.000000e+00
 0.000000e+00 6.000000e-01 4.000000e-01 0.000000e+00 0.000000e+00
 0.000000e+00 0.000000e+00 6.000000e-01 4.000000e-01 0.000000e+00
 0.000000e+00 0.000000e+00 0.000000e+00 7.000000e-01 3.000000e-01
 0.000000e+00 0.000000e+00 0.000000e+00 0.000000e+00 0.000000e+00
<ENDHMM>
~h "r"
<BEGINHMM>
<NUMSTATES> 5
<STATE> 2
<MEAN> 39
 -8.541321e+00 -8.000110e+00 -1.329445e-01 -7.826166e+00 -5.029053e+00 -1.689677e+00 -4.933764e+00 -4.046610e-01 -2.261182e+00 -4.847213e-01 -2.237925e+00 8.850434e-01 6.301070e+01 -1.352675e-03 1.870498e-03 -2.764141e-04 -6.976602e-04 -3.420527e-04 1.393128e-03 -6.322996e-05 -3.842450e-04 -1.645737e-03 1.862613e-03 -1.562339e-03 1.027830e-04 -2.615176e-04 -4.197140e-04 1.373720e-04 -1.041117e-05 -5.785859e-05 -3.536579e-05 2.214038e-04 -8.991463e-05 1.683200e-04 -3.659200e-04 1.688902e-04 -4.141758e-04 1.429574e-04 3.938597e-04
<VARIANCE> 39
 5.483543e+01 6.776463e+01 7.797680e+01 9.985931e+01 8.119214e+01 6.232211e+01 8.438729e+01 6.445840e+01 7.160141e+01 5.538554e+01 6.075543e+01 4.208915e+01 1.953069e+02 2.631704e+00 3.085724e+00 3.101612e+00 4.672972e+00 3.950680e+00 3.618678e+00 4.375962e+00 3.935581e+00 3.800573e+00 3.519429e+00 3.285434e+00 2.726914e+00 3.022288e+00 4.180704e-01 4.548345e-01 4.749576e-01 7.154720e-01 6.625421e-01 6.462558e-01 7.639505e-01 7.261668e-01 6.826125e-01 6.562239e-01 5.926718e-01 5.120473e-01 4.388200e-01
<GCONST> 1.365655e+02
<STATE> 3
<MEAN> 39
 -8.541321e+00 -8.000110e+00 -1.329445e-01 -7.826166e+00 -5.029053e+00 -1.689677e+00 -4.933764e+00 -4.046610e-01 -2.261182e+00 -4.847213e-01 -2.237925e+00 8.850434e-01 6.301070e+01 -1.352675e-03 1.870498e-03 -2.764141e-04 -6.976602e-04 -3.420527e-04 1.393128e-03 -6.322996e-05 -3.842450e-04 -1.645737e-03 1.862613e-03 -1.562339e-03 1.027830e-04 -2.615176e-04 -4.197140e-04 1.373720e-04 -1.041117e-05 -5.785859e-05 -3.536579e-05 2.214038e-04 -8.991463e-05 1.683200e-04 -3.659200e-04 1.688902e-04 -4.141758e-04 1.429574e-04 3.938597e-04
<VARIANCE> 39
 5.483543e+01 6.776463e+01 7.797680e+01 9.985931e+01 8.119214e+01 6.232211e+01 8.438729e+01 6.445840e+01 7.160141e+01 5.538554e+01 6.075543e+01 4.208915e+01 1.953069e+02 2.631704e+00 3.085724e+00 3.101612e+00 4.672972e+00 3.950680e+00 3.618678e+00 4.375962e+00 3.935581e+00 3.800573e+00 3.519429e+00 3.285434e+00 2.726914e+00 3.022288e+00 4.180704e-01 4.548345e-01 4.749576e-01 7.154720e-01 6.625421e-01 6.462558e-01 7.639505e-01 7.261668e-01 6.826125e-01 6.562239e-01 5.926718e-01 5.120473e-01 4.388200e-01
<GCONST> 1.365655e+02
<STATE> 4
<MEAN> 39
 -8.541321e+00 -8.000110e+00 -1.329445e-01 -7.826166e+00 -5.029053e+00 -1.689677e+00 -4.933764e+00 -4.046610e-01 -2.261182e+00 -4.847213e-01 -2.237925e+00 8.850434e-01 6.301070e+01 -1.352675e-03 1.870498e-03 -2.764141e-04 -6.976602e-04 -3.420527e-04 1.393128e-03 -6.322996e-05 -3.842450e-04 -1.645737e-03 1.862613e-03 -1.562339e-03 1.027830e-04 -2.615176e-04 -4.197140e-04 1.373720e-04 -1.041117e-05 -5.785859e-05 -3.536579e-05 2.214038e-04 -8.991463e-05 1.683200e-04 -3.659200e-04 1.688902e-04 -4.141758e-04 1.429574e-04 3.938597e-04
<VARIANCE> 39
 5.483543e+01 6.776463e+01 7.797680e+01 9.985931e+01 8.119214e+01 6.232211e+01 8.438729e+01 6.445840e+01 7.160141e+01 5.538554e+01 6.075543e+01 4.208915e+01 1.953069e+02 2.631704e+00 3.085724e+00 3.101612e+00 4.672972e+00 3.950680e+00 3.618678e+00 4.375962e+00 3.935581e+00 3.800573e+00 3.519429e+00 3.285434e+00 2.726914e+00 3.022288e+00 4.180704e-01 4.548345e-01 4.749576e-01 7.154720e-01 6.625421e-01 6.462558e-01 7.639505e-01 7.261668e-01 6.826125e-01 6.562239e-01 5.926718e-01 5.120473e-01 4.388200e-01
<GCONST> 1.365655e+02
<TRANSP> 5
 0.000000e+00 1.000000e+00 0.000000e+00 0.000000e+00 0.000000e+00
 0.000000e+00 6.000000e-01 4.000000e-01 0.000000e+00 0.000000e+00
 0.000000e+00 0.000000e+00 6.000000e-01 4.000000e-01 0.000000e+00
 0.000000e+00 0.000000e+00 0.000000e+00 7.000000e-01 3.000000e-01
 0.000000e+00 0.000000e+00 0.000000e+00 0.000000e+00 0.000000e+00
<ENDHMM>
~h "en"
<BEGINHMM>
<NUMSTATES> 5
<STATE> 2
<MEAN> 39
 -8.541321e+00 -8.000110e+00 -1.329445e-01 -7.826166e+00 -5.029053e+00 -1.689677e+00 -4.933764e+00 -4.046610e-01 -2.261182e+00 -4.847213e-01 -2.237925e+00 8.850434e-01 6.301070e+01 -1.352675e-03 1.870498e-03 -2.764141e-04 -6.976602e-04 -3.420527e-04 1.393128e-03 -6.322996e-05 -3.842450e-04 -1.645737e-03 1.862613e-03 -1.562339e-03 1.027830e-04 -2.615176e-04 -4.197140e-04 1.373720e-04 -1.041117e-05 -5.785859e-05 -3.536579e-05 2.214038e-04 -8.991463e-05 1.683200e-04 -3.659200e-04 1.688902e-04 -4.141758e-04 1.429574e-04 3.938597e-04
<VARIANCE> 39
 5.483543e+01 6.776463e+01 7.797680e+01 9.985931e+01 8.119214e+01 6.232211e+01 8.438729e+01 6.445840e+01 7.160141e+01 5.538554e+01 6.075543e+01 4.208915e+01 1.953069e+02 2.631704e+00 3.085724e+00 3.101612e+00 4.672972e+00 3.950680e+00 3.618678e+00 4.375962e+00 3.935581e+00 3.800573e+00 3.519429e+00 3.285434e+00 2.726914e+00 3.022288e+00 4.180704e-01 4.548345e-01 4.749576e-01 7.154720e-01 6.625421e-01 6.462558e-01 7.639505e-01 7.261668e-01 6.826125e-01 6.562239e-01 5.926718e-01 5.120473e-01 4.388200e-01
<GCONST> 1.365655e+02
<STATE> 3
<MEAN> 39
 -8.541321e+00 -8.000110e+00 -1.329445e-01 -7.826166e+00 -5.029053e+00 -1.689677e+00 -4.933764e+00 -4.046610e-01 -2.261182e+00 -4.847213e-01 -2.237925e+00 8.850434e-01 6.301070e+01 -1.352675e-03 1.870498e-03 -2.764141e-04 -6.976602e-04 -3.420527e-04 1.393128e-03 -6.322996e-05 -3.842450e-04 -1.645737e-03 1.862613e-03 -1.562339e-03 1.027830e-04 -2.615176e-04 -4.197140e-04 1.373720e-04 -1.041117e-05 -5.785859e-05 -3.536579e-05 2.214038e-04 -8.991463e-05 1.683200e-04 -3.659200e-04 1.688902e-04 -4.141758e-04 1.429574e-04 3.938597e-04
<VARIANCE> 39
 5.483543e+01 6.776463e+01 7.797680e+01 9.985931e+01 8.119214e+01 6.232211e+01 8.438729e+01 6.445840e+01 7.160141e+01 5.538554e+01 6.075543e+01 4.208915e+01 1.953069e+02 2.631704e+00 3.085724e+00 3.101612e+00 4.672972e+00 3.950680e+00 3.618678e+00 4.375962e+00 3.935581e+00 3.800573e+00 3.519429e+00 3.285434e+00 2.726914e+00 3.022288e+00 4.180704e-01 4.548345e-01 4.749576e-01 7.154720e-01 6.625421e-01 6.462558e-01 7.639505e-01 7.261668e-01 6.826125e-01 6.562239e-01 5.926718e-01 5.120473e-01 4.388200e-01
<GCONST> 1.365655e+02
<STATE> 4
<MEAN> 39
 -8.541321e+00 -8.000110e+00 -1.329445e-01 -7.826166e+00 -5.029053e+00 -1.689677e+00 -4.933764e+00 -4.046610e-01 -2.261182e+00 -4.847213e-01 -2.237925e+00 8.850434e-01 6.301070e+01 -1.352675e-03 1.870498e-03 -2.764141e-04 -6.976602e-04 -3.420527e-04 1.393128e-03 -6.322996e-05 -3.842450e-04 -1.645737e-03 1.862613e-03 -1.562339e-03 1.027830e-04 -2.615176e-04 -4.197140e-04 1.373720e-04 -1.041117e-05 -5.785859e-05 -3.536579e-05 2.214038e-04 -8.991463e-05 1.683200e-04 -3.659200e-04 1.688902e-04 -4.141758e-04 1.429574e-04 3.938597e-04
<VARIANCE> 39
 5.483543e+01 6.776463e+01 7.797680e+01 9.985931e+01 8.119214e+01 6.232211e+01 8.438729e+01 6.445840e+01 7.160141e+01 5.538554e+01 6.075543e+01 4.208915e+01 1.953069e+02 2.631704e+00 3.085724e+00 3.101612e+00 4.672972e+00 3.950680e+00 3.618678e+00 4.375962e+00 3.935581e+00 3.800573e+00 3.519429e+00 3.285434e+00 2.726914e+00 3.022288e+00 4.180704e-01 4.548345e-01 4.749576e-01 7.154720e-01 6.625421e-01 6.462558e-01 7.639505e-01 7.261668e-01 6.826125e-01 6.562239e-01 5.926718e-01 5.120473e-01 4.388200e-01
<GCONST> 1.365655e+02
<TRANSP> 5
 0.000000e+00 1.000000e+00 0.000000e+00 0.000000e+00 0.000000e+00
 0.000000e+00 6.000000e-01 4.000000e-01 0.000000e+00 0.000000e+00
 0.000000e+00 0.000000e+00 6.000000e-01 4.000000e-01 0.000000e+00
 0.000000e+00 0.000000e+00 0.000000e+00 7.000000e-01 3.000000e-01
 0.000000e+00 0.000000e+00 0.000000e+00 0.000000e+00 0.000000e+00
<ENDHMM>
~h "b"
<BEGINHMM>
<NUMSTATES> 5
<STATE> 2
<MEAN> 39
 -8.541321e+00 -8.000110e+00 -1.329445e-01 -7.826166e+00 -5.029053e+00 -1.689677e+00 -4.933764e+00 -4.046610e-01 -2.261182e+00 -4.847213e-01 -2.237925e+00 8.850434e-01 6.301070e+01 -1.352675e-03 1.870498e-03 -2.764141e-04 -6.976602e-04 -3.420527e-04 1.393128e-03 -6.322996e-05 -3.842450e-04 -1.645737e-03 1.862613e-03 -1.562339e-03 1.027830e-04 -2.615176e-04 -4.197140e-04 1.373720e-04 -1.041117e-05 -5.785859e-05 -3.536579e-05 2.214038e-04 -8.991463e-05 1.683200e-04 -3.659200e-04 1.688902e-04 -4.141758e-04 1.429574e-04 3.938597e-04
<VARIANCE> 39
 5.483543e+01 6.776463e+01 7.797680e+01 9.985931e+01 8.119214e+01 6.232211e+01 8.438729e+01 6.445840e+01 7.160141e+01 5.538554e+01 6.075543e+01 4.208915e+01 1.953069e+02 2.631704e+00 3.085724e+00 3.101612e+00 4.672972e+00 3.950680e+00 3.618678e+00 4.375962e+00 3.935581e+00 3.800573e+00 3.519429e+00 3.285434e+00 2.726914e+00 3.022288e+00 4.180704e-01 4.548345e-01 4.749576e-01 7.154720e-01 6.625421e-01 6.462558e-01 7.639505e-01 7.261668e-01 6.826125e-01 6.562239e-01 5.926718e-01 5.120473e-01 4.388200e-01
<GCONST> 1.365655e+02
<STATE> 3
<MEAN> 39
 -8.541321e+00 -8.000110e+00 -1.329445e-01 -7.826166e+00 -5.029053e+00 -1.689677e+00 -4.933764e+00 -4.046610e-01 -2.261182e+00 -4.847213e-01 -2.237925e+00 8.850434e-01 6.301070e+01 -1.352675e-03 1.870498e-03 -2.764141e-04 -6.976602e-04 -3.420527e-04 1.393128e-03 -6.322996e-05 -3.842450e-04 -1.645737e-03 1.862613e-03 -1.562339e-03 1.027830e-04 -2.615176e-04 -4.197140e-04 1.373720e-04 -1.041117e-05 -5.785859e-05 -3.536579e-05 2.214038e-04 -8.991463e-05 1.683200e-04 -3.659200e-04 1.688902e-04 -4.141758e-04 1.429574e-04 3.938597e-04
<VARIANCE> 39
 5.483543e+01 6.776463e+01 7.797680e+01 9.985931e+01 8.119214e+01 6.232211e+01 8.438729e+01 6.445840e+01 7.160141e+01 5.538554e+01 6.075543e+01 4.208915e+01 1.953069e+02 2.631704e+00 3.085724e+00 3.101612e+00 4.672972e+00 3.950680e+00 3.618678e+00 4.375962e+00 3.935581e+00 3.800573e+00 3.519429e+00 3.285434e+00 2.726914e+00 3.022288e+00 4.180704e-01 4.548345e-01 4.749576e-01 7.154720e-01 6.625421e-01 6.462558e-01 7.639505e-01 7.261668e-01 6.826125e-01 6.562239e-01 5.926718e-01 5.120473e-01 4.388200e-01
<GCONST> 1.365655e+02
<STATE> 4
<MEAN> 39
 -8.541321e+00 -8.000110e+00 -1.329445e-01 -7.826166e+00 -5.029053e+00 -1.689677e+00 -4.933764e+00 -4.046610e-01 -2.261182e+00 -4.847213e-01 -2.237925e+00 8.850434e-01 6.301070e+01 -1.352675e-03 1.870498e-03 -2.764141e-04 -6.976602e-04 -3.420527e-04 1.393128e-03 -6.322996e-05 -3.842450e-04 -1.645737e-03 1.862613e-03 -1.562339e-03 1.027830e-04 -2.615176e-04 -4.197140e-04 1.373720e-04 -1.041117e-05 -5.785859e-05 -3.536579e-05 2.214038e-04 -8.991463e-05 1.683200e-04 -3.659200e-04 1.688902e-04 -4.141758e-04 1.429574e-04 3.938597e-04
<VARIANCE> 39
 5.483543e+01 6.776463e+01 7.797680e+01 9.985931e+01 8.119214e+01 6.232211e+01 8.438729e+01 6.445840e+01 7.160141e+01 5.538554e+01 6.075543e+01 4.208915e+01 1.953069e+02 2.631704e+00 3.085724e+00 3.101612e+00 4.672972e+00 3.950680e+00 3.618678e+00 4.375962e+00 3.935581e+00 3.800573e+00 3.519429e+00 3.285434e+00 2.726914e+00 3.022288e+00 4.180704e-01 4.548345e-01 4.749576e-01 7.154720e-01 6.625421e-01 6.462558e-01 7.639505e-01 7.261668e-01 6.826125e-01 6.562239e-01 5.926718e-01 5.120473e-01 4.388200e-01
<GCONST> 1.365655e+02
<TRANSP> 5
 0.000000e+00 1.000000e+00 0.000000e+00 0.000000e+00 0.000000e+00
 0.000000e+00 6.000000e-01 4.000000e-01 0.000000e+00 0.000000e+00
 0.000000e+00 0.000000e+00 6.000000e-01 4.000000e-01 0.000000e+00
 0.000000e+00 0.000000e+00 0.000000e+00 7.000000e-01 3.000000e-01
 0.000000e+00 0.000000e+00 0.000000e+00 0.000000e+00 0.000000e+00
<ENDHMM>
~h "an"
<BEGINHMM>
<NUMSTATES> 5
<STATE> 2
<MEAN> 39
 -8.541321e+00 -8.000110e+00 -1.329445e-01 -7.826166e+00 -5.029053e+00 -1.689677e+00 -4.933764e+00 -4.046610e-01 -2.261182e+00 -4.847213e-01 -2.237925e+00 8.850434e-01 6.301070e+01 -1.352675e-03 1.870498e-03 -2.764141e-04 -6.976602e-04 -3.420527e-04 1.393128e-03 -6.322996e-05 -3.842450e-04 -1.645737e-03 1.862613e-03 -1.562339e-03 1.027830e-04 -2.615176e-04 -4.197140e-04 1.373720e-04 -1.041117e-05 -5.785859e-05 -3.536579e-05 2.214038e-04 -8.991463e-05 1.683200e-04 -3.659200e-04 1.688902e-04 -4.141758e-04 1.429574e-04 3.938597e-04
<VARIANCE> 39
 5.483543e+01 6.776463e+01 7.797680e+01 9.985931e+01 8.119214e+01 6.232211e+01 8.438729e+01 6.445840e+01 7.160141e+01 5.538554e+01 6.075543e+01 4.208915e+01 1.953069e+02 2.631704e+00 3.085724e+00 3.101612e+00 4.672972e+00 3.950680e+00 3.618678e+00 4.375962e+00 3.935581e+00 3.800573e+00 3.519429e+00 3.285434e+00 2.726914e+00 3.022288e+00 4.180704e-01 4.548345e-01 4.749576e-01 7.154720e-01 6.625421e-01 6.462558e-01 7.639505e-01 7.261668e-01 6.826125e-01 6.562239e-01 5.926718e-01 5.120473e-01 4.388200e-01
<GCONST> 1.365655e+02
<STATE> 3
<MEAN> 39
 -8.541321e+00 -8.000110e+00 -1.329445e-01 -7.826166e+00 -5.029053e+00 -1.689677e+00 -4.933764e+00 -4.046610e-01 -2.261182e+00 -4.847213e-01 -2.237925e+00 8.850434e-01 6.301070e+01 -1.352675e-03 1.870498e-03 -2.764141e-04 -6.976602e-04 -3.420527e-04 1.393128e-03 -6.322996e-05 -3.842450e-04 -1.645737e-03 1.862613e-03 -1.562339e-03 1.027830e-04 -2.615176e-04 -4.197140e-04 1.373720e-04 -1.041117e-05 -5.785859e-05 -3.536579e-05 2.214038e-04 -8.991463e-05 1.683200e-04 -3.659200e-04 1.688902e-04 -4.141758e-04 1.429574e-04 3.938597e-04
<VARIANCE> 39
 5.483543e+01 6.776463e+01 7.797680e+01 9.985931e+01 8.119214e+01 6.232211e+01 8.438729e+01 6.445840e+01 7.160141e+01 5.538554e+01 6.075543e+01 4.208915e+01 1.953069e+02 2.631704e+00 3.085724e+00 3.101612e+00 4.672972e+00 3.950680e+00 3.618678e+00 4.375962e+00 3.935581e+00 3.800573e+00 3.519429e+00 3.285434e+00 2.726914e+00 3.022288e+00 4.180704e-01 4.548345e-01 4.749576e-01 7.154720e-01 6.625421e-01 6.462558e-01 7.639505e-01 7.261668e-01 6.826125e-01 6.562239e-01 5.926718e-01 5.120473e-01 4.388200e-01
<GCONST> 1.365655e+02
<STATE> 4
<MEAN> 39
 -8.541321e+00 -8.000110e+00 -1.329445e-01 -7.826166e+00 -5.029053e+00 -1.689677e+00 -4.933764e+00 -4.046610e-01 -2.261182e+00 -4.847213e-01 -2.237925e+00 8.850434e-01 6.301070e+01 -1.352675e-03 1.870498e-03 -2.764141e-04 -6.976602e-04 -3.420527e-04 1.393128e-03 -6.322996e-05 -3.842450e-04 -1.645737e-03 1.862613e-03 -1.562339e-03 1.027830e-04 -2.615176e-04 -4.197140e-04 1.373720e-04 -1.041117e-05 -5.785859e-05 -3.536579e-05 2.214038e-04 -8.991463e-05 1.683200e-04 -3.659200e-04 1.688902e-04 -4.141758e-04 1.429574e-04 3.938597e-04
<VARIANCE> 39
 5.483543e+01 6.776463e+01 7.797680e+01 9.985931e+01 8.119214e+01 6.232211e+01 8.438729e+01 6.445840e+01 7.160141e+01 5.538554e+01 6.075543e+01 4.208915e+01 1.953069e+02 2.631704e+00 3.085724e+00 3.101612e+00 4.672972e+00 3.950680e+00 3.618678e+00 4.375962e+00 3.935581e+00 3.800573e+00 3.519429e+00 3.285434e+00 2.726914e+00 3.022288e+00 4.180704e-01 4.548345e-01 4.749576e-01 7.154720e-01 6.625421e-01 6.462558e-01 7.639505e-01 7.261668e-01 6.826125e-01 6.562239e-01 5.926718e-01 5.120473e-01 4.388200e-01
<GCONST> 1.365655e+02
<TRANSP> 5
 0.000000e+00 1.000000e+00 0.000000e+00 0.000000e+00 0.000000e+00
 0.000000e+00 6.000000e-01 4.000000e-01 0.000000e+00 0.000000e+00
 0.000000e+00 0.000000e+00 6.000000e-01 4.000000e-01 0.000000e+00
 0.000000e+00 0.000000e+00 0.000000e+00 7.000000e-01 3.000000e-01
 0.000000e+00 0.000000e+00 0.000000e+00 0.000000e+00 0.000000e+00
<ENDHMM>
~h "vv"
<BEGINHMM>
<NUMSTATES> 5
<STATE> 2
<MEAN> 39
 -8.541321e+00 -8.000110e+00 -1.329445e-01 -7.826166e+00 -5.029053e+00 -1.689677e+00 -4.933764e+00 -4.046610e-01 -2.261182e+00 -4.847213e-01 -2.237925e+00 8.850434e-01 6.301070e+01 -1.352675e-03 1.870498e-03 -2.764141e-04 -6.976602e-04 -3.420527e-04 1.393128e-03 -6.322996e-05 -3.842450e-04 -1.645737e-03 1.862613e-03 -1.562339e-03 1.027830e-04 -2.615176e-04 -4.197140e-04 1.373720e-04 -1.041117e-05 -5.785859e-05 -3.536579e-05 2.214038e-04 -8.991463e-05 1.683200e-04 -3.659200e-04 1.688902e-04 -4.141758e-04 1.429574e-04 3.938597e-04
<VARIANCE> 39
 5.483543e+01 6.776463e+01 7.797680e+01 9.985931e+01 8.119214e+01 6.232211e+01 8.438729e+01 6.445840e+01 7.160141e+01 5.538554e+01 6.075543e+01 4.208915e+01 1.953069e+02 2.631704e+00 3.085724e+00 3.101612e+00 4.672972e+00 3.950680e+00 3.618678e+00 4.375962e+00 3.935581e+00 3.800573e+00 3.519429e+00 3.285434e+00 2.726914e+00 3.022288e+00 4.180704e-01 4.548345e-01 4.749576e-01 7.154720e-01 6.625421e-01 6.462558e-01 7.639505e-01 7.261668e-01 6.826125e-01 6.562239e-01 5.926718e-01 5.120473e-01 4.388200e-01
<GCONST> 1.365655e+02
<STATE> 3
<MEAN> 39
 -8.541321e+00 -8.000110e+00 -1.329445e-01 -7.826166e+00 -5.029053e+00 -1.689677e+00 -4.933764e+00 -4.046610e-01 -2.261182e+00 -4.847213e-01 -2.237925e+00 8.850434e-01 6.301070e+01 -1.352675e-03 1.870498e-03 -2.764141e-04 -6.976602e-04 -3.420527e-04 1.393128e-03 -6.322996e-05 -3.842450e-04 -1.645737e-03 1.862613e-03 -1.562339e-03 1.027830e-04 -2.615176e-04 -4.197140e-04 1.373720e-04 -1.041117e-05 -5.785859e-05 -3.536579e-05 2.214038e-04 -8.991463e-05 1.683200e-04 -3.659200e-04 1.688902e-04 -4.141758e-04 1.429574e-04 3.938597e-04
<VARIANCE> 39
 5.483543e+01 6.776463e+01 7.797680e+01 9.985931e+01 8.119214e+01 6.232211e+01 8.438729e+01 6.445840e+01 7.160141e+01 5.538554e+01 6.075543e+01 4.208915e+01 1.953069e+02 2.631704e+00 3.085724e+00 3.101612e+00 4.672972e+00 3.950680e+00 3.618678e+00 4.375962e+00 3.935581e+00 3.800573e+00 3.519429e+00 3.285434e+00 2.726914e+00 3.022288e+00 4.180704e-01 4.548345e-01 4.749576e-01 7.154720e-01 6.625421e-01 6.462558e-01 7.639505e-01 7.261668e-01 6.826125e-01 6.562239e-01 5.926718e-01 5.120473e-01 4.388200e-01
<GCONST> 1.365655e+02
<STATE> 4
<MEAN> 39
 -8.541321e+00 -8.000110e+00 -1.329445e-01 -7.826166e+00 -5.029053e+00 -1.689677e+00 -4.933764e+00 -4.046610e-01 -2.261182e+00 -4.847213e-01 -2.237925e+00 8.850434e-01 6.301070e+01 -1.352675e-03 1.870498e-03 -2.764141e-04 -6.976602e-04 -3.420527e-04 1.393128e-03 -6.322996e-05 -3.842450e-04 -1.645737e-03 1.862613e-03 -1.562339e-03 1.027830e-04 -2.615176e-04 -4.197140e-04 1.373720e-04 -1.041117e-05 -5.785859e-05 -3.536579e-05 2.214038e-04 -8.991463e-05 1.683200e-04 -3.659200e-04 1.688902e-04 -4.141758e-04 1.429574e-04 3.938597e-04
<VARIANCE> 39
 5.483543e+01 6.776463e+01 7.797680e+01 9.985931e+01 8.119214e+01 6.232211e+01 8.438729e+01 6.445840e+01 7.160141e+01 5.538554e+01 6.075543e+01 4.208915e+01 1.953069e+02 2.631704e+00 3.085724e+00 3.101612e+00 4.672972e+00 3.950680e+00 3.618678e+00 4.375962e+00 3.935581e+00 3.800573e+00 3.519429e+00 3.285434e+00 2.726914e+00 3.022288e+00 4.180704e-01 4.548345e-01 4.749576e-01 7.154720e-01 6.625421e-01 6.462558e-01 7.639505e-01 7.261668e-01 6.826125e-01 6.562239e-01 5.926718e-01 5.120473e-01 4.388200e-01
<GCONST> 1.365655e+02
<TRANSP> 5
 0.000000e+00 1.000000e+00 0.000000e+00 0.000000e+00 0.000000e+00
 0.000000e+00 6.000000e-01 4.000000e-01 0.000000e+00 0.000000e+00
 0.000000e+00 0.000000e+00 6.000000e-01 4.000000e-01 0.000000e+00
 0.000000e+00 0.000000e+00 0.000000e+00 7.000000e-01 3.000000e-01
 0.000000e+00 0.000000e+00 0.000000e+00 0.000000e+00 0.000000e+00
<ENDHMM>
~h "ve"
<BEGINHMM>
<NUMSTATES> 5
<STATE> 2
<MEAN> 39
 -8.541321e+00 -8.000110e+00 -1.329445e-01 -7.826166e+00 -5.029053e+00 -1.689677e+00 -4.933764e+00 -4.046610e-01 -2.261182e+00 -4.847213e-01 -2.237925e+00 8.850434e-01 6.301070e+01 -1.352675e-03 1.870498e-03 -2.764141e-04 -6.976602e-04 -3.420527e-04 1.393128e-03 -6.322996e-05 -3.842450e-04 -1.645737e-03 1.862613e-03 -1.562339e-03 1.027830e-04 -2.615176e-04 -4.197140e-04 1.373720e-04 -1.041117e-05 -5.785859e-05 -3.536579e-05 2.214038e-04 -8.991463e-05 1.683200e-04 -3.659200e-04 1.688902e-04 -4.141758e-04 1.429574e-04 3.938597e-04
<VARIANCE> 39
 5.483543e+01 6.776463e+01 7.797680e+01 9.985931e+01 8.119214e+01 6.232211e+01 8.438729e+01 6.445840e+01 7.160141e+01 5.538554e+01 6.075543e+01 4.208915e+01 1.953069e+02 2.631704e+00 3.085724e+00 3.101612e+00 4.672972e+00 3.950680e+00 3.618678e+00 4.375962e+00 3.935581e+00 3.800573e+00 3.519429e+00 3.285434e+00 2.726914e+00 3.022288e+00 4.180704e-01 4.548345e-01 4.749576e-01 7.154720e-01 6.625421e-01 6.462558e-01 7.639505e-01 7.261668e-01 6.826125e-01 6.562239e-01 5.926718e-01 5.120473e-01 4.388200e-01
<GCONST> 1.365655e+02
<STATE> 3
<MEAN> 39
 -8.541321e+00 -8.000110e+00 -1.329445e-01 -7.826166e+00 -5.029053e+00 -1.689677e+00 -4.933764e+00 -4.046610e-01 -2.261182e+00 -4.847213e-01 -2.237925e+00 8.850434e-01 6.301070e+01 -1.352675e-03 1.870498e-03 -2.764141e-04 -6.976602e-04 -3.420527e-04 1.393128e-03 -6.322996e-05 -3.842450e-04 -1.645737e-03 1.862613e-03 -1.562339e-03 1.027830e-04 -2.615176e-04 -4.197140e-04 1.373720e-04 -1.041117e-05 -5.785859e-05 -3.536579e-05 2.214038e-04 -8.991463e-05 1.683200e-04 -3.659200e-04 1.688902e-04 -4.141758e-04 1.429574e-04 3.938597e-04
<VARIANCE> 39
 5.483543e+01 6.776463e+01 7.797680e+01 9.985931e+01 8.119214e+01 6.232211e+01 8.438729e+01 6.445840e+01 7.160141e+01 5.538554e+01 6.075543e+01 4.208915e+01 1.953069e+02 2.631704e+00 3.085724e+00 3.101612e+00 4.672972e+00 3.950680e+00 3.618678e+00 4.375962e+00 3.935581e+00 3.800573e+00 3.519429e+00 3.285434e+00 2.726914e+00 3.022288e+00 4.180704e-01 4.548345e-01 4.749576e-01 7.154720e-01 6.625421e-01 6.462558e-01 7.639505e-01 7.261668e-01 6.826125e-01 6.562239e-01 5.926718e-01 5.120473e-01 4.388200e-01
<GCONST> 1.365655e+02
<STATE> 4
<MEAN> 39
 -8.541321e+00 -8.000110e+00 -1.329445e-01 -7.826166e+00 -5.029053e+00 -1.689677e+00 -4.933764e+00 -4.046610e-01 -2.261182e+00 -4.847213e-01 -2.237925e+00 8.850434e-01 6.301070e+01 -1.352675e-03 1.870498e-03 -2.764141e-04 -6.976602e-04 -3.420527e-04 1.393128e-03 -6.322996e-05 -3.842450e-04 -1.645737e-03 1.862613e-03 -1.562339e-03 1.027830e-04 -2.615176e-04 -4.197140e-04 1.373720e-04 -1.041117e-05 -5.785859e-05 -3.536579e-05 2.214038e-04 -8.991463e-05 1.683200e-04 -3.659200e-04 1.688902e-04 -4.141758e-04 1.429574e-04 3.938597e-04
<VARIANCE> 39
 5.483543e+01 6.776463e+01 7.797680e+01 9.985931e+01 8.119214e+01 6.232211e+01 8.438729e+01 6.445840e+01 7.160141e+01 5.538554e+01 6.075543e+01 4.208915e+01 1.953069e+02 2.631704e+00 3.085724e+00 3.101612e+00 4.672972e+00 3.950680e+00 3.618678e+00 4.375962e+00 3.935581e+00 3.800573e+00 3.519429e+00 3.285434e+00 2.726914e+00 3.022288e+00 4.180704e-01 4.548345e-01 4.749576e-01 7.154720e-01 6.625421e-01 6.462558e-01 7.639505e-01 7.261668e-01 6.826125e-01 6.562239e-01 5.926718e-01 5.120473e-01 4.388200e-01
<GCONST> 1.365655e+02
<TRANSP> 5
 0.000000e+00 1.000000e+00 0.000000e+00 0.000000e+00 0.000000e+00
 0.000000e+00 6.000000e-01 4.000000e-01 0.000000e+00 0.000000e+00
 0.000000e+00 0.000000e+00 6.000000e-01 4.000000e-01 0.000000e+00
 0.000000e+00 0.000000e+00 0.000000e+00 7.000000e-01 3.000000e-01
 0.000000e+00 0.000000e+00 0.000000e+00 0.000000e+00 0.000000e+00
<ENDHMM>
~h "m"
<BEGINHMM>
<NUMSTATES> 5
<STATE> 2
<MEAN> 39
 -8.541321e+00 -8.000110e+00 -1.329445e-01 -7.826166e+00 -5.029053e+00 -1.689677e+00 -4.933764e+00 -4.046610e-01 -2.261182e+00 -4.847213e-01 -2.237925e+00 8.850434e-01 6.301070e+01 -1.352675e-03 1.870498e-03 -2.764141e-04 -6.976602e-04 -3.420527e-04 1.393128e-03 -6.322996e-05 -3.842450e-04 -1.645737e-03 1.862613e-03 -1.562339e-03 1.027830e-04 -2.615176e-04 -4.197140e-04 1.373720e-04 -1.041117e-05 -5.785859e-05 -3.536579e-05 2.214038e-04 -8.991463e-05 1.683200e-04 -3.659200e-04 1.688902e-04 -4.141758e-04 1.429574e-04 3.938597e-04
<VARIANCE> 39
 5.483543e+01 6.776463e+01 7.797680e+01 9.985931e+01 8.119214e+01 6.232211e+01 8.438729e+01 6.445840e+01 7.160141e+01 5.538554e+01 6.075543e+01 4.208915e+01 1.953069e+02 2.631704e+00 3.085724e+00 3.101612e+00 4.672972e+00 3.950680e+00 3.618678e+00 4.375962e+00 3.935581e+00 3.800573e+00 3.519429e+00 3.285434e+00 2.726914e+00 3.022288e+00 4.180704e-01 4.548345e-01 4.749576e-01 7.154720e-01 6.625421e-01 6.462558e-01 7.639505e-01 7.261668e-01 6.826125e-01 6.562239e-01 5.926718e-01 5.120473e-01 4.388200e-01
<GCONST> 1.365655e+02
<STATE> 3
<MEAN> 39
 -8.541321e+00 -8.000110e+00 -1.329445e-01 -7.826166e+00 -5.029053e+00 -1.689677e+00 -4.933764e+00 -4.046610e-01 -2.261182e+00 -4.847213e-01 -2.237925e+00 8.850434e-01 6.301070e+01 -1.352675e-03 1.870498e-03 -2.764141e-04 -6.976602e-04 -3.420527e-04 1.393128e-03 -6.322996e-05 -3.842450e-04 -1.645737e-03 1.862613e-03 -1.562339e-03 1.027830e-04 -2.615176e-04 -4.197140e-04 1.373720e-04 -1.041117e-05 -5.785859e-05 -3.536579e-05 2.214038e-04 -8.991463e-05 1.683200e-04 -3.659200e-04 1.688902e-04 -4.141758e-04 1.429574e-04 3.938597e-04
<VARIANCE> 39
 5.483543e+01 6.776463e+01 7.797680e+01 9.985931e+01 8.119214e+01 6.232211e+01 8.438729e+01 6.445840e+01 7.160141e+01 5.538554e+01 6.075543e+01 4.208915e+01 1.953069e+02 2.631704e+00 3.085724e+00 3.101612e+00 4.672972e+00 3.950680e+00 3.618678e+00 4.375962e+00 3.935581e+00 3.800573e+00 3.519429e+00 3.285434e+00 2.726914e+00 3.022288e+00 4.180704e-01 4.548345e-01 4.749576e-01 7.154720e-01 6.625421e-01 6.462558e-01 7.639505e-01 7.261668e-01 6.826125e-01 6.562239e-01 5.926718e-01 5.120473e-01 4.388200e-01
<GCONST> 1.365655e+02
<STATE> 4
<MEAN> 39
 -8.541321e+00 -8.000110e+00 -1.329445e-01 -7.826166e+00 -5.029053e+00 -1.689677e+00 -4.933764e+00 -4.046610e-01 -2.261182e+00 -4.847213e-01 -2.237925e+00 8.850434e-01 6.301070e+01 -1.352675e-03 1.870498e-03 -2.764141e-04 -6.976602e-04 -3.420527e-04 1.393128e-03 -6.322996e-05 -3.842450e-04 -1.645737e-03 1.862613e-03 -1.562339e-03 1.027830e-04 -2.615176e-04 -4.197140e-04 1.373720e-04 -1.041117e-05 -5.785859e-05 -3.536579e-05 2.214038e-04 -8.991463e-05 1.683200e-04 -3.659200e-04 1.688902e-04 -4.141758e-04 1.429574e-04 3.938597e-04
<VARIANCE> 39
 5.483543e+01 6.776463e+01 7.797680e+01 9.985931e+01 8.119214e+01 6.232211e+01 8.438729e+01 6.445840e+01 7.160141e+01 5.538554e+01 6.075543e+01 4.208915e+01 1.953069e+02 2.631704e+00 3.085724e+00 3.101612e+00 4.672972e+00 3.950680e+00 3.618678e+00 4.375962e+00 3.935581e+00 3.800573e+00 3.519429e+00 3.285434e+00 2.726914e+00 3.022288e+00 4.180704e-01 4.548345e-01 4.749576e-01 7.154720e-01 6.625421e-01 6.462558e-01 7.639505e-01 7.261668e-01 6.826125e-01 6.562239e-01 5.926718e-01 5.120473e-01 4.388200e-01
<GCONST> 1.365655e+02
<TRANSP> 5
 0.000000e+00 1.000000e+00 0.000000e+00 0.000000e+00 0.000000e+00
 0.000000e+00 6.000000e-01 4.000000e-01 0.000000e+00 0.000000e+00
 0.000000e+00 0.000000e+00 6.000000e-01 4.000000e-01 0.000000e+00
 0.000000e+00 0.000000e+00 0.000000e+00 7.000000e-01 3.000000e-01
 0.000000e+00 0.000000e+00 0.000000e+00 0.000000e+00 0.000000e+00
<ENDHMM>
~h "in"
<BEGINHMM>
<NUMSTATES> 5
<STATE> 2
<MEAN> 39
 -8.541321e+00 -8.000110e+00 -1.329445e-01 -7.826166e+00 -5.029053e+00 -1.689677e+00 -4.933764e+00 -4.046610e-01 -2.261182e+00 -4.847213e-01 -2.237925e+00 8.850434e-01 6.301070e+01 -1.352675e-03 1.870498e-03 -2.764141e-04 -6.976602e-04 -3.420527e-04 1.393128e-03 -6.322996e-05 -3.842450e-04 -1.645737e-03 1.862613e-03 -1.562339e-03 1.027830e-04 -2.615176e-04 -4.197140e-04 1.373720e-04 -1.041117e-05 -5.785859e-05 -3.536579e-05 2.214038e-04 -8.991463e-05 1.683200e-04 -3.659200e-04 1.688902e-04 -4.141758e-04 1.429574e-04 3.938597e-04
<VARIANCE> 39
 5.483543e+01 6.776463e+01 7.797680e+01 9.985931e+01 8.119214e+01 6.232211e+01 8.438729e+01 6.445840e+01 7.160141e+01 5.538554e+01 6.075543e+01 4.208915e+01 1.953069e+02 2.631704e+00 3.085724e+00 3.101612e+00 4.672972e+00 3.950680e+00 3.618678e+00 4.375962e+00 3.935581e+00 3.800573e+00 3.519429e+00 3.285434e+00 2.726914e+00 3.022288e+00 4.180704e-01 4.548345e-01 4.749576e-01 7.154720e-01 6.625421e-01 6.462558e-01 7.639505e-01 7.261668e-01 6.826125e-01 6.562239e-01 5.926718e-01 5.120473e-01 4.388200e-01
<GCONST> 1.365655e+02
<STATE> 3
<MEAN> 39
 -8.541321e+00 -8.000110e+00 -1.329445e-01 -7.826166e+00 -5.029053e+00 -1.689677e+00 -4.933764e+00 -4.046610e-01 -2.261182e+00 -4.847213e-01 -2.237925e+00 8.850434e-01 6.301070e+01 -1.352675e-03 1.870498e-03 -2.764141e-04 -6.976602e-04 -3.420527e-04 1.393128e-03 -6.322996e-05 -3.842450e-04 -1.645737e-03 1.862613e-03 -1.562339e-03 1.027830e-04 -2.615176e-04 -4.197140e-04 1.373720e-04 -1.041117e-05 -5.785859e-05 -3.536579e-05 2.214038e-04 -8.991463e-05 1.683200e-04 -3.659200e-04 1.688902e-04 -4.141758e-04 1.429574e-04 3.938597e-04
<VARIANCE> 39
 5.483543e+01 6.776463e+01 7.797680e+01 9.985931e+01 8.119214e+01 6.232211e+01 8.438729e+01 6.445840e+01 7.160141e+01 5.538554e+01 6.075543e+01 4.208915e+01 1.953069e+02 2.631704e+00 3.085724e+00 3.101612e+00 4.672972e+00 3.950680e+00 3.618678e+00 4.375962e+00 3.935581e+00 3.800573e+00 3.519429e+00 3.285434e+00 2.726914e+00 3.022288e+00 4.180704e-01 4.548345e-01 4.749576e-01 7.154720e-01 6.625421e-01 6.462558e-01 7.639505e-01 7.261668e-01 6.826125e-01 6.562239e-01 5.926718e-01 5.120473e-01 4.388200e-01
<GCONST> 1.365655e+02
<STATE> 4
<MEAN> 39
 -8.541321e+00 -8.000110e+00 -1.329445e-01 -7.826166e+00 -5.029053e+00 -1.689677e+00 -4.933764e+00 -4.046610e-01 -2.261182e+00 -4.847213e-01 -2.237925e+00 8.850434e-01 6.301070e+01 -1.352675e-03 1.870498e-03 -2.764141e-04 -6.976602e-04 -3.420527e-04 1.393128e-03 -6.322996e-05 -3.842450e-04 -1.645737e-03 1.862613e-03 -1.562339e-03 1.027830e-04 -2.615176e-04 -4.197140e-04 1.373720e-04 -1.041117e-05 -5.785859e-05 -3.536579e-05 2.214038e-04 -8.991463e-05 1.683200e-04 -3.659200e-04 1.688902e-04 -4.141758e-04 1.429574e-04 3.938597e-04
<VARIANCE> 39
 5.483543e+01 6.776463e+01 7.797680e+01 9.985931e+01 8.119214e+01 6.232211e+01 8.438729e+01 6.445840e+01 7.160141e+01 5.538554e+01 6.075543e+01 4.208915e+01 1.953069e+02 2.631704e+00 3.085724e+00 3.101612e+00 4.672972e+00 3.950680e+00 3.618678e+00 4.375962e+00 3.935581e+00 3.800573e+00 3.519429e+00 3.285434e+00 2.726914e+00 3.022288e+00 4.180704e-01 4.548345e-01 4.749576e-01 7.154720e-01 6.625421e-01 6.462558e-01 7.639505e-01 7.261668e-01 6.826125e-01 6.562239e-01 5.926718e-01 5.120473e-01 4.388200e-01
<GCONST> 1.365655e+02
<TRANSP> 5
 0.000000e+00 1.000000e+00 0.000000e+00 0.000000e+00 0.000000e+00
 0.000000e+00 6.000000e-01 4.000000e-01 0.000000e+00 0.000000e+00
 0.000000e+00 0.000000e+00 6.000000e-01 4.000000e-01 0.000000e+00
 0.000000e+00 0.000000e+00 0.000000e+00 7.000000e-01 3.000000e-01
 0.000000e+00 0.000000e+00 0.000000e+00 0.000000e+00 0.000000e+00
<ENDHMM>
~h "u"
<BEGINHMM>
<NUMSTATES> 5
<STATE> 2
<MEAN> 39
 -8.541321e+00 -8.000110e+00 -1.329445e-01 -7.826166e+00 -5.029053e+00 -1.689677e+00 -4.933764e+00 -4.046610e-01 -2.261182e+00 -4.847213e-01 -2.237925e+00 8.850434e-01 6.301070e+01 -1.352675e-03 1.870498e-03 -2.764141e-04 -6.976602e-04 -3.420527e-04 1.393128e-03 -6.322996e-05 -3.842450e-04 -1.645737e-03 1.862613e-03 -1.562339e-03 1.027830e-04 -2.615176e-04 -4.197140e-04 1.373720e-04 -1.041117e-05 -5.785859e-05 -3.536579e-05 2.214038e-04 -8.991463e-05 1.683200e-04 -3.659200e-04 1.688902e-04 -4.141758e-04 1.429574e-04 3.938597e-04
<VARIANCE> 39
 5.483543e+01 6.776463e+01 7.797680e+01 9.985931e+01 8.119214e+01 6.232211e+01 8.438729e+01 6.445840e+01 7.160141e+01 5.538554e+01 6.075543e+01 4.208915e+01 1.953069e+02 2.631704e+00 3.085724e+00 3.101612e+00 4.672972e+00 3.950680e+00 3.618678e+00 4.375962e+00 3.935581e+00 3.800573e+00 3.519429e+00 3.285434e+00 2.726914e+00 3.022288e+00 4.180704e-01 4.548345e-01 4.749576e-01 7.154720e-01 6.625421e-01 6.462558e-01 7.639505e-01 7.261668e-01 6.826125e-01 6.562239e-01 5.926718e-01 5.120473e-01 4.388200e-01
<GCONST> 1.365655e+02
<STATE> 3
<MEAN> 39
 -8.541321e+00 -8.000110e+00 -1.329445e-01 -7.826166e+00 -5.029053e+00 -1.689677e+00 -4.933764e+00 -4.046610e-01 -2.261182e+00 -4.847213e-01 -2.237925e+00 8.850434e-01 6.301070e+01 -1.352675e-03 1.870498e-03 -2.764141e-04 -6.976602e-04 -3.420527e-04 1.393128e-03 -6.322996e-05 -3.842450e-04 -1.645737e-03 1.862613e-03 -1.562339e-03 1.027830e-04 -2.615176e-04 -4.197140e-04 1.373720e-04 -1.041117e-05 -5.785859e-05 -3.536579e-05 2.214038e-04 -8.991463e-05 1.683200e-04 -3.659200e-04 1.688902e-04 -4.141758e-04 1.429574e-04 3.938597e-04
<VARIANCE> 39
 5.483543e+01 6.776463e+01 7.797680e+01 9.985931e+01 8.119214e+01 6.232211e+01 8.438729e+01 6.445840e+01 7.160141e+01 5.538554e+01 6.075543e+01 4.208915e+01 1.953069e+02 2.631704e+00 3.085724e+00 3.101612e+00 4.672972e+00 3.950680e+00 3.618678e+00 4.375962e+00 3.935581e+00 3.800573e+00 3.519429e+00 3.285434e+00 2.726914e+00 3.022288e+00 4.180704e-01 4.548345e-01 4.749576e-01 7.154720e-01 6.625421e-01 6.462558e-01 7.639505e-01 7.261668e-01 6.826125e-01 6.562239e-01 5.926718e-01 5.120473e-01 4.388200e-01
<GCONST> 1.365655e+02
<STATE> 4
<MEAN> 39
 -8.541321e+00 -8.000110e+00 -1.329445e-01 -7.826166e+00 -5.029053e+00 -1.689677e+00 -4.933764e+00 -4.046610e-01 -2.261182e+00 -4.847213e-01 -2.237925e+00 8.850434e-01 6.301070e+01 -1.352675e-03 1.870498e-03 -2.764141e-04 -6.976602e-04 -3.420527e-04 1.393128e-03 -6.322996e-05 -3.842450e-04 -1.645737e-03 1.862613e-03 -1.562339e-03 1.027830e-04 -2.615176e-04 -4.197140e-04 1.373720e-04 -1.041117e-05 -5.785859e-05 -3.536579e-05 2.214038e-04 -8.991463e-05 1.683200e-04 -3.659200e-04 1.688902e-04 -4.141758e-04 1.429574e-04 3.938597e-04
<VARIANCE> 39
 5.483543e+01 6.776463e+01 7.797680e+01 9.985931e+01 8.119214e+01 6.232211e+01 8.438729e+01 6.445840e+01 7.160141e+01 5.538554e+01 6.075543e+01 4.208915e+01 1.953069e+02 2.631704e+00 3.085724e+00 3.101612e+00 4.672972e+00 3.950680e+00 3.618678e+00 4.375962e+00 3.935581e+00 3.800573e+00 3.519429e+00 3.285434e+00 2.726914e+00 3.022288e+00 4.180704e-01 4.548345e-01 4.749576e-01 7.154720e-01 6.625421e-01 6.462558e-01 7.639505e-01 7.261668e-01 6.826125e-01 6.562239e-01 5.926718e-01 5.120473e-01 4.388200e-01
<GCONST> 1.365655e+02
<TRANSP> 5
 0.000000e+00 1.000000e+00 0.000000e+00 0.000000e+00 0.000000e+00
 0.000000e+00 6.000000e-01 4.000000e-01 0.000000e+00 0.000000e+00
 0.000000e+00 0.000000e+00 6.000000e-01 4.000000e-01 0.000000e+00
 0.000000e+00 0.000000e+00 0.000000e+00 7.000000e-01 3.000000e-01
 0.000000e+00 0.000000e+00 0.000000e+00 0.000000e+00 0.000000e+00
<ENDHMM>
~h "ch"
<BEGINHMM>
<NUMSTATES> 5
<STATE> 2
<MEAN> 39
 -8.541321e+00 -8.000110e+00 -1.329445e-01 -7.826166e+00 -5.029053e+00 -1.689677e+00 -4.933764e+00 -4.046610e-01 -2.261182e+00 -4.847213e-01 -2.237925e+00 8.850434e-01 6.301070e+01 -1.352675e-03 1.870498e-03 -2.764141e-04 -6.976602e-04 -3.420527e-04 1.393128e-03 -6.322996e-05 -3.842450e-04 -1.645737e-03 1.862613e-03 -1.562339e-03 1.027830e-04 -2.615176e-04 -4.197140e-04 1.373720e-04 -1.041117e-05 -5.785859e-05 -3.536579e-05 2.214038e-04 -8.991463e-05 1.683200e-04 -3.659200e-04 1.688902e-04 -4.141758e-04 1.429574e-04 3.938597e-04
<VARIANCE> 39
 5.483543e+01 6.776463e+01 7.797680e+01 9.985931e+01 8.119214e+01 6.232211e+01 8.438729e+01 6.445840e+01 7.160141e+01 5.538554e+01 6.075543e+01 4.208915e+01 1.953069e+02 2.631704e+00 3.085724e+00 3.101612e+00 4.672972e+00 3.950680e+00 3.618678e+00 4.375962e+00 3.935581e+00 3.800573e+00 3.519429e+00 3.285434e+00 2.726914e+00 3.022288e+00 4.180704e-01 4.548345e-01 4.749576e-01 7.154720e-01 6.625421e-01 6.462558e-01 7.639505e-01 7.261668e-01 6.826125e-01 6.562239e-01 5.926718e-01 5.120473e-01 4.388200e-01
<GCONST> 1.365655e+02
<STATE> 3
<MEAN> 39
 -8.541321e+00 -8.000110e+00 -1.329445e-01 -7.826166e+00 -5.029053e+00 -1.689677e+00 -4.933764e+00 -4.046610e-01 -2.261182e+00 -4.847213e-01 -2.237925e+00 8.850434e-01 6.301070e+01 -1.352675e-03 1.870498e-03 -2.764141e-04 -6.976602e-04 -3.420527e-04 1.393128e-03 -6.322996e-05 -3.842450e-04 -1.645737e-03 1.862613e-03 -1.562339e-03 1.027830e-04 -2.615176e-04 -4.197140e-04 1.373720e-04 -1.041117e-05 -5.785859e-05 -3.536579e-05 2.214038e-04 -8.991463e-05 1.683200e-04 -3.659200e-04 1.688902e-04 -4.141758e-04 1.429574e-04 3.938597e-04
<VARIANCE> 39
 5.483543e+01 6.776463e+01 7.797680e+01 9.985931e+01 8.119214e+01 6.232211e+01 8.438729e+01 6.445840e+01 7.160141e+01 5.538554e+01 6.075543e+01 4.208915e+01 1.953069e+02 2.631704e+00 3.085724e+00 3.101612e+00 4.672972e+00 3.950680e+00 3.618678e+00 4.375962e+00 3.935581e+00 3.800573e+00 3.519429e+00 3.285434e+00 2.726914e+00 3.022288e+00 4.180704e-01 4.548345e-01 4.749576e-01 7.154720e-01 6.625421e-01 6.462558e-01 7.639505e-01 7.261668e-01 6.826125e-01 6.562239e-01 5.926718e-01 5.120473e-01 4.388200e-01
<GCONST> 1.365655e+02
<STATE> 4
<MEAN> 39
 -8.541321e+00 -8.000110e+00 -1.329445e-01 -7.826166e+00 -5.029053e+00 -1.689677e+00 -4.933764e+00 -4.046610e-01 -2.261182e+00 -4.847213e-01 -2.237925e+00 8.850434e-01 6.301070e+01 -1.352675e-03 1.870498e-03 -2.764141e-04 -6.976602e-04 -3.420527e-04 1.393128e-03 -6.322996e-05 -3.842450e-04 -1.645737e-03 1.862613e-03 -1.562339e-03 1.027830e-04 -2.615176e-04 -4.197140e-04 1.373720e-04 -1.041117e-05 -5.785859e-05 -3.536579e-05 2.214038e-04 -8.991463e-05 1.683200e-04 -3.659200e-04 1.688902e-04 -4.141758e-04 1.429574e-04 3.938597e-04
<VARIANCE> 39
 5.483543e+01 6.776463e+01 7.797680e+01 9.985931e+01 8.119214e+01 6.232211e+01 8.438729e+01 6.445840e+01 7.160141e+01 5.538554e+01 6.075543e+01 4.208915e+01 1.953069e+02 2.631704e+00 3.085724e+00 3.101612e+00 4.672972e+00 3.950680e+00 3.618678e+00 4.375962e+00 3.935581e+00 3.800573e+00 3.519429e+00 3.285434e+00 2.726914e+00 3.022288e+00 4.180704e-01 4.548345e-01 4.749576e-01 7.154720e-01 6.625421e-01 6.462558e-01 7.639505e-01 7.261668e-01 6.826125e-01 6.562239e-01 5.926718e-01 5.120473e-01 4.388200e-01
<GCONST> 1.365655e+02
<TRANSP> 5
 0.000000e+00 1.000000e+00 0.000000e+00 0.000000e+00 0.000000e+00
 0.000000e+00 6.000000e-01 4.000000e-01 0.000000e+00 0.000000e+00
 0.000000e+00 0.000000e+00 6.000000e-01 4.000000e-01 0.000000e+00
 0.000000e+00 0.000000e+00 0.000000e+00 7.000000e-01 3.000000e-01
 0.000000e+00 0.000000e+00 0.000000e+00 0.000000e+00 0.000000e+00
<ENDHMM>
~h "j"
<BEGINHMM>
<NUMSTATES> 5
<STATE> 2
<MEAN> 39
 -8.541321e+00 -8.000110e+00 -1.329445e-01 -7.826166e+00 -5.029053e+00 -1.689677e+00 -4.933764e+00 -4.046610e-01 -2.261182e+00 -4.847213e-01 -2.237925e+00 8.850434e-01 6.301070e+01 -1.352675e-03 1.870498e-03 -2.764141e-04 -6.976602e-04 -3.420527e-04 1.393128e-03 -6.322996e-05 -3.842450e-04 -1.645737e-03 1.862613e-03 -1.562339e-03 1.027830e-04 -2.615176e-04 -4.197140e-04 1.373720e-04 -1.041117e-05 -5.785859e-05 -3.536579e-05 2.214038e-04 -8.991463e-05 1.683200e-04 -3.659200e-04 1.688902e-04 -4.141758e-04 1.429574e-04 3.938597e-04
<VARIANCE> 39
 5.483543e+01 6.776463e+01 7.797680e+01 9.985931e+01 8.119214e+01 6.232211e+01 8.438729e+01 6.445840e+01 7.160141e+01 5.538554e+01 6.075543e+01 4.208915e+01 1.953069e+02 2.631704e+00 3.085724e+00 3.101612e+00 4.672972e+00 3.950680e+00 3.618678e+00 4.375962e+00 3.935581e+00 3.800573e+00 3.519429e+00 3.285434e+00 2.726914e+00 3.022288e+00 4.180704e-01 4.548345e-01 4.749576e-01 7.154720e-01 6.625421e-01 6.462558e-01 7.639505e-01 7.261668e-01 6.826125e-01 6.562239e-01 5.926718e-01 5.120473e-01 4.388200e-01
<GCONST> 1.365655e+02
<STATE> 3
<MEAN> 39
 -8.541321e+00 -8.000110e+00 -1.329445e-01 -7.826166e+00 -5.029053e+00 -1.689677e+00 -4.933764e+00 -4.046610e-01 -2.261182e+00 -4.847213e-01 -2.237925e+00 8.850434e-01 6.301070e+01 -1.352675e-03 1.870498e-03 -2.764141e-04 -6.976602e-04 -3.420527e-04 1.393128e-03 -6.322996e-05 -3.842450e-04 -1.645737e-03 1.862613e-03 -1.562339e-03 1.027830e-04 -2.615176e-04 -4.197140e-04 1.373720e-04 -1.041117e-05 -5.785859e-05 -3.536579e-05 2.214038e-04 -8.991463e-05 1.683200e-04 -3.659200e-04 1.688902e-04 -4.141758e-04 1.429574e-04 3.938597e-04
<VARIANCE> 39
 5.483543e+01 6.776463e+01 7.797680e+01 9.985931e+01 8.119214e+01 6.232211e+01 8.438729e+01 6.445840e+01 7.160141e+01 5.538554e+01 6.075543e+01 4.208915e+01 1.953069e+02 2.631704e+00 3.085724e+00 3.101612e+00 4.672972e+00 3.950680e+00 3.618678e+00 4.375962e+00 3.935581e+00 3.800573e+00 3.519429e+00 3.285434e+00 2.726914e+00 3.022288e+00 4.180704e-01 4.548345e-01 4.749576e-01 7.154720e-01 6.625421e-01 6.462558e-01 7.639505e-01 7.261668e-01 6.826125e-01 6.562239e-01 5.926718e-01 5.120473e-01 4.388200e-01
<GCONST> 1.365655e+02
<STATE> 4
<MEAN> 39
 -8.541321e+00 -8.000110e+00 -1.329445e-01 -7.826166e+00 -5.029053e+00 -1.689677e+00 -4.933764e+00 -4.046610e-01 -2.261182e+00 -4.847213e-01 -2.237925e+00 8.850434e-01 6.301070e+01 -1.352675e-03 1.870498e-03 -2.764141e-04 -6.976602e-04 -3.420527e-04 1.393128e-03 -6.322996e-05 -3.842450e-04 -1.645737e-03 1.862613e-03 -1.562339e-03 1.027830e-04 -2.615176e-04 -4.197140e-04 1.373720e-04 -1.041117e-05 -5.785859e-05 -3.536579e-05 2.214038e-04 -8.991463e-05 1.683200e-04 -3.659200e-04 1.688902e-04 -4.141758e-04 1.429574e-04 3.938597e-04
<VARIANCE> 39
 5.483543e+01 6.776463e+01 7.797680e+01 9.985931e+01 8.119214e+01 6.232211e+01 8.438729e+01 6.445840e+01 7.160141e+01 5.538554e+01 6.075543e+01 4.208915e+01 1.953069e+02 2.631704e+00 3.085724e+00 3.101612e+00 4.672972e+00 3.950680e+00 3.618678e+00 4.375962e+00 3.935581e+00 3.800573e+00 3.519429e+00 3.285434e+00 2.726914e+00 3.022288e+00 4.180704e-01 4.548345e-01 4.749576e-01 7.154720e-01 6.625421e-01 6.462558e-01 7.639505e-01 7.261668e-01 6.826125e-01 6.562239e-01 5.926718e-01 5.120473e-01 4.388200e-01
<GCONST> 1.365655e+02
<TRANSP> 5
 0.000000e+00 1.000000e+00 0.000000e+00 0.000000e+00 0.000000e+00
 0.000000e+00 6.000000e-01 4.000000e-01 0.000000e+00 0.000000e+00
 0.000000e+00 0.000000e+00 6.000000e-01 4.000000e-01 0.000000e+00
 0.000000e+00 0.000000e+00 0.000000e+00 7.000000e-01 3.000000e-01
 0.000000e+00 0.000000e+00 0.000000e+00 0.000000e+00 0.000000e+00
<ENDHMM>
~h "v"
<BEGINHMM>
<NUMSTATES> 5
<STATE> 2
<MEAN> 39
 -8.541321e+00 -8.000110e+00 -1.329445e-01 -7.826166e+00 -5.029053e+00 -1.689677e+00 -4.933764e+00 -4.046610e-01 -2.261182e+00 -4.847213e-01 -2.237925e+00 8.850434e-01 6.301070e+01 -1.352675e-03 1.870498e-03 -2.764141e-04 -6.976602e-04 -3.420527e-04 1.393128e-03 -6.322996e-05 -3.842450e-04 -1.645737e-03 1.862613e-03 -1.562339e-03 1.027830e-04 -2.615176e-04 -4.197140e-04 1.373720e-04 -1.041117e-05 -5.785859e-05 -3.536579e-05 2.214038e-04 -8.991463e-05 1.683200e-04 -3.659200e-04 1.688902e-04 -4.141758e-04 1.429574e-04 3.938597e-04
<VARIANCE> 39
 5.483543e+01 6.776463e+01 7.797680e+01 9.985931e+01 8.119214e+01 6.232211e+01 8.438729e+01 6.445840e+01 7.160141e+01 5.538554e+01 6.075543e+01 4.208915e+01 1.953069e+02 2.631704e+00 3.085724e+00 3.101612e+00 4.672972e+00 3.950680e+00 3.618678e+00 4.375962e+00 3.935581e+00 3.800573e+00 3.519429e+00 3.285434e+00 2.726914e+00 3.022288e+00 4.180704e-01 4.548345e-01 4.749576e-01 7.154720e-01 6.625421e-01 6.462558e-01 7.639505e-01 7.261668e-01 6.826125e-01 6.562239e-01 5.926718e-01 5.120473e-01 4.388200e-01
<GCONST> 1.365655e+02
<STATE> 3
<MEAN> 39
 -8.541321e+00 -8.000110e+00 -1.329445e-01 -7.826166e+00 -5.029053e+00 -1.689677e+00 -4.933764e+00 -4.046610e-01 -2.261182e+00 -4.847213e-01 -2.237925e+00 8.850434e-01 6.301070e+01 -1.352675e-03 1.870498e-03 -2.764141e-04 -6.976602e-04 -3.420527e-04 1.393128e-03 -6.322996e-05 -3.842450e-04 -1.645737e-03 1.862613e-03 -1.562339e-03 1.027830e-04 -2.615176e-04 -4.197140e-04 1.373720e-04 -1.041117e-05 -5.785859e-05 -3.536579e-05 2.214038e-04 -8.991463e-05 1.683200e-04 -3.659200e-04 1.688902e-04 -4.141758e-04 1.429574e-04 3.938597e-04
<VARIANCE> 39
 5.483543e+01 6.776463e+01 7.797680e+01 9.985931e+01 8.119214e+01 6.232211e+01 8.438729e+01 6.445840e+01 7.160141e+01 5.538554e+01 6.075543e+01 4.208915e+01 1.953069e+02 2.631704e+00 3.085724e+00 3.101612e+00 4.672972e+00 3.950680e+00 3.618678e+00 4.375962e+00 3.935581e+00 3.800573e+00 3.519429e+00 3.285434e+00 2.726914e+00 3.022288e+00 4.180704e-01 4.548345e-01 4.749576e-01 7.154720e-01 6.625421e-01 6.462558e-01 7.639505e-01 7.261668e-01 6.826125e-01 6.562239e-01 5.926718e-01 5.120473e-01 4.388200e-01
<GCONST> 1.365655e+02
<STATE> 4
<MEAN> 39
 -8.541321e+00 -8.000110e+00 -1.329445e-01 -7.826166e+00 -5.029053e+00 -1.689677e+00 -4.933764e+00 -4.046610e-01 -2.261182e+00 -4.847213e-01 -2.237925e+00 8.850434e-01 6.301070e+01 -1.352675e-03 1.870498e-03 -2.764141e-04 -6.976602e-04 -3.420527e-04 1.393128e-03 -6.322996e-05 -3.842450e-04 -1.645737e-03 1.862613e-03 -1.562339e-03 1.027830e-04 -2.615176e-04 -4.197140e-04 1.373720e-04 -1.041117e-05 -5.785859e-05 -3.536579e-05 2.214038e-04 -8.991463e-05 1.683200e-04 -3.659200e-04 1.688902e-04 -4.141758e-04 1.429574e-04 3.938597e-04
<VARIANCE> 39
 5.483543e+01 6.776463e+01 7.797680e+01 9.985931e+01 8.119214e+01 6.232211e+01 8.438729e+01 6.445840e+01 7.160141e+01 5.538554e+01 6.075543e+01 4.208915e+01 1.953069e+02 2.631704e+00 3.085724e+00 3.101612e+00 4.672972e+00 3.950680e+00 3.618678e+00 4.375962e+00 3.935581e+00 3.800573e+00 3.519429e+00 3.285434e+00 2.726914e+00 3.022288e+00 4.180704e-01 4.548345e-01 4.749576e-01 7.154720e-01 6.625421e-01 6.462558e-01 7.639505e-01 7.261668e-01 6.826125e-01 6.562239e-01 5.926718e-01 5.120473e-01 4.388200e-01
<GCONST> 1.365655e+02
<TRANSP> 5
 0.000000e+00 1.000000e+00 0.000000e+00 0.000000e+00 0.000000e+00
 0.000000e+00 6.000000e-01 4.000000e-01 0.000000e+00 0.000000e+00
 0.000000e+00 0.000000e+00 6.000000e-01 4.000000e-01 0.000000e+00
 0.000000e+00 0.000000e+00 0.000000e+00 7.000000e-01 3.000000e-01
 0.000000e+00 0.000000e+00 0.000000e+00 0.000000e+00 0.000000e+00
<ENDHMM>
~h "iu"
<BEGINHMM>
<NUMSTATES> 5
<STATE> 2
<MEAN> 39
 -8.541321e+00 -8.000110e+00 -1.329445e-01 -7.826166e+00 -5.029053e+00 -1.689677e+00 -4.933764e+00 -4.046610e-01 -2.261182e+00 -4.847213e-01 -2.237925e+00 8.850434e-01 6.301070e+01 -1.352675e-03 1.870498e-03 -2.764141e-04 -6.976602e-04 -3.420527e-04 1.393128e-03 -6.322996e-05 -3.842450e-04 -1.645737e-03 1.862613e-03 -1.562339e-03 1.027830e-04 -2.615176e-04 -4.197140e-04 1.373720e-04 -1.041117e-05 -5.785859e-05 -3.536579e-05 2.214038e-04 -8.991463e-05 1.683200e-04 -3.659200e-04 1.688902e-04 -4.141758e-04 1.429574e-04 3.938597e-04
<VARIANCE> 39
 5.483543e+01 6.776463e+01 7.797680e+01 9.985931e+01 8.119214e+01 6.232211e+01 8.438729e+01 6.445840e+01 7.160141e+01 5.538554e+01 6.075543e+01 4.208915e+01 1.953069e+02 2.631704e+00 3.085724e+00 3.101612e+00 4.672972e+00 3.950680e+00 3.618678e+00 4.375962e+00 3.935581e+00 3.800573e+00 3.519429e+00 3.285434e+00 2.726914e+00 3.022288e+00 4.180704e-01 4.548345e-01 4.749576e-01 7.154720e-01 6.625421e-01 6.462558e-01 7.639505e-01 7.261668e-01 6.826125e-01 6.562239e-01 5.926718e-01 5.120473e-01 4.388200e-01
<GCONST> 1.365655e+02
<STATE> 3
<MEAN> 39
 -8.541321e+00 -8.000110e+00 -1.329445e-01 -7.826166e+00 -5.029053e+00 -1.689677e+00 -4.933764e+00 -4.046610e-01 -2.261182e+00 -4.847213e-01 -2.237925e+00 8.850434e-01 6.301070e+01 -1.352675e-03 1.870498e-03 -2.764141e-04 -6.976602e-04 -3.420527e-04 1.393128e-03 -6.322996e-05 -3.842450e-04 -1.645737e-03 1.862613e-03 -1.562339e-03 1.027830e-04 -2.615176e-04 -4.197140e-04 1.373720e-04 -1.041117e-05 -5.785859e-05 -3.536579e-05 2.214038e-04 -8.991463e-05 1.683200e-04 -3.659200e-04 1.688902e-04 -4.141758e-04 1.429574e-04 3.938597e-04
<VARIANCE> 39
 5.483543e+01 6.776463e+01 7.797680e+01 9.985931e+01 8.119214e+01 6.232211e+01 8.438729e+01 6.445840e+01 7.160141e+01 5.538554e+01 6.075543e+01 4.208915e+01 1.953069e+02 2.631704e+00 3.085724e+00 3.101612e+00 4.672972e+00 3.950680e+00 3.618678e+00 4.375962e+00 3.935581e+00 3.800573e+00 3.519429e+00 3.285434e+00 2.726914e+00 3.022288e+00 4.180704e-01 4.548345e-01 4.749576e-01 7.154720e-01 6.625421e-01 6.462558e-01 7.639505e-01 7.261668e-01 6.826125e-01 6.562239e-01 5.926718e-01 5.120473e-01 4.388200e-01
<GCONST> 1.365655e+02
<STATE> 4
<MEAN> 39
 -8.541321e+00 -8.000110e+00 -1.329445e-01 -7.826166e+00 -5.029053e+00 -1.689677e+00 -4.933764e+00 -4.046610e-01 -2.261182e+00 -4.847213e-01 -2.237925e+00 8.850434e-01 6.301070e+01 -1.352675e-03 1.870498e-03 -2.764141e-04 -6.976602e-04 -3.420527e-04 1.393128e-03 -6.322996e-05 -3.842450e-04 -1.645737e-03 1.862613e-03 -1.562339e-03 1.027830e-04 -2.615176e-04 -4.197140e-04 1.373720e-04 -1.041117e-05 -5.785859e-05 -3.536579e-05 2.214038e-04 -8.991463e-05 1.683200e-04 -3.659200e-04 1.688902e-04 -4.141758e-04 1.429574e-04 3.938597e-04
<VARIANCE> 39
 5.483543e+01 6.776463e+01 7.797680e+01 9.985931e+01 8.119214e+01 6.232211e+01 8.438729e+01 6.445840e+01 7.160141e+01 5.538554e+01 6.075543e+01 4.208915e+01 1.953069e+02 2.631704e+00 3.085724e+00 3.101612e+00 4.672972e+00 3.950680e+00 3.618678e+00 4.375962e+00 3.935581e+00 3.800573e+00 3.519429e+00 3.285434e+00 2.726914e+00 3.022288e+00 4.180704e-01 4.548345e-01 4.749576e-01 7.154720e-01 6.625421e-01 6.462558e-01 7.639505e-01 7.261668e-01 6.826125e-01 6.562239e-01 5.926718e-01 5.120473e-01 4.388200e-01
<GCONST> 1.365655e+02
<TRANSP> 5
 0.000000e+00 1.000000e+00 0.000000e+00 0.000000e+00 0.000000e+00
 0.000000e+00 6.000000e-01 4.000000e-01 0.000000e+00 0.000000e+00
 0.000000e+00 0.000000e+00 6.000000e-01 4.000000e-01 0.000000e+00
 0.000000e+00 0.000000e+00 0.000000e+00 7.000000e-01 3.000000e-01
 0.000000e+00 0.000000e+00 0.000000e+00 0.000000e+00 0.000000e+00
<ENDHMM>
~h "ee"
<BEGINHMM>
<NUMSTATES> 5
<STATE> 2
<MEAN> 39
 -8.541321e+00 -8.000110e+00 -1.329445e-01 -7.826166e+00 -5.029053e+00 -1.689677e+00 -4.933764e+00 -4.046610e-01 -2.261182e+00 -4.847213e-01 -2.237925e+00 8.850434e-01 6.301070e+01 -1.352675e-03 1.870498e-03 -2.764141e-04 -6.976602e-04 -3.420527e-04 1.393128e-03 -6.322996e-05 -3.842450e-04 -1.645737e-03 1.862613e-03 -1.562339e-03 1.027830e-04 -2.615176e-04 -4.197140e-04 1.373720e-04 -1.041117e-05 -5.785859e-05 -3.536579e-05 2.214038e-04 -8.991463e-05 1.683200e-04 -3.659200e-04 1.688902e-04 -4.141758e-04 1.429574e-04 3.938597e-04
