~o
<STREAMINFO> 1 39
<VECSIZE> 39<NULLD><MFCC_D_A_0><DIAGC>
~s "silst"
<MEAN> 39
 -9.156515e+00 -7.640240e+00 -5.993409e-01 -5.022242e+00 -3.474241e+00 -4.213238e-02 -2.194430e+00 7.793231e-01 6.707725e-02 4.443760e-01 -5.310020e-01 1.364604e+00 5.822003e+01 -8.111749e-02 -1.368876e-01 -1.959167e-02 4.828599e-02 1.013100e-01 3.760801e-02 1.042368e-01 1.022741e-01 2.709849e-02 2.547009e-02 8.511752e-02 5.125100e-02 1.197081e-02 7.280197e-03 1.005548e-04 -5.424300e-03 9.163639e-03 -3.434368e-05 8.494881e-03 2.029398e-02 1.989609e-02 4.220955e-02 3.578430e-02 3.456444e-02 2.934547e-02 -5.269291e-02
<VARIANCE> 39
 5.118414e+01 5.738240e+01 6.358315e+01 8.376669e+01 6.856653e+01 5.576396e+01 6.942077e+01 5.514242e+01 6.040519e+01 4.929704e+01 4.834777e+01 3.512096e+01 1.142699e+02 2.569402e+00 2.769716e+00 2.816426e+00 3.744166e+00 3.380458e+00 3.223907e+00 3.829467e+00 3.532195e+00 3.624301e+00 3.383425e+00 3.057187e+00 2.522750e+00 3.513395e+00 4.282569e-01 4.482313e-01 4.645475e-01 5.873031e-01 5.734472e-01 5.825773e-01 6.725812e-01 6.551860e-01 6.415386e-01 6.120996e-01 5.497666e-01 4.705298e-01 5.452368e-01
<GCONST> 1.322751e+02
~h "a"
<BEGINHMM>
<NUMSTATES> 5
<STATE> 2
<MEAN> 39
 -6.667301e+00 -2.076909e+01 -9.092957e+00 -6.143917e+00 8.693255e-01 7.824310e-01 -5.876705e+00 -3.069366e+00 -5.561542e+00 -6.799355e+00 -4.833924e+00 1.025848e+00 7.453848e+01 -6.823102e-02 -1.871006e+00 -1.184793e+00 3.623279e-01 8.737406e-01 2.126774e-01 -1.294896e+00 -1.219420e+00 -4.249418e-01 -5.457313e-01 -2.243301e-01 -3.879335e-01 9.963839e-01 -1.535364e-01 6.227478e-01 5.500265e-01 3.834890e-01 -1.056509e-01 -1.001688e-01 1.714536e-01 2.041563e-01 4.191290e-01 4.110391e-01 2.543724e-01 -4.569742e-02 -4.753107e-01
<VARIANCE> 39
 3.029739e+01 4.174052e+01 3.675992e+01 5.268064e+01 4.573349e+01 5.438202e+01 6.814070e+01 4.706625e+01 5.069300e+01 4.779523e+01 5.449682e+01 4.948021e+01 6.220135e+01 2.231058e+00 3.074626e+00 3.228520e+00 4.359204e+00 4.289724e+00 3.736361e+00 4.341619e+00 3.788128e+00 3.733421e+00 3.572622e+00 3.565251e+00 3.206940e+00 2.375872e+00 4.286410e-01 5.336682e-01 5.633523e-01 7.479803e-01 6.708484e-01 6.324999e-01 8.359671e-01 7.858514e-01 6.887106e-01 6.827998e-01 7.017393e-01 5.890885e-01 5.011783e-01
<GCONST> 1.321948e+02
<STATE> 3
<MEAN> 39
 -5.971340e+00 -2.345719e+01 -1.073598e+01 -4.219934e+00 2.587088e+00 1.240155e+00 -8.974142e+00 -5.309938e+00 -4.485624e+00 -7.121953e+00 -5.456805e+00 -8.019286e-01 7.574426e+01 8.329210e-02 1.277243e-01 3.619637e-02 -9.987716e-02 -3.305579e-01 -1.256636e-01 1.972873e-01 2.064539e-01 -2.760217e-03 -1.064437e-01 -5.312470e-02 3.575467e-02 -2.252028e-01 5.704783e-02 3.679454e-01 1.760387e-01 -1.937461e-01 -3.114099e-01 -1.107474e-01 2.593403e-01 2.532345e-01 -3.020144e-03 3.298516e-02 -5.446562e-03 7.952944e-02 -2.140426e-01
<VARIANCE> 39
 2.536234e+01 2.993237e+01 2.386666e+01 5.041343e+01 4.001722e+01 5.888887e+01 6.104959e+01 3.809814e+01 4.114927e+01 4.162934e+01 3.968089e+01 4.403376e+01 4.291421e+01 6.476116e-01 1.134942e+00 1.092884e+00 2.045075e+00 2.111818e+00 1.659113e+00 2.340209e+00 2.031187e+00 1.923679e+00 1.786920e+00 1.670527e+00 1.615336e+00 7.445498e-01 1.342977e-01 2.357523e-01 2.389565e-01 3.459348e-01 3.506545e-01 3.254566e-01 3.795823e-01 3.687730e-01 3.810651e-01 3.716545e-01 3.269903e-01 3.090971e-01 1.405338e-01
<GCONST> 1.085403e+02
<STATE> 4
<MEAN> 39
 -9.528595e+00 -1.423798e+01 -4.732873e+00 -2.210617e+00 6.248577e-01 8.793639e-01 -9.221363e-01 2.423464e+00 7.685041e-02 -1.814962e+00 5.396451e-01 3.414422e+00 6.105877e+01 3.953517e-02 7.858338e-01 4.510815e-01 -2.788860e-01 -7.213684e-01 -3.231342e-01 3.581441e-01 3.837401e-01 1.266785e-01 2.564275e-01 8.491670e-02 5.162812e-02 -5.142359e-01 -9.355784e-03 1.976862e-01 1.369704e-01 1.047990e-01 3.453448e-02 -3.447837e-02 -1.236179e-01 -1.008989e-01 6.923251e-02 1.355162e-01 4.469271e-02 -5.384941e-02 -1.195793e-01
<VARIANCE> 39
 2.876554e+01 6.443607e+01 4.039490e+01 4.958265e+01 5.091501e+01 4.092513e+01 5.916585e+01 5.329368e+01 6.125222e+01 6.574919e+01 5.945292e+01 3.761460e+01 1.481179e+02 1.127310e+00 3.048033e+00 1.810456e+00 2.595391e+00 3.516979e+00 2.771226e+00 3.198719e+00 3.069478e+00 2.991555e+00 3.152709e+00 2.623936e+00 2.334048e+00 2.705985e+00 1.969391e-01 4.314960e-01 3.223826e-01 5.121406e-01 5.305905e-01 4.653327e-01 5.721567e-01 5.487415e-01 5.765483e-01 6.308424e-01 5.073749e-01 4.236110e-01 4.190144e-01
<GCONST> 1.256661e+02
<TRANSP> 5
 0.000000e+00 1.000000e+00 0.000000e+00 0.000000e+00 0.000000e+00
 0.000000e+00 6.361176e-01 3.638823e-01 0.000000e+00 0.000000e+00
 0.000000e+00 0.000000e+00 8.324330e-01 1.675670e-01 0.000000e+00
 0.000000e+00 0.000000e+00 0.000000e+00 8.280742e-01 1.719258e-01
 0.000000e+00 0.000000e+00 0.000000e+00 0.000000e+00 0.000000e+00
<ENDHMM>
~h "b"
<BEGINHMM>
<NUMSTATES> 5
<STATE> 2
<MEAN> 39
 -2.974919e+00 -6.225407e+00 6.134466e-01 -5.254623e+00 -4.957556e+00 -2.867122e+00 -7.023311e+00 -3.161861e+00 -2.891500e+00 -1.450877e+00 -3.580928e+00 -4.995867e-01 5.977444e+01 -2.849753e-01 1.262049e+00 6.476629e-01 2.257982e+00 1.013080e+00 7.253312e-01 9.708678e-01 -1.200285e-01 7.917544e-01 2.362035e-01 5.219470e-01 -1.237808e-01 -2.503731e+00 -3.760715e-01 -2.676208e-01 -9.582826e-02 -2.885930e-01 -5.808212e-02 1.001750e-01 2.253645e-01 2.774676e-01 4.493938e-02 5.937034e-02 7.202981e-02 1.163994e-01 4.403918e-01
<VARIANCE> 39
 3.410764e+01 4.765023e+01 4.576179e+01 6.260889e+01 5.268688e+01 5.893166e+01 6.903098e+01 6.240704e+01 5.628944e+01 4.956492e+01 5.234977e+01 4.993804e+01 7.563252e+01 2.732884e+00 3.764490e+00 4.025867e+00 6.016697e+00 4.341778e+00 4.134881e+00 5.432106e+00 5.682425e+00 4.668398e+00 4.525082e+00 3.961603e+00 3.715559e+00 5.508614e+00 4.425588e-01 7.358361e-01 6.809151e-01 1.052812e+00 7.978903e-01 7.633986e-01 9.298912e-01 1.089945e+00 8.745182e-01 9.384231e-01 7.578283e-01 7.348749e-01 1.168584e+00
<GCONST> 1.402857e+02
<STATE> 3
<MEAN> 39
 -6.726067e+00 -4.059402e+00 1.385124e+00 -2.724185e-01 -2.163235e+00 6.217597e-01 -1.361545e+00 -5.394275e-01 1.173575e+00 9.354976e-01 -4.456928e-01 4.961931e-01 5.386620e+01 -5.022246e-01 -6.321782e-01 8.215173e-02 -3.490975e-02 4.667798e-04 1.507151e-01 7.561417e-01 8.957332e-01 5.988185e-01 4.929758e-01 5.345457e-01 4.709385e-01 1.465257e+00 3.747370e-01 -4.671470e-01 -1.337324e-01 -1.034912e+00 -4.486582e-01 -3.318567e-01 -5.573892e-01 -1.191817e-01 -4.936035e-01 -1.871181e-01 -3.793077e-01 3.418257e-03 1.462680e+00
<VARIANCE> 39
 2.933631e+01 3.342175e+01 3.014119e+01 2.844524e+01 3.054842e+01 3.527767e+01 5.014292e+01 4.809698e+01 4.923924e+01 4.446804e+01 4.258290e+01 3.599813e+01 4.501669e+01 3.205330e+00 3.523315e+00 4.656789e+00 5.084007e+00 3.756351e+00 3.948519e+00 4.893736e+00 5.187754e+00 5.222429e+00 4.780666e+00 4.440767e+00 3.612261e+00 1.165965e+01 6.152073e-01 8.663645e-01 9.975427e-01 9.984779e-01 8.128577e-01 7.633868e-01 9.556669e-01 1.188997e+00 1.040125e+00 1.018710e+00 9.081662e-01 7.701075e-01 1.204815e+00
<GCONST> 1.377957e+02
<STATE> 4
<MEAN> 39
 -4.964878e+00 -8.044296e+00 2.057886e+00 -5.781259e+00 -5.111452e+00 -1.661906e+00 -3.556024e+00 -4.462922e-02 -8.314186e-01 4.476396e-01 -2.025045e+00 1.252462e+00 6.804056e+01 5.962301e-01 -1.363693e+00 -2.681777e-01 -3.144735e+00 -1.273435e+00 -6.550317e-01 -1.406386e+00 -4.911608e-01 -1.580764e+00 -6.718684e-01 -1.331370e+00 4.263706e-02 3.806273e+00 -1.581771e-01 5.994107e-02 -3.025404e-01 -4.422655e-01 -5.740229e-02 3.787189e-02 -3.077129e-01 -2.822992e-01 -3.680737e-01 -1.970457e-01 -2.432518e-01 -8.404876e-02 -6.159572e-01
<VARIANCE> 39
 4.024994e+01 4.955546e+01 8.931467e+01 7.667542e+01 5.283238e+01 4.515720e+01 5.686657e+01 5.047477e+01 4.796136e+01 3.955772e+01 4.487838e+01 3.974065e+01 8.542274e+01 4.506317e+00 6.853675e+00 9.891334e+00 8.519117e+00 6.738597e+00 5.366535e+00 7.558465e+00 7.570874e+00 6.329296e+00 5.650335e+00 5.139666e+00 4.552426e+00 8.325483e+00 7.954519e-01 8.642237e-01 1.182799e+00 1.840820e+00 9.461004e-01 8.180413e-01 1.221352e+00 1.147228e+00 1.099661e+00 9.416204e-01 9.838694e-01 7.682009e-01 1.625806e+00
<GCONST> 1.484021e+02
<TRANSP> 5
 0.000000e+00 1.000000e+00 0.000000e+00 0.000000e+00 0.000000e+00
 0.000000e+00 6.593970e-01 3.406030e-01 0.000000e+00 0.000000e+00
 0.000000e+00 0.000000e+00 6.780709e-01 3.219291e-01 0.000000e+00
 0.000000e+00 0.000000e+00 0.000000e+00 6.270976e-01 3.729024e-01
 0.000000e+00 0.000000e+00 0.000000e+00 0.000000e+00 0.000000e+00
<ENDHMM>
~h "c"
<BEGINHMM>
<NUMSTATES> 5
<STATE> 2
<MEAN> 39
 -1.287201e+01 -5.189381e-01 -2.021219e+00 9.470209e-01 -3.674033e+00 -1.130693e+00 -1.692540e+00 -8.962715e-02 1.139867e-02 4.816612e-01 -1.445854e-02 1.445371e+00 5.907656e+01 -2.557478e+00 6.820734e-01 -6.633152e-01 1.435622e+00 1.217123e+00 1.646613e+00 2.069197e+00 1.609842e+00 1.289966e+00 1.500208e+00 1.263567e+00 4.451829e-01 -3.185195e-02 2.653336e-01 -5.238916e-01 9.409484e-03 -6.202523e-01 -1.556331e-01 -2.263762e-01 -2.019268e-01 9.368047e-03 -1.798995e-01 -9.159324e-02 -1.409151e-01 3.521936e-02 8.061355e-01
<VARIANCE> 39
 4.727775e+01 3.969311e+01 3.551012e+01 3.598463e+01 4.499435e+01 4.801825e+01 4.650703e+01 4.224335e+01 4.365885e+01 4.125288e+01 3.351889e+01 2.862725e+01 4.729170e+01 3.838036e+00 4.408134e+00 3.316557e+00 4.173400e+00 4.014298e+00 4.662548e+00 4.815821e+00 4.453570e+00 4.090250e+00 4.173951e+00 3.688335e+00 3.394600e+00 4.851727e+00 1.044908e+00 7.192854e-01 6.501241e-01 7.048359e-01 7.060760e-01 8.727999e-01 9.121242e-01 8.697886e-01 8.369015e-01 9.301847e-01 6.822115e-01 5.644639e-01 5.720209e-01
<GCONST> 1.346979e+02
<STATE> 3
<MEAN> 39
 -1.773703e+01 -1.699944e-01 -3.202940e+00 2.263233e+00 -1.113593e+00 9.531633e-01 2.437030e+00 3.342986e+00 1.862221e+00 2.945962e+00 2.381908e+00 2.489803e+00 6.500583e+01 4.512357e-01 -6.500268e-01 3.803551e-01 -1.206003e-01 6.012501e-01 3.292412e-03 4.048756e-01 4.367237e-01 -2.016874e-01 -2.718126e-01 7.580437e-02 1.345360e-01 1.838216e+00 8.406923e-01 -4.069869e-01 2.233706e-01 -3.492979e-01 -3.707074e-02 -2.905160e-01 -5.532002e-01 -3.824441e-01 -3.838717e-01 -5.235423e-01 -3.567742e-01 -8.351746e-02 -6.709653e-02
<VARIANCE> 39
 4.117611e+01 4.392505e+01 2.779843e+01 3.080534e+01 3.433156e+01 3.349753e+01 2.997279e+01 2.804449e+01 2.799477e+01 2.475677e+01 2.144470e+01 1.812061e+01 6.460212e+01 4.644360e+00 3.831187e+00 3.073907e+00 2.416050e+00 3.106261e+00 2.951960e+00 3.186484e+00 3.030221e+00 3.032844e+00 2.984419e+00 2.426075e+00 2.140592e+00 2.775024e+00 9.009116e-01 6.890377e-01 6.188440e-01 5.926899e-01 6.502088e-01 7.255034e-01 7.661563e-01 6.866016e-01 6.864582e-01 6.975979e-01 5.735829e-01 4.888726e-01 5.938371e-01
<GCONST> 1.252195e+02
<STATE> 4
<MEAN> 39
 -1.337331e+01 -6.312974e+00 -4.351032e-01 3.580939e-01 1.566485e+00 1.143202e+00 2.042747e+00 4.476343e+00 2.094088e+00 2.059406e+00 3.294951e+00 3.617633e+00 6.104979e+01 6.737661e-01 -5.908098e-01 2.649446e-02 -4.278770e-01 1.058928e-01 -1.346108e-01 -4.981432e-01 -2.912117e-01 -3.924615e-01 -5.083098e-01 -3.372357e-01 -4.960180e-02 4.019305e-01 8.448166e-02 -3.389382e-02 -1.624263e-01 -2.059184e-01 -1.459125e-01 -5.330759e-02 -2.066616e-01 -1.574252e-01 -1.059947e-01 -8.806546e-02 -1.144601e-01 -4.164582e-02 -8.386892e-02
<VARIANCE> 39
 3.268088e+01 5.658855e+01 2.608997e+01 3.089911e+01 3.582701e+01 3.525606e+01 3.735114e+01 3.381963e+01 3.515874e+01 3.336406e+01 3.125963e+01 2.373163e+01 1.069437e+02 3.068077e+00 3.380754e+00 2.060850e+00 2.748625e+00 2.893014e+00 2.765312e+00 3.395589e+00 2.849999e+00 2.833373e+00 3.074203e+00 2.489823e+00 2.112912e+00 2.219388e+00 3.957065e-01 4.349123e-01 4.457211e-01 5.077088e-01 5.414620e-01 4.901092e-01 5.763897e-01 5.490409e-01 5.245149e-01 4.996853e-01 4.644015e-01 4.223942e-01 3.128335e-01
<GCONST> 1.217155e+02
<TRANSP> 5
 0.000000e+00 1.000000e+00 0.000000e+00 0.000000e+00 0.000000e+00
 0.000000e+00 7.185454e-01 2.814546e-01 0.000000e+00 0.000000e+00
 0.000000e+00 0.000000e+00 6.353598e-01 3.646402e-01 0.000000e+00
 0.000000e+00 0.000000e+00 0.000000e+00 8.690759e-01 1.309241e-01
 0.000000e+00 0.000000e+00 0.000000e+00 0.000000e+00 0.000000e+00
<ENDHMM>
~h "d"
<BEGINHMM>
<NUMSTATES> 5
<STATE> 2
<MEAN> 39
 -4.111106e+00 -5.739515e+00 1.636406e+00 -6.222299e+00 -7.905115e+00 -7.450993e+00 -8.566875e+00 -3.475453e+00 -2.792306e+00 -3.171789e+00 -5.000878e+00 2.777004e-01 6.173633e+01 -1.033351e-01 1.193791e+00 6.018912e-01 2.089017e+00 8.428066e-01 5.431407e-01 7.831968e-01 2.675708e-02 6.557687e-01 2.527311e-03 4.229909e-01 -2.088262e-01 -2.393203e+00 -3.274009e-01 -4.027472e-01 -3.479637e-01 -4.315995e-01 1.806730e-01 3.263977e-01 3.159366e-01 3.421738e-01 1.287733e-02 1.679832e-01 1.537772e-01 5.016907e-02 6.792085e-01
<VARIANCE> 39
 2.483068e+01 3.832900e+01 4.601437e+01 5.529103e+01 6.101377e+01 5.990971e+01 7.313409e+01 5.606398e+01 5.821119e+01 4.824861e+01 4.871379e+01 4.649982e+01 7.319386e+01 2.009876e+00 3.091158e+00 4.206099e+00 4.885778e+00 5.145075e+00 5.345240e+00 6.027961e+00 5.480188e+00 4.599704e+00 4.276753e+00 3.753798e+00 3.622927e+00 6.087036e+00 2.980357e-01 6.196914e-01 6.462085e-01 1.080388e+00 9.126297e-01 1.048230e+00 1.030828e+00 1.009518e+00 8.606649e-01 8.423311e-01 7.135891e-01 7.779716e-01 1.545536e+00
<GCONST> 1.393878e+02
<STATE> 3
<MEAN> 39
 -7.236947e+00 -4.314126e+00 1.628448e+00 -1.694345e+00 -3.867797e+00 -2.888258e+00 -3.382923e+00 -1.147872e+00 3.335236e-01 -5.113086e-01 -1.603099e+00 3.791790e-01 5.721585e+01 -8.332972e-01 -8.591221e-01 -6.519430e-01 -8.244669e-01 2.914158e-01 -2.565797e-03 8.110929e-01 1.228645e+00 5.031700e-01 4.011970e-01 6.416005e-01 6.218936e-01 2.335250e+00 1.865599e-01 -6.127369e-01 -3.242146e-01 -1.203033e+00 -4.440775e-01 -4.591869e-01 -5.449320e-01 1.026731e-01 -3.584998e-01 -2.534621e-01 -4.256825e-01 1.720465e-01 1.533406e+00
<VARIANCE> 39
 3.048674e+01 3.191162e+01 3.079388e+01 3.427641e+01 3.961339e+01 5.157292e+01 5.975479e+01 4.480330e+01 4.555077e+01 4.535532e+01 4.485081e+01 3.484868e+01 6.398628e+01 2.379202e+00 3.483956e+00 4.368080e+00 5.495172e+00 4.706026e+00 5.886704e+00 6.058130e+00 5.450080e+00 4.856266e+00 4.800986e+00 4.413896e+00 3.814749e+00 1.135383e+01 5.466247e-01 8.038653e-01 9.418006e-01 8.611870e-01 9.747041e-01 1.097178e+00 1.343163e+00 1.327229e+00 1.058966e+00 1.051042e+00 9.331130e-01 8.206351e-01 1.476496e+00
<GCONST> 1.405377e+02
<STATE> 4
<MEAN> 39
 -7.483617e+00 -8.867111e+00 -1.425082e+00 -8.694548e+00 -5.634912e+00 -6.001000e+00 -4.536496e+00 1.778695e+00 -6.473784e-01 -1.763196e+00 -2.368732e+00 2.699470e+00 7.041384e+01 3.858364e-01 -1.688967e+00 -1.190272e+00 -2.774622e+00 -5.006149e-01 -7.606063e-01 -1.271111e+00 4.080383e-01 -8.959042e-01 -8.725082e-01 -1.325987e+00 3.077014e-01 3.554825e+00 1.905290e-01 -1.935453e-02 -1.039844e-02 -3.620122e-02 5.039179e-02 2.839163e-01 -3.689629e-01 -4.314092e-01 -2.994518e-01 -1.199791e-01 -3.501219e-01 -2.986895e-01 -6.890721e-01
<VARIANCE> 39
 3.183328e+01 4.581134e+01 5.296055e+01 5.236190e+01 4.857490e+01 6.637341e+01 7.406844e+01 5.410868e+01 4.905689e+01 4.702131e+01 4.964962e+01 3.801760e+01 6.993370e+01 2.820741e+00 5.552617e+00 6.898034e+00 5.293648e+00 5.704123e+00 5.985701e+00 9.089555e+00 8.408433e+00 6.485997e+00 5.858053e+00 5.512880e+00 4.536433e+00 7.097289e+00 4.794135e-01 7.086089e-01 8.474630e-01 1.058460e+00 9.538329e-01 1.110242e+00 1.323271e+00 1.143342e+00 9.576259e-01 9.578997e-01 1.009673e+00 7.711542e-01 1.451866e+00
<GCONST> 1.451502e+02
<TRANSP> 5
 0.000000e+00 1.000000e+00 0.000000e+00 0.000000e+00 0.000000e+00
 0.000000e+00 5.887796e-01 4.112204e-01 0.000000e+00 0.000000e+00
 0.000000e+00 0.000000e+00 5.892329e-01 4.107671e-01 0.000000e+00
 0.000000e+00 0.000000e+00 0.000000e+00 5.353499e-01 4.646501e-01
 0.000000e+00 0.000000e+00 0.000000e+00 0.000000e+00 0.000000e+00
<ENDHMM>
~h "e"
<BEGINHMM>
<NUMSTATES> 5
<STATE> 2
<MEAN> 39
 -4.636976e+00 -1.177733e+01 -5.494614e+00 -1.403131e+01 -4.222163e+00 -9.433143e+00 -1.134032e+01 2.176611e+00 -6.804138e-03 -2.351711e+00 -7.812869e+00 1.426670e+00 7.245563e+01 3.077079e-01 -9.734377e-01 -6.807250e-01 -1.937405e+00 -2.456097e-01 -1.319425e-01 -4.417539e-01 4.814548e-01 4.663273e-03 -4.225629e-01 -1.225271e+00 -3.499506e-01 1.192944e+00 -1.820700e-01 2.390534e-01 2.371115e-01 5.628890e-01 8.473416e-02 3.354100e-01 3.260534e-01 -2.061413e-01 -4.687592e-02 1.139673e-01 2.745122e-01 -1.139111e-01 -4.245610e-01
<VARIANCE> 39
 2.651523e+01 3.726152e+01 4.805046e+01 6.572196e+01 6.369431e+01 6.664362e+01 7.777658e+01 6.380319e+01 6.008770e+01 6.316191e+01 5.656496e+01 5.289941e+01 4.636778e+01 1.751043e+00 2.747910e+00 2.898777e+00 6.484766e+00 4.850109e+00 4.261255e+00 5.883735e+00 4.974535e+00 4.087924e+00 4.031329e+00 4.030884e+00 4.080642e+00 2.549145e+00 3.789236e-01 6.020430e-01 4.941580e-01 9.286872e-01 7.233346e-01 7.653110e-01 1.016055e+00 1.077020e+00 7.593074e-01 7.276568e-01 7.347193e-01 7.750269e-01 5.572596e-01
<GCONST> 1.365245e+02
<STATE> 3
<MEAN> 39
 -4.241369e+00 -1.406418e+01 -6.716902e+00 -1.673945e+01 -4.578781e+00 -8.513796e+00 -1.067245e+01 3.323705e+00 8.715707e-02 -3.590526e+00 -1.027132e+01 -5.002825e-01 7.444640e+01 1.075074e-01 9.246503e-02 2.914749e-01 2.083117e-01 -4.041502e-01 2.010767e-01 2.646974e-01 -3.201804e-01 -2.452123e-01 -1.130638e-01 2.095853e-01 -8.778292e-02 -2.640471e-01 -5.959057e-02 5.546006e-01 3.941937e-01 7.132657e-01 -6.434899e-04 1.578333e-01 1.017686e-01 -3.920810e-01 -1.318794e-01 1.533908e-01 4.863581e-01 7.658341e-02 -6.253549e-01
<VARIANCE> 39
 2.352996e+01 2.954693e+01 4.597533e+01 4.323043e+01 6.173396e+01 6.827770e+01 7.191796e+01 5.903499e+01 6.288848e+01 6.270103e+01 4.964586e+01 4.575690e+01 3.535965e+01 8.810408e-01 2.257733e+00 2.445104e+00 3.780067e+00 3.936745e+00 3.509922e+00 3.491225e+00 3.537198e+00 3.166413e+00 3.309290e+00 3.262695e+00 3.314918e+00 2.118803e+00 2.237166e-01 4.165645e-01 3.551859e-01 6.212482e-01 6.379042e-01 7.048448e-01 7.608469e-01 7.962124e-01 6.649849e-01 6.770535e-01 6.411277e-01 6.206703e-01 3.800290e-01
<GCONST> 1.277502e+02
<STATE> 4
<MEAN> 39
 -4.610030e+00 -1.152510e+01 -5.072372e+00 -1.183548e+01 -4.911598e+00 -5.747581e+00 -7.832548e+00 1.557130e+00 1.374231e-01 -3.256150e+00 -6.256059e+00 -4.161528e-02 6.897658e+01 -1.697807e-01 1.207859e+00 1.031890e+00 1.431988e+00 -2.689356e-01 4.888617e-01 4.399703e-01 -7.780147e-01 -4.141137e-01 3.141335e-01 1.005372e+00 1.272763e-01 -1.521979e+00 -2.351527e-01 2.724069e-01 1.360470e-01 3.134715e-01 2.230917e-01 2.509623e-01 1.582718e-01 -1.777311e-02 8.339434e-02 1.533036e-01 1.110882e-01 -4.686035e-02 -3.092785e-01
<VARIANCE> 39
 2.943386e+01 3.616914e+01 5.875800e+01 6.719089e+01 8.573751e+01 8.643661e+01 7.445730e+01 6.004237e+01 6.539416e+01 6.115956e+01 5.654711e+01 4.820910e+01 8.525932e+01 1.516758e+00 3.274757e+00 2.855744e+00 4.987006e+00 3.997549e+00 4.005965e+00 4.054735e+00 4.317996e+00 3.945222e+00 3.945260e+00 3.621081e+00 3.123136e+00 3.966346e+00 3.260276e-01 4.946384e-01 4.574447e-01 7.290844e-01 8.099655e-01 7.857230e-01 8.475084e-01 8.180528e-01 7.366191e-01 7.596921e-01 6.580246e-01 5.930964e-01 5.740454e-01
<GCONST> 1.355209e+02
<TRANSP> 5
 0.000000e+00 1.000000e+00 0.000000e+00 0.000000e+00 0.000000e+00
 0.000000e+00 5.916830e-01 4.083170e-01 0.000000e+00 0.000000e+00
 0.000000e+00 0.000000e+00 5.870233e-01 4.129767e-01 0.000000e+00
 0.000000e+00 0.000000e+00 0.000000e+00 6.193749e-01 3.806251e-01
 0.000000e+00 0.000000e+00 0.000000e+00 0.000000e+00 0.000000e+00
<ENDHMM>
~h "f"
<BEGINHMM>
<NUMSTATES> 5
<STATE> 2
<MEAN> 39
 -5.947176e+00 -4.919233e+00 -1.007885e+00 -3.759051e+00 -4.401677e+00 -1.618489e+00 -5.686657e+00 -2.193418e+00 -4.301248e+00 -3.702153e+00 -3.247153e+00 -3.881454e-01 6.426181e+01 -2.421074e+00 1.057701e+00 9.996793e-01 3.206986e+00 1.249715e+00 1.332114e+00 1.796010e+00 9.144104e-01 1.359171e+00 1.254679e+00 1.209899e+00 3.759522e-01 -1.252318e+00 -4.691437e-01 -4.864759e-01 -1.132747e-01 -4.338237e-01 -1.340646e-01 4.713432e-02 1.771257e-01 3.816205e-01 2.207012e-01 3.853466e-01 1.380341e-01 1.411826e-01 3.178000e-01
<VARIANCE> 39
 4.524451e+01 2.788850e+01 3.631402e+01 5.677885e+01 3.593640e+01 4.262545e+01 4.217612e+01 3.498908e+01 3.723713e+01 3.456759e+01 2.984458e+01 2.865272e+01 3.998827e+01 3.480775e+00 3.870268e+00 4.581491e+00 6.221108e+00 4.327287e+00 4.340993e+00 4.403172e+00 5.250126e+00 4.572513e+00 4.300559e+00 3.551692e+00 3.234701e+00 1.999505e+00 7.548059e-01 4.732139e-01 5.829577e-01 1.073421e+00 6.281734e-01 6.330215e-01 8.093988e-01 7.812216e-01 7.096204e-01 7.030160e-01 5.854989e-01 5.160032e-01 2.644487e-01
<GCONST> 1.307160e+02
<STATE> 3
<MEAN> 39
 -1.486523e+01 -5.224224e+00 5.294275e-01 2.079893e+00 -2.321131e+00 1.989898e+00 -1.441710e-01 2.665570e+00 9.165729e-01 1.896081e+00 1.041054e+00 1.758233e+00 6.284538e+01 -9.147022e-01 -4.826251e-01 -2.618456e-01 1.811093e-01 1.671474e-01 2.798246e-01 5.319924e-01 7.201416e-01 7.939243e-01 7.120786e-01 5.942432e-01 4.034051e-01 2.442257e-01 9.734405e-01 -2.947681e-01 -4.300738e-01 -9.871583e-01 -2.572191e-01 -3.975280e-01 -6.319352e-01 -4.445261e-01 -5.003089e-01 -5.559059e-01 -4.723790e-01 -1.625589e-01 4.973451e-01
<VARIANCE> 39
 3.652361e+01 1.986653e+01 1.932753e+01 1.966859e+01 1.986222e+01 2.047106e+01 2.273009e+01 2.234954e+01 2.349068e+01 2.253167e+01 1.932494e+01 1.744323e+01 3.584545e+01 5.124626e+00 1.723077e+00 2.221678e+00 3.782062e+00 2.039694e+00 2.532264e+00 2.945095e+00 2.938602e+00 2.913577e+00 3.232183e+00 2.744917e+00 2.210754e+00 2.018578e+00 5.985591e-01 5.198997e-01 5.699417e-01 7.893322e-01 5.151181e-01 5.977054e-01 5.844155e-01 6.353554e-01 5.923708e-01 6.404117e-01 5.995864e-01 5.217087e-01 3.875028e-01
<GCONST> 1.177546e+02
<STATE> 4
<MEAN> 39
 -1.217354e+01 -7.160800e+00 -1.593191e+00 -6.827860e-01 -2.043928e+00 9.710025e-01 -1.234712e+00 2.450647e+00 1.027411e+00 1.126444e+00 7.751338e-01 2.084446e+00 6.339047e+01 1.563454e+00 -7.343046e-01 -9.361191e-01 -1.814190e+00 -3.258191e-01 -5.328485e-01 -9.153187e-01 -5.772989e-01 -7.126529e-01 -8.261523e-01 -8.854113e-01 -2.564319e-01 1.163399e+00 2.634605e-01 -1.665677e-01 -1.564901e-01 -4.373128e-01 -4.489903e-02 -4.627357e-02 -1.994349e-01 -1.370935e-01 -2.676889e-01 -1.808384e-01 -2.128167e-01 -6.927432e-02 1.393904e-01
<VARIANCE> 39
 5.644764e+01 2.960350e+01 2.661538e+01 4.580687e+01 2.624000e+01 2.766485e+01 3.182617e+01 2.698816e+01 2.718126e+01 2.911839e+01 3.076754e+01 2.277030e+01 6.215976e+01 5.101371e+00 3.741652e+00 3.462995e+00 6.851304e+00 2.717209e+00 3.269814e+00 3.236964e+00 2.896376e+00 2.906164e+00 3.374634e+00 3.618078e+00 2.628702e+00 2.854522e+00 8.909485e-01 4.723001e-01 4.601337e-01 1.007268e+00 4.753419e-01 5.025774e-01 5.597898e-01 5.021490e-01 5.080776e-01 5.475281e-01 5.758656e-01 4.445832e-01 3.294182e-01
<GCONST> 1.249377e+02
<TRANSP> 5
 0.000000e+00 1.000000e+00 0.000000e+00 0.000000e+00 0.000000e+00
 0.000000e+00 6.335583e-01 3.664417e-01 0.000000e+00 0.000000e+00
 0.000000e+00 0.000000e+00 6.937253e-01 3.062747e-01 0.000000e+00
 0.000000e+00 0.000000e+00 0.000000e+00 8.079088e-01 1.920912e-01
 0.000000e+00 0.000000e+00 0.000000e+00 0.000000e+00 0.000000e+00
<ENDHMM>
~h "g"
<BEGINHMM>
<NUMSTATES> 5
<STATE> 2
<MEAN> 39
 -3.715099e+00 -5.674376e+00 -1.311508e+00 -8.297688e+00 -6.194863e+00 -4.210732e+00 -8.094074e+00 -4.074122e+00 -3.384583e+00 -6.524798e-01 -4.958909e+00 4.418818e-01 6.051748e+01 -2.038146e-01 7.209394e-01 -1.272953e-01 1.779588e+00 1.005066e+00 7.986479e-01 1.187844e+00 3.021165e-01 8.257987e-01 4.365932e-01 9.112837e-01 1.680801e-01 -2.264972e+00 -2.318233e-01 -3.961759e-01 -2.764691e-01 -2.920270e-01 5.155244e-02 1.456984e-01 3.383324e-01 4.156367e-01 5.909475e-02 1.143186e-01 1.249834e-01 1.137305e-01 4.643594e-01
<VARIANCE> 39
 3.098196e+01 4.291212e+01 5.300872e+01 7.000671e+01 5.570479e+01 6.062434e+01 7.544164e+01 5.632609e+01 6.312761e+01 5.802062e+01 6.222147e+01 4.911263e+01 6.944400e+01 2.301075e+00 3.638129e+00 5.220836e+00 6.582641e+00 5.744363e+00 5.331492e+00 7.087789e+00 6.552630e+00 5.664436e+00 5.330636e+00 4.844636e+00 4.323992e+00 5.134508e+00 3.746771e-01 6.176939e-01 8.881657e-01 1.387462e+00 1.023809e+00 1.095656e+00 1.341682e+00 1.152323e+00 1.133271e+00 1.070349e+00 9.684264e-01 9.034452e-01 1.032733e+00
<GCONST> 1.444348e+02
<STATE> 3
<MEAN> 39
 -6.393707e+00 -5.863016e+00 -3.510549e+00 -4.018421e+00 -2.704028e+00 -7.201135e-01 -1.171503e+00 4.877852e-01 6.181970e-01 2.449247e+00 -6.956983e-01 2.464080e+00 5.598722e+01 1.255950e-02 -8.153308e-01 -1.776022e+00 -9.590273e-01 4.666922e-01 -2.628217e-01 6.137739e-01 1.089992e+00 1.421703e-02 5.164719e-01 -6.868076e-02 6.786950e-01 1.601837e+00 4.231632e-01 -1.106839e-01 -2.219302e-01 -1.153339e+00 -3.621838e-01 -4.142035e-01 -8.239180e-01 -3.376477e-01 -6.375973e-01 -3.053212e-01 -6.156229e-01 -3.842518e-02 1.180580e+00
<VARIANCE> 39
 3.310944e+01 4.117353e+01 4.866841e+01 5.798170e+01 4.333289e+01 4.517498e+01 5.698453e+01 5.009429e+01 5.672129e+01 4.478973e+01 4.480807e+01 3.361401e+01 5.401535e+01 3.497574e+00 3.850520e+00 5.837874e+00 9.225605e+00 5.524674e+00 5.879717e+00 8.221766e+00 6.306248e+00 7.419152e+00 5.417215e+00 5.709638e+00 4.283587e+00 8.965239e+00 5.877337e-01 7.888492e-01 1.142846e+00 1.335104e+00 1.005108e+00 1.080898e+00 1.304926e+00 1.351039e+00 1.295016e+00 1.097926e+00 9.843892e-01 8.955382e-01 1.115632e+00
<GCONST> 1.452616e+02
<STATE> 4
<MEAN> 39
 -2.957893e+00 -7.800450e+00 -9.302887e+00 -1.377973e+01 -3.822458e+00 -3.986694e+00 -5.632528e+00 7.549298e-02 -4.146004e+00 1.697038e+00 -4.644816e+00 3.770763e+00 6.669785e+01 7.058741e-01 -7.375946e-01 -7.664682e-01 -2.700637e+00 -3.713997e-01 -5.243385e-01 -1.598696e+00 -5.309770e-01 -1.129646e+00 -6.538591e-01 -1.338381e+00 -1.891397e-01 2.724559e+00 -1.547596e-01 -1.149780e-01 4.814213e-01 2.059710e-01 -7.099000e-02 2.340976e-01 -1.151443e-01 -1.589426e-01 9.275643e-02 -2.741553e-01 -3.297211e-02 -3.617261e-01 -2.820616e-01
<VARIANCE> 39
 3.803131e+01 5.003472e+01 4.624928e+01 9.976321e+01 5.567322e+01 6.181976e+01 8.324995e+01 5.543473e+01 6.344080e+01 5.134790e+01 5.668069e+01 5.288398e+01 5.843795e+01 2.564307e+00 4.506946e+00 4.511213e+00 8.089724e+00 5.263893e+00 5.480398e+00 7.529099e+00 6.378414e+00 7.385573e+00 5.631311e+00 5.520104e+00 5.856423e+00 4.341302e+00 4.845191e-01 7.153143e-01 8.319716e-01 1.777257e+00 1.110106e+00 1.063810e+00 1.632216e+00 1.362956e+00 1.338185e+00 1.088379e+00 1.079243e+00 1.054148e+00 7.235336e-01
<GCONST> 1.468372e+02
<TRANSP> 5
 0.000000e+00 1.000000e+00 0.000000e+00 0.000000e+00 0.000000e+00
 0.000000e+00 6.414205e-01 3.585795e-01 0.000000e+00 0.000000e+00
 0.000000e+00 0.000000e+00 6.558761e-01 3.441239e-01 0.000000e+00
 0.000000e+00 0.000000e+00 0.000000e+00 6.044736e-01 3.955264e-01
 0.000000e+00 0.000000e+00 0.000000e+00 0.000000e+00 0.000000e+00
<ENDHMM>
~h "h"
<BEGINHMM>
<NUMSTATES> 5
<STATE> 2
<MEAN> 39
 -3.854406e+00 -1.001730e+01 -8.070853e+00 -1.181439e+01 -7.601681e-01 -2.555512e+00 -1.069451e+01 -1.366510e+00 -5.681667e+00 -5.214328e+00 -5.523522e+00 -1.580344e+00 6.848974e+01 -3.093930e-01 8.132865e-01 -7.049121e-01 1.351474e+00 2.340724e+00 1.469075e+00 5.356287e-01 4.224196e-02 2.978689e-01 3.860523e-01 8.714217e-01 -3.423904e-01 -1.068121e+00 -3.639512e-01 -1.184697e-02 3.085788e-01 1.415641e-01 -5.301210e-02 2.162449e-01 5.281437e-01 2.605757e-01 1.470548e-01 4.174094e-01 2.558546e-01 7.868424e-02 -2.931071e-02
<VARIANCE> 39
 2.980158e+01 4.734400e+01 5.079756e+01 7.142358e+01 7.425935e+01 8.082804e+01 7.285042e+01 5.872852e+01 7.202349e+01 7.018583e+01 5.373181e+01 5.281546e+01 5.032279e+01 3.033000e+00 3.246619e+00 4.712662e+00 6.148152e+00 6.433820e+00 5.020565e+00 7.046359e+00 6.623008e+00 6.201783e+00 6.315139e+00 4.783387e+00 3.975061e+00 1.684189e+00 3.452725e-01 4.846178e-01 5.785056e-01 8.325140e-01 9.064212e-01 8.853348e-01 1.147006e+00 1.283433e+00 1.143246e+00 1.129436e+00 8.586411e-01 7.183580e-01 2.100159e-01
<GCONST> 1.405504e+02
<STATE> 3
<MEAN> 39
 -7.896604e+00 -7.144707e+00 -7.833766e+00 -5.810555e+00 6.227140e+00 4.142952e+00 -3.696859e+00 1.970996e+00 -2.672600e+00 -6.688273e-01 -6.999605e-01 -1.720294e+00 6.402348e+01 -1.253889e+00 2.795942e-02 1.839532e-02 1.103621e+00 1.000751e+00 9.456923e-01 1.658670e+00 1.584539e+00 1.289482e+00 1.375608e+00 9.504463e-01 2.262506e-01 -5.516242e-01 3.144813e-01 -2.228099e-01 -7.943253e-02 -6.115020e-01 -6.457069e-01 -4.349422e-01 -4.529600e-01 -1.838289e-01 -1.307479e-01 -2.491970e-01 -2.757519e-01 3.691919e-02 3.274302e-01
<VARIANCE> 39
 4.264964e+01 4.436902e+01 3.697122e+01 6.499921e+01 6.528487e+01 5.080832e+01 6.018638e+01 6.046943e+01 6.523148e+01 5.910854e+01 3.694949e+01 3.770845e+01 4.112179e+01 2.573629e+00 2.578500e+00 3.088563e+00 4.932133e+00 4.504832e+00 3.935159e+00 5.770517e+00 6.331574e+00 5.453064e+00 5.703304e+00 3.901889e+00 3.320236e+00 1.616529e+00 5.344965e-01 4.375892e-01 5.768651e-01 8.322238e-01 8.043840e-01 7.213157e-01 1.120010e+00 1.390908e+00 1.163103e+00 1.144481e+00 7.316714e-01 6.278434e-01 2.068017e-01
<GCONST> 1.357398e+02
<STATE> 4
<MEAN> 39
 -8.429020e+00 -7.479641e+00 -8.296192e+00 -6.728191e+00 5.339373e+00 4.088301e+00 -3.014418e+00 3.605318e+00 3.173354e-01 1.356851e+00 6.161505e-01 -9.947380e-01 6.306171e+01 7.063087e-01 -1.583799e-01 -1.429899e-01 -8.868225e-01 -7.312303e-01 -3.886205e-01 -7.329038e-01 -6.069392e-01 -3.161188e-01 -4.620418e-01 -3.129760e-01 6.340548e-03 5.018696e-01 2.966258e-01 -1.209739e-01 -4.377215e-02 -3.841844e-01 -2.759247e-01 -1.917377e-01 -3.290040e-01 -3.296397e-01 -2.590191e-01 -2.575281e-01 -2.330814e-01 -9.339223e-03 2.496183e-01
<VARIANCE> 39
 4.731106e+01 5.178556e+01 3.754754e+01 8.039645e+01 6.946693e+01 4.905355e+01 6.604218e+01 6.217828e+01 5.391791e+01 5.104821e+01 3.754554e+01 3.703467e+01 4.950351e+01 2.706724e+00 2.235402e+00 2.359214e+00 4.860542e+00 3.937192e+00 3.042044e+00 4.783848e+00 5.183877e+00 3.956737e+00 3.952365e+00 2.962087e+00 2.486853e+00 1.835217e+00 4.607795e-01 4.105158e-01 4.495566e-01 8.652894e-01 6.978542e-01 5.757530e-01 8.567945e-01 9.230433e-01 7.438582e-01 7.551599e-01 5.689461e-01 4.856114e-01 2.811213e-01
<GCONST> 1.314068e+02
<TRANSP> 5
 0.000000e+00 1.000000e+00 0.000000e+00 0.000000e+00 0.000000e+00
 0.000000e+00 6.658031e-01 3.341968e-01 0.000000e+00 0.000000e+00
 0.000000e+00 0.000000e+00 6.176610e-01 3.823390e-01 0.000000e+00
 0.000000e+00 0.000000e+00 0.000000e+00 8.368539e-01 1.631461e-01
 0.000000e+00 0.000000e+00 0.000000e+00 0.000000e+00 0.000000e+00
<ENDHMM>
~h "i"
<BEGINHMM>
<NUMSTATES> 5
<STATE> 2
<MEAN> 39
 -1.272383e+01 1.738176e+00 1.169287e+01 -1.475026e+01 -9.832579e+00 -4.211550e+00 -1.394335e+01 -8.675455e+00 -6.475484e+00 -1.299002e+00 -6.061879e+00 7.061243e-01 6.728008e+01 2.059262e-01 -2.006297e-01 1.169554e+00 -1.640872e+00 -8.722700e-01 -2.906825e-01 -1.389974e+00 -7.030315e-01 -9.418596e-01 -3.579593e-02 -1.001839e+00 -2.256603e-02 4.581345e-01 -7.249589e-02 -2.079443e-01 -3.586289e-01 3.619767e-01 1.462330e-01 1.656615e-01 4.528295e-01 3.187943e-01 2.764528e-01 1.245675e-01 1.271410e-01 2.158222e-03 -9.853167e-02
<VARIANCE> 39
 2.836965e+01 4.105192e+01 4.115424e+01 6.232809e+01 4.505848e+01 4.038750e+01 6.157785e+01 4.920012e+01 5.791608e+01 4.462616e+01 4.887368e+01 5.066071e+01 3.855989e+01 2.516785e+00 2.687591e+00 2.623359e+00 4.553110e+00 3.665596e+00 3.312033e+00 4.790565e+00 3.749153e+00 4.281760e+00 3.394989e+00 3.618332e+00 2.714954e+00 1.475955e+00 3.233867e-01 3.226431e-01 4.596790e-01 7.086018e-01 6.031177e-01 5.492199e-01 8.280448e-01 6.923066e-01 6.453739e-01 6.031097e-01 5.521098e-01 4.895265e-01 2.584195e-01
<GCONST> 1.279129e+02
<STATE> 3
<MEAN> 39
 -1.231519e+01 6.934881e-01 1.432093e+01 -1.830910e+01 -1.227779e+01 -4.012340e+00 -1.656854e+01 -9.737015e+00 -7.902735e+00 -6.546022e-01 -8.651645e+00 4.611285e-01 6.833173e+01 3.091974e-01 -4.813656e-01 -5.864119e-02 3.032587e-01 -5.752580e-01 5.267863e-02 3.865692e-01 -1.210228e-01 1.290908e-01 1.929153e-01 2.161591e-02 5.314867e-02 -9.278090e-02 7.388109e-02 -1.886413e-04 -3.468514e-01 5.804413e-01 1.538755e-01 -4.879097e-03 4.252620e-01 1.737248e-01 1.923015e-01 -2.856056e-02 2.841219e-01 -3.546147e-02 -2.057238e-01
<VARIANCE> 39
 2.473807e+01 3.754344e+01 3.246233e+01 4.381048e+01 4.151930e+01 3.682299e+01 4.932104e+01 4.553815e+01 6.243049e+01 5.194342e+01 4.637849e+01 4.937548e+01 3.082142e+01 8.111688e-01 1.559659e+00 1.288535e+00 2.530757e+00 2.034138e+00 1.694415e+00 2.552789e+00 1.931402e+00 2.083231e+00 2.094748e+00 2.101089e+00 1.818428e+00 8.155087e-01 2.012194e-01 2.488243e-01 3.112137e-01 4.818720e-01 4.868813e-01 3.662133e-01 5.139833e-01 4.815221e-01 4.723060e-01 4.465685e-01 4.335610e-01 3.546056e-01 1.639091e-01
<GCONST> 1.136792e+02
<STATE> 4
<MEAN> 39
 -1.153614e+01 -3.610790e+00 8.605877e+00 -8.247756e+00 -9.442865e+00 -1.002505e+00 -6.236239e+00 -4.237088e+00 -2.363471e+00 2.063624e+00 -1.757797e+00 2.088274e+00 6.053081e+01 2.748931e-01 -2.609538e-01 -9.451694e-01 1.396859e+00 4.675517e-01 -3.943243e-02 1.056530e+00 6.225582e-01 3.935261e-01 -1.138296e-01 5.514972e-01 -9.894450e-02 -6.740588e-01 -9.485883e-02 1.056901e-01 -1.833337e-01 1.454855e-01 3.805014e-01 5.697307e-02 4.278225e-02 2.132408e-01 1.135437e-01 -7.031254e-02 8.573890e-02 -1.068303e-02 -1.108193e-01
<VARIANCE> 39
 2.423500e+01 5.057770e+01 4.832031e+01 7.931632e+01 8.056299e+01 4.699281e+01 9.423142e+01 7.868095e+01 7.350497e+01 4.492113e+01 6.968010e+01 4.090036e+01 8.834682e+01 1.524266e+00 2.065873e+00 2.734436e+00 4.883329e+00 3.323224e+00 2.722914e+00 4.361833e+00 3.466541e+00 3.472387e+00 3.107413e+00 2.980242e+00 2.377484e+00 2.335040e+00 2.354551e-01 3.338094e-01 3.817295e-01 6.188053e-01 7.492505e-01 4.764010e-01 6.351776e-01 6.609516e-01 6.192394e-01 5.664248e-01 5.085057e-01 4.146970e-01 3.409576e-01
<GCONST> 1.290061e+02
<TRANSP> 5
 0.000000e+00 1.000000e+00 0.000000e+00 0.000000e+00 0.000000e+00
 0.000000e+00 6.252180e-01 3.747820e-01 0.000000e+00 0.000000e+00
 0.000000e+00 0.000000e+00 7.569933e-01 2.430067e-01 0.000000e+00
 0.000000e+00 0.000000e+00 0.000000e+00 7.571571e-01 2.428429e-01
 0.000000e+00 0.000000e+00 0.000000e+00 0.000000e+00 0.000000e+00
<ENDHMM>
~h "j"
<BEGINHMM>
<NUMSTATES> 5
<STATE> 2
<MEAN> 39
 -8.050823e+00 -2.495252e+00 2.290145e+00 -2.267519e+00 -7.061570e+00 -3.778052e+00 -4.721333e+00 -3.580632e+00 -3.114587e+00 -2.074801e+00 -2.697841e+00 -2.378488e-01 5.864750e+01 -1.619569e+00 1.160274e+00 -5.517448e-01 1.635566e+00 1.471330e+00 1.286858e+00 1.366439e+00 7.042146e-01 1.068870e+00 6.325348e-01 8.591532e-01 -4.579203e-03 -1.169913e+00 -5.561115e-01 -1.910459e-01 -2.826478e-01 -3.845820e-01 1.501852e-01 1.866180e-01 9.615674e-02 3.043304e-01 2.029412e-01 3.113142e-01 1.244110e-01 1.839666e-01 6.500284e-01
<VARIANCE> 39
 3.620794e+01 4.381812e+01 3.389482e+01 4.015610e+01 5.581361e+01 4.895828e+01 5.968937e+01 6.068460e+01 5.711448e+01 4.720517e+01 4.741154e+01 4.180117e+01 5.742314e+01 4.203086e+00 4.057466e+00 3.712987e+00 4.386667e+00 4.643229e+00 4.391396e+00 5.525407e+00 5.446492e+00 4.711731e+00 4.517477e+00 3.815494e+00 3.585500e+00 5.582821e+00 5.774568e-01 6.326674e-01 6.365441e-01 7.764957e-01 9.393110e-01 8.272743e-01 8.816894e-01 8.968953e-01 8.613963e-01 8.454883e-01 6.665572e-01 6.547931e-01 8.254597e-01
<GCONST> 1.378156e+02
<STATE> 3
<MEAN> 39
 -1.884126e+01 1.185731e+00 -1.627868e+00 7.120821e-01 -1.375543e+00 1.672701e+00 4.195108e-01 1.040965e+00 2.480866e+00 2.547385e+00 1.372651e+00 1.639070e+00 6.023801e+01 -2.308270e+00 8.477730e-01 -1.072663e-01 -5.331904e-01 4.138099e-01 6.749985e-01 4.300260e-01 2.958998e-01 5.529073e-01 5.933539e-01 5.324261e-01 3.295621e-01 2.059493e+00 8.391214e-01 -2.084471e-01 7.536123e-01 -7.369932e-01 -7.694545e-01 -5.596896e-01 -6.880559e-01 -6.828994e-01 -6.230730e-01 -3.728339e-01 -4.023884e-01 -1.086436e-01 4.255970e-01
<VARIANCE> 39
 4.215527e+01 3.969090e+01 3.318880e+01 2.981306e+01 3.150060e+01 2.793135e+01 3.043155e+01 3.314786e+01 3.392425e+01 2.803387e+01 2.595478e+01 2.186200e+01 4.095718e+01 4.269628e+00 3.659074e+00 3.935718e+00 2.961388e+00 3.578390e+00 3.270633e+00 3.755272e+00 4.084597e+00 3.740076e+00 3.559304e+00 3.159104e+00 2.609406e+00 2.902000e+00 9.950225e-01 8.889039e-01 6.691242e-01 8.094270e-01 8.039833e-01 7.561699e-01 7.331648e-01 8.370218e-01 7.371789e-01 6.534568e-01 6.017802e-01 5.739887e-01 7.356118e-01
<GCONST> 1.289401e+02
<STATE> 4
<MEAN> 39
 -1.928183e+01 3.388629e+00 4.325420e+00 -4.905326e+00 -5.499763e+00 -2.548245e-01 -3.406300e+00 -3.997996e+00 -6.399065e-01 1.191231e+00 5.006564e-02 1.134238e+00 6.813970e+01 2.101814e+00 -1.041435e+00 2.526231e+00 -2.761475e+00 -2.875639e+00 -1.717929e+00 -2.189775e+00 -2.077115e+00 -1.982632e+00 -4.882263e-01 -1.055730e+00 -1.765753e-02 1.593114e+00 7.555373e-01 -8.134865e-01 1.988953e-02 -4.153704e-01 -4.081521e-01 -3.409878e-01 -2.760673e-01 5.299335e-02 -3.758343e-01 -5.921447e-02 -4.529198e-01 -5.081702e-02 -2.586154e-01
<VARIANCE> 39
 4.938178e+01 3.540605e+01 5.110796e+01 4.062970e+01 5.715135e+01 4.290194e+01 4.910144e+01 5.047041e+01 3.989882e+01 2.711057e+01 2.420463e+01 2.389147e+01 2.687691e+01 4.468408e+00 5.084511e+00 3.295879e+00 5.173167e+00 4.562619e+00 4.479873e+00 4.815325e+00 5.478361e+00 4.194329e+00 3.347935e+00 3.397112e+00 3.549715e+00 1.712340e+00 1.134696e+00 7.713208e-01 9.978497e-01 7.934120e-01 1.152218e+00 9.757341e-01 1.113911e+00 1.306865e+00 8.760018e-01 7.400970e-01 6.535177e-01 5.777819e-01 2.318860e-01
<GCONST> 1.342158e+02
<TRANSP> 5
 0.000000e+00 1.000000e+00 0.000000e+00 0.000000e+00 0.000000e+00
 0.000000e+00 7.552728e-01 2.447272e-01 0.000000e+00 0.000000e+00
 0.000000e+00 0.000000e+00 6.797884e-01 3.202116e-01 0.000000e+00
 0.000000e+00 0.000000e+00 0.000000e+00 6.964050e-01 3.035950e-01
 0.000000e+00 0.000000e+00 0.000000e+00 0.000000e+00 0.000000e+00
<ENDHMM>
~h "k"
<BEGINHMM>
<NUMSTATES> 5
<STATE> 2
<MEAN> 39
 -5.328823e+00 -6.140531e+00 -1.836444e+00 -5.140067e+00 -4.447260e+00 -2.523457e+00 -4.739157e+00 -2.277064e+00 -1.487437e+00 1.576692e-02 -2.869122e+00 1.268548e+00 5.853686e+01 -9.682587e-01 -3.766657e-01 -8.445016e-01 1.832640e+00 1.675802e+00 1.034054e+00 1.876848e+00 1.487048e+00 1.460910e+00 1.249978e+00 1.315702e+00 5.246506e-01 -1.228042e+00 -1.304115e-01 -4.690426e-01 -3.325714e-01 -3.981808e-01 1.340543e-01 -1.771638e-03 7.588058e-02 3.459456e-01 -4.015844e-02 7.365098e-02 -7.042141e-02 3.767616e-02 9.165040e-01
<VARIANCE> 39
 2.888263e+01 3.983518e+01 4.937451e+01 5.543747e+01 5.372366e+01 5.767078e+01 6.866686e+01 5.314700e+01 5.630206e+01 5.538693e+01 5.308554e+01 4.231452e+01 6.282182e+01 2.537185e+00 4.431237e+00 5.932494e+00 6.590536e+00 5.707406e+00 5.496816e+00 7.072529e+00 6.467151e+00 5.983422e+00 5.387130e+00 5.188732e+00 4.350701e+00 8.365350e+00 4.800316e-01 6.890965e-01 9.806722e-01 1.103253e+00 1.001835e+00 1.158927e+00 1.420936e+00 1.169971e+00 1.116319e+00 1.065460e+00 1.053158e+00 7.863308e-01 1.305650e+00
<GCONST> 1.447335e+02
<STATE> 3
<MEAN> 39
 -8.022088e+00 -9.498869e+00 -6.893250e+00 -2.137633e+00 1.754446e+00 7.343537e-02 9.008558e-01 3.747995e+00 1.962235e+00 4.018385e+00 -1.968771e-01 2.888707e+00 6.220362e+01 -1.642821e-01 -6.724163e-01 -5.959289e-01 5.026276e-01 1.404390e+00 2.386261e-01 3.200285e-01 7.208052e-01 1.357683e-01 4.498584e-02 -3.892399e-03 6.642339e-02 2.241709e+00 2.763302e-01 2.725145e-01 5.599220e-01 -2.295551e-01 -3.180376e-01 -9.687373e-02 -5.990502e-01 -6.217961e-01 -4.184352e-01 -5.374849e-01 -2.714754e-01 -1.811770e-01 1.586177e-01
<VARIANCE> 39
 3.363522e+01 3.906644e+01 6.315699e+01 5.845182e+01 4.782804e+01 5.393444e+01 4.911071e+01 3.854789e+01 4.605967e+01 3.933816e+01 3.617385e+01 2.838836e+01 8.020312e+01 2.392377e+00 4.166217e+00 8.045185e+00 5.222798e+00 4.496800e+00 5.675752e+00 5.426006e+00 5.246770e+00 5.095500e+00 4.759764e+00 4.457833e+00 3.598909e+00 5.932964e+00 4.638477e-01 8.331518e-01 1.520364e+00 1.233278e+00 9.436889e-01 1.163260e+00 1.108296e+00 1.001143e+00 1.058383e+00 9.439154e-01 9.630237e-01 7.285553e-01 1.547219e+00
<GCONST> 1.416206e+02
<STATE> 4
<MEAN> 39
 -1.016626e+01 -9.495009e+00 -2.833618e+00 1.867745e-01 3.694753e+00 1.550484e+00 7.229105e-01 4.140169e+00 2.804056e+00 2.624337e+00 1.716987e+00 3.428027e+00 6.120762e+01 2.628483e-01 -6.764752e-02 1.192986e-01 -3.623623e-01 -9.880634e-02 -4.810210e-02 -6.031653e-01 -5.549111e-01 -4.646914e-01 -5.769378e-01 -3.150735e-01 -1.276083e-01 6.019886e-01 1.536418e-01 -2.382095e-02 -1.505757e-01 -3.863944e-01 -3.140618e-01 -1.387908e-01 -2.046017e-01 -1.731693e-01 -1.996610e-01 -1.321706e-01 -1.447508e-01 -2.861935e-02 -3.720170e-02
<VARIANCE> 39
 3.158357e+01 3.804069e+01 4.278202e+01 4.477705e+01 3.951897e+01 4.502601e+01 4.237090e+01 3.804272e+01 4.119164e+01 3.862033e+01 3.978968e+01 2.706411e+01 9.650254e+01 1.545940e+00 2.586893e+00 3.773362e+00 4.122353e+00 3.454708e+00 3.416050e+00 3.687640e+00 3.668077e+00 3.460007e+00 3.471371e+00 2.936208e+00 2.427630e+00 2.560076e+00 2.904595e-01 4.803936e-01 8.037511e-01 8.249971e-01 6.708899e-01 6.462002e-01 6.455954e-01 6.453148e-01 6.296161e-01 5.966080e-01 5.563788e-01 4.685147e-01 4.137863e-01
<GCONST> 1.274144e+02
<TRANSP> 5
 0.000000e+00 1.000000e+00 0.000000e+00 0.000000e+00 0.000000e+00
 0.000000e+00 7.022480e-01 2.977520e-01 0.000000e+00 0.000000e+00
 0.000000e+00 0.000000e+00 6.588854e-01 3.411146e-01 0.000000e+00
 0.000000e+00 0.000000e+00 0.000000e+00 8.740107e-01 1.259893e-01
 0.000000e+00 0.000000e+00 0.000000e+00 0.000000e+00 0.000000e+00
<ENDHMM>
~h "l"
<BEGINHMM>
<NUMSTATES> 5
<STATE> 2
<MEAN> 39
 -4.306093e+00 -1.259400e+01 -1.392406e+00 -1.126375e+01 -8.736088e+00 -6.751399e+00 -1.030147e+01 -1.210232e+00 -3.081348e+00 -4.137429e+00 -6.133895e+00 6.792074e-01 6.925381e+01 -9.560110e-04 2.635275e-01 1.951240e-01 1.433684e-01 2.302602e-01 -2.570714e-01 -3.530416e-01 1.908753e-02 2.464187e-01 -1.432002e-01 -1.166867e-01 1.794824e-01 -3.391566e-01 -7.235634e-02 2.387803e-03 -4.612374e-02 -1.514909e-01 6.442825e-02 2.282278e-01 7.524858e-02 -8.762139e-02 -1.114507e-01 7.518440e-02 -2.497003e-02 -7.490091e-02 1.442660e-01
<VARIANCE> 39
 2.826668e+01 4.639781e+01 7.426433e+01 7.950734e+01 7.766556e+01 8.878616e+01 9.018877e+01 7.243409e+01 7.732958e+01 6.731622e+01 5.929759e+01 5.374811e+01 6.036782e+01 9.228684e-01 2.864159e+00 3.684835e+00 4.305787e+00 4.446497e+00 5.800550e+00 6.202446e+00 5.151292e+00 4.670728e+00 5.200726e+00 3.834403e+00 3.409976e+00 2.269159e+00 1.451576e-01 4.729211e-01 4.754966e-01 8.501604e-01 7.429566e-01 1.053475e+00 1.153670e+00 9.785804e-01 8.711402e-01 1.017772e+00 7.302669e-01 6.456977e-01 3.888772e-01
<GCONST> 1.373935e+02
<STATE> 3
<MEAN> 39
 -4.223252e+00 -1.157809e+01 -1.253176e+00 -1.155527e+01 -7.287388e+00 -6.397427e+00 -1.133802e+01 -1.423215e+00 -2.976769e+00 -4.309115e+00 -6.599455e+00 5.931433e-01 6.826378e+01 -1.817385e-01 1.489504e-01 9.505721e-02 -1.045161e-01 1.710427e-01 3.859416e-01 1.600357e-01 -1.586469e-01 -3.596365e-02 1.630080e-01 -5.529448e-02 -6.668931e-02 -1.100347e-02 -5.272170e-02 -1.314789e-01 -8.931122e-02 -1.697805e-01 -6.520776e-02 2.303874e-01 1.908145e-01 -2.254670e-02 -1.116514e-01 1.056635e-01 -1.108962e-02 -7.526227e-02 2.368369e-01
<VARIANCE> 39
 2.828622e+01 4.442352e+01 8.653458e+01 8.027898e+01 7.730681e+01 8.874350e+01 8.724826e+01 7.080164e+01 7.335455e+01 6.791749e+01 6.025645e+01 5.261849e+01 5.990982e+01 7.387049e-01 2.285592e+00 2.851022e+00 3.449013e+00 3.556534e+00 4.839810e+00 5.430012e+00 4.409068e+00 4.137785e+00 4.833596e+00 3.338371e+00 2.928697e+00 2.039418e+00 1.218079e-01 4.101339e-01 4.245467e-01 7.250345e-01 6.259660e-01 9.854484e-01 1.066510e+00 8.243808e-01 7.853796e-01 9.940012e-01 6.515691e-01 5.614675e-01 3.772890e-01
<GCONST> 1.336943e+02
<STATE> 4
<MEAN> 39
 -8.934742e+00 -9.921408e+00 -1.695909e+00 -4.211867e+00 -1.613642e+00 2.469962e-01 -2.118779e+00 2.444798e+00 1.280085e+00 8.408451e-02 7.509623e-01 2.489780e+00 5.735212e+01 -1.183380e-01 1.031044e-01 1.356937e-01 6.258782e-02 -3.139484e-02 8.532551e-02 1.370351e-01 -1.329008e-02 2.997612e-02 1.508340e-01 5.241102e-02 3.370451e-02 -1.225691e-01 1.165885e-02 -5.653093e-03 1.048232e-02 -4.482681e-02 -4.640608e-02 -1.969118e-02 -3.027427e-02 -2.436281e-02 -4.183847e-02 -1.185768e-02 -3.885852e-02 -1.463667e-02 5.985398e-02
<VARIANCE> 39
 3.347789e+01 4.185051e+01 5.243326e+01 6.616341e+01 5.956632e+01 4.879368e+01 7.413261e+01 5.436807e+01 5.258416e+01 5.291996e+01 5.999003e+01 4.037503e+01 9.398707e+01 5.415491e-01 1.302727e+00 1.415074e+00 1.801409e+00 1.969145e+00 2.290674e+00 2.636015e+00 2.477450e+00 2.577669e+00 2.722983e+00 2.152485e+00 1.914914e+00 1.123750e+00 8.668759e-02 1.941083e-01 2.244022e-01 3.084152e-01 3.404669e-01 4.020689e-01 4.755395e-01 4.435754e-01 4.774930e-01 4.835896e-01 3.991804e-01 3.533729e-01 1.522292e-01
<GCONST> 1.154615e+02
<TRANSP> 5
 0.000000e+00 1.000000e+00 0.000000e+00 0.000000e+00 0.000000e+00
 0.000000e+00 5.865235e-01 4.134766e-01 0.000000e+00 0.000000e+00
 0.000000e+00 0.000000e+00 5.318230e-01 4.681770e-01 0.000000e+00
 0.000000e+00 0.000000e+00 0.000000e+00 8.778049e-01 1.221951e-01
 0.000000e+00 0.000000e+00 0.000000e+00 0.000000e+00 0.000000e+00
<ENDHMM>
~h "m"
<BEGINHMM>
<NUMSTATES> 5
<STATE> 2
<MEAN> 39
 -2.124913e+00 -8.804975e+00 -8.401066e-03 -8.129890e+00 -6.366963e+00 -5.092004e+00 -1.171489e+01 -3.864571e+00 -5.789214e+00 -2.252898e+00 -5.418904e+00 -2.455758e+00 6.373633e+01 2.077456e-01 9.266841e-01 1.055754e+00 1.790619e+00 1.388183e-01 -6.432739e-01 -1.170448e+00 -1.519750e+00 -4.187413e-01 2.445821e-01 -5.332914e-01 -8.501813e-01 -1.570582e+00 -2.292394e-01 -1.831289e-01 -6.859216e-02 -3.814281e-01 -1.182739e-01 6.081903e-02 1.041747e-01 4.831561e-02 -1.448912e-01 -9.442606e-02 -1.102075e-01 -2.265973e-02 4.276382e-01
<VARIANCE> 39
 2.418269e+01 3.798291e+01 4.659915e+01 6.707210e+01 5.328406e+01 5.877986e+01 6.179190e+01 6.471449e+01 6.069215e+01 5.069775e+01 5.183281e+01 5.798097e+01 4.637151e+01 1.556409e+00 2.448009e+00 4.846691e+00 5.154926e+00 4.291851e+00 4.255054e+00 4.748041e+00 5.054608e+00 4.609239e+00 4.548191e+00 4.233298e+00 4.005560e+00 3.119324e+00 2.354166e-01 3.937182e-01 7.587640e-01 9.258597e-01 6.311462e-01 6.411607e-01 7.875805e-01 1.051320e+00 7.854969e-01 7.755967e-01 6.774099e-01 6.738605e-01 4.353251e-01
<GCONST> 1.344804e+02
<STATE> 3
<MEAN> 39
 -2.171360e+00 -7.294820e+00 2.441583e+00 -5.246228e+00 -6.816621e+00 -6.691658e+00 -1.446080e+01 -7.615276e+00 -7.567979e+00 -1.965680e+00 -7.492970e+00 -5.127855e+00 6.167884e+01 -1.268981e-01 -1.652405e-01 1.598357e-01 -2.732961e-01 -3.992823e-01 -1.661243e-01 -6.677293e-02 -1.292837e-02 -1.046208e-01 -1.823683e-01 -2.653034e-01 -2.708079e-01 4.024477e-01 -1.129089e-01 -3.697177e-01 -3.276887e-01 -9.494717e-01 -1.704057e-01 3.329061e-01 4.587896e-01 6.381435e-01 1.647294e-01 -1.596763e-01 1.656785e-01 3.449185e-01 7.655935e-01
<VARIANCE> 39
 1.782082e+01 2.877680e+01 3.186338e+01 4.829965e+01 4.839552e+01 5.602615e+01 5.140428e+01 5.806971e+01 5.846437e+01 5.372276e+01 5.431114e+01 5.915279e+01 2.300133e+01 8.827395e-01 1.708245e+00 3.591608e+00 4.450174e+00 2.678340e+00 3.187036e+00 3.335397e+00 4.639732e+00 3.436439e+00 3.704829e+00 3.322827e+00 3.389562e+00 2.554979e+00 2.442576e-01 3.453968e-01 9.083303e-01 7.596434e-01 5.825671e-01 6.861886e-01 7.683126e-01 9.410478e-01 7.499357e-01 9.026701e-01 7.654209e-01 7.770319e-01 3.349192e-01
<GCONST> 1.283062e+02
<STATE> 4
<MEAN> 39
 -3.154701e+00 -7.437330e+00 2.996603e-01 -8.526463e+00 -7.346933e+00 -3.966616e+00 -9.870935e+00 -2.286998e+00 -5.023260e+00 -2.534719e+00 -5.228428e+00 -3.444239e+00 6.117814e+01 -2.017613e-01 -3.101966e-01 -2.104465e-01 -1.264544e+00 -4.197867e-01 3.694159e-01 4.696513e-01 6.651763e-01 1.723593e-01 -1.376237e-01 6.169374e-02 3.544810e-01 9.259696e-01 -9.371312e-02 -1.735350e-02 -3.740110e-02 -2.657634e-01 5.190358e-02 1.573173e-01 6.877107e-02 5.410687e-02 -4.912629e-02 1.725766e-02 2.697700e-02 1.101066e-01 1.606832e-01
<VARIANCE> 39
 3.098261e+01 3.867973e+01 5.218541e+01 7.367455e+01 6.136958e+01 5.352011e+01 6.511413e+01 6.545932e+01 6.103008e+01 4.617516e+01 5.417426e+01 4.822992e+01 6.077231e+01 1.260346e+00 1.931329e+00 4.336366e+00 5.192925e+00 3.098563e+00 3.185599e+00 3.314944e+00 4.308331e+00 3.094342e+00 3.807679e+00 3.004487e+00 2.853923e+00 2.487073e+00 1.735416e-01 2.743052e-01 5.000084e-01 7.360300e-01 4.910867e-01 5.147603e-01 5.476489e-01 6.437263e-01 5.437889e-01 5.680846e-01 5.003876e-01 4.559740e-01 2.456160e-01
<GCONST> 1.273545e+02
<TRANSP> 5
 0.000000e+00 1.000000e+00 0.000000e+00 0.000000e+00 0.000000e+00
 0.000000e+00 5.693114e-01 4.306886e-01 0.000000e+00 0.000000e+00
 0.000000e+00 0.000000e+00 6.083577e-01 3.916423e-01 0.000000e+00
 0.000000e+00 0.000000e+00 0.000000e+00 7.428043e-01 2.571956e-01
 0.000000e+00 0.000000e+00 0.000000e+00 0.000000e+00 0.000000e+00
<ENDHMM>
~h "n"
<BEGINHMM>
<NUMSTATES> 5
<STATE> 2
<MEAN> 39
 -4.979537e+00 -8.112449e+00 7.686141e-01 -7.403882e+00 -7.799184e+00 -6.816283e+00 -7.825235e+00 -1.617847e+00 -3.661469e+00 -2.952246e+00 -4.331245e+00 4.405468e-01 6.293113e+01 5.094408e-01 9.098194e-01 1.033576e+00 1.155857e+00 -6.869001e-01 -3.235836e-01 -5.747883e-01 -9.619026e-01 2.501000e-01 -3.988157e-01 -2.511929e-01 -1.508382e-01 -1.382870e+00 -1.106555e-01 -9.251852e-02 -9.958181e-02 -3.395401e-01 4.790847e-02 1.923651e-01 -5.003587e-02 -5.099489e-03 -7.540159e-02 -3.234649e-02 -8.746286e-02 -6.371650e-02 3.449357e-01
<VARIANCE> 39
 3.156841e+01 3.977338e+01 4.579501e+01 5.823425e+01 6.440102e+01 6.106297e+01 7.835594e+01 6.872776e+01 6.935274e+01 5.192924e+01 6.271745e+01 5.138319e+01 6.969133e+01 1.383811e+00 2.217735e+00 4.105172e+00 3.895845e+00 4.273622e+00 4.010129e+00 4.737061e+00 4.682367e+00 4.169096e+00 4.053314e+00 3.456061e+00 3.037368e+00 3.505761e+00 2.683982e-01 3.662818e-01 6.526443e-01 7.480693e-01 6.616721e-01 7.374112e-01 7.862595e-01 8.659461e-01 7.302309e-01 6.913943e-01 6.161150e-01 5.461995e-01 5.554066e-01
<GCONST> 1.338484e+02
<STATE> 3
<MEAN> 39
 -2.924512e+00 -5.548350e+00 3.722740e+00 -6.008923e+00 -1.093710e+01 -8.045448e+00 -1.112393e+01 -5.601239e+00 -3.963926e+00 -4.643218e+00 -6.578679e+00 -8.716062e-01 6.130293e+01 -8.312052e-02 2.045891e-01 9.447283e-02 -2.725015e-01 -1.607834e-01 -4.799465e-02 -3.322609e-01 -1.358164e-01 -2.557075e-02 -2.067435e-01 -4.071507e-01 -2.410545e-01 3.198787e-01 -3.707418e-01 -4.488940e-01 -5.066181e-01 -8.562324e-01 3.935202e-01 1.843807e-01 2.344421e-01 5.868868e-01 -2.408626e-01 1.809485e-01 3.083698e-02 3.497287e-02 9.555410e-01
<VARIANCE> 39
 2.211358e+01 3.283121e+01 3.261087e+01 4.359829e+01 4.500245e+01 4.574698e+01 5.439506e+01 5.409494e+01 6.012214e+01 5.040446e+01 5.668051e+01 5.224575e+01 3.042906e+01 1.366359e+00 2.393170e+00 4.222584e+00 4.582160e+00 3.862639e+00 3.746789e+00 4.631444e+00 5.243434e+00 3.867093e+00 3.692719e+00 3.318383e+00 2.950897e+00 4.600165e+00 2.915314e-01 4.248037e-01 1.075550e+00 8.661278e-01 8.608210e-01 8.275756e-01 9.639918e-01 9.637487e-01 7.850897e-01 7.965107e-01 6.664287e-01 6.100726e-01 5.181796e-01
<GCONST> 1.324433e+02
<STATE> 4
<MEAN> 39
 -3.732776e+00 -6.902403e+00 1.215861e+00 -9.737951e+00 -9.560577e+00 -7.341023e+00 -1.078293e+01 -2.888915e+00 -5.280151e+00 -4.560327e+00 -7.243901e+00 -1.967753e+00 6.435007e+01 -6.867805e-01 -6.528058e-01 -7.107692e-01 -1.609905e+00 6.617476e-01 5.055460e-01 2.043127e-01 8.557503e-01 -5.014423e-01 2.465851e-01 -6.306146e-02 3.406301e-03 1.727316e+00 -9.374202e-02 -2.268996e-01 -5.527959e-02 -2.392198e-01 1.129508e-01 2.483550e-01 7.202137e-02 6.291429e-02 -1.351056e-01 7.069730e-02 8.677468e-02 5.028402e-02 2.293812e-01
<VARIANCE> 39
 2.636829e+01 4.434609e+01 5.535167e+01 6.120993e+01 5.161838e+01 5.050635e+01 6.019592e+01 6.356451e+01 5.778723e+01 4.652746e+01 4.756231e+01 4.402968e+01 6.147976e+01 1.446779e+00 3.363708e+00 6.357404e+00 5.411925e+00 4.504334e+00 3.732744e+00 5.024277e+00 4.957512e+00 4.058958e+00 3.881475e+00 3.217045e+00 2.949754e+00 3.897519e+00 2.154990e-01 3.876887e-01 7.170576e-01 8.002322e-01 6.478347e-01 6.317843e-01 7.228737e-01 8.197760e-01 6.577152e-01 5.956464e-01 5.365363e-01 4.849178e-01 5.246286e-01
<GCONST> 1.327902e+02
<TRANSP> 5
 0.000000e+00 1.000000e+00 0.000000e+00 0.000000e+00 0.000000e+00
 0.000000e+00 5.690407e-01 4.309594e-01 0.000000e+00 0.000000e+00
 0.000000e+00 0.000000e+00 5.582647e-01 4.417353e-01 0.000000e+00
 0.000000e+00 0.000000e+00 0.000000e+00 6.481898e-01 3.518102e-01
 0.000000e+00 0.000000e+00 0.000000e+00 0.000000e+00 0.000000e+00
<ENDHMM>
~h "o"
<BEGINHMM>
<NUMSTATES> 5
<STATE> 2
<MEAN> 39
 1.710426e+00 -2.022675e+00 -7.836570e+00 -2.077787e+01 -6.354100e+00 -2.172974e-01 -7.758216e+00 1.573235e+00 -8.710445e+00 -3.945438e+00 -3.860944e+00 2.067413e-01 6.634140e+01 7.739601e-01 1.951522e-01 -1.996818e+00 -4.223866e+00 6.172150e-03 3.445317e-01 -1.102270e+00 5.280708e-01 -1.295982e+00 -4.485273e-01 -1.009285e-01 4.681916e-01 9.727435e-01 -5.160723e-01 -4.553177e-01 2.181520e-01 6.371127e-01 5.009481e-01 2.007789e-01 9.367667e-03 -2.118239e-01 2.868879e-01 1.833797e-01 1.239883e-01 -5.083660e-02 -3.510330e-03
<VARIANCE> 39
 2.387209e+01 2.711460e+01 3.403709e+01 9.398009e+01 4.932378e+01 4.344165e+01 4.275710e+01 5.039260e+01 4.387205e+01 3.455186e+01 3.493503e+01 4.115780e+01 2.605842e+01 2.064000e+00 2.551252e+00 3.022163e+00 8.898622e+00 4.852354e+00 3.846752e+00 5.927369e+00 4.995773e+00 4.104816e+00 3.636380e+00 3.619900e+00 3.384952e+00 1.739269e+00 3.019990e-01 3.776493e-01 4.009868e-01 1.462569e+00 6.399754e-01 5.930760e-01 7.587072e-01 7.852449e-01 8.162671e-01 6.913725e-01 5.413071e-01 5.604789e-01 3.454658e-01
<GCONST> 1.294320e+02
<STATE> 3
<MEAN> 39
 4.532403e-01 -5.703609e+00 -1.275236e+01 -2.849496e+01 -2.004835e+00 3.038885e+00 -1.076016e+01 1.492280e+00 -1.081650e+01 -3.725296e+00 -2.363390e+00 5.233384e-01 7.046550e+01 -4.152511e-01 -1.101541e+00 -4.295028e-01 7.739004e-02 9.308516e-01 3.345911e-01 -4.469457e-01 -5.617834e-01 6.223301e-01 5.063033e-01 9.397089e-02 -5.440305e-01 6.960638e-01 -8.240468e-02 -4.578518e-02 3.411065e-01 7.673051e-01 -1.158791e-01 -2.350458e-01 9.698295e-02 -7.360676e-02 4.244078e-01 8.829145e-02 -2.181808e-01 -2.107763e-01 -1.706328e-01
<VARIANCE> 39
 2.179926e+01 3.048357e+01 3.445898e+01 4.331256e+01 5.104403e+01 5.708684e+01 4.782178e+01 5.815630e+01 5.339101e+01 4.336900e+01 4.542173e+01 5.222415e+01 2.436534e+01 5.628639e-01 1.402648e+00 1.134872e+00 3.291371e+00 2.192333e+00 2.138550e+00 2.514475e+00 2.491740e+00 3.210142e+00 2.761157e+00 3.218473e+00 3.115030e+00 9.231002e-01 1.271541e-01 2.263728e-01 2.882131e-01 6.944816e-01 4.513201e-01 4.443845e-01 5.069316e-01 4.858159e-01 5.999987e-01 5.562813e-01 6.579310e-01 6.059548e-01 1.216159e-01
<GCONST> 1.166848e+02
<STATE> 4
<MEAN> 39
 -3.164180e+00 -1.064533e+01 -1.100129e+01 -1.781578e+01 1.200632e+00 9.863031e-01 -1.013539e+01 -1.152459e+00 -2.340838e+00 -1.539235e+00 -4.687590e+00 -1.995525e+00 6.849358e+01 -4.456664e-01 -5.817313e-02 1.034176e+00 2.021438e+00 -6.268958e-01 -1.075144e+00 2.634437e-01 1.436555e-01 8.986558e-01 -2.179320e-01 -4.994845e-01 2.793465e-01 -6.694978e-01 -6.148521e-02 3.459390e-01 2.882077e-01 2.661405e-01 -2.011744e-01 -8.136664e-03 3.388290e-01 7.991976e-02 -2.543342e-01 -1.049557e-01 2.893317e-01 2.592861e-01 -3.259397e-01
<VARIANCE> 39
 2.916551e+01 3.613928e+01 3.671257e+01 9.089803e+01 5.595741e+01 8.543639e+01 7.926913e+01 5.719925e+01 6.883547e+01 5.062206e+01 6.349870e+01 5.200826e+01 8.638533e+01 1.071914e+00 2.423019e+00 2.310916e+00 4.155361e+00 3.928459e+00 4.282490e+00 3.954240e+00 3.672883e+00 4.708740e+00 4.451905e+00 4.618462e+00 3.946091e+00 2.379268e+00 2.291536e-01 4.206873e-01 3.524595e-01 5.838453e-01 6.879412e-01 8.121274e-01 7.899638e-01 7.374877e-01 8.932984e-01 8.839902e-01 8.913543e-01 7.300637e-01 3.244038e-01
<GCONST> 1.330528e+02
<TRANSP> 5
 0.000000e+00 1.000000e+00 0.000000e+00 0.000000e+00 0.000000e+00
 0.000000e+00 6.986464e-01 3.013536e-01 0.000000e+00 0.000000e+00
 0.000000e+00 0.000000e+00 7.962102e-01 2.037898e-01 0.000000e+00
 0.000000e+00 0.000000e+00 0.000000e+00 8.258812e-01 1.741188e-01
 0.000000e+00 0.000000e+00 0.000000e+00 0.000000e+00 0.000000e+00
<ENDHMM>
~h "p"
<BEGINHMM>
<NUMSTATES> 5
<STATE> 2
<MEAN> 39
 -2.901624e+00 -5.195458e+00 2.075996e+00 -3.823554e+00 -4.952422e+00 -2.911480e+00 -6.765005e+00 -4.023072e+00 -3.210279e+00 -1.553160e+00 -3.724548e+00 -9.748251e-01 5.951785e+01 -8.913289e-01 9.971672e-01 5.654998e-01 2.429980e+00 1.435819e+00 1.178701e+00 1.829795e+00 8.264618e-01 1.409899e+00 6.828048e-01 1.081955e+00 3.450460e-01 -2.037947e+00 -4.879638e-01 -4.401570e-01 -1.101079e-01 -4.287201e-01 2.887915e-02 2.518782e-01 3.265266e-01 4.265808e-01 1.508608e-01 1.426995e-01 1.749936e-01 1.579541e-01 8.218516e-01
<VARIANCE> 39
 2.917495e+01 3.972741e+01 4.822070e+01 5.215615e+01 5.078460e+01 5.166654e+01 5.607975e+01 5.303954e+01 5.077973e+01 4.261068e+01 4.253035e+01 4.210281e+01 6.431522e+01 3.423961e+00 4.441428e+00 5.106872e+00 6.321745e+00 4.793174e+00 4.997560e+00 6.312529e+00 6.828096e+00 5.278092e+00 4.847461e+00 4.565372e+00 4.167345e+00 8.184435e+00 5.415339e-01 7.511635e-01 7.851005e-01 1.016045e+00 8.608542e-01 8.115013e-01 1.025369e+00 1.163814e+00 9.335209e-01 9.009852e-01 8.002750e-01 7.260150e-01 1.379147e+00
<GCONST> 1.414906e+02
<STATE> 3
<MEAN> 39
 -7.675057e+00 -4.991478e+00 2.835535e+00 3.846080e-01 -1.076079e+00 2.048977e+00 1.086232e+00 1.677409e+00 2.496719e+00 2.219827e+00 1.311985e+00 1.520347e+00 5.906564e+01 -1.022286e+00 -6.059677e-01 5.697716e-01 1.946948e-01 7.274611e-01 9.458112e-01 1.103761e+00 9.085524e-01 6.092368e-01 2.600423e-01 6.718554e-01 4.460798e-01 2.268838e+00 1.300642e-01 -2.122187e-01 -7.717824e-02 -6.337616e-01 -1.515580e-01 -1.497152e-01 -6.034410e-01 -4.295107e-01 -5.134758e-01 -3.959382e-01 -3.774201e-01 -1.172274e-01 6.743418e-01
<VARIANCE> 39
 3.676935e+01 3.196635e+01 4.130063e+01 2.608223e+01 3.345405e+01 2.939690e+01 3.055173e+01 3.270222e+01 3.453307e+01 3.156796e+01 2.646602e+01 2.242534e+01 9.498724e+01 3.982697e+00 4.106966e+00 5.345788e+00 3.853009e+00 4.520420e+00 4.075054e+00 4.496315e+00 4.827838e+00 4.795037e+00 4.334146e+00 3.758668e+00 3.217893e+00 9.391947e+00 7.749577e-01 8.332601e-01 9.833268e-01 8.793057e-01 8.722911e-01 7.764197e-01 8.520103e-01 9.161872e-01 8.758617e-01 8.010303e-01 6.955644e-01 6.091239e-01 2.267098e+00
<GCONST> 1.354233e+02
<STATE> 4
<MEAN> 39
 -1.177217e+01 -6.871148e+00 3.271721e+00 -2.215034e+00 1.597077e+00 4.165241e+00 5.146737e-01 1.682810e+00 1.597260e+00 7.494555e-01 1.405065e+00 2.257280e+00 6.592892e+01 3.440152e-02 -1.014222e-01 -3.579130e-01 -1.070234e+00 -2.954139e-01 -1.777964e-01 -9.142743e-01 -6.808736e-01 -8.065094e-01 -6.306523e-01 -4.907422e-01 -6.550184e-02 7.674584e-01 3.541765e-01 4.511281e-02 -1.596309e-01 -3.071791e-01 -4.642174e-01 -3.253410e-01 -3.891898e-01 -2.908725e-01 -3.109412e-01 -8.658668e-02 -2.600791e-01 -8.777046e-02 -2.705115e-01
<VARIANCE> 39
 4.732716e+01 6.064117e+01 5.561316e+01 3.878054e+01 5.076284e+01 3.362210e+01 3.525247e+01 3.463080e+01 3.335146e+01 3.440799e+01 2.536024e+01 2.211505e+01 7.662987e+01 3.806036e+00 4.239542e+00 4.101288e+00 3.877647e+00 5.854615e+00 4.080038e+00 4.264352e+00 4.104356e+00 3.831261e+00 3.315169e+00 2.989362e+00 2.534049e+00 4.485760e+00 6.476148e-01 6.909238e-01 7.878628e-01 7.465842e-01 9.739168e-01 7.589910e-01 8.147839e-01 7.923427e-01 7.155023e-01 6.561415e-01 5.943298e-01 5.226470e-01 8.408184e-01
<GCONST> 1.330564e+02
<TRANSP> 5
 0.000000e+00 1.000000e+00 0.000000e+00 0.000000e+00 0.000000e+00
 0.000000e+00 6.687322e-01 3.312678e-01 0.000000e+00 0.000000e+00
 0.000000e+00 0.000000e+00 6.664988e-01 3.335012e-01 0.000000e+00
 0.000000e+00 0.000000e+00 0.000000e+00 8.280009e-01 1.719991e-01
 0.000000e+00 0.000000e+00 0.000000e+00 0.000000e+00 0.000000e+00
<ENDHMM>
~h "q"
<BEGINHMM>
<NUMSTATES> 5
<STATE> 2
<MEAN> 39
 -1.124312e+01 -2.510834e-01 1.126103e+00 -1.853255e+00 -5.025826e+00 -3.048063e+00 -3.570824e+00 -2.847625e+00 -1.965766e+00 -1.019439e+00 -1.794624e+00 8.497399e-02 6.001720e+01 -2.945877e+00 1.250621e+00 -7.860314e-01 1.331414e+00 2.039218e+00 1.818899e+00 1.978108e+00 1.381608e+00 1.567727e+00 1.362790e+00 1.250065e+00 3.096165e-01 -4.093976e-01 -3.312539e-01 -4.028585e-01 -9.502729e-02 -6.388316e-01 -6.659208e-02 1.078174e-01 -7.545552e-02 2.123075e-01 6.861243e-02 2.414983e-01 -4.193300e-02 1.164118e-01 8.491887e-01
<VARIANCE> 39
 5.197717e+01 4.224152e+01 4.112905e+01 3.963130e+01 5.332425e+01 4.544986e+01 4.835593e+01 5.277304e+01 4.955717e+01 4.001447e+01 3.581514e+01 3.184155e+01 4.592329e+01 4.365655e+00 4.870366e+00 3.932011e+00 5.013030e+00 4.841357e+00 4.420926e+00 5.526219e+00 5.353811e+00 4.819283e+00 4.650861e+00 3.926462e+00 3.632206e+00 5.766489e+00 9.377421e-01 7.536510e-01 8.641122e-01 7.702215e-01 1.078267e+00 8.804907e-01 1.029219e+00 1.081052e+00 9.880740e-01 9.688109e-01 7.150448e-01 6.250975e-01 6.718085e-01
<GCONST> 1.389260e+02
<STATE> 3
<MEAN> 39
 -2.136093e+01 1.343115e+00 -1.261657e+00 -1.368084e+00 -1.070447e-01 2.332036e+00 1.354610e+00 1.945743e+00 2.852814e+00 3.761257e+00 1.728267e+00 2.020494e+00 6.350549e+01 -1.193586e+00 2.283517e-01 5.950212e-01 -6.521854e-01 1.655523e-01 7.117820e-01 3.217341e-01 1.367089e-01 2.655996e-01 3.510424e-01 2.050079e-01 4.227567e-03 1.823167e+00 8.402665e-01 -2.479757e-01 4.793864e-01 -2.136184e-01 -5.029390e-01 -3.088832e-01 -4.123334e-01 -4.354431e-01 -3.976190e-01 -3.909050e-01 -2.685726e-01 -1.288504e-01 1.828743e-02
<VARIANCE> 39
 4.345484e+01 4.376824e+01 3.583838e+01 3.608608e+01 2.973048e+01 2.512836e+01 2.684436e+01 2.683031e+01 2.766361e+01 2.335154e+01 2.213059e+01 1.895189e+01 5.869148e+01 3.873275e+00 2.955628e+00 3.227879e+00 2.374501e+00 2.733633e+00 2.702043e+00 2.723835e+00 2.864509e+00 2.871148e+00 2.711487e+00 2.386009e+00 1.994343e+00 2.355328e+00 6.660327e-01 5.381650e-01 5.160868e-01 5.691728e-01 6.446473e-01 5.650080e-01 6.193945e-01 6.188070e-01 6.107588e-01 5.633995e-01 5.050119e-01 4.400125e-01 4.858463e-01
<GCONST> 1.216550e+02
<STATE> 4
<MEAN> 39
 -1.952162e+01 -2.517798e-01 5.293697e+00 -4.323676e+00 -2.940600e+00 3.388125e+00 5.439569e-01 -2.426279e-02 1.532238e+00 2.888322e+00 1.430752e+00 1.291139e+00 6.826061e+01 1.386444e+00 -5.378716e-01 1.132851e+00 -7.088808e-01 -1.355934e+00 -6.070895e-01 -8.486626e-01 -9.150722e-01 -8.477938e-01 -4.614738e-01 -4.344935e-01 -7.234235e-02 2.888716e-01 3.568844e-01 -1.426672e-01 -7.086998e-02 -1.877975e-01 -2.795186e-01 -3.630175e-01 -3.199383e-01 -1.676874e-01 -2.816328e-01 -9.050401e-02 -2.137859e-01 2.556350e-02 -1.954224e-01
<VARIANCE> 39
 4.735876e+01 4.943445e+01 3.992234e+01 3.060501e+01 3.792112e+01 2.525561e+01 3.074379e+01 3.249310e+01 2.967264e+01 2.465172e+01 2.482375e+01 2.015555e+01 6.744499e+01 3.188364e+00 2.075837e+00 2.259696e+00 3.044378e+00 3.514988e+00 3.572582e+00 3.784581e+00 3.387719e+00 3.277364e+00 2.394930e+00 2.416678e+00 2.166323e+00 1.674057e+00 4.454239e-01 3.702917e-01 4.339907e-01 4.951243e-01 5.212353e-01 5.552927e-01 6.421244e-01 6.144335e-01 6.058536e-01 4.991114e-01 4.977764e-01 4.126769e-01 2.518283e-01
<GCONST> 1.208001e+02
<TRANSP> 5
 0.000000e+00 1.000000e+00 0.000000e+00 0.000000e+00 0.000000e+00
 0.000000e+00 7.342978e-01 2.657022e-01 0.000000e+00 0.000000e+00
 0.000000e+00 0.000000e+00 7.139604e-01 2.860396e-01 0.000000e+00
 0.000000e+00 0.000000e+00 0.000000e+00 8.569558e-01 1.430442e-01
 0.000000e+00 0.000000e+00 0.000000e+00 0.000000e+00 0.000000e+00
<ENDHMM>
~h "r"
<BEGINHMM>
<NUMSTATES> 5
<STATE> 2
<MEAN> 39
 -2.848418e+00 -1.563822e+01 8.775883e-01 -9.246051e+00 -1.443201e+01 -7.818868e+00 -9.355726e+00 -1.950686e-01 -6.266134e+00 -3.071686e+00 -4.713086e+00 1.837473e-01 6.993139e+01 2.111982e-01 -1.543301e-01 6.243421e-01 6.384026e-01 -8.615438e-01 -6.238052e-01 3.033487e-01 1.790513e-01 -4.101208e-01 -1.411144e-01 5.697122e-01 1.281117e-01 -2.744199e-01 -8.375812e-02 1.149283e-01 -7.197294e-02 -1.552494e-01 1.901987e-01 1.578424e-01 -4.744450e-03 -7.043289e-02 1.029273e-02 4.705494e-02 -1.233127e-02 -5.727473e-02 5.522828e-02
<VARIANCE> 39
 3.344911e+01 4.065598e+01 6.966422e+01 8.561742e+01 8.065227e+01 7.738577e+01 8.033019e+01 6.597745e+01 6.884659e+01 6.180200e+01 5.425143e+01 4.757357e+01 5.202821e+01 8.104879e-01 1.627907e+00 2.728074e+00 4.462970e+00 4.000514e+00 4.457574e+00 3.976676e+00 4.422301e+00 3.863040e+00 4.357360e+00 3.512501e+00 3.195815e+00 1.349956e+00 1.269422e-01 2.296373e-01 3.125536e-01 7.613484e-01 6.852590e-01 7.779343e-01 6.414763e-01 7.226970e-01 6.549690e-01 7.447873e-01 6.113957e-01 5.561366e-01 1.717838e-01
<GCONST> 1.292033e+02
<STATE> 3
<MEAN> 39
 -2.779802e+00 -1.570344e+01 4.101563e+00 -9.678380e+00 -1.733326e+01 -9.262302e+00 -7.800428e+00 2.959575e-01 -8.661549e+00 -2.977690e+00 -3.207611e+00 -4.459500e-01 6.996875e+01 -1.021023e-01 3.502882e-02 -1.754304e-01 -2.983888e-01 2.138041e-01 1.187748e-01 3.279817e-01 3.571751e-01 2.514607e-02 -2.507146e-02 -4.876518e-02 -1.365994e-01 1.569132e-01 -6.527441e-02 4.551012e-02 -1.754760e-01 -1.392117e-01 2.325049e-01 1.136490e-01 6.369639e-03 1.503609e-02 8.068171e-02 -2.587283e-02 -1.492344e-01 -1.467129e-02 8.290321e-02
<VARIANCE> 39
 3.007740e+01 3.418630e+01 5.615470e+01 7.580299e+01 7.082220e+01 6.769874e+01 6.655671e+01 6.930219e+01 6.273207e+01 5.414239e+01 4.768320e+01 4.441087e+01 4.480835e+01 6.463997e-01 1.166649e+00 2.088074e+00 3.558533e+00 2.731501e+00 2.646230e+00 2.936229e+00 3.514506e+00 2.686835e+00 2.879381e+00 2.704822e+00 2.251547e+00 1.259816e+00 9.069969e-02 1.763602e-01 2.449189e-01 5.079178e-01 4.572771e-01 4.741958e-01 4.750201e-01 5.943760e-01 4.724351e-01 5.222090e-01 4.648094e-01 3.990206e-01 1.567045e-01
<GCONST> 1.196400e+02
<STATE> 4
<MEAN> 39
 -6.688238e+00 -1.161356e+01 4.285221e-01 -5.923279e+00 -7.838419e+00 -3.502488e+00 -2.372918e+00 3.183331e+00 -2.310928e+00 -1.450870e+00 -5.528551e-01 1.331877e+00 6.100387e+01 -1.335874e-01 2.073931e-01 -6.400256e-02 7.733718e-02 2.536100e-01 6.829802e-02 7.326002e-02 -9.991543e-03 6.711195e-02 1.556890e-02 -8.307852e-03 3.569994e-02 -1.769901e-01 1.681905e-02 3.449992e-02 1.551957e-02 7.839722e-03 -5.210191e-03 -1.628253e-02 -7.641262e-02 -6.162368e-02 -1.862147e-02 7.773811e-03 -6.724592e-03 2.782957e-03 -2.123943e-02
<VARIANCE> 39
 3.772444e+01 4.109647e+01 3.978366e+01 6.738843e+01 9.327766e+01 6.114800e+01 6.366076e+01 5.376514e+01 6.982605e+01 4.943390e+01 5.301626e+01 3.713724e+01 1.167630e+02 4.596355e-01 9.866965e-01 1.174372e+00 1.590369e+00 1.754250e+00 1.844727e+00 2.054237e+00 2.181201e+00 2.156790e+00 2.136866e+00 1.877913e+00 1.618623e+00 7.751706e-01 7.028461e-02 1.348783e-01 1.665918e-01 2.525089e-01 2.748757e-01 3.215314e-01 3.496788e-01 3.898304e-01 3.782065e-01 3.802474e-01 3.345209e-01 2.981274e-01 9.430190e-02
<GCONST> 1.102379e+02
<TRANSP> 5
 0.000000e+00 1.000000e+00 0.000000e+00 0.000000e+00 0.000000e+00
 0.000000e+00 6.749327e-01 3.250673e-01 0.000000e+00 0.000000e+00
 0.000000e+00 0.000000e+00 7.110822e-01 2.889178e-01 0.000000e+00
 0.000000e+00 0.000000e+00 0.000000e+00 8.737854e-01 1.262146e-01
 0.000000e+00 0.000000e+00 0.000000e+00 0.000000e+00 0.000000e+00
<ENDHMM>
~h "s"
<BEGINHMM>
<NUMSTATES> 5
<STATE> 2
<MEAN> 39
 -1.041951e+01 8.192039e-02 -2.480873e+00 -1.629073e+00 -5.368365e+00 -6.494548e+00 -4.788397e+00 -2.866468e+00 -4.456630e+00 -3.819498e+00 -2.291826e+00 5.610927e-01 6.627790e+01 -3.053112e+00 2.013347e+00 -1.780526e-01 3.107613e+00 1.577101e+00 1.834887e+00 2.297687e+00 1.056030e+00 1.475319e+00 1.287404e+00 1.255225e+00 1.934489e-01 -6.238747e-01 -3.150528e-01 -5.941874e-01 -8.841550e-02 -4.347891e-01 2.749217e-02 4.518758e-01 1.531863e-01 4.457559e-01 2.144711e-01 4.762526e-01 5.170618e-02 8.919740e-02 1.083516e-01
<VARIANCE> 39
 4.815761e+01 4.050966e+01 3.817688e+01 5.168979e+01 6.006381e+01 6.351565e+01 5.574502e+01 4.397095e+01 4.635083e+01 4.139069e+01 3.384591e+01 3.178028e+01 4.488676e+01 3.482941e+00 5.549670e+00 4.023356e+00 5.140747e+00 4.842051e+00 6.097448e+00 5.597335e+00 6.188256e+00 4.613372e+00 5.197903e+00 3.783206e+00 3.676418e+00 1.496022e+00 7.343306e-01 7.091177e-01 4.868040e-01 8.625985e-01 7.487820e-01 9.607213e-01 9.696837e-01 8.259440e-01 7.322499e-01 8.267984e-01 6.293806e-01 5.964203e-01 1.667911e-01
<GCONST> 1.350251e+02
<STATE> 3
<MEAN> 39
 -1.978423e+01 1.786505e+00 -3.858379e+00 3.828278e+00 -1.441800e+00 2.640059e-01 1.758806e+00 2.319619e+00 9.236610e-01 2.093394e+00 1.443401e+00 1.968271e+00 6.502231e+01 -1.133340e+00 -3.370726e-01 -2.660381e-01 3.097716e-01 3.942641e-01 7.967293e-01 7.069094e-01 9.902998e-01 8.024574e-01 8.797094e-01 5.641563e-01 4.063826e-01 -2.481340e-01 8.675227e-01 -3.637634e-01 8.398499e-02 -7.142738e-01 -3.621652e-01 -5.976931e-01 -6.592759e-01 -3.591926e-01 -3.995865e-01 -4.482018e-01 -3.254206e-01 -5.469220e-02 2.124748e-01
<VARIANCE> 39
 3.450109e+01 3.410213e+01 2.725407e+01 3.270304e+01 3.790664e+01 3.703529e+01 3.341939e+01 2.830416e+01 2.881015e+01 2.566692e+01 2.179188e+01 1.819843e+01 3.720350e+01 2.967135e+00 1.744001e+00 1.757003e+00 2.258246e+00 2.134181e+00 3.180381e+00 2.977935e+00 2.912249e+00 2.727866e+00 2.927438e+00 2.337860e+00 2.081608e+00 9.716944e-01 4.025598e-01 4.806846e-01 3.961820e-01 5.498604e-01 4.901189e-01 6.434031e-01 6.388904e-01 6.116865e-01 5.569565e-01 5.951049e-01 4.962557e-01 4.590567e-01 2.035922e-01
<GCONST> 1.171378e+02
<STATE> 4
<MEAN> 39
 -1.642747e+01 -2.922042e+00 -2.255881e+00 2.426511e-01 -1.562675e-01 -9.234376e-01 7.894450e-01 3.883317e+00 1.614193e+00 2.438479e+00 2.239168e+00 3.260194e+00 6.215641e+01 1.280180e+00 -7.079098e-01 -4.707229e-02 -1.248534e+00 -4.312112e-01 -9.212645e-01 -1.061923e+00 -2.612771e-01 -3.836381e-01 -5.005206e-01 -5.058033e-01 3.360034e-02 7.786083e-01 3.493771e-01 -2.546459e-01 -8.366209e-02 -3.989258e-01 -8.876687e-02 -1.335295e-01 -2.990202e-01 -1.370940e-01 -1.752365e-01 -1.870694e-01 -1.841228e-01 -3.325845e-02 1.759655e-01
<VARIANCE> 39
 5.252362e+01 4.809758e+01 2.665217e+01 4.011655e+01 3.981662e+01 4.471986e+01 4.381243e+01 3.297147e+01 3.241863e+01 2.949618e+01 3.104112e+01 2.237541e+01 6.483509e+01 5.723509e+00 3.517473e+00 1.778028e+00 5.108682e+00 2.512443e+00 4.160201e+00 5.300284e+00 3.154950e+00 2.681253e+00 3.109294e+00 3.116783e+00 2.520987e+00 1.985484e+00 6.921781e-01 4.758155e-01 3.306550e-01 6.346830e-01 4.748098e-01 7.077327e-01 7.443402e-01 5.939199e-01 5.274240e-01 5.363320e-01 5.248109e-01 4.684752e-01 2.581370e-01
<GCONST> 1.254663e+02
<TRANSP> 5
 0.000000e+00 1.000000e+00 0.000000e+00 0.000000e+00 0.000000e+00
 0.000000e+00 6.600600e-01 3.399400e-01 0.000000e+00 0.000000e+00
 0.000000e+00 0.000000e+00 6.856092e-01 3.143909e-01 0.000000e+00
 0.000000e+00 0.000000e+00 0.000000e+00 8.404760e-01 1.595240e-01
 0.000000e+00 0.000000e+00 0.000000e+00 0.000000e+00 0.000000e+00
<ENDHMM>
~h "t"
<BEGINHMM>
<NUMSTATES> 5
<STATE> 2
<MEAN> 39
 -6.119876e+00 -4.283035e+00 1.874951e+00 -2.997293e+00 -5.377585e+00 -3.022372e+00 -4.058236e+00 -2.281160e+00 -1.149158e+00 -1.156938e+00 -2.093219e+00 7.197345e-01 5.747547e+01 -1.433071e+00 2.449100e-01 -4.036022e-02 1.698182e+00 1.815624e+00 1.798509e+00 2.247195e+00 1.505301e+00 1.553477e+00 1.320912e+00 1.593120e+00 3.917076e-01 -1.077383e+00 -2.744205e-01 -4.215980e-01 -1.676726e-01 -5.092956e-01 1.566627e-01 1.541824e-01 1.257956e-01 3.419834e-01 4.151167e-02 1.388840e-01 8.791790e-02 1.099225e-01 1.154973e+00
<VARIANCE> 39
 2.631777e+01 3.358202e+01 3.659244e+01 3.899297e+01 5.152928e+01 4.732196e+01 5.446574e+01 4.909901e+01 5.067175e+01 4.523910e+01 4.196488e+01 3.717665e+01 5.180833e+01 2.643032e+00 3.789353e+00 3.984164e+00 4.692239e+00 5.102446e+00 4.958265e+00 6.164914e+00 6.037535e+00 4.983118e+00 4.876506e+00 4.502152e+00 3.840137e+00 9.589473e+00 4.999037e-01 6.260691e-01 6.561252e-01 7.522982e-01 8.730841e-01 9.237611e-01 1.107526e+00 9.729164e-01 9.610833e-01 9.325233e-01 7.857338e-01 6.650292e-01 1.317536e+00
<GCONST> 1.383429e+02
<STATE> 3
<MEAN> 39
 -1.123884e+01 -5.386427e+00 1.554397e+00 -8.170797e-01 2.439283e-01 2.037165e+00 2.506280e+00 3.567582e+00 3.308116e+00 3.277015e+00 2.830899e+00 2.472796e+00 6.231924e+01 -7.655642e-01 -2.971170e-01 1.209664e-01 2.904353e-01 1.395252e+00 8.165164e-01 7.531859e-01 9.403463e-01 2.419891e-01 3.251062e-02 5.462357e-01 3.190584e-01 2.567963e+00 4.604598e-01 -1.054149e-01 -6.212180e-02 -3.865833e-01 -2.792284e-01 -4.131392e-01 -8.428657e-01 -5.918285e-01 -5.894266e-01 -6.183786e-01 -5.664774e-01 -1.299990e-01 1.941713e-01
<VARIANCE> 39
 3.230268e+01 3.767318e+01 3.148276e+01 3.179639e+01 3.739690e+01 3.659249e+01 3.717279e+01 3.491833e+01 3.742539e+01 3.274881e+01 2.762342e+01 2.462755e+01 1.025032e+02 3.666244e+00 4.799427e+00 4.225587e+00 3.666841e+00 4.441073e+00 4.714125e+00 5.069606e+00 4.859764e+00 4.982985e+00 4.824689e+00 3.937290e+00 3.255285e+00 8.569310e+00 7.119113e-01 8.402632e-01 9.079547e-01 8.332829e-01 9.227992e-01 1.014234e+00 1.107062e+00 1.068865e+00 9.964981e-01 9.629280e-01 8.494344e-01 6.864193e-01 2.380751e+00
<GCONST> 1.376724e+02
<STATE> 4
<MEAN> 39
 -1.273130e+01 -7.229103e+00 9.681658e-01 -2.605743e-01 2.532088e+00 2.663346e+00 1.791660e+00 4.448476e+00 3.216501e+00 2.435094e+00 3.564615e+00 3.726432e+00 6.057975e+01 2.702065e-01 -2.220297e-01 -1.954384e-01 -4.005547e-01 -5.247198e-02 -1.491045e-01 -6.550149e-01 -4.847066e-01 -4.849070e-01 -4.893716e-01 -3.866419e-01 -9.230045e-02 5.064182e-01 2.070690e-01 -3.152773e-02 -1.064320e-01 -2.524540e-01 -2.935408e-01 -1.479095e-01 -2.440065e-01 -2.297314e-01 -1.799535e-01 -9.668740e-02 -1.679334e-01 -5.353953e-02 -1.260596e-01
<VARIANCE> 39
 3.148568e+01 5.421262e+01 2.979010e+01 3.233698e+01 3.862120e+01 3.476034e+01 3.687969e+01 3.309952e+01 3.480287e+01 3.508764e+01 3.005063e+01 2.477540e+01 1.023228e+02 2.212075e+00 2.904812e+00 2.810610e+00 2.871204e+00 3.554167e+00 3.187591e+00 3.685870e+00 3.505703e+00 3.393823e+00 3.293737e+00 2.796421e+00 2.387892e+00 4.289072e+00 4.031429e-01 4.688528e-01 4.758433e-01 5.696364e-01 6.754014e-01 6.097562e-01 6.542831e-01 6.630543e-01 6.295044e-01 5.808587e-01 5.349929e-01 4.831496e-01 7.870297e-01
<GCONST> 1.260593e+02
<TRANSP> 5
 0.000000e+00 1.000000e+00 0.000000e+00 0.000000e+00 0.000000e+00
 0.000000e+00 6.501120e-01 3.498880e-01 0.000000e+00 0.000000e+00
 0.000000e+00 0.000000e+00 6.032780e-01 3.967219e-01 0.000000e+00
 0.000000e+00 0.000000e+00 0.000000e+00 8.769988e-01 1.230012e-01
 0.000000e+00 0.000000e+00 0.000000e+00 0.000000e+00 0.000000e+00
<ENDHMM>
~h "u"
<BEGINHMM>
<NUMSTATES> 5
<STATE> 2
<MEAN> 39
 -7.867527e-01 -3.470428e+00 -4.274211e+00 -1.123028e+01 -6.771024e+00 -2.156950e+00 -1.041447e+01 -3.827743e+00 -6.150572e+00 -1.805839e+00 -3.009622e+00 8.682070e-01 6.513023e+01 1.682885e+00 6.366727e-01 -1.050718e+00 -3.437089e+00 -8.138396e-01 3.259497e-01 -1.519356e+00 -8.354005e-01 -1.911269e+00 -5.556049e-01 -5.767385e-01 4.497747e-01 1.119825e-01 -5.171786e-01 -9.284173e-02 1.185977e-01 1.126562e-01 2.264383e-01 1.173321e-01 2.241482e-01 3.386930e-01 1.828015e-01 1.373817e-01 -9.023989e-03 3.771324e-02 -3.581331e-02
<VARIANCE> 39
 3.745747e+01 3.612199e+01 3.281609e+01 9.925552e+01 4.742679e+01 4.548949e+01 7.014169e+01 6.159495e+01 5.305447e+01 4.125962e+01 3.995625e+01 3.569316e+01 4.288675e+01 3.724739e+00 2.817116e+00 3.024114e+00 9.397560e+00 5.158996e+00 5.786884e+00 6.216154e+00 6.190059e+00 5.768722e+00 4.793433e+00 4.567576e+00 3.906130e+00 1.887650e+00 5.077837e-01 4.402779e-01 4.582595e-01 1.498935e+00 7.669055e-01 8.943632e-01 1.133594e+00 1.104632e+00 1.003569e+00 8.530664e-01 7.328871e-01 6.753616e-01 3.053479e-01
<GCONST> 1.372463e+02
<STATE> 3
<MEAN> 39
 1.105986e+00 -2.061722e+00 -7.775100e+00 -2.168450e+01 -7.431535e+00 -6.011747e-01 -1.383107e+01 -3.390990e+00 -1.155606e+01 -2.745540e+00 -5.395704e+00 2.470197e+00 6.617427e+01 -7.382394e-02 -1.804777e-01 -1.089350e-01 -2.999423e-01 2.600527e-01 -4.714485e-02 -5.872083e-01 -2.657616e-01 2.043262e-02 3.020744e-01 -2.135856e-01 -4.324292e-02 1.010783e-01 -3.639795e-01 -1.936271e-01 4.225637e-01 1.061375e+00 1.014886e-01 -2.906343e-01 2.721584e-01 6.464136e-02 6.049058e-01 1.506374e-01 7.892154e-02 -2.209220e-01 -8.144147e-02
<VARIANCE> 39
 2.354882e+01 3.716108e+01 3.458640e+01 6.452652e+01 4.718745e+01 5.422714e+01 6.225171e+01 6.477662e+01 6.514742e+01 5.425061e+01 5.467117e+01 4.533785e+01 2.685713e+01 1.013442e+00 2.312432e+00 2.022361e+00 8.005095e+00 3.451327e+00 4.420088e+00 5.402997e+00 5.012457e+00 5.075794e+00 4.456734e+00 4.178312e+00 3.491584e+00 1.138944e+00 2.748673e-01 3.542686e-01 4.611252e-01 9.523619e-01 7.200193e-01 9.919129e-01 1.046057e+00 9.965695e-01 9.075508e-01 9.266899e-01 8.245282e-01 7.269440e-01 1.884442e-01
<GCONST> 1.313758e+02
<STATE> 4
<MEAN> 39
 -2.991006e+00 -3.892890e+00 -4.320535e+00 -1.240038e+01 -5.046775e+00 -1.297979e+00 -8.606169e+00 -1.336282e+00 -3.583678e+00 -1.166856e-01 -2.087608e+00 2.115208e+00 6.041847e+01 -7.275230e-01 -3.587794e-01 8.237523e-01 1.602447e+00 1.892537e-01 -4.474530e-01 3.644089e-01 1.119681e-01 8.284635e-01 1.467698e-01 2.353891e-02 -2.328732e-01 -3.625736e-01 -1.888128e-01 7.967237e-02 1.705172e-01 1.967603e-01 -3.715343e-02 3.151405e-02 3.454838e-01 1.478713e-01 -4.237816e-04 -1.193769e-01 5.538473e-02 2.660062e-04 -9.239065e-02
<VARIANCE> 39
 4.783864e+01 5.270033e+01 3.694376e+01 1.102552e+02 6.091666e+01 5.554734e+01 1.094015e+02 6.640608e+01 7.601932e+01 5.274673e+01 6.040517e+01 3.913693e+01 7.088953e+01 1.578880e+00 2.038807e+00 2.983082e+00 5.860890e+00 3.609395e+00 4.483085e+00 4.877207e+00 3.822755e+00 4.286944e+00 4.194623e+00 3.536783e+00 2.952325e+00 1.864811e+00 2.832640e-01 3.854857e-01 4.750868e-01 8.367682e-01 6.416478e-01 7.432175e-01 1.143781e+00 7.997625e-01 7.772753e-01 8.405627e-01 6.772633e-01 5.491101e-01 3.147015e-01
<GCONST> 1.342256e+02
<TRANSP> 5
 0.000000e+00 1.000000e+00 0.000000e+00 0.000000e+00 0.000000e+00
 0.000000e+00 5.941654e-01 4.058346e-01 0.000000e+00 0.000000e+00
 0.000000e+00 0.000000e+00 7.089286e-01 2.910714e-01 0.000000e+00
 0.000000e+00 0.000000e+00 0.000000e+00 7.681795e-01 2.318205e-01
 0.000000e+00 0.000000e+00 0.000000e+00 0.000000e+00 0.000000e+00
<ENDHMM>
~h "v"
<BEGINHMM>
<NUMSTATES> 5
<STATE> 2
<MEAN> 39
 -9.416495e+00 -4.652773e+00 1.494490e+01 -1.086898e+01 -1.726173e+01 -3.936175e+00 -1.062792e+01 -1.117820e+01 -1.031315e+01 1.067174e+00 -6.247237e+00 -7.946393e-01 6.765540e+01 1.097515e+00 -8.476347e-01 7.384151e-01 -8.439822e-01 -1.405050e+00 -1.259378e+00 -9.110595e-01 -7.696043e-01 -1.521928e+00 3.814684e-02 -8.431625e-01 -1.256964e-01 3.951595e-01 -3.228043e-01 -4.555555e-02 -4.498365e-01 1.127593e-01 5.681986e-01 1.795719e-01 3.771665e-01 6.101431e-01 3.934074e-01 1.051490e-01 1.287764e-01 2.885445e-02 -4.994091e-02
<VARIANCE> 39
 3.329412e+01 3.308367e+01 3.343612e+01 5.955722e+01 3.977974e+01 4.163044e+01 4.350598e+01 4.994921e+01 5.806330e+01 3.552663e+01 4.725901e+01 4.269303e+01 3.664170e+01 3.487331e+00 2.529088e+00 2.871344e+00 3.443289e+00 4.435171e+00 4.577388e+00 4.799247e+00 5.477451e+00 5.379896e+00 3.590909e+00 4.413784e+00 3.113233e+00 1.319359e+00 3.893186e-01 3.231445e-01 3.545191e-01 5.604884e-01 6.246489e-01 6.603526e-01 7.119614e-01 7.783073e-01 7.117018e-01 6.190952e-01 6.042117e-01 5.025253e-01 1.837544e-01
<GCONST> 1.279530e+02
<STATE> 3
<MEAN> 39
 -8.115509e+00 -7.701312e+00 1.587951e+01 -1.337547e+01 -1.924865e+01 -6.547915e+00 -1.066907e+01 -1.097186e+01 -1.343986e+01 2.956749e+00 -8.570918e+00 -1.473584e+00 6.909920e+01 1.869367e-01 -1.905321e-01 -5.594009e-01 8.525492e-02 2.399646e-01 -5.106412e-01 1.623747e-01 5.523508e-01 1.477222e-01 -1.077202e-01 1.939877e-01 1.296144e-01 -6.914382e-02 -7.902583e-02 2.756713e-01 -3.965034e-01 3.770206e-01 4.634845e-01 1.918413e-01 1.536049e-01 2.202688e-01 4.792723e-01 -2.040585e-01 2.364183e-01 4.709155e-02 -2.571650e-01
<VARIANCE> 39
 2.571797e+01 3.112124e+01 2.991097e+01 5.155416e+01 2.969700e+01 4.058384e+01 3.997539e+01 5.372601e+01 6.291351e+01 3.558352e+01 4.431208e+01 4.073222e+01 2.974629e+01 9.369447e-01 1.532498e+00 1.948428e+00 2.503948e+00 2.094599e+00 2.416329e+00 2.522621e+00 2.658086e+00 2.708237e+00 2.526341e+00 2.784239e+00 2.132550e+00 8.913956e-01 2.475528e-01 2.747532e-01 3.211959e-01 5.118715e-01 4.805023e-01 4.827663e-01 5.836932e-01 5.432398e-01 5.825343e-01 4.508190e-01 4.930561e-01 3.915916e-01 1.771102e-01
<GCONST> 1.163191e+02
<STATE> 4
<MEAN> 39
 -7.669362e+00 -6.332908e+00 1.094212e+01 -8.554170e+00 -1.522668e+01 -6.093455e+00 -7.409729e+00 -6.593486e+00 -7.824455e+00 1.694802e+00 -3.663717e+00 2.116533e-01 6.365788e+01 9.403069e-03 4.388721e-01 -1.496393e+00 1.118285e+00 1.540166e+00 2.710304e-01 4.895235e-01 9.549252e-01 1.319597e+00 -5.840694e-01 5.334239e-01 2.234922e-01 -1.046567e+00 -1.369804e-01 1.049180e-01 -1.734417e-01 1.838374e-01 3.148647e-01 2.898312e-01 1.384151e-01 5.358118e-02 2.253850e-01 7.534682e-02 2.307449e-02 -3.284897e-02 -1.741711e-01
<VARIANCE> 39
 2.844825e+01 4.118563e+01 4.947052e+01 6.567015e+01 6.173023e+01 5.550674e+01 5.405419e+01 6.522781e+01 7.562831e+01 4.149819e+01 5.451252e+01 3.688194e+01 6.944952e+01 1.594767e+00 2.129247e+00 3.022682e+00 3.812138e+00 3.829964e+00 3.121887e+00 3.631257e+00 3.580389e+00 3.965724e+00 3.129693e+00 2.963035e+00 2.328188e+00 2.227989e+00 2.308054e-01 3.648112e-01 3.966697e-01 6.014265e-01 6.036370e-01 6.108128e-01 6.006380e-01 6.881025e-01 6.495943e-01 5.527186e-01 5.034372e-01 4.419701e-01 3.292664e-01
<GCONST> 1.275720e+02
<TRANSP> 5
 0.000000e+00 1.000000e+00 0.000000e+00 0.000000e+00 0.000000e+00
 0.000000e+00 5.342573e-01 4.657427e-01 0.000000e+00 0.000000e+00
 0.000000e+00 0.000000e+00 6.476305e-01 3.523695e-01 0.000000e+00
 0.000000e+00 0.000000e+00 0.000000e+00 6.990270e-01 3.009730e-01
 0.000000e+00 0.000000e+00 0.000000e+00 0.000000e+00 0.000000e+00
<ENDHMM>
~h "x"
<BEGINHMM>
<NUMSTATES> 5
<STATE> 2
<MEAN> 39
 -1.229132e+01 1.292701e+00 3.498670e+00 -4.638051e+00 -8.535669e+00 -4.541967e+00 -4.621462e+00 -5.493598e+00 -5.285243e+00 -2.231171e+00 -2.177545e+00 -3.808005e-01 6.672994e+01 -3.165126e+00 2.384336e+00 -3.554581e-01 2.467144e+00 2.155670e+00 1.932013e+00 2.338506e+00 8.264884e-01 1.552246e+00 1.172976e+00 1.360997e+00 -1.983346e-01 -3.452841e-01 -3.051291e-01 -5.528665e-01 -4.793438e-01 -3.489118e-01 3.734129e-01 3.725365e-01 6.987520e-02 5.352241e-01 4.087739e-01 4.110031e-01 -6.433585e-02 1.334385e-01 1.917384e-01
<VARIANCE> 39
 4.773989e+01 4.605654e+01 4.497737e+01 4.988132e+01 5.578452e+01 4.992630e+01 5.533353e+01 5.307684e+01 4.747735e+01 3.699237e+01 3.222185e+01 3.166557e+01 4.350671e+01 3.387164e+00 5.442750e+00 4.704193e+00 4.998604e+00 5.417583e+00 5.062775e+00 6.647579e+00 6.413393e+00 5.134782e+00 5.278588e+00 4.178146e+00 3.770577e+00 1.741916e+00 6.832130e-01 7.281103e-01 6.129716e-01 8.680320e-01 1.037415e+00 8.997695e-01 1.121009e+00 8.974491e-01 8.268900e-01 8.575206e-01 6.971505e-01 6.361606e-01 1.827529e-01
<GCONST> 1.366769e+02
<STATE> 3
<MEAN> 39
 -2.240381e+01 4.059315e+00 -5.008385e-01 -3.612061e-01 -1.552037e+00 2.367471e+00 1.286292e+00 -6.022799e-02 1.611321e+00 2.869506e+00 8.526368e-01 6.227130e-01 6.665745e+01 -1.210569e+00 -9.983326e-02 -4.798950e-01 4.403784e-02 6.169131e-01 8.730955e-01 5.007851e-01 7.642933e-01 9.248147e-01 6.503886e-01 3.729075e-01 2.911992e-01 1.378295e-01 8.292311e-01 -3.544844e-01 4.045325e-01 -5.706578e-01 -6.483709e-01 -5.218480e-01 -5.902833e-01 -4.531489e-01 -4.897759e-01 -3.845547e-01 -2.611037e-01 -4.916210e-04 1.017278e-01
<VARIANCE> 39
 3.578726e+01 3.704556e+01 3.985430e+01 3.316076e+01 3.219818e+01 2.519710e+01 2.925692e+01 2.861037e+01 2.885178e+01 2.512114e+01 2.231661e+01 1.836393e+01 3.592036e+01 2.379527e+00 1.643409e+00 2.195246e+00 1.962682e+00 2.449635e+00 2.397509e+00 2.649832e+00 2.889210e+00 2.627128e+00 2.575473e+00 2.141771e+00 1.906768e+00 7.792702e-01 4.124177e-01 4.435410e-01 3.830876e-01 5.437495e-01 5.845262e-01 5.571371e-01 6.214349e-01 6.217227e-01 5.615233e-01 5.570032e-01 4.952464e-01 4.440451e-01 1.525892e-01
<GCONST> 1.154675e+02
<STATE> 4
<MEAN> 39
 -2.031364e+01 1.175556e+00 2.625023e+00 -2.720115e+00 -2.540585e+00 2.401464e+00 1.644073e-01 -1.873057e-01 1.679373e+00 2.660323e+00 1.649913e+00 1.571840e+00 6.552369e+01 1.441227e+00 -5.943241e-01 1.117728e+00 -1.246930e+00 -1.509490e+00 -9.833906e-01 -1.109538e+00 -9.970258e-01 -9.122024e-01 -3.921632e-01 -4.313806e-01 2.609587e-02 5.121020e-01 4.714412e-01 -3.268687e-01 1.298151e-01 -3.827138e-01 -4.021650e-01 -3.462753e-01 -2.551905e-01 -1.468894e-01 -3.399487e-01 -9.246159e-02 -2.463505e-01 -1.430955e-02 1.105342e-01
<VARIANCE> 39
 4.724459e+01 5.348013e+01 4.404885e+01 3.347255e+01 3.900040e+01 2.949060e+01 3.425709e+01 3.951435e+01 3.018210e+01 2.502689e+01 2.580173e+01 2.088983e+01 6.150350e+01 4.573258e+00 2.675702e+00 2.590236e+00 3.919004e+00 4.480174e+00 3.754485e+00 3.648116e+00 3.738794e+00 3.257135e+00 2.303906e+00 2.417201e+00 2.379793e+00 1.151801e+00 5.214129e-01 4.582727e-01 4.755318e-01 4.925410e-01 6.173344e-01 6.067364e-01 6.295339e-01 7.079199e-01 6.062145e-01 5.112810e-01 5.068395e-01 4.409665e-01 1.634252e-01
<GCONST> 1.231118e+02
<TRANSP> 5
 0.000000e+00 1.000000e+00 0.000000e+00 0.000000e+00 0.000000e+00
 0.000000e+00 6.758292e-01 3.241708e-01 0.000000e+00 0.000000e+00
 0.000000e+00 0.000000e+00 7.268550e-01 2.731450e-01 0.000000e+00
 0.000000e+00 0.000000e+00 0.000000e+00 8.317010e-01 1.682990e-01
 0.000000e+00 0.000000e+00 0.000000e+00 0.000000e+00 0.000000e+00
<ENDHMM>
~h "z"
<BEGINHMM>
<NUMSTATES> 5
<STATE> 2
<MEAN> 39
 -6.964360e+00 -2.719089e+00 2.484624e-01 -2.173139e+00 -6.558821e+00 -5.480877e+00 -6.475743e+00 -3.395413e+00 -3.265643e+00 -3.440729e+00 -3.151624e+00 2.707657e-01 5.952430e+01 -1.738594e+00 1.353750e+00 -2.855822e-01 2.153431e+00 1.244048e+00 1.477771e+00 1.590025e+00 7.923405e-01 9.656764e-01 8.061527e-01 8.451071e-01 7.363832e-02 -1.551368e+00 -5.079249e-01 -3.403782e-01 -3.191251e-01 -3.681029e-01 8.268077e-02 3.039764e-01 3.122208e-01 4.209068e-01 1.623808e-01 4.006835e-01 1.861348e-01 1.482479e-01 5.743682e-01
<VARIANCE> 39
 3.162362e+01 3.890941e+01 3.742958e+01 4.372712e+01 5.658068e+01 5.794625e+01 6.323526e+01 5.085489e+01 5.273721e+01 5.076402e+01 4.458098e+01 4.123937e+01 5.325499e+01 3.504250e+00 4.072407e+00 3.940364e+00 4.972694e+00 4.602194e+00 4.993206e+00 6.020624e+00 5.286973e+00 4.784522e+00 5.054673e+00 3.838568e+00 3.684314e+00 4.876991e+00 5.253567e-01 6.071411e-01 5.687999e-01 8.358703e-01 7.821259e-01 9.928448e-01 9.644814e-01 8.272634e-01 8.274125e-01 8.759490e-01 6.810536e-01 7.047910e-01 6.979684e-01
<GCONST> 1.376157e+02
<STATE> 3
<MEAN> 39
 -1.601535e+01 -4.370708e-01 -2.493519e+00 2.166109e+00 -1.966250e+00 7.385535e-01 4.353712e-01 2.015622e+00 1.605472e+00 2.490968e+00 1.536615e+00 2.249245e+00 5.845375e+01 -1.580982e+00 1.541922e-01 -7.059990e-01 1.276853e-01 3.006807e-01 2.766972e-01 8.198456e-01 9.878454e-01 5.096891e-01 6.781687e-01 6.757149e-01 5.151998e-01 1.543851e+00 9.154967e-01 -4.353681e-01 1.241435e-01 -8.156127e-01 -4.189712e-01 -7.574448e-01 -7.440591e-01 -3.142041e-01 -4.094842e-01 -5.172673e-01 -4.308641e-01 -3.273657e-02 7.224478e-01
<VARIANCE> 39
 3.709952e+01 3.704892e+01 3.103181e+01 3.216352e+01 3.624660e+01 3.691471e+01 3.903273e+01 3.561867e+01 3.621987e+01 3.406902e+01 2.960856e+01 2.360277e+01 4.124998e+01 5.159609e+00 3.660365e+00 2.813804e+00 3.561700e+00 3.356036e+00 4.788933e+00 4.752376e+00 4.076766e+00 4.013079e+00 4.318807e+00 3.471179e+00 2.898099e+00 4.118269e+00 1.092139e+00 9.775385e-01 6.042326e-01 9.543214e-01 6.771736e-01 9.025625e-01 9.910774e-01 8.227246e-01 7.793610e-01 8.389774e-01 7.120336e-01 6.055471e-01 6.627138e-01
<GCONST> 1.323338e+02
<STATE> 4
<MEAN> 39
 -1.313685e+01 -2.435129e+00 -3.084698e+00 -2.664660e+00 -3.934767e+00 -4.694113e+00 -2.811881e+00 2.354807e+00 1.779082e-01 1.195180e-01 -3.769188e-01 2.939826e+00 6.744960e+01 2.370794e+00 -2.046319e+00 -2.828564e-01 -2.856008e+00 -7.163912e-01 -1.707834e+00 -1.857515e+00 -1.586529e-01 -7.531014e-01 -1.095694e+00 -1.252001e+00 9.126747e-02 2.282975e+00 3.778406e-01 -5.110127e-01 -7.366259e-02 -4.843549e-01 3.796073e-02 2.346117e-01 -2.569069e-01 -2.285415e-01 -2.855893e-01 -1.577133e-01 -2.489166e-01 -1.761155e-01 -2.291290e-01
<VARIANCE> 39
 6.531628e+01 5.097022e+01 3.047035e+01 5.919206e+01 5.255021e+01 6.298680e+01 6.854222e+01 3.904536e+01 3.558649e+01 3.902560e+01 3.812099e+01 2.804025e+01 5.202053e+01 6.888170e+00 7.404129e+00 3.074698e+00 7.299588e+00 4.352691e+00 6.406020e+00 9.179489e+00 5.427051e+00 4.434750e+00 5.164117e+00 4.941679e+00 3.734935e+00 2.766591e+00 1.609347e+00 1.090359e+00 5.268223e-01 1.300041e+00 8.549258e-01 1.426298e+00 1.463912e+00 9.000899e-01 7.551262e-01 8.894276e-01 8.549312e-01 6.971176e-01 4.039492e-01
<GCONST> 1.416238e+02
<TRANSP> 5
 0.000000e+00 1.000000e+00 0.000000e+00 0.000000e+00 0.000000e+00
 0.000000e+00 6.929241e-01 3.070759e-01 0.000000e+00 0.000000e+00
 0.000000e+00 0.000000e+00 6.605711e-01 3.394289e-01 0.000000e+00
 0.000000e+00 0.000000e+00 0.000000e+00 6.758503e-01 3.241497e-01
 0.000000e+00 0.000000e+00 0.000000e+00 0.000000e+00 0.000000e+00
<ENDHMM>
~h "aa"
<BEGINHMM>
<NUMSTATES> 5
<STATE> 2
<MEAN> 39
 -5.267305e+00 -1.749373e+01 -9.907803e+00 -1.356031e+01 1.056636e+00 1.087687e+00 -6.205766e+00 -2.463276e-01 -4.660624e+00 -5.728283e+00 -5.182159e+00 -1.248516e+00 7.275886e+01 -1.951430e-01 -1.019366e+00 -4.314992e-01 1.017107e+00 1.139244e+00 3.726985e-01 -5.498488e-01 -3.944745e-01 -7.800436e-02 -5.075083e-01 1.122744e-01 1.531960e-01 3.716219e-01 -2.193141e-03 1.732469e-01 2.132945e-01 -1.472300e-02 -2.785118e-01 -1.551719e-01 -1.160188e-01 -5.305502e-02 -9.144153e-03 1.114615e-01 1.588772e-02 2.398331e-02 -4.108487e-02
<VARIANCE> 39
 2.711998e+01 4.949325e+01 4.577111e+01 8.600499e+01 7.953996e+01 6.927838e+01 8.796861e+01 5.727290e+01 6.298763e+01 5.844840e+01 5.327603e+01 5.289452e+01 6.614793e+01 7.152126e-01 1.730367e+00 1.700271e+00 2.865582e+00 3.195978e+00 2.711864e+00 3.504328e+00 3.075520e+00 3.368215e+00 3.516822e+00 2.969635e+00 3.291852e+00 1.742032e+00 1.077344e-01 2.309254e-01 2.303574e-01 3.863791e-01 4.312392e-01 3.904068e-01 6.349731e-01 5.529216e-01 5.534337e-01 5.948636e-01 5.047498e-01 5.720458e-01 2.483125e-01
<GCONST> 1.235964e+02
<STATE> 3
<MEAN> 39
 -5.415096e+00 -2.040224e+01 -1.112374e+01 -9.188731e+00 3.198961e+00 1.638574e+00 -1.059592e+01 -1.912267e+00 -5.620296e+00 -7.678790e+00 -4.996649e+00 -1.743324e+00 7.436995e+01 -7.768483e-02 1.244894e-02 1.120498e-01 2.508918e-01 -1.660002e-01 -1.549762e-01 6.219798e-02 5.412332e-02 -2.003787e-01 -1.195242e-01 1.029638e-01 1.104944e-01 -9.805322e-02 1.263915e-02 1.113242e-01 5.577303e-02 -9.972144e-02 -1.410997e-01 -4.195425e-02 1.414922e-01 7.178131e-02 -2.448706e-02 3.620667e-02 -1.107190e-02 6.187676e-03 -6.688622e-02
<VARIANCE> 39
 2.504308e+01 3.838797e+01 3.694143e+01 6.442873e+01 5.855727e+01 7.230614e+01 7.333692e+01 5.965873e+01 5.272618e+01 5.131289e+01 4.313604e+01 4.633327e+01 5.017112e+01 4.823452e-01 1.022763e+00 8.541668e-01 1.496489e+00 1.616601e+00 1.430109e+00 1.864148e+00 1.708801e+00 1.821584e+00 1.635859e+00 1.587035e+00 1.597611e+00 1.126441e+00 7.674184e-02 1.467662e-01 1.351613e-01 2.134612e-01 2.275770e-01 2.163641e-01 2.745278e-01 2.682853e-01 2.775144e-01 2.712563e-01 2.538159e-01 2.563404e-01 1.340570e-01
<GCONST> 1.051709e+02
<STATE> 4
<MEAN> 39
 -9.963625e+00 -1.218833e+01 -3.062283e+00 -1.897729e+00 4.333582e-01 9.130348e-01 -4.391007e-01 3.503479e+00 5.842285e-01 -5.258338e-01 1.913678e+00 3.194331e+00 5.749788e+01 -1.145536e-01 2.366546e-01 1.746270e-01 5.244390e-02 -1.518752e-01 -5.365483e-03 2.630915e-01 1.187567e-01 8.966810e-02 2.076641e-01 1.392578e-01 8.006246e-02 -3.284223e-01 2.301416e-02 1.069067e-02 -7.981744e-03 -4.006291e-02 -9.948857e-03 -7.233862e-04 -1.681693e-02 -2.114279e-02 -9.035412e-04 -4.444990e-03 -3.445697e-02 -2.684965e-02 1.422530e-02
<VARIANCE> 39
 2.385529e+01 5.252428e+01 3.786422e+01 4.355863e+01 4.659458e+01 3.973309e+01 5.913685e+01 5.001119e+01 6.252641e+01 5.936789e+01 4.840715e+01 3.322356e+01 1.163265e+02 4.604851e-01 1.114465e+00 1.028353e+00 1.277118e+00 1.639652e+00 1.619051e+00 2.010960e+00 2.039978e+00 2.161116e+00 2.152357e+00 1.793941e+00 1.643642e+00 9.639600e-01 7.326791e-02 1.793487e-01 1.743294e-01 2.153169e-01 2.612570e-01 2.858089e-01 3.486345e-01 3.637697e-01 3.822208e-01 3.971495e-01 3.308021e-01 3.018500e-01 1.304686e-01
<GCONST> 1.081681e+02
<TRANSP> 5
 0.000000e+00 1.000000e+00 0.000000e+00 0.000000e+00 0.000000e+00
 0.000000e+00 7.065659e-01 2.934341e-01 0.000000e+00 0.000000e+00
 0.000000e+00 0.000000e+00 8.464554e-01 1.535446e-01 0.000000e+00
 0.000000e+00 0.000000e+00 0.000000e+00 8.978374e-01 1.021626e-01
 0.000000e+00 0.000000e+00 0.000000e+00 0.000000e+00 0.000000e+00
<ENDHMM>
~h "ai"
<BEGINHMM>
<NUMSTATES> 5
<STATE> 2
<MEAN> 39
 -7.591279e+00 -1.945472e+01 -5.962417e+00 -6.723020e+00 -4.712534e+00 -1.013585e+00 -1.179797e+00 -4.174005e-01 -7.078789e+00 -7.302500e+00 -5.400363e+00 2.136344e+00 7.445069e+01 5.534938e-02 -1.752413e+00 -7.060242e-01 -7.866116e-01 -5.556067e-01 2.669108e-01 4.639535e-01 -6.102859e-01 -1.703483e+00 -9.961668e-01 -5.537496e-01 -2.474547e-01 1.268821e+00 -1.834852e-01 5.438879e-01 3.643628e-01 2.637247e-01 2.250411e-04 5.945732e-02 9.043625e-02 5.186347e-02 3.040586e-01 4.042727e-01 3.041483e-01 -1.169732e-01 -3.748995e-01
<VARIANCE> 39
 2.851940e+01 4.503420e+01 3.156565e+01 5.872255e+01 5.854860e+01 5.012252e+01 6.750125e+01 6.315085e+01 5.541660e+01 4.728036e+01 5.338177e+01 3.547404e+01 6.727662e+01 2.322223e+00 3.851766e+00 2.718218e+00 3.923725e+00 4.728854e+00 4.240948e+00 4.992298e+00 4.425930e+00 3.808478e+00 3.441917e+00 3.494574e+00 2.879404e+00 2.519880e+00 4.220718e-01 6.348862e-01 5.258412e-01 7.508909e-01 6.868950e-01 7.152547e-01 8.432140e-01 8.860542e-01 7.593368e-01 6.879654e-01 6.774132e-01 5.314969e-01 5.404460e-01
<GCONST> 1.332518e+02
<STATE> 3
<MEAN> 39
 -7.317086e+00 -2.168756e+01 -5.583330e+00 -9.445750e+00 -8.562153e+00 -5.329394e-01 1.642875e+00 -1.016053e+00 -1.058319e+01 -8.401158e+00 -6.293666e+00 3.252254e-01 7.731829e+01 -1.517280e-02 4.647828e-01 6.691820e-01 -7.748027e-01 -1.056703e+00 -1.791250e-01 4.908704e-01 2.579808e-01 2.143662e-01 4.173147e-01 -1.024442e-01 -5.025732e-01 -2.249399e-01 6.644141e-02 4.295337e-01 1.969959e-01 -1.043722e-02 -8.758346e-02 -2.242733e-01 -2.584737e-01 4.355624e-02 3.962110e-01 2.756180e-01 4.026970e-02 3.436447e-03 -2.841882e-01
<VARIANCE> 39
 2.162122e+01 2.600625e+01 2.453229e+01 4.767825e+01 4.329800e+01 3.789011e+01 6.666518e+01 6.774043e+01 3.896911e+01 3.164080e+01 3.598079e+01 3.015602e+01 3.674613e+01 5.908431e-01 1.410340e+00 1.161685e+00 2.080811e+00 2.130732e+00 1.915770e+00 2.369726e+00 2.040700e+00 2.349110e+00 2.086888e+00 1.894080e+00 1.803993e+00 6.387188e-01 1.264848e-01 2.136512e-01 2.022240e-01 3.610631e-01 3.315172e-01 3.229654e-01 5.004556e-01 4.204934e-01 3.968727e-01 3.889717e-01 3.586428e-01 3.432190e-01 1.120516e-01
<GCONST> 1.084825e+02
<STATE> 4
<MEAN> 39
 -9.293814e+00 -1.329352e+01 8.311546e-02 -7.709630e+00 -8.446027e+00 -7.992707e-01 2.557499e+00 2.299681e+00 -2.264448e+00 -1.131705e+00 -1.765360e+00 1.185781e+00 6.489604e+01 9.133049e-02 9.685543e-01 5.730103e-01 7.901111e-02 -2.454730e-01 -5.321928e-01 -7.013989e-01 -2.428651e-01 5.659993e-01 6.100471e-01 2.611385e-01 1.276328e-01 -7.353159e-01 7.749650e-03 1.248241e-01 -1.955682e-02 2.957060e-01 2.792537e-01 6.809190e-02 -1.580956e-01 -1.433514e-01 -6.989648e-02 -7.805896e-02 8.965057e-02 1.158860e-01 -1.511513e-01
<VARIANCE> 39
 2.780404e+01 4.363200e+01 2.897145e+01 7.957533e+01 9.008990e+01 4.915448e+01 4.944337e+01 5.750378e+01 5.890844e+01 4.686218e+01 5.848182e+01 3.874815e+01 1.470057e+02 9.962346e-01 2.710004e+00 1.958269e+00 2.945393e+00 3.014255e+00 2.718037e+00 3.448115e+00 2.876804e+00 3.323863e+00 3.049685e+00 2.499081e+00 2.268307e+00 2.621355e+00 1.809146e-01 3.196565e-01 2.768220e-01 5.948272e-01 5.801308e-01 4.944450e-01 6.141395e-01 5.402814e-01 5.547349e-01 5.368354e-01 4.527458e-01 4.398780e-01 3.457744e-01
<GCONST> 1.247741e+02
<TRANSP> 5
 0.000000e+00 1.000000e+00 0.000000e+00 0.000000e+00 0.000000e+00
 0.000000e+00 6.713322e-01 3.286678e-01 0.000000e+00 0.000000e+00
 0.000000e+00 0.000000e+00 7.964323e-01 2.035677e-01 0.000000e+00
 0.000000e+00 0.000000e+00 0.000000e+00 8.272631e-01 1.727369e-01
 0.000000e+00 0.000000e+00 0.000000e+00 0.000000e+00 0.000000e+00
<ENDHMM>
~h "an"
<BEGINHMM>
<NUMSTATES> 5
<STATE> 2
<MEAN> 39
 -7.015774e+00 -1.980634e+01 -6.528104e+00 -8.889913e+00 -3.741271e+00 -2.771916e+00 -2.995029e+00 9.620311e-01 -7.053846e+00 -8.518500e+00 -5.714712e+00 2.209591e+00 7.530120e+01 -7.402659e-02 -1.534769e+00 -6.834089e-01 -4.446278e-01 1.623357e-01 1.124197e-01 -1.085300e-01 -2.349119e-01 -1.243198e+00 -9.847746e-01 -4.552321e-01 -4.703079e-02 8.960742e-01 -2.151791e-01 6.800491e-01 4.617751e-01 4.167680e-01 4.851598e-03 1.882677e-02 3.705558e-02 3.672767e-02 2.835930e-01 4.396677e-01 3.632692e-01 -7.531942e-02 -4.858702e-01
<VARIANCE> 39
 2.685773e+01 4.048293e+01 3.386108e+01 5.262727e+01 5.439054e+01 4.888343e+01 7.278305e+01 5.511034e+01 5.551760e+01 4.926305e+01 6.005811e+01 4.491442e+01 5.962153e+01 1.790953e+00 3.941925e+00 2.706363e+00 3.524632e+00 4.219332e+00 3.645490e+00 4.235287e+00 3.715784e+00 3.585049e+00 3.448113e+00 3.397095e+00 2.930451e+00 2.306749e+00 4.484417e-01 5.665305e-01 4.648635e-01 6.891925e-01 6.571091e-01 6.730112e-01 7.658658e-01 7.851172e-01 6.413690e-01 6.419062e-01 6.954529e-01 5.934186e-01 3.935667e-01
<GCONST> 1.310480e+02
<STATE> 3
<MEAN> 39
 -6.841995e+00 -2.047612e+01 -6.285535e+00 -9.658258e+00 -5.028074e+00 -3.873914e+00 -3.667087e+00 1.704692e+00 -1.004202e+01 -9.674586e+00 -6.106135e+00 1.254113e+00 7.607197e+01 1.594999e-01 9.005325e-01 6.097099e-01 -1.106175e-01 -6.595799e-01 -5.783852e-01 -1.273487e-01 2.190863e-01 -5.717860e-02 3.814021e-01 1.654433e-01 -2.622344e-01 -8.126051e-01 1.177967e-01 4.643314e-01 2.302992e-01 7.622626e-02 -1.688243e-01 -1.274360e-01 -1.202549e-01 -1.126091e-01 2.365478e-01 2.344569e-01 6.483278e-02 -5.113035e-02 -3.833238e-01
<VARIANCE> 39
 2.470674e+01 2.837308e+01 2.932373e+01 4.432515e+01 4.596419e+01 4.699166e+01 7.865690e+01 6.132642e+01 5.234862e+01 4.127312e+01 4.874274e+01 3.809191e+01 3.792667e+01 6.524948e-01 1.707867e+00 1.420367e+00 1.892196e+00 2.286269e+00 2.173790e+00 2.599911e+00 2.531159e+00 2.265067e+00 2.166376e+00 2.059413e+00 2.039629e+00 1.181766e+00 1.201598e-01 2.151845e-01 2.286495e-01 3.784719e-01 3.464161e-01 3.789904e-01 4.888941e-01 5.586469e-01 4.259341e-01 4.196551e-01 3.780636e-01 3.519650e-01 1.346474e-01
<GCONST> 1.130022e+02
<STATE> 4
<MEAN> 39
 -8.565559e+00 -1.030986e+01 -5.719676e-01 -3.630546e+00 -4.156282e+00 -2.507851e+00 -1.116855e+00 2.874009e+00 -2.285728e+00 -2.029085e+00 4.299736e-02 2.280334e+00 5.970079e+01 5.422841e-02 7.715224e-01 4.396092e-01 2.471924e-01 -1.780650e-01 -2.690227e-02 -2.006707e-01 -3.928498e-01 2.875005e-01 3.474143e-01 1.731047e-01 -1.128528e-01 -8.044512e-01 -3.604469e-02 -2.273872e-03 -3.136392e-02 3.438197e-02 8.642924e-02 7.966240e-02 -2.520987e-02 -6.562349e-02 -8.229576e-04 -2.352895e-02 -2.191349e-02 4.939091e-03 4.500083e-02
<VARIANCE> 39
 3.405508e+01 4.504264e+01 3.066230e+01 5.208978e+01 6.285184e+01 5.421101e+01 6.177032e+01 5.381701e+01 7.571140e+01 5.831913e+01 5.871266e+01 3.903532e+01 1.072440e+02 9.353858e-01 2.335893e+00 1.793230e+00 2.060551e+00 2.265562e+00 2.451543e+00 2.936372e+00 3.215533e+00 3.013005e+00 2.810273e+00 2.370167e+00 2.115319e+00 2.616216e+00 1.563940e-01 2.553143e-01 2.671358e-01 3.427460e-01 3.857267e-01 4.352343e-01 4.950033e-01 5.612984e-01 5.323994e-01 4.935060e-01 4.226936e-01 3.853539e-01 2.547288e-01
<GCONST> 1.209996e+02
<TRANSP> 5
 0.000000e+00 1.000000e+00 0.000000e+00 0.000000e+00 0.000000e+00
 0.000000e+00 6.683695e-01 3.316305e-01 0.000000e+00 0.000000e+00
 0.000000e+00 0.000000e+00 7.658176e-01 2.341824e-01 0.000000e+00
 0.000000e+00 0.000000e+00 0.000000e+00 8.611652e-01 1.388348e-01
