~o
<STREAMINFO> 1 39
<VECSIZE> 39<NULLD><MFCC_D_A_0><DIAGC>
~s "silst"
<MEAN> 39
 -9.518744e+00 -7.911545e+00 -9.914349e-01 -2.731679e+00 -1.947268e+00 9.695992e-01 -4.035879e-01 2.099896e+00 1.233179e+00 8.691139e-01 8.881225e-01 2.478455e+00 5.405041e+01 -4.502556e-01 -1.437839e-01 -1.870335e-02 2.719528e-01 3.983456e-01 2.593871e-01 4.035416e-01 3.731336e-01 2.750570e-01 2.775946e-01 3.254063e-01 2.062202e-01 -1.396620e-01 2.826511e-02 -7.347748e-02 -3.591702e-02 -1.206617e-01 -5.491551e-02 -4.209235e-02 -5.458146e-02 2.037153e-03 -2.425618e-02 -7.125344e-03 -8.613151e-03 -4.714187e-04 1.182206e-01
<VARIANCE> 39
 4.139009e+01 4.734864e+01 4.530030e+01 4.766924e+01 5.558142e+01 4.829599e+01 5.129017e+01 4.661333e+01 4.770584e+01 4.850368e+01 3.982344e+01 3.136487e+01 5.885001e+01 2.468240e+00 2.844722e+00 2.659277e+00 3.403380e+00 3.493898e+00 3.430182e+00 4.033304e+00 3.734411e+00 4.221276e+00 3.990938e+00 3.325948e+00 2.711795e+00 3.889806e+00 3.816208e-01 4.658553e-01 4.646598e-01 5.821964e-01 5.752615e-01 5.826983e-01 6.959190e-01 6.760337e-01 7.525815e-01 7.109336e-01 5.818663e-01 4.916314e-01 6.275330e-01
<GCONST> 1.300667e+02
~h "a"
<BEGINHMM>
<NUMSTATES> 5
<STATE> 2
<MEAN> 39
 -5.782948e+00 -2.099596e+01 -9.866388e+00 -7.514806e+00 -1.610978e-01 -3.167921e-02 -6.214684e+00 -3.117833e+00 -6.423809e+00 -7.556652e+00 -5.735808e+00 9.457768e-01 7.583939e+01 8.029059e-02 -2.393422e+00 -1.618198e+00 5.351618e-02 9.479911e-01 3.333859e-01 -1.437871e+00 -1.444741e+00 -7.980919e-01 -8.732514e-01 -4.701307e-01 -4.627980e-01 1.395456e+00 -3.305292e-01 6.605756e-01 6.786249e-01 6.489424e-01 6.201278e-02 5.162060e-04 1.746052e-01 1.510081e-01 5.286564e-01 5.292642e-01 4.024477e-01 -5.392557e-02 -6.491459e-01
<VARIANCE> 39
 2.713234e+01 3.266212e+01 3.060144e+01 5.379597e+01 4.734255e+01 5.533884e+01 6.791682e+01 4.649869e+01 4.690947e+01 4.390047e+01 5.286342e+01 5.304083e+01 3.749109e+01 2.820810e+00 3.227834e+00 3.459223e+00 5.280872e+00 4.904753e+00 4.410439e+00 4.670325e+00 4.013743e+00 4.048062e+00 3.879107e+00 4.088802e+00 3.514404e+00 2.451505e+00 4.914642e-01 5.391174e-01 5.130994e-01 7.967334e-01 7.590023e-01 6.992264e-01 9.212222e-01 8.896469e-01 6.748641e-01 6.846366e-01 7.413257e-01 6.744450e-01 5.603440e-01
<GCONST> 1.333270e+02
<STATE> 3
<MEAN> 39
 -5.797861e+00 -2.386189e+01 -1.098851e+01 -4.406685e+00 2.641850e+00 1.356754e+00 -9.280342e+00 -5.489479e+00 -4.602497e+00 -7.221537e+00 -5.638040e+00 -1.082206e+00 7.635680e+01 6.012942e-02 1.009222e-01 7.567666e-02 9.843938e-03 -2.615104e-01 -7.325964e-02 1.755928e-01 1.495623e-01 5.346968e-02 -5.595343e-02 -1.114131e-02 1.620948e-02 -2.360900e-01 6.949985e-02 3.655066e-01 1.664560e-01 -2.062483e-01 -3.306711e-01 -1.283581e-01 2.572748e-01 2.595086e-01 -1.108666e-02 2.021153e-02 -1.841222e-02 9.033678e-02 -2.143964e-01
<VARIANCE> 39
 2.423034e+01 2.492305e+01 2.194294e+01 5.222308e+01 3.870176e+01 6.079532e+01 5.982893e+01 3.597572e+01 3.964407e+01 4.018444e+01 3.723876e+01 4.409477e+01 3.476069e+01 5.006056e-01 9.439288e-01 9.054886e-01 1.940591e+00 1.960719e+00 1.532019e+00 2.135147e+00 1.881377e+00 1.825528e+00 1.668966e+00 1.554502e+00 1.534372e+00 5.573606e-01 1.118315e-01 2.016751e-01 2.079797e-01 3.148277e-01 3.134717e-01 3.060393e-01 3.443497e-01 3.355378e-01 3.550735e-01 3.407646e-01 2.993570e-01 2.896080e-01 1.130250e-01
<GCONST> 1.048336e+02
<STATE> 4
<MEAN> 39
 -7.113141e+00 -1.873869e+01 -8.184351e+00 -4.211234e+00 3.224450e-01 7.801892e-01 -3.634272e+00 -3.925076e-01 -2.767838e+00 -5.881221e+00 -3.073205e+00 2.231356e+00 6.827395e+01 1.235108e-01 1.518210e+00 8.260542e-01 -3.459439e-01 -1.192149e+00 -5.514205e-01 7.249026e-01 8.529516e-01 3.832991e-01 5.277641e-01 2.715544e-01 1.809563e-01 -1.261137e+00 -4.497078e-02 3.667846e-01 2.543115e-01 2.393173e-01 9.173730e-02 -4.321760e-02 -1.651902e-01 -1.457006e-01 1.416075e-01 2.873191e-01 1.274504e-01 -7.650672e-02 -2.829025e-01
<VARIANCE> 39
 2.671527e+01 4.361878e+01 3.205810e+01 6.731329e+01 7.009669e+01 5.181749e+01 6.952426e+01 5.545955e+01 6.591931e+01 5.899015e+01 6.061998e+01 4.791597e+01 1.194937e+02 1.337706e+00 3.153729e+00 1.973426e+00 3.186440e+00 4.263772e+00 3.365234e+00 3.744547e+00 3.343368e+00 3.381988e+00 3.803052e+00 3.058379e+00 2.792297e+00 2.231886e+00 2.194604e-01 4.685407e-01 3.537583e-01 7.150065e-01 7.139609e-01 5.494922e-01 7.504416e-01 6.856170e-01 6.735945e-01 7.607838e-01 5.984978e-01 4.958541e-01 4.348625e-01
<GCONST> 1.298983e+02
<TRANSP> 5
 0.000000e+00 1.000000e+00 0.000000e+00 0.000000e+00 0.000000e+00
 0.000000e+00 6.597193e-01 3.402807e-01 0.000000e+00 0.000000e+00
 0.000000e+00 0.000000e+00 8.248960e-01 1.751040e-01 0.000000e+00
 0.000000e+00 0.000000e+00 0.000000e+00 5.727093e-01 4.272907e-01
 0.000000e+00 0.000000e+00 0.000000e+00 0.000000e+00 0.000000e+00
<ENDHMM>
~h "b"
<BEGINHMM>
<NUMSTATES> 5
<STATE> 2
<MEAN> 39
 -2.553175e+00 -6.330898e+00 2.321897e-01 -6.438558e+00 -5.477067e+00 -3.288186e+00 -8.234378e+00 -4.024463e+00 -4.119602e+00 -2.183394e+00 -4.564186e+00 -1.015063e+00 6.109532e+01 -1.290023e-01 1.273931e+00 6.488994e-01 2.114040e+00 8.791934e-01 6.334057e-01 9.134092e-01 -1.929353e-01 6.713899e-01 1.604719e-01 4.829699e-01 -1.233735e-01 -2.353955e+00 -3.215955e-01 -2.145330e-01 -4.524268e-02 -1.407219e-01 3.071386e-02 1.133382e-01 2.842360e-01 3.192109e-01 1.231502e-01 1.041433e-01 1.270401e-01 1.205112e-01 4.185117e-01
<VARIANCE> 39
 3.222232e+01 5.077676e+01 5.551044e+01 7.542613e+01 5.436301e+01 5.786095e+01 6.702450e+01 6.562339e+01 5.926488e+01 5.242043e+01 5.452908e+01 5.313495e+01 8.407249e+01 2.631877e+00 3.464269e+00 3.863660e+00 5.819471e+00 4.283548e+00 3.925228e+00 5.039905e+00 5.579863e+00 4.595481e+00 4.400965e+00 3.971893e+00 3.668278e+00 5.104888e+00 4.614529e-01 7.861423e-01 7.317050e-01 1.205503e+00 8.025674e-01 7.323286e-01 8.839500e-01 1.129283e+00 8.976180e-01 9.618216e-01 7.809098e-01 7.559383e-01 1.494025e+00
<GCONST> 1.411569e+02
<STATE> 3
<MEAN> 39
 -7.706923e+00 -4.078109e+00 1.249175e+00 1.664343e-01 -1.843028e+00 1.099887e+00 -4.513134e-01 5.986363e-02 1.820335e+00 1.520066e+00 1.952485e-01 9.296970e-01 5.286712e+01 -2.952712e-01 -7.647956e-01 1.052653e-01 -1.710329e-01 -5.474282e-02 2.866514e-02 5.927662e-01 9.168862e-01 4.910983e-01 4.588487e-01 5.180587e-01 4.539014e-01 2.238984e+00 5.701338e-01 -4.305151e-01 -6.738181e-02 -1.116917e+00 -5.239761e-01 -3.968937e-01 -7.022437e-01 -2.418236e-01 -6.253078e-01 -2.833275e-01 -4.969887e-01 -6.401732e-02 1.656215e+00
<VARIANCE> 39
 2.464386e+01 3.353101e+01 2.758964e+01 2.364080e+01 2.798740e+01 3.135770e+01 4.310653e+01 4.399232e+01 4.667013e+01 4.188375e+01 3.950793e+01 3.364078e+01 3.283266e+01 3.156360e+00 3.052868e+00 4.355221e+00 3.939286e+00 3.424028e+00 3.686273e+00 4.581552e+00 4.715376e+00 4.971539e+00 4.539241e+00 4.171087e+00 3.375242e+00 9.251640e+00 5.117480e-01 9.077515e-01 1.074750e+00 9.447533e-01 8.105940e-01 7.440111e-01 8.529428e-01 1.117353e+00 9.549706e-01 9.486818e-01 8.377780e-01 7.335858e-01 9.567856e-01
<GCONST> 1.342283e+02
<STATE> 4
<MEAN> 39
 -4.184487e+00 -7.141237e+00 2.961458e+00 -4.520931e+00 -4.902652e+00 -1.647364e+00 -3.285336e+00 -8.178217e-02 -7.408738e-01 6.143383e-01 -1.576508e+00 9.754258e-01 6.875761e+01 1.013332e+00 -1.366855e+00 -1.331951e-01 -3.717022e+00 -1.578979e+00 -8.078510e-01 -1.704677e+00 -5.801036e-01 -1.755882e+00 -6.553884e-01 -1.549274e+00 -6.065276e-03 4.507687e+00 -2.680526e-01 -4.259185e-02 -4.302881e-01 -7.053446e-01 -1.077957e-01 3.367765e-02 -3.867771e-01 -2.922832e-01 -4.126629e-01 -2.130961e-01 -3.414990e-01 -4.623144e-02 -7.341707e-01
<VARIANCE> 39
 3.962758e+01 3.856846e+01 7.918335e+01 6.840361e+01 4.700069e+01 3.935646e+01 4.735330e+01 4.179917e+01 4.046616e+01 3.156596e+01 3.524667e+01 3.305939e+01 5.893946e+01 4.499255e+00 7.487455e+00 1.173293e+01 7.336343e+00 7.026305e+00 5.735821e+00 7.456484e+00 8.223617e+00 6.615343e+00 5.847955e+00 5.015812e+00 4.877943e+00 7.553853e+00 7.469882e-01 8.702289e-01 1.034089e+00 1.668603e+00 9.312409e-01 7.902654e-01 1.171168e+00 1.071105e+00 1.028708e+00 9.052762e-01 8.907536e-01 7.481193e-01 1.246535e+00
<GCONST> 1.454473e+02
<TRANSP> 5
 0.000000e+00 1.000000e+00 0.000000e+00 0.000000e+00 0.000000e+00
 0.000000e+00 6.434593e-01 3.565407e-01 0.000000e+00 0.000000e+00
 0.000000e+00 0.000000e+00 6.327360e-01 3.672640e-01 0.000000e+00
 0.000000e+00 0.000000e+00 0.000000e+00 5.405774e-01 4.594226e-01
 0.000000e+00 0.000000e+00 0.000000e+00 0.000000e+00 0.000000e+00
<ENDHMM>
~h "c"
<BEGINHMM>
<NUMSTATES> 5
<STATE> 2
<MEAN> 39
 -1.122306e+01 -8.614130e-01 -1.659286e+00 -4.450750e-01 -4.931446e+00 -3.329039e+00 -4.505751e+00 -1.947092e+00 -1.624414e+00 -1.061027e+00 -1.496295e+00 7.082616e-01 6.120413e+01 -2.592525e+00 1.246160e+00 -5.699792e-01 1.938665e+00 1.253141e+00 1.562205e+00 2.066631e+00 1.400134e+00 1.111663e+00 1.248095e+00 1.132247e+00 2.970129e-01 -2.197999e-01 -8.281428e-02 -4.287141e-01 -9.850453e-02 -4.308553e-01 2.216844e-02 6.552857e-02 1.594296e-01 2.691274e-01 2.182211e-02 1.480955e-01 5.631101e-02 1.030835e-01 6.516497e-01
<VARIANCE> 39
 5.429904e+01 4.195001e+01 3.944986e+01 4.636370e+01 5.203313e+01 5.343303e+01 5.894430e+01 5.124772e+01 4.872807e+01 4.612619e+01 3.854271e+01 3.388235e+01 5.244379e+01 4.157304e+00 4.949741e+00 3.802037e+00 4.825689e+00 4.307539e+00 5.184912e+00 5.520514e+00 5.282152e+00 4.482379e+00 4.608142e+00 3.965311e+00 3.715202e+00 4.564849e+00 1.177655e+00 7.873123e-01 6.602612e-01 8.498487e-01 8.067226e-01 1.026738e+00 1.064749e+00 9.535351e-01 8.438727e-01 9.387655e-01 7.117090e-01 6.076571e-01 6.466544e-01
<GCONST> 1.390306e+02
<STATE> 3
<MEAN> 39
 -1.822757e+01 6.649808e-01 -3.352900e+00 2.413560e+00 -1.131083e+00 5.513197e-01 2.845074e+00 3.327124e+00 1.972546e+00 3.214008e+00 2.375379e+00 2.372648e+00 6.620588e+01 7.210811e-01 -6.437359e-01 4.708637e-01 -2.699860e-01 5.785031e-01 -1.759517e-01 3.268631e-01 3.763734e-01 -3.653439e-01 -4.372751e-01 -4.542896e-02 1.009972e-01 2.173638e+00 8.718313e-01 -4.608344e-01 2.351084e-01 -3.680124e-01 -4.024915e-04 -2.693541e-01 -6.079496e-01 -3.867446e-01 -4.025925e-01 -5.583061e-01 -3.595971e-01 -6.395681e-02 -1.325962e-01
<VARIANCE> 39
 4.049406e+01 3.854703e+01 2.675357e+01 2.939185e+01 3.301488e+01 3.173285e+01 2.753135e+01 2.711888e+01 2.647732e+01 2.330633e+01 1.979403e+01 1.664289e+01 5.710031e+01 5.227334e+00 3.980167e+00 3.344917e+00 2.535369e+00 3.300227e+00 2.975099e+00 3.380899e+00 3.081261e+00 3.059880e+00 2.975739e+00 2.481544e+00 2.193380e+00 2.604954e+00 9.523328e-01 7.107872e-01 6.649718e-01 6.409972e-01 6.785204e-01 7.706469e-01 8.007030e-01 7.237146e-01 7.050399e-01 6.935818e-01 5.943195e-01 4.983768e-01 6.834753e-01
<GCONST> 1.254464e+02
<STATE> 4
<MEAN> 39
 -1.334538e+01 -5.852175e+00 1.167161e-01 6.840088e-01 2.631656e+00 8.479629e-01 1.458789e+00 4.095572e+00 9.345055e-02 3.240303e-01 1.529534e+00 2.766934e+00 6.866428e+01 1.388216e+00 -1.509043e+00 -2.097864e-01 -9.116653e-01 3.122984e-01 -1.052705e-02 -1.165677e+00 -6.861380e-01 -7.100003e-01 -1.091127e+00 -6.645560e-01 -5.395734e-02 2.647212e-01 7.663817e-02 3.456439e-02 -4.777223e-01 -4.559673e-01 -4.150208e-01 -1.259801e-01 -4.091156e-01 -3.600384e-01 -2.041869e-01 -1.296051e-01 -2.277620e-01 -1.134405e-01 -1.593845e-01
<VARIANCE> 39
 3.777347e+01 6.452366e+01 2.587740e+01 2.802410e+01 4.172830e+01 4.373438e+01 3.964550e+01 3.288344e+01 3.363927e+01 3.121254e+01 2.643487e+01 2.256047e+01 6.313379e+01 4.207162e+00 4.481657e+00 2.705557e+00 3.748903e+00 4.365153e+00 4.134109e+00 4.586555e+00 3.782427e+00 3.437001e+00 3.802494e+00 3.161293e+00 2.677413e+00 2.131338e+00 5.611326e-01 6.093229e-01 5.969824e-01 7.062793e-01 7.692838e-01 6.778242e-01 7.057908e-01 6.939686e-01 6.495573e-01 5.936336e-01 5.632377e-01 5.327572e-01 3.915710e-01
<GCONST> 1.283040e+02
<TRANSP> 5
 0.000000e+00 1.000000e+00 0.000000e+00 0.000000e+00 0.000000e+00
 0.000000e+00 6.802200e-01 3.197800e-01 0.000000e+00 0.000000e+00
 0.000000e+00 0.000000e+00 6.984336e-01 3.015664e-01 0.000000e+00
 0.000000e+00 0.000000e+00 0.000000e+00 6.642696e-01 3.357304e-01
 0.000000e+00 0.000000e+00 0.000000e+00 0.000000e+00 0.000000e+00
<ENDHMM>
~h "d"
<BEGINHMM>
<NUMSTATES> 5
<STATE> 2
<MEAN> 39
 -3.890526e+00 -6.319705e+00 9.972648e-01 -7.744088e+00 -8.279453e+00 -7.637281e+00 -9.311298e+00 -3.693500e+00 -3.235760e+00 -3.411567e+00 -5.506753e+00 1.161977e-01 6.332847e+01 1.659147e-02 1.290155e+00 6.767377e-01 2.104920e+00 7.067298e-01 3.164339e-01 6.465070e-01 -4.941661e-02 5.318599e-01 -2.370814e-02 3.556389e-01 -2.213687e-01 -2.399963e+00 -3.138271e-01 -2.986556e-01 -2.768748e-01 -2.114785e-01 2.582775e-01 3.302630e-01 3.727859e-01 3.376124e-01 4.722025e-02 1.660197e-01 1.831020e-01 2.774060e-02 4.621426e-01
<VARIANCE> 39
 2.556343e+01 4.287176e+01 5.717924e+01 6.306079e+01 6.676499e+01 5.697780e+01 7.326489e+01 6.096082e+01 5.924689e+01 5.080193e+01 5.002120e+01 4.768652e+01 7.618463e+01 1.732884e+00 2.690553e+00 3.772729e+00 4.537635e+00 5.100025e+00 5.434390e+00 5.747248e+00 4.875965e+00 4.317854e+00 4.004287e+00 3.591610e+00 3.513492e+00 5.017209e+00 2.930514e-01 6.493189e-01 6.771489e-01 1.191203e+00 8.496556e-01 9.582105e-01 9.683338e-01 9.875968e-01 8.269070e-01 8.230298e-01 6.940408e-01 7.539685e-01 1.776244e+00
<GCONST> 1.390855e+02
<STATE> 3
<MEAN> 39
 -7.799383e+00 -4.038857e+00 1.721165e+00 -9.377003e-01 -3.353170e+00 -1.950941e+00 -2.724776e+00 -1.048385e+00 7.699971e-01 1.009240e-01 -1.215254e+00 2.382629e-01 5.579607e+01 -9.940729e-01 -9.661216e-01 -6.603145e-01 -9.050158e-01 2.786872e-01 -3.347239e-02 8.450020e-01 1.251447e+00 5.189943e-01 4.666691e-01 7.667577e-01 6.625295e-01 2.675920e+00 2.618329e-01 -6.044493e-01 -2.684293e-01 -1.284639e+00 -5.435991e-01 -5.926826e-01 -6.392593e-01 9.071792e-02 -3.920731e-01 -3.231643e-01 -4.621029e-01 2.098769e-01 1.740507e+00
<VARIANCE> 39
 2.939697e+01 3.152021e+01 2.895933e+01 2.939394e+01 3.629482e+01 4.542042e+01 5.591164e+01 4.342629e+01 4.513496e+01 4.398685e+01 4.266306e+01 3.345588e+01 4.941403e+01 2.118681e+00 2.866905e+00 3.932129e+00 4.208699e+00 4.362014e+00 5.314903e+00 5.287411e+00 4.921144e+00 4.511356e+00 4.477012e+00 3.958408e+00 3.514799e+00 8.830215e+00 5.051262e-01 8.258250e-01 9.508985e-01 7.621967e-01 9.263965e-01 9.933041e-01 1.261797e+00 1.301687e+00 1.051759e+00 1.010080e+00 8.754331e-01 7.811444e-01 1.035401e+00
<GCONST> 1.369765e+02
<STATE> 4
<MEAN> 39
 -7.563140e+00 -7.938470e+00 -5.962490e-01 -8.199920e+00 -5.802529e+00 -6.542458e+00 -4.284134e+00 1.909087e+00 -2.050623e-01 -1.228127e+00 -1.359180e+00 2.850487e+00 7.111642e+01 6.710795e-01 -1.808896e+00 -1.289830e+00 -3.337388e+00 -8.589203e-01 -1.244884e+00 -1.535748e+00 6.048198e-01 -1.019737e+00 -1.056101e+00 -1.575014e+00 4.927024e-01 4.430562e+00 2.381764e-01 -1.369578e-01 -1.293755e-01 -1.586207e-01 6.030426e-02 3.441187e-01 -4.466546e-01 -4.546067e-01 -3.771691e-01 -1.896620e-01 -5.300400e-01 -3.240584e-01 -8.219433e-01
<VARIANCE> 39
 3.234309e+01 3.620830e+01 4.628788e+01 4.149900e+01 4.493260e+01 6.467990e+01 6.530647e+01 4.722113e+01 4.024524e+01 3.828797e+01 4.301644e+01 3.499155e+01 4.188205e+01 2.983103e+00 5.898932e+00 7.724380e+00 4.045668e+00 5.856248e+00 5.969745e+00 9.898190e+00 9.135826e+00 6.891974e+00 6.205345e+00 5.377332e+00 4.735371e+00 5.708349e+00 5.005925e-01 6.705770e-01 8.266044e-01 8.554406e-01 9.396972e-01 1.104984e+00 1.219200e+00 1.055127e+00 8.780212e-01 8.872234e-01 9.104396e-01 7.633590e-01 1.046801e+00
<GCONST> 1.420907e+02
<TRANSP> 5
 0.000000e+00 1.000000e+00 0.000000e+00 0.000000e+00 0.000000e+00
 0.000000e+00 6.406913e-01 3.593086e-01 0.000000e+00 0.000000e+00
 0.000000e+00 0.000000e+00 5.721243e-01 4.278757e-01 0.000000e+00
 0.000000e+00 0.000000e+00 0.000000e+00 4.449370e-01 5.550631e-01
 0.000000e+00 0.000000e+00 0.000000e+00 0.000000e+00 0.000000e+00
<ENDHMM>
~h "e"
<BEGINHMM>
<NUMSTATES> 5
<STATE> 2
<MEAN> 39
 -3.955778e+00 -1.091565e+01 -5.725219e+00 -1.466053e+01 -4.453363e+00 -9.832304e+00 -1.292963e+01 1.153497e+00 -4.632076e-01 -1.949853e+00 -7.163852e+00 1.809697e+00 7.229332e+01 3.271835e-01 -1.358456e+00 -9.735246e-01 -2.726011e+00 -2.114414e-01 -2.796292e-03 -5.016999e-01 8.375208e-01 6.692258e-02 -4.576222e-01 -1.547678e+00 -4.888404e-01 1.575552e+00 -3.339543e-01 1.200216e-01 1.787114e-01 6.827568e-01 2.480376e-01 4.774828e-01 5.599123e-01 -7.641555e-02 5.318372e-02 1.137664e-01 1.959694e-01 -2.354169e-01 -3.939871e-01
<VARIANCE> 39
 2.488928e+01 3.634029e+01 4.792308e+01 5.326513e+01 6.455990e+01 6.712484e+01 7.399175e+01 6.489300e+01 5.980201e+01 6.212270e+01 5.483730e+01 6.042040e+01 3.376160e+01 1.931498e+00 2.539519e+00 2.738590e+00 5.628014e+00 5.150291e+00 4.262577e+00 6.381641e+00 5.184276e+00 4.413543e+00 4.459394e+00 4.010882e+00 4.244879e+00 1.868312e+00 3.978604e-01 5.791717e-01 4.724045e-01 7.589222e-01 7.072988e-01 7.242356e-01 9.790828e-01 1.106716e+00 7.753398e-01 7.352355e-01 7.157636e-01 8.036481e-01 4.551644e-01
<GCONST> 1.353940e+02
<STATE> 3
<MEAN> 39
 -4.035232e+00 -1.453982e+01 -8.435643e+00 -1.751584e+01 -2.606232e+00 -6.268853e+00 -1.066072e+01 3.233674e+00 4.473385e-01 -3.595949e+00 -1.078052e+01 -1.950589e+00 7.477217e+01 8.413981e-02 -1.706627e-01 7.574379e-03 8.261782e-02 -1.001999e-01 3.741153e-01 3.579288e-01 -1.650086e-01 -8.925016e-02 -1.983681e-01 2.248742e-02 -1.721959e-01 -1.031152e-01 1.034209e-02 4.822762e-01 3.678931e-01 6.088713e-01 -1.237702e-01 -1.326662e-02 1.470610e-03 -3.709457e-01 -1.340929e-01 1.101925e-01 4.296969e-01 1.517875e-01 -5.432924e-01
<VARIANCE> 39
 2.325550e+01 2.562856e+01 4.459687e+01 3.851547e+01 5.967242e+01 7.050574e+01 6.793534e+01 5.830546e+01 6.008634e+01 6.436596e+01 4.265969e+01 4.600050e+01 2.821033e+01 6.214428e-01 1.433411e+00 1.794400e+00 2.154508e+00 3.268840e+00 2.945524e+00 2.641618e+00 2.757795e+00 2.506911e+00 2.696206e+00 2.573543e+00 2.762553e+00 1.106692e+00 1.552763e-01 3.045840e-01 2.610947e-01 4.845029e-01 4.549595e-01 4.996660e-01 5.616588e-01 6.374138e-01 5.242400e-01 5.420631e-01 5.179669e-01 4.783884e-01 2.725555e-01
<GCONST> 1.192071e+02
<STATE> 4
<MEAN> 39
 -3.365493e+00 -1.100559e+01 -5.018003e+00 -1.254363e+01 -5.163920e+00 -6.389720e+00 -9.346258e+00 9.284770e-02 -1.456228e+00 -4.290803e+00 -6.710854e+00 -4.965930e-01 6.954095e+01 -3.105827e-01 1.565397e+00 1.240115e+00 2.088038e+00 -9.836759e-02 7.695206e-01 7.066463e-01 -7.940950e-01 -3.271934e-01 3.090602e-01 1.056429e+00 8.928521e-02 -2.064172e+00 -3.488768e-01 1.925853e-01 1.187913e-01 3.348114e-01 2.354672e-01 2.485878e-01 2.755933e-01 1.372192e-01 1.879019e-01 2.455546e-01 1.254117e-01 -3.214207e-02 -2.855682e-01
<VARIANCE> 39
 2.517821e+01 3.681010e+01 6.497374e+01 6.000839e+01 9.087989e+01 8.812755e+01 6.757325e+01 6.105898e+01 6.712930e+01 5.970023e+01 4.836557e+01 4.934501e+01 5.805234e+01 1.847680e+00 3.383873e+00 2.890419e+00 5.051476e+00 4.275686e+00 4.433708e+00 4.837501e+00 4.965822e+00 4.336026e+00 4.325752e+00 3.982693e+00 3.361243e+00 3.603067e+00 3.183606e-01 5.652354e-01 5.132205e-01 7.755104e-01 8.290749e-01 8.167526e-01 8.783368e-01 9.805465e-01 7.959106e-01 8.261352e-01 7.070840e-01 6.533902e-01 5.316927e-01
<GCONST> 1.366698e+02
<TRANSP> 5
 0.000000e+00 1.000000e+00 0.000000e+00 0.000000e+00 0.000000e+00
 0.000000e+00 4.948792e-01 5.051208e-01 0.000000e+00 0.000000e+00
 0.000000e+00 0.000000e+00 6.986026e-01 3.013974e-01 0.000000e+00
 0.000000e+00 0.000000e+00 0.000000e+00 5.002394e-01 4.997606e-01
 0.000000e+00 0.000000e+00 0.000000e+00 0.000000e+00 0.000000e+00
<ENDHMM>
~h "f"
<BEGINHMM>
<NUMSTATES> 5
<STATE> 2
<MEAN> 39
 -6.269413e+00 -5.074216e+00 -1.528599e+00 -4.158074e+00 -4.761842e+00 -1.775264e+00 -6.176695e+00 -2.483250e+00 -4.592300e+00 -3.907326e+00 -3.423254e+00 -7.005783e-01 6.417349e+01 -2.106642e+00 9.848004e-01 1.039046e+00 3.011657e+00 1.101545e+00 1.142394e+00 1.488544e+00 5.752060e-01 1.039875e+00 9.980226e-01 9.462514e-01 2.807760e-01 -1.091227e+00 -4.681066e-01 -4.051778e-01 -4.846700e-02 -2.428281e-01 -2.877429e-03 9.641658e-02 2.689325e-01 4.438457e-01 2.744832e-01 3.922293e-01 1.898702e-01 1.686428e-01 2.915348e-01
<VARIANCE> 39
 4.870279e+01 2.949759e+01 3.957214e+01 6.270119e+01 3.649171e+01 4.293414e+01 4.285568e+01 3.762654e+01 3.952383e+01 3.647999e+01 3.099255e+01 2.990663e+01 3.952057e+01 3.724280e+00 3.585825e+00 4.054883e+00 6.112720e+00 4.003983e+00 4.141014e+00 4.423377e+00 5.064431e+00 4.500473e+00 4.121613e+00 3.352962e+00 3.048247e+00 1.880815e+00 7.691961e-01 4.733462e-01 5.921565e-01 1.134273e+00 5.943396e-01 6.085555e-01 7.368603e-01 7.410901e-01 6.817554e-01 6.764570e-01 5.499508e-01 4.981709e-01 2.760142e-01
<GCONST> 1.304981e+02
<STATE> 3
<MEAN> 39
 -1.622860e+01 -5.765644e+00 3.990527e-01 2.558378e+00 -2.225134e+00 2.307024e+00 2.007920e-01 3.184426e+00 1.519974e+00 2.584571e+00 1.535998e+00 2.062847e+00 6.267283e+01 -6.321572e-01 -4.230389e-01 -2.237553e-01 1.074800e-01 1.646742e-01 1.867265e-01 4.253631e-01 5.690274e-01 6.172922e-01 5.498462e-01 5.048219e-01 3.510601e-01 3.390424e-01 1.095432e+00 -1.899133e-01 -4.166977e-01 -9.835939e-01 -2.753122e-01 -4.469625e-01 -6.421310e-01 -5.091596e-01 -5.453053e-01 -6.084012e-01 -5.092105e-01 -1.841488e-01 4.862526e-01
<VARIANCE> 39
 2.748473e+01 1.796075e+01 1.714848e+01 1.591542e+01 1.762587e+01 1.785585e+01 1.976547e+01 1.982374e+01 2.097832e+01 1.994190e+01 1.731876e+01 1.598975e+01 3.368060e+01 3.891476e+00 1.338486e+00 1.588376e+00 2.278077e+00 1.713393e+00 2.123201e+00 2.388204e+00 2.696038e+00 2.685965e+00 2.806651e+00 2.251334e+00 1.889973e+00 1.568287e+00 4.797503e-01 4.829514e-01 5.213922e-01 7.467195e-01 4.831882e-01 5.598958e-01 5.311584e-01 5.547282e-01 5.364527e-01 5.766496e-01 5.479690e-01 4.978472e-01 3.876909e-01
<GCONST> 1.120411e+02
<STATE> 4
<MEAN> 39
 -1.184452e+01 -6.016562e+00 -9.618092e-01 2.372249e-01 -2.502057e+00 6.081109e-01 -1.562100e+00 1.674153e+00 2.995948e-01 7.360005e-01 3.410605e-01 1.569535e+00 6.513345e+01 2.766973e+00 -9.613447e-01 -1.452607e+00 -2.959131e+00 -5.981789e-01 -9.233424e-01 -1.520325e+00 -9.771347e-01 -1.114188e+00 -1.329887e+00 -1.423489e+00 -4.374645e-01 1.870271e+00 3.477221e-01 -3.963404e-01 -3.616164e-01 -8.090619e-01 -6.863518e-02 -1.737413e-02 -3.002061e-01 -1.243567e-01 -3.291182e-01 -2.332526e-01 -3.484998e-01 -9.732544e-02 2.456867e-01
<VARIANCE> 39
 5.820680e+01 2.338050e+01 2.181105e+01 3.035199e+01 2.107935e+01 2.406640e+01 2.591710e+01 2.116355e+01 2.146205e+01 2.238314e+01 2.195323e+01 1.816799e+01 3.994247e+01 4.976383e+00 4.569306e+00 4.150771e+00 6.744445e+00 3.310025e+00 4.148909e+00 3.422423e+00 3.210113e+00 3.041715e+00 3.529977e+00 3.927404e+00 3.320702e+00 2.810970e+00 9.440522e-01 6.112105e-01 4.962409e-01 9.030250e-01 5.512366e-01 5.465774e-01 5.943643e-01 5.407756e-01 5.216652e-01 5.496834e-01 5.831060e-01 4.772075e-01 3.467236e-01
<GCONST> 1.239484e+02
<TRANSP> 5
 0.000000e+00 1.000000e+00 0.000000e+00 0.000000e+00 0.000000e+00
 0.000000e+00 5.890554e-01 4.109446e-01 0.000000e+00 0.000000e+00
 0.000000e+00 0.000000e+00 6.914330e-01 3.085670e-01 0.000000e+00
 0.000000e+00 0.000000e+00 0.000000e+00 6.513016e-01 3.486984e-01
 0.000000e+00 0.000000e+00 0.000000e+00 0.000000e+00 0.000000e+00
<ENDHMM>
~h "g"
<BEGINHMM>
<NUMSTATES> 5
<STATE> 2
<MEAN> 39
 -2.905959e+00 -5.458106e+00 -1.684344e+00 -9.788785e+00 -6.817927e+00 -4.483948e+00 -9.029027e+00 -4.612044e+00 -4.445398e+00 -1.372394e+00 -5.772398e+00 5.336040e-02 6.161892e+01 -1.990820e-01 8.530012e-01 5.287251e-02 2.010114e+00 9.225304e-01 6.213390e-01 1.217879e+00 1.683445e-01 7.762190e-01 3.715219e-01 8.020647e-01 1.146239e-01 -2.372979e+00 -2.617019e-01 -4.023552e-01 -3.148399e-01 -1.303071e-01 1.711494e-01 1.688649e-01 4.196811e-01 4.885011e-01 1.581689e-01 1.896218e-01 1.905868e-01 1.368670e-01 3.581443e-01
<VARIANCE> 39
 3.018131e+01 4.643323e+01 5.951910e+01 7.276349e+01 5.846287e+01 5.782966e+01 6.952435e+01 5.626959e+01 6.185962e+01 5.916382e+01 5.814359e+01 5.045557e+01 7.181692e+01 2.166067e+00 3.284224e+00 4.571224e+00 6.013658e+00 5.280627e+00 5.207708e+00 6.955931e+00 6.283563e+00 5.549545e+00 5.036432e+00 4.687418e+00 4.220801e+00 4.245122e+00 3.241997e-01 6.234238e-01 8.620804e-01 1.442085e+00 9.844152e-01 1.014167e+00 1.213625e+00 1.093937e+00 1.086426e+00 1.036759e+00 8.849710e-01 9.059847e-01 1.181616e+00
<GCONST> 1.432511e+02
<STATE> 3
<MEAN> 39
 -7.754607e+00 -6.152954e+00 -2.660581e+00 -2.386028e+00 -2.347184e+00 -4.938006e-02 2.845606e-01 1.399059e+00 2.238328e+00 3.093508e+00 2.383707e-01 2.493745e+00 5.432980e+01 -1.456494e-03 -1.065013e+00 -2.183539e+00 -1.071885e+00 5.769991e-01 -3.980140e-01 6.694164e-01 1.270964e+00 3.363497e-02 6.264700e-01 -1.044818e-01 7.527555e-01 1.986961e+00 6.256839e-01 4.209168e-03 -3.027026e-01 -1.353778e+00 -4.510376e-01 -5.348221e-01 -9.960833e-01 -4.960409e-01 -8.405858e-01 -4.097622e-01 -7.421881e-01 -3.208802e-02 1.354767e+00
<VARIANCE> 39
 2.748455e+01 4.172340e+01 4.177242e+01 4.383379e+01 4.007328e+01 3.966638e+01 4.295626e+01 4.095523e+01 4.624440e+01 3.866950e+01 3.873998e+01 2.835726e+01 4.055906e+01 3.106557e+00 3.679449e+00 5.003732e+00 7.019748e+00 5.447899e+00 5.539079e+00 6.657722e+00 5.444330e+00 6.365004e+00 5.033635e+00 5.002973e+00 3.814662e+00 6.715527e+00 4.240499e-01 7.445297e-01 9.920684e-01 1.059408e+00 9.021603e-01 9.560397e-01 9.931126e-01 1.088167e+00 1.008089e+00 9.442432e-01 8.558933e-01 7.885823e-01 8.242432e-01
<GCONST> 1.387756e+02
<STATE> 4
<MEAN> 39
 -2.828724e+00 -6.941982e+00 -1.007217e+01 -1.239359e+01 -3.325505e+00 -4.269145e+00 -4.398737e+00 7.492439e-01 -3.791079e+00 2.198509e+00 -4.355247e+00 3.856334e+00 6.620661e+01 1.299030e+00 -2.096160e-01 -7.965582e-01 -3.591389e+00 -7.978784e-01 -8.730791e-01 -2.245701e+00 -9.955331e-01 -1.801722e+00 -7.370492e-01 -1.532674e+00 1.082602e-01 3.204457e+00 -1.836547e-01 -1.376035e-01 6.712812e-01 2.328523e-02 -1.448784e-01 3.240549e-01 -2.960714e-01 -2.916919e-01 1.052487e-01 -2.840748e-01 -5.407861e-02 -4.110878e-01 -3.528875e-01
<VARIANCE> 39
 3.897001e+01 4.533876e+01 4.451407e+01 9.039934e+01 5.789653e+01 6.153268e+01 7.405338e+01 5.387544e+01 5.620483e+01 4.301900e+01 4.519624e+01 4.357896e+01 4.125574e+01 2.362129e+00 4.423644e+00 4.973539e+00 6.066187e+00 5.266119e+00 5.249780e+00 6.884298e+00 6.142429e+00 6.278779e+00 5.432647e+00 5.324034e+00 5.471958e+00 3.838783e+00 4.836310e-01 8.200691e-01 9.007930e-01 1.580744e+00 1.162297e+00 1.089259e+00 1.556117e+00 1.323297e+00 1.280958e+00 1.016993e+00 9.581262e-01 9.966029e-01 6.039664e-01
<GCONST> 1.441847e+02
<TRANSP> 5
 0.000000e+00 1.000000e+00 0.000000e+00 0.000000e+00 0.000000e+00
 0.000000e+00 6.747861e-01 3.252139e-01 0.000000e+00 0.000000e+00
 0.000000e+00 0.000000e+00 6.228130e-01 3.771870e-01 0.000000e+00
 0.000000e+00 0.000000e+00 0.000000e+00 5.647069e-01 4.352931e-01
 0.000000e+00 0.000000e+00 0.000000e+00 0.000000e+00 0.000000e+00
<ENDHMM>
~h "h"
<BEGINHMM>
<NUMSTATES> 5
<STATE> 2
<MEAN> 39
 -3.575444e+00 -9.398667e+00 -8.797236e+00 -1.251378e+01 -8.432399e-01 -2.025184e+00 -1.072576e+01 -1.524931e+00 -6.434465e+00 -5.391079e+00 -5.182274e+00 -1.880347e+00 6.798083e+01 -2.134484e-01 1.019491e+00 -3.916337e-01 1.363915e+00 1.911115e+00 1.296952e+00 5.127274e-01 -1.741510e-01 1.376198e-01 2.052511e-01 6.840170e-01 -3.341780e-01 -1.155274e+00 -4.093368e-01 -5.875855e-02 3.136124e-01 2.982167e-01 1.124316e-01 2.406447e-01 5.566852e-01 3.345066e-01 2.499536e-01 4.466996e-01 2.554953e-01 8.837184e-02 -3.505735e-02
<VARIANCE> 39
 3.358531e+01 4.937902e+01 5.053680e+01 7.171887e+01 7.361760e+01 8.043441e+01 7.272318e+01 6.233435e+01 7.692426e+01 7.007479e+01 5.614782e+01 5.439257e+01 5.040220e+01 2.614347e+00 2.910086e+00 4.518714e+00 5.850396e+00 6.518870e+00 4.824685e+00 6.809372e+00 6.005696e+00 5.921366e+00 5.778246e+00 4.566134e+00 3.847908e+00 1.449007e+00 3.580454e-01 4.823004e-01 5.621084e-01 7.672898e-01 8.853990e-01 8.244264e-01 1.092778e+00 1.295970e+00 1.180753e+00 1.133223e+00 8.593912e-01 7.156718e-01 1.955886e-01
<GCONST> 1.397709e+02
<STATE> 3
<MEAN> 39
 -8.858991e+00 -7.088756e+00 -7.449456e+00 -4.541518e+00 6.894439e+00 4.525630e+00 -2.682089e+00 2.799186e+00 -1.996400e+00 4.780155e-02 -5.010380e-01 -1.733066e+00 6.354040e+01 -1.357533e+00 -2.396471e-01 -4.009283e-02 1.091207e+00 1.063367e+00 1.009075e+00 1.710622e+00 1.828037e+00 1.633272e+00 1.677681e+00 1.013971e+00 2.969565e-01 -4.560821e-01 4.693147e-01 -1.910565e-01 -1.919347e-01 -7.908924e-01 -6.948444e-01 -4.622913e-01 -6.018449e-01 -3.442361e-01 -2.688881e-01 -3.761262e-01 -2.625366e-01 3.866408e-02 3.544958e-01
<VARIANCE> 39
 3.671629e+01 4.711634e+01 3.392181e+01 5.161101e+01 6.354167e+01 4.578803e+01 5.024257e+01 5.614318e+01 5.620441e+01 5.351778e+01 3.520245e+01 3.501655e+01 4.178247e+01 2.186553e+00 2.109962e+00 2.787091e+00 4.129830e+00 4.150262e+00 3.557998e+00 4.884125e+00 5.398660e+00 4.374168e+00 4.997427e+00 3.580824e+00 3.128840e+00 1.125917e+00 4.039610e-01 4.290548e-01 5.355904e-01 6.383595e-01 7.588326e-01 6.856660e-01 9.455240e-01 1.221020e+00 9.939170e-01 1.008099e+00 6.933463e-01 6.097331e-01 1.778477e-01
<GCONST> 1.310146e+02
<STATE> 4
<MEAN> 39
 -9.754683e+00 -7.583221e+00 -7.726497e+00 -4.670088e+00 6.368646e+00 4.577892e+00 -1.723149e+00 4.451122e+00 1.136429e+00 1.924039e+00 8.195450e-01 -9.927856e-01 6.279287e+01 1.170059e+00 -3.058663e-02 -2.358609e-01 -1.272824e+00 -1.001077e+00 -5.514272e-01 -1.153026e+00 -1.122418e+00 -7.748926e-01 -8.583244e-01 -4.586259e-01 -4.885251e-02 7.415223e-01 4.553574e-01 -1.275580e-01 -1.224484e-01 -6.176817e-01 -3.998023e-01 -2.539437e-01 -4.870328e-01 -4.748468e-01 -4.083313e-01 -3.598540e-01 -2.944067e-01 -2.443643e-02 3.727500e-01
<VARIANCE> 39
 4.192660e+01 6.160620e+01 3.714632e+01 5.617878e+01 6.858088e+01 4.644638e+01 5.291032e+01 5.724009e+01 4.773550e+01 4.755971e+01 3.448882e+01 3.143834e+01 4.263625e+01 2.776555e+00 2.343224e+00 2.688043e+00 4.657374e+00 4.279552e+00 3.195767e+00 4.490072e+00 4.879942e+00 3.649613e+00 3.657439e+00 2.974332e+00 2.602829e+00 1.795437e+00 4.026137e-01 4.859275e-01 5.010606e-01 7.452748e-01 6.858510e-01 5.987998e-01 7.954087e-01 8.786111e-01 6.859501e-01 7.289340e-01 5.792235e-01 4.983415e-01 3.085723e-01
<GCONST> 1.300782e+02
<TRANSP> 5
 0.000000e+00 1.000000e+00 0.000000e+00 0.000000e+00 0.000000e+00
 0.000000e+00 6.490318e-01 3.509682e-01 0.000000e+00 0.000000e+00
 0.000000e+00 0.000000e+00 5.638242e-01 4.361758e-01 0.000000e+00
 0.000000e+00 0.000000e+00 0.000000e+00 7.758117e-01 2.241883e-01
 0.000000e+00 0.000000e+00 0.000000e+00 0.000000e+00 0.000000e+00
<ENDHMM>
~h "i"
<BEGINHMM>
<NUMSTATES> 5
<STATE> 2
<MEAN> 39
 -1.264097e+01 1.504861e+00 1.235815e+01 -1.518331e+01 -1.094139e+01 -4.685627e+00 -1.456635e+01 -9.739775e+00 -7.304477e+00 -1.439167e+00 -6.059390e+00 9.386720e-01 6.814413e+01 4.471900e-01 -5.170140e-01 1.552198e+00 -2.323660e+00 -1.337961e+00 -4.311428e-01 -1.852466e+00 -9.547238e-01 -1.327697e+00 -2.297371e-02 -1.449416e+00 -3.467269e-02 6.368517e-01 -1.651195e-01 -2.303227e-01 -5.094379e-01 4.828306e-01 3.238018e-01 2.606626e-01 6.225760e-01 5.225848e-01 4.043766e-01 1.993353e-01 1.370617e-01 -2.243489e-02 -1.759477e-01
<VARIANCE> 39
 2.515148e+01 3.745544e+01 3.586132e+01 5.563445e+01 3.963819e+01 3.760673e+01 4.978315e+01 4.392756e+01 5.225512e+01 4.359545e+01 4.703142e+01 5.642943e+01 2.974187e+01 3.411118e+00 3.272266e+00 2.849469e+00 4.236424e+00 4.166305e+00 4.079215e+00 5.235405e+00 4.524842e+00 4.915171e+00 4.094436e+00 3.812705e+00 3.373674e+00 1.413956e+00 3.618808e-01 3.520928e-01 4.569317e-01 6.808465e-01 6.182128e-01 5.951275e-01 8.259956e-01 7.024422e-01 6.450862e-01 6.795228e-01 5.958210e-01 5.814313e-01 2.646542e-01
<GCONST> 1.289461e+02
<STATE> 3
<MEAN> 39
 -1.240344e+01 7.796497e-01 1.468477e+01 -1.894670e+01 -1.228110e+01 -3.965650e+00 -1.712208e+01 -9.710396e+00 -8.113623e+00 -6.533797e-01 -8.973083e+00 3.569429e-01 6.844603e+01 2.807086e-01 -4.159192e-01 -5.406339e-02 3.106956e-01 -5.199724e-01 9.972037e-02 3.731344e-01 -1.182046e-01 1.957732e-01 1.954287e-01 4.589495e-02 7.160252e-02 -1.215484e-01 9.108426e-02 -2.858340e-04 -3.173150e-01 5.630246e-01 1.194646e-01 -2.201207e-02 4.057522e-01 1.321059e-01 1.724854e-01 -2.236164e-02 2.805920e-01 -2.417085e-02 -2.050550e-01
<VARIANCE> 39
 2.440975e+01 3.446966e+01 2.924327e+01 3.974481e+01 3.956554e+01 3.729773e+01 4.387548e+01 4.297728e+01 6.311365e+01 5.330513e+01 4.514941e+01 4.916517e+01 2.997056e+01 6.682643e-01 1.387977e+00 1.021803e+00 1.952561e+00 1.750346e+00 1.479144e+00 2.208850e+00 1.673340e+00 1.769086e+00 1.864796e+00 1.809056e+00 1.675069e+00 6.481940e-01 1.699748e-01 2.131774e-01 2.744189e-01 4.130061e-01 4.046506e-01 3.301982e-01 4.325174e-01 4.182976e-01 4.216352e-01 4.052925e-01 3.932478e-01 3.289123e-01 1.351831e-01
<GCONST> 1.092477e+02
<STATE> 4
<MEAN> 39
 -1.011769e+01 -2.468093e+00 1.135031e+01 -1.165387e+01 -1.411064e+01 -3.329648e+00 -1.057114e+01 -8.403923e+00 -5.654572e+00 1.021196e+00 -5.491800e+00 9.284465e-01 6.486184e+01 4.951741e-01 -4.331203e-01 -1.751262e+00 2.543809e+00 1.010318e+00 -2.124812e-02 1.862565e+00 1.178352e+00 7.967111e-01 -2.307591e-01 1.013709e+00 -1.596714e-01 -1.289476e+00 -1.962616e-01 1.858748e-01 -3.212696e-01 2.052811e-01 6.865982e-01 1.403579e-01 5.870760e-02 3.671843e-01 2.258977e-01 -1.007673e-01 1.496598e-01 1.206526e-02 -2.163273e-01
<VARIANCE> 39
 2.584525e+01 4.601492e+01 3.909063e+01 6.624973e+01 5.622014e+01 4.708032e+01 5.849242e+01 5.457487e+01 6.934028e+01 4.775998e+01 5.362461e+01 4.584882e+01 6.948106e+01 2.158116e+00 2.610502e+00 2.891817e+00 4.418265e+00 4.355239e+00 3.603486e+00 4.538477e+00 3.996557e+00 4.092422e+00 3.960399e+00 3.383297e+00 2.917360e+00 2.313528e+00 2.971311e-01 4.492258e-01 4.318440e-01 7.284088e-01 8.474138e-01 5.924923e-01 7.684180e-01 7.594548e-01 7.011146e-01 7.105236e-01 5.933146e-01 4.876110e-01 3.759835e-01
<GCONST> 1.312491e+02
<TRANSP> 5
 0.000000e+00 1.000000e+00 0.000000e+00 0.000000e+00 0.000000e+00
 0.000000e+00 5.300719e-01 4.699282e-01 0.000000e+00 0.000000e+00
 0.000000e+00 0.000000e+00 7.823376e-01 2.176624e-01 0.000000e+00
 0.000000e+00 0.000000e+00 0.000000e+00 5.321133e-01 4.678866e-01
 0.000000e+00 0.000000e+00 0.000000e+00 0.000000e+00 0.000000e+00
<ENDHMM>
~h "j"
<BEGINHMM>
<NUMSTATES> 5
<STATE> 2
<MEAN> 39
 -7.069058e+00 -2.078478e+00 2.683525e+00 -3.628262e+00 -8.616756e+00 -5.241699e+00 -6.810611e+00 -5.254972e+00 -4.713521e+00 -3.215403e+00 -4.403203e+00 -1.028242e+00 6.069147e+01 -1.601392e+00 1.418820e+00 -3.988024e-01 1.924992e+00 1.507978e+00 1.267745e+00 1.415843e+00 6.208755e-01 9.791231e-01 4.971144e-01 8.720911e-01 -5.802193e-02 -1.418351e+00 -6.487136e-01 -1.771765e-01 -3.379824e-01 -2.898285e-01 2.722666e-01 3.062198e-01 2.221966e-01 3.934448e-01 3.139822e-01 3.910916e-01 2.089145e-01 1.977505e-01 5.611619e-01
<VARIANCE> 39
 3.414435e+01 4.561056e+01 3.844696e+01 4.909166e+01 5.360021e+01 4.886302e+01 5.779417e+01 5.575459e+01 5.168921e+01 4.456238e+01 4.325734e+01 4.228106e+01 6.353989e+01 4.294620e+00 4.014179e+00 4.142820e+00 4.260929e+00 5.036378e+00 4.779086e+00 5.663994e+00 5.842777e+00 4.959252e+00 4.779359e+00 3.962862e+00 3.810519e+00 5.102853e+00 5.424736e-01 6.571266e-01 6.353958e-01 9.161476e-01 1.024343e+00 8.842636e-01 9.289938e-01 8.838189e-01 8.353447e-01 8.321833e-01 6.816195e-01 7.069781e-01 9.715444e-01
<GCONST> 1.388419e+02
<STATE> 3
<MEAN> 39
 -1.955913e+01 1.174500e+00 -1.929374e+00 6.165134e-01 -1.237255e+00 1.982408e+00 6.038252e-01 1.424011e+00 2.979414e+00 2.922147e+00 1.639598e+00 1.876739e+00 6.052673e+01 -2.332733e+00 9.149873e-01 -5.262486e-02 -6.294105e-01 3.329296e-01 6.456621e-01 3.232068e-01 1.954940e-01 4.736820e-01 4.959436e-01 4.515438e-01 2.763519e-01 2.255366e+00 9.087466e-01 -1.547058e-01 8.194399e-01 -7.032698e-01 -7.993976e-01 -5.955424e-01 -7.158893e-01 -7.583605e-01 -6.756870e-01 -4.265649e-01 -4.298449e-01 -1.528439e-01 3.799917e-01
<VARIANCE> 39
 3.953237e+01 3.876398e+01 3.121570e+01 2.950175e+01 2.999695e+01 2.556017e+01 2.745883e+01 2.912518e+01 3.000960e+01 2.521848e+01 2.365574e+01 1.982003e+01 4.063555e+01 3.898315e+00 3.487762e+00 4.002834e+00 2.723231e+00 3.202444e+00 3.023957e+00 3.468114e+00 3.733907e+00 3.512738e+00 3.489383e+00 3.063916e+00 2.494323e+00 2.378673e+00 1.001771e+00 8.907189e-01 6.056989e-01 8.106899e-01 7.859452e-01 7.336277e-01 7.049479e-01 7.675127e-01 6.807546e-01 6.053802e-01 5.760131e-01 5.502300e-01 7.461103e-01
<GCONST> 1.265658e+02
<STATE> 4
<MEAN> 39
 -1.984792e+01 4.203873e+00 4.333725e+00 -4.452778e+00 -5.020012e+00 1.821592e-01 -3.074306e+00 -4.039120e+00 -4.720195e-01 9.647889e-01 8.970403e-02 7.928214e-01 6.841749e+01 2.472380e+00 -1.026732e+00 2.815720e+00 -2.848748e+00 -3.238297e+00 -1.991215e+00 -2.431524e+00 -2.444050e+00 -2.171823e+00 -6.014760e-01 -1.032550e+00 5.954046e-03 1.565263e+00 8.550020e-01 -9.553138e-01 4.203567e-02 -5.265731e-01 -5.194190e-01 -4.309790e-01 -3.627736e-01 3.506327e-02 -4.453135e-01 -3.197017e-02 -4.928985e-01 6.661452e-04 -2.720546e-01
<VARIANCE> 39
 4.298516e+01 3.146962e+01 4.694014e+01 3.252258e+01 4.844429e+01 3.925900e+01 4.418530e+01 4.380458e+01 3.488968e+01 2.573968e+01 2.208084e+01 2.101080e+01 2.340000e+01 3.272651e+00 4.558499e+00 2.679223e+00 5.065234e+00 3.687608e+00 3.991007e+00 4.375473e+00 4.923046e+00 3.715432e+00 3.214323e+00 3.199417e+00 3.579027e+00 1.573689e+00 9.902253e-01 7.273601e-01 8.550180e-01 6.895851e-01 9.785350e-01 8.829314e-01 9.922618e-01 1.175495e+00 7.899190e-01 7.170342e-01 6.481207e-01 5.655824e-01 2.165812e-01
<GCONST> 1.299198e+02
<TRANSP> 5
 0.000000e+00 1.000000e+00 0.000000e+00 0.000000e+00 0.000000e+00
 0.000000e+00 7.359810e-01 2.640190e-01 0.000000e+00 0.000000e+00
 0.000000e+00 0.000000e+00 7.033824e-01 2.966177e-01 0.000000e+00
 0.000000e+00 0.000000e+00 0.000000e+00 6.273155e-01 3.726845e-01
 0.000000e+00 0.000000e+00 0.000000e+00 0.000000e+00 0.000000e+00
<ENDHMM>
~h "k"
<BEGINHMM>
<NUMSTATES> 5
<STATE> 2
<MEAN> 39
 -4.603880e+00 -5.723588e+00 -1.534129e+00 -6.924066e+00 -5.166091e+00 -2.953248e+00 -6.242746e+00 -3.248451e+00 -2.751216e+00 -5.294368e-01 -3.816434e+00 7.495605e-01 6.024789e+01 -7.632725e-01 -5.213782e-02 -6.088666e-01 2.011269e+00 1.555603e+00 8.414400e-01 1.700494e+00 1.005400e+00 1.197228e+00 1.058411e+00 1.075032e+00 4.677865e-01 -1.473681e+00 -2.102336e-01 -5.269961e-01 -4.666113e-01 -1.900523e-01 2.929568e-01 8.242653e-02 2.471866e-01 4.981462e-01 1.476575e-01 1.925451e-01 7.220513e-02 8.120297e-02 6.812051e-01
<VARIANCE> 39
 3.099908e+01 4.072025e+01 5.280953e+01 7.173279e+01 6.096782e+01 5.702094e+01 7.130917e+01 5.431589e+01 6.017785e+01 5.540474e+01 5.445474e+01 4.590923e+01 6.875928e+01 2.382059e+00 4.330585e+00 5.579195e+00 6.578939e+00 5.504580e+00 5.287881e+00 7.055191e+00 6.720942e+00 5.896957e+00 5.190256e+00 4.986159e+00 4.297752e+00 6.700423e+00 4.126712e-01 6.228428e-01 8.543521e-01 1.269686e+00 9.997286e-01 1.104906e+00 1.343612e+00 1.069087e+00 1.079065e+00 1.004801e+00 1.008119e+00 7.963706e-01 1.360587e+00
<GCONST> 1.445482e+02
<STATE> 3
<MEAN> 39
 -8.127381e+00 -9.668299e+00 -7.815938e+00 -2.472743e+00 2.341381e+00 9.635548e-02 9.264987e-01 4.340808e+00 2.364515e+00 4.437379e+00 -2.752358e-01 2.871235e+00 6.260066e+01 1.560707e-02 -7.109299e-01 -6.554270e-01 4.038624e-01 1.339651e+00 8.764991e-02 7.956845e-02 5.918345e-01 1.593862e-02 -1.268923e-01 -2.261311e-01 -4.285545e-02 2.505157e+00 2.615766e-01 3.278882e-01 6.579345e-01 -1.448016e-01 -3.296443e-01 -7.752814e-02 -5.732868e-01 -6.507982e-01 -4.071239e-01 -5.479969e-01 -2.329664e-01 -1.707384e-01 8.276451e-02
<VARIANCE> 39
 3.403333e+01 3.913277e+01 5.896951e+01 6.045461e+01 4.651812e+01 5.560186e+01 4.915528e+01 3.650435e+01 4.695564e+01 3.823505e+01 3.660611e+01 2.866619e+01 7.770943e+01 2.412818e+00 4.352221e+00 8.447400e+00 5.402225e+00 4.442849e+00 5.851207e+00 5.480571e+00 5.186607e+00 5.126484e+00 4.669088e+00 4.513624e+00 3.570297e+00 5.488509e+00 4.930102e-01 8.026513e-01 1.518447e+00 1.283830e+00 9.594604e-01 1.212059e+00 1.161684e+00 9.752809e-01 1.086394e+00 9.229134e-01 1.004204e+00 7.360797e-01 1.634758e+00
<GCONST> 1.418461e+02
<STATE> 4
<MEAN> 39
 -9.029305e+00 -1.026511e+01 -2.920868e+00 1.364733e+00 5.654685e+00 1.527042e+00 -4.138566e-01 2.558130e+00 1.671744e+00 1.204539e+00 -6.284577e-01 2.126225e+00 6.796759e+01 5.851202e-01 -2.584508e-02 2.836334e-01 -8.844298e-01 -4.013122e-01 2.379383e-02 -1.216133e+00 -1.314977e+00 -9.564984e-01 -1.171533e+00 -5.280437e-01 -1.852618e-01 6.281868e-01 3.108419e-01 -1.296618e-01 -5.410130e-01 -8.799334e-01 -6.328647e-01 -3.192933e-01 -3.548562e-01 -2.350091e-01 -3.552440e-01 -1.574040e-01 -2.713967e-01 -1.890778e-02 -6.618208e-02
<VARIANCE> 39
 3.603159e+01 4.057562e+01 4.306739e+01 4.613262e+01 4.053974e+01 5.640456e+01 4.369415e+01 3.506290e+01 4.249168e+01 3.853469e+01 3.206912e+01 2.495992e+01 5.166313e+01 2.129553e+00 3.282784e+00 4.851965e+00 5.623808e+00 4.523277e+00 4.356039e+00 4.374728e+00 4.179839e+00 3.835557e+00 3.851620e+00 3.379453e+00 2.918463e+00 1.762837e+00 3.923160e-01 6.446214e-01 8.289680e-01 8.352360e-01 7.674995e-01 7.813588e-01 7.053272e-01 7.153392e-01 6.477674e-01 6.497904e-01 6.114252e-01 5.417826e-01 4.085143e-01
<GCONST> 1.305422e+02
<TRANSP> 5
 0.000000e+00 1.000000e+00 0.000000e+00 0.000000e+00 0.000000e+00
 0.000000e+00 6.803477e-01 3.196523e-01 0.000000e+00 0.000000e+00
 0.000000e+00 0.000000e+00 7.235441e-01 2.764559e-01 0.000000e+00
 0.000000e+00 0.000000e+00 0.000000e+00 7.174647e-01 2.825354e-01
 0.000000e+00 0.000000e+00 0.000000e+00 0.000000e+00 0.000000e+00
<ENDHMM>
~h "l"
<BEGINHMM>
<NUMSTATES> 5
<STATE> 2
<MEAN> 39
 -4.131498e+00 -1.212860e+01 -3.751985e-01 -9.521435e+00 -9.822926e+00 -7.119922e+00 -1.119289e+01 -2.521668e+00 -2.396825e+00 -3.999161e+00 -5.405333e+00 1.491436e+00 6.823979e+01 3.591935e-02 6.682601e-01 8.911583e-01 4.373626e-01 -6.207475e-02 -9.096556e-01 -9.468974e-01 -4.244328e-01 1.322538e-01 -2.182404e-01 -1.958602e-01 3.360901e-01 -5.586935e-01 -1.289228e-01 8.208219e-03 -5.094632e-02 -3.240219e-01 1.099243e-01 3.056887e-01 1.433400e-01 -3.159344e-04 -1.758385e-01 1.070147e-01 -6.300760e-02 -1.285971e-01 2.357207e-01
<VARIANCE> 39
 3.123409e+01 4.906349e+01 7.198202e+01 8.237013e+01 7.090341e+01 9.133877e+01 9.060785e+01 8.134180e+01 8.115327e+01 6.982627e+01 6.280043e+01 5.533152e+01 6.275782e+01 1.115504e+00 3.115132e+00 3.920761e+00 5.515640e+00 5.200722e+00 6.685943e+00 6.531661e+00 5.964488e+00 5.712161e+00 5.628370e+00 4.285583e+00 3.764410e+00 2.590814e+00 1.698531e-01 5.654808e-01 5.541300e-01 1.100640e+00 9.279401e-01 1.332274e+00 1.300841e+00 1.237833e+00 1.094682e+00 1.147776e+00 8.483450e-01 7.349432e-01 4.439506e-01
<GCONST> 1.418444e+02
<STATE> 3
<MEAN> 39
 -4.268284e+00 -9.557279e+00 1.748384e+00 -1.035832e+01 -8.314410e+00 -8.380608e+00 -1.359351e+01 -3.294189e+00 -3.031244e+00 -4.118831e+00 -6.626768e+00 1.203720e+00 6.673460e+01 -2.864356e-01 -1.418526e-02 5.039646e-02 -7.309561e-01 -6.166577e-02 6.352882e-01 4.742570e-01 -4.987668e-02 -2.824428e-01 4.673210e-01 -2.188095e-01 -3.815013e-01 5.547639e-01 -8.068267e-02 -4.041104e-01 -2.902817e-01 -3.789067e-01 -1.776915e-01 4.157153e-01 4.751227e-01 1.649844e-01 -1.259183e-01 1.337994e-01 -3.473988e-02 -1.274811e-01 5.203987e-01
<VARIANCE> 39
 3.019803e+01 3.695856e+01 8.536974e+01 8.183455e+01 6.860979e+01 7.830273e+01 8.480888e+01 7.247979e+01 7.896668e+01 6.885169e+01 5.993052e+01 5.361170e+01 4.723328e+01 7.523769e-01 2.109255e+00 2.982659e+00 3.269436e+00 3.725604e+00 4.612311e+00 5.731676e+00 4.814435e+00 4.413881e+00 5.232632e+00 3.561955e+00 2.905225e+00 1.656144e+00 1.433008e-01 4.455409e-01 5.011125e-01 9.037228e-01 7.779921e-01 1.140656e+00 1.334646e+00 9.790878e-01 9.485604e-01 1.224283e+00 7.688403e-01 6.449115e-01 4.019918e-01
<GCONST> 1.354134e+02
<STATE> 4
<MEAN> 39
 -6.656661e+00 -1.090640e+01 -1.137780e+00 -7.847486e+00 -5.212739e+00 -2.988436e+00 -6.336128e+00 -1.105363e-01 -1.191667e+00 -1.955538e+00 -2.476440e+00 1.449133e+00 6.155046e+01 -1.680313e-01 -2.065022e-01 -1.111272e-02 -6.025799e-01 -2.443456e-01 4.832304e-01 3.960392e-01 1.319092e-02 -2.339193e-01 2.372107e-01 -2.217236e-01 -1.731898e-01 6.189063e-01 -4.461183e-03 -9.479241e-02 -6.130545e-02 -1.272110e-01 -5.340608e-02 2.547236e-02 -3.389198e-02 -2.328524e-02 -9.568918e-02 -8.314009e-02 -8.559045e-02 2.097639e-03 1.631845e-01
<VARIANCE> 39
 3.587526e+01 4.003232e+01 7.304185e+01 6.576740e+01 7.532195e+01 6.286453e+01 7.889069e+01 6.460603e+01 5.795642e+01 5.045299e+01 5.601067e+01 4.261162e+01 1.063458e+02 8.497024e-01 2.163110e+00 2.513329e+00 3.377392e+00 3.261026e+00 4.112961e+00 4.791603e+00 4.045485e+00 3.845508e+00 4.615456e+00 2.999819e+00 2.615133e+00 1.957075e+00 1.196498e-01 2.662595e-01 3.174506e-01 5.041005e-01 5.038565e-01 6.040086e-01 7.193834e-01 6.188767e-01 6.409737e-01 6.156943e-01 5.176535e-01 4.350047e-01 2.282707e-01
<GCONST> 1.275884e+02
<TRANSP> 5
 0.000000e+00 1.000000e+00 0.000000e+00 0.000000e+00 0.000000e+00
 0.000000e+00 5.741696e-01 4.258305e-01 0.000000e+00 0.000000e+00
 0.000000e+00 0.000000e+00 4.789855e-01 5.210145e-01 0.000000e+00
 0.000000e+00 0.000000e+00 0.000000e+00 5.207981e-01 4.792018e-01
 0.000000e+00 0.000000e+00 0.000000e+00 0.000000e+00 0.000000e+00
<ENDHMM>
~h "m"
<BEGINHMM>
<NUMSTATES> 5
<STATE> 2
<MEAN> 39
 -2.793459e+00 -8.384149e+00 1.639673e-01 -6.985580e+00 -5.626330e+00 -4.227373e+00 -1.043454e+01 -3.466421e+00 -4.804656e+00 -1.865955e+00 -4.483720e+00 -1.689515e+00 6.250602e+01 4.380142e-01 1.012746e+00 1.173483e+00 1.668929e+00 -2.904111e-02 -9.463350e-01 -1.515521e+00 -1.716653e+00 -5.758566e-01 2.196640e-01 -7.591680e-01 -8.424423e-01 -1.356584e+00 -1.562339e-01 -2.026923e-01 -7.199509e-02 -3.537304e-01 -1.451416e-01 -4.338728e-02 -2.658428e-02 -3.235512e-02 -2.112179e-01 -7.426450e-02 -1.523572e-01 -8.207881e-02 4.392760e-01
<VARIANCE> 39
 2.903431e+01 4.253075e+01 4.634795e+01 6.908119e+01 5.541070e+01 6.035469e+01 6.988925e+01 6.539610e+01 6.487315e+01 5.285333e+01 5.569515e+01 6.052804e+01 6.251491e+01 1.847510e+00 2.338433e+00 4.548336e+00 5.369934e+00 4.337041e+00 4.457087e+00 5.111015e+00 5.131591e+00 5.208519e+00 4.907868e+00 4.546013e+00 4.203741e+00 3.952754e+00 2.856450e-01 3.967903e-01 7.088861e-01 8.887351e-01 6.064247e-01 6.618516e-01 8.324969e-01 1.027238e+00 8.084939e-01 7.595422e-01 6.749386e-01 6.651762e-01 4.478366e-01
<GCONST> 1.364608e+02
<STATE> 3
<MEAN> 39
 -2.061403e+00 -6.953144e+00 2.979103e+00 -4.333997e+00 -6.697676e+00 -7.271282e+00 -1.519044e+01 -8.522672e+00 -7.872770e+00 -1.811795e+00 -8.069888e+00 -5.553107e+00 6.120309e+01 1.513617e-02 -4.058546e-01 -9.788096e-02 -6.014398e-01 -5.474466e-01 -2.548091e-01 -2.520054e-02 2.010363e-01 -8.961678e-02 -2.272548e-01 -2.014868e-01 -2.546193e-01 8.070343e-01 -1.318560e-01 -4.396304e-01 -3.896245e-01 -1.098921e+00 -2.099902e-01 4.269585e-01 5.938870e-01 7.811870e-01 2.305277e-01 -1.871057e-01 2.558653e-01 3.882947e-01 8.541272e-01
<VARIANCE> 39
 1.530252e+01 2.798771e+01 2.671933e+01 4.081358e+01 4.680206e+01 5.639027e+01 4.555400e+01 5.313274e+01 6.040324e+01 5.602671e+01 5.418977e+01 5.859035e+01 1.672967e+01 8.405526e-01 1.569042e+00 3.146955e+00 3.590712e+00 2.466688e+00 3.057609e+00 3.386476e+00 4.198224e+00 3.435857e+00 3.425927e+00 3.328111e+00 3.236813e+00 2.238713e+00 2.717775e-01 3.318994e-01 9.698825e-01 6.298733e-01 6.039545e-01 7.203257e-01 8.091377e-01 9.272966e-01 8.053830e-01 9.736186e-01 8.229017e-01 8.066686e-01 2.794840e-01
<GCONST> 1.264877e+02
<STATE> 4
<MEAN> 39
 -1.766745e+00 -7.441181e+00 1.092452e+00 -9.169670e+00 -9.401760e+00 -5.647111e+00 -1.186791e+01 -3.763354e+00 -6.090549e+00 -3.108368e+00 -6.409084e+00 -4.582425e+00 6.376135e+01 -3.292757e-01 -7.557135e-01 -4.838210e-01 -2.724997e+00 -9.300258e-01 7.042618e-01 8.160821e-01 1.328178e+00 2.939030e-01 -2.825942e-01 1.249680e-01 5.817358e-01 1.984381e+00 -2.432713e-01 6.770179e-02 -1.080251e-02 -4.349594e-01 1.988110e-01 3.416585e-01 9.258834e-02 4.998669e-02 -1.289280e-01 4.859323e-02 -2.512467e-02 1.393688e-01 1.564100e-01
<VARIANCE> 39
 2.065555e+01 3.259398e+01 4.594365e+01 5.354840e+01 5.083234e+01 4.806358e+01 4.307486e+01 4.966083e+01 4.889527e+01 3.934285e+01 4.089712e+01 4.366655e+01 3.183653e+01 1.967577e+00 2.713985e+00 7.813203e+00 5.238332e+00 4.302359e+00 4.414374e+00 4.564933e+00 5.623442e+00 3.921568e+00 5.281122e+00 4.019393e+00 3.788149e+00 2.655503e+00 1.945730e-01 3.271682e-01 4.970515e-01 7.672661e-01 5.786570e-01 5.558349e-01 6.132780e-01 6.024772e-01 5.838240e-01 5.621045e-01 5.372667e-01 4.642838e-01 2.088485e-01
<GCONST> 1.283664e+02
<TRANSP> 5
 0.000000e+00 1.000000e+00 0.000000e+00 0.000000e+00 0.000000e+00
 0.000000e+00 5.001698e-01 4.998302e-01 0.000000e+00 0.000000e+00
 0.000000e+00 0.000000e+00 6.237729e-01 3.762271e-01 0.000000e+00
 0.000000e+00 0.000000e+00 0.000000e+00 4.743388e-01 5.256612e-01
 0.000000e+00 0.000000e+00 0.000000e+00 0.000000e+00 0.000000e+00
<ENDHMM>
~h "n"
<BEGINHMM>
<NUMSTATES> 5
<STATE> 2
<MEAN> 39
 -5.477968e+00 -7.743823e+00 6.104751e-01 -7.662353e+00 -7.443155e+00 -6.503678e+00 -7.363788e+00 -1.573140e+00 -3.757804e+00 -2.409936e+00 -4.048210e+00 7.163641e-01 6.289911e+01 7.418299e-01 1.120765e+00 1.212226e+00 1.164162e+00 -9.393488e-01 -5.413790e-01 -8.687326e-01 -1.262723e+00 1.248191e-01 -3.999455e-01 -4.100274e-01 -1.943379e-01 -1.409098e+00 -1.460054e-02 -5.000433e-02 -3.758688e-02 -2.710060e-01 -4.366313e-02 1.443339e-01 -1.913388e-01 -1.303182e-01 -8.926211e-02 -8.895145e-02 -1.431480e-01 -9.475659e-02 2.993252e-01
<VARIANCE> 39
 3.208267e+01 4.148763e+01 4.984465e+01 6.917995e+01 6.673985e+01 6.738364e+01 8.341622e+01 6.551905e+01 7.321365e+01 5.400362e+01 6.469520e+01 5.443687e+01 8.444408e+01 1.541398e+00 2.208613e+00 4.032487e+00 4.252982e+00 4.420085e+00 4.485884e+00 5.169728e+00 4.696025e+00 4.697134e+00 4.487809e+00 3.877161e+00 3.350985e+00 3.996978e+00 2.899052e-01 3.806323e-01 6.606749e-01 7.810653e-01 7.390891e-01 8.522610e-01 8.308522e-01 8.519735e-01 8.051260e-01 7.405683e-01 6.724029e-01 5.690178e-01 6.286545e-01
<GCONST> 1.365457e+02
<STATE> 3
<MEAN> 39
 -2.388761e+00 -4.697139e+00 4.548674e+00 -5.306914e+00 -1.175912e+01 -8.031813e+00 -1.185101e+01 -7.077847e+00 -3.608197e+00 -4.821968e+00 -7.004094e+00 -1.142706e+00 6.029886e+01 -1.304480e-01 8.993015e-02 -8.234470e-02 -5.713162e-01 -1.920572e-01 -2.377710e-01 -3.976399e-01 -4.041266e-02 -1.293694e-01 -1.714391e-01 -5.239136e-01 -2.469746e-01 7.751613e-01 -4.992690e-01 -5.355528e-01 -5.859087e-01 -1.049704e+00 5.230474e-01 1.963593e-01 3.448574e-01 7.843764e-01 -3.048178e-01 2.429332e-01 8.153760e-02 7.889898e-02 1.131957e+00
<VARIANCE> 39
 1.871834e+01 2.991967e+01 2.494027e+01 3.747435e+01 3.932806e+01 3.996321e+01 4.822406e+01 4.743637e+01 5.815573e+01 5.084726e+01 5.885228e+01 5.457467e+01 1.933623e+01 1.465212e+00 2.121653e+00 3.727864e+00 4.380231e+00 3.918989e+00 3.933875e+00 4.643188e+00 4.673055e+00 3.814845e+00 3.805882e+00 3.490403e+00 2.902692e+00 3.882982e+00 2.965639e-01 4.354657e-01 1.193003e+00 7.893285e-01 9.014659e-01 8.751983e-01 1.047583e+00 8.675221e-01 8.087724e-01 8.626769e-01 7.288411e-01 6.560687e-01 3.656986e-01
<GCONST> 1.305132e+02
<STATE> 4
<MEAN> 39
 -4.551146e+00 -5.697098e+00 1.960319e+00 -1.017143e+01 -9.548577e+00 -8.282413e+00 -1.147212e+01 -3.516074e+00 -4.697729e+00 -3.941827e+00 -7.669619e+00 -1.743425e+00 6.548425e+01 -1.098830e+00 -1.197295e+00 -1.161610e+00 -2.890823e+00 1.084452e+00 6.499498e-01 2.391317e-01 1.554645e+00 -9.763973e-01 3.388102e-01 -1.250223e-01 5.306540e-02 3.009392e+00 -5.880401e-02 -3.467802e-01 -5.511662e-02 -2.165417e-01 1.089760e-01 4.710164e-01 1.341891e-01 3.840956e-02 -2.069151e-01 3.083080e-02 1.244370e-01 4.755174e-02 1.753848e-01
<VARIANCE> 39
 2.422648e+01 3.986095e+01 4.632605e+01 5.494083e+01 4.405910e+01 4.732054e+01 5.089068e+01 5.947313e+01 5.025269e+01 4.267340e+01 4.499089e+01 4.424986e+01 3.450740e+01 1.724837e+00 4.154371e+00 9.500550e+00 4.956277e+00 5.719785e+00 4.783704e+00 6.827247e+00 5.551451e+00 4.654211e+00 4.939784e+00 3.919720e+00 3.638958e+00 2.345930e+00 2.367556e-01 4.012974e-01 6.435946e-01 7.362159e-01 6.970606e-01 6.663651e-01 7.397534e-01 7.891557e-01 6.444759e-01 6.101070e-01 5.442978e-01 5.044286e-01 4.361617e-01
<GCONST> 1.328073e+02
<TRANSP> 5
 0.000000e+00 1.000000e+00 0.000000e+00 0.000000e+00 0.000000e+00
 0.000000e+00 5.315507e-01 4.684493e-01 0.000000e+00 0.000000e+00
 0.000000e+00 0.000000e+00 5.763520e-01 4.236480e-01 0.000000e+00
 0.000000e+00 0.000000e+00 0.000000e+00 4.559511e-01 5.440489e-01
 0.000000e+00 0.000000e+00 0.000000e+00 0.000000e+00 0.000000e+00
<ENDHMM>
~h "o"
<BEGINHMM>
<NUMSTATES> 5
<STATE> 2
<MEAN> 39
 2.061817e+00 -1.768627e+00 -8.228590e+00 -2.161416e+01 -6.922642e+00 -7.709404e-01 -8.306831e+00 1.378102e+00 -8.894500e+00 -3.961132e+00 -4.154921e+00 3.272401e-01 6.647858e+01 8.464307e-01 2.367354e-01 -2.156986e+00 -4.819950e+00 -1.052685e-01 3.397514e-01 -1.300559e+00 5.984588e-01 -1.418274e+00 -5.133018e-01 -2.451852e-01 5.181994e-01 1.102339e+00 -6.504421e-01 -5.630993e-01 2.835532e-01 8.592136e-01 6.413333e-01 2.847559e-01 9.471918e-02 -2.098846e-01 3.506899e-01 2.196861e-01 1.498468e-01 -7.279028e-02 -1.338422e-02
<VARIANCE> 39
 2.117884e+01 2.581197e+01 3.210932e+01 7.407293e+01 4.778046e+01 4.287226e+01 4.014373e+01 5.171310e+01 4.154815e+01 3.429927e+01 3.570155e+01 4.514528e+01 2.494061e+01 2.321175e+00 2.841509e+00 2.950670e+00 7.369012e+00 5.153017e+00 4.115801e+00 6.278288e+00 5.185102e+00 4.129781e+00 3.801206e+00 3.781871e+00 3.668883e+00 1.653455e+00 2.515692e-01 3.528950e-01 3.887070e-01 1.337589e+00 5.883641e-01 5.946848e-01 7.823423e-01 8.508121e-01 8.774505e-01 7.476062e-01 5.811439e-01 6.165248e-01 3.444649e-01
<GCONST> 1.292247e+02
<STATE> 3
<MEAN> 39
 4.820166e-01 -5.701746e+00 -1.287858e+01 -2.834632e+01 -1.701151e+00 3.488952e+00 -1.004227e+01 1.341621e+00 -1.012989e+01 -3.840895e+00 -2.144683e+00 -2.014494e-01 7.003624e+01 -3.961191e-01 -1.063298e+00 -3.972308e-01 2.138854e-01 9.859540e-01 4.116363e-01 -3.438880e-01 -5.860719e-01 5.953167e-01 4.858418e-01 1.405904e-01 -5.346843e-01 6.139296e-01 -5.374702e-02 -3.302049e-02 2.806287e-01 6.481796e-01 -1.211727e-01 -2.278867e-01 3.339773e-02 -8.573037e-02 3.604392e-01 7.253772e-02 -2.164562e-01 -1.708272e-01 -1.517687e-01
<VARIANCE> 39
 2.130769e+01 3.100868e+01 3.229564e+01 3.744345e+01 5.629035e+01 5.765072e+01 4.788923e+01 5.745000e+01 5.297917e+01 4.286111e+01 4.458368e+01 5.160074e+01 2.574471e+01 4.340523e-01 1.093592e+00 8.628232e-01 2.117702e+00 1.743830e+00 1.723947e+00 2.065938e+00 2.119670e+00 2.657626e+00 2.429554e+00 2.733246e+00 2.622155e+00 6.916035e-01 9.175181e-02 1.712352e-01 2.402970e-01 5.579175e-01 3.513763e-01 3.601066e-01 4.057076e-01 3.977597e-01 5.024585e-01 4.582835e-01 5.598056e-01 4.894207e-01 8.505615e-02
<GCONST> 1.106094e+02
<STATE> 4
<MEAN> 39
 -2.404230e+00 -1.165718e+01 -1.181620e+01 -1.928841e+01 8.527204e-01 -2.106396e-01 -1.249297e+01 -2.204021e+00 -2.722488e+00 -1.987569e+00 -6.620141e+00 -3.260695e+00 7.100437e+01 -4.777121e-01 2.270218e-03 1.346382e+00 2.582233e+00 -9.428660e-01 -1.397645e+00 3.176202e-01 2.328255e-01 1.109725e+00 -3.995453e-01 -7.543910e-01 3.910804e-01 -8.789396e-01 -1.010977e-01 4.719306e-01 3.983803e-01 3.685104e-01 -2.585676e-01 2.249427e-02 5.390770e-01 1.676019e-01 -3.282952e-01 -1.133838e-01 4.417707e-01 3.954263e-01 -4.865878e-01
<VARIANCE> 39
 2.194601e+01 3.310711e+01 3.193958e+01 6.180769e+01 5.923234e+01 8.846996e+01 6.173691e+01 5.637915e+01 7.136622e+01 5.289477e+01 5.526027e+01 5.156790e+01 5.534678e+01 1.113256e+00 2.917472e+00 2.303528e+00 3.597724e+00 4.092258e+00 4.406286e+00 4.342793e+00 4.009918e+00 5.500319e+00 4.907609e+00 5.426744e+00 4.617802e+00 2.637230e+00 2.489715e-01 4.135112e-01 3.682135e-01 6.482732e-01 8.316077e-01 1.027197e+00 7.697567e-01 8.601353e-01 9.913552e-01 1.060504e+00 9.354384e-01 8.463290e-01 2.523310e-01
<GCONST> 1.334695e+02
<TRANSP> 5
 0.000000e+00 1.000000e+00 0.000000e+00 0.000000e+00 0.000000e+00
 0.000000e+00 6.559281e-01 3.440719e-01 0.000000e+00 0.000000e+00
 0.000000e+00 0.000000e+00 8.317595e-01 1.682405e-01 0.000000e+00
 0.000000e+00 0.000000e+00 0.000000e+00 7.293614e-01 2.706386e-01
 0.000000e+00 0.000000e+00 0.000000e+00 0.000000e+00 0.000000e+00
<ENDHMM>
~h "p"
<BEGINHMM>
<NUMSTATES> 5
<STATE> 2
<MEAN> 39
 -2.898657e+00 -5.462956e+00 1.754012e+00 -5.080377e+00 -5.206184e+00 -3.093979e+00 -7.576231e+00 -4.424448e+00 -4.198055e+00 -2.097833e+00 -4.271542e+00 -1.217294e+00 6.133812e+01 -5.701739e-01 9.928802e-01 5.984807e-01 2.226973e+00 1.271732e+00 9.896082e-01 1.571373e+00 6.386667e-01 1.116548e+00 5.137243e-01 9.199714e-01 3.040177e-01 -1.805634e+00 -4.290135e-01 -3.297580e-01 -5.333398e-02 -1.815864e-01 1.227840e-01 2.995350e-01 4.197294e-01 4.745388e-01 2.723781e-01 1.890595e-01 2.469236e-01 1.605743e-01 5.736016e-01
<VARIANCE> 39
 3.304041e+01 4.670131e+01 5.754290e+01 6.968304e+01 5.883189e+01 5.515331e+01 6.015932e+01 5.664185e+01 5.402991e+01 4.578218e+01 4.522875e+01 4.473991e+01 7.670670e+01 3.455908e+00 4.065679e+00 4.627007e+00 6.164886e+00 4.736745e+00 4.718084e+00 6.069045e+00 6.493855e+00 5.160838e+00 4.596960e+00 4.377836e+00 3.928715e+00 6.973266e+00 5.437580e-01 7.946669e-01 7.721231e-01 1.164859e+00 8.910784e-01 7.718473e-01 9.511307e-01 1.116058e+00 8.892863e-01 8.645016e-01 7.898431e-01 7.091550e-01 1.555345e+00
<GCONST> 1.423669e+02
<STATE> 3
<MEAN> 39
 -7.928269e+00 -5.198112e+00 2.967541e+00 6.332469e-01 -9.759003e-01 2.075286e+00 1.516898e+00 2.224348e+00 2.827241e+00 2.558945e+00 1.620839e+00 1.769909e+00 5.975815e+01 -8.353405e-01 -7.260422e-01 6.784960e-01 9.847336e-02 6.539610e-01 9.936150e-01 1.071585e+00 8.297831e-01 4.648618e-01 1.206916e-01 5.592968e-01 3.870769e-01 2.802479e+00 1.088715e-01 -1.784937e-01 -6.228413e-02 -6.246921e-01 -1.113350e-01 -9.927569e-02 -6.239318e-01 -5.118908e-01 -5.420783e-01 -4.533020e-01 -4.098817e-01 -1.379166e-01 6.207180e-01
<VARIANCE> 39
 3.598789e+01 2.999000e+01 3.907991e+01 2.461598e+01 3.205694e+01 2.707381e+01 2.736491e+01 2.940655e+01 3.259245e+01 3.002274e+01 2.497733e+01 2.137983e+01 9.795219e+01 4.268664e+00 4.167630e+00 5.605575e+00 3.646759e+00 4.731450e+00 4.155571e+00 4.289734e+00 4.856739e+00 4.968772e+00 4.475723e+00 3.949781e+00 3.278391e+00 8.581110e+00 7.973846e-01 8.240378e-01 1.005924e+00 8.700342e-01 8.747774e-01 7.691978e-01 8.155235e-01 8.623506e-01 8.514618e-01 7.677289e-01 6.752924e-01 6.050961e-01 2.334291e+00
<GCONST> 1.346878e+02
<STATE> 4
<MEAN> 39
 -1.224457e+01 -6.949982e+00 3.828736e+00 -3.028665e+00 2.302470e+00 5.079790e+00 1.865239e-01 9.548406e-01 1.052945e+00 -1.220796e-01 8.678870e-01 1.704820e+00 6.888531e+01 1.114731e-01 -3.722310e-05 -5.403495e-01 -1.345985e+00 -3.820664e-01 -3.193226e-01 -1.276302e+00 -9.629089e-01 -1.003546e+00 -7.897199e-01 -6.293510e-01 -1.283576e-01 5.735419e-01 4.895533e-01 1.033557e-01 -1.903012e-01 -3.544010e-01 -6.392277e-01 -4.693262e-01 -4.769365e-01 -3.321305e-01 -3.576149e-01 -5.926946e-02 -2.967913e-01 -9.188710e-02 -3.656114e-01
<VARIANCE> 39
 5.205902e+01 7.429822e+01 6.302931e+01 4.186235e+01 5.855434e+01 3.460766e+01 3.576855e+01 3.242267e+01 3.152120e+01 3.183782e+01 2.299924e+01 2.106070e+01 3.903153e+01 4.448424e+00 4.637906e+00 4.225482e+00 4.131493e+00 6.336975e+00 4.323631e+00 4.213095e+00 4.269957e+00 3.826572e+00 3.317299e+00 3.042667e+00 2.588262e+00 3.993107e+00 6.856992e-01 7.554520e-01 8.677059e-01 8.248899e-01 1.011088e+00 7.875245e-01 8.332984e-01 8.404570e-01 7.294209e-01 6.661982e-01 6.105914e-01 5.508242e-01 8.063540e-01
<GCONST> 1.337177e+02
<TRANSP> 5
 0.000000e+00 1.000000e+00 0.000000e+00 0.000000e+00 0.000000e+00
 0.000000e+00 6.614611e-01 3.385389e-01 0.000000e+00 0.000000e+00
 0.000000e+00 0.000000e+00 6.663182e-01 3.336818e-01 0.000000e+00
 0.000000e+00 0.000000e+00 0.000000e+00 7.791637e-01 2.208363e-01
 0.000000e+00 0.000000e+00 0.000000e+00 0.000000e+00 0.000000e+00
<ENDHMM>
~h "q"
<BEGINHMM>
<NUMSTATES> 5
<STATE> 2
<MEAN> 39
 -9.898964e+00 -9.510741e-01 1.778693e+00 -3.430266e+00 -6.552711e+00 -4.660045e+00 -5.432301e+00 -4.211432e+00 -3.352245e+00 -2.049602e+00 -3.141933e+00 -2.259518e-01 6.190775e+01 -2.667922e+00 1.550292e+00 -4.978091e-01 1.652900e+00 1.932317e+00 1.611549e+00 1.950495e+00 1.139597e+00 1.308845e+00 1.033369e+00 1.200539e+00 2.042161e-01 -7.843627e-01 -5.394748e-01 -3.089048e-01 -2.301191e-01 -4.665015e-01 1.854647e-01 3.276235e-01 1.660268e-01 3.798742e-01 2.549653e-01 4.037134e-01 1.140217e-01 1.276315e-01 6.470632e-01
<VARIANCE> 39
 5.161002e+01 4.795623e+01 4.307734e+01 4.725542e+01 5.717687e+01 5.049081e+01 5.603530e+01 5.433784e+01 4.954835e+01 4.096669e+01 3.913280e+01 3.589248e+01 5.456351e+01 4.873672e+00 4.899972e+00 4.521484e+00 5.013492e+00 5.296241e+00 5.017438e+00 5.988218e+00 6.014595e+00 5.217576e+00 5.236115e+00 4.071597e+00 3.854732e+00 5.007946e+00 8.103211e-01 7.766121e-01 8.003984e-01 8.890906e-01 1.181177e+00 9.646819e-01 1.102369e+00 1.021852e+00 9.391040e-01 9.257116e-01 7.423761e-01 6.746032e-01 8.030748e-01
<GCONST> 1.411869e+02
<STATE> 3
<MEAN> 39
 -2.265883e+01 1.908378e+00 -1.557443e+00 -1.625037e+00 5.183585e-02 2.198780e+00 1.448517e+00 1.918900e+00 3.267883e+00 4.106213e+00 1.754171e+00 2.059659e+00 6.424151e+01 -1.408155e+00 3.062056e-01 6.011280e-01 -8.174851e-01 2.158117e-01 7.565470e-01 2.807321e-01 1.457876e-01 2.628940e-01 3.506445e-01 1.776036e-01 -3.537970e-02 2.073998e+00 8.879633e-01 -2.202403e-01 5.660236e-01 -2.214976e-01 -5.581803e-01 -2.975214e-01 -4.565481e-01 -4.998911e-01 -4.503071e-01 -4.313355e-01 -3.041795e-01 -1.676376e-01 6.199867e-02
<VARIANCE> 39
 3.617057e+01 3.504672e+01 3.327793e+01 3.616930e+01 2.865677e+01 2.399214e+01 2.546624e+01 2.400302e+01 2.532349e+01 2.104563e+01 2.022610e+01 1.703614e+01 4.701231e+01 4.017717e+00 3.086267e+00 3.427715e+00 2.294464e+00 2.641973e+00 2.648987e+00 2.764089e+00 2.827588e+00 2.861506e+00 2.728645e+00 2.423498e+00 1.982435e+00 2.047487e+00 6.667940e-01 5.636594e-01 4.798164e-01 5.951648e-01 6.371825e-01 5.668481e-01 6.256347e-01 6.053918e-01 5.890055e-01 5.320391e-01 4.970250e-01 4.291856e-01 5.412682e-01
<GCONST> 1.202180e+02
<STATE> 4
<MEAN> 39
 -2.034776e+01 9.356660e-01 6.540121e+00 -5.338882e+00 -3.654283e+00 3.882054e+00 8.906296e-02 -1.033476e+00 9.512148e-01 2.421724e+00 4.497166e-01 3.660300e-01 7.144743e+01 1.829038e+00 -6.820433e-01 1.380969e+00 -7.012461e-01 -1.688940e+00 -7.089236e-01 -9.561766e-01 -1.123288e+00 -1.008260e+00 -5.700999e-01 -4.696791e-01 -5.659179e-02 1.648377e-01 4.321181e-01 -1.718837e-01 -1.239793e-01 -2.289054e-01 -3.476335e-01 -4.888108e-01 -4.026647e-01 -2.028086e-01 -3.487028e-01 -9.883184e-02 -2.465179e-01 6.498909e-02 -2.641244e-01
<VARIANCE> 39
 4.462811e+01 4.344613e+01 3.509364e+01 2.623452e+01 3.535605e+01 2.339802e+01 2.718486e+01 2.608539e+01 2.668989e+01 2.307106e+01 1.956499e+01 1.652856e+01 2.746342e+01 2.610289e+00 1.932301e+00 2.086474e+00 3.170632e+00 3.205935e+00 3.742134e+00 3.964276e+00 3.429066e+00 3.190145e+00 2.434612e+00 2.451016e+00 2.220446e+00 1.481010e+00 4.371280e-01 3.959984e-01 4.494431e-01 5.407984e-01 5.320274e-01 5.547942e-01 6.696386e-01 6.487294e-01 6.334907e-01 5.219843e-01 5.271033e-01 4.368395e-01 2.539110e-01
<GCONST> 1.184393e+02
<TRANSP> 5
 0.000000e+00 1.000000e+00 0.000000e+00 0.000000e+00 0.000000e+00
 0.000000e+00 7.171907e-01 2.828093e-01 0.000000e+00 0.000000e+00
 0.000000e+00 0.000000e+00 7.319621e-01 2.680379e-01 0.000000e+00
 0.000000e+00 0.000000e+00 0.000000e+00 8.080881e-01 1.919119e-01
 0.000000e+00 0.000000e+00 0.000000e+00 0.000000e+00 0.000000e+00
<ENDHMM>
~h "r"
<BEGINHMM>
<NUMSTATES> 5
<STATE> 2
<MEAN> 39
 -2.764935e+00 -1.512326e+01 1.086689e+00 -6.247353e+00 -1.487800e+01 -8.184850e+00 -1.034460e+01 -6.282579e-01 -5.407511e+00 -3.204876e+00 -4.061601e+00 7.724590e-01 6.843375e+01 3.296076e-01 -2.214668e-01 7.750728e-01 8.521583e-01 -1.207476e+00 -1.152406e+00 1.097286e-01 1.219131e-01 -6.307271e-01 -3.630013e-01 5.264503e-01 2.302712e-01 -1.061281e-01 -1.032676e-01 7.492789e-02 -9.716319e-02 -3.406491e-01 2.241671e-01 2.315205e-01 7.514219e-02 -1.437324e-02 -4.127347e-02 8.735554e-02 -7.730438e-03 -8.955270e-02 1.391993e-01
<VARIANCE> 39
 3.661615e+01 4.270927e+01 6.998019e+01 8.185632e+01 7.352594e+01 7.718099e+01 8.406856e+01 6.843878e+01 6.994181e+01 6.432583e+01 5.736345e+01 4.922028e+01 5.655290e+01 1.027517e+00 1.852261e+00 2.852815e+00 5.581513e+00 4.622528e+00 5.689732e+00 5.160403e+00 5.366969e+00 4.775543e+00 5.020474e+00 3.914546e+00 3.724853e+00 2.076547e+00 1.708860e-01 2.781858e-01 3.462211e-01 8.801718e-01 8.433668e-01 1.008746e+00 7.730992e-01 8.573983e-01 7.955350e-01 8.913973e-01 6.919472e-01 6.490893e-01 2.118570e-01
<GCONST> 1.344655e+02
<STATE> 3
<MEAN> 39
 -2.714149e+00 -1.570193e+01 5.467751e+00 -9.070884e+00 -1.899878e+01 -1.001581e+01 -7.543671e+00 1.971822e-01 -8.861263e+00 -2.814045e+00 -2.274513e+00 -5.932163e-01 6.975235e+01 -1.743754e-01 -1.428376e-01 -4.231172e-01 -7.126228e-01 3.647945e-01 2.261564e-01 4.670523e-01 6.612464e-01 9.131832e-02 4.085921e-03 -3.118630e-01 -2.470478e-01 5.152647e-01 -8.475764e-02 3.824353e-02 -2.433496e-01 -1.654385e-01 3.090268e-01 1.467986e-01 3.941181e-02 3.883371e-02 9.728886e-02 -5.602650e-02 -2.117725e-01 -8.245537e-03 1.053580e-01
<VARIANCE> 39
 2.877815e+01 2.986898e+01 4.606609e+01 7.312782e+01 5.517366e+01 5.851116e+01 6.081247e+01 7.003889e+01 5.747512e+01 5.300665e+01 4.601432e+01 4.464099e+01 3.772995e+01 6.707200e-01 1.163356e+00 2.045197e+00 3.287940e+00 2.507848e+00 2.436020e+00 2.870200e+00 3.403130e+00 2.559510e+00 2.811030e+00 2.637175e+00 2.214176e+00 1.056229e+00 9.545401e-02 1.864539e-01 2.391822e-01 5.124818e-01 4.308327e-01 4.514911e-01 4.709712e-01 6.124414e-01 4.766613e-01 5.215992e-01 4.623746e-01 4.037730e-01 1.609279e-01
<GCONST> 1.179064e+02
<STATE> 4
<MEAN> 39
 -5.007006e+00 -1.355759e+01 3.118974e-01 -8.005077e+00 -1.179926e+01 -5.926051e+00 -4.218167e+00 3.067222e+00 -4.362718e+00 -3.444147e+00 -2.536371e+00 4.954159e-01 6.550287e+01 -1.423178e-01 2.299353e-01 -2.981300e-01 -1.097765e-01 4.577854e-01 1.276980e-01 6.868766e-02 -1.726418e-02 -4.522864e-02 -9.876460e-02 -2.080402e-01 3.023833e-03 3.372680e-02 4.080815e-02 6.281002e-02 2.641729e-02 1.312908e-02 -3.217875e-03 -1.992624e-02 -1.631829e-01 -1.270539e-01 -5.203419e-02 1.761153e-02 9.808011e-03 2.193633e-02 -6.616981e-02
<VARIANCE> 39
 3.397422e+01 3.487216e+01 4.575397e+01 6.539516e+01 7.319880e+01 5.481956e+01 6.675531e+01 6.094648e+01 5.843690e+01 4.340226e+01 4.561684e+01 3.677682e+01 1.092056e+02 5.638727e-01 1.063711e+00 1.432828e+00 1.926170e+00 2.109204e+00 2.078856e+00 2.327580e+00 2.314301e+00 2.243712e+00 2.314171e+00 1.989132e+00 1.685668e+00 7.699071e-01 8.506436e-02 1.499234e-01 1.764417e-01 3.213958e-01 3.136487e-01 3.628561e-01 3.839756e-01 4.253201e-01 3.843219e-01 3.888943e-01 3.463565e-01 3.114716e-01 1.029643e-01
<GCONST> 1.119669e+02
<TRANSP> 5
 0.000000e+00 1.000000e+00 0.000000e+00 0.000000e+00 0.000000e+00
 0.000000e+00 6.325474e-01 3.674526e-01 0.000000e+00 0.000000e+00
 0.000000e+00 0.000000e+00 7.093088e-01 2.906912e-01 0.000000e+00
 0.000000e+00 0.000000e+00 0.000000e+00 6.556522e-01 3.443477e-01
 0.000000e+00 0.000000e+00 0.000000e+00 0.000000e+00 0.000000e+00
<ENDHMM>
~h "s"
<BEGINHMM>
<NUMSTATES> 5
<STATE> 2
<MEAN> 39
 -9.810586e+00 -9.134924e-01 -2.880326e+00 -3.187849e+00 -6.009959e+00 -7.231098e+00 -5.985354e+00 -3.388461e+00 -5.148030e+00 -4.083047e+00 -2.914131e+00 4.826357e-01 6.677940e+01 -2.735135e+00 2.171494e+00 -4.772647e-02 3.106114e+00 1.330432e+00 1.362323e+00 1.918476e+00 6.419232e-01 1.162773e+00 8.789330e-01 1.040454e+00 9.123700e-02 -5.557240e-01 -4.816001e-01 -3.991747e-01 -4.479526e-02 -1.483197e-01 1.666701e-01 5.528030e-01 3.567876e-01 5.228215e-01 3.056273e-01 5.100256e-01 1.372542e-01 8.230262e-02 9.436048e-02
<VARIANCE> 39
 4.780475e+01 4.752421e+01 4.238074e+01 6.506703e+01 6.375082e+01 6.112241e+01 5.973178e+01 5.009254e+01 4.975389e+01 4.426322e+01 3.868888e+01 3.600521e+01 4.144683e+01 4.115479e+00 4.820512e+00 3.794679e+00 5.093825e+00 4.928909e+00 6.770119e+00 6.018030e+00 6.300323e+00 4.675663e+00 5.414159e+00 3.824573e+00 3.499328e+00 1.294346e+00 6.876014e-01 8.397441e-01 4.769174e-01 1.017475e+00 7.425500e-01 9.131457e-01 9.233924e-01 8.133764e-01 7.071519e-01 8.001057e-01 6.293071e-01 6.065056e-01 1.484198e-01
<GCONST> 1.360483e+02
<STATE> 3
<MEAN> 39
 -2.108494e+01 1.518924e+00 -4.076933e+00 4.099862e+00 -1.337727e+00 4.346182e-01 2.132934e+00 2.758408e+00 1.220052e+00 2.504063e+00 1.672149e+00 2.226853e+00 6.507714e+01 -9.348189e-01 -4.437580e-01 -2.202927e-01 1.794140e-01 3.780810e-01 7.247941e-01 6.152768e-01 9.672853e-01 7.506815e-01 8.195684e-01 4.907584e-01 3.772677e-01 -1.927898e-01 9.220536e-01 -3.010972e-01 1.038437e-01 -6.970005e-01 -3.744960e-01 -6.526721e-01 -6.725854e-01 -3.966730e-01 -4.093473e-01 -4.686623e-01 -3.243066e-01 -6.458843e-02 2.267893e-01
<VARIANCE> 39
 2.600812e+01 3.015445e+01 2.469552e+01 3.026739e+01 3.624227e+01 3.537523e+01 3.214331e+01 2.688869e+01 2.699765e+01 2.427901e+01 2.084414e+01 1.757821e+01 3.020354e+01 2.624800e+00 1.387168e+00 1.628984e+00 1.857618e+00 1.955880e+00 2.863013e+00 2.676506e+00 2.777489e+00 2.621342e+00 2.734302e+00 2.169778e+00 1.905420e+00 7.922655e-01 3.743338e-01 4.275495e-01 3.578469e-01 5.235782e-01 4.626746e-01 5.895391e-01 6.143007e-01 5.644051e-01 5.124789e-01 5.458323e-01 4.709451e-01 4.420715e-01 1.883405e-01
<GCONST> 1.135800e+02
<STATE> 4
<MEAN> 39
 -1.820421e+01 -5.346334e-01 -2.230251e+00 8.510140e-01 -7.804582e-01 -1.654130e+00 7.615998e-01 3.414789e+00 6.622285e-01 2.329947e+00 1.346397e+00 2.534899e+00 6.489771e+01 2.035956e+00 -8.683552e-01 -7.462832e-02 -1.816953e+00 -7.211376e-01 -1.467126e+00 -1.631295e+00 -5.195510e-01 -6.143997e-01 -8.262096e-01 -7.702198e-01 1.577081e-02 1.307608e+00 5.283820e-01 -4.386641e-01 -1.860322e-01 -6.410331e-01 -1.421056e-01 -1.976046e-01 -4.656580e-01 -1.833912e-01 -2.283533e-01 -2.658623e-01 -2.652849e-01 -3.479272e-04 2.669827e-01
<VARIANCE> 39
 4.949175e+01 3.287738e+01 2.694260e+01 3.421215e+01 3.967593e+01 4.110963e+01 3.853699e+01 3.015486e+01 2.935161e+01 2.705952e+01 2.425726e+01 1.978653e+01 4.220872e+01 7.150764e+00 4.274904e+00 2.203603e+00 5.611681e+00 2.872007e+00 4.812397e+00 5.821113e+00 3.573650e+00 2.835556e+00 3.350891e+00 3.467412e+00 3.019584e+00 2.039483e+00 7.957341e-01 6.139776e-01 4.008783e-01 6.934839e-01 5.550067e-01 7.822416e-01 8.073728e-01 6.908090e-01 5.912498e-01 5.931405e-01 6.019324e-01 5.355527e-01 3.178210e-01
<GCONST> 1.271149e+02
<TRANSP> 5
 0.000000e+00 1.000000e+00 0.000000e+00 0.000000e+00 0.000000e+00
 0.000000e+00 6.663215e-01 3.336785e-01 0.000000e+00 0.000000e+00
 0.000000e+00 0.000000e+00 7.014668e-01 2.985332e-01 0.000000e+00
 0.000000e+00 0.000000e+00 0.000000e+00 7.163050e-01 2.836950e-01
 0.000000e+00 0.000000e+00 0.000000e+00 0.000000e+00 0.000000e+00
<ENDHMM>
~h "t"
<BEGINHMM>
<NUMSTATES> 5
<STATE> 2
<MEAN> 39
 -5.557715e+00 -4.644500e+00 1.818898e+00 -4.749351e+00 -6.344202e+00 -4.527781e+00 -6.215983e+00 -3.488931e+00 -2.278469e+00 -1.782456e+00 -3.305757e+00 4.747661e-01 6.005824e+01 -1.078761e+00 5.548729e-01 1.975079e-01 1.835382e+00 1.603270e+00 1.386347e+00 1.902096e+00 1.158187e+00 1.160133e+00 9.229515e-01 1.278197e+00 2.306673e-01 -1.309364e+00 -3.660188e-01 -3.581649e-01 -1.647483e-01 -2.681776e-01 2.985699e-01 3.698505e-01 3.903480e-01 4.756967e-01 1.886839e-01 2.475301e-01 2.427736e-01 1.058591e-01 8.367682e-01
<VARIANCE> 39
 2.960730e+01 3.779978e+01 4.323819e+01 5.387984e+01 6.111472e+01 5.006127e+01 6.346773e+01 5.534688e+01 5.295615e+01 4.664335e+01 4.623505e+01 4.076249e+01 7.280138e+01 2.789247e+00 3.749300e+00 4.109900e+00 4.774078e+00 5.232025e+00 5.425272e+00 6.694811e+00 6.139981e+00 5.049446e+00 4.924181e+00 4.541767e+00 3.821045e+00 8.440977e+00 4.473335e-01 6.266904e-01 6.338932e-01 8.922791e-01 9.046670e-01 9.253249e-01 1.111422e+00 9.626533e-01 8.934942e-01 8.557870e-01 7.544729e-01 7.020171e-01 1.631466e+00
<GCONST> 1.405026e+02
<STATE> 3
<MEAN> 39
 -1.152148e+01 -5.423116e+00 1.909062e+00 -7.306393e-01 7.581891e-01 2.288065e+00 2.809885e+00 3.852231e+00 3.357938e+00 3.393967e+00 2.992921e+00 2.413273e+00 6.387140e+01 -5.734310e-01 -3.628437e-01 1.349885e-01 2.151124e-01 1.338568e+00 7.431377e-01 5.442441e-01 7.472171e-01 2.401863e-02 -2.365136e-01 3.309602e-01 2.376378e-01 2.774436e+00 4.655716e-01 -1.080249e-01 -1.110165e-01 -3.762757e-01 -3.006220e-01 -4.181761e-01 -8.710269e-01 -6.404525e-01 -5.707068e-01 -6.090875e-01 -5.644896e-01 -1.112628e-01 4.907255e-02
<VARIANCE> 39
 3.360036e+01 3.985303e+01 3.176903e+01 3.231300e+01 3.851726e+01 3.675884e+01 3.630812e+01 3.423974e+01 3.721387e+01 3.190776e+01 2.599629e+01 2.381275e+01 9.907755e+01 3.932579e+00 5.161609e+00 4.420446e+00 3.841092e+00 4.648857e+00 4.904422e+00 5.375098e+00 5.161559e+00 5.149714e+00 4.811703e+00 4.071138e+00 3.320172e+00 8.357231e+00 7.391718e-01 8.807119e-01 9.752008e-01 8.919533e-01 9.959080e-01 1.055593e+00 1.116105e+00 1.093310e+00 1.017662e+00 9.428000e-01 8.477668e-01 7.135240e-01 2.551490e+00
<GCONST> 1.385977e+02
<STATE> 4
<MEAN> 39
 -1.306535e+01 -7.029166e+00 1.524578e+00 -7.860415e-01 3.836246e+00 3.283565e+00 6.334453e-01 3.381589e+00 2.404239e+00 9.632654e-01 2.013762e+00 2.589722e+00 6.638437e+01 6.611713e-01 -4.355950e-01 -4.879608e-01 -8.669274e-01 -3.070192e-01 -3.262409e-01 -1.367630e+00 -1.064025e+00 -8.829969e-01 -8.956451e-01 -7.923052e-01 -1.956324e-01 4.572959e-01 3.843896e-01 -1.968978e-02 -1.951049e-01 -4.740477e-01 -5.724792e-01 -2.593263e-01 -3.712741e-01 -3.698536e-01 -2.959754e-01 -1.017276e-01 -2.518191e-01 -7.700359e-02 -2.022739e-01
<VARIANCE> 39
 4.167176e+01 7.451725e+01 3.611063e+01 3.919711e+01 4.500409e+01 3.927148e+01 3.791497e+01 3.211135e+01 3.462010e+01 3.448782e+01 2.677988e+01 2.364364e+01 7.188406e+01 3.082901e+00 3.671929e+00 3.772619e+00 3.625743e+00 4.829444e+00 4.064631e+00 4.369861e+00 4.224167e+00 3.882058e+00 3.765113e+00 3.272947e+00 2.897528e+00 4.691261e+00 5.309722e-01 6.299255e-01 6.009359e-01 7.123900e-01 8.073707e-01 7.545043e-01 7.278343e-01 7.566358e-01 7.105109e-01 6.510509e-01 6.092150e-01 5.821505e-01 9.712281e-01
<GCONST> 1.319057e+02
<TRANSP> 5
 0.000000e+00 1.000000e+00 0.000000e+00 0.000000e+00 0.000000e+00
 0.000000e+00 6.510375e-01 3.489626e-01 0.000000e+00 0.000000e+00
 0.000000e+00 0.000000e+00 6.741487e-01 3.258512e-01 0.000000e+00
 0.000000e+00 0.000000e+00 0.000000e+00 7.293978e-01 2.706022e-01
 0.000000e+00 0.000000e+00 0.000000e+00 0.000000e+00 0.000000e+00
<ENDHMM>
~h "u"
<BEGINHMM>
<NUMSTATES> 5
<STATE> 2
<MEAN> 39
 -5.561243e-01 -3.674061e+00 -4.082091e+00 -1.044993e+01 -7.297134e+00 -2.919666e+00 -1.108948e+01 -4.796325e+00 -5.946934e+00 -1.892619e+00 -2.948712e+00 5.563451e-01 6.544424e+01 2.129321e+00 7.161829e-01 -1.289048e+00 -4.159241e+00 -1.118290e+00 4.122767e-01 -1.743211e+00 -9.369994e-01 -2.186731e+00 -7.165657e-01 -7.450276e-01 4.661292e-01 1.347794e-01 -6.226596e-01 -7.095991e-02 7.977641e-02 -1.855001e-03 3.020959e-01 2.534756e-01 3.415327e-01 4.966483e-01 1.601550e-01 1.454744e-01 -3.549162e-03 9.934887e-02 -8.504935e-02
<VARIANCE> 39
 3.319687e+01 3.616526e+01 2.853831e+01 8.354051e+01 4.673679e+01 4.426770e+01 6.625608e+01 5.900390e+01 4.440744e+01 3.839619e+01 3.746828e+01 3.506663e+01 3.891260e+01 3.754245e+00 3.089015e+00 3.120105e+00 7.865273e+00 5.338214e+00 6.398634e+00 6.354177e+00 6.423800e+00 5.574361e+00 4.995081e+00 4.746365e+00 4.149485e+00 1.870584e+00 4.860761e-01 4.707076e-01 4.267921e-01 1.311166e+00 7.773604e-01 8.751225e-01 1.126098e+00 1.050987e+00 9.432080e-01 8.658168e-01 7.333236e-01 6.641550e-01 3.255881e-01
<GCONST> 1.362418e+02
<STATE> 3
<MEAN> 39
 1.540624e+00 -1.197389e+00 -8.083034e+00 -2.304244e+01 -8.045610e+00 -8.906498e-01 -1.296858e+01 -2.308777e+00 -1.192217e+01 -3.170662e+00 -5.858488e+00 2.219061e+00 6.588795e+01 -8.220470e-02 -1.379268e-01 -1.620678e-01 -2.780684e-01 3.044135e-01 6.144762e-02 -3.967472e-01 -2.056581e-01 1.631851e-02 2.954428e-01 -9.795998e-02 -1.818624e-02 3.884698e-02 -3.143316e-01 -2.129420e-01 3.945019e-01 1.046365e+00 1.166467e-01 -2.629674e-01 1.822279e-01 -4.017223e-02 5.805698e-01 1.745378e-01 1.051444e-01 -2.035175e-01 -8.824998e-02
<VARIANCE> 39
 2.075208e+01 3.426021e+01 3.197062e+01 4.740744e+01 4.605329e+01 5.469033e+01 5.586934e+01 6.091294e+01 5.814753e+01 5.112465e+01 5.248312e+01 4.534503e+01 2.314185e+01 6.864686e-01 2.047441e+00 1.535966e+00 6.194660e+00 2.883227e+00 3.465932e+00 4.707656e+00 4.501982e+00 4.261731e+00 3.895598e+00 3.727079e+00 3.182275e+00 8.901942e-01 2.272006e-01 2.765704e-01 4.062124e-01 7.766480e-01 6.148453e-01 8.517374e-01 8.248980e-01 8.281538e-01 7.731790e-01 7.867712e-01 7.334043e-01 6.630379e-01 1.477084e-01
<GCONST> 1.254810e+02
<STATE> 4
<MEAN> 39
 -6.684151e-01 -2.656693e+00 -4.723536e+00 -1.476499e+01 -7.313788e+00 -3.005993e+00 -1.160894e+01 -3.523350e+00 -4.864148e+00 -8.590517e-01 -4.175077e+00 6.867477e-01 6.277857e+01 -1.119979e+00 -4.145229e-01 1.296337e+00 2.443650e+00 2.139276e-01 -6.450624e-01 7.477089e-01 2.968012e-01 1.213012e+00 1.047216e-01 1.249487e-02 -2.779315e-01 -6.820590e-01 -2.970507e-01 1.390606e-01 1.982270e-01 2.173056e-01 -1.910090e-03 1.393040e-01 5.740269e-01 2.707505e-01 -3.803398e-02 -1.600684e-01 1.388902e-01 8.571471e-02 -1.890888e-01
<VARIANCE> 39
 2.732199e+01 5.338972e+01 3.525041e+01 7.154614e+01 5.755890e+01 5.798352e+01 1.035979e+02 6.051656e+01 5.938151e+01 5.403499e+01 5.264853e+01 4.060641e+01 5.819075e+01 1.777096e+00 2.188428e+00 3.563206e+00 5.959775e+00 4.607868e+00 5.757414e+00 5.523365e+00 4.119919e+00 4.596659e+00 4.869923e+00 4.094787e+00 3.345979e+00 1.879628e+00 2.723142e-01 4.865541e-01 5.213577e-01 9.287752e-01 7.850043e-01 8.652792e-01 1.378090e+00 9.094422e-01 8.536615e-01 1.019269e+00 7.758059e-01 6.081636e-01 3.275819e-01
<GCONST> 1.357168e+02
<TRANSP> 5
 0.000000e+00 1.000000e+00 0.000000e+00 0.000000e+00 0.000000e+00
 0.000000e+00 5.515199e-01 4.484801e-01 0.000000e+00 0.000000e+00
 0.000000e+00 0.000000e+00 7.629082e-01 2.370919e-01 0.000000e+00
 0.000000e+00 0.000000e+00 0.000000e+00 5.995013e-01 4.004987e-01
 0.000000e+00 0.000000e+00 0.000000e+00 0.000000e+00 0.000000e+00
<ENDHMM>
~h "v"
<BEGINHMM>
<NUMSTATES> 5
<STATE> 2
<MEAN> 39
 -9.496301e+00 -4.614347e+00 1.545068e+01 -1.092258e+01 -1.781085e+01 -4.190440e+00 -1.087475e+01 -1.191273e+01 -1.082052e+01 9.992931e-01 -6.069556e+00 -7.078656e-01 6.803048e+01 1.387306e+00 -1.083273e+00 8.611316e-01 -1.033779e+00 -1.722845e+00 -1.532071e+00 -1.074642e+00 -9.326282e-01 -1.831957e+00 3.245336e-02 -1.025303e+00 -1.494749e-01 4.400093e-01 -3.938470e-01 -9.255719e-02 -5.004081e-01 7.717935e-02 6.617934e-01 2.285681e-01 4.551273e-01 7.535207e-01 4.489653e-01 1.692833e-01 1.147413e-01 2.556221e-02 -3.668131e-02
<VARIANCE> 39
 3.103356e+01 3.147372e+01 2.773988e+01 5.796354e+01 3.183022e+01 3.749573e+01 3.913141e+01 4.473904e+01 5.122660e+01 3.475443e+01 4.671834e+01 4.541833e+01 2.965489e+01 3.805629e+00 2.606065e+00 2.676586e+00 3.255288e+00 4.309849e+00 4.608382e+00 4.879224e+00 5.731609e+00 5.174831e+00 3.675633e+00 4.450503e+00 3.346884e+00 1.105771e+00 3.759764e-01 3.115002e-01 3.119564e-01 5.294475e-01 5.522425e-01 6.455780e-01 6.491785e-01 6.920818e-01 6.455960e-01 6.142981e-01 6.012383e-01 5.367451e-01 1.402818e-01
<GCONST> 1.257600e+02
<STATE> 3
<MEAN> 39
 -7.967561e+00 -7.723530e+00 1.629230e+01 -1.322081e+01 -1.977447e+01 -6.527174e+00 -1.017286e+01 -1.111670e+01 -1.342441e+01 3.533680e+00 -8.553159e+00 -1.654543e+00 6.888413e+01 1.712106e-01 -1.387331e-01 -4.792918e-01 9.926297e-02 1.420298e-01 -4.586547e-01 2.395436e-01 5.163281e-01 1.426431e-01 -3.887182e-02 2.921838e-01 1.471508e-01 -1.084343e-01 -5.099829e-02 2.504755e-01 -3.426054e-01 3.380747e-01 3.859538e-01 1.369620e-01 9.732309e-02 1.867593e-01 4.177562e-01 -2.335921e-01 2.363762e-01 7.020496e-02 -2.341918e-01
<VARIANCE> 39
 2.533941e+01 2.956273e+01 2.608167e+01 5.033963e+01 2.606252e+01 3.811768e+01 3.933814e+01 5.211087e+01 6.138096e+01 3.377903e+01 4.338977e+01 3.739289e+01 2.796615e+01 7.035807e-01 1.218807e+00 1.431040e+00 1.851278e+00 1.527876e+00 1.992051e+00 1.996600e+00 2.217785e+00 2.094016e+00 2.142965e+00 2.378144e+00 1.851359e+00 6.231884e-01 2.001225e-01 2.278598e-01 2.733575e-01 4.129104e-01 3.847873e-01 3.771667e-01 4.753163e-01 4.197550e-01 4.943469e-01 3.799696e-01 4.185615e-01 3.281777e-01 1.326556e-01
<GCONST> 1.098060e+02
<STATE> 4
<MEAN> 39
 -6.918310e+00 -5.648332e+00 1.120136e+01 -8.512100e+00 -1.610931e+01 -7.273813e+00 -8.606663e+00 -7.468594e+00 -8.773915e+00 1.014280e+00 -4.426441e+00 -6.200932e-02 6.451276e+01 -8.383657e-02 5.965736e-01 -1.981016e+00 1.541867e+00 2.185497e+00 5.476849e-01 6.511518e-01 1.221397e+00 1.799301e+00 -6.593433e-01 6.832940e-01 2.688496e-01 -1.409351e+00 -2.351863e-01 5.937290e-02 -1.831252e-01 1.393144e-01 3.966086e-01 4.308830e-01 2.225782e-01 7.893538e-02 2.752702e-01 1.767522e-01 1.479763e-02 -3.424367e-02 -1.869232e-01
<VARIANCE> 39
 2.827337e+01 4.170090e+01 4.416418e+01 6.335733e+01 4.845811e+01 5.182180e+01 4.698999e+01 5.629980e+01 6.206421e+01 4.266169e+01 4.863839e+01 3.679772e+01 5.717215e+01 2.227910e+00 2.553337e+00 3.057170e+00 4.209206e+00 3.988698e+00 4.106566e+00 4.516514e+00 4.238307e+00 4.265654e+00 3.506981e+00 3.463427e+00 2.716689e+00 2.408311e+00 2.551706e-01 4.484228e-01 4.436991e-01 6.742013e-01 6.443645e-01 6.891599e-01 7.035905e-01 8.130842e-01 6.967446e-01 6.321566e-01 5.858147e-01 5.197870e-01 3.158724e-01
<GCONST> 1.297736e+02
<TRANSP> 5
 0.000000e+00 1.000000e+00 0.000000e+00 0.000000e+00 0.000000e+00
 0.000000e+00 4.666810e-01 5.333189e-01 0.000000e+00 0.000000e+00
 0.000000e+00 0.000000e+00 7.078111e-01 2.921889e-01 0.000000e+00
 0.000000e+00 0.000000e+00 0.000000e+00 5.835571e-01 4.164428e-01
 0.000000e+00 0.000000e+00 0.000000e+00 0.000000e+00 0.000000e+00
<ENDHMM>
~h "x"
<BEGINHMM>
<NUMSTATES> 5
<STATE> 2
<MEAN> 39
 -1.173186e+01 3.579950e-01 3.450114e+00 -6.097612e+00 -9.269842e+00 -5.316504e+00 -6.092909e+00 -5.907374e+00 -5.907332e+00 -2.501742e+00 -3.118079e+00 -2.481257e-01 6.738080e+01 -2.872119e+00 2.449041e+00 -7.678545e-02 2.449126e+00 1.754564e+00 1.508113e+00 2.055776e+00 5.051856e-01 1.193402e+00 7.069974e-01 1.248781e+00 -2.412114e-01 -3.450122e-01 -4.424353e-01 -3.605226e-01 -4.214024e-01 -1.479401e-01 4.958831e-01 4.885021e-01 2.856575e-01 5.525116e-01 4.653822e-01 4.570739e-01 6.830518e-02 7.881434e-02 1.615448e-01
<VARIANCE> 39
 4.866536e+01 5.462189e+01 5.098900e+01 5.879055e+01 5.567754e+01 5.210950e+01 6.215371e+01 5.649935e+01 5.005185e+01 3.967995e+01 3.714557e+01 3.486334e+01 3.985249e+01 3.677956e+00 4.846360e+00 4.974133e+00 4.974699e+00 6.157053e+00 5.646224e+00 7.024713e+00 6.526288e+00 5.537558e+00 5.527776e+00 4.242130e+00 3.677091e+00 1.493778e+00 6.314374e-01 8.639137e-01 6.196306e-01 9.545298e-01 9.755780e-01 8.786024e-01 1.124556e+00 8.860027e-01 7.968609e-01 8.372830e-01 7.218450e-01 6.705392e-01 1.594223e-01
<GCONST> 1.379277e+02
<STATE> 3
<MEAN> 39
 -2.386957e+01 4.257915e+00 -5.171472e-01 -5.088878e-01 -1.308099e+00 2.625378e+00 1.286919e+00 8.735022e-02 2.076949e+00 2.954019e+00 9.810593e-01 7.349689e-01 6.710769e+01 -9.888725e-01 -2.138667e-01 -3.022204e-01 -9.713653e-02 5.063258e-01 7.908539e-01 4.091229e-01 6.693158e-01 8.133779e-01 5.325093e-01 3.255818e-01 2.425546e-01 1.709447e-01 8.427715e-01 -2.918022e-01 4.546205e-01 -5.390447e-01 -6.476354e-01 -5.198186e-01 -5.704271e-01 -4.924434e-01 -4.950038e-01 -3.613094e-01 -2.375840e-01 -1.578660e-02 8.712526e-02
<VARIANCE> 39
 2.693040e+01 3.178374e+01 3.799374e+01 3.225751e+01 3.031981e+01 2.351350e+01 2.734509e+01 2.648060e+01 2.717843e+01 2.365651e+01 2.095347e+01 1.718052e+01 2.830506e+01 2.177651e+00 1.303607e+00 2.111683e+00 1.730703e+00 2.154483e+00 2.218127e+00 2.451766e+00 2.689180e+00 2.506982e+00 2.459037e+00 1.997347e+00 1.766821e+00 6.199530e-01 3.760988e-01 3.938968e-01 3.304807e-01 5.132087e-01 5.566219e-01 5.260246e-01 5.865462e-01 5.762618e-01 5.194005e-01 5.138777e-01 4.675934e-01 4.211709e-01 1.283311e-01
<GCONST> 1.117858e+02
<STATE> 4
<MEAN> 39
 -2.136103e+01 2.873493e+00 3.561426e+00 -3.503006e+00 -3.123230e+00 2.644391e+00 -4.723632e-01 -1.269861e+00 1.103679e+00 2.191210e+00 7.989153e-01 7.152734e-01 6.821555e+01 2.259596e+00 -7.770229e-01 1.626864e+00 -1.681588e+00 -2.227329e+00 -1.500385e+00 -1.571160e+00 -1.524232e+00 -1.352373e+00 -5.921981e-01 -5.608786e-01 5.389637e-02 6.655617e-01 6.377943e-01 -4.982525e-01 1.170521e-01 -5.451634e-01 -5.895255e-01 -5.075033e-01 -3.564927e-01 -1.689402e-01 -4.708638e-01 -9.441767e-02 -3.447368e-01 1.621781e-02 1.537749e-01
<VARIANCE> 39
 4.130366e+01 3.873741e+01 4.633054e+01 3.156828e+01 3.596872e+01 2.863622e+01 3.066128e+01 3.291577e+01 2.793263e+01 2.361843e+01 2.186337e+01 1.815587e+01 3.232728e+01 4.454967e+00 3.064396e+00 2.505407e+00 4.278919e+00 4.280113e+00 3.950239e+00 3.799729e+00 3.897121e+00 3.127469e+00 2.445314e+00 2.598497e+00 2.742554e+00 1.228662e+00 5.464154e-01 5.450909e-01 5.413827e-01 5.462827e-01 6.174319e-01 6.374444e-01 6.905988e-01 7.810856e-01 6.535288e-01 5.667178e-01 5.653152e-01 4.992164e-01 1.784084e-01
<GCONST> 1.229007e+02
<TRANSP> 5
 0.000000e+00 1.000000e+00 0.000000e+00 0.000000e+00 0.000000e+00
 0.000000e+00 6.958389e-01 3.041611e-01 0.000000e+00 0.000000e+00
 0.000000e+00 0.000000e+00 7.609731e-01 2.390269e-01 0.000000e+00
 0.000000e+00 0.000000e+00 0.000000e+00 7.233200e-01 2.766800e-01
 0.000000e+00 0.000000e+00 0.000000e+00 0.000000e+00 0.000000e+00
<ENDHMM>
~h "z"
<BEGINHMM>
<NUMSTATES> 5
<STATE> 2
<MEAN> 39
 -6.286983e+00 -2.696834e+00 1.134694e-01 -3.318502e+00 -7.409595e+00 -6.406651e+00 -8.022658e+00 -4.299704e+00 -4.117325e+00 -4.088068e+00 -4.113853e+00 -2.330565e-01 6.120671e+01 -1.638165e+00 1.572994e+00 -1.402606e-01 2.331218e+00 1.159257e+00 1.257189e+00 1.442702e+00 6.280506e-01 7.986579e-01 6.520860e-01 7.209889e-01 3.022753e-02 -1.617421e+00 -5.867122e-01 -2.746514e-01 -3.194980e-01 -2.013323e-01 1.863892e-01 4.018641e-01 4.468821e-01 4.913963e-01 2.220585e-01 4.390298e-01 2.578613e-01 1.575342e-01 4.319189e-01
<VARIANCE> 39
 3.088785e+01 4.155678e+01 4.373135e+01 5.529284e+01 5.948433e+01 5.389617e+01 6.249528e+01 5.141746e+01 5.109636e+01 4.917428e+01 4.456725e+01 4.253956e+01 5.943934e+01 3.677680e+00 3.748559e+00 3.906841e+00 4.690118e+00 4.712832e+00 5.486691e+00 6.197220e+00 5.289966e+00 4.678447e+00 5.093051e+00 3.829287e+00 3.656877e+00 4.254669e+00 4.640894e-01 6.593099e-01 5.663977e-01 9.771835e-01 7.952654e-01 9.366632e-01 9.283912e-01 8.024273e-01 7.837983e-01 8.241445e-01 6.631266e-01 7.073779e-01 8.304271e-01
<GCONST> 1.380227e+02
<STATE> 3
<MEAN> 39
 -1.707384e+01 -5.589495e-01 -2.665336e+00 2.299749e+00 -1.818501e+00 1.327965e+00 1.041233e+00 2.696393e+00 2.275755e+00 3.351531e+00 1.966731e+00 2.481344e+00 5.823025e+01 -1.738354e+00 2.731895e-01 -8.170422e-01 1.493481e-01 2.159080e-01 2.413678e-01 7.037666e-01 9.229849e-01 3.838716e-01 5.827507e-01 6.265777e-01 4.642178e-01 1.905361e+00 1.013741e+00 -3.290048e-01 1.817665e-01 -7.410151e-01 -4.470978e-01 -8.308839e-01 -7.885318e-01 -4.097038e-01 -4.657907e-01 -6.152382e-01 -4.652061e-01 -7.995924e-02 7.267526e-01
<VARIANCE> 39
 3.247320e+01 3.426231e+01 3.048071e+01 3.124556e+01 3.390573e+01 3.246112e+01 3.434343e+01 3.157674e+01 3.222773e+01 2.887823e+01 2.599878e+01 2.087618e+01 3.717923e+01 4.200422e+00 3.431223e+00 2.773288e+00 2.901093e+00 3.070700e+00 3.911359e+00 3.993651e+00 3.802059e+00 3.925579e+00 3.979896e+00 3.205407e+00 2.752117e+00 3.268585e+00 1.035615e+00 9.582464e-01 5.907830e-01 9.334528e-01 6.420634e-01 8.045602e-01 9.197623e-01 7.461133e-01 7.025155e-01 7.152492e-01 6.481009e-01 5.754175e-01 6.140342e-01
<GCONST> 1.285589e+02
<STATE> 4
<MEAN> 39
 -1.388533e+01 -1.035001e+00 -2.862358e+00 -1.623734e+00 -4.348952e+00 -4.547630e+00 -2.303577e+00 2.274104e+00 -1.084417e-01 1.693903e-01 -1.290532e-01 2.631138e+00 6.836263e+01 3.043373e+00 -2.231230e+00 -1.695422e-01 -3.256607e+00 -1.063494e+00 -2.241199e+00 -2.221611e+00 -2.766581e-01 -8.462824e-01 -1.343678e+00 -1.475401e+00 1.208330e-01 2.627741e+00 5.294670e-01 -7.654052e-01 -1.372900e-01 -7.237543e-01 3.787065e-02 1.965241e-01 -3.787932e-01 -2.504194e-01 -2.968762e-01 -1.922942e-01 -3.523349e-01 -1.623383e-01 -2.872818e-01
<VARIANCE> 39
 6.265401e+01 4.102262e+01 2.987594e+01 4.974636e+01 5.040850e+01 5.707057e+01 5.340648e+01 3.394191e+01 3.113820e+01 3.182313e+01 3.073960e+01 2.503593e+01 3.434731e+01 5.168209e+00 7.307645e+00 3.199247e+00 6.567559e+00 4.211689e+00 5.431837e+00 8.558287e+00 5.423688e+00 4.191552e+00 4.829082e+00 4.683298e+00 3.793414e+00 2.153910e+00 1.573933e+00 1.017853e+00 5.519176e-01 1.144321e+00 8.836552e-01 1.399865e+00 1.351617e+00 8.913786e-01 7.473027e-01 8.464912e-01 7.996913e-01 6.944395e-01 3.124948e-01
<GCONST> 1.378791e+02
<TRANSP> 5
 0.000000e+00 1.000000e+00 0.000000e+00 0.000000e+00 0.000000e+00
 0.000000e+00 6.960582e-01 3.039418e-01 0.000000e+00 0.000000e+00
 0.000000e+00 0.000000e+00 6.769102e-01 3.230898e-01 0.000000e+00
 0.000000e+00 0.000000e+00 0.000000e+00 5.866108e-01 4.133892e-01
 0.000000e+00 0.000000e+00 0.000000e+00 0.000000e+00 0.000000e+00
<ENDHMM>
~h "aa"
<BEGINHMM>
<NUMSTATES> 5
<STATE> 2
<MEAN> 39
 -6.095157e+00 -1.731970e+01 -9.989885e+00 -1.273178e+01 1.441927e+00 8.388101e-01 -5.746902e+00 -1.838170e-01 -4.165196e+00 -5.244283e+00 -4.202967e+00 -9.047676e-01 7.154301e+01 -2.665456e-01 -1.296373e+00 -3.729031e-01 1.070523e+00 1.091466e+00 2.162122e-01 -5.717553e-01 -4.200270e-01 -1.477188e-01 -6.744583e-01 -8.256095e-02 2.195556e-01 7.350421e-01 -1.288514e-02 1.065111e-01 2.052884e-01 1.731126e-02 -2.573501e-01 -1.227279e-01 -1.134168e-01 -5.981440e-02 -4.220591e-02 7.484547e-02 -3.839452e-04 4.019523e-02 2.847356e-02
<VARIANCE> 39
 2.796876e+01 5.185378e+01 5.019047e+01 8.988491e+01 8.673138e+01 6.931361e+01 9.028770e+01 6.263487e+01 6.654903e+01 5.963821e+01 5.698040e+01 5.650172e+01 7.770931e+01 7.846194e-01 1.759376e+00 2.025305e+00 3.117847e+00 3.592445e+00 2.935332e+00 3.812580e+00 3.297423e+00 3.653278e+00 3.682208e+00 3.422214e+00 3.545347e+00 1.864353e+00 1.154632e-01 2.675920e-01 2.537293e-01 3.934646e-01 4.965923e-01 4.257392e-01 7.012092e-01 6.004192e-01 6.111142e-01 6.255174e-01 5.860579e-01 6.457654e-01 2.934403e-01
<GCONST> 1.268396e+02
<STATE> 3
<MEAN> 39
 -5.794345e+00 -2.087610e+01 -1.051961e+01 -7.909636e+00 2.762869e+00 1.141419e+00 -1.103029e+01 -1.100433e+00 -5.472852e+00 -7.899940e+00 -4.963939e+00 -1.191616e+00 7.434966e+01 -9.087552e-02 -5.351562e-02 1.340222e-01 2.953179e-01 -1.890661e-01 -1.896175e-01 4.122949e-02 5.195956e-02 -2.244055e-01 -1.841119e-01 6.786752e-02 1.644886e-01 3.945628e-02 1.798177e-02 1.065184e-01 4.578575e-02 -1.156069e-01 -1.311695e-01 -2.254582e-02 1.566098e-01 5.856913e-02 -4.926353e-02 3.254834e-02 -7.135939e-03 -1.873746e-03 -5.984373e-02
<VARIANCE> 39
 2.591550e+01 3.384000e+01 3.757474e+01 5.876104e+01 5.439158e+01 6.959437e+01 7.539787e+01 5.880804e+01 5.167918e+01 5.193375e+01 4.375626e+01 4.482864e+01 5.406287e+01 4.145480e-01 8.876936e-01 7.809329e-01 1.256872e+00 1.424514e+00 1.266600e+00 1.664725e+00 1.522580e+00 1.585949e+00 1.454848e+00 1.417080e+00 1.418172e+00 8.117857e-01 6.568369e-02 1.363179e-01 1.264645e-01 1.851864e-01 2.024313e-01 1.973694e-01 2.422837e-01 2.392712e-01 2.545391e-01 2.387466e-01 2.354511e-01 2.293654e-01 1.091010e-01
<GCONST> 1.016110e+02
<STATE> 4
<MEAN> 39
 -9.561549e+00 -1.486712e+01 -4.796769e+00 -3.304912e+00 1.725232e+00 4.309091e-01 -2.781862e+00 3.265495e+00 -6.417698e-01 -2.326598e+00 1.053644e+00 3.297550e+00 6.054943e+01 -4.954527e-02 2.364046e-01 1.965649e-01 3.207002e-02 -3.225776e-01 1.080299e-02 2.872506e-01 -4.962024e-02 -5.452050e-02 1.410704e-01 1.774558e-02 4.302083e-02 -2.103273e-01 5.551023e-02 -4.289278e-02 -5.511726e-02 -1.399933e-01 -4.010320e-02 -1.649765e-02 -3.935890e-02 -4.839216e-02 -8.000470e-02 -5.684323e-02 -8.553197e-02 -7.122841e-02 8.077122e-02
<VARIANCE> 39
 2.846318e+01 5.602228e+01 3.637707e+01 4.639325e+01 5.480711e+01 4.515681e+01 6.207720e+01 5.418661e+01 6.000759e+01 6.271583e+01 4.809647e+01 3.591600e+01 1.473372e+02 5.052348e-01 1.653165e+00 1.301783e+00 1.463256e+00 2.059546e+00 1.847719e+00 2.272018e+00 2.269367e+00 2.536177e+00 2.526612e+00 1.946478e+00 1.853544e+00 1.110654e+00 9.158692e-02 3.706172e-01 2.614838e-01 2.872058e-01 3.597519e-01 3.470035e-01 4.283876e-01 4.064509e-01 4.538220e-01 4.967451e-01 3.715779e-01 3.635640e-01 2.957141e-01
<GCONST> 1.152735e+02
<TRANSP> 5
 0.000000e+00 1.000000e+00 0.000000e+00 0.000000e+00 0.000000e+00
 0.000000e+00 6.242285e-01 3.757715e-01 0.000000e+00 0.000000e+00
 0.000000e+00 0.000000e+00 7.805787e-01 2.194213e-01 0.000000e+00
 0.000000e+00 0.000000e+00 0.000000e+00 6.168554e-01 3.831446e-01
 0.000000e+00 0.000000e+00 0.000000e+00 0.000000e+00 0.000000e+00
<ENDHMM>
~h "ai"
<BEGINHMM>
<NUMSTATES> 5
<STATE> 2
<MEAN> 39
 -6.836950e+00 -1.963944e+01 -6.462128e+00 -7.507965e+00 -5.641042e+00 -1.781906e+00 -1.479488e+00 -7.622147e-01 -7.479401e+00 -7.918749e+00 -6.279611e+00 1.902008e+00 7.575706e+01 1.368451e-01 -2.115344e+00 -9.870830e-01 -1.018476e+00 -5.976756e-01 2.641908e-01 4.910888e-01 -6.607321e-01 -1.963166e+00 -1.253943e+00 -7.445165e-01 -2.724097e-01 1.528779e+00 -3.218253e-01 5.698430e-01 4.392803e-01 4.134414e-01 1.223500e-01 1.835184e-01 1.767646e-01 7.075065e-02 3.322556e-01 4.794420e-01 4.222499e-01 -1.027130e-01 -4.820710e-01
<VARIANCE> 39
 2.477753e+01 3.606932e+01 2.958171e+01 5.690998e+01 5.598513e+01 5.021761e+01 6.970054e+01 6.556115e+01 4.958270e+01 4.213019e+01 5.055625e+01 3.878911e+01 4.344591e+01 2.656438e+00 3.853049e+00 2.752605e+00 4.341494e+00 5.348499e+00 4.724827e+00 5.461180e+00 4.867419e+00 3.664778e+00 3.514598e+00 3.810295e+00 3.118769e+00 2.333988e+00 4.233352e-01 6.180980e-01 5.271974e-01 7.990268e-01 7.277920e-01 7.784992e-01 8.947930e-01 9.887204e-01 7.655099e-01 6.678830e-01 6.871908e-01 5.861647e-01 5.550956e-01
<GCONST> 1.333973e+02
<STATE> 3
<MEAN> 39
 -7.106973e+00 -2.188752e+01 -5.491303e+00 -9.524909e+00 -8.790504e+00 -3.195292e-01 1.607450e+00 -9.478754e-01 -1.068428e+01 -8.536252e+00 -6.407186e+00 2.440234e-01 7.761438e+01 -6.019963e-02 5.047897e-01 7.439455e-01 -7.640108e-01 -1.049545e+00 -1.097432e-01 5.382689e-01 2.470315e-01 2.122970e-01 4.618027e-01 -7.065435e-02 -5.229052e-01 -2.485649e-01 7.226266e-02 4.141599e-01 1.882949e-01 -3.910260e-02 -1.107340e-01 -2.382643e-01 -2.565519e-01 3.904039e-02 3.819701e-01 2.670492e-01 2.283473e-02 -1.601679e-03 -2.695294e-01
<VARIANCE> 39
 2.149687e+01 2.256820e+01 2.526242e+01 4.706680e+01 4.127535e+01 3.589703e+01 6.738657e+01 6.789039e+01 3.582273e+01 2.901589e+01 3.371154e+01 3.006257e+01 2.785301e+01 4.560815e-01 1.236747e+00 9.778910e-01 1.978868e+00 1.923851e+00 1.728837e+00 2.131647e+00 1.837577e+00 2.223804e+00 1.950466e+00 1.768472e+00 1.682464e+00 4.713222e-01 1.019623e-01 1.854005e-01 1.721843e-01 3.141451e-01 2.913259e-01 2.862879e-01 4.458358e-01 3.748060e-01 3.579812e-01 3.503876e-01 3.259441e-01 3.232235e-01 8.324599e-02
<GCONST> 1.043554e+02
<STATE> 4
<MEAN> 39
 -7.078600e+00 -1.506732e+01 4.041083e-01 -1.298490e+01 -1.436227e+01 -2.962239e+00 1.912578e+00 6.240253e-01 -5.361267e+00 -3.173081e+00 -5.927011e+00 -1.400187e+00 7.234460e+01 2.224077e-01 1.803064e+00 1.099933e+00 2.683564e-01 -3.684223e-01 -8.722070e-01 -1.270916e+00 -5.020593e-01 9.181113e-01 1.005997e+00 5.457660e-01 3.358169e-01 -1.527890e+00 -8.524129e-03 1.839907e-01 -7.957967e-02 6.236785e-01 5.801098e-01 1.682963e-01 -2.147286e-01 -2.274762e-01 -1.237621e-01 -1.602698e-01 1.938059e-01 2.487622e-01 -3.386360e-01
<VARIANCE> 39
 2.174895e+01 3.511879e+01 3.290870e+01 6.081871e+01 5.486798e+01 5.334810e+01 6.181093e+01 6.657945e+01 4.808108e+01 4.152691e+01 3.742124e+01 3.577492e+01 6.425072e+01 9.376686e-01 1.917218e+00 1.850798e+00 3.320565e+00 3.156677e+00 2.721658e+00 3.775027e+00 3.076349e+00 3.149665e+00 3.035724e+00 2.372547e+00 2.421885e+00 1.549094e+00 1.762077e-01 2.967136e-01 2.709327e-01 5.414515e-01 5.453416e-01 5.622167e-01 7.296906e-01 5.970854e-01 5.885137e-01 5.991207e-01 4.567426e-01 4.817247e-01 2.412542e-01
<GCONST> 1.217701e+02
<TRANSP> 5
 0.000000e+00 1.000000e+00 0.000000e+00 0.000000e+00 0.000000e+00
 0.000000e+00 6.685829e-01 3.314171e-01 0.000000e+00 0.000000e+00
 0.000000e+00 0.000000e+00 8.158665e-01 1.841335e-01 0.000000e+00
 0.000000e+00 0.000000e+00 0.000000e+00 6.005147e-01 3.994853e-01
 0.000000e+00 0.000000e+00 0.000000e+00 0.000000e+00 0.000000e+00
<ENDHMM>
~h "an"
<BEGINHMM>
<NUMSTATES> 5
<STATE> 2
<MEAN> 39
 -6.274436e+00 -1.983774e+01 -7.039998e+00 -9.804705e+00 -4.613888e+00 -3.645854e+00 -3.390485e+00 7.189493e-01 -7.157714e+00 -8.780907e+00 -6.351693e+00 2.047116e+00 7.638909e+01 5.053817e-02 -2.090829e+00 -1.078691e+00 -8.090402e-01 1.910384e-01 1.722819e-01 -1.124809e-01 -2.922194e-01 -1.519252e+00 -1.353886e+00 -7.992295e-01 -8.808379e-02 1.256122e+00 -3.999072e-01 7.030272e-01 5.456434e-01 6.258429e-01 1.753895e-01 1.698096e-01 1.077602e-01 3.112124e-02 2.850012e-01 4.917136e-01 4.827023e-01 -5.083784e-02 -5.875292e-01
<VARIANCE> 39
 2.469209e+01 3.186407e+01 3.188789e+01 5.059727e+01 5.559118e+01 4.960859e+01 7.537347e+01 5.742667e+01 5.174097e+01 4.435368e+01 5.835657e+01 5.157568e+01 3.597245e+01 2.327031e+00 3.992931e+00 2.920864e+00 4.272893e+00 4.810559e+00 4.286903e+00 4.822282e+00 4.214750e+00 3.719144e+00 3.656236e+00 3.958912e+00 3.297558e+00 2.196644e+00 5.080980e-01 5.729481e-01 4.712133e-01 7.039512e-01 7.398666e-01 7.490808e-01 8.530833e-01 8.948988e-01 6.816649e-01 6.405610e-01 7.251230e-01 6.965786e-01 4.087132e-01
<GCONST> 1.325108e+02
<STATE> 3
<MEAN> 39
 -6.741743e+00 -2.068598e+01 -6.217713e+00 -9.956477e+00 -5.198456e+00 -3.950517e+00 -3.679030e+00 1.986255e+00 -1.031145e+01 -9.753741e+00 -6.227778e+00 1.057690e+00 7.658344e+01 1.682126e-01 9.609978e-01 6.338481e-01 -8.902913e-02 -6.566604e-01 -5.975549e-01 -1.366454e-01 2.041032e-01 -3.500447e-02 4.624540e-01 2.015397e-01 -2.547698e-01 -8.443178e-01 1.298844e-01 4.603670e-01 2.266185e-01 8.667904e-02 -1.783053e-01 -1.470853e-01 -1.365642e-01 -1.362119e-01 2.338575e-01 2.321553e-01 6.579707e-02 -4.218923e-02 -3.950638e-01
<VARIANCE> 39
 2.405897e+01 2.367211e+01 2.859751e+01 4.295609e+01 4.615295e+01 4.607953e+01 8.094794e+01 6.078122e+01 4.859697e+01 3.808327e+01 4.641689e+01 3.714960e+01 2.684607e+01 5.765891e-01 1.556849e+00 1.270027e+00 1.798220e+00 2.210497e+00 2.102897e+00 2.474571e+00 2.361175e+00 2.187438e+00 2.117250e+00 1.940211e+00 1.980706e+00 1.001913e+00 9.907833e-02 1.831554e-01 2.019861e-01 3.663175e-01 3.350125e-01 3.633477e-01 4.681131e-01 5.436954e-01 4.036238e-01 3.885038e-01 3.551963e-01 3.364418e-01 1.087484e-01
<GCONST> 1.101823e+02
<STATE> 4
<MEAN> 39
 -5.188360e+00 -1.071779e+01 -5.063099e-01 -6.280558e+00 -7.954309e+00 -6.331553e+00 -4.445157e+00 8.254814e-01 -6.400070e+00 -5.310480e+00 -3.533002e+00 5.840362e-01 6.417902e+01 2.020667e-01 1.586503e+00 9.744440e-01 7.208992e-01 -2.983567e-01 -3.178829e-03 -5.514017e-01 -1.057117e+00 5.610461e-01 5.377295e-01 3.882202e-01 -1.971267e-01 -1.836568e+00 -1.060395e-01 -8.866652e-02 -1.035540e-01 6.483613e-02 2.194231e-01 2.404002e-01 1.673793e-02 -8.589295e-02 7.379897e-03 -9.468193e-02 -3.539260e-02 2.098214e-02 8.138089e-02
<VARIANCE> 39
 2.791200e+01 3.869269e+01 3.752128e+01 5.413176e+01 6.046001e+01 5.718777e+01 6.581962e+01 6.078053e+01 6.775296e+01 4.742892e+01 5.352967e+01 4.682713e+01 7.434052e+01 9.820597e-01 2.142097e+00 2.266978e+00 2.490865e+00 2.627314e+00 2.883975e+00 3.878140e+00 4.041965e+00 3.369181e+00 3.190551e+00 2.697368e+00 2.472825e+00 2.069883e+00 1.393956e-01 2.432808e-01 3.156270e-01 3.818003e-01 4.282870e-01 5.083190e-01 5.712176e-01 6.747800e-01 5.978290e-01 5.619240e-01 4.670508e-01 4.328965e-01 2.157810e-01
<GCONST> 1.229823e+02
<TRANSP> 5
 0.000000e+00 1.000000e+00 0.000000e+00 0.000000e+00 0.000000e+00
 0.000000e+00 6.672432e-01 3.327568e-01 0.000000e+00 0.000000e+00
 0.000000e+00 0.000000e+00 8.172519e-01 1.827481e-01 0.000000e+00
