~o
<STREAMINFO> 1 39
<VECSIZE> 39<NULLD><MFCC_D_A_0><DIAGC>
~h "a"
<BEGINHMM>
<NUMSTATES> 5
<STATE> 2
<MEAN> 39
 -7.950581e+00 -1.751589e+01 -6.649075e+00 -3.726671e+00 1.296693e+00 1.378595e+00 -4.195730e+00 -1.132674e+00 -2.435479e+00 -4.065788e+00 -2.461901e+00 1.420714e+00 6.911727e+01 -8.747113e-02 -8.498746e-01 -4.399892e-01 2.123690e-01 4.003712e-01 9.548463e-02 -4.230101e-01 -3.625326e-01 -3.657528e-02 -1.858983e-01 -2.860515e-02 -6.174559e-02 3.764237e-01 9.356471e-03 2.662150e-01 1.628805e-01 -4.687233e-03 -1.548555e-01 -9.699279e-02 3.943483e-02 6.457698e-02 6.524365e-02 8.753156e-02 2.890811e-02 -1.703178e-02 -1.811842e-01
<VARIANCE> 39
 3.645257e+01 7.736552e+01 5.130928e+01 5.478031e+01 4.922083e+01 5.189725e+01 7.497157e+01 5.789889e+01 5.338227e+01 5.712671e+01 5.564561e+01 4.207513e+01 1.247895e+02 1.727006e+00 3.685665e+00 2.722790e+00 3.182691e+00 3.222727e+00 2.820943e+00 3.694916e+00 3.450534e+00 3.116133e+00 3.202210e+00 2.831980e+00 2.442106e+00 3.022356e+00 3.371096e-01 5.436162e-01 4.797521e-01 6.091177e-01 5.591113e-01 5.047165e-01 6.384997e-01 6.238546e-01 6.010952e-01 6.158031e-01 5.363164e-01 4.495037e-01 5.088441e-01
<GCONST> 1.302907e+02
<STATE> 3
<MEAN> 39
 -7.901872e+00 -1.859303e+01 -7.283081e+00 -3.434612e+00 1.515759e+00 1.170611e+00 -5.045012e+00 -1.675009e+00 -2.398413e+00 -4.418115e+00 -2.600589e+00 1.278530e+00 6.955323e+01 3.021362e-02 -1.190795e-01 -9.621607e-02 -5.158897e-02 -1.204396e-01 -1.090633e-01 -8.642474e-02 -3.566778e-02 -2.713616e-02 -9.772259e-02 -4.156405e-02 -2.122323e-02 2.915122e-02 2.911928e-02 2.552833e-01 1.304846e-01 -8.976866e-02 -1.748542e-01 -6.905008e-02 1.068163e-01 1.057112e-01 3.319416e-03 4.570781e-02 3.731350e-03 1.477164e-02 -1.304976e-01
<VARIANCE> 39
 3.502883e+01 7.699994e+01 4.723414e+01 5.296517e+01 4.897826e+01 5.230745e+01 7.445625e+01 5.882159e+01 5.247066e+01 5.677862e+01 5.486792e+01 4.262121e+01 1.252708e+02 1.476124e+00 3.194774e+00 2.297810e+00 2.838470e+00 3.084435e+00 2.485084e+00 3.374941e+00 3.025867e+00 2.743694e+00 2.841478e+00 2.499438e+00 2.162792e+00 2.863396e+00 2.771794e-01 4.627172e-01 3.909839e-01 5.215684e-01 5.397521e-01 4.620751e-01 5.720370e-01 5.509611e-01 5.223930e-01 5.430564e-01 4.657106e-01 4.056160e-01 4.204336e-01
<GCONST> 1.268219e+02
<STATE> 4
<MEAN> 39
 -8.546742e+00 -1.600073e+01 -5.901705e+00 -2.881176e+00 7.012882e-01 6.610028e-01 -3.417301e+00 1.336915e-01 -1.177056e+00 -3.258832e+00 -1.198931e+00 2.139310e+00 6.504411e+01 2.324634e-02 4.573738e-01 2.028108e-01 -2.132490e-01 -4.157963e-01 -1.758690e-01 1.647591e-01 1.478575e-01 -3.338638e-02 8.125129e-02 3.052933e-03 1.071470e-02 -2.040975e-01 -8.103353e-03 1.591706e-01 9.933382e-02 -1.411832e-02 -5.809449e-02 -3.548605e-02 8.469736e-04 7.135712e-03 1.335077e-02 6.951498e-02 1.327594e-02 -9.017808e-03 -7.449142e-02
<VARIANCE> 39
 3.396035e+01 7.870130e+01 4.720193e+01 5.204694e+01 5.265960e+01 4.879993e+01 7.125873e+01 5.998682e+01 5.584131e+01 6.155182e+01 5.656495e+01 4.067543e+01 1.564080e+02 1.537081e+00 3.485837e+00 2.317449e+00 2.960482e+00 3.450618e+00 2.764982e+00 3.390266e+00 3.107269e+00 2.993822e+00 3.193751e+00 2.658870e+00 2.266033e+00 3.662975e+00 2.829205e-01 4.864741e-01 3.878230e-01 5.389033e-01 6.018408e-01 5.038772e-01 5.895888e-01 5.667598e-01 5.509882e-01 5.840340e-01 4.849154e-01 4.214093e-01 5.131393e-01
<GCONST> 1.288622e+02
<TRANSP> 5
 0.000000e+00 1.000000e+00 0.000000e+00 0.000000e+00 0.000000e+00
 0.000000e+00 6.970496e-01 3.029505e-01 0.000000e+00 0.000000e+00
 0.000000e+00 0.000000e+00 6.920758e-01 3.079241e-01 0.000000e+00
 0.000000e+00 0.000000e+00 0.000000e+00 8.659417e-01 1.340583e-01
 0.000000e+00 0.000000e+00 0.000000e+00 0.000000e+00 0.000000e+00
<ENDHMM>
~h "b"
<BEGINHMM>
<NUMSTATES> 5
<STATE> 2
<MEAN> 39
 -4.408955e+00 -7.097942e+00 -3.429454e-01 -7.498506e+00 -5.039282e+00 -2.261508e+00 -6.250157e+00 -1.856580e+00 -2.896984e+00 -1.110823e+00 -3.396387e+00 3.496194e-02 6.216924e+01 7.761855e-02 4.918493e-01 3.836133e-01 1.093476e+00 3.924733e-01 2.064732e-01 4.021131e-01 -3.533453e-02 4.410808e-01 1.227177e-01 2.643208e-01 -2.404889e-03 -9.785587e-01 -1.256114e-01 -1.094366e-01 -1.675647e-02 -1.402981e-01 -3.778125e-02 1.259266e-02 1.208844e-02 3.895574e-02 -4.806623e-02 -1.270689e-02 -3.002958e-02 1.904992e-02 2.976320e-01
<VARIANCE> 39
 3.959285e+01 5.595246e+01 6.458044e+01 1.000472e+02 6.031699e+01 5.874287e+01 7.380122e+01 6.052267e+01 6.515455e+01 5.255138e+01 5.435983e+01 4.660335e+01 1.063941e+02 3.182391e+00 4.716366e+00 4.818105e+00 8.881392e+00 4.962564e+00 4.420242e+00 5.938342e+00 5.701982e+00 5.302492e+00 4.671957e+00 4.462976e+00 3.768493e+00 1.032562e+01 5.659520e-01 8.372583e-01 8.160146e-01 1.551480e+00 8.996189e-01 8.140706e-01 1.060756e+00 1.109929e+00 9.851938e-01 9.199727e-01 8.402625e-01 7.357566e-01 1.643982e+00
<GCONST> 1.460751e+02
<STATE> 3
<MEAN> 39
 -4.792208e+00 -6.537056e+00 4.117034e-01 -5.573171e+00 -4.365872e+00 -1.728370e+00 -5.143448e+00 -1.634033e+00 -1.967723e+00 -8.054109e-01 -2.866208e+00 1.754963e-01 6.128871e+01 -1.331008e-01 -1.758338e-01 1.427000e-01 -5.207671e-04 -1.483361e-02 8.458757e-02 2.386578e-01 1.334549e-01 9.550022e-02 4.788310e-02 1.622750e-02 1.013294e-01 5.965158e-01 -3.654492e-02 -2.243678e-01 -1.066573e-01 -4.511079e-01 -1.547559e-01 -5.610697e-02 -1.299545e-01 1.018662e-02 -1.813827e-01 -5.053447e-02 -1.267454e-01 2.656751e-02 5.134717e-01
<VARIANCE> 39
 3.710637e+01 5.077959e+01 5.964174e+01 8.547225e+01 5.162946e+01 5.168717e+01 7.026131e+01 5.768414e+01 5.942634e+01 4.915163e+01 5.131467e+01 4.371546e+01 1.027745e+02 3.361874e+00 5.458312e+00 5.912095e+00 1.073342e+01 5.317094e+00 4.689225e+00 6.625504e+00 6.312578e+00 6.137963e+00 5.114698e+00 5.102846e+00 3.968225e+00 1.429310e+01 6.574437e-01 8.798678e-01 9.479441e-01 1.620513e+00 9.135023e-01 8.414947e-01 1.173640e+00 1.211213e+00 1.093230e+00 1.003854e+00 9.387196e-01 7.672372e-01 2.015525e+00
<GCONST> 1.478399e+02
<STATE> 4
<MEAN> 39
 -5.078739e+00 -7.791844e+00 3.275822e-01 -7.355056e+00 -5.114885e+00 -1.859538e+00 -5.046041e+00 -1.176921e+00 -2.394413e+00 -8.578711e-01 -3.289956e+00 6.768338e-01 6.505894e+01 -1.000794e-01 -5.926352e-01 -1.445194e-01 -1.157745e+00 -3.906821e-01 -8.061907e-02 -2.769837e-01 -2.515455e-02 -5.071433e-01 -1.649376e-01 -3.826236e-01 9.530842e-02 1.578842e+00 -3.867839e-02 -3.070137e-02 -1.060872e-01 -1.918754e-01 -4.026307e-02 -5.923521e-03 -1.331177e-01 -7.415336e-02 -1.450081e-01 -5.811146e-02 -7.148942e-02 -2.510096e-02 -2.125442e-02
<VARIANCE> 39
 3.987770e+01 6.060944e+01 8.183260e+01 9.569748e+01 6.091992e+01 5.230230e+01 7.093810e+01 5.967315e+01 6.002793e+01 5.005091e+01 5.301950e+01 4.387017e+01 1.210205e+02 3.502466e+00 5.341369e+00 6.402089e+00 1.055405e+01 5.532444e+00 4.554410e+00 7.013070e+00 6.230687e+00 6.205078e+00 5.178304e+00 5.136932e+00 3.892516e+00 1.135521e+01 6.542509e-01 8.406085e-01 1.038046e+00 1.769985e+00 9.110255e-01 8.110485e-01 1.171898e+00 1.146136e+00 1.097842e+00 9.731410e-01 9.419116e-01 7.331882e-01 2.093543e+00
<GCONST> 1.488850e+02
<TRANSP> 5
 0.000000e+00 1.000000e+00 0.000000e+00 0.000000e+00 0.000000e+00
 0.000000e+00 6.381500e-01 3.618499e-01 0.000000e+00 0.000000e+00
 0.000000e+00 0.000000e+00 6.457844e-01 3.542157e-01 0.000000e+00
 0.000000e+00 0.000000e+00 0.000000e+00 7.421989e-01 2.578011e-01
 0.000000e+00 0.000000e+00 0.000000e+00 0.000000e+00 0.000000e+00
<ENDHMM>
~h "c"
<BEGINHMM>
<NUMSTATES> 5
<STATE> 2
<MEAN> 39
 -1.230317e+01 -4.577230e+00 -1.882109e+00 -1.165804e+00 -2.172957e+00 -3.917062e-01 -6.805022e-01 1.983903e+00 5.225871e-01 9.794112e-01 1.132918e+00 2.563193e+00 6.018473e+01 -7.127696e-01 9.702910e-02 -1.535796e-01 4.949214e-01 5.343332e-01 4.116208e-01 6.534366e-01 5.533006e-01 3.340001e-01 3.144315e-01 4.149776e-01 1.754592e-01 3.313220e-01 2.246185e-01 -1.874686e-01 4.977374e-02 -2.359282e-01 -7.443643e-02 -1.136483e-01 -1.769519e-01 -9.302258e-02 -1.386937e-01 -1.184637e-01 -1.313325e-01 -3.252121e-02 2.414893e-01
<VARIANCE> 39
 4.998637e+01 6.083114e+01 3.592399e+01 5.434545e+01 5.288102e+01 4.933648e+01 5.640819e+01 4.791959e+01 4.628857e+01 4.243225e+01 4.111480e+01 3.083991e+01 7.858421e+01 4.015001e+00 3.547288e+00 2.726106e+00 3.637971e+00 3.237470e+00 3.852964e+00 4.296853e+00 3.752035e+00 3.650704e+00 3.784938e+00 3.081936e+00 2.569833e+00 3.259230e+00 7.193023e-01 5.576733e-01 4.886724e-01 6.178560e-01 5.673055e-01 6.835456e-01 7.569607e-01 6.772022e-01 6.658061e-01 7.250876e-01 5.696350e-01 4.846899e-01 5.060365e-01
<GCONST> 1.318431e+02
<STATE> 3
<MEAN> 39
 -1.331100e+01 -4.635630e+00 -2.016461e+00 -6.615868e-01 -1.359008e+00 -1.210809e-01 7.109118e-02 2.701176e+00 5.888395e-01 1.109150e+00 1.428473e+00 2.696686e+00 6.229151e+01 -2.821661e-02 -2.602757e-01 -1.345728e-03 3.797047e-02 3.566911e-01 1.458457e-01 2.013184e-01 2.298785e-01 2.318842e-03 -5.966395e-02 7.620002e-02 8.201377e-02 6.448615e-01 2.797863e-01 -1.668886e-01 3.233414e-02 -2.113704e-01 -7.870976e-02 -1.197203e-01 -2.247915e-01 -1.427818e-01 -1.395305e-01 -1.581877e-01 -1.422299e-01 -3.368793e-02 4.235310e-02
<VARIANCE> 39
 5.115145e+01 6.450137e+01 3.368610e+01 5.166051e+01 4.779710e+01 4.450126e+01 5.257070e+01 4.336655e+01 4.171981e+01 3.895528e+01 3.697383e+01 2.811633e+01 8.541649e+01 4.228461e+00 3.668210e+00 2.623968e+00 3.341476e+00 3.104664e+00 3.512794e+00 4.194969e+00 3.477822e+00 3.373167e+00 3.591679e+00 2.880230e+00 2.433412e+00 2.886732e+00 7.070892e-01 5.548531e-01 5.120698e-01 5.799227e-01 5.623155e-01 6.499195e-01 7.368988e-01 6.511541e-01 6.290026e-01 6.772970e-01 5.468431e-01 4.776255e-01 4.561793e-01
<GCONST> 1.300349e+02
<STATE> 4
<MEAN> 39
 -1.247623e+01 -6.075471e+00 -1.695643e+00 -1.203518e+00 -4.975567e-01 -9.048104e-03 1.870346e-01 3.090993e+00 6.563337e-01 8.471438e-01 1.596807e+00 2.957656e+00 6.208997e+01 4.517063e-01 -3.877189e-01 -2.251081e-02 -3.406400e-01 9.375171e-02 -5.953594e-02 -2.863652e-01 -1.318004e-01 -2.448354e-01 -3.099108e-01 -2.158074e-01 -1.984660e-02 4.755776e-01 1.350730e-01 -7.771827e-02 -5.246623e-02 -1.685829e-01 -9.247743e-02 -6.330554e-02 -1.706236e-01 -1.069866e-01 -9.571814e-02 -8.811890e-02 -9.694581e-02 -3.693347e-02 -3.088507e-02
<VARIANCE> 39
 5.015754e+01 6.377874e+01 3.329930e+01 5.166461e+01 4.687017e+01 4.399933e+01 5.321783e+01 4.184945e+01 4.298400e+01 4.118327e+01 3.765864e+01 2.781557e+01 9.895100e+01 3.557791e+00 3.677070e+00 2.516119e+00 3.575895e+00 3.202641e+00 3.296959e+00 4.237830e+00 3.346754e+00 3.251555e+00 3.439212e+00 2.831142e+00 2.433108e+00 2.606683e+00 5.565302e-01 5.005325e-01 4.929627e-01 5.723972e-01 5.625488e-01 5.925083e-01 7.061004e-01 6.290272e-01 6.008106e-01 6.160026e-01 5.259541e-01 4.733864e-01 3.538933e-01
<GCONST> 1.287686e+02
<TRANSP> 5
 0.000000e+00 1.000000e+00 0.000000e+00 0.000000e+00 0.000000e+00
 0.000000e+00 6.495619e-01 3.504381e-01 0.000000e+00 0.000000e+00
 0.000000e+00 0.000000e+00 6.265936e-01 3.734064e-01 0.000000e+00
 0.000000e+00 0.000000e+00 0.000000e+00 7.738836e-01 2.261163e-01
 0.000000e+00 0.000000e+00 0.000000e+00 0.000000e+00 0.000000e+00
<ENDHMM>
~h "d"
<BEGINHMM>
<NUMSTATES> 5
<STATE> 2
<MEAN> 39
 -5.525335e+00 -7.573476e+00 -1.272645e-01 -8.093878e+00 -6.722486e+00 -5.747953e+00 -7.389436e+00 -1.837363e+00 -2.832545e+00 -2.263320e+00 -4.416839e+00 5.165397e-01 6.436445e+01 7.119505e-03 3.759720e-01 1.894995e-01 8.086429e-01 2.920346e-01 -1.215544e-01 2.975016e-01 2.179816e-01 4.193926e-01 -6.305461e-02 1.648473e-01 5.704953e-02 -6.918731e-01 -8.122428e-02 -1.423817e-01 -1.016695e-01 -1.850915e-01 4.865917e-02 1.329139e-01 4.452198e-02 7.644462e-02 -3.796674e-02 1.153702e-02 1.322455e-02 1.269961e-02 3.198512e-01
<VARIANCE> 39
 3.324435e+01 5.142117e+01 6.327962e+01 7.756842e+01 6.871030e+01 6.784372e+01 8.121433e+01 6.323287e+01 6.420464e+01 5.303894e+01 5.400637e+01 4.535798e+01 1.011921e+02 2.335778e+00 4.335554e+00 4.688890e+00 7.398262e+00 5.277349e+00 5.625696e+00 6.264642e+00 5.708613e+00 4.914095e+00 4.543756e+00 4.399029e+00 3.791364e+00 1.068624e+01 4.110652e-01 7.447955e-01 7.484014e-01 1.325523e+00 9.581390e-01 1.082032e+00 1.194629e+00 1.096443e+00 9.319706e-01 8.897080e-01 8.368472e-01 7.580884e-01 1.897443e+00
<GCONST> 1.453954e+02
<STATE> 3
<MEAN> 39
 -5.896925e+00 -7.447300e+00 -2.425614e-01 -7.156688e+00 -5.897291e+00 -5.383700e+00 -6.401479e+00 -9.083203e-01 -1.935902e+00 -2.255468e+00 -3.933632e+00 7.301584e-01 6.432618e+01 -1.343018e-01 -2.682851e-01 -2.636773e-01 -2.010083e-01 1.945728e-01 4.163896e-02 1.674667e-01 3.830315e-01 1.468429e-01 -6.121422e-02 6.539518e-03 1.373684e-01 7.103233e-01 -1.362303e-02 -2.195190e-01 -1.453156e-01 -3.702770e-01 -5.799266e-02 3.035352e-02 -1.179523e-01 3.850580e-03 -1.378129e-01 -2.770259e-02 -1.057493e-01 1.141978e-02 4.248622e-01
<VARIANCE> 39
 3.292227e+01 4.985295e+01 5.553756e+01 7.198569e+01 5.853841e+01 6.527696e+01 7.660382e+01 6.083500e+01 5.770702e+01 5.132171e+01 5.376359e+01 4.220075e+01 1.032202e+02 2.513583e+00 5.042349e+00 5.192739e+00 8.396490e+00 5.269651e+00 5.822089e+00 7.092307e+00 6.361674e+00 5.363963e+00 4.939467e+00 5.031384e+00 4.011477e+00 1.349805e+01 4.714113e-01 8.190157e-01 8.418927e-01 1.387190e+00 9.856239e-01 1.138949e+00 1.326703e+00 1.246296e+00 9.868471e-01 9.602481e-01 9.556292e-01 7.979929e-01 2.250881e+00
<GCONST> 1.471669e+02
<STATE> 4
<MEAN> 39
 -6.213511e+00 -8.846098e+00 -1.582453e+00 -8.931141e+00 -5.742454e+00 -5.123419e+00 -6.368298e+00 -6.505817e-02 -2.063453e+00 -2.585471e+00 -4.337238e+00 1.113493e+00 6.751749e+01 -4.570501e-02 -5.930573e-01 -4.683695e-01 -8.606199e-01 5.755617e-02 6.486723e-02 -2.849250e-01 1.478589e-01 -2.593542e-01 -1.706117e-01 -3.057748e-01 6.767540e-02 1.209744e+00 2.227606e-02 -3.603972e-02 -1.692356e-02 -7.906364e-02 -1.274752e-02 5.846633e-02 -1.029736e-01 -1.093314e-01 -1.020211e-01 -1.248185e-02 -5.507391e-02 -6.452719e-02 -6.581517e-02
<VARIANCE> 39
 3.430653e+01 5.865812e+01 6.655632e+01 7.633413e+01 6.018800e+01 6.643554e+01 7.994812e+01 6.392378e+01 5.981248e+01 5.476969e+01 5.662019e+01 4.289755e+01 1.080472e+02 2.405828e+00 4.830927e+00 5.166120e+00 7.289790e+00 5.119780e+00 5.437508e+00 7.136256e+00 6.273866e+00 5.417035e+00 4.913603e+00 5.073307e+00 3.960995e+00 1.039985e+01 4.350933e-01 7.753288e-01 8.149108e-01 1.277227e+00 8.999523e-01 1.019288e+00 1.282013e+00 1.186871e+00 9.607165e-01 9.301535e-01 9.563497e-01 7.587395e-01 1.989077e+00
<GCONST> 1.465970e+02
<TRANSP> 5
 0.000000e+00 1.000000e+00 0.000000e+00 0.000000e+00 0.000000e+00
 0.000000e+00 6.277050e-01 3.722950e-01 0.000000e+00 0.000000e+00
 0.000000e+00 0.000000e+00 6.198983e-01 3.801017e-01 0.000000e+00
 0.000000e+00 0.000000e+00 0.000000e+00 6.948205e-01 3.051794e-01
 0.000000e+00 0.000000e+00 0.000000e+00 0.000000e+00 0.000000e+00
<ENDHMM>
~h "e"
<BEGINHMM>
<NUMSTATES> 5
<STATE> 2
<MEAN> 39
 -5.294226e+00 -1.076760e+01 -4.550776e+00 -1.110031e+01 -3.853559e+00 -6.671875e+00 -8.858201e+00 1.533228e+00 -3.692641e-01 -2.196182e+00 -6.215510e+00 4.954781e-01 6.954707e+01 1.584633e-01 -2.015840e-01 -1.490384e-01 -5.740265e-01 -1.488182e-01 -1.002418e-01 -1.687739e-01 7.996937e-02 -3.730621e-03 -1.175525e-01 -3.198226e-01 -5.686846e-02 3.149440e-01 -8.886998e-02 1.272967e-01 1.085957e-01 1.612181e-01 4.136896e-03 1.506876e-01 1.093735e-01 -9.930608e-02 -5.847618e-02 5.374459e-02 1.236002e-01 -2.234267e-02 -1.800318e-01
<VARIANCE> 39
 3.391064e+01 4.780251e+01 5.951611e+01 8.744184e+01 7.553202e+01 7.822329e+01 7.935041e+01 6.186841e+01 6.222548e+01 6.156078e+01 6.114149e+01 4.803187e+01 7.586591e+01 2.290179e+00 3.892262e+00 3.661210e+00 7.573339e+00 4.848159e+00 4.780763e+00 5.753445e+00 5.211362e+00 4.236845e+00 4.298440e+00 4.595266e+00 3.699078e+00 5.309615e+00 4.102201e-01 6.749904e-01 5.912381e-01 1.162929e+00 8.175316e-01 8.436986e-01 9.950418e-01 1.011100e+00 7.919429e-01 7.968940e-01 7.892154e-01 6.947005e-01 8.537675e-01
<GCONST> 1.415882e+02
<STATE> 3
<MEAN> 39
 -5.140032e+00 -1.085734e+01 -4.591873e+00 -1.173998e+01 -4.177699e+00 -6.467453e+00 -8.856246e+00 1.452376e+00 -5.026305e-01 -2.387024e+00 -6.504932e+00 2.937454e-01 6.957270e+01 -7.059569e-02 1.498582e-01 1.623789e-01 1.060829e-02 -1.520542e-01 2.223274e-01 1.575498e-01 -1.118065e-01 -1.025141e-01 2.523999e-02 8.257621e-02 -5.401805e-02 -1.887800e-01 -1.207736e-01 1.625554e-01 1.274513e-01 2.298752e-01 3.105192e-02 1.522177e-01 1.182395e-01 -8.551843e-02 -3.526025e-02 8.319142e-02 1.636635e-01 -9.248134e-04 -1.879495e-01
<VARIANCE> 39
 3.351198e+01 4.894064e+01 6.026885e+01 8.501353e+01 7.507467e+01 7.992807e+01 7.917950e+01 6.137095e+01 6.317685e+01 6.087961e+01 6.175978e+01 4.793307e+01 7.936729e+01 2.232432e+00 3.998338e+00 3.604525e+00 7.361323e+00 4.775830e+00 4.654233e+00 5.347075e+00 4.978076e+00 4.251333e+00 4.356404e+00 4.534692e+00 3.628526e+00 5.289960e+00 3.931922e-01 6.680555e-01 5.792698e-01 1.082965e+00 8.085530e-01 8.298682e-01 9.496759e-01 9.876331e-01 8.047744e-01 8.090133e-01 7.806544e-01 6.838139e-01 8.302282e-01
<GCONST> 1.411581e+02
<STATE> 4
<MEAN> 39
 -5.507892e+00 -1.020895e+01 -4.294506e+00 -1.074995e+01 -4.095191e+00 -5.370049e+00 -7.912324e+00 1.170293e+00 -4.681454e-01 -2.267731e+00 -5.744517e+00 1.485218e-01 6.787706e+01 -3.496771e-01 4.734928e-01 4.510016e-01 5.273516e-01 -1.126984e-01 4.527478e-01 4.149522e-01 -1.936350e-01 -1.328191e-01 2.219692e-01 4.608099e-01 2.568947e-02 -5.631593e-01 -1.283175e-01 1.097087e-01 8.039936e-02 1.130992e-01 5.669354e-02 1.003591e-01 6.010825e-02 -3.076966e-02 -6.483262e-03 7.480281e-02 9.295433e-02 9.618239e-03 -5.095373e-02
<VARIANCE> 39
 3.689692e+01 5.178082e+01 6.248633e+01 8.962967e+01 7.815129e+01 8.073256e+01 7.910967e+01 6.039529e+01 6.402596e+01 5.968793e+01 6.252375e+01 4.617619e+01 9.474419e+01 2.440017e+00 3.869477e+00 3.510440e+00 6.291092e+00 4.615466e+00 4.590091e+00 4.912636e+00 4.784067e+00 4.316837e+00 4.426178e+00 4.245813e+00 3.435429e+00 4.953788e+00 4.092455e-01 6.357611e-01 5.615956e-01 9.752619e-01 7.952860e-01 8.037822e-01 8.839025e-01 9.119916e-01 7.968996e-01 8.101202e-01 7.405232e-01 6.421450e-01 8.617536e-01
<GCONST> 1.406917e+02
<TRANSP> 5
 0.000000e+00 1.000000e+00 0.000000e+00 0.000000e+00 0.000000e+00
 0.000000e+00 5.568303e-01 4.431697e-01 0.000000e+00 0.000000e+00
 0.000000e+00 0.000000e+00 5.495586e-01 4.504414e-01 0.000000e+00
 0.000000e+00 0.000000e+00 0.000000e+00 6.517429e-01 3.482571e-01
 0.000000e+00 0.000000e+00 0.000000e+00 0.000000e+00 0.000000e+00
<ENDHMM>
~h "f"
<BEGINHMM>
<NUMSTATES> 5
<STATE> 2
<MEAN> 39
 -8.059312e+00 -7.285163e+00 -2.339545e+00 -5.690405e+00 -3.857113e+00 -6.541243e-01 -4.668527e+00 -2.461712e-01 -2.977651e+00 -1.875643e+00 -2.298447e+00 3.339628e-01 6.533629e+01 -7.534226e-01 3.497788e-01 1.578365e-01 1.200793e+00 4.527398e-01 4.091240e-01 5.677741e-01 2.750224e-01 5.273668e-01 3.416106e-01 4.741309e-01 1.577306e-01 -4.377585e-01 -5.564708e-03 -1.554574e-01 -4.691451e-02 -2.217269e-01 -6.171114e-02 -3.501046e-02 -5.426954e-02 1.010508e-02 -2.202579e-02 3.238064e-02 -5.212776e-02 1.727661e-05 1.644348e-01
<VARIANCE> 39
 6.308290e+01 4.150412e+01 5.125931e+01 1.004734e+02 4.689923e+01 4.787135e+01 5.370330e+01 4.224923e+01 5.186338e+01 4.420879e+01 4.110503e+01 3.365136e+01 5.629675e+01 5.574644e+00 3.530121e+00 4.041338e+00 8.951395e+00 3.669708e+00 3.658041e+00 4.663208e+00 4.128251e+00 4.173124e+00 4.215841e+00 3.707072e+00 2.809228e+00 2.709213e+00 1.031365e+00 5.307580e-01 6.197405e-01 1.366957e+00 6.027652e-01 6.330186e-01 8.215078e-01 7.600929e-01 7.293263e-01 7.944618e-01 6.676728e-01 5.220850e-01 3.420150e-01
<GCONST> 1.359927e+02
<STATE> 3
<MEAN> 39
 -9.863136e+00 -7.143969e+00 -2.228598e+00 -3.787649e+00 -3.063477e+00 1.689507e-01 -3.523666e+00 4.840479e-01 -1.775014e+00 -8.845702e-01 -1.360678e+00 7.416241e-01 6.497421e+01 -2.319517e-01 -1.830547e-01 -2.033742e-01 1.327766e-01 1.868815e-01 1.704029e-01 1.674900e-01 1.624974e-01 2.355538e-01 1.449669e-01 1.088487e-01 8.262540e-02 1.322295e-01 2.347404e-01 -1.830460e-01 -1.338977e-01 -3.865823e-01 -8.993069e-02 -9.513231e-02 -1.690053e-01 -7.470547e-02 -1.465618e-01 -1.138981e-01 -1.463292e-01 -3.383772e-02 1.919853e-01
<VARIANCE> 39
 6.608199e+01 3.865943e+01 4.513657e+01 8.871524e+01 3.688152e+01 3.953633e+01 4.732496e+01 3.745791e+01 4.439081e+01 3.923071e+01 3.750619e+01 2.987617e+01 5.302364e+01 6.749605e+00 3.415887e+00 3.989318e+00 9.729603e+00 3.144873e+00 3.496814e+00 4.512085e+00 3.779331e+00 4.061497e+00 4.220224e+00 4.011906e+00 2.747501e+00 2.969574e+00 1.112705e+00 5.237635e-01 6.376175e-01 1.377689e+00 5.578166e-01 6.074107e-01 7.613953e-01 7.128871e-01 6.918012e-01 7.635807e-01 6.898783e-01 5.138258e-01 3.758942e-01
<GCONST> 1.343819e+02
<STATE> 4
<MEAN> 39
 -9.308212e+00 -8.168537e+00 -3.301729e+00 -4.865577e+00 -2.787392e+00 2.874389e-01 -3.605443e+00 8.059233e-01 -1.620760e+00 -8.305908e-01 -1.372648e+00 9.417925e-01 6.495419e+01 5.364682e-01 -4.492822e-01 -4.569974e-01 -7.980022e-01 -6.580290e-02 -1.084176e-01 -3.294477e-01 -1.283108e-01 -2.757559e-01 -2.534604e-01 -2.970719e-01 -4.202098e-02 4.839066e-01 1.379090e-01 -7.404553e-02 -3.941355e-02 -1.929430e-01 -4.459476e-02 -5.645642e-02 -1.221446e-01 -7.582633e-02 -1.316587e-01 -7.889034e-02 -7.684512e-02 -2.451786e-02 7.060339e-02
<VARIANCE> 39
 6.591171e+01 4.536519e+01 4.805814e+01 9.588161e+01 3.944572e+01 4.129947e+01 4.852213e+01 3.870161e+01 4.673236e+01 4.044833e+01 4.175058e+01 3.143035e+01 6.792815e+01 5.508145e+00 3.307634e+00 3.532019e+00 8.203150e+00 3.021040e+00 3.232631e+00 3.828891e+00 3.303854e+00 3.699842e+00 3.745086e+00 3.686041e+00 2.589680e+00 2.689507e+00 9.676352e-01 4.914048e-01 5.826110e-01 1.328727e+00 5.228508e-01 5.569548e-01 6.536244e-01 6.042143e-01 6.281958e-01 6.710982e-01 6.638322e-01 4.809628e-01 3.649786e-01
<GCONST> 1.327760e+02
<TRANSP> 5
 0.000000e+00 1.000000e+00 0.000000e+00 0.000000e+00 0.000000e+00
 0.000000e+00 6.267489e-01 3.732511e-01 0.000000e+00 0.000000e+00
 0.000000e+00 0.000000e+00 6.280624e-01 3.719375e-01 0.000000e+00
 0.000000e+00 0.000000e+00 0.000000e+00 7.521402e-01 2.478598e-01
 0.000000e+00 0.000000e+00 0.000000e+00 0.000000e+00 0.000000e+00
<ENDHMM>
~h "g"
<BEGINHMM>
<NUMSTATES> 5
<STATE> 2
<MEAN> 39
 -4.368824e+00 -7.497146e+00 -3.447759e+00 -1.062485e+01 -5.339698e+00 -3.207239e+00 -7.324004e+00 -2.043871e+00 -3.794540e+00 -2.721959e-01 -4.656205e+00 1.039997e+00 6.323394e+01 1.861066e-01 2.931370e-01 -4.528523e-01 3.309415e-01 4.403368e-01 1.319084e-01 2.976164e-01 1.407462e-01 1.815462e-01 2.031766e-01 1.883772e-01 1.975764e-01 -7.169895e-01 -6.100661e-02 -1.030519e-01 -2.585863e-02 -1.154573e-01 -2.452963e-02 3.320805e-02 3.990173e-02 5.412707e-02 -3.248584e-02 -1.857607e-02 3.100143e-03 9.454306e-04 2.231828e-01
<VARIANCE> 39
 3.695992e+01 5.195752e+01 6.873416e+01 9.984868e+01 6.387566e+01 6.371775e+01 8.232728e+01 5.989724e+01 7.068626e+01 6.017668e+01 6.450620e+01 5.162113e+01 8.985577e+01 2.296235e+00 4.017069e+00 5.213813e+00 8.949344e+00 5.592175e+00 5.249605e+00 7.321007e+00 5.988312e+00 6.135801e+00 5.090508e+00 5.311243e+00 4.440098e+00 7.753415e+00 4.201568e-01 6.318204e-01 8.564501e-01 1.539479e+00 9.719205e-01 1.011776e+00 1.385363e+00 1.157187e+00 1.173011e+00 1.007630e+00 1.028259e+00 8.924963e-01 1.110972e+00
<GCONST> 1.473174e+02
<STATE> 3
<MEAN> 39
 -4.061659e+00 -7.270703e+00 -4.877625e+00 -1.064458e+01 -4.486829e+00 -2.825613e+00 -6.449306e+00 -1.383913e+00 -3.559906e+00 2.146806e-01 -4.315227e+00 1.615897e+00 6.268054e+01 1.063009e-01 -1.360469e-01 -5.446851e-01 -3.373750e-01 1.989170e-01 4.041134e-02 1.406740e-01 2.429446e-01 -2.050997e-02 6.534281e-02 -6.385240e-02 1.412876e-01 3.196022e-01 -2.121033e-02 -1.362780e-01 8.449098e-03 -2.179419e-01 -8.453031e-02 -2.866074e-02 -1.003742e-01 2.204138e-04 -7.769279e-02 -7.660574e-02 -1.046203e-01 -5.035272e-02 3.281123e-01
<VARIANCE> 39
 3.720456e+01 4.982345e+01 6.298238e+01 1.052677e+02 5.755177e+01 5.986854e+01 8.175332e+01 5.758374e+01 7.036948e+01 5.733878e+01 6.143276e+01 4.991594e+01 8.518844e+01 2.507823e+00 4.137508e+00 5.383550e+00 1.038099e+01 5.446081e+00 5.390582e+00 8.103559e+00 6.284668e+00 6.827049e+00 5.466977e+00 5.784331e+00 4.848395e+00 9.035593e+00 4.723842e-01 6.524150e-01 9.387574e-01 1.754539e+00 9.943199e-01 1.034480e+00 1.513030e+00 1.257672e+00 1.306343e+00 1.074682e+00 1.082867e+00 9.644336e-01 1.216159e+00
<GCONST> 1.487784e+02
<STATE> 4
<MEAN> 39
 -3.503040e+00 -8.198173e+00 -6.757916e+00 -1.317981e+01 -4.430223e+00 -3.100095e+00 -6.982296e+00 -8.535066e-01 -4.233187e+00 -9.852475e-02 -5.265608e+00 1.761502e+00 6.518713e+01 6.032613e-02 -4.352746e-01 -3.397904e-01 -6.478459e-01 -2.987574e-03 -3.037702e-02 -2.087363e-01 1.285026e-01 -1.904882e-01 -2.296437e-01 -3.293864e-01 -1.064014e-01 9.186459e-01 -4.067674e-02 -5.715865e-02 9.995166e-02 3.138439e-02 -3.127623e-02 2.057109e-02 -4.520351e-02 -3.056813e-02 -2.628553e-02 -7.798591e-02 1.660215e-03 -6.562266e-02 4.408907e-02
<VARIANCE> 39
 3.774973e+01 5.678917e+01 6.076289e+01 1.109130e+02 5.965876e+01 6.170515e+01 8.165597e+01 5.593631e+01 7.253302e+01 5.908766e+01 6.527737e+01 5.445768e+01 9.044033e+01 2.243839e+00 3.788740e+00 4.629358e+00 9.247904e+00 5.037450e+00 4.978837e+00 7.356682e+00 5.768109e+00 6.496147e+00 5.435204e+00 5.409551e+00 5.045584e+00 6.523148e+00 4.122497e-01 5.895947e-01 7.970836e-01 1.618374e+00 9.121819e-01 9.379478e-01 1.376554e+00 1.141229e+00 1.242032e+00 1.034557e+00 1.039513e+00 9.777099e-01 9.907444e-01
<GCONST> 1.468516e+02
<TRANSP> 5
 0.000000e+00 1.000000e+00 0.000000e+00 0.000000e+00 0.000000e+00
 0.000000e+00 6.346278e-01 3.653722e-01 0.000000e+00 0.000000e+00
 0.000000e+00 0.000000e+00 6.424666e-01 3.575335e-01 0.000000e+00
 0.000000e+00 0.000000e+00 0.000000e+00 7.465065e-01 2.534935e-01
 0.000000e+00 0.000000e+00 0.000000e+00 0.000000e+00 0.000000e+00
<ENDHMM>
~h "h"
<BEGINHMM>
<NUMSTATES> 5
<STATE> 2
<MEAN> 39
 -5.545204e+00 -1.006011e+01 -7.751608e+00 -1.096783e+01 6.539772e-01 1.025307e-01 -7.813251e+00 2.617212e-01 -4.267176e+00 -3.036238e+00 -3.461307e+00 -1.353213e+00 6.752221e+01 -5.493672e-02 2.897858e-01 -5.836506e-01 4.321039e-01 1.127227e+00 6.503617e-01 2.163768e-01 1.740033e-01 1.302868e-01 1.325316e-01 3.977657e-01 -1.927726e-01 -4.546600e-01 -6.966271e-02 3.316255e-02 1.524014e-01 4.857938e-03 -1.275271e-01 -6.746060e-03 9.159261e-02 -7.617758e-03 1.036143e-02 9.267720e-02 3.363391e-02 3.117516e-02 1.486443e-03
<VARIANCE> 39
 4.162395e+01 5.695392e+01 5.767110e+01 9.248163e+01 9.542167e+01 7.740289e+01 8.025163e+01 6.476340e+01 7.247986e+01 6.919601e+01 5.613318e+01 5.042068e+01 6.466202e+01 2.656415e+00 3.077034e+00 3.597723e+00 5.821981e+00 6.302827e+00 4.507209e+00 6.105227e+00 5.919115e+00 5.225218e+00 5.532418e+00 4.206211e+00 3.445312e+00 2.063063e+00 4.382102e-01 4.420612e-01 5.272856e-01 8.844200e-01 9.136084e-01 7.687988e-01 1.109356e+00 1.113145e+00 9.629907e-01 1.031287e+00 7.679500e-01 6.376925e-01 2.508670e-01
<GCONST> 1.403193e+02
<STATE> 3
<MEAN> 39
 -6.002872e+00 -9.090772e+00 -8.616318e+00 -9.900048e+00 2.857047e+00 1.798671e+00 -6.699685e+00 8.259079e-01 -3.797691e+00 -2.132255e+00 -2.233294e+00 -1.682741e+00 6.632339e+01 -9.613799e-02 1.570182e-01 -1.852631e-01 2.228767e-01 4.321928e-01 3.735353e-01 2.764625e-01 1.323215e-01 1.813029e-01 2.297290e-01 2.723329e-01 -5.788266e-02 -2.347989e-01 1.924309e-02 -6.091249e-02 1.048781e-01 -1.057479e-01 -2.391775e-01 -1.192464e-01 -3.951588e-02 -4.085383e-02 -5.403860e-03 -7.255959e-03 -6.982920e-02 3.751623e-02 9.410994e-02
<VARIANCE> 39
 4.593846e+01 5.566684e+01 5.107842e+01 9.610625e+01 8.736678e+01 6.899271e+01 7.827873e+01 6.649447e+01 7.201015e+01 6.899094e+01 5.050129e+01 4.687705e+01 5.681885e+01 2.914413e+00 3.040929e+00 3.139367e+00 6.323112e+00 6.164320e+00 4.383247e+00 6.381782e+00 6.345888e+00 5.325700e+00 5.549114e+00 4.128894e+00 3.325172e+00 2.285961e+00 5.052552e-01 4.319231e-01 5.376021e-01 9.840915e-01 8.833410e-01 7.249622e-01 1.141633e+00 1.181774e+00 9.918936e-01 1.049269e+00 7.383934e-01 6.192142e-01 2.642526e-01
<GCONST> 1.402262e+02
<STATE> 4
<MEAN> 39
 -5.737446e+00 -8.977265e+00 -9.462938e+00 -1.057630e+01 2.957585e+00 2.286086e+00 -6.411545e+00 8.799419e-01 -3.206051e+00 -1.556822e+00 -1.721248e+00 -1.836982e+00 6.589793e+01 1.446877e-01 -1.226475e-01 2.997241e-02 -2.283022e-01 -3.384037e-01 -1.152692e-01 -1.024228e-01 -9.869008e-02 5.295833e-02 -2.693622e-02 -1.033181e-01 3.796393e-02 1.528011e-01 4.652675e-02 -5.361102e-02 6.528890e-02 -8.563872e-02 -1.649536e-01 -1.083847e-01 -7.305717e-02 -5.805751e-02 -4.801158e-02 -5.689977e-02 -7.609719e-02 2.516515e-02 7.621248e-02
<VARIANCE> 39
 4.753087e+01 5.783234e+01 4.922769e+01 1.056563e+02 8.590216e+01 6.444794e+01 7.666084e+01 6.766199e+01 6.930003e+01 6.699286e+01 4.852765e+01 4.475602e+01 6.092250e+01 2.746363e+00 2.792303e+00 2.789818e+00 6.145474e+00 5.149885e+00 3.867889e+00 5.764364e+00 5.745336e+00 4.753142e+00 4.898210e+00 3.728700e+00 3.042233e+00 2.285737e+00 4.717535e-01 4.038129e-01 4.874155e-01 9.749268e-01 8.022398e-01 6.402381e-01 1.007302e+00 1.051942e+00 8.782561e-01 9.019458e-01 6.618513e-01 5.703990e-01 2.786048e-01
<GCONST> 1.378398e+02
<TRANSP> 5
 0.000000e+00 1.000000e+00 0.000000e+00 0.000000e+00 0.000000e+00
 0.000000e+00 6.629064e-01 3.370936e-01 0.000000e+00 0.000000e+00
 0.000000e+00 0.000000e+00 6.686438e-01 3.313562e-01 0.000000e+00
 0.000000e+00 0.000000e+00 0.000000e+00 8.081310e-01 1.918689e-01
 0.000000e+00 0.000000e+00 0.000000e+00 0.000000e+00 0.000000e+00
<ENDHMM>
~h "i"
<BEGINHMM>
<NUMSTATES> 5
<STATE> 2
<MEAN> 39
 -1.244801e+01 -2.994843e-01 9.475128e+00 -1.257904e+01 -8.959877e+00 -2.745526e+00 -1.102037e+01 -6.274839e+00 -5.156729e+00 2.454841e-02 -5.193332e+00 8.160216e-01 6.612263e+01 1.051410e-01 7.918590e-03 5.520733e-01 -5.560465e-01 -3.530423e-01 -1.124784e-01 -5.474087e-01 -3.128648e-01 -3.408397e-01 -4.703803e-03 -3.107842e-01 5.572897e-03 4.723432e-02 2.831642e-02 -1.204380e-01 -1.941153e-01 1.946873e-01 4.034756e-02 2.719611e-02 1.993023e-01 1.224865e-01 1.018042e-01 1.684336e-02 7.527638e-02 -1.814745e-03 -6.858487e-02
<VARIANCE> 39
 3.996297e+01 5.560766e+01 6.506316e+01 8.622422e+01 5.927277e+01 4.512891e+01 9.405482e+01 6.459019e+01 6.988090e+01 4.525414e+01 6.147640e+01 4.430750e+01 5.749214e+01 2.017921e+00 2.395305e+00 3.067700e+00 4.852035e+00 3.589120e+00 2.879577e+00 4.976433e+00 3.606520e+00 3.843481e+00 2.980337e+00 3.262784e+00 2.362448e+00 1.760093e+00 3.017150e-01 3.446447e-01 4.726878e-01 6.943598e-01 6.242490e-01 5.153732e-01 8.003373e-01 6.693253e-01 6.409680e-01 5.569795e-01 5.452478e-01 4.330501e-01 2.809094e-01
<GCONST> 1.303059e+02
<STATE> 3
<MEAN> 39
 -1.208912e+01 -6.875916e-01 1.023045e+01 -1.322994e+01 -9.832850e+00 -2.861584e+00 -1.164010e+01 -6.710937e+00 -5.589777e+00 1.639306e-01 -5.634180e+00 8.841886e-01 6.596875e+01 1.822174e-01 -2.361933e-01 2.320191e-02 8.099360e-02 -2.530927e-01 -4.705434e-02 6.136946e-02 -5.795852e-02 -4.384987e-02 1.896028e-02 -4.029557e-02 3.923935e-03 -1.000767e-01 2.089226e-02 -6.122237e-02 -2.142009e-01 2.565811e-01 9.835382e-02 2.533779e-02 2.245502e-01 1.314300e-01 1.134711e-01 -7.701233e-03 1.165524e-01 -1.168809e-02 -7.673270e-02
<VARIANCE> 39
 3.625337e+01 5.425483e+01 6.341434e+01 8.542310e+01 5.940350e+01 4.430120e+01 9.228696e+01 6.500764e+01 7.003030e+01 4.683033e+01 6.230487e+01 4.526810e+01 6.085001e+01 1.712002e+00 2.213366e+00 2.896473e+00 4.817583e+00 3.539141e+00 2.599404e+00 4.717650e+00 3.413804e+00 3.534483e+00 2.803981e+00 3.101567e+00 2.268013e+00 1.803808e+00 2.853496e-01 3.388775e-01 4.327402e-01 6.978022e-01 6.407499e-01 4.810981e-01 7.451969e-01 6.380479e-01 6.064629e-01 5.428544e-01 5.306982e-01 4.188505e-01 2.818240e-01
<GCONST> 1.290475e+02
<STATE> 4
<MEAN> 39
 -1.187972e+01 -1.750121e+00 9.061127e+00 -1.066707e+01 -9.321426e+00 -2.050493e+00 -9.203096e+00 -5.503580e+00 -4.068676e+00 5.900147e-01 -3.995301e+00 1.353542e+00 6.341875e+01 1.624993e-01 -3.018295e-01 -4.713660e-01 6.474950e-01 1.111058e-01 3.363287e-02 5.621868e-01 2.803018e-01 2.098686e-01 -1.217291e-02 2.359113e-01 -1.987222e-02 -2.747507e-01 -1.925924e-02 -1.044997e-02 -1.447648e-01 1.392666e-01 1.542448e-01 3.061093e-02 1.136178e-01 1.324495e-01 7.809993e-02 -1.462050e-02 8.285626e-02 -6.715878e-03 -4.836089e-02
<VARIANCE> 39
 3.433681e+01 5.727909e+01 6.209929e+01 9.299822e+01 6.583188e+01 4.642318e+01 1.006499e+02 7.129577e+01 7.133173e+01 4.728535e+01 6.698773e+01 4.276656e+01 8.201704e+01 1.719252e+00 2.192967e+00 2.927811e+00 4.856124e+00 3.880047e+00 2.667228e+00 4.623827e+00 3.671577e+00 3.586427e+00 2.920181e+00 3.062585e+00 2.296491e+00 2.295290e+00 2.804657e-01 3.373941e-01 4.111867e-01 7.019448e-01 6.704843e-01 4.810292e-01 6.978362e-01 6.335955e-01 5.976780e-01 5.469817e-01 5.110416e-01 4.151948e-01 3.462619e-01
<GCONST> 1.303204e+02
<TRANSP> 5
 0.000000e+00 1.000000e+00 0.000000e+00 0.000000e+00 0.000000e+00
 0.000000e+00 6.310092e-01 3.689908e-01 0.000000e+00 0.000000e+00
 0.000000e+00 0.000000e+00 6.292983e-01 3.707017e-01 0.000000e+00
 0.000000e+00 0.000000e+00 0.000000e+00 7.950673e-01 2.049327e-01
 0.000000e+00 0.000000e+00 0.000000e+00 0.000000e+00 0.000000e+00
<ENDHMM>
~h "j"
<BEGINHMM>
<NUMSTATES> 5
<STATE> 2
<MEAN> 39
 -1.068621e+01 -2.616843e+00 1.737568e+00 -3.857683e+00 -6.650788e+00 -2.785190e+00 -4.553422e+00 -2.951667e+00 -2.399436e+00 -7.416003e-01 -2.357083e+00 3.104219e-01 6.141240e+01 -1.189685e+00 9.088898e-01 -6.198935e-02 7.749574e-01 6.114088e-01 5.542963e-01 6.510643e-01 1.520027e-01 5.005286e-01 3.031640e-01 4.824966e-01 1.202452e-02 -1.989743e-01 -1.034678e-01 -1.088097e-01 -7.167191e-03 -2.817768e-01 -2.174618e-02 1.387060e-02 -6.266906e-02 3.596823e-02 -3.344242e-02 5.833662e-02 -2.072277e-02 4.952078e-02 3.532380e-01
<VARIANCE> 39
 6.486563e+01 5.489659e+01 4.801235e+01 6.178340e+01 6.641071e+01 5.282875e+01 6.851741e+01 6.263461e+01 6.238269e+01 4.659118e+01 4.926518e+01 3.850894e+01 6.849548e+01 5.192093e+00 4.104271e+00 4.510945e+00 5.809560e+00 5.673953e+00 4.638803e+00 5.972599e+00 5.565669e+00 5.014411e+00 4.377916e+00 3.921611e+00 3.296270e+00 5.811760e+00 9.851210e-01 6.982546e-01 8.100409e-01 9.084584e-01 1.072909e+00 8.883519e-01 1.027419e+00 1.054677e+00 9.478878e-01 8.557341e-01 7.228180e-01 6.400474e-01 7.831881e-01
<GCONST> 1.427613e+02
<STATE> 3
<MEAN> 39
 -1.427036e+01 -6.642013e-01 1.564257e+00 -3.106565e+00 -5.228393e+00 -1.332271e+00 -3.221995e+00 -2.424189e+00 -1.236620e+00 2.625374e-01 -1.248901e+00 5.953596e-01 6.254194e+01 -8.950320e-01 4.273984e-01 3.037539e-01 -2.859718e-01 4.766173e-03 2.502995e-01 1.197313e-01 -8.443647e-02 1.108158e-01 3.022858e-01 2.025215e-01 1.208941e-01 7.817321e-01 3.181836e-01 -2.721675e-01 1.897625e-01 -4.256245e-01 -3.232865e-01 -1.994869e-01 -2.693702e-01 -1.444717e-01 -2.287280e-01 -5.228223e-02 -1.801481e-01 1.426187e-02 2.627092e-01
<VARIANCE> 39
 7.305500e+01 5.520468e+01 4.949673e+01 5.757425e+01 6.043286e+01 4.725461e+01 5.870556e+01 5.703322e+01 5.503426e+01 4.061337e+01 4.089000e+01 3.295041e+01 6.109911e+01 7.215162e+00 4.744437e+00 5.279538e+00 6.612087e+00 6.849077e+00 5.033847e+00 6.389492e+00 6.248008e+00 5.646782e+00 4.156950e+00 4.138119e+00 3.213477e+00 4.885970e+00 1.297716e+00 8.155766e-01 9.322219e-01 9.359891e-01 1.143943e+00 9.256116e-01 1.068955e+00 1.184192e+00 9.859873e-01 8.231199e-01 7.399533e-01 6.291499e-01 7.333036e-01
<GCONST> 1.436109e+02
<STATE> 4
<MEAN> 39
 -1.548687e+01 -3.613830e-01 3.482353e+00 -5.470233e+00 -6.610662e+00 -1.504924e+00 -4.048440e+00 -3.512541e+00 -1.781468e+00 8.230201e-01 -1.310442e+00 1.028667e+00 6.544041e+01 4.663998e-01 -4.662670e-01 9.295583e-01 -1.376789e+00 -1.091439e+00 -4.941339e-01 -7.624131e-01 -6.236216e-01 -7.070700e-01 1.942629e-02 -4.811828e-01 3.992502e-02 1.098946e+00 3.565404e-01 -3.352772e-01 1.189403e-02 -2.202889e-01 -1.729563e-01 -1.540439e-01 -1.397214e-01 5.502086e-04 -1.645570e-01 -6.458336e-02 -1.983764e-01 -3.440959e-02 -1.673304e-02
<VARIANCE> 39
 6.501157e+01 5.812229e+01 6.028460e+01 7.038081e+01 6.891011e+01 4.834891e+01 6.354346e+01 6.252339e+01 5.642561e+01 3.665718e+01 3.967842e+01 3.247396e+01 6.038151e+01 7.207658e+00 5.502340e+00 5.438583e+00 6.583842e+00 7.076305e+00 5.205761e+00 6.379303e+00 6.571808e+00 5.688528e+00 3.894411e+00 4.219584e+00 3.222626e+00 3.081709e+00 1.199027e+00 8.374575e-01 1.012552e+00 1.023178e+00 1.263372e+00 9.619204e-01 1.132226e+00 1.258768e+00 9.977798e-01 7.636387e-01 7.320469e-01 5.993450e-01 4.934039e-01
<GCONST> 1.437832e+02
<TRANSP> 5
 0.000000e+00 1.000000e+00 0.000000e+00 0.000000e+00 0.000000e+00
 0.000000e+00 6.149554e-01 3.850447e-01 0.000000e+00 0.000000e+00
 0.000000e+00 0.000000e+00 6.201397e-01 3.798604e-01 0.000000e+00
 0.000000e+00 0.000000e+00 0.000000e+00 7.197737e-01 2.802263e-01
 0.000000e+00 0.000000e+00 0.000000e+00 0.000000e+00 0.000000e+00
<ENDHMM>
~h "k"
<BEGINHMM>
<NUMSTATES> 5
<STATE> 2
<MEAN> 39
 -6.827654e+00 -8.579400e+00 -3.319952e+00 -5.141513e+00 -2.025151e+00 -1.145253e+00 -3.165712e+00 3.587750e-01 -5.151503e-01 8.011377e-01 -1.857474e+00 1.888122e+00 6.076766e+01 -2.859888e-01 -1.800662e-01 -5.234888e-01 8.555485e-01 9.956541e-01 4.078766e-01 6.931372e-01 6.170384e-01 5.602896e-01 4.009361e-01 4.604296e-01 2.344762e-01 -1.930029e-01 1.212049e-02 -9.103608e-02 2.526893e-03 -1.760103e-01 -3.541750e-02 -2.111268e-02 -8.100688e-02 -1.903906e-02 -1.200410e-01 -6.265541e-02 -8.245860e-02 -3.737018e-02 3.799572e-01
<VARIANCE> 39
 3.487650e+01 4.578426e+01 5.830786e+01 7.479630e+01 6.521666e+01 5.794660e+01 7.117866e+01 5.479527e+01 5.747476e+01 5.617601e+01 5.371295e+01 3.978542e+01 8.618161e+01 2.078096e+00 3.739366e+00 5.486105e+00 6.002631e+00 5.162010e+00 4.748019e+00 6.048747e+00 5.534150e+00 5.217399e+00 4.848680e+00 4.556489e+00 3.495629e+00 7.259470e+00 3.824631e-01 6.471848e-01 1.014603e+00 1.042087e+00 8.738065e-01 9.104728e-01 1.110014e+00 1.031942e+00 9.490725e-01 9.257046e-01 8.683657e-01 6.558992e-01 1.142232e+00
<GCONST> 1.423858e+02
<STATE> 3
<MEAN> 39
 -7.410086e+00 -9.299629e+00 -4.428586e+00 -3.624360e+00 2.688620e-01 -3.161167e-01 -1.812346e+00 1.697086e+00 2.653714e-01 1.446850e+00 -1.157721e+00 2.303019e+00 6.204829e+01 -1.114265e-01 -2.688946e-01 -2.973554e-01 3.680567e-01 6.977488e-01 2.364139e-01 2.552956e-01 3.013785e-01 1.173122e-01 2.659198e-02 1.075355e-01 5.911818e-02 6.978283e-01 7.361934e-02 -3.979645e-03 1.014332e-01 -2.074267e-01 -1.635859e-01 -7.044559e-02 -1.990339e-01 -1.585594e-01 -1.672217e-01 -1.601292e-01 -1.254895e-01 -6.191161e-02 1.965270e-01
<VARIANCE> 39
 3.547030e+01 4.292372e+01 5.826546e+01 7.097472e+01 6.074379e+01 5.370159e+01 6.363025e+01 5.040978e+01 5.272572e+01 5.193556e+01 4.563330e+01 3.505865e+01 8.622642e+01 1.995573e+00 3.509390e+00 5.957581e+00 5.793162e+00 4.990902e+00 4.611549e+00 5.698936e+00 5.287297e+00 4.814571e+00 4.714038e+00 4.224430e+00 3.320992e+00 6.359259e+00 3.673950e-01 6.531914e-01 1.197476e+00 1.061112e+00 8.691621e-01 8.775474e-01 1.036501e+00 1.002524e+00 8.950569e-01 8.859342e-01 8.063215e-01 6.364258e-01 1.083250e+00
<GCONST> 1.406492e+02
<STATE> 4
<MEAN> 39
 -8.088613e+00 -9.889200e+00 -4.274524e+00 -2.808435e+00 1.688629e+00 4.063952e-01 -1.362317e+00 2.493245e+00 8.346441e-01 1.385864e+00 -3.419352e-01 2.672049e+00 6.223989e+01 1.272778e-01 -1.562935e-01 -9.079994e-02 -2.330422e-01 4.316789e-02 -1.444927e-02 -2.930702e-01 -1.978710e-01 -2.641944e-01 -3.194645e-01 -1.979393e-01 -7.654498e-02 6.617822e-01 6.542600e-02 -8.743522e-03 -6.380767e-04 -2.191854e-01 -1.931151e-01 -7.793463e-02 -1.402253e-01 -1.061269e-01 -1.211802e-01 -1.037278e-01 -8.686899e-02 -3.037800e-02 1.255619e-03
<VARIANCE> 39
 3.618666e+01 4.278384e+01 5.190935e+01 6.743753e+01 5.513583e+01 5.109930e+01 5.725607e+01 4.887066e+01 5.243868e+01 4.960425e+01 4.542678e+01 3.309224e+01 1.015361e+02 1.737960e+00 3.005635e+00 4.684452e+00 5.334490e+00 4.466376e+00 3.945518e+00 4.649936e+00 4.377894e+00 4.087689e+00 4.049512e+00 3.537502e+00 2.907669e+00 3.999912e+00 3.166236e-01 5.388089e-01 9.862252e-01 9.660544e-01 7.660717e-01 7.302970e-01 8.380436e-01 8.247492e-01 7.523336e-01 7.372566e-01 6.692486e-01 5.565789e-01 6.547042e-01
<GCONST> 1.353729e+02
<TRANSP> 5
 0.000000e+00 1.000000e+00 0.000000e+00 0.000000e+00 0.000000e+00
 0.000000e+00 6.354080e-01 3.645920e-01 0.000000e+00 0.000000e+00
 0.000000e+00 0.000000e+00 6.386638e-01 3.613362e-01 0.000000e+00
 0.000000e+00 0.000000e+00 0.000000e+00 7.940869e-01 2.059131e-01
 0.000000e+00 0.000000e+00 0.000000e+00 0.000000e+00 0.000000e+00
<ENDHMM>
~h "l"
<BEGINHMM>
<NUMSTATES> 5
<STATE> 2
<MEAN> 39
 -5.589851e+00 -1.235661e+01 -2.262921e+00 -1.098021e+01 -6.511152e+00 -3.662234e+00 -8.372121e+00 -6.361578e-01 -3.295628e+00 -3.170458e+00 -5.070877e+00 5.677403e-01 6.802818e+01 2.621417e-04 3.525436e-02 6.366049e-02 3.386864e-02 3.463201e-02 -4.987108e-02 -8.989108e-02 2.435321e-02 7.857590e-02 -5.562880e-02 -8.094551e-02 4.396212e-02 -1.532250e-01 -2.333965e-02 6.298146e-02 3.011029e-02 -2.562010e-03 6.505995e-03 3.264267e-02 1.254519e-02 -5.173635e-02 -2.789288e-02 2.320949e-02 1.143860e-02 -1.027234e-02 1.248995e-02
<VARIANCE> 39
 3.533548e+01 5.440887e+01 7.872575e+01 8.452689e+01 8.721509e+01 8.099892e+01 9.298863e+01 6.817625e+01 7.049586e+01 6.442387e+01 6.358615e+01 4.956711e+01 8.974619e+01 9.453106e-01 2.359756e+00 2.811743e+00 3.745607e+00 3.644935e+00 4.425042e+00 4.718707e+00 4.058910e+00 3.802538e+00 4.231443e+00 3.242736e+00 2.820130e+00 1.908851e+00 1.513758e-01 3.614771e-01 3.799786e-01 6.453097e-01 5.902951e-01 7.741726e-01 8.605115e-01 7.414701e-01 6.967214e-01 7.832261e-01 5.981615e-01 5.182602e-01 3.006655e-01
<GCONST> 1.326382e+02
<STATE> 3
<MEAN> 39
 -5.703422e+00 -1.219031e+01 -2.189587e+00 -1.076410e+01 -6.160623e+00 -3.484660e+00 -8.371194e+00 -6.165382e-01 -3.119415e+00 -3.213072e+00 -5.055245e+00 6.354464e-01 6.752622e+01 -4.258459e-02 1.214063e-01 1.118312e-01 1.643498e-02 1.842680e-02 4.725201e-02 -2.576424e-02 -8.627005e-02 3.820985e-03 1.551902e-02 -5.057159e-02 7.332583e-03 -1.085241e-01 -2.005538e-02 2.822878e-02 1.318178e-02 -1.278006e-02 -8.435714e-03 3.775117e-02 2.743883e-02 -3.559324e-02 -2.823563e-02 3.355366e-02 1.103645e-02 -1.545214e-02 2.821022e-02
<VARIANCE> 39
 3.574333e+01 5.320837e+01 8.023045e+01 8.429749e+01 8.609618e+01 8.020295e+01 9.367281e+01 6.934427e+01 6.961168e+01 6.463210e+01 6.517816e+01 4.909052e+01 9.041770e+01 8.632697e-01 2.162144e+00 2.590173e+00 3.492487e+00 3.431588e+00 4.315393e+00 4.611215e+00 3.863508e+00 3.685171e+00 4.109705e+00 3.090216e+00 2.703536e+00 1.935268e+00 1.347608e-01 3.355722e-01 3.558053e-01 5.998196e-01 5.525404e-01 7.564269e-01 8.285225e-01 7.048541e-01 6.659301e-01 7.656346e-01 5.696053e-01 4.918813e-01 2.934031e-01
<GCONST> 1.313322e+02
<STATE> 4
<MEAN> 39
 -6.734037e+00 -1.160970e+01 -2.465698e+00 -8.396358e+00 -4.562678e+00 -2.060425e+00 -6.092949e+00 3.602712e-01 -1.766692e+00 -2.349089e+00 -3.018898e+00 1.135199e+00 6.274510e+01 -6.850801e-02 1.704189e-01 1.539154e-01 5.001701e-02 -4.608269e-02 8.765569e-02 6.958953e-02 -9.251190e-02 -7.100669e-03 1.053954e-01 6.787239e-03 4.387400e-03 -1.320058e-01 -7.123551e-03 2.039888e-02 1.946819e-02 -8.639941e-03 -2.118814e-02 3.685725e-03 6.992960e-03 -1.513403e-02 -1.951225e-02 1.677050e-02 4.632324e-03 -7.077154e-03 1.662228e-02
<VARIANCE> 39
 3.613593e+01 4.753358e+01 7.129813e+01 8.254618e+01 8.017269e+01 6.716556e+01 8.995242e+01 6.653867e+01 6.494070e+01 6.022660e+01 6.704304e+01 4.579851e+01 1.216313e+02 7.567030e-01 1.774121e+00 2.094541e+00 2.779324e+00 2.836007e+00 3.408872e+00 3.747030e+00 3.243249e+00 3.243449e+00 3.483967e+00 2.706434e+00 2.384148e+00 1.654286e+00 1.191176e-01 2.667855e-01 2.948163e-01 4.669001e-01 4.614136e-01 5.910559e-01 6.669621e-01 5.849355e-01 5.870352e-01 6.418658e-01 4.960137e-01 4.325563e-01 2.283416e-01
<GCONST> 1.261470e+02
<TRANSP> 5
 0.000000e+00 1.000000e+00 0.000000e+00 0.000000e+00 0.000000e+00
 0.000000e+00 5.810096e-01 4.189903e-01 0.000000e+00 0.000000e+00
 0.000000e+00 0.000000e+00 5.836388e-01 4.163612e-01 0.000000e+00
 0.000000e+00 0.000000e+00 0.000000e+00 7.884665e-01 2.115336e-01
 0.000000e+00 0.000000e+00 0.000000e+00 0.000000e+00 0.000000e+00
<ENDHMM>
~h "m"
<BEGINHMM>
<NUMSTATES> 5
<STATE> 2
<MEAN> 39
 -3.755403e+00 -9.042083e+00 -4.561045e-01 -1.025609e+01 -6.595626e+00 -3.653158e+00 -1.031825e+01 -2.847446e+00 -6.127451e+00 -2.543955e+00 -5.339147e+00 -2.291526e+00 6.484994e+01 1.004806e-01 2.707560e-01 3.736438e-01 4.125187e-01 -7.710572e-02 -1.602204e-01 -3.279980e-01 -3.581493e-01 -1.537207e-01 1.044643e-02 -1.759832e-01 -3.319969e-01 -5.097958e-01 -7.958407e-02 -3.995736e-02 -2.476491e-02 -1.234780e-01 -2.079452e-02 3.467489e-02 5.733441e-02 5.094508e-02 2.022363e-02 -1.122058e-02 1.566543e-03 5.814655e-02 1.560835e-01
<VARIANCE> 39
 3.500664e+01 4.845765e+01 6.850513e+01 8.850043e+01 6.880978e+01 6.111130e+01 7.512799e+01 6.826218e+01 6.405896e+01 5.337091e+01 5.773041e+01 5.787767e+01 6.731886e+01 1.395117e+00 2.389635e+00 4.163139e+00 6.030080e+00 3.577180e+00 3.500120e+00 4.044292e+00 4.718003e+00 3.689303e+00 3.768159e+00 3.349695e+00 3.367164e+00 3.098789e+00 2.238737e-01 3.712007e-01 6.713208e-01 9.882699e-01 5.880622e-01 6.026403e-01 7.115254e-01 8.778808e-01 6.814299e-01 6.963362e-01 6.101050e-01 6.196569e-01 4.497570e-01
<GCONST> 1.343365e+02
<STATE> 3
<MEAN> 39
 -3.731123e+00 -8.553056e+00 2.164657e-01 -9.889307e+00 -6.852079e+00 -3.833923e+00 -1.082372e+01 -3.384997e+00 -6.397087e+00 -2.547300e+00 -5.712117e+00 -2.840705e+00 6.422964e+01 -6.062132e-02 1.129100e-01 1.938171e-01 -6.153680e-02 -1.480227e-01 -1.981420e-02 -7.569244e-02 -8.679808e-02 -4.256533e-02 -5.384491e-03 -1.306427e-01 -1.158845e-01 -3.028614e-02 -6.860409e-02 -6.748065e-02 -8.133765e-02 -2.038406e-01 -1.802469e-02 7.405902e-02 1.166003e-01 1.275338e-01 4.876569e-02 -9.809749e-03 2.980798e-02 1.012807e-01 1.990638e-01
<VARIANCE> 39
 3.417496e+01 4.528833e+01 6.752535e+01 8.758437e+01 6.747349e+01 5.993863e+01 7.375571e+01 6.932339e+01 6.276708e+01 5.259710e+01 5.817160e+01 5.855877e+01 6.179981e+01 1.320809e+00 2.191009e+00 4.123821e+00 6.245360e+00 3.288691e+00 3.426889e+00 3.795890e+00 4.673316e+00 3.484072e+00 3.680490e+00 3.214216e+00 3.312402e+00 3.159969e+00 2.164722e-01 3.533661e-01 6.881804e-01 1.017642e+00 5.605422e-01 5.979328e-01 6.812909e-01 8.585337e-01 6.480744e-01 6.929604e-01 5.927051e-01 6.167313e-01 4.499789e-01
<GCONST> 1.334255e+02
<STATE> 4
<MEAN> 39
 -4.004416e+00 -8.352292e+00 -2.168528e-01 -1.046633e+01 -7.019751e+00 -3.298867e+00 -9.843153e+00 -2.352357e+00 -5.744866e+00 -2.603299e+00 -5.360696e+00 -2.657921e+00 6.315120e+01 -1.514482e-01 6.449143e-03 -1.163319e-02 -3.748339e-01 -1.360971e-01 1.473318e-01 1.997353e-01 1.738850e-01 9.601111e-02 1.602751e-02 -1.282998e-02 1.289051e-01 2.571264e-01 -3.781062e-02 -3.140814e-02 -4.639792e-02 -8.124749e-02 1.718256e-02 5.342939e-02 7.223385e-02 6.052990e-02 2.055011e-02 6.293292e-04 3.572675e-02 6.942105e-02 8.953212e-02
<VARIANCE> 39
 3.613897e+01 4.841490e+01 7.337780e+01 9.368569e+01 7.121357e+01 5.760233e+01 7.457961e+01 7.108244e+01 6.401745e+01 5.161063e+01 5.791258e+01 5.327431e+01 7.752376e+01 1.267763e+00 2.028972e+00 3.742036e+00 5.655300e+00 3.104975e+00 3.191868e+00 3.513050e+00 4.186903e+00 3.249956e+00 3.497403e+00 2.992186e+00 2.965044e+00 2.699927e+00 2.000152e-01 3.115281e-01 5.883831e-01 9.091492e-01 5.214328e-01 5.579051e-01 6.214185e-01 7.607058e-01 5.998627e-01 6.282972e-01 5.376033e-01 5.363305e-01 3.678468e-01
<GCONST> 1.313439e+02
<TRANSP> 5
 0.000000e+00 1.000000e+00 0.000000e+00 0.000000e+00 0.000000e+00
 0.000000e+00 5.832588e-01 4.167412e-01 0.000000e+00 0.000000e+00
 0.000000e+00 0.000000e+00 5.865139e-01 4.134861e-01 0.000000e+00
 0.000000e+00 0.000000e+00 0.000000e+00 7.398335e-01 2.601664e-01
 0.000000e+00 0.000000e+00 0.000000e+00 0.000000e+00 0.000000e+00
<ENDHMM>
~h "n"
<BEGINHMM>
<NUMSTATES> 5
<STATE> 2
<MEAN> 39
 -5.391126e+00 -9.240371e+00 -6.093202e-02 -9.997831e+00 -7.753892e+00 -5.397483e+00 -8.292611e+00 -1.258891e+00 -4.970013e+00 -3.251887e+00 -5.282770e+00 -2.869466e-01 6.548909e+01 1.126888e-01 2.406769e-01 3.062495e-01 2.518912e-01 -2.232001e-01 -1.809797e-01 -1.666342e-01 -1.412173e-01 -3.725200e-02 -1.703819e-01 -1.365797e-01 -1.012494e-01 -3.714496e-01 -4.815039e-02 -1.548058e-02 -2.996486e-02 -1.008653e-01 4.101351e-02 7.731085e-02 -1.397536e-03 -3.325427e-03 -1.307699e-02 2.213606e-02 9.455318e-03 -8.965822e-03 1.219056e-01
<VARIANCE> 39
 3.623867e+01 5.248824e+01 6.428429e+01 7.537935e+01 7.248643e+01 6.169228e+01 7.976279e+01 6.968383e+01 6.815886e+01 5.542702e+01 6.060103e+01 5.102293e+01 8.471870e+01 1.318240e+00 2.631468e+00 4.098437e+00 4.488855e+00 3.836645e+00 3.609600e+00 4.123961e+00 4.538960e+00 3.739612e+00 3.584452e+00 3.092173e+00 2.848724e+00 3.718365e+00 2.257788e-01 3.815294e-01 6.521332e-01 7.801892e-01 6.281043e-01 6.514288e-01 7.328910e-01 8.367190e-01 6.843952e-01 6.421637e-01 5.668011e-01 5.162798e-01 5.762438e-01
<GCONST> 1.341412e+02
<STATE> 3
<MEAN> 39
 -5.176008e+00 -8.760761e+00 4.813612e-01 -9.988023e+00 -8.261404e+00 -5.703641e+00 -8.851736e+00 -1.641373e+00 -5.261481e+00 -3.612329e+00 -5.742628e+00 -6.364052e-01 6.531669e+01 -1.584682e-02 1.161550e-01 1.284267e-01 -6.849921e-02 -8.716700e-02 3.457172e-02 -1.082337e-01 -6.890097e-02 -7.145748e-02 -6.203781e-02 -1.172624e-01 -1.185159e-01 9.374879e-05 -7.049333e-02 -7.197012e-02 -7.935355e-02 -1.366049e-01 7.481652e-02 1.006973e-01 4.082987e-02 4.933786e-02 -1.772652e-02 5.091745e-02 2.210457e-02 4.932499e-03 1.697425e-01
<VARIANCE> 39
 3.548410e+01 5.142060e+01 6.196454e+01 7.397350e+01 6.847087e+01 5.973466e+01 7.614967e+01 7.047034e+01 6.564617e+01 5.402730e+01 5.932529e+01 5.136193e+01 7.716896e+01 1.334674e+00 2.719889e+00 4.318935e+00 4.816311e+00 3.824174e+00 3.552823e+00 4.207553e+00 4.666954e+00 3.759003e+00 3.519362e+00 3.054213e+00 2.818745e+00 4.250403e+00 2.275263e-01 3.970610e-01 7.133729e-01 8.167511e-01 6.365048e-01 6.393446e-01 7.309241e-01 8.621276e-01 6.824574e-01 6.318582e-01 5.521216e-01 5.126405e-01 6.198533e-01
<GCONST> 1.342688e+02
<STATE> 4
<MEAN> 39
 -5.089582e+00 -8.883046e+00 1.937665e-01 -1.076965e+01 -8.452856e+00 -5.432376e+00 -8.992157e+00 -1.553126e+00 -5.716116e+00 -3.838457e+00 -6.108552e+00 -1.152272e+00 6.525169e+01 -1.566195e-01 -5.509568e-02 -5.962518e-02 -2.724967e-01 9.296110e-02 2.736170e-01 4.516430e-02 4.560225e-02 -8.651368e-02 7.386918e-02 -2.789166e-02 -6.626266e-02 2.834346e-01 -4.282803e-02 -5.532109e-02 -3.694976e-02 -4.267909e-02 5.250645e-02 7.546628e-02 4.621689e-02 2.247947e-02 -3.211234e-03 3.837999e-02 3.914870e-02 2.285362e-02 7.489912e-02
<VARIANCE> 39
 3.539786e+01 5.273070e+01 6.511694e+01 7.712280e+01 6.840216e+01 5.823653e+01 7.602703e+01 6.975266e+01 6.426097e+01 5.328938e+01 5.710185e+01 4.885010e+01 8.511803e+01 1.286537e+00 2.758115e+00 4.251894e+00 4.845595e+00 3.759881e+00 3.361178e+00 4.107809e+00 4.358670e+00 3.702965e+00 3.394034e+00 3.002173e+00 2.757092e+00 3.984164e+00 2.134138e-01 3.798675e-01 6.609090e-01 7.711619e-01 6.039227e-01 6.018376e-01 6.982558e-01 7.944435e-01 6.578350e-01 5.994886e-01 5.337292e-01 4.908002e-01 5.459579e-01
<GCONST> 1.331905e+02
<TRANSP> 5
 0.000000e+00 1.000000e+00 0.000000e+00 0.000000e+00 0.000000e+00
 0.000000e+00 5.697147e-01 4.302853e-01 0.000000e+00 0.000000e+00
 0.000000e+00 0.000000e+00 5.715777e-01 4.284222e-01 0.000000e+00
 0.000000e+00 0.000000e+00 0.000000e+00 7.151778e-01 2.848221e-01
 0.000000e+00 0.000000e+00 0.000000e+00 0.000000e+00 0.000000e+00
<ENDHMM>
~h "o"
<BEGINHMM>
<NUMSTATES> 5
<STATE> 2
<MEAN> 39
 -7.271528e-01 -4.992468e+00 -8.028458e+00 -1.894493e+01 -3.258605e+00 9.268970e-01 -8.059322e+00 9.293255e-01 -7.841266e+00 -2.955318e+00 -3.223547e+00 5.059505e-02 6.713707e+01 3.589256e-01 -7.478926e-02 -1.075049e+00 -2.059105e+00 1.632481e-01 2.154739e-01 -6.078174e-01 1.738416e-01 -5.282372e-01 -1.745591e-01 -6.017143e-02 8.191974e-02 6.277400e-01 -1.893588e-01 -1.529365e-01 1.364657e-01 2.693084e-01 7.907867e-02 -1.616648e-02 -1.714230e-02 -9.864225e-02 1.554471e-01 6.051336e-02 -3.133650e-03 -4.267919e-02 -4.471008e-02
<VARIANCE> 39
 3.632853e+01 4.007756e+01 5.484968e+01 1.531570e+02 5.605743e+01 5.346356e+01 6.013560e+01 5.562264e+01 6.541135e+01 4.552146e+01 4.455098e+01 4.774004e+01 4.642264e+01 2.239126e+00 2.810404e+00 3.534513e+00 1.225222e+01 4.169300e+00 3.584897e+00 5.020432e+00 4.504851e+00 5.048286e+00 3.750340e+00 3.715053e+00 3.571296e+00 2.823514e+00 3.763470e-01 4.671529e-01 5.333315e-01 1.809898e+00 7.345919e-01 6.501670e-01 8.248386e-01 7.638641e-01 8.771706e-01 7.117766e-01 6.748788e-01 6.557527e-01 4.666593e-01
<GCONST> 1.365884e+02
<STATE> 3
<MEAN> 39
 -9.680905e-01 -6.567271e+00 -1.018035e+01 -2.211589e+01 -1.973447e+00 1.600669e+00 -9.629928e+00 5.431392e-01 -7.898263e+00 -2.879287e+00 -3.281045e+00 -1.891276e-01 6.882126e+01 -1.749375e-01 -4.939278e-01 -3.174052e-01 -2.834443e-01 2.631781e-01 -9.914849e-03 -3.726309e-01 -1.432693e-01 2.622102e-01 9.462193e-02 -1.396983e-01 -1.270375e-01 3.804092e-01 -1.244276e-01 -3.773363e-02 2.387387e-01 4.862798e-01 -4.876386e-02 -1.054735e-01 1.085628e-01 -3.466318e-02 1.811459e-01 3.531110e-02 -2.856421e-02 -3.143202e-02 -1.072276e-01
<VARIANCE> 39
 3.273105e+01 4.285184e+01 5.091376e+01 1.242255e+02 5.576045e+01 6.292000e+01 6.225160e+01 5.852589e+01 6.997186e+01 4.776718e+01 4.956237e+01 5.403798e+01 4.914932e+01 1.579406e+00 2.665404e+00 3.145693e+00 1.061048e+01 3.783124e+00 3.807383e+00 4.464517e+00 3.901074e+00 4.998760e+00 3.841993e+00 4.070264e+00 3.881964e+00 2.820265e+00 2.838204e-01 4.511534e-01 4.620976e-01 1.354089e+00 6.924756e-01 6.810129e-01 7.811396e-01 7.209232e-01 8.921100e-01 7.592758e-01 7.817771e-01 7.454881e-01 4.073837e-01
<GCONST> 1.354860e+02
<STATE> 4
<MEAN> 39
 -2.294386e+00 -8.194266e+00 -1.000583e+01 -1.839365e+01 -6.286404e-01 1.567184e+00 -9.132341e+00 -3.107215e-01 -5.397798e+00 -2.373518e+00 -3.383107e+00 -9.191434e-01 6.694459e+01 -4.212084e-01 -2.191143e-01 4.670657e-01 1.181018e+00 -8.485474e-02 -3.440031e-01 1.864859e-01 -3.917985e-02 5.620221e-01 1.134330e-01 -1.008186e-01 3.547734e-02 -3.104663e-01 -7.160069e-02 1.017984e-01 1.610880e-01 2.017890e-01 -8.664171e-02 -4.724521e-02 1.424268e-01 3.581107e-02 -1.393710e-02 -1.215672e-02 6.313805e-02 6.161056e-02 -1.100848e-01
<VARIANCE> 39
 3.694866e+01 4.279204e+01 5.003896e+01 1.350952e+02 5.843136e+01 7.298942e+01 7.581715e+01 5.794299e+01 7.698358e+01 5.008996e+01 5.522364e+01 5.243912e+01 8.149063e+01 1.536823e+00 2.640884e+00 3.043738e+00 7.192289e+00 3.778996e+00 4.180892e+00 4.583440e+00 3.901816e+00 4.607323e+00 4.136256e+00 4.242829e+00 3.723397e+00 3.129076e+00 2.714237e-01 4.330799e-01 4.492714e-01 9.842119e-01 6.538002e-01 7.312800e-01 8.000206e-01 7.075678e-01 8.650150e-01 7.974901e-01 7.980731e-01 6.945587e-01 4.448302e-01
<GCONST> 1.361803e+02
<TRANSP> 5
 0.000000e+00 1.000000e+00 0.000000e+00 0.000000e+00 0.000000e+00
 0.000000e+00 7.397521e-01 2.602480e-01 0.000000e+00 0.000000e+00
 0.000000e+00 0.000000e+00 7.315109e-01 2.684891e-01 0.000000e+00
 0.000000e+00 0.000000e+00 0.000000e+00 8.553014e-01 1.446986e-01
 0.000000e+00 0.000000e+00 0.000000e+00 0.000000e+00 0.000000e+00
<ENDHMM>
~h "p"
<BEGINHMM>
<NUMSTATES> 5
<STATE> 2
<MEAN> 39
 -5.577032e+00 -6.691074e+00 1.587813e+00 -4.471459e+00 -3.961197e+00 -8.280208e-01 -4.104114e+00 -1.373003e+00 -1.662205e+00 -4.493076e-01 -2.000376e+00 3.049030e-01 6.151561e+01 -4.239279e-01 4.214929e-01 4.073601e-01 1.253641e+00 8.020573e-01 6.381114e-01 9.083683e-01 3.989647e-01 7.144342e-01 2.367237e-01 5.675444e-01 1.967296e-01 -5.334253e-01 -1.641793e-01 -1.320249e-01 -3.990721e-02 -2.448724e-01 -1.389373e-03 4.809180e-02 -2.229534e-02 3.262407e-02 -6.107007e-02 -2.938961e-02 -2.611873e-02 1.097734e-02 4.521697e-01
<VARIANCE> 39
 4.391784e+01 5.081725e+01 6.069199e+01 7.341850e+01 6.369583e+01 5.543679e+01 6.700220e+01 5.459150e+01 5.883279e+01 4.584732e+01 4.549751e+01 3.756310e+01 9.339860e+01 3.811429e+00 4.731646e+00 5.081258e+00 7.175441e+00 5.270425e+00 4.675045e+00 6.045582e+00 5.755168e+00 5.307803e+00 4.462678e+00 4.190515e+00 3.461300e+00 1.080776e+01 6.762336e-01 8.235851e-01 8.344986e-01 1.170177e+00 9.333428e-01 8.300768e-01 1.078216e+00 1.113370e+00 9.604998e-01 8.613306e-01 7.723616e-01 6.487346e-01 1.746895e+00
<GCONST> 1.445018e+02
<STATE> 3
<MEAN> 39
 -7.390645e+00 -6.279179e+00 2.556195e+00 -2.623222e+00 -2.025834e+00 9.647365e-01 -1.971075e+00 -2.958147e-01 -2.462964e-01 -2.204680e-02 -7.134713e-01 8.602070e-01 6.268485e+01 -5.806702e-01 -2.883146e-02 2.115308e-01 1.792071e-01 4.940401e-01 5.283960e-01 4.695212e-01 2.457963e-01 2.346661e-01 -6.765164e-03 2.687906e-01 1.805731e-01 8.885246e-01 3.201045e-02 -1.178171e-01 -1.109802e-01 -3.807159e-01 -1.589334e-01 -9.658659e-02 -2.447530e-01 -1.238063e-01 -2.139111e-01 -1.048946e-01 -1.497689e-01 -2.282152e-02 2.876609e-01
<VARIANCE> 39
 4.803464e+01 4.970271e+01 5.572264e+01 5.595052e+01 5.581556e+01 4.759147e+01 5.718677e+01 4.689386e+01 4.909997e+01 4.139072e+01 3.801392e+01 3.119624e+01 9.258141e+01 3.875675e+00 4.814083e+00 5.165807e+00 6.492570e+00 5.540609e+00 4.678767e+00 6.127362e+00 5.558699e+00 5.313976e+00 4.398720e+00 4.101290e+00 3.290220e+00 1.018922e+01 7.377769e-01 8.306698e-01 9.107829e-01 1.008245e+00 9.905708e-01 8.529078e-01 1.080527e+00 1.085119e+00 9.462847e-01 8.373448e-01 7.498972e-01 6.372439e-01 1.894854e+00
<GCONST> 1.428834e+02
<STATE> 4
<MEAN> 39
 -8.913689e+00 -6.783796e+00 2.464609e+00 -3.385064e+00 -1.098810e+00 2.049733e+00 -1.606432e+00 -3.816861e-02 -3.041701e-01 -4.263267e-01 -4.164131e-01 1.351769e+00 6.561243e+01 -1.640745e-01 -1.745614e-01 -1.833952e-01 -7.269059e-01 -1.509638e-01 6.488352e-02 -3.728685e-01 -2.639889e-01 -4.404708e-01 -3.053953e-01 -2.397660e-01 4.483888e-02 9.307911e-01 1.459648e-01 -4.941167e-02 -1.149246e-01 -2.457371e-01 -2.348238e-01 -1.591090e-01 -2.352448e-01 -1.389527e-01 -1.877828e-01 -4.676498e-02 -1.535332e-01 -4.297293e-02 -1.052841e-01
<VARIANCE> 39
 5.031070e+01 6.220698e+01 6.315705e+01 5.748097e+01 6.249390e+01 4.530688e+01 5.386380e+01 4.446619e+01 4.693429e+01 4.237454e+01 3.545116e+01 2.853662e+01 8.641417e+01 3.750836e+00 4.493375e+00 4.688297e+00 5.271134e+00 6.318534e+00 4.582271e+00 5.653615e+00 4.994119e+00 4.743791e+00 3.939917e+00 3.766438e+00 3.027188e+00 6.144484e+00 6.738301e-01 7.396098e-01 8.496199e-01 8.939571e-01 1.049152e+00 8.297221e-01 1.010309e+00 9.517452e-01 8.544834e-01 7.685547e-01 6.845911e-01 5.910807e-01 1.236700e+00
<GCONST> 1.402798e+02
<TRANSP> 5
 0.000000e+00 1.000000e+00 0.000000e+00 0.000000e+00 0.000000e+00
 0.000000e+00 6.369486e-01 3.630514e-01 0.000000e+00 0.000000e+00
 0.000000e+00 0.000000e+00 6.321629e-01 3.678371e-01 0.000000e+00
 0.000000e+00 0.000000e+00 0.000000e+00 7.152813e-01 2.847187e-01
 0.000000e+00 0.000000e+00 0.000000e+00 0.000000e+00 0.000000e+00
<ENDHMM>
~h "q"
<BEGINHMM>
<NUMSTATES> 5
<STATE> 2
<MEAN> 39
 -1.465720e+01 -1.039971e+00 1.052199e+00 -3.303793e+00 -4.014161e+00 -1.073538e+00 -2.208237e+00 -1.273695e+00 -7.218177e-01 8.402983e-01 -7.604878e-01 7.778091e-01 6.269059e+01 -1.626259e+00 7.400469e-01 1.329398e-02 3.935167e-01 7.970518e-01 8.698035e-01 8.740549e-01 4.620069e-01 6.413724e-01 5.961446e-01 5.842236e-01 9.022932e-02 4.407973e-01 1.335912e-01 -2.321595e-01 8.133984e-02 -2.961600e-01 -1.450693e-01 -4.575461e-02 -1.389673e-01 -1.836885e-02 -8.866743e-02 -3.134167e-02 -9.982735e-02 1.569907e-02 3.246496e-01
<VARIANCE> 39
 7.711678e+01 5.696409e+01 4.563075e+01 5.020973e+01 5.958867e+01 4.794472e+01 5.523723e+01 5.287752e+01 5.124507e+01 3.984458e+01 3.860085e+01 3.001419e+01 6.355135e+01 5.666732e+00 4.051579e+00 4.006071e+00 4.653028e+00 5.220133e+00 4.161317e+00 5.262130e+00 4.827917e+00 4.517865e+00 4.062191e+00 3.484171e+00 2.808145e+00 4.382539e+00 1.003037e+00 6.270086e-01 7.035448e-01 7.406982e-01 9.205691e-01 7.649860e-01 9.021224e-01 9.236833e-01 8.330758e-01 8.137023e-01 6.284789e-01 5.373684e-01 6.653313e-01
<GCONST> 1.380774e+02
<STATE> 3
<MEAN> 39
 -1.819598e+01 -5.218792e-02 1.714138e+00 -3.473792e+00 -2.722495e+00 1.011137e+00 -5.838180e-01 -2.623665e-01 5.440137e-01 2.136233e+00 3.183470e-01 1.036410e+00 6.523067e+01 -5.493703e-01 6.163972e-02 5.000163e-01 -2.980503e-01 -2.786930e-02 4.542969e-01 2.479311e-01 6.313846e-02 1.605852e-01 2.485352e-01 1.733672e-01 4.232625e-02 8.816919e-01 4.599107e-01 -2.308186e-01 1.455186e-01 -2.097944e-01 -3.151016e-01 -2.173421e-01 -2.607021e-01 -1.786034e-01 -2.150055e-01 -1.526365e-01 -1.670424e-01 -1.527452e-02 2.394477e-02
<VARIANCE> 39
 7.112473e+01 5.527376e+01 4.714684e+01 4.534529e+01 4.813662e+01 3.944096e+01 4.387012e+01 4.128362e+01 4.112529e+01 3.245162e+01 3.054362e+01 2.449143e+01 6.478359e+01 6.366700e+00 3.344737e+00 3.537247e+00 3.687109e+00 4.995122e+00 3.859365e+00 4.483431e+00 4.223639e+00 4.107573e+00 3.400903e+00 3.040094e+00 2.419424e+00 3.012693e+00 8.411750e-01 5.351347e-01 6.067715e-01 6.365293e-01 7.599938e-01 6.693649e-01 7.716304e-01 7.828845e-01 7.353445e-01 6.598207e-01 5.615156e-01 4.788703e-01 5.352270e-01
<GCONST> 1.323277e+02
<STATE> 4
<MEAN> 39
 -1.788571e+01 -9.916244e-01 4.004879e+00 -4.713667e+00 -3.864423e+00 1.631436e+00 -6.158197e-01 -5.500485e-01 5.207000e-01 2.337864e+00 5.976429e-01 1.284690e+00 6.663403e+01 8.560448e-01 -4.020589e-01 7.843491e-01 -7.114058e-01 -9.588655e-01 -3.611067e-01 -5.893065e-01 -5.648153e-01 -5.744835e-01 -2.176724e-01 -3.592829e-01 -4.059952e-02 4.979846e-01 2.917144e-01 -1.493941e-01 -1.669591e-02 -1.411798e-01 -1.958639e-01 -2.256324e-01 -2.144816e-01 -1.121883e-01 -2.007156e-01 -9.041916e-02 -1.617249e-01 -7.817947e-03 -1.013858e-01
<VARIANCE> 39
 6.724329e+01 5.577877e+01 4.945601e+01 4.493547e+01 5.345622e+01 3.767606e+01 4.553320e+01 4.233497e+01 4.117150e+01 2.998608e+01 3.041684e+01 2.387681e+01 7.055936e+01 4.880796e+00 2.949095e+00 3.030062e+00 3.519156e+00 4.543118e+00 4.050304e+00 4.423955e+00 4.060837e+00 4.062876e+00 2.974890e+00 2.970755e+00 2.395854e+00 2.283991e+00 6.608551e-01 4.446679e-01 5.327369e-01 5.761598e-01 7.089576e-01 6.689224e-01 7.701218e-01 7.488266e-01 7.175410e-01 5.854672e-01 5.453563e-01 4.585361e-01 3.259569e-01
<GCONST> 1.297865e+02
<TRANSP> 5
 0.000000e+00 1.000000e+00 0.000000e+00 0.000000e+00 0.000000e+00
 0.000000e+00 6.500072e-01 3.499928e-01 0.000000e+00 0.000000e+00
 0.000000e+00 0.000000e+00 6.511881e-01 3.488119e-01 0.000000e+00
 0.000000e+00 0.000000e+00 0.000000e+00 7.846879e-01 2.153120e-01
 0.000000e+00 0.000000e+00 0.000000e+00 0.000000e+00 0.000000e+00
<ENDHMM>
~h "r"
<BEGINHMM>
<NUMSTATES> 5
<STATE> 2
<MEAN> 39
 -4.614860e+00 -1.405999e+01 1.056288e+00 -9.307115e+00 -1.202577e+01 -5.943280e+00 -7.007507e+00 2.321135e-01 -5.736304e+00 -2.477030e+00 -3.682398e+00 4.984724e-01 6.825771e+01 1.038153e-01 -1.206379e-01 2.666704e-01 2.642828e-01 -4.035568e-01 -2.875470e-01 2.097980e-01 1.729010e-01 -1.823265e-01 -7.877356e-02 2.396916e-01 1.935823e-02 -1.528584e-01 -3.580452e-02 9.484080e-02 -3.258985e-02 -4.542348e-02 9.756240e-02 6.866699e-02 -2.542470e-02 -4.630915e-02 2.560395e-02 2.024139e-02 -1.811214e-02 -2.047714e-02 5.552574e-03
<VARIANCE> 39
 4.127873e+01 5.244361e+01 6.778342e+01 8.341053e+01 1.001410e+02 7.835888e+01 8.162725e+01 6.607652e+01 7.166116e+01 5.824096e+01 5.511766e+01 4.447417e+01 7.962822e+01 8.845776e-01 1.617748e+00 2.307088e+00 3.622412e+00 3.446153e+00 3.472149e+00 3.364721e+00 3.546104e+00 3.234746e+00 3.504082e+00 2.941250e+00 2.559289e+00 1.281533e+00 1.385986e-01 2.240657e-01 2.873600e-01 5.734233e-01 5.383913e-01 6.017448e-01 5.623964e-01 6.073842e-01 5.671960e-01 6.153417e-01 5.187079e-01 4.552958e-01 1.772866e-01
<GCONST> 1.265115e+02
<STATE> 3
<MEAN> 39
 -4.552867e+00 -1.399004e+01 1.500699e+00 -8.873698e+00 -1.251631e+01 -6.331267e+00 -6.422060e+00 6.903134e-01 -5.993122e+00 -2.600554e+00 -3.226580e+00 5.070176e-01 6.778715e+01 7.064408e-03 6.038939e-02 6.322253e-02 8.348443e-02 -6.465105e-02 -7.902630e-02 1.509549e-01 1.065148e-01 -7.368888e-02 -5.172464e-02 8.770496e-02 -2.135975e-02 -9.856996e-02 -2.844338e-02 5.990313e-02 -5.838992e-02 -5.282978e-02 1.053331e-01 6.249202e-02 -2.606139e-02 -2.808981e-02 3.190508e-02 6.908301e-03 -4.131223e-02 -8.520000e-03 1.157126e-02
<VARIANCE> 39
 4.083854e+01 5.055935e+01 6.122619e+01 7.883630e+01 1.000559e+02 7.635780e+01 7.843607e+01 6.831315e+01 7.187256e+01 5.585079e+01 5.364267e+01 4.361473e+01 7.800494e+01 8.041672e-01 1.433135e+00 2.070420e+00 3.355172e+00 3.131818e+00 3.117804e+00 3.079199e+00 3.344812e+00 2.961331e+00 3.126303e+00 2.714168e+00 2.330811e+00 1.361045e+00 1.216996e-01 2.026847e-01 2.610600e-01 5.061283e-01 4.842189e-01 5.264437e-01 5.035565e-01 5.682884e-01 5.126367e-01 5.538638e-01 4.725432e-01 4.148259e-01 1.687400e-01
<GCONST> 1.237888e+02
<STATE> 4
<MEAN> 39
 -5.472281e+00 -1.240793e+01 6.285048e-01 -7.485795e+00 -9.966735e+00 -5.228595e+00 -4.568695e+00 1.763129e+00 -4.489252e+00 -2.450518e+00 -2.156996e+00 8.374690e-01 6.305370e+01 -7.634913e-02 1.983606e-01 -5.156515e-02 5.728010e-02 2.069817e-01 8.766137e-02 5.710499e-02 -4.173923e-03 6.201882e-02 1.214213e-02 1.321042e-02 8.121084e-03 -1.910995e-01 -4.170264e-03 3.784679e-02 -8.422171e-03 -4.026669e-03 3.991468e-02 1.784817e-02 -2.834923e-02 -3.092798e-02 1.375806e-02 6.798746e-03 -9.234051e-03 -1.886999e-03 -1.800421e-02
<VARIANCE> 39
 3.933237e+01 4.785629e+01 5.055702e+01 7.136021e+01 9.582130e+01 6.972903e+01 7.277857e+01 6.251268e+01 7.310069e+01 5.206850e+01 5.367230e+01 4.019233e+01 1.136900e+02 6.917771e-01 1.330055e+00 1.650833e+00 2.527934e+00 2.495371e+00 2.565462e+00 2.703061e+00 2.950323e+00 2.714308e+00 2.721117e+00 2.374908e+00 2.072917e+00 1.311442e+00 1.065572e-01 1.804745e-01 2.280144e-01 3.715861e-01 3.894446e-01 4.290695e-01 4.467955e-01 5.067437e-01 4.710543e-01 4.797537e-01 4.195483e-01 3.716851e-01 1.446069e-01
<GCONST> 1.194621e+02
<TRANSP> 5
 0.000000e+00 1.000000e+00 0.000000e+00 0.000000e+00 0.000000e+00
 0.000000e+00 6.588445e-01 3.411555e-01 0.000000e+00 0.000000e+00
 0.000000e+00 0.000000e+00 6.656396e-01 3.343603e-01 0.000000e+00
 0.000000e+00 0.000000e+00 0.000000e+00 8.715292e-01 1.284708e-01
 0.000000e+00 0.000000e+00 0.000000e+00 0.000000e+00 0.000000e+00
<ENDHMM>
~h "s"
<BEGINHMM>
<NUMSTATES> 5
<STATE> 2
<MEAN> 39
 -1.235269e+01 -2.406196e+00 -3.100994e+00 -2.292737e+00 -3.553370e+00 -3.723561e+00 -2.919744e+00 1.060078e-01 -2.177640e+00 -1.266793e+00 -9.989797e-01 1.570783e+00 6.527950e+01 -1.427513e+00 8.925128e-01 -1.680526e-01 1.376917e+00 6.384344e-01 6.282015e-01 9.412857e-01 5.037042e-01 6.974980e-01 5.156977e-01 5.980470e-01 2.069584e-01 -3.066375e-01 5.966734e-02 -2.381660e-01 1.643090e-02 -2.665103e-01 -8.448961e-02 6.639095e-02 -8.181086e-02 2.084141e-02 -2.648891e-02 6.203779e-02 -6.828544e-02 -1.454997e-02 9.180862e-02
<VARIANCE> 39
 7.069343e+01 6.328106e+01 3.901587e+01 8.028791e+01 5.883412e+01 7.160309e+01 6.988882e+01 4.846106e+01 5.376760e+01 4.723643e+01 4.153862e+01 3.198731e+01 5.881054e+01 4.867386e+00 4.908915e+00 2.637281e+00 6.170295e+00 3.815146e+00 5.390260e+00 5.617942e+00 4.603403e+00 3.990276e+00 4.403919e+00 3.328729e+00 2.814558e+00 1.678158e+00 8.313318e-01 6.884385e-01 4.051168e-01 8.838873e-01 6.162325e-01 9.622117e-01 9.711269e-01 8.030449e-01 6.959250e-01 8.350130e-01 5.923942e-01 5.220841e-01 2.094366e-01
<GCONST> 1.359372e+02
<STATE> 3
<MEAN> 39
 -1.544233e+01 -1.310107e+00 -3.485974e+00 -2.122245e-01 -2.379920e+00 -2.166216e+00 -1.157254e+00 1.375056e+00 -6.112571e-01 1.971686e-01 1.217059e-01 2.050239e+00 6.494981e+01 -5.466062e-01 5.349739e-02 -9.357487e-02 2.769813e-01 2.197231e-01 2.934790e-01 2.907863e-01 3.517225e-01 3.739485e-01 3.259831e-01 2.209515e-01 1.509422e-01 1.779225e-02 3.850353e-01 -2.941428e-01 1.447333e-02 -4.136625e-01 -1.485600e-01 -1.747197e-01 -2.775722e-01 -8.825709e-02 -1.473253e-01 -1.282516e-01 -1.553371e-01 -2.437152e-02 1.366993e-01
<VARIANCE> 39
 6.945935e+01 5.917331e+01 3.377272e+01 6.782277e+01 4.911866e+01 5.996840e+01 5.979428e+01 4.113326e+01 4.300994e+01 4.079813e+01 3.532080e+01 2.683498e+01 5.120714e+01 5.991864e+00 4.041686e+00 2.031636e+00 6.061516e+00 3.089998e+00 5.401051e+00 5.608358e+00 3.837148e+00 3.582403e+00 4.012919e+00 3.219328e+00 2.578021e+00 1.694345e+00 7.941089e-01 5.928220e-01 3.698744e-01 7.706227e-01 5.325882e-01 9.022335e-01 9.135988e-01 7.285269e-01 6.223634e-01 7.371601e-01 5.671136e-01 4.972581e-01 2.199575e-01
<GCONST> 1.319737e+02
<STATE> 4
<MEAN> 39
 -1.484933e+01 -3.005582e+00 -3.326575e+00 -1.460434e+00 -1.668530e+00 -2.353587e+00 -1.363685e+00 2.318900e+00 3.085275e-01 7.082170e-01 4.404899e-01 2.675265e+00 6.425006e+01 7.202169e-01 -5.969219e-01 -5.142842e-02 -8.478212e-01 -1.812690e-01 -3.807579e-01 -6.068516e-01 -2.748397e-02 -1.535458e-01 -1.977710e-01 -2.754992e-01 5.121008e-02 4.380430e-01 2.480490e-01 -1.896160e-01 -2.562504e-02 -2.750335e-01 -7.016523e-02 -7.936374e-02 -1.866523e-01 -7.870822e-02 -1.288565e-01 -1.149426e-01 -1.077768e-01 -2.911107e-02 9.515645e-02
<VARIANCE> 39
 7.012102e+01 6.239891e+01 3.272794e+01 7.285866e+01 4.710558e+01 5.990028e+01 6.668350e+01 4.078241e+01 4.057893e+01 3.939358e+01 3.904194e+01 2.803727e+01 6.403664e+01 5.893744e+00 3.864202e+00 1.911888e+00 5.869375e+00 2.776015e+00 4.933974e+00 5.977200e+00 3.527918e+00 3.270448e+00 3.642750e+00 3.337754e+00 2.631046e+00 1.881478e+00 7.991570e-01 5.269423e-01 3.361619e-01 7.815396e-01 4.928904e-01 8.522652e-01 9.362835e-01 6.535723e-01 5.673552e-01 6.206388e-01 5.723718e-01 4.957588e-01 2.426817e-01
<GCONST> 1.314378e+02
<TRANSP> 5
 0.000000e+00 1.000000e+00 0.000000e+00 0.000000e+00 0.000000e+00
 0.000000e+00 6.462696e-01 3.537303e-01 0.000000e+00 0.000000e+00
 0.000000e+00 0.000000e+00 6.480848e-01 3.519151e-01 0.000000e+00
 0.000000e+00 0.000000e+00 0.000000e+00 7.997047e-01 2.002953e-01
 0.000000e+00 0.000000e+00 0.000000e+00 0.000000e+00 0.000000e+00
<ENDHMM>
~h "t"
<BEGINHMM>
<NUMSTATES> 5
<STATE> 2
<MEAN> 39
 -8.371719e+00 -6.457283e+00 5.494641e-01 -3.671423e+00 -3.052494e+00 -7.625254e-01 -1.967559e+00 6.115295e-01 2.536774e-01 3.629281e-01 -1.331035e-01 1.858222e+00 5.928844e+01 -6.001017e-01 1.096489e-01 -5.567741e-03 8.089479e-01 9.614067e-01 7.278459e-01 9.068719e-01 6.779913e-01 6.492454e-01 4.227284e-01 7.072120e-01 2.048041e-01 -1.489884e-01 -6.497582e-03 -1.364318e-01 -4.467379e-02 -2.457777e-01 -5.068804e-03 -3.028721e-02 -1.178479e-01 -1.297596e-02 -1.308108e-01 -7.449166e-02 -9.752122e-02 -1.479420e-02 5.172455e-01
<VARIANCE> 39
 3.735146e+01 4.486361e+01 4.132573e+01 5.705462e+01 6.092527e+01 5.215571e+01 6.556970e+01 5.556466e+01 5.538345e+01 4.864534e+01 4.772851e+01 3.658255e+01 8.670352e+01 2.584116e+00 3.397438e+00 3.372244e+00 4.589016e+00 4.637964e+00 4.617042e+00 5.743825e+00 5.169464e+00 4.761294e+00 4.464397e+00 4.039694e+00 3.096431e+00 8.341831e+00 4.769356e-01 5.668591e-01 5.722801e-01 7.581654e-01 7.751997e-01 8.317248e-01 1.040648e+00 9.491637e-01 8.816672e-01 8.677592e-01 7.381203e-01 5.868205e-01 1.501745e+00
<GCONST> 1.387366e+02
<STATE> 3
<MEAN> 39
 -9.738665e+00 -6.645854e+00 5.262357e-01 -2.640115e+00 -9.628470e-01 5.108896e-01 -4.540944e-01 2.062382e+00 1.209906e+00 1.041197e+00 1.077123e+00 2.273532e+00 6.091195e+01 -3.591097e-01 -6.924840e-02 -4.997443e-02 2.266039e-01 7.369628e-01 4.400598e-01 3.437087e-01 3.573739e-01 1.469164e-01 2.768399e-02 2.718386e-01 9.578563e-02 9.011568e-01 1.347924e-01 -8.258567e-02 -4.123103e-02 -2.507480e-01 -1.474159e-01 -1.370155e-01 -2.862621e-01 -1.872432e-01 -2.176040e-01 -1.743262e-01 -2.010841e-01 -4.274349e-02 2.210587e-01
<VARIANCE> 39
 3.884533e+01 4.767389e+01 3.761487e+01 4.926421e+01 5.412756e+01 4.592319e+01 5.702475e+01 4.938296e+01 4.940147e+01 4.493396e+01 4.138987e+01 3.233205e+01 9.554128e+01 2.823089e+00 3.478529e+00 3.371226e+00 4.139541e+00 4.517760e+00 4.430906e+00 5.599384e+00 5.023698e+00 4.688670e+00 4.451473e+00 3.944137e+00 3.012934e+00 8.182470e+00 4.986385e-01 5.873873e-01 6.179154e-01 7.158001e-01 7.755412e-01 8.122023e-01 1.022597e+00 9.659403e-01 8.715842e-01 8.488982e-01 7.352342e-01 5.848126e-01 1.609708e+00
<GCONST> 1.376328e+02
<STATE> 4
<MEAN> 39
 -1.046418e+01 -7.213220e+00 1.988191e-01 -2.235048e+00 4.574060e-01 1.129972e+00 -9.764528e-02 2.967200e+00 1.594720e+00 1.082067e+00 1.758495e+00 2.789879e+00 6.129370e+01 7.806670e-02 -9.715953e-02 -1.485895e-01 -2.688223e-01 1.642175e-01 7.039940e-02 -3.248285e-01 -2.062754e-01 -2.837675e-01 -2.910556e-01 -1.912979e-01 -4.803870e-02 7.224883e-01 1.244213e-01 -5.853501e-02 -6.066902e-02 -2.064516e-01 -1.952955e-01 -1.075974e-01 -2.094635e-01 -1.568131e-01 -1.460532e-01 -9.344260e-02 -1.407264e-01 -3.326612e-02 -6.706993e-02
<VARIANCE> 39
 4.016851e+01 5.287590e+01 3.779718e+01 4.761648e+01 5.113493e+01 4.226254e+01 5.208961e+01 4.512999e+01 4.656461e+01 4.436964e+01 3.836715e+01 3.033716e+01 1.054191e+02 2.472514e+00 3.224290e+00 3.195056e+00 3.848004e+00 4.294828e+00 3.757314e+00 4.695393e+00 4.272888e+00 4.061093e+00 3.846246e+00 3.336386e+00 2.739887e+00 5.944904e+00 4.264897e-01 5.187020e-01 5.480334e-01 6.563230e-01 7.267820e-01 6.997166e-01 8.532610e-01 8.238982e-01 7.571858e-01 7.210003e-01 6.299468e-01 5.411972e-01 1.097603e+00
<GCONST> 1.335865e+02
<TRANSP> 5
 0.000000e+00 1.000000e+00 0.000000e+00 0.000000e+00 0.000000e+00
 0.000000e+00 6.002401e-01 3.997599e-01 0.000000e+00 0.000000e+00
 0.000000e+00 0.000000e+00 5.998672e-01 4.001329e-01 0.000000e+00
 0.000000e+00 0.000000e+00 0.000000e+00 7.565765e-01 2.434234e-01
 0.000000e+00 0.000000e+00 0.000000e+00 0.000000e+00 0.000000e+00
<ENDHMM>
~h "u"
<BEGINHMM>
<NUMSTATES> 5
<STATE> 2
<MEAN> 39
 -2.741303e+00 -3.664525e+00 -4.202771e+00 -1.203532e+01 -5.769033e+00 -1.230269e+00 -8.946718e+00 -1.525547e+00 -5.396014e+00 -1.128398e+00 -2.915273e+00 1.284642e+00 6.398155e+01 5.982215e-01 2.598221e-01 -3.705572e-01 -1.176534e+00 -1.694162e-01 1.245636e-01 -5.892822e-01 -3.140852e-01 -6.305259e-01 -7.102961e-02 -1.639026e-01 1.989979e-01 -8.803140e-02 -1.880609e-01 -6.949097e-02 9.054991e-02 1.216645e-01 4.578682e-02 -3.996328e-02 7.804734e-02 5.931384e-02 8.943144e-02 2.396898e-02 -1.299562e-02 -2.228170e-02 -1.229182e-02
<VARIANCE> 39
 5.959377e+01 4.677674e+01 4.301777e+01 1.338518e+02 5.592163e+01 5.049712e+01 8.334958e+01 6.223434e+01 7.470480e+01 4.709022e+01 4.893850e+01 3.833167e+01 5.542225e+01 3.712752e+00 2.543972e+00 2.983121e+00 1.051645e+01 4.144103e+00 4.519391e+00 6.291747e+00 5.350700e+00 6.082904e+00 4.380684e+00 3.987243e+00 3.362829e+00 2.113122e+00 5.408645e-01 4.214325e-01 5.029944e-01 1.544592e+00 7.112597e-01 8.565282e-01 1.093546e+00 1.004121e+00 1.044621e+00 8.461203e-01 7.263155e-01 6.481364e-01 3.527105e-01
<GCONST> 1.391983e+02
<STATE> 3
<MEAN> 39
 -2.063670e+00 -3.308943e+00 -4.751811e+00 -1.418399e+01 -5.983055e+00 -1.122627e+00 -9.922497e+00 -1.917514e+00 -6.389239e+00 -1.180251e+00 -3.300662e+00 1.675352e+00 6.369262e+01 2.714979e-02 -1.414748e-02 -3.122790e-02 -3.201686e-01 1.767012e-02 -5.635056e-02 -2.954700e-01 -1.603174e-01 -1.278515e-01 4.903580e-02 -1.321080e-01 5.113298e-02 -4.830881e-02 -2.252474e-01 -8.761966e-02 1.580793e-01 3.565022e-01 5.196918e-02 -8.086520e-02 1.597811e-01 7.735698e-02 1.990856e-01 2.857573e-02 1.275875e-02 -7.026795e-02 -1.299025e-04
<VARIANCE> 39
 5.337923e+01 4.717701e+01 4.414750e+01 1.274158e+02 5.496956e+01 5.251389e+01 8.903021e+01 6.282259e+01 8.119167e+01 4.973315e+01 5.270353e+01 4.035980e+01 5.671094e+01 3.012422e+00 2.535644e+00 3.026794e+00 1.074588e+01 3.992590e+00 4.649640e+00 6.406879e+00 5.001192e+00 5.984172e+00 4.484739e+00 4.035782e+00 3.381147e+00 2.080127e+00 4.402437e-01 4.176512e-01 5.279375e-01 1.464975e+00 7.065866e-01 9.013741e-01 1.143792e+00 9.668481e-01 1.023833e+00 8.919830e-01 7.497730e-01 6.560197e-01 3.337264e-01
<GCONST> 1.390851e+02
<STATE> 4
<MEAN> 39
 -3.273933e+00 -3.875554e+00 -4.173484e+00 -1.223544e+01 -5.260893e+00 -1.114239e+00 -8.447457e+00 -1.149649e+00 -4.663913e+00 -6.719744e-01 -2.593392e+00 1.814170e+00 6.121744e+01 -4.788845e-01 -2.418749e-01 3.404402e-01 7.016817e-01 1.828249e-01 -1.257586e-01 1.780173e-01 1.475252e-02 3.677231e-01 1.315459e-01 1.960515e-02 -8.265483e-02 -1.089730e-01 -1.471752e-01 -2.625054e-02 1.048065e-01 1.864172e-01 1.391296e-02 -2.156685e-02 1.611049e-01 7.549699e-02 9.020295e-02 -8.464748e-03 2.536903e-02 -3.020431e-02 8.802210e-03
<VARIANCE> 39
 5.645641e+01 5.123831e+01 4.475167e+01 1.285125e+02 5.950699e+01 5.343722e+01 9.690209e+01 6.295927e+01 8.571760e+01 5.040052e+01 5.579435e+01 3.903174e+01 7.472469e+01 2.554656e+00 2.391245e+00 3.018997e+00 8.092980e+00 3.705917e+00 4.391520e+00 6.033851e+00 4.509237e+00 5.035646e+00 4.274339e+00 3.754050e+00 3.110284e+00 2.267631e+00 3.777960e-01 3.968187e-01 5.248988e-01 1.181019e+00 6.534556e-01 8.262709e-01 1.083178e+00 8.571245e-01 8.900763e-01 8.441269e-01 6.902539e-01 6.003128e-01 3.680684e-01
<GCONST> 1.376675e+02
<TRANSP> 5
 0.000000e+00 1.000000e+00 0.000000e+00 0.000000e+00 0.000000e+00
 0.000000e+00 6.113685e-01 3.886315e-01 0.000000e+00 0.000000e+00
 0.000000e+00 0.000000e+00 6.095942e-01 3.904058e-01 0.000000e+00
 0.000000e+00 0.000000e+00 0.000000e+00 7.610269e-01 2.389731e-01
 0.000000e+00 0.000000e+00 0.000000e+00 0.000000e+00 0.000000e+00
<ENDHMM>
~h "v"
<BEGINHMM>
<NUMSTATES> 5
<STATE> 2
<MEAN> 39
 -9.453369e+00 -5.481760e+00 1.256374e+01 -1.076811e+01 -1.494292e+01 -3.544857e+00 -9.244242e+00 -8.272351e+00 -9.021376e+00 1.806553e+00 -5.866072e+00 -8.106489e-01 6.691576e+01 5.515990e-01 -3.058102e-01 3.192856e-01 -2.154610e-01 -5.994766e-01 -5.466484e-01 -3.614141e-01 -3.660175e-01 -5.815046e-01 -1.003645e-02 -2.961621e-01 -2.228638e-02 3.520929e-02 -1.104661e-01 9.901852e-03 -2.361131e-01 6.065057e-02 2.566790e-01 5.210532e-02 1.327206e-01 2.266961e-01 1.694954e-01 1.937880e-03 6.712501e-02 2.183763e-02 -4.458158e-02
<VARIANCE> 39
 4.541197e+01 4.080418e+01 6.449547e+01 6.528262e+01 6.512915e+01 5.401338e+01 5.981699e+01 6.579942e+01 7.608965e+01 4.066360e+01 5.544703e+01 4.115218e+01 5.068867e+01 2.619005e+00 2.238504e+00 3.251620e+00 3.409177e+00 4.741077e+00 3.897928e+00 4.153964e+00 4.703007e+00 5.013116e+00 3.097907e+00 3.559413e+00 2.574087e+00 1.575089e+00 3.363539e-01 3.200647e-01 4.134954e-01 5.490648e-01 6.511592e-01 6.257874e-01 6.894730e-01 7.579520e-01 7.422901e-01 5.563182e-01 5.538352e-01 4.460166e-01 2.218434e-01
<GCONST> 1.301150e+02
<STATE> 3
<MEAN> 39
 -8.596385e+00 -6.140018e+00 1.260834e+01 -1.116629e+01 -1.562743e+01 -4.657392e+00 -9.563223e+00 -8.376226e+00 -9.850906e+00 1.962620e+00 -6.347826e+00 -8.276348e-01 6.690208e+01 2.308965e-01 -1.334037e-01 -3.425273e-01 6.623257e-02 1.152997e-01 -3.025564e-01 3.922865e-03 1.917456e-01 2.597531e-02 -1.066356e-01 9.131986e-03 5.860126e-02 -1.245905e-01 -1.005937e-01 8.268009e-02 -2.456453e-01 1.471255e-01 2.782243e-01 1.163134e-01 1.373133e-01 1.835629e-01 2.389086e-01 -4.804377e-02 1.095332e-01 1.840890e-02 -9.782018e-02
<VARIANCE> 39
 3.719607e+01 4.131338e+01 6.567359e+01 6.647967e+01 6.302151e+01 5.265009e+01 5.756100e+01 6.547298e+01 7.832738e+01 4.112273e+01 5.554936e+01 4.212547e+01 5.288665e+01 1.909144e+00 2.151942e+00 3.198943e+00 3.534716e+00 4.213600e+00 3.444849e+00 3.710480e+00 3.993688e+00 4.523057e+00 2.971233e+00 3.302736e+00 2.421869e+00 1.748279e+00 2.927407e-01 3.360106e-01 4.280138e-01 5.741141e-01 6.411180e-01 5.926451e-01 6.586897e-01 7.084486e-01 7.212918e-01 5.499527e-01 5.403712e-01 4.411826e-01 2.539619e-01
<GCONST> 1.288055e+02
<STATE> 4
<MEAN> 39
 -8.317147e+00 -6.046594e+00 1.100658e+01 -1.012854e+01 -1.462962e+01 -4.721027e+00 -8.584320e+00 -7.107093e+00 -8.498839e+00 1.744319e+00 -5.342822e+00 -4.833397e-01 6.526083e+01 8.266811e-03 7.927153e-02 -8.486376e-01 4.560399e-01 7.405075e-01 6.378764e-02 3.096668e-01 5.702106e-01 6.016316e-01 -2.488923e-01 2.919211e-01 1.262763e-01 -4.227321e-01 -7.015511e-02 4.222300e-02 -1.464610e-01 1.149352e-01 1.930140e-01 1.218631e-01 1.022092e-01 1.072371e-01 1.554747e-01 -6.494134e-03 6.777599e-02 8.844408e-03 -7.856983e-02
<VARIANCE> 39
 3.758158e+01 4.389017e+01 6.888155e+01 7.147952e+01 7.192789e+01 5.357322e+01 6.297194e+01 7.007423e+01 8.011448e+01 4.317060e+01 5.989685e+01 4.011292e+01 6.711990e+01 1.717951e+00 2.139128e+00 3.120230e+00 3.666292e+00 4.209888e+00 3.277594e+00 3.546099e+00 3.752784e+00 4.227706e+00 2.970295e+00 2.983132e+00 2.320640e+00 2.187821e+00 2.577161e-01 3.450268e-01 4.167895e-01 5.635605e-01 6.301442e-01 5.640013e-01 6.101392e-01 6.590816e-01 6.729923e-01 5.492213e-01 5.033869e-01 4.242501e-01 3.087041e-01
<GCONST> 1.290465e+02
<TRANSP> 5
 0.000000e+00 1.000000e+00 0.000000e+00 0.000000e+00 0.000000e+00
 0.000000e+00 6.280389e-01 3.719611e-01 0.000000e+00 0.000000e+00
 0.000000e+00 0.000000e+00 6.295471e-01 3.704529e-01 0.000000e+00
 0.000000e+00 0.000000e+00 0.000000e+00 7.911502e-01 2.088499e-01
 0.000000e+00 0.000000e+00 0.000000e+00 0.000000e+00 0.000000e+00
<ENDHMM>
~h "x"
<BEGINHMM>
<NUMSTATES> 5
<STATE> 2
<MEAN> 39
 -1.477554e+01 -3.185215e-01 2.005193e+00 -4.520936e+00 -6.010760e+00 -1.820126e+00 -2.547854e+00 -2.518736e+00 -2.542638e+00 1.896286e-01 -1.077366e+00 4.453085e-01 6.612616e+01 -1.709570e+00 1.197856e+00 -1.824519e-01 1.049100e+00 9.556877e-01 9.212657e-01 1.039387e+00 3.666918e-01 8.200240e-01 6.013559e-01 6.463451e-01 -2.198437e-02 -9.093788e-02 9.286778e-02 -2.733596e-01 -9.687687e-02 -2.428478e-01 1.003738e-02 1.753930e-02 -1.377660e-01 8.321368e-02 3.730265e-02 2.882902e-02 -1.034946e-01 3.779623e-02 9.804317e-02
<VARIANCE> 39
 7.091323e+01 6.938565e+01 4.997278e+01 6.270482e+01 6.762610e+01 5.185558e+01 6.349533e+01 5.713892e+01 5.644312e+01 4.076411e+01 3.929651e+01 3.047435e+01 5.902939e+01 4.699997e+00 5.055679e+00 3.664109e+00 5.144070e+00 5.514771e+00 4.577160e+00 6.035519e+00 4.941422e+00 4.510606e+00 4.207635e+00 3.542741e+00 2.851569e+00 1.575149e+00 7.812811e-01 6.864890e-01 6.144785e-01 7.781719e-01 1.022886e+00 8.370403e-01 1.011964e+00 9.130780e-01 8.431364e-01 8.087822e-01 6.224232e-01 5.366357e-01 1.951535e-01
<GCONST> 1.372246e+02
<STATE> 3
<MEAN> 39
 -1.864300e+01 1.483148e+00 1.309149e+00 -2.970839e+00 -3.780113e+00 4.280555e-01 -7.162955e-01 -1.298949e+00 -3.838018e-01 1.672365e+00 6.785703e-02 6.427772e-01 6.633768e+01 -6.769526e-01 2.045862e-01 8.118746e-03 8.798481e-02 2.533926e-01 4.421192e-01 2.524409e-01 1.840069e-01 4.251129e-01 3.290078e-01 1.928338e-01 7.444380e-02 1.547487e-01 4.651122e-01 -3.360069e-01 1.384310e-01 -3.642193e-01 -3.329782e-01 -2.526086e-01 -3.010681e-01 -1.382500e-01 -2.263595e-01 -1.376325e-01 -1.742772e-01 1.938553e-02 8.870262e-02
<VARIANCE> 39
 6.773461e+01 6.311729e+01 4.771880e+01 5.274345e+01 5.447907e+01 4.092514e+01 4.859349e+01 4.606161e+01 4.439582e+01 3.341383e+01 3.135616e+01 2.486555e+01 5.118008e+01 5.393520e+00 3.752417e+00 3.133212e+00 4.552610e+00 5.385148e+00 4.130434e+00 4.761865e+00 4.323966e+00 4.151636e+00 3.323833e+00 2.949524e+00 2.386647e+00 1.254109e+00 7.001310e-01 5.481194e-01 5.487123e-01 6.582692e-01 8.580222e-01 7.231559e-01 8.180276e-01 8.330954e-01 7.378919e-01 6.585287e-01 5.484824e-01 4.820620e-01 1.733089e-01
<GCONST> 1.311413e+02
<STATE> 4
<MEAN> 39
 -1.849322e+01 4.467359e-01 2.375487e+00 -3.917908e+00 -4.181907e+00 7.525259e-01 -1.007658e+00 -1.198750e+00 2.236588e-01 2.041862e+00 4.160941e-01 1.171380e+00 6.596958e+01 8.393103e-01 -5.645148e-01 6.162086e-01 -8.987905e-01 -9.240544e-01 -4.856269e-01 -6.290166e-01 -4.493989e-01 -4.729832e-01 -1.256183e-01 -3.220695e-01 3.412791e-02 3.773026e-01 3.406076e-01 -2.625670e-01 6.778528e-02 -2.606989e-01 -2.433636e-01 -2.171866e-01 -1.687618e-01 -7.882774e-02 -2.173812e-01 -9.332747e-02 -1.585982e-01 -1.266325e-02 7.080463e-02
<VARIANCE> 39
 6.580962e+01 6.585130e+01 5.094936e+01 5.501004e+01 5.816023e+01 3.972752e+01 4.887920e+01 4.778263e+01 4.169880e+01 3.056033e+01 3.183307e+01 2.474518e+01 6.164894e+01 5.111824e+00 3.512367e+00 3.135808e+00 4.481026e+00 5.321620e+00 4.131801e+00 4.304425e+00 4.291709e+00 3.997250e+00 2.845853e+00 2.876887e+00 2.449079e+00 1.264601e+00 6.679932e-01 4.936474e-01 5.505608e-01 6.421047e-01 8.615399e-01 7.142914e-01 7.635773e-01 8.108776e-01 6.948954e-01 5.750781e-01 5.339602e-01 4.706323e-01 1.722535e-01
<GCONST> 1.304165e+02
<TRANSP> 5
 0.000000e+00 1.000000e+00 0.000000e+00 0.000000e+00 0.000000e+00
 0.000000e+00 6.548873e-01 3.451127e-01 0.000000e+00 0.000000e+00
 0.000000e+00 0.000000e+00 6.574354e-01 3.425646e-01 0.000000e+00
 0.000000e+00 0.000000e+00 0.000000e+00 7.973596e-01 2.026403e-01
 0.000000e+00 0.000000e+00 0.000000e+00 0.000000e+00 0.000000e+00
<ENDHMM>
~h "z"
<BEGINHMM>
<NUMSTATES> 5
<STATE> 2
<MEAN> 39
 -9.056498e+00 -4.181612e+00 -1.400920e+00 -3.877676e+00 -5.600725e+00 -4.150781e+00 -5.315476e+00 -1.475927e+00 -2.330926e+00 -1.699623e+00 -2.303607e+00 1.068347e+00 6.219955e+01 -9.332939e-01 8.172080e-01 -2.291282e-01 1.166543e+00 5.246232e-01 3.516158e-01 6.524348e-01 4.069276e-01 5.324926e-01 2.838347e-01 4.680120e-01 1.997287e-01 -4.309763e-01 -2.380259e-02 -1.717496e-01 -7.658792e-02 -2.416204e-01 -7.319247e-03 5.652856e-02 8.132072e-03 8.459846e-02 -3.075000e-02 4.775384e-02 -2.138856e-02 1.331693e-02 3.100345e-01
<VARIANCE> 39
 5.599475e+01 5.437101e+01 4.564883e+01 7.679066e+01 6.246362e+01 6.834987e+01 7.926980e+01 5.526698e+01 5.919164e+01 5.414470e+01 4.913112e+01 3.970403e+01 7.192272e+01 5.033362e+00 4.622126e+00 3.584667e+00 6.721828e+00 4.540936e+00 6.046596e+00 6.658800e+00 5.016861e+00 4.601040e+00 4.948274e+00 4.025554e+00 3.426613e+00 6.092109e+00 1.011338e+00 7.738841e-01 5.691962e-01 1.095091e+00 7.782836e-01 1.198636e+00 1.221801e+00 9.070673e-01 8.485014e-01 9.784543e-01 7.621672e-01 6.697885e-01 7.773048e-01
<GCONST> 1.434407e+02
<STATE> 3
<MEAN> 39
 -1.138945e+01 -2.884897e+00 -2.228006e+00 -2.196511e+00 -4.483316e+00 -3.279292e+00 -3.816785e+00 -1.909897e-01 -1.167885e+00 -8.102669e-01 -1.319215e+00 1.617969e+00 6.266011e+01 -4.112971e-01 2.241424e-02 -3.395370e-01 2.764031e-02 2.448739e-01 5.052618e-02 2.659705e-01 4.605835e-01 2.661899e-01 1.713527e-01 1.671945e-01 2.245572e-01 6.009855e-01 2.952981e-01 -3.526418e-01 -2.623855e-02 -4.753921e-01 -1.144052e-01 -1.229009e-01 -2.096908e-01 -3.441764e-02 -1.472488e-01 -9.774654e-02 -1.590509e-01 -1.731166e-02 3.182081e-01
<VARIANCE> 39
 6.280840e+01 5.430919e+01 3.946058e+01 6.975889e+01 5.378886e+01 6.386329e+01 7.387462e+01 4.994609e+01 5.009520e+01 4.979731e+01 4.420889e+01 3.417887e+01 6.596982e+01 7.672209e+00 6.043712e+00 3.245299e+00 8.558040e+00 4.461263e+00 7.089831e+00 7.929672e+00 4.973025e+00 4.756213e+00 5.354144e+00 4.623153e+00 3.466111e+00 6.160848e+00 1.358668e+00 9.351453e-01 5.766217e-01 1.171887e+00 7.757847e-01 1.325258e+00 1.381542e+00 9.409974e-01 8.504072e-01 1.021560e+00 8.299148e-01 6.827484e-01 7.632005e-01
<GCONST> 1.446968e+02
<STATE> 4
<MEAN> 39
 -1.104735e+01 -4.252573e+00 -3.095351e+00 -4.058689e+00 -4.271319e+00 -4.126834e+00 -4.137112e+00 9.036610e-01 -8.968138e-01 -9.034068e-01 -1.556502e+00 2.278736e+00 6.530745e+01 5.898005e-01 -9.027852e-01 -3.230532e-01 -1.174769e+00 -5.883097e-02 -3.103244e-01 -4.370863e-01 1.720509e-01 -2.434076e-01 -2.418432e-01 -3.524681e-01 8.600253e-02 1.113110e+00 1.715779e-01 -2.204045e-01 -4.588452e-03 -2.489554e-01 -3.407185e-02 4.975354e-02 -1.185060e-01 -1.048010e-01 -1.557983e-01 -7.558800e-02 -9.726500e-02 -7.743771e-02 1.883906e-02
<VARIANCE> 39
 6.420979e+01 6.481845e+01 3.804150e+01 8.418418e+01 5.376407e+01 6.774651e+01 8.341202e+01 4.846999e+01 4.940373e+01 5.000286e+01 4.758477e+01 3.437253e+01 7.847650e+01 7.632009e+00 6.634601e+00 2.987239e+00 8.549929e+00 4.245015e+00 6.973906e+00 8.458184e+00 4.813540e+00 4.720863e+00 5.271039e+00 4.805789e+00 3.502882e+00 4.408448e+00 1.336437e+00 1.002045e+00 5.113971e-01 1.293416e+00 7.461015e-01 1.323555e+00 1.428388e+00 8.721564e-01 7.943754e-01 9.414679e-01 8.438621e-01 6.803234e-01 6.299872e-01
<GCONST> 1.447214e+02
<TRANSP> 5
 0.000000e+00 1.000000e+00 0.000000e+00 0.000000e+00 0.000000e+00
 0.000000e+00 6.010720e-01 3.989280e-01 0.000000e+00 0.000000e+00
 0.000000e+00 0.000000e+00 6.070312e-01 3.929689e-01 0.000000e+00
 0.000000e+00 0.000000e+00 0.000000e+00 7.023622e-01 2.976378e-01
 0.000000e+00 0.000000e+00 0.000000e+00 0.000000e+00 0.000000e+00
<ENDHMM>
~h "aa"
<BEGINHMM>
<NUMSTATES> 5
<STATE> 2
<MEAN> 39
 -6.148862e+00 -1.701881e+01 -8.383585e+00 -9.732615e+00 6.792374e-01 9.532667e-01 -6.362789e+00 -5.267846e-02 -3.953516e+00 -5.295466e+00 -3.928255e+00 -3.531060e-01 7.037162e+01 -1.052296e-01 -4.887120e-01 -2.525530e-01 4.904074e-01 5.554569e-01 1.671634e-01 -2.396248e-01 -1.209929e-01 -7.551856e-02 -2.569411e-01 1.477499e-01 2.848410e-02 1.081410e-01 3.126306e-03 1.387099e-01 1.284566e-01 -2.640970e-02 -1.636294e-01 -9.025852e-02 -9.527475e-03 -8.791023e-03 7.422872e-03 7.018081e-02 2.711957e-03 1.077442e-02 -5.442965e-02
<VARIANCE> 39
 3.039962e+01 6.106126e+01 5.367719e+01 8.549571e+01 7.371996e+01 6.436305e+01 8.650075e+01 6.055027e+01 6.414987e+01 6.272173e+01 5.667073e+01 4.856005e+01 1.087458e+02 7.611949e-01 1.976182e+00 1.592170e+00 2.557290e+00 2.932312e+00 2.357671e+00 3.122696e+00 2.780168e+00 2.870780e+00 2.980075e+00 2.473711e+00 2.491364e+00 1.913339e+00 1.245620e-01 2.648187e-01 2.352393e-01 3.693013e-01 4.002581e-01 3.693321e-01 5.254916e-01 4.771782e-01 4.866892e-01 5.152072e-01 4.328604e-01 4.342287e-01 2.677760e-01
<GCONST> 1.225710e+02
<STATE> 3
<MEAN> 39
 -6.629706e+00 -1.773302e+01 -8.403089e+00 -8.196676e+00 1.394151e+00 9.853150e-01 -6.748875e+00 -1.780989e-01 -4.095498e+00 -5.676280e+00 -3.343571e+00 -1.272955e-01 7.003300e+01 -9.601039e-02 -1.276209e-01 3.016853e-02 2.931368e-01 3.185201e-02 -3.830539e-02 -2.818638e-02 -3.478604e-02 -1.026426e-01 -9.533460e-02 1.025399e-01 4.388096e-02 -3.912222e-02 1.249082e-02 1.094126e-01 6.890115e-02 -6.443113e-02 -1.344650e-01 -4.971372e-02 6.098396e-02 2.993221e-02 -7.078249e-03 4.388895e-02 -1.180398e-02 -2.098774e-03 -5.210662e-02
<VARIANCE> 39
 3.028452e+01 6.051790e+01 5.169859e+01 7.531696e+01 6.860596e+01 6.341932e+01 8.695939e+01 6.362983e+01 6.443182e+01 6.323743e+01 5.446257e+01 4.745153e+01 1.150576e+02 7.071487e-01 1.776214e+00 1.323506e+00 2.168335e+00 2.482578e+00 2.022446e+00 2.719769e+00 2.407037e+00 2.556212e+00 2.499491e+00 2.132689e+00 2.126176e+00 2.023745e+00 1.113849e-01 2.348656e-01 2.016466e-01 3.082818e-01 3.397869e-01 3.218398e-01 4.271920e-01 4.024121e-01 4.169136e-01 4.242098e-01 3.597369e-01 3.644627e-01 2.468541e-01
<GCONST> 1.186573e+02
<STATE> 4
<MEAN> 39
 -7.708428e+00 -1.562556e+01 -6.356839e+00 -5.766311e+00 2.955139e-01 5.242771e-01 -4.566927e+00 1.079806e+00 -2.909480e+00 -4.147671e+00 -1.381062e+00 9.359848e-01 6.461802e+01 -5.362224e-02 1.893010e-01 1.815915e-01 2.896602e-02 -2.473693e-01 -7.421973e-02 1.968203e-01 5.726345e-02 -3.518049e-02 9.083242e-02 6.705631e-02 3.639399e-02 -2.107033e-01 1.704710e-02 6.725709e-02 3.408916e-02 -2.628441e-02 -4.704878e-02 -2.072942e-02 1.335430e-02 1.999150e-03 2.047383e-02 3.555163e-02 -8.337888e-03 -8.061269e-03 -4.402667e-02
<VARIANCE> 39
 3.137561e+01 6.080505e+01 5.405952e+01 6.828172e+01 6.618120e+01 5.674400e+01 8.578262e+01 6.394411e+01 6.911540e+01 6.680529e+01 5.465427e+01 4.339299e+01 1.546935e+02 7.023267e-01 1.635499e+00 1.353420e+00 1.940568e+00 2.293424e+00 2.006774e+00 2.640930e+00 2.392869e+00 2.588091e+00 2.524617e+00 2.075787e+00 1.950580e+00 1.953074e+00 1.086140e-01 2.275223e-01 2.132201e-01 2.894009e-01 3.271659e-01 3.294864e-01 4.285318e-01 4.115275e-01 4.327329e-01 4.327728e-01 3.605457e-01 3.373766e-01 2.292507e-01
<GCONST> 1.182516e+02
<TRANSP> 5
 0.000000e+00 1.000000e+00 0.000000e+00 0.000000e+00 0.000000e+00
 0.000000e+00 7.480402e-01 2.519598e-01 0.000000e+00 0.000000e+00
 0.000000e+00 0.000000e+00 7.463645e-01 2.536356e-01 0.000000e+00
 0.000000e+00 0.000000e+00 0.000000e+00 9.148977e-01 8.510218e-02
 0.000000e+00 0.000000e+00 0.000000e+00 0.000000e+00 0.000000e+00
<ENDHMM>
~h "ai"
<BEGINHMM>
<NUMSTATES> 5
<STATE> 2
<MEAN> 39
 -8.077071e+00 -1.697364e+01 -3.973533e+00 -6.478264e+00 -5.275563e+00 -5.630076e-01 1.739597e-02 6.061443e-01 -5.789598e+00 -5.367187e+00 -4.119347e+00 1.648324e+00 7.167912e+01 -6.116910e-03 -7.833687e-01 -6.886596e-02 -4.551322e-01 -4.240583e-01 7.480969e-02 3.507540e-01 -1.813996e-01 -6.456706e-01 -3.016680e-01 -1.925623e-01 -1.420031e-01 4.873812e-01 -2.374514e-02 3.046736e-01 1.356423e-01 6.257527e-02 -5.104989e-02 -4.559165e-02 -6.909016e-02 -1.681126e-02 1.502635e-01 1.742306e-01 9.425016e-02 -5.273363e-02 -2.227174e-01
<VARIANCE> 39
 3.227257e+01 7.169675e+01 3.898391e+01 6.453325e+01 6.596994e+01 5.018116e+01 6.869056e+01 6.088519e+01 6.468263e+01 5.414278e+01 5.375528e+01 3.410787e+01 1.052860e+02 1.819083e+00 4.508906e+00 2.596107e+00 3.739547e+00 3.872690e+00 3.363244e+00 3.946558e+00 3.667702e+00 4.049398e+00 3.601715e+00 3.105633e+00 2.464227e+00 3.097540e+00 3.512093e-01 6.064955e-01 4.463057e-01 6.581817e-01 6.256707e-01 6.173229e-01 7.069914e-01 6.835695e-01 7.033224e-01 6.497030e-01 5.765997e-01 4.590283e-01 4.664873e-01
<GCONST> 1.321668e+02
<STATE> 3
<MEAN> 39
 -8.054835e+00 -1.751040e+01 -3.473032e+00 -7.586992e+00 -6.890802e+00 -7.053233e-01 7.819021e-01 2.759972e-01 -6.598408e+00 -5.314883e+00 -4.252604e+00 1.086805e+00 7.193826e+01 2.741904e-02 1.028251e-01 2.784604e-01 -4.229579e-01 -5.962800e-01 -1.676250e-01 1.401398e-01 -7.100292e-02 -7.420041e-02 1.395481e-01 -4.051829e-02 -2.180320e-01 -5.499668e-02 1.107406e-02 2.992430e-01 1.111696e-01 4.789427e-02 -5.049183e-03 -7.793062e-02 -1.244745e-01 6.350215e-03 1.901424e-01 1.460839e-01 5.734259e-02 -3.284668e-03 -1.988703e-01
<VARIANCE> 39
 2.982945e+01 6.746450e+01 3.761292e+01 6.413052e+01 6.724660e+01 4.817700e+01 6.720718e+01 6.290779e+01 6.411436e+01 5.190400e+01 5.017401e+01 3.370184e+01 1.077591e+02 1.426092e+00 3.694607e+00 2.282584e+00 3.424022e+00 3.587174e+00 2.926000e+00 3.635797e+00 3.162417e+00 3.701756e+00 3.220163e+00 2.696570e+00 2.294239e+00 2.935293e+00 2.688661e-01 4.804362e-01 3.712035e-01 5.779385e-01 5.728871e-01 5.346555e-01 6.754286e-01 6.059592e-01 6.238691e-01 5.785600e-01 4.877499e-01 4.321214e-01 3.830732e-01
<GCONST> 1.284188e+02
<STATE> 4
<MEAN> 39
 -8.640286e+00 -1.492892e+01 -1.815108e+00 -7.200058e+00 -7.638118e+00 -8.426923e-01 1.387070e+00 8.557089e-01 -4.504879e+00 -3.309688e+00 -2.850342e+00 1.169090e+00 6.764988e+01 2.989296e-02 6.566362e-01 3.820078e-01 -1.582595e-01 -3.192954e-01 -2.589492e-01 -2.336614e-01 -6.767318e-02 3.149237e-01 3.594349e-01 6.634146e-02 -9.691031e-02 -4.320593e-01 -1.095326e-02 1.439523e-01 2.770457e-02 1.050826e-01 1.147757e-01 1.503245e-03 -1.169661e-01 -3.419334e-02 5.935847e-02 4.684613e-02 4.548763e-02 3.953977e-02 -1.081752e-01
<VARIANCE> 39
 3.026076e+01 6.645039e+01 3.710648e+01 7.082121e+01 7.499197e+01 4.897425e+01 5.952415e+01 5.964363e+01 6.728377e+01 5.361091e+01 5.281613e+01 3.486632e+01 1.476442e+02 1.428173e+00 3.392509e+00 2.208386e+00 3.799896e+00 3.817228e+00 2.999068e+00 3.716554e+00 3.128238e+00 3.568760e+00 3.269471e+00 2.746033e+00 2.354542e+00 3.558903e+00 2.672763e-01 4.515490e-01 3.477071e-01 6.102954e-01 6.030244e-01 5.511668e-01 6.720158e-01 5.879322e-01 6.145661e-01 5.861441e-01 4.817130e-01 4.391485e-01 4.522786e-01
<GCONST> 1.293711e+02
<TRANSP> 5
 0.000000e+00 1.000000e+00 0.000000e+00 0.000000e+00 0.000000e+00
 0.000000e+00 6.516802e-01 3.483198e-01 0.000000e+00 0.000000e+00
 0.000000e+00 0.000000e+00 6.494488e-01 3.505512e-01 0.000000e+00
 0.000000e+00 0.000000e+00 0.000000e+00 8.131996e-01 1.868004e-01
 0.000000e+00 0.000000e+00 0.000000e+00 0.000000e+00 0.000000e+00
<ENDHMM>
~h "an"
<BEGINHMM>
<NUMSTATES> 5
<STATE> 2
<MEAN> 39
 -7.920949e+00 -1.595918e+01 -4.160610e+00 -6.789366e+00 -3.602638e+00 -2.176767e+00 -2.320650e+00 1.943065e+00 -5.250863e+00 -5.973700e+00 -3.445029e+00 2.090184e+00 7.017229e+01 1.559070e-02 -5.067807e-01 -1.137792e-01 -1.426753e-01 -5.287519e-02 -8.861199e-02 -8.498957e-02 -5.909177e-02 -4.728326e-01 -3.286865e-01 -9.803517e-02 -2.312042e-02 1.530677e-01 -3.373367e-02 3.208000e-01 1.662840e-01 1.027451e-01 -5.711642e-02 -4.233143e-02 -4.391845e-02 -2.425746e-02 1.154591e-01 1.771709e-01 9.228566e-02 -5.269261e-02 -2.317287e-01
<VARIANCE> 39
 3.512534e+01 7.174854e+01 4.190030e+01 6.242571e+01 5.644794e+01 5.105845e+01 6.961379e+01 5.460880e+01 6.985927e+01 6.393575e+01 6.236359e+01 3.914758e+01 1.150410e+02 1.720320e+00 4.422551e+00 2.524214e+00 3.137644e+00 3.196330e+00 3.074786e+00 3.421192e+00 3.313125e+00 3.427527e+00 3.466096e+00 3.016129e+00 2.474918e+00 2.839973e+00 3.497682e-01 5.685111e-01 4.111561e-01 5.594789e-01 5.328693e-01 5.523660e-01 6.024241e-01 6.340356e-01 5.894315e-01 6.082506e-01 5.617280e-01 4.583898e-01 3.770117e-01
<GCONST> 1.302504e+02
<STATE> 3
<MEAN> 39
 -7.784681e+00 -1.581254e+01 -3.751149e+00 -6.900215e+00 -4.252888e+00 -2.809437e+00 -2.669539e+00 1.844108e+00 -5.966594e+00 -6.121070e+00 -3.410262e+00 1.844702e+00 6.961586e+01 6.841215e-02 2.907027e-01 2.499298e-01 -5.835269e-02 -2.958299e-01 -2.484786e-01 -1.628710e-01 -8.834255e-02 -1.576484e-01 5.871302e-02 2.737156e-02 -1.486910e-01 -3.716157e-01 1.806765e-02 2.786300e-01 1.245928e-01 4.110120e-02 -6.180796e-02 -3.535212e-02 -4.862796e-02 -3.956408e-02 1.171898e-01 1.373237e-01 4.165928e-02 -3.595460e-02 -1.903180e-01
<VARIANCE> 39
 3.462968e+01 7.031857e+01 4.171959e+01 5.989857e+01 5.712539e+01 5.151538e+01 7.070599e+01 5.719402e+01 7.309299e+01 6.294749e+01 6.042711e+01 3.948980e+01 1.165396e+02 1.392947e+00 3.597468e+00 2.260096e+00 2.705326e+00 2.864284e+00 2.767638e+00 3.204127e+00 3.245215e+00 3.143343e+00 3.106460e+00 2.668715e+00 2.302042e+00 2.837799e+00 2.615335e-01 4.621435e-01 3.566348e-01 4.608015e-01 4.657145e-01 4.924563e-01 5.670256e-01 6.150023e-01 5.458621e-01 5.572987e-01 4.852764e-01 4.203927e-01 3.388521e-01
<GCONST> 1.272251e+02
<STATE> 4
<MEAN> 39
 -8.239048e+00 -1.275880e+01 -2.028945e+00 -5.271759e+00 -4.422655e+00 -2.912718e+00 -2.124503e+00 2.230045e+00 -4.281089e+00 -4.133306e+00 -1.703394e+00 1.871443e+00 6.404500e+01 5.627029e-02 6.295381e-01 3.428790e-01 2.223636e-02 -2.495268e-01 -1.327030e-01 -1.736866e-01 -2.084863e-01 1.076313e-01 2.752902e-01 6.058211e-02 -1.504219e-01 -5.367138e-01 -1.187525e-02 9.661023e-02 3.197637e-02 2.678679e-02 2.264525e-02 3.015853e-02 -3.863192e-02 -5.440049e-02 5.040479e-02 5.305017e-02 7.286458e-03 -2.192672e-03 -4.093719e-02
<VARIANCE> 39
 3.595889e+01 6.495423e+01 4.002487e+01 5.933680e+01 6.070305e+01 5.240116e+01 6.534460e+01 5.580997e+01 7.673282e+01 6.353462e+01 5.869170e+01 3.849443e+01 1.399296e+02 1.350185e+00 2.901016e+00 2.077394e+00 2.575467e+00 2.704650e+00 2.747262e+00 3.150474e+00 3.293460e+00 3.202701e+00 3.083432e+00 2.581779e+00 2.253602e+00 3.108598e+00 2.422078e-01 3.780300e-01 3.274548e-01 4.229472e-01 4.449935e-01 4.772114e-01 5.476738e-01 6.048639e-01 5.557725e-01 5.454208e-01 4.608443e-01 4.081716e-01 3.714128e-01
<GCONST> 1.263244e+02
<TRANSP> 5
 0.000000e+00 1.000000e+00 0.000000e+00 0.000000e+00 0.000000e+00
 0.000000e+00 6.373928e-01 3.626072e-01 0.000000e+00 0.000000e+00
 0.000000e+00 0.000000e+00 6.326542e-01 3.673457e-01 0.000000e+00
 0.000000e+00 0.000000e+00 0.000000e+00 8.139163e-01 1.860837e-01
 0.000000e+00 0.000000e+00 0.000000e+00 0.000000e+00 0.000000e+00
<ENDHMM>
~h "ao"
<BEGINHMM>
<NUMSTATES> 5
<STATE> 2
<MEAN> 39
 -5.263634e+00 -1.479395e+01 -9.343952e+00 -1.193969e+01 1.883435e+00 2.351382e+00 -7.219245e+00 -1.742379e+00 -2.401085e+00 -4.165759e+00 -4.643107e+00 -1.058447e+00 7.227177e+01 3.440104e-01 -6.628792e-01 -9.445062e-01 -9.008358e-01 5.234629e-01 7.423515e-01 -4.350078e-01 -5.310585e-01 -2.055416e-01 -2.136683e-01 -2.195833e-01 -4.464080e-01 5.887186e-01 -5.648782e-02 2.498128e-01 1.752182e-01 1.256214e-01 -1.261419e-01 -5.083764e-02 5.479393e-02 -1.391534e-02 2.782093e-02 1.187339e-01 1.322201e-01 -9.409802e-03 -2.404965e-01
<VARIANCE> 39
